~o
<STREAMINFO> 1 39
<VECSIZE> 39<NULLD><MFCC_D_A_0><DIAGC>
~s "silst"
<MEAN> 39
 -2.002578e+00 9.244400e+00 4.600619e+00 3.249980e-01 1.196113e+00 6.070344e-01 6.835712e-01 9.070042e-01 1.171085e+00 -4.289379e-01 4.248656e-01 -6.773843e-01 3.671915e+01 -1.066566e-01 3.579102e-03 -5.016506e-02 4.779824e-02 1.392954e-02 -2.487472e-02 -3.692892e-02 -2.550005e-02 -4.947992e-03 1.596282e-02 2.714726e-02 -1.202372e-02 -1.220632e-01 -9.340923e-04 -3.513568e-02 9.519121e-03 -3.820740e-02 -1.410227e-02 -3.233121e-02 -3.438755e-02 -2.991998e-02 -5.298350e-02 -2.764628e-02 -3.215040e-02 -1.480491e-02 7.612376e-02
<VARIANCE> 39
 5.621860e+01 7.408064e+01 6.481821e+01 9.562053e+01 6.049548e+01 5.657086e+01 5.480392e+01 5.008425e+01 4.914367e+01 3.600889e+01 5.758591e+01 2.695450e+01 2.658269e+02 2.237194e+00 2.592087e+00 2.314184e+00 3.129044e+00 2.833982e+00 2.664105e+00 2.646528e+00 2.741223e+00 2.630443e+00 2.383868e+00 2.569609e+00 1.958500e+00 4.984552e+00 3.580279e-01 4.174158e-01 3.847587e-01 5.025513e-01 4.999610e-01 4.797978e-01 4.820749e-01 5.089008e-01 4.798635e-01 4.500161e-01 4.608459e-01 3.767788e-01 6.789643e-01
<GCONST> 1.279592e+02
~h "b"
<BEGINHMM>
<NUMSTATES> 5
<STATE> 2
<MEAN> 39
 2.440437e+00 9.532288e+00 7.819044e+00 2.685088e+00 1.663077e+00 -4.246894e-02 -4.251534e+00 -5.883421e+00 -5.203957e+00 -1.701243e+00 -3.567731e+00 -6.627838e+00 3.988131e+01 1.104904e+00 1.489847e-01 2.306502e-01 1.391132e-01 2.759555e-02 -6.059114e-02 -7.042008e-01 -8.565426e-01 -7.704726e-01 -6.010622e-01 -4.487994e-01 -6.578495e-01 1.186158e+00 -3.373388e-02 -2.804783e-01 -1.300914e-01 -2.047299e-01 -1.144371e-01 -1.549939e-01 -2.358923e-02 1.315585e-01 1.914003e-01 1.208875e-01 1.146880e-01 1.781990e-01 4.754799e-01
<VARIANCE> 39
 5.621860e+01 7.408064e+01 6.481821e+01 9.562053e+01 6.049548e+01 5.657086e+01 5.480392e+01 5.244071e+01 5.091903e+01 4.097488e+01 5.758591e+01 3.746609e+01 2.658269e+02 4.487916e+00 3.942985e+00 2.854899e+00 3.129044e+00 2.833982e+00 3.282640e+00 3.555907e+00 4.528757e+00 5.044594e+00 4.018878e+00 3.677543e+00 3.377828e+00 5.629429e+00 9.622105e-01 7.051592e-01 5.932177e-01 6.677662e-01 5.622321e-01 6.137182e-01 6.394206e-01 8.549821e-01 8.943557e-01 7.857632e-01 6.485369e-01 6.185711e-01 9.435952e-01
<GCONST> 1.387712e+02
<STATE> 3
<MEAN> 39
 6.013309e+00 1.421777e+00 5.245954e+00 -1.720634e+00 -2.425681e+00 -4.089911e+00 -9.344212e+00 -7.321004e+00 -2.143603e+00 3.719552e-01 -2.602943e+00 -5.827470e+00 5.846611e+01 -1.342078e-01 -1.424582e+00 -6.126055e-01 -1.740721e+00 -6.155775e-01 -6.160034e-01 -4.536883e-01 8.009844e-01 9.147673e-01 8.362077e-01 2.536054e-01 4.724308e-01 2.661040e+00 -7.516783e-02 2.402430e-02 -4.477838e-02 -3.712858e-01 8.593010e-02 1.072859e-01 5.972275e-02 1.586267e-01 -8.974189e-02 6.755305e-02 -1.390580e-01 1.823294e-02 -2.194362e-01
<VARIANCE> 39
 5.683824e+01 7.408064e+01 6.481821e+01 9.562053e+01 7.654207e+01 5.859611e+01 5.690192e+01 6.964906e+01 7.239809e+01 6.969698e+01 5.758591e+01 3.668248e+01 2.658269e+02 3.295288e+00 5.867695e+00 4.193771e+00 8.761930e+00 7.338851e+00 6.070495e+00 5.760695e+00 7.226341e+00 6.140713e+00 6.060135e+00 5.591502e+00 5.253946e+00 1.348392e+01 6.611011e-01 1.010903e+00 6.909460e-01 1.058549e+00 1.230889e+00 9.310117e-01 9.871378e-01 1.422828e+00 1.234324e+00 1.217056e+00 1.046076e+00 8.576991e-01 1.662044e+00
<GCONST> 1.514691e+02
<STATE> 4
<MEAN> 39
 3.361739e+00 -7.132629e+00 -1.746160e+00 -2.305947e+01 1.012464e+00 -6.861378e+00 -1.241758e+01 -1.081178e+00 -3.358658e+00 -1.288275e+00 -1.174559e+01 -4.261471e+00 7.268452e+01 -2.148969e-01 -5.071868e-01 -5.762130e-01 -9.847986e-01 5.322219e-01 4.611005e-01 5.231984e-01 3.235482e-01 -1.834769e-01 -2.264022e-01 -2.533485e-01 -9.386969e-02 2.739064e-01 1.050130e-03 1.671658e-01 1.081002e-01 3.597706e-01 -3.170330e-02 9.464224e-02 1.241199e-01 -1.373402e-01 -2.527857e-02 -3.702204e-02 1.390568e-01 -3.184284e-02 -2.784159e-01
<VARIANCE> 39
 5.621860e+01 8.290952e+01 6.481821e+01 1.140190e+02 6.925584e+01 1.213147e+02 7.111341e+01 5.008425e+01 5.813538e+01 5.638034e+01 9.458832e+01 6.109900e+01 2.658269e+02 2.237194e+00 2.592087e+00 2.314184e+00 5.330630e+00 2.833982e+00 2.668836e+00 2.646528e+00 3.531215e+00 2.760737e+00 3.307184e+00 3.692876e+00 2.532919e+00 4.984552e+00 3.580279e-01 4.174158e-01 3.847587e-01 5.247837e-01 4.999610e-01 4.853905e-01 4.820749e-01 6.211178e-01 5.604629e-01 5.204208e-01 5.536898e-01 4.570302e-01 6.789643e-01
<GCONST> 1.340521e+02
<TRANSP> 5
 0.000000e+00 1.000000e+00 0.000000e+00 0.000000e+00 0.000000e+00
 0.000000e+00 8.561493e-01 1.438507e-01 0.000000e+00 0.000000e+00
 0.000000e+00 0.000000e+00 8.194070e-01 1.805930e-01 0.000000e+00
 0.000000e+00 0.000000e+00 0.000000e+00 8.479906e-01 1.520094e-01
 0.000000e+00 0.000000e+00 0.000000e+00 0.000000e+00 0.000000e+00
<ENDHMM>
~h "d"
<BEGINHMM>
<NUMSTATES> 5
<STATE> 2
<MEAN> 39
 -1.960272e-01 -4.175885e+00 7.320063e+00 -8.795835e+00 -4.875302e+00 -5.202868e+00 -2.537673e+00 -2.874391e-01 -7.394308e+00 -4.575759e+00 -7.888681e+00 -3.379505e+00 5.945769e+01 4.821870e-01 -1.021614e+00 7.586629e-01 -9.800543e-01 -1.140071e+00 -7.315573e-01 -3.616531e-01 -4.219027e-01 -8.361733e-01 1.703348e-01 -5.008737e-01 -3.835702e-01 2.579000e+00 -9.173424e-02 1.439289e-01 7.846545e-02 -1.882887e-02 -9.835175e-02 9.215344e-04 -9.564301e-02 -7.963426e-02 7.539728e-02 2.854799e-01 8.152865e-02 9.311716e-02 -1.556859e-01
<VARIANCE> 39
 5.621860e+01 1.366352e+02 6.481821e+01 9.562053e+01 7.730154e+01 5.657086e+01 5.729052e+01 8.917850e+01 5.642620e+01 5.097699e+01 5.758591e+01 3.359433e+01 2.658269e+02 3.534795e+00 6.694681e+00 3.520987e+00 4.150156e+00 4.763683e+00 3.037940e+00 3.344982e+00 4.974228e+00 4.167654e+00 3.811979e+00 3.968113e+00 2.825598e+00 1.426513e+01 5.772226e-01 9.151890e-01 5.430497e-01 6.478851e-01 7.306803e-01 4.995131e-01 5.897695e-01 7.053727e-01 7.046329e-01 5.934243e-01 6.328249e-01 4.365154e-01 1.757559e+00
<GCONST> 1.414004e+02
<STATE> 3
<MEAN> 39
 5.085674e+00 -6.721676e+00 1.042374e+01 -7.601747e+00 -1.126695e+01 -4.004947e+00 -5.998912e+00 1.236214e+00 -6.138699e+00 -2.347786e-01 -8.983521e+00 -5.124035e+00 6.645470e+01 -6.911170e-02 4.764897e-01 3.529717e-01 -4.386001e-02 -9.069823e-02 -1.162266e-01 -3.550248e-01 -4.756111e-01 -2.701379e-02 3.688394e-01 4.688778e-02 -4.462983e-03 -2.009637e-01 -9.051431e-02 1.580543e-01 -3.815847e-02 4.654220e-02 1.988895e-01 -8.735019e-03 2.808046e-02 1.034915e-03 4.886930e-02 -9.000807e-02 6.524385e-02 7.643665e-02 -1.525993e-01
<VARIANCE> 39
 5.621860e+01 7.408064e+01 6.481821e+01 9.562053e+01 6.140906e+01 5.657086e+01 5.480392e+01 6.812513e+01 5.215022e+01 5.581706e+01 5.758591e+01 4.288635e+01 2.658269e+02 2.237194e+00 2.592087e+00 2.314184e+00 3.129044e+00 2.833982e+00 2.664105e+00 2.646528e+00 2.741223e+00 2.630443e+00 2.383868e+00 2.569609e+00 1.958500e+00 4.984552e+00 3.580279e-01 4.174158e-01 3.847587e-01 5.025513e-01 4.999610e-01 4.797978e-01 4.820749e-01 5.089008e-01 4.798635e-01 4.500161e-01 4.608459e-01 3.767788e-01 6.789643e-01
<GCONST> 1.292440e+02
<STATE> 4
<MEAN> 39
 -3.205423e+00 -3.075998e+00 1.249621e+01 -2.075763e+01 -7.636874e+00 -1.522681e+01 -7.972261e+00 -8.260497e+00 -1.297864e+01 -3.069719e+00 -1.641532e+01 -1.827095e-01 6.910075e+01 4.933684e-02 4.644290e-01 1.257807e-01 4.105867e-01 7.704346e-02 5.928302e-02 -9.428674e-02 -3.986439e-02 1.161621e-01 2.598275e-02 1.413479e-01 2.446298e-02 -5.322316e-01 -3.698186e-03 5.354910e-02 -7.249378e-02 1.588138e-01 5.894776e-02 1.158087e-01 6.894864e-02 7.903630e-02 7.938468e-02 -3.551078e-02 1.035966e-01 -1.800287e-02 -1.417032e-01
<VARIANCE> 39
 5.621860e+01 9.086482e+01 7.300667e+01 9.562053e+01 7.008424e+01 7.577161e+01 8.102182e+01 5.404429e+01 6.340014e+01 7.747141e+01 6.302950e+01 3.325863e+01 2.658269e+02 2.237194e+00 2.592087e+00 2.314184e+00 3.923984e+00 2.833982e+00 3.181930e+00 2.799628e+00 2.741223e+00 2.810845e+00 3.033607e+00 3.171402e+00 2.015528e+00 4.984552e+00 3.580279e-01 4.174158e-01 3.847587e-01 5.253999e-01 4.999610e-01 4.797978e-01 4.820749e-01 5.089008e-01 5.027313e-01 5.145515e-01 5.141542e-01 3.767788e-01 6.789643e-01
<GCONST> 1.318514e+02
<TRANSP> 5
 0.000000e+00 1.000000e+00 0.000000e+00 0.000000e+00 0.000000e+00
 0.000000e+00 6.027879e-01 3.972121e-01 0.000000e+00 0.000000e+00
 0.000000e+00 0.000000e+00 7.518367e-01 2.481633e-01 0.000000e+00
 0.000000e+00 0.000000e+00 0.000000e+00 8.983239e-01 1.016761e-01
 0.000000e+00 0.000000e+00 0.000000e+00 0.000000e+00 0.000000e+00
<ENDHMM>
~h "f"
<BEGINHMM>
<NUMSTATES> 5
<STATE> 2
<MEAN> 39
 1.046200e+01 -1.323608e+00 2.140726e+00 -1.379835e+01 -6.148429e+00 1.533245e+00 -1.239472e+01 -2.123750e+00 -5.400052e+00 1.259133e+00 7.424129e+00 -6.261909e+00 6.714737e+01 1.741545e-01 -1.080744e-01 -1.866522e-02 -7.125984e-01 2.170091e-01 -3.904220e-02 -2.167946e-01 1.188236e-01 -5.853186e-02 4.913935e-01 -1.365371e-01 -4.356582e-03 -1.402395e-01 -2.252258e-01 1.589188e-01 -3.579181e-03 3.651349e-01 1.676801e-01 -8.628459e-02 2.092764e-01 -1.080695e-02 8.178905e-02 -8.519415e-02 -2.227594e-01 3.324629e-02 -2.770918e-01
<VARIANCE> 39
 5.621860e+01 7.408064e+01 6.481821e+01 2.311145e+02 6.440285e+01 6.878532e+01 5.774733e+01 5.148093e+01 1.347719e+02 3.807691e+01 7.326736e+01 4.654492e+01 2.658269e+02 2.237194e+00 2.592087e+00 2.314184e+00 8.578794e+00 2.833982e+00 3.158760e+00 5.116816e+00 3.570308e+00 3.613195e+00 2.383868e+00 3.485039e+00 2.682029e+00 4.984552e+00 3.747030e-01 4.174158e-01 3.847587e-01 1.040481e+00 4.999610e-01 4.797978e-01 7.876099e-01 5.449164e-01 4.867769e-01 4.500161e-01 5.380783e-01 4.826915e-01 6.789643e-01
<GCONST> 1.358199e+02
<STATE> 3
<MEAN> 39
 6.931855e+00 3.873474e+00 1.973394e+00 -2.124561e+01 1.412236e+00 1.626556e+00 -5.354549e+00 -1.021347e+00 -7.308473e+00 3.736732e+00 -1.975251e+00 -2.587329e-01 6.003671e+01 -4.412221e-01 4.471343e-01 -2.796839e-02 1.046034e+00 5.134011e-01 -2.279742e-01 8.101605e-01 1.857413e-01 4.265341e-01 7.473667e-02 -5.494267e-01 1.425311e-01 -1.013642e+00 -1.329210e-02 -3.383187e-02 -3.978854e-02 1.450125e-01 -1.473829e-01 8.101176e-02 -9.061005e-02 -3.310245e-02 3.899893e-02 -6.853582e-02 1.982773e-01 -4.208399e-02 -1.436642e-01
<VARIANCE> 39
 5.621860e+01 7.408064e+01 6.481821e+01 1.382337e+02 1.059338e+02 5.657086e+01 6.324854e+01 5.008425e+01 4.996315e+01 5.442204e+01 5.758591e+01 3.506689e+01 2.658269e+02 2.237194e+00 2.821257e+00 2.314184e+00 3.530017e+00 2.833982e+00 2.664105e+00 2.646528e+00 2.741223e+00 2.630443e+00 2.383868e+00 2.569609e+00 1.958500e+00 4.984552e+00 3.596045e-01 4.994988e-01 3.847587e-01 5.025513e-01 4.999610e-01 4.797978e-01 4.820749e-01 5.089008e-01 4.798635e-01 4.500161e-01 4.608459e-01 3.767788e-01 6.789643e-01
<GCONST> 1.301132e+02
<STATE> 4
<MEAN> 39
 1.547035e+00 4.584748e+00 -4.512288e-02 -4.090637e+00 4.614158e+00 6.637507e+00 3.243115e+00 -2.197006e+00 -3.366935e+00 -1.826856e+00 -1.880800e+00 2.107142e+00 4.594552e+01 -3.830121e-01 2.363754e-01 -1.426553e-01 5.137159e-01 -2.025472e-01 1.243140e-01 2.149589e-02 8.000755e-02 2.508665e-01 -4.400640e-01 1.155787e-01 2.084741e-01 -6.861657e-01 -2.934527e-02 -7.493758e-02 -1.248849e-02 -1.618661e-01 -1.547889e-02 -3.282816e-02 -9.229522e-02 -6.346557e-02 -3.730565e-02 1.367096e-02 4.716707e-02 -2.844756e-02 9.439260e-02
<VARIANCE> 39
 5.621860e+01 7.408064e+01 6.481821e+01 9.562053e+01 6.049548e+01 5.657086e+01 5.480392e+01 5.008425e+01 4.914367e+01 4.408392e+01 5.758591e+01 2.759061e+01 2.658269e+02 2.237194e+00 2.592087e+00 2.314184e+00 3.129044e+00 2.833982e+00 2.664105e+00 2.646528e+00 2.741223e+00 2.630443e+00 2.470951e+00 2.569609e+00 1.958500e+00 4.984552e+00 3.580279e-01 4.174158e-01 3.847587e-01 5.025513e-01 4.999610e-01 4.797978e-01 4.820749e-01 5.089008e-01 4.798635e-01 4.500161e-01 4.608459e-01 3.811414e-01 6.789643e-01
<GCONST> 1.282323e+02
<TRANSP> 5
 0.000000e+00 1.000000e+00 0.000000e+00 0.000000e+00 0.000000e+00
 0.000000e+00 8.639135e-01 1.360865e-01 0.000000e+00 0.000000e+00
 0.000000e+00 0.000000e+00 7.203213e-01 2.796787e-01 0.000000e+00
 0.000000e+00 0.000000e+00 0.000000e+00 7.584050e-01 2.415949e-01
 0.000000e+00 0.000000e+00 0.000000e+00 0.000000e+00 0.000000e+00
<ENDHMM>
~h "g"
<BEGINHMM>
<NUMSTATES> 5
<STATE> 2
<MEAN> 39
 -5.332918e+00 3.884607e+00 2.389364e+00 -3.450530e+00 -4.637188e+00 -5.724740e+00 -2.338789e+00 5.625204e-01 1.193855e+00 -7.253304e-01 -9.221822e-01 6.027481e-02 4.201190e+01 -1.107329e+00 2.256125e-03 -3.299435e-01 4.484601e-01 1.119045e+00 9.373920e-01 1.230553e-02 3.412948e-02 -3.483550e-02 6.109503e-02 4.776908e-01 -2.745570e-01 -4.122656e-01 1.367830e-01 -3.342987e-01 1.607633e-01 -4.995769e-02 9.529978e-02 -6.119074e-02 -1.341713e-01 -1.112889e-01 -3.601719e-01 -1.882143e-01 -3.107097e-01 -1.990103e-01 9.261281e-01
<VARIANCE> 39
 5.621860e+01 7.408064e+01 6.481821e+01 9.562053e+01 6.049548e+01 5.657086e+01 5.480392e+01 5.008425e+01 4.914367e+01 3.600889e+01 5.758591e+01 2.766719e+01 2.658269e+02 4.069093e+00 6.672565e+00 4.823535e+00 5.758128e+00 6.436608e+00 5.488185e+00 3.415512e+00 3.192814e+00 4.872405e+00 4.043690e+00 3.733988e+00 3.288050e+00 2.589954e+01 7.128370e-01 1.077578e+00 9.898319e-01 1.271477e+00 1.310678e+00 1.098039e+00 6.989673e-01 7.173686e-01 9.119325e-01 9.095199e-01 6.318730e-01 6.725024e-01 3.448679e+00
<GCONST> 1.463912e+02
<STATE> 3
<MEAN> 39
 -7.005665e+00 -1.392871e-02 3.523698e+00 7.947462e-01 2.566034e+00 -8.710777e-01 -5.025638e+00 -1.424253e+00 -2.773421e+00 -2.718113e+00 -2.952240e+00 -4.378876e+00 5.222997e+01 2.284088e+00 -6.999071e-02 7.609609e-01 1.002069e+00 -7.033749e-01 4.260451e-02 -1.538016e+00 -1.707115e+00 -1.351773e+00 -8.313001e-01 -1.407061e+00 -1.401105e+00 2.090841e+00 8.048156e-01 4.876871e-01 2.299064e-01 -9.218122e-02 -8.668773e-01 -4.138398e-01 -1.217491e-01 -5.206104e-01 -4.555625e-02 2.000128e-01 -1.897771e-01 7.422689e-03 -6.274092e-01
<VARIANCE> 39
 6.843283e+01 1.050338e+02 7.734205e+01 9.562053e+01 6.511829e+01 7.342339e+01 7.328937e+01 5.796881e+01 4.914367e+01 3.600889e+01 5.758591e+01 2.695450e+01 2.658269e+02 8.677601e+00 1.299497e+01 1.144493e+01 6.317413e+00 1.078970e+01 9.896815e+00 7.018544e+00 7.869126e+00 4.450185e+00 5.500711e+00 5.206675e+00 3.342639e+00 2.135190e+01 1.646971e+00 2.423452e+00 2.510972e+00 1.185801e+00 1.985450e+00 2.124557e+00 1.465868e+00 1.471374e+00 8.508036e-01 9.175472e-01 8.934327e-01 5.067099e-01 3.524485e+00
<GCONST> 1.584086e+02
<STATE> 4
<MEAN> 39
 3.877635e+00 2.112888e+00 6.425934e+00 4.630456e-01 -4.328712e+00 -5.573123e+00 -9.578883e+00 -9.743201e+00 -6.512990e+00 -4.491502e+00 -7.819904e+00 -8.842025e+00 5.648937e+01 6.712716e-01 -6.933903e-01 -1.876161e-01 -3.649755e-02 -6.303468e-01 -3.909076e-01 -4.511079e-01 -6.620634e-01 3.665556e-02 4.890110e-01 1.235818e-01 9.276070e-02 1.516190e+00 -2.550432e-01 -1.741112e-01 -2.169276e-01 -1.537825e-01 6.605428e-02 1.568502e-01 2.428062e-02 1.859695e-01 2.229815e-01 1.345032e-01 2.434169e-01 2.657701e-01 1.033633e-02
<VARIANCE> 39
 5.621860e+01 1.021982e+02 6.481821e+01 9.562053e+01 7.324609e+01 9.013966e+01 5.480392e+01 5.483792e+01 4.914367e+01 5.232753e+01 8.826311e+01 2.742830e+01 2.658269e+02 4.833496e+00 9.903885e+00 7.370230e+00 3.660615e+00 1.087432e+01 1.036140e+01 3.747288e+00 7.328082e+00 4.739944e+00 3.757672e+00 5.940830e+00 3.765742e+00 8.421753e+00 8.319065e-01 1.967926e+00 1.473811e+00 6.903981e-01 1.927285e+00 2.123054e+00 8.460375e-01 1.307421e+00 9.627885e-01 7.814425e-01 1.069352e+00 7.606364e-01 1.587112e+00
<GCONST> 1.524059e+02
<TRANSP> 5
 0.000000e+00 1.000000e+00 0.000000e+00 0.000000e+00 0.000000e+00
 0.000000e+00 8.246731e-01 1.753268e-01 0.000000e+00 0.000000e+00
 0.000000e+00 0.000000e+00 7.330620e-01 2.669380e-01 0.000000e+00
 0.000000e+00 0.000000e+00 0.000000e+00 8.702450e-01 1.297550e-01
 0.000000e+00 0.000000e+00 0.000000e+00 0.000000e+00 0.000000e+00
<ENDHMM>
~h "k"
<BEGINHMM>
<NUMSTATES> 5
<STATE> 2
<MEAN> 39
 -4.883959e+00 2.103567e+00 3.773552e+00 -1.938351e+00 4.142715e+00 -1.848746e+00 -1.680956e+00 5.979749e-01 2.210781e-01 -1.119287e+00 -3.011647e+00 -2.687609e+00 4.814436e+01 -5.810164e-01 -1.241908e-02 -3.942518e-01 2.893379e-01 4.868164e-01 1.102389e-01 5.425764e-01 2.277943e-01 3.190810e-01 2.487645e-01 4.858742e-01 1.505024e-01 -6.818730e-01 2.310206e-01 9.299273e-02 -7.604708e-02 -1.257114e-01 -2.619186e-01 2.537897e-03 3.539850e-02 -9.113404e-02 -7.918728e-02 -5.810294e-03 -3.164142e-03 7.377169e-02 -7.921234e-02
<VARIANCE> 39
 7.119095e+01 7.408064e+01 6.481821e+01 9.562053e+01 7.299245e+01 5.657086e+01 5.480392e+01 5.008425e+01 4.914367e+01 6.065305e+01 5.758591e+01 4.155068e+01 2.658269e+02 6.043451e+00 4.567146e+00 5.271896e+00 4.036489e+00 6.175389e+00 4.234881e+00 4.767968e+00 3.845376e+00 4.258062e+00 4.046024e+00 4.944068e+00 3.465026e+00 7.441895e+00 9.710667e-01 9.255501e-01 9.683428e-01 7.913451e-01 1.092315e+00 8.761513e-01 8.107045e-01 7.401667e-01 8.328667e-01 7.534167e-01 7.840812e-01 6.918139e-01 1.059299e+00
<GCONST> 1.448813e+02
<STATE> 3
<MEAN> 39
 -3.735205e+00 1.976570e+00 2.427709e+00 -1.507421e+00 4.697604e+00 -2.270869e+00 2.077983e+00 1.885239e+00 3.802682e-01 -5.983639e-01 -1.893423e+00 -1.238775e+00 4.686077e+01 2.374285e-01 5.378119e-01 -2.317947e-01 8.527283e-02 -2.332173e-01 1.608040e-01 2.637689e-01 -1.915464e-01 -1.676958e-01 -2.000062e-01 3.919759e-01 1.806605e-01 -1.091972e+00 7.999428e-02 1.181934e-01 1.346529e-01 -6.644502e-02 -1.684922e-01 -2.480885e-02 -2.052030e-01 -1.499122e-01 -1.879601e-01 -6.895557e-02 -9.673464e-02 -4.424141e-02 9.417430e-02
<VARIANCE> 39
 5.753636e+01 7.408064e+01 6.481821e+01 9.562053e+01 6.697314e+01 5.657086e+01 5.480392e+01 5.008425e+01 4.914367e+01 4.364771e+01 5.758591e+01 2.789132e+01 2.658269e+02 2.237194e+00 2.592087e+00 2.314184e+00 3.129044e+00 2.888020e+00 2.664105e+00 2.646528e+00 2.741223e+00 2.671000e+00 2.512972e+00 2.740315e+00 2.256057e+00 4.984552e+00 3.580279e-01 4.174158e-01 3.847587e-01 5.025513e-01 5.121797e-01 4.797978e-01 4.820749e-01 5.089008e-01 5.543634e-01 4.893738e-01 5.208937e-01 4.669689e-01 6.789643e-01
<GCONST> 1.291927e+02
<STATE> 4
<MEAN> 39
 -5.027837e+00 4.820252e+00 8.853608e-01 -1.024246e+00 6.322860e-01 -1.581536e+00 -4.894233e-01 6.385719e-01 -3.793015e-01 -1.706401e+00 4.027091e-01 -1.037610e+00 3.641727e+01 -2.530741e-03 5.014295e-02 5.350331e-02 -3.407963e-03 -3.557836e-02 1.691850e-02 -2.480405e-02 -2.990013e-02 -3.191945e-02 4.135144e-03 6.229803e-03 6.941533e-03 -7.576579e-02 6.850193e-03 -3.682241e-02 -5.154431e-03 -7.613943e-03 3.486174e-02 -4.653646e-03 -1.549678e-02 7.570066e-03 -8.211480e-03 8.094890e-03 -2.373115e-02 -1.306837e-02 8.917803e-02
<VARIANCE> 39
 5.621860e+01 7.408064e+01 6.481821e+01 9.562053e+01 6.049548e+01 5.657086e+01 5.480392e+01 5.008425e+01 4.914367e+01 3.600889e+01 5.758591e+01 2.695450e+01 2.658269e+02 2.237194e+00 2.592087e+00 2.314184e+00 3.129044e+00 2.833982e+00 2.664105e+00 2.646528e+00 2.741223e+00 2.630443e+00 2.383868e+00 2.569609e+00 1.958500e+00 4.984552e+00 3.580279e-01 4.174158e-01 3.847587e-01 5.025513e-01 4.999610e-01 4.797978e-01 4.820749e-01 5.089008e-01 4.798635e-01 4.500161e-01 4.608459e-01 3.767788e-01 6.789643e-01
<GCONST> 1.279592e+02
<TRANSP> 5
 0.000000e+00 1.000000e+00 0.000000e+00 0.000000e+00 0.000000e+00
 0.000000e+00 6.956522e-01 3.043478e-01 0.000000e+00 0.000000e+00
 0.000000e+00 0.000000e+00 4.835367e-01 5.164632e-01 0.000000e+00
 0.000000e+00 0.000000e+00 0.000000e+00 9.440495e-01 5.595057e-02
 0.000000e+00 0.000000e+00 0.000000e+00 0.000000e+00 0.000000e+00
<ENDHMM>
~h "l"
<BEGINHMM>
<NUMSTATES> 5
<STATE> 2
<MEAN> 39
 4.682182e+00 -1.540143e+00 2.739439e+00 -1.438567e+01 -6.400501e-01 -1.991317e+00 -8.945636e+00 -2.831350e+00 -3.872160e+00 -9.673427e-01 -5.547537e+00 -4.398555e+00 6.226167e+01 -2.808013e-01 5.259207e-01 9.868409e-02 1.056499e+00 3.065038e-01 2.284365e-01 6.751750e-01 3.140220e-01 1.406629e-02 5.073900e-02 3.010493e-01 -1.125835e-01 -8.383217e-01 -6.086238e-02 6.983183e-02 -1.027054e-02 6.901118e-02 -1.283328e-02 -4.571917e-03 1.131957e-01 -3.516743e-02 -1.583317e-02 1.141803e-01 9.423731e-02 3.389920e-02 -6.013887e-02
<VARIANCE> 39
 5.621860e+01 8.003755e+01 8.817950e+01 1.283738e+02 7.327670e+01 7.744362e+01 6.957102e+01 6.139072e+01 8.059955e+01 7.024971e+01 5.758591e+01 7.203613e+01 2.658269e+02 2.237194e+00 2.592087e+00 2.932669e+00 6.025990e+00 2.833982e+00 2.664105e+00 3.565480e+00 3.227444e+00 3.038586e+00 3.072678e+00 2.684043e+00 2.624308e+00 4.984552e+00 3.580279e-01 4.174158e-01 4.820939e-01 5.236419e-01 4.999610e-01 4.797978e-01 6.046400e-01 5.089008e-01 5.248907e-01 5.555313e-01 4.608459e-01 4.442152e-01 6.789643e-01
<GCONST> 1.347788e+02
<STATE> 3
<MEAN> 39
 3.540849e+00 8.890361e-01 8.024222e+00 -9.790137e+00 -3.253007e+00 -4.632016e-01 -8.660559e+00 -1.749464e+00 -7.196910e+00 2.317384e+00 -2.100091e+00 -5.776096e+00 5.987625e+01 -1.735694e-01 5.277780e-01 4.871920e-03 6.977462e-01 3.153793e-01 -3.510440e-02 3.149248e-01 -1.108417e-02 -1.349317e-01 2.081851e-01 3.293436e-01 8.981182e-02 -7.473965e-01 -6.687068e-02 3.692973e-02 8.575428e-03 2.056292e-02 -3.793624e-02 -9.218433e-02 2.436629e-02 -3.556201e-02 3.448449e-03 -8.151318e-02 -2.689972e-02 8.728798e-02 -9.247030e-03
<VARIANCE> 39
 5.621860e+01 7.408064e+01 1.304316e+02 9.764297e+01 1.043240e+02 6.274370e+01 6.824637e+01 5.008425e+01 7.478484e+01 6.073468e+01 6.368848e+01 4.894666e+01 2.658269e+02 2.237194e+00 2.592087e+00 2.991220e+00 3.800241e+00 3.466935e+00 2.664105e+00 3.076165e+00 3.039714e+00 2.843057e+00 2.698060e+00 2.569609e+00 2.153949e+00 4.984552e+00 3.580279e-01 4.174158e-01 4.794848e-01 5.822053e-01 6.126939e-01 4.797978e-01 5.456489e-01 5.644682e-01 5.249002e-01 5.042471e-01 4.608459e-01 3.948150e-01 6.789643e-01
<GCONST> 1.334386e+02
<STATE> 4
<MEAN> 39
 -3.349800e+00 4.426822e+00 2.395511e+00 -2.803439e+00 2.296699e-01 -1.527164e+00 -3.815430e-01 -9.874768e-01 -2.745159e+00 -1.684236e+00 -1.024138e+00 -1.682663e+00 4.076662e+01 -2.622476e-02 1.718466e-01 7.347061e-02 2.847864e-01 1.266298e-02 -5.729578e-03 1.126554e-01 -1.682543e-02 6.534092e-03 -9.794530e-02 4.119559e-02 4.036995e-02 -2.085323e-01 1.069358e-03 3.081658e-03 5.205306e-02 -4.747677e-02 -5.551358e-02 1.786479e-02 -3.893305e-02 -2.446194e-02 -2.721335e-02 2.149573e-02 -4.318713e-03 -1.234580e-03 6.876060e-02
<VARIANCE> 39
 6.098763e+01 7.408064e+01 6.481821e+01 9.562053e+01 6.049548e+01 5.657086e+01 5.480392e+01 5.008425e+01 4.914367e+01 3.600889e+01 5.758591e+01 2.695450e+01 2.658269e+02 2.237194e+00 2.592087e+00 2.314184e+00 3.129044e+00 2.833982e+00 2.664105e+00 2.646528e+00 2.741223e+00 2.630443e+00 2.383868e+00 2.569609e+00 1.958500e+00 4.984552e+00 3.580279e-01 4.174158e-01 3.847587e-01 5.025513e-01 4.999610e-01 4.797978e-01 4.820749e-01 5.089008e-01 4.798635e-01 4.500161e-01 4.608459e-01 3.767788e-01 6.789643e-01
<GCONST> 1.280406e+02
<TRANSP> 5
 0.000000e+00 1.000000e+00 0.000000e+00 0.000000e+00 0.000000e+00
 0.000000e+00 6.109781e-01 3.890219e-01 0.000000e+00 0.000000e+00
 0.000000e+00 0.000000e+00 6.153900e-01 3.846100e-01 0.000000e+00
 0.000000e+00 0.000000e+00 0.000000e+00 8.589396e-01 1.410603e-01
 0.000000e+00 0.000000e+00 0.000000e+00 0.000000e+00 0.000000e+00
<ENDHMM>
~h "m"
<BEGINHMM>
<NUMSTATES> 5
<STATE> 2
<MEAN> 39
 -8.292021e+00 5.453644e+00 4.998620e+00 -1.745722e+00 2.342537e+00 -1.660236e+00 -8.711319e-01 -6.307386e-01 -9.933550e-01 -1.768716e+00 -2.107537e+00 -2.620384e+00 5.282838e+01 9.579832e-01 -7.751946e-01 7.403390e-01 -7.143223e-01 -2.892661e-01 -6.612121e-01 -9.187732e-01 -4.220287e-01 -8.011704e-01 -1.984040e-01 -5.083547e-01 -2.267507e-01 2.195655e+00 4.754419e-01 -2.715390e-01 1.423210e-01 -3.151807e-01 -4.411731e-01 -3.300004e-01 -3.454945e-01 -2.624213e-01 -2.758583e-01 -3.110887e-02 -3.324990e-01 -7.629259e-02 2.876236e-01
<VARIANCE> 39
 7.915969e+01 7.408064e+01 6.481821e+01 9.562053e+01 6.049548e+01 5.657086e+01 5.480392e+01 5.251571e+01 4.914367e+01 3.600889e+01 5.758591e+01 3.097412e+01 2.658269e+02 8.734969e+00 5.984204e+00 5.208836e+00 5.283833e+00 6.545625e+00 4.124015e+00 5.097513e+00 5.483456e+00 4.604411e+00 3.978553e+00 4.581158e+00 3.146939e+00 1.588623e+01 1.296031e+00 1.087110e+00 9.483963e-01 9.815165e-01 1.147588e+00 7.790395e-01 9.603235e-01 9.250565e-01 8.154012e-01 7.546468e-01 7.384965e-01 6.682106e-01 2.220923e+00
<GCONST> 1.476227e+02
<STATE> 3
<MEAN> 39
 4.054592e+00 3.064800e-01 9.823566e+00 -2.741851e+00 -4.715725e+00 -2.289422e+00 -9.161562e+00 -2.936229e+00 -6.453353e+00 -1.448923e+00 -4.131978e+00 -6.442231e+00 6.072598e+01 1.141102e+00 -1.247023e+00 1.532550e-01 -1.190220e+00 -9.908724e-01 -8.938831e-01 -9.092039e-01 -1.894383e-01 -7.759814e-01 -4.788813e-02 -9.251118e-01 -1.385711e-01 1.385152e+00 -3.693768e-01 -7.125371e-02 -2.071266e-01 -1.242207e-01 2.282420e-01 6.314518e-02 3.839494e-01 2.675936e-01 2.208744e-01 2.944799e-02 1.423614e-02 1.424608e-01 2.181967e-02
<VARIANCE> 39
 5.751155e+01 7.408064e+01 6.481821e+01 9.562053e+01 6.334953e+01 7.141521e+01 5.480392e+01 8.862636e+01 4.914367e+01 4.214818e+01 6.061502e+01 5.005793e+01 2.658269e+02 5.258753e+00 5.008607e+00 5.278168e+00 8.055614e+00 5.659338e+00 4.723901e+00 5.469170e+00 7.509024e+00 4.431954e+00 3.148770e+00 5.813689e+00 5.397461e+00 4.984552e+00 7.218171e-01 7.613669e-01 7.032316e-01 9.229858e-01 8.866750e-01 5.058433e-01 6.584281e-01 1.123736e+00 6.829534e-01 5.719018e-01 8.924661e-01 7.516783e-01 6.834045e-01
<GCONST> 1.447648e+02
<STATE> 4
<MEAN> 39
 2.015399e+00 -7.900697e+00 7.316263e+00 -1.643719e+01 -2.121252e-01 -1.173202e+01 -6.765836e+00 -4.792836e+00 -9.362247e+00 -3.951803e+00 -1.260177e+01 -3.236789e+00 6.946349e+01 -1.516699e-01 1.314726e-01 -1.644853e-01 6.864703e-02 1.224972e-01 5.566241e-02 2.615075e-01 1.625195e-01 1.453263e-01 -1.693734e-01 8.032873e-02 1.234025e-01 -1.209377e-02 -1.345262e-01 2.493014e-01 -4.411871e-02 2.682144e-01 6.721886e-02 1.498309e-01 5.509104e-02 2.620660e-02 1.134366e-01 1.267373e-02 1.788568e-01 -1.775075e-02 -2.100135e-01
<VARIANCE> 39
 5.621860e+01 7.408064e+01 6.481821e+01 1.039115e+02 1.135290e+02 8.169821e+01 5.480392e+01 6.365290e+01 4.914367e+01 6.456004e+01 5.758591e+01 4.455362e+01 2.658269e+02 2.237194e+00 3.865444e+00 2.693599e+00 5.704096e+00 2.833982e+00 2.990340e+00 2.704015e+00 3.503466e+00 2.630443e+00 3.200351e+00 3.088166e+00 3.392916e+00 4.984552e+00 3.580279e-01 4.503450e-01 4.362675e-01 7.081525e-01 4.999610e-01 5.230913e-01 4.820749e-01 6.471635e-01 4.798635e-01 5.614682e-01 4.940317e-01 5.872216e-01 6.789643e-01
<GCONST> 1.345335e+02
<TRANSP> 5
 0.000000e+00 1.000000e+00 0.000000e+00 0.000000e+00 0.000000e+00
 0.000000e+00 7.246823e-01 2.753176e-01 0.000000e+00 0.000000e+00
 0.000000e+00 0.000000e+00 7.580104e-01 2.419896e-01 0.000000e+00
 0.000000e+00 0.000000e+00 0.000000e+00 9.121412e-01 8.785882e-02
 0.000000e+00 0.000000e+00 0.000000e+00 0.000000e+00 0.000000e+00
<ENDHMM>
~h "n"
<BEGINHMM>
<NUMSTATES> 5
<STATE> 2
<MEAN> 39
 -1.212041e+00 -4.269946e+00 3.287070e+00 -6.270676e+00 -3.310151e+00 -5.758272e+00 -3.203398e+00 3.773796e+00 -2.125243e+00 -2.872606e+00 -4.909266e+00 -3.222007e-02 5.792891e+01 2.349031e-01 -8.932927e-01 -1.251220e-01 -3.027389e-01 -2.258778e-02 5.516546e-01 2.077188e-01 3.076317e-01 -5.509161e-01 -3.587833e-01 -3.733277e-03 -3.322085e-01 3.332860e-01 -1.702981e-01 3.480577e-01 -1.445823e-02 1.847688e-01 1.801930e-01 1.496771e-01 1.275185e-01 -2.775168e-01 -1.715874e-02 -5.444691e-02 1.541622e-01 -7.432716e-02 -8.899999e-02
<VARIANCE> 39
 5.621860e+01 7.408064e+01 6.481821e+01 9.562053e+01 8.297440e+01 5.657086e+01 5.480392e+01 5.401795e+01 5.238769e+01 3.600889e+01 6.657744e+01 2.837026e+01 2.849352e+02 2.762652e+00 3.295921e+00 2.314184e+00 3.167914e+00 3.151810e+00 2.664105e+00 2.987419e+00 3.139197e+00 2.977394e+00 2.533346e+00 2.569609e+00 2.086300e+00 5.187274e+00 5.484357e-01 7.334875e-01 3.847587e-01 7.733463e-01 6.628612e-01 4.797978e-01 4.999230e-01 5.408115e-01 4.798635e-01 4.500161e-01 5.932424e-01 4.221942e-01 8.626459e-01
<GCONST> 1.322010e+02
<STATE> 3
<MEAN> 39
 5.163486e+00 -8.684261e+00 6.199878e+00 -7.694136e+00 -8.011548e+00 -3.955499e+00 -4.459701e+00 6.046907e+00 -6.214776e+00 -3.166189e+00 -7.513422e+00 -3.490828e+00 6.723474e+01 -1.175849e-01 2.635517e-01 2.010688e-01 1.299997e-01 1.725495e-01 2.261495e-01 1.590098e-01 -1.076820e-01 -1.363084e-01 -1.322037e-01 1.321915e-01 5.626462e-03 -4.282449e-01 -4.758520e-02 1.644157e-01 1.465699e-02 9.557775e-02 6.163142e-02 -5.427323e-02 -5.047062e-03 -1.034559e-01 9.048638e-02 6.506228e-02 5.342994e-02 3.634089e-02 -1.218635e-01
<VARIANCE> 39
 5.621860e+01 7.408064e+01 6.481821e+01 9.562053e+01 8.600071e+01 5.657086e+01 5.480392e+01 7.634160e+01 6.027827e+01 3.799363e+01 5.758591e+01 3.441988e+01 2.658269e+02 2.237194e+00 2.592087e+00 2.314184e+00 3.129044e+00 2.833982e+00 2.664105e+00 2.646528e+00 2.764750e+00 2.630443e+00 2.383868e+00 2.569609e+00 1.958500e+00 4.984552e+00 3.580279e-01 4.174158e-01 3.847587e-01 5.025513e-01 4.999610e-01 4.797978e-01 4.820749e-01 5.089008e-01 4.798635e-01 4.500161e-01 4.608459e-01 3.767788e-01 6.789643e-01
<GCONST> 1.292434e+02
<STATE> 4
<MEAN> 39
 -3.164608e+00 3.978801e+00 1.995422e+00 -1.803697e+00 -1.225120e-01 -9.290516e-01 4.767907e-01 5.788909e-01 -2.148411e+00 -2.458311e+00 1.923109e-01 -7.301515e-01 3.979097e+01 -7.066101e-02 9.410024e-02 4.939727e-02 4.738685e-02 3.918866e-02 4.437530e-02 1.960553e-02 -1.129697e-01 1.013952e-02 3.943886e-02 2.008192e-02 -2.238225e-03 -1.047241e-01 3.097343e-02 -2.331408e-02 3.772735e-02 -3.573931e-02 -2.638907e-02 -3.159929e-02 -3.161792e-02 -3.085326e-02 -7.889988e-03 1.563207e-02 -4.515547e-02 -1.547861e-02 5.301549e-02
<VARIANCE> 39
 5.621860e+01 7.408064e+01 6.481821e+01 9.562053e+01 6.049548e+01 5.657086e+01 5.480392e+01 5.008425e+01 4.914367e+01 3.600889e+01 5.758591e+01 2.695450e+01 2.658269e+02 2.237194e+00 2.592087e+00 2.314184e+00 3.129044e+00 2.833982e+00 2.664105e+00 2.646528e+00 2.741223e+00 2.630443e+00 2.383868e+00 2.569609e+00 1.958500e+00 4.984552e+00 3.580279e-01 4.174158e-01 3.847587e-01 5.025513e-01 4.999610e-01 4.797978e-01 4.820749e-01 5.089008e-01 4.798635e-01 4.500161e-01 4.608459e-01 3.767788e-01 6.789643e-01
<GCONST> 1.279592e+02
<TRANSP> 5
 0.000000e+00 1.000000e+00 0.000000e+00 0.000000e+00 0.000000e+00
 0.000000e+00 5.137030e-01 4.862969e-01 0.000000e+00 0.000000e+00
 0.000000e+00 0.000000e+00 8.479457e-01 1.520543e-01 0.000000e+00
 0.000000e+00 0.000000e+00 0.000000e+00 9.304241e-01 6.957593e-02
 0.000000e+00 0.000000e+00 0.000000e+00 0.000000e+00 0.000000e+00
<ENDHMM>
~h "p"
<BEGINHMM>
<NUMSTATES> 5
<STATE> 2
<MEAN> 39
 -3.845520e+00 -2.764343e+00 5.277073e-01 -9.065722e+00 1.879763e-01 -5.772955e+00 -3.244331e+00 -3.610718e+00 -1.910719e+00 -3.768531e+00 -5.362011e+00 -3.790730e+00 6.126311e+01 6.325653e-01 -4.463035e-01 9.135000e-03 -6.211070e-01 1.637307e-01 -3.709770e-01 -4.329981e-01 -1.611619e-01 -1.021367e-01 -1.082017e-01 -5.583226e-01 -3.233188e-01 1.452599e+00 8.348908e-03 1.698518e-01 1.019893e-01 1.671803e-01 8.542092e-02 1.123036e-01 7.695398e-03 8.083802e-02 6.222553e-02 2.714551e-02 4.615153e-02 9.156080e-02 -3.447016e-01
<VARIANCE> 39
 7.197459e+01 1.028438e+02 6.481821e+01 1.298938e+02 8.185987e+01 9.399519e+01 9.547321e+01 8.613000e+01 7.225386e+01 7.119938e+01 6.983476e+01 4.189068e+01 2.658269e+02 5.546474e+00 8.060209e+00 3.106164e+00 9.614542e+00 6.375550e+00 7.691257e+00 7.004756e+00 7.979035e+00 7.611052e+00 6.864354e+00 4.588826e+00 4.358445e+00 1.577038e+01 9.137263e-01 1.261680e+00 4.693085e-01 1.495651e+00 1.034303e+00 1.332316e+00 1.289016e+00 1.419107e+00 1.448580e+00 1.167892e+00 7.573895e-01 8.836406e-01 2.626371e+00
<GCONST> 1.563229e+02
<STATE> 3
<MEAN> 39
 -3.934031e+00 4.558412e+00 3.103856e+00 -2.698024e+00 2.915092e+00 -7.249842e-01 -3.460773e+00 -1.185540e+00 6.456872e-01 -4.702318e-01 -1.525791e+00 -2.788030e+00 5.133675e+01 4.095797e-02 2.745634e-01 4.830849e-01 4.385086e-01 1.757726e-01 2.581955e-01 1.557818e-02 8.051486e-02 -1.810311e-01 -1.792581e-01 4.200287e-02 1.641626e-01 -4.659716e-01 1.089985e-01 -3.153673e-01 -4.997351e-02 -2.711926e-01 -4.370359e-01 -8.922738e-02 -1.939828e-02 -1.413254e-01 -1.728634e-01 -3.105481e-02 -3.068122e-02 -3.921612e-02 9.802869e-02
<VARIANCE> 39
 8.194131e+01 7.408064e+01 6.481821e+01 9.562053e+01 7.650740e+01 5.657086e+01 5.480392e+01 5.008425e+01 4.914367e+01 3.613644e+01 5.758591e+01 2.695450e+01 2.658269e+02 6.710933e+00 7.073651e+00 6.556617e+00 7.142108e+00 7.778049e+00 4.852045e+00 5.130004e+00 4.799291e+00 4.620007e+00 4.232614e+00 3.894908e+00 4.185306e+00 2.813763e+01 1.173666e+00 1.284626e+00 1.451525e+00 1.408188e+00 1.453387e+00 9.655830e-01 1.050239e+00 9.467927e-01 6.926885e-01 9.237333e-01 7.340285e-01 7.848137e-01 3.441679e+00
<GCONST> 1.511621e+02
<STATE> 4
<MEAN> 39
 2.159684e-01 9.862046e-01 4.047198e+00 -6.268638e+00 2.649436e-01 -2.184530e+00 -4.524152e+00 -2.162171e+00 -4.142991e+00 -2.680569e+00 -3.330534e+00 -2.577806e+00 5.291648e+01 6.866400e-01 -6.411732e-01 1.330132e-01 -6.013417e-01 -5.373186e-01 1.622097e-01 1.417812e-01 2.011840e-01 -3.776819e-01 -2.181053e-01 7.416852e-02 -5.080894e-03 1.226935e+00 -1.696875e-01 1.174774e-01 -1.502304e-02 -6.161592e-02 4.346739e-02 2.443303e-02 -2.228338e-02 3.400210e-02 1.088022e-01 1.164183e-01 5.032929e-02 2.083422e-02 3.284605e-02
<VARIANCE> 39
 5.670409e+01 8.622605e+01 6.481821e+01 9.562053e+01 6.049548e+01 5.657086e+01 5.480392e+01 6.594698e+01 4.914367e+01 3.600889e+01 5.758591e+01 2.695450e+01 2.658269e+02 5.634852e+00 7.293842e+00 3.391358e+00 7.443719e+00 4.314898e+00 3.937318e+00 3.447600e+00 3.841408e+00 4.184759e+00 2.954033e+00 4.924029e+00 3.109260e+00 1.444611e+01 7.823011e-01 1.300486e+00 6.447577e-01 1.070273e+00 7.968354e-01 7.459078e-01 6.716151e-01 6.778382e-01 7.856147e-01 6.257915e-01 9.492226e-01 5.697685e-01 2.007574e+00
<GCONST> 1.436291e+02
<TRANSP> 5
 0.000000e+00 1.000000e+00 0.000000e+00 0.000000e+00 0.000000e+00
 0.000000e+00 8.265409e-01 1.734591e-01 0.000000e+00 0.000000e+00
 0.000000e+00 0.000000e+00 7.122295e-01 2.877705e-01 0.000000e+00
 0.000000e+00 0.000000e+00 0.000000e+00 7.621973e-01 2.378026e-01
 0.000000e+00 0.000000e+00 0.000000e+00 0.000000e+00 0.000000e+00
<ENDHMM>
~h "r"
<BEGINHMM>
<NUMSTATES> 5
<STATE> 2
<MEAN> 39
 4.604383e+00 -3.262765e+00 2.045970e+00 2.371544e+00 -8.031939e+00 -1.449426e+00 -1.072131e+01 -7.617144e+00 1.007673e+00 1.158168e-01 -1.043031e-01 -4.570349e+00 6.116225e+01 3.323921e-01 -9.563398e-01 -1.516933e-01 -5.037214e-01 -8.410242e-01 3.687534e-01 -9.399880e-01 3.130025e-01 5.093269e-01 -8.723730e-02 3.830441e-01 -5.651315e-02 1.986507e+00 -1.683251e-02 8.327506e-02 1.885554e-01 -1.711318e-01 3.026136e-02 1.280989e-01 -5.458750e-02 1.327901e-01 -1.359178e-01 -4.778441e-02 1.984253e-03 -1.632834e-02 -4.080932e-02
<VARIANCE> 39
 9.373227e+01 7.408064e+01 6.481821e+01 9.562053e+01 1.372032e+02 5.699016e+01 6.349977e+01 7.378383e+01 6.992890e+01 3.600889e+01 5.758591e+01 2.986019e+01 2.658269e+02 2.237194e+00 4.867829e+00 2.649826e+00 3.896576e+00 5.383683e+00 5.759324e+00 3.604407e+00 3.469739e+00 3.514096e+00 2.457893e+00 2.569609e+00 2.157218e+00 1.229160e+01 3.871926e-01 9.335474e-01 5.576004e-01 6.112204e-01 1.086702e+00 1.056253e+00 7.493089e-01 6.986000e-01 5.694091e-01 4.500161e-01 4.608459e-01 3.862379e-01 1.716038e+00
<GCONST> 1.394446e+02
<STATE> 3
<MEAN> 39
 2.070658e+00 -4.508297e+00 6.002481e+00 -2.356048e+00 -6.916536e+00 -9.484977e-01 -1.149282e+01 -2.721449e+00 -1.131522e+00 -2.507342e-01 -7.172131e-01 -4.406048e+00 6.561646e+01 9.992746e-01 -7.172026e-02 1.287457e+00 -1.078035e+00 -7.144377e-01 -7.492270e-01 -5.313811e-01 -6.655632e-01 -1.302721e+00 2.476570e-01 -5.882112e-01 2.677399e-01 4.550219e-01 -6.356429e-02 7.884032e-02 2.503676e-03 -9.998452e-02 2.250248e-01 -2.237032e-01 2.422700e-01 3.524677e-02 -1.830650e-01 1.960714e-02 -2.632904e-01 8.058071e-02 -4.295290e-01
<VARIANCE> 39
 8.807043e+01 7.408064e+01 6.481821e+01 9.562053e+01 1.084411e+02 6.619184e+01 8.357009e+01 9.380511e+01 7.105838e+01 3.854660e+01 5.758591e+01 2.858917e+01 2.658269e+02 5.476705e+00 5.858771e+00 5.029417e+00 6.806974e+00 1.027261e+01 7.191594e+00 7.585465e+00 5.815459e+00 5.336267e+00 4.363671e+00 4.330379e+00 3.297372e+00 4.984552e+00 1.049966e+00 1.125451e+00 8.567293e-01 1.020751e+00 1.451501e+00 1.121690e+00 1.541325e+00 1.192839e+00 9.243686e-01 7.816915e-01 6.969962e-01 5.077960e-01 7.719503e-01
<GCONST> 1.499533e+02
<STATE> 4
<MEAN> 39
 5.067992e+00 -6.053349e+00 4.626335e+00 -1.987720e+01 -8.009409e+00 -4.764243e+00 -1.965173e+01 -7.839946e+00 -8.362404e+00 2.588768e+00 -9.834887e+00 -1.707660e+00 7.015873e+01 -2.283264e-01 7.757850e-01 -6.009303e-03 -6.966911e-02 7.427500e-01 1.344410e-01 5.784152e-01 5.054765e-01 -1.812007e-01 -2.386511e-01 2.304626e-01 1.965468e-01 -8.281864e-01 -1.819842e-01 2.541213e-01 -6.087207e-02 4.120193e-01 7.281031e-02 6.296175e-02 2.221645e-01 -1.140355e-03 2.326733e-01 -5.968609e-02 2.140081e-01 -8.508915e-02 -3.954053e-01
<VARIANCE> 39
 5.621860e+01 7.408064e+01 6.481821e+01 1.121995e+02 6.049548e+01 8.314996e+01 1.350869e+02 5.731446e+01 4.914367e+01 5.599692e+01 6.038500e+01 2.695450e+01 2.658269e+02 2.237194e+00 3.207425e+00 2.314184e+00 7.757067e+00 3.043714e+00 3.273953e+00 5.476070e+00 2.741223e+00 3.310575e+00 3.184464e+00 3.373518e+00 1.958500e+00 5.980520e+00 3.580279e-01 4.174158e-01 3.847587e-01 8.547672e-01 4.999610e-01 5.052348e-01 6.383349e-01 5.089008e-01 4.798635e-01 5.796785e-01 4.608459e-01 3.767788e-01 6.789643e-01
<GCONST> 1.342465e+02
<TRANSP> 5
 0.000000e+00 1.000000e+00 0.000000e+00 0.000000e+00 0.000000e+00
 0.000000e+00 7.846326e-01 2.153675e-01 0.000000e+00 0.000000e+00
 0.000000e+00 0.000000e+00 7.447622e-01 2.552378e-01 0.000000e+00
 0.000000e+00 0.000000e+00 0.000000e+00 8.441067e-01 1.558934e-01
 0.000000e+00 0.000000e+00 0.000000e+00 0.000000e+00 0.000000e+00
<ENDHMM>
~h "s"
<BEGINHMM>
<NUMSTATES> 5
<STATE> 2
<MEAN> 39
 -7.571232e+00 8.007265e+00 3.318318e+00 -7.238911e-01 -2.071106e-01 -4.614537e+00 1.592545e+00 -1.062841e+00 -1.682504e+00 -3.188524e+00 -1.427505e+00 -2.018976e+00 5.435115e+01 -2.860720e+00 1.051609e+00 -1.364028e+00 1.201567e+00 1.153269e+00 9.178939e-01 1.151030e+00 3.282669e-01 7.833878e-01 -1.762945e-02 1.122364e+00 6.506999e-02 1.207071e+00 -1.920182e-01 -2.162091e-01 -7.714210e-02 -4.176185e-01 -2.062594e-01 -3.648296e-02 -2.274979e-01 2.836007e-02 -4.602886e-02 1.203385e-01 -5.635959e-02 9.969126e-02 1.862306e-01
<VARIANCE> 39
 6.050150e+01 7.408064e+01 6.481821e+01 9.562053e+01 6.049548e+01 5.657086e+01 5.480392e+01 5.483515e+01 4.914367e+01 3.600889e+01 5.758591e+01 3.271352e+01 2.658269e+02 5.787381e+00 6.886233e+00 4.440788e+00 7.219287e+00 4.879391e+00 6.377140e+00 4.512657e+00 4.954609e+00 3.446390e+00 3.959940e+00 4.393064e+00 3.484730e+00 1.212460e+01 1.044390e+00 1.184260e+00 7.061851e-01 9.267227e-01 7.357883e-01 9.740775e-01 8.634378e-01 7.757565e-01 6.452141e-01 6.525736e-01 7.304536e-01 6.361245e-01 1.420200e+00
<GCONST> 1.448746e+02
<STATE> 3
<MEAN> 39
 -1.948737e+01 1.263970e+01 -1.698956e+00 -4.912171e-01 2.793031e+00 -3.682364e+00 4.983764e+00 1.152998e-01 -2.884774e-01 -1.567750e+00 1.767553e+00 -9.638301e-01 6.207707e+01 -1.081386e+00 4.270259e-01 -6.729891e-01 -8.063071e-02 -1.117788e-01 1.320760e-01 -1.724990e-01 -1.434649e-01 -5.563112e-02 4.019871e-02 1.012384e-01 -1.420668e-02 3.476362e-01 6.976963e-01 -1.948870e-01 3.629469e-01 -1.046396e-01 -2.425729e-01 -1.778655e-01 -2.327240e-01 -1.707744e-01 -2.053693e-01 -6.786013e-02 -2.294645e-01 -9.148549e-02 -2.870343e-01
<VARIANCE> 39
 5.621860e+01 7.408064e+01 6.481821e+01 9.562053e+01 6.049548e+01 5.657086e+01 5.480392e+01 5.008425e+01 4.914367e+01 3.600889e+01 5.758591e+01 2.695450e+01 2.658269e+02 2.551489e+00 2.592087e+00 2.314184e+00 3.129044e+00 2.833982e+00 2.664105e+00 2.646528e+00 2.741223e+00 2.630443e+00 2.383868e+00 2.569609e+00 1.958500e+00 4.984552e+00 3.580279e-01 4.174158e-01 3.847587e-01 5.025513e-01 4.999610e-01 5.335561e-01 4.820749e-01 5.089008e-01 4.798635e-01 4.500161e-01 4.608459e-01 3.767788e-01 6.789643e-01
<GCONST> 1.281969e+02
<STATE> 4
<MEAN> 39
 -1.885639e+01 1.137855e+01 -4.463189e+00 1.955610e+00 -1.473008e+00 -9.517868e-01 1.748249e+00 -8.137727e-01 -1.054693e+00 -2.431221e+00 1.092720e+00 -1.609023e+00 5.999606e+01 4.840179e-01 -5.942506e-02 3.552118e-01 2.238848e-02 -1.421995e-01 -8.858975e-03 -1.609395e-01 -1.183850e-01 -6.258449e-02 2.529876e-02 -1.571786e-01 -4.535740e-02 -3.018238e-01 3.096102e-01 -1.168875e-01 2.373734e-01 -6.767340e-02 -2.453972e-02 -5.296559e-02 -4.322501e-02 -1.816728e-02 -9.926816e-03 1.999395e-02 -3.455453e-02 1.669787e-02 -4.511254e-02
<VARIANCE> 39
 5.621860e+01 7.408064e+01 6.481821e+01 9.562053e+01 6.049548e+01 5.657086e+01 5.480392e+01 5.008425e+01 4.914367e+01 3.600889e+01 5.758591e+01 2.695450e+01 2.658269e+02 2.237194e+00 2.592087e+00 2.314184e+00 3.129044e+00 2.833982e+00 2.664105e+00 2.646528e+00 2.741223e+00 2.630443e+00 2.383868e+00 2.569609e+00 1.958500e+00 4.984552e+00 3.580279e-01 4.174158e-01 3.847587e-01 5.025513e-01 4.999610e-01 4.797978e-01 4.820749e-01 5.089008e-01 4.798635e-01 4.500161e-01 4.608459e-01 3.767788e-01 6.789643e-01
<GCONST> 1.279592e+02
<TRANSP> 5
 0.000000e+00 1.000000e+00 0.000000e+00 0.000000e+00 0.000000e+00
 0.000000e+00 7.334206e-01 2.665795e-01 0.000000e+00 0.000000e+00
 0.000000e+00 0.000000e+00 7.211021e-01 2.788979e-01 0.000000e+00
 0.000000e+00 0.000000e+00 0.000000e+00 8.512725e-01 1.487276e-01
 0.000000e+00 0.000000e+00 0.000000e+00 0.000000e+00 0.000000e+00
<ENDHMM>
~h "t"
<BEGINHMM>
<NUMSTATES> 5
<STATE> 2
<MEAN> 39
 -1.265561e+01 7.161700e+00 5.100932e+00 -4.569401e+00 1.137229e+00 -1.636859e+00 -9.490652e-01 -9.906821e-01 -2.718323e-01 -9.305441e-01 4.192370e-01 -1.524664e+00 5.315718e+01 -3.355796e-02 -5.575341e-02 4.322327e-01 -4.775752e-01 -2.184967e-01 -9.180121e-03 4.975079e-02 -7.049775e-02 -2.175975e-01 -2.479437e-02 -8.079502e-02 -5.901326e-02 2.427751e+00 4.419948e-01 -2.026737e-01 2.253249e-01 -1.402337e-01 -3.934857e-01 -1.645637e-01 -1.231497e-01 -6.430746e-02 -1.889244e-01 1.513895e-02 -1.378420e-01 -3.537348e-02 8.407832e-02
<VARIANCE> 39
 6.832012e+01 7.408064e+01 6.481821e+01 9.562053e+01 6.049548e+01 5.657086e+01 5.480392e+01 5.008425e+01 4.914367e+01 3.600889e+01 5.758591e+01 2.695450e+01 2.658269e+02 8.413373e+00 4.595767e+00 5.174979e+00 4.921428e+00 5.636171e+00 4.133055e+00 3.331071e+00 3.305102e+00 3.135204e+00 2.742719e+00 2.569609e+00 2.033576e+00 2.341946e+01 1.340503e+00 1.075025e+00 8.838969e-01 9.802905e-01 9.507032e-01 8.936667e-01 7.002273e-01 6.477970e-01 5.765423e-01 5.932502e-01 5.108817e-01 4.131832e-01 3.565706e+00
<GCONST> 1.427126e+02
<STATE> 3
<MEAN> 39
 -3.264748e+00 1.464736e+00 1.136111e+01 -8.442985e+00 -8.172006e+00 -7.166872e+00 -3.285221e+00 -3.283059e+00 -5.431215e+00 -1.268595e+00 -4.092700e+00 -2.220944e+00 6.252571e+01 1.580880e+00 -1.762110e+00 1.865346e-01 -1.005322e+00 -1.130972e+00 -9.992616e-01 -4.409817e-01 3.862617e-01 -4.917716e-01 7.399055e-02 -7.596976e-01 -5.399336e-02 1.503384e-01 -3.586847e-01 -1.087377e-01 -3.664055e-01 -5.020501e-02 2.598743e-01 1.304234e-01 1.283481e-01 1.953023e-01 2.002483e-01 5.455015e-02 6.119987e-02 1.008732e-02 -1.217964e-01
<VARIANCE> 39
 5.621860e+01 7.408064e+01 6.766792e+01 9.562053e+01 7.660451e+01 6.012869e+01 5.480392e+01 7.441801e+01 4.914367e+01 3.600889e+01 5.758591e+01 2.695450e+01 2.658269e+02 8.067357e+00 8.524129e+00 6.237304e+00 8.726280e+00 9.423033e+00 6.823737e+00 4.592501e+00 5.669765e+00 5.283753e+00 3.908367e+00 5.855844e+00 2.664710e+00 1.512441e+01 1.145977e+00 1.368695e+00 8.742477e-01 1.366665e+00 1.429183e+00 1.019115e+00 7.728013e-01 8.820373e-01 7.664807e-01 7.278965e-01 8.691440e-01 5.078124e-01 2.141217e+00
<GCONST> 1.500672e+02
<STATE> 4
<MEAN> 39
 1.811394e+00 -7.788292e+00 6.593303e+00 -1.336922e+01 -9.180962e+00 -1.056410e+01 -2.337429e+00 1.959220e+00 -5.101960e+00 -2.725679e+00 -8.387496e+00 -2.082412e+00 6.681136e+01 -1.317314e-01 4.272799e-01 -4.694894e-01 5.214387e-01 2.266004e-01 2.046093e-01 -1.615684e-02 7.935333e-02 5.079522e-01 2.312206e-02 1.131938e-01 1.681773e-01 -1.457561e+00 -1.367899e-01 2.526541e-01 -6.944776e-03 1.330147e-01 1.125588e-01 1.035852e-01 6.974246e-03 -9.385168e-02 6.013414e-02 5.477103e-03 1.233890e-01 1.542010e-02 -1.938207e-01
<VARIANCE> 39
 5.621860e+01 7.534304e+01 6.481821e+01 1.149140e+02 6.190424e+01 6.967397e+01 5.480392e+01 6.498524e+01 5.586123e+01 5.269780e+01 5.758591e+01 2.695450e+01 2.658269e+02 2.237194e+00 3.681569e+00 2.314184e+00 3.247188e+00 2.833982e+00 2.685504e+00 2.646528e+00 2.741223e+00 2.630443e+00 2.383868e+00 2.569609e+00 1.958500e+00 8.649773e+00 3.580279e-01 5.656505e-01 3.847587e-01 6.129114e-01 4.999610e-01 4.905752e-01 4.820749e-01 5.089008e-01 4.798635e-01 4.500161e-01 4.608459e-01 3.767788e-01 1.148471e+00
<GCONST> 1.311581e+02
<TRANSP> 5
 0.000000e+00 1.000000e+00 0.000000e+00 0.000000e+00 0.000000e+00
 0.000000e+00 8.335223e-01 1.664776e-01 0.000000e+00 0.000000e+00
 0.000000e+00 0.000000e+00 7.697619e-01 2.302381e-01 0.000000e+00
 0.000000e+00 0.000000e+00 0.000000e+00 8.834575e-01 1.165426e-01
 0.000000e+00 0.000000e+00 0.000000e+00 0.000000e+00 0.000000e+00
<ENDHMM>
~h "v"
<BEGINHMM>
<NUMSTATES> 5
<STATE> 2
<MEAN> 39
 -5.196489e+00 4.032749e+00 1.009591e+01 -5.818989e+00 -3.704403e+00 -4.073812e+00 -1.881395e+00 -5.772611e+00 -4.366129e+00 -9.216594e-01 -3.834808e+00 -1.122151e+00 5.643583e+01 1.825984e+00 -8.808301e-01 2.632930e+00 -3.810266e+00 -2.154307e+00 -1.915849e+00 -1.397793e+00 -2.357966e+00 -2.324688e+00 6.479823e-01 -1.825229e+00 -3.533224e-01 3.398862e+00 -2.835934e-02 -2.428138e-01 1.327312e-01 -6.842400e-01 -2.804487e-01 -1.607172e-01 -4.107932e-01 -4.248116e-03 -3.049248e-01 3.647559e-02 -3.717065e-01 -1.162811e-01 4.016232e-01
<VARIANCE> 39
 5.621860e+01 7.408064e+01 6.800575e+01 1.002984e+02 6.049548e+01 5.657086e+01 5.480392e+01 5.779216e+01 4.914367e+01 3.600889e+01 5.758591e+01 2.695450e+01 2.658269e+02 4.069627e+00 4.202293e+00 6.244730e+00 9.012440e+00 5.086815e+00 7.444517e+00 5.487931e+00 5.749423e+00 4.250030e+00 4.790634e+00 5.516052e+00 2.310302e+00 1.616494e+01 7.994385e-01 6.253958e-01 9.571526e-01 1.548964e+00 8.551213e-01 1.177935e+00 8.505730e-01 1.167620e+00 8.787094e-01 8.087925e-01 8.874058e-01 4.093056e-01 2.363970e+00
<GCONST> 1.469506e+02
<STATE> 3
<MEAN> 39
 -2.247009e+00 -1.099567e-01 2.037132e+01 -2.231041e+01 -1.256803e+01 -1.249818e+01 -8.195964e+00 -1.259605e+01 -1.456750e+01 1.937894e+00 -1.603031e+01 -3.434964e+00 6.873895e+01 8.781672e-02 -4.915932e-01 2.431506e-01 -6.528459e-01 -6.339372e-01 -1.945983e-01 -6.123643e-01 -9.101048e-03 -8.314465e-01 -5.630496e-01 -8.555180e-01 -3.055220e-01 7.503969e-01 -1.291982e-01 3.569195e-01 -6.017042e-01 1.120729e+00 5.347938e-01 3.524095e-01 4.076276e-01 3.604811e-01 5.602998e-01 -3.663661e-01 5.069637e-01 1.664703e-01 -8.664392e-01
<VARIANCE> 39
 5.621860e+01 7.408064e+01 6.481821e+01 9.562053e+01 6.049548e+01 6.744886e+01 5.480392e+01 6.032482e+01 4.914367e+01 3.600889e+01 7.317470e+01 2.695450e+01 2.658269e+02 2.531251e+00 2.812380e+00 3.732267e+00 1.098623e+01 3.377485e+00 3.404860e+00 4.384534e+00 3.287033e+00 3.542996e+00 3.744616e+00 5.081007e+00 2.388184e+00 7.122679e+00 6.867096e-01 4.360956e-01 5.869628e-01 1.393211e+00 7.045059e-01 7.413719e-01 8.184974e-01 9.663453e-01 6.689104e-01 6.259807e-01 7.618631e-01 4.925060e-01 1.303061e+00
<GCONST> 1.397638e+02
<STATE> 4
<MEAN> 39
 3.210684e-01 -7.818494e-01 9.136778e+00 -1.650100e+01 -6.371925e+00 -1.318650e+01 -8.717546e+00 -1.038086e+01 -9.205497e+00 -5.455183e+00 -1.449150e+01 -2.030473e+00 6.738023e+01 -1.377226e-02 3.352278e-01 -3.426043e-01 6.775150e-01 4.311621e-01 4.469234e-01 -2.337218e-03 1.833949e-01 3.696827e-01 -8.195437e-02 4.296160e-01 -4.504481e-04 -2.353505e-01 -3.131239e-02 2.251679e-02 -1.987759e-02 2.087053e-02 5.560702e-02 6.493837e-02 5.914749e-02 3.584553e-02 4.733389e-02 8.857509e-02 9.801439e-02 -4.037399e-02 -4.374911e-02
<VARIANCE> 39
 5.621860e+01 7.408064e+01 8.405675e+01 1.296338e+02 6.227464e+01 7.359669e+01 7.397569e+01 6.976049e+01 4.914367e+01 5.791409e+01 6.627492e+01 3.202262e+01 2.658269e+02 2.237194e+00 2.592087e+00 2.314184e+00 4.287419e+00 3.074050e+00 3.168859e+00 3.770414e+00 3.629328e+00 2.630443e+00 3.419950e+00 3.618211e+00 3.198995e+00 4.984552e+00 3.580279e-01 4.174158e-01 3.847587e-01 7.158194e-01 4.999610e-01 5.200463e-01 6.213688e-01 7.169796e-01 4.798635e-01 5.519422e-01 6.093903e-01 5.559127e-01 6.789643e-01
<GCONST> 1.345365e+02
<TRANSP> 5
 0.000000e+00 1.000000e+00 0.000000e+00 0.000000e+00 0.000000e+00
 0.000000e+00 7.263294e-01 2.736706e-01 0.000000e+00 0.000000e+00
 0.000000e+00 0.000000e+00 7.479693e-01 2.520307e-01 0.000000e+00
 0.000000e+00 0.000000e+00 0.000000e+00 9.064570e-01 9.354294e-02
 0.000000e+00 0.000000e+00 0.000000e+00 0.000000e+00 0.000000e+00
<ENDHMM>
~h "w"
<BEGINHMM>
<NUMSTATES> 5
<STATE> 2
<MEAN> 39
 -1.208201e+00 4.012299e+00 1.571659e+01 -1.799616e+01 -1.082193e+01 -1.262597e+01 -1.219571e+01 -1.204588e+01 -1.219694e+01 2.877853e+00 -1.652501e+01 5.963590e-01 6.429551e+01 -2.453383e-01 9.365363e-02 5.661724e-01 1.474340e-02 -4.834263e-01 7.019564e-02 -1.261333e-01 -1.548636e-01 1.169416e-02 -1.444332e-01 -1.904431e-01 -6.666216e-02 4.135343e-01 -1.586649e-02 5.043678e-02 -6.622842e-02 6.301644e-02 7.600458e-02 1.870556e-01 1.396645e-01 1.008555e-01 1.284191e-01 -1.262804e-02 1.620461e-01 5.118192e-02 -1.489493e-01
<VARIANCE> 39
 5.621860e+01 7.408064e+01 6.481821e+01 9.562053e+01 6.049548e+01 7.547612e+01 5.480392e+01 5.610321e+01 4.914367e+01 5.744160e+01 7.086907e+01 5.146019e+01 2.658269e+02 2.719614e+00 2.592087e+00 2.610530e+00 3.779698e+00 3.923722e+00 4.467142e+00 5.015903e+00 3.878834e+00 2.630443e+00 4.172318e+00 4.774774e+00 2.994899e+00 4.984552e+00 4.346872e-01 4.174158e-01 3.847587e-01 5.986058e-01 5.047585e-01 5.315346e-01 8.725942e-01 8.750108e-01 4.927330e-01 8.155451e-01 7.383465e-01 5.739904e-01 6.789643e-01
<GCONST> 1.367493e+02
<STATE> 3
<MEAN> 39
 1.654657e+00 7.777036e+00 2.216700e+01 -3.903932e+00 -1.146087e+01 3.142257e+00 -1.020389e+01 -6.383255e+00 -8.659120e+00 -1.764411e+00 -2.500381e+00 -6.810422e+00 5.873431e+01 -8.424406e-02 2.096477e-01 -2.235791e-01 1.818890e-01 4.182515e-01 3.188259e-01 3.797947e-01 9.115788e-02 3.282812e-01 9.569678e-02 1.095064e-01 -2.830289e-04 -7.544400e-01 -1.933940e-02 -8.060162e-02 -1.650881e-01 1.202158e-02 9.836693e-02 -5.504347e-02 7.505594e-02 9.955269e-02 9.000468e-02 1.697616e-02 -1.217984e-02 5.281351e-02 -3.753987e-02
<VARIANCE> 39
 5.621860e+01 7.408064e+01 6.481821e+01 9.562053e+01 8.492647e+01 5.657086e+01 5.480392e+01 5.008425e+01 4.914367e+01 3.600889e+01 5.758591e+01 4.111838e+01 2.658269e+02 2.237194e+00 2.592087e+00 3.293781e+00 3.129044e+00 3.985455e+00 2.664105e+00 3.363842e+00 2.741223e+00 2.630443e+00 2.383868e+00 2.569609e+00 1.958500e+00 4.984552e+00 3.580279e-01 4.174158e-01 5.202364e-01 5.025513e-01 7.737051e-01 4.797978e-01 4.820749e-01 5.089008e-01 4.798635e-01 4.500161e-01 4.608459e-01 3.767788e-01 6.789643e-01
<GCONST> 1.303929e+02
<STATE> 4
<MEAN> 39
 -1.900605e+00 9.182665e+00 5.443465e+00 -1.555639e+00 7.056039e-01 2.971733e+00 -6.450967e-02 3.418841e-01 5.063237e-01 -4.134111e-01 1.965767e-01 -1.460388e+00 3.925457e+01 1.704128e-02 -1.454404e-01 -5.413893e-01 1.478767e-01 1.946208e-01 -9.039021e-02 2.091276e-01 1.308291e-01 1.440641e-01 -2.603617e-02 -1.143561e-02 4.998793e-02 -1.986483e-01 9.463095e-03 -2.292748e-02 1.288511e-01 -3.900421e-02 -5.025926e-02 -3.935289e-02 -1.466593e-01 -8.649004e-02 -1.396180e-01 -4.701497e-02 -6.940717e-03 -6.240426e-02 1.556474e-01
<VARIANCE> 39
 5.621860e+01 7.408064e+01 6.481821e+01 9.562053e+01 6.049548e+01 5.657086e+01 5.480392e+01 5.008425e+01 4.914367e+01 3.600889e+01 5.758591e+01 2.695450e+01 2.658269e+02 2.237194e+00 2.592087e+00 2.786451e+00 3.129044e+00 2.833982e+00 2.664105e+00 2.646528e+00 3.037922e+00 2.630443e+00 2.383868e+00 2.569609e+00 2.127628e+00 4.984552e+00 4.293679e-01 4.174158e-01 3.847587e-01 5.025513e-01 4.999610e-01 5.188715e-01 4.820749e-01 6.159197e-01 4.798635e-01 4.500161e-01 4.608459e-01 4.245310e-01 6.789643e-01
<GCONST> 1.289007e+02
<TRANSP> 5
 0.000000e+00 1.000000e+00 0.000000e+00 0.000000e+00 0.000000e+00
 0.000000e+00 9.189581e-01 8.104197e-02 0.000000e+00 0.000000e+00
 0.000000e+00 0.000000e+00 9.269138e-01 7.308622e-02 0.000000e+00
 0.000000e+00 0.000000e+00 0.000000e+00 9.087614e-01 9.123857e-02
 0.000000e+00 0.000000e+00 0.000000e+00 0.000000e+00 0.000000e+00
<ENDHMM>
~h "y"
<BEGINHMM>
<NUMSTATES> 5
<STATE> 2
<MEAN> 39
 6.590090e+00 3.302161e+00 1.354931e+01 -1.828816e+01 -3.964797e+00 -1.346472e+00 -1.625085e+01 -6.564247e+00 -1.678370e+01 2.318929e+00 -9.372924e+00 -3.316134e+00 6.396461e+01 3.162078e-01 -2.286783e-01 -7.450091e-01 5.844966e-01 5.303368e-01 7.894260e-02 5.002671e-02 -3.995939e-02 2.987565e-01 1.923850e-01 2.647731e-01 -1.024472e-01 1.934936e-01 -2.050525e-01 -1.192914e-01 -1.656317e-01 -9.488936e-02 4.757887e-02 -1.027548e-01 -2.329946e-02 1.635532e-01 1.953740e-01 1.610581e-01 2.286939e-02 3.676400e-02 2.154269e-02
<VARIANCE> 39
 5.621860e+01 7.408064e+01 1.546649e+02 9.562053e+01 6.049548e+01 6.337102e+01 5.629685e+01 5.008425e+01 5.722032e+01 4.436053e+01 5.758591e+01 2.695450e+01 2.658269e+02 2.237194e+00 2.592087e+00 8.051024e+00 6.294521e+00 4.703815e+00 4.506602e+00 5.840309e+00 7.250936e+00 6.715080e+00 4.150779e+00 2.569609e+00 3.230279e+00 8.080049e+00 3.580279e-01 4.174158e-01 5.950956e-01 1.129823e+00 4.999610e-01 7.480748e-01 8.808679e-01 1.560703e+00 8.606464e-01 7.618113e-01 4.608459e-01 5.971192e-01 8.529227e-01
<GCONST> 1.417606e+02
<STATE> 3
<MEAN> 39
 1.402612e-01 -3.569114e+00 1.835050e+00 -9.123708e+00 9.180651e+00 -5.553636e+00 -9.303226e+00 2.575373e+00 4.887228e+00 2.638274e+00 -6.688035e+00 -8.774813e-01 5.913161e+01 -1.464977e-01 -9.052231e-01 -3.454841e-02 -1.231245e+00 3.621784e-01 -7.026892e-01 -2.836723e-01 2.116012e+00 4.576731e-01 1.767347e-01 9.379861e-02 -5.442144e-01 1.610239e-01 4.808298e-01 5.371027e-01 5.515105e-01 7.144327e-02 -3.930941e-01 2.324066e-01 2.578839e-01 -4.724916e-01 -9.085373e-01 -5.410937e-01 -4.658297e-01 -2.859466e-01 -2.355098e-01
<VARIANCE> 39
 5.815242e+01 7.408064e+01 6.481821e+01 9.562053e+01 8.535709e+01 5.714898e+01 8.633805e+01 5.008425e+01 4.914367e+01 3.600889e+01 1.018910e+02 2.695450e+01 2.658269e+02 2.564482e+00 2.592087e+00 4.525770e+00 4.888498e+00 1.155007e+01 3.342673e+00 7.924100e+00 2.741223e+00 6.548226e+00 4.095622e+00 4.450835e+00 3.332179e+00 8.290928e+00 5.599712e-01 4.174158e-01 1.354225e+00 6.243327e-01 3.222952e+00 5.458097e-01 1.186331e+00 5.089008e-01 4.798635e-01 4.500161e-01 8.627765e-01 6.306640e-01 6.901913e-01
<GCONST> 1.423716e+02
<STATE> 4
<MEAN> 39
 3.389102e+00 -1.658361e+00 7.085049e-01 -9.971272e+00 1.197108e+01 -4.454384e+00 -2.431328e+00 3.644972e+00 -3.020792e+00 -3.342194e+00 -1.273157e+01 -4.428086e+00 5.429934e+01 -1.829723e-01 8.410546e-01 -3.125645e-01 6.983440e-01 -4.073085e-01 8.061179e-01 4.258179e-01 -4.015733e-01 -3.149325e-01 -2.582872e-02 1.635802e-01 2.136035e-01 -1.665395e+00 -6.250434e-02 1.508632e-01 1.402350e-01 2.861660e-02 -4.682205e-01 -2.411132e-02 1.328228e-02 -8.527580e-02 3.363517e-01 2.012423e-01 2.088213e-01 1.828502e-01 -6.305613e-02
<VARIANCE> 39
 5.621860e+01 7.408064e+01 6.481821e+01 9.562053e+01 6.049548e+01 5.657086e+01 5.480392e+01 5.008425e+01 4.914367e+01 3.600889e+01 5.758591e+01 2.695450e+01 2.658269e+02 2.237194e+00 3.615320e+00 2.663829e+00 3.129044e+00 5.239960e+00 3.591754e+00 4.840567e+00 2.741223e+00 2.974621e+00 2.383868e+00 3.157566e+00 1.958500e+00 4.984552e+00 3.580279e-01 6.270119e-01 6.863626e-01 5.025513e-01 7.178706e-01 6.682262e-01 1.045430e+00 5.089008e-01 4.798635e-01 4.500161e-01 4.790833e-01 3.767788e-01 6.789643e-01
<GCONST> 1.327704e+02
<TRANSP> 5
 0.000000e+00 1.000000e+00 0.000000e+00 0.000000e+00 0.000000e+00
 0.000000e+00 9.092479e-01 9.075212e-02 0.000000e+00 0.000000e+00
 0.000000e+00 0.000000e+00 7.799277e-01 2.200723e-01 0.000000e+00
 0.000000e+00 0.000000e+00 0.000000e+00 8.701134e-01 1.298867e-01
 0.000000e+00 0.000000e+00 0.000000e+00 0.000000e+00 0.000000e+00
<ENDHMM>
~h "z"
<BEGINHMM>
<NUMSTATES> 5
<STATE> 2
<MEAN> 39
 -9.692545e+00 1.089015e+01 1.320810e+00 2.812242e+00 -6.219002e+00 -2.144093e+00 -1.346319e-01 -3.304362e+00 -4.307455e+00 -3.371617e+00 -1.264336e+00 -4.742059e+00 6.171507e+01 -1.719648e+00 9.604387e-01 -7.763423e-01 8.321085e-01 6.084954e-01 8.246427e-01 6.881115e-01 5.052272e-01 4.744321e-01 1.775188e-01 9.831962e-01 -2.205094e-01 5.121146e-01 1.190236e-02 -2.397512e-01 3.059149e-01 -4.668145e-01 -1.821640e-01 -2.720557e-01 -8.642755e-02 -3.152620e-01 -1.664518e-01 1.388713e-01 -1.414461e-01 9.746350e-03 2.717133e-01
<VARIANCE> 39
 1.191153e+02 7.453870e+01 9.284718e+01 9.562053e+01 6.049548e+01 5.657086e+01 5.480392e+01 5.008425e+01 4.914367e+01 3.600889e+01 5.758591e+01 2.935917e+01 2.658269e+02 4.304387e+00 4.847546e+00 3.953814e+00 6.765028e+00 3.117572e+00 4.437074e+00 3.328913e+00 4.662833e+00 2.796373e+00 2.383868e+00 3.010704e+00 3.653922e+00 9.303600e+00 9.941193e-01 8.432176e-01 6.770802e-01 8.866614e-01 7.468019e-01 6.404058e-01 6.604269e-01 7.609277e-01 5.068032e-01 6.645535e-01 4.608459e-01 6.360050e-01 9.952951e-01
<GCONST> 1.401964e+02
<STATE> 3
<MEAN> 39
 -1.087088e+01 1.118007e+01 8.539573e+00 -2.677376e+00 -5.189533e+00 -4.353500e+00 -3.313637e-01 -6.341739e+00 -4.949024e+00 -3.094919e+00 -1.177428e+00 -4.662931e+00 6.531138e+01 5.187291e-01 -9.552562e-01 1.841207e+00 -1.561903e+00 -2.110455e+00 -1.363490e+00 -1.152791e+00 -1.388227e+00 -7.822855e-01 4.596924e-01 -2.475279e-01 1.783584e-01 1.672683e+00 4.378451e-01 -4.147529e-01 1.881667e-01 -3.386030e-01 -3.863272e-01 -4.927993e-03 -4.305346e-01 1.213208e-01 -1.364081e-01 1.228270e-01 -3.790361e-01 2.283295e-01 -4.225482e-01
<VARIANCE> 39
 8.637405e+01 7.408064e+01 9.552103e+01 9.562053e+01 9.802439e+01 6.371690e+01 5.480392e+01 5.619162e+01 4.914367e+01 3.600889e+01 5.758591e+01 2.695450e+01 2.658269e+02 1.213165e+01 8.055261e+00 1.199302e+01 1.064888e+01 1.221490e+01 5.227445e+00 5.930316e+00 6.059041e+00 4.342051e+00 4.548717e+00 7.641313e+00 4.296893e+00 7.165299e+00 1.286052e+00 7.827370e-01 1.117047e+00 1.096047e+00 1.897934e+00 9.614210e-01 8.382832e-01 9.495739e-01 8.963459e-01 6.576362e-01 7.743290e-01 7.216924e-01 7.784283e-01
<GCONST> 1.515771e+02
<STATE> 4
<MEAN> 39
 -4.394235e+00 7.211897e+00 1.758786e+01 -1.279952e+01 -1.100806e+01 -2.611360e+00 -9.255140e+00 -9.351364e+00 -6.594924e+00 -1.445688e+00 -7.203084e+00 -1.401991e+00 6.226816e+01 -2.074613e-02 5.369906e-02 -2.244116e-01 2.027766e-01 4.415303e-01 3.884308e-01 1.094747e-01 2.318180e-01 2.459328e-01 -7.771081e-02 1.066953e-01 1.633821e-01 -6.437428e-01 -4.910899e-02 8.603958e-02 -1.621983e-01 2.004996e-01 1.879159e-01 6.533939e-02 1.390354e-01 1.381766e-01 7.449995e-02 -6.312083e-03 1.178492e-01 1.465445e-04 -8.139245e-02
<VARIANCE> 39
 5.665508e+01 7.408064e+01 1.130441e+02 1.117576e+02 7.243443e+01 8.724814e+01 5.735376e+01 6.554488e+01 8.136307e+01 4.375405e+01 7.257551e+01 3.978933e+01 2.658269e+02 2.237194e+00 2.638546e+00 4.151506e+00 4.793494e+00 2.995062e+00 3.361493e+00 3.476640e+00 2.741223e+00 3.274982e+00 2.925980e+00 3.029359e+00 2.359280e+00 4.984552e+00 3.580279e-01 4.464229e-01 5.595638e-01 6.026580e-01 4.999610e-01 6.440252e-01 5.869814e-01 5.089008e-01 5.176785e-01 5.639965e-01 4.699728e-01 4.235819e-01 6.789643e-01
<GCONST> 1.348439e+02
<TRANSP> 5
 0.000000e+00 1.000000e+00 0.000000e+00 0.000000e+00 0.000000e+00
 0.000000e+00 7.399217e-01 2.600783e-01 0.000000e+00 0.000000e+00
 0.000000e+00 0.000000e+00 6.842319e-01 3.157681e-01 0.000000e+00
 0.000000e+00 0.000000e+00 0.000000e+00 9.099547e-01 9.004520e-02
 0.000000e+00 0.000000e+00 0.000000e+00 0.000000e+00 0.000000e+00
<ENDHMM>
~h "aa"
<BEGINHMM>
<NUMSTATES> 5
<STATE> 2
<MEAN> 39
 -5.851669e-01 -3.045558e+00 -1.926798e-01 -1.140465e+01 2.495740e+00 -4.350506e+00 -5.734890e+00 -9.986529e-01 -2.543914e+00 -4.679615e-01 -6.072582e+00 -3.835701e+00 5.679723e+01 -5.226387e-01 5.390096e-01 -1.624987e-01 1.171687e+00 1.936727e-01 2.310380e-01 3.500665e-01 1.593079e-01 3.558268e-01 -3.580245e-02 3.974975e-01 2.108084e-01 -1.144753e+00 -6.783965e-02 -9.072476e-02 -1.962929e-02 -1.474898e-02 3.600409e-03 4.111923e-02 1.175868e-01 2.160443e-02 6.605393e-02 -7.575054e-02 2.283475e-03 5.505686e-02 7.611156e-02
<VARIANCE> 39
 5.621860e+01 7.927022e+01 6.481821e+01 1.028293e+02 6.333965e+01 9.926149e+01 5.480392e+01 5.901875e+01 7.360859e+01 7.911983e+01 7.037487e+01 4.369999e+01 2.658269e+02 3.596708e+00 7.321230e+00 3.068670e+00 7.427948e+00 5.594209e+00 7.274250e+00 4.855471e+00 5.165884e+00 6.739680e+00 4.551374e+00 4.299921e+00 3.070044e+00 2.499512e+01 6.024879e-01 1.148189e+00 6.134386e-01 1.260527e+00 1.125252e+00 1.312179e+00 8.968325e-01 1.025110e+00 1.328313e+00 7.885531e-01 7.090567e-01 5.595555e-01 3.302228e+00
<GCONST> 1.505401e+02
<STATE> 3
<MEAN> 39
 -3.614856e+00 -9.659943e-01 -2.720325e-01 -4.021253e+00 6.441950e+00 -4.363780e+00 1.437564e-01 1.829396e+00 4.633896e-02 -1.005546e+00 -4.020857e+00 -1.346669e+00 5.664222e+01 -2.285704e-01 7.498935e-01 5.123489e-01 7.128748e-01 7.196520e-02 3.179097e-01 6.776761e-01 3.800593e-02 1.933989e-01 -7.681315e-02 4.038422e-01 4.319089e-01 -8.845257e-01 1.422091e-01 4.428106e-02 2.086218e-01 -1.432448e-01 -1.379135e-01 5.076705e-02 -1.805999e-01 -9.473960e-02 -1.188571e-01 -1.924941e-02 2.471210e-02 -1.382470e-01 -1.432788e-01
<VARIANCE> 39
 5.621860e+01 7.408064e+01 6.481821e+01 9.562053e+01 7.434745e+01 6.510359e+01 5.480392e+01 5.008425e+01 4.914367e+01 4.036913e+01 5.758591e+01 4.853460e+01 2.658269e+02 2.237194e+00 3.037991e+00 3.671656e+00 3.129044e+00 3.585871e+00 3.035601e+00 3.577733e+00 3.317982e+00 2.821739e+00 3.032309e+00 3.275789e+00 3.143044e+00 7.900172e+00 3.580279e-01 5.294030e-01 5.842970e-01 5.025513e-01 5.736387e-01 6.592360e-01 6.820595e-01 6.675636e-01 5.587978e-01 6.007515e-01 6.253089e-01 6.790032e-01 1.521033e+00
<GCONST> 1.358451e+02
<STATE> 4
<MEAN> 39
 -4.704442e+00 4.876750e+00 3.040924e+00 -7.695659e-01 1.051584e+00 -1.383618e+00 2.140513e-01 5.881332e-01 2.268170e-01 -8.931754e-01 -7.858517e-01 -1.855627e-01 3.744033e+01 -5.456088e-02 3.006060e-02 1.248154e-01 8.641600e-02 -1.388216e-02 3.998781e-02 -6.547501e-03 -5.798133e-02 -4.901678e-02 -1.457994e-02 3.116341e-02 -5.672225e-02 -1.311727e-01 1.529228e-02 -3.263893e-02 9.024039e-04 -2.374069e-02 2.884755e-03 -3.171118e-02 -3.739633e-02 3.518587e-03 -3.387469e-02 2.770345e-03 -3.023097e-02 -3.024615e-02 1.033164e-01
<VARIANCE> 39
 5.621860e+01 7.408064e+01 6.481821e+01 9.562053e+01 6.049548e+01 5.657086e+01 5.480392e+01 5.008425e+01 4.914367e+01 3.600889e+01 5.758591e+01 2.695450e+01 2.658269e+02 2.237194e+00 2.592087e+00 2.314184e+00 3.129044e+00 2.833982e+00 2.664105e+00 2.646528e+00 2.741223e+00 2.630443e+00 2.383868e+00 2.569609e+00 1.958500e+00 4.984552e+00 3.580279e-01 4.174158e-01 3.847587e-01 5.025513e-01 4.999610e-01 4.797978e-01 4.820749e-01 5.089008e-01 4.798635e-01 4.500161e-01 4.608459e-01 3.767788e-01 6.789643e-01
<GCONST> 1.279592e+02
<TRANSP> 5
 0.000000e+00 1.000000e+00 0.000000e+00 0.000000e+00 0.000000e+00
 0.000000e+00 8.899855e-01 1.100144e-01 0.000000e+00 0.000000e+00
 0.000000e+00 0.000000e+00 7.145240e-01 2.854761e-01 0.000000e+00
 0.000000e+00 0.000000e+00 0.000000e+00 9.470627e-01 5.293725e-02
 0.000000e+00 0.000000e+00 0.000000e+00 0.000000e+00 0.000000e+00
<ENDHMM>
~h "ae"
<BEGINHMM>
<NUMSTATES> 5
<STATE> 2
<MEAN> 39
 -3.017273e+00 6.276227e+00 4.391535e+00 1.698985e-01 1.156875e-01 6.819137e-01 -9.054219e-01 -4.158556e-01 2.868222e-01 -1.317184e+00 -8.554193e-01 -1.578529e+00 4.021133e+01 -3.770376e-01 3.894331e-02 2.223298e-01 1.148296e-01 2.204371e-01 -5.878228e-02 2.090890e-01 1.767206e-01 -7.933751e-05 -9.408467e-02 7.070898e-02 -1.121355e-01 3.425739e-01 -1.099959e-01 -2.176335e-01 5.598311e-02 -1.476860e-01 2.571761e-02 -1.371684e-01 -1.520316e-02 3.432904e-02 -5.313722e-02 3.701761e-02 3.669705e-03 -8.548930e-03 3.536256e-01
<VARIANCE> 39
 5.621860e+01 7.408064e+01 6.481821e+01 9.562053e+01 6.049548e+01 5.657086e+01 5.480392e+01 5.008425e+01 4.914367e+01 3.600889e+01 5.758591e+01 2.695450e+01 2.658269e+02 2.237194e+00 2.592087e+00 2.314184e+00 3.129044e+00 2.833982e+00 2.664105e+00 2.646528e+00 2.741223e+00 2.630443e+00 2.383868e+00 2.569609e+00 1.958500e+00 4.984552e+00 3.580279e-01 4.542720e-01 3.847587e-01 5.025513e-01 4.999610e-01 4.797978e-01 4.820749e-01 5.089008e-01 4.798635e-01 4.500161e-01 4.608459e-01 3.915270e-01 6.789643e-01
<GCONST> 1.280822e+02
<STATE> 3
<MEAN> 39
 -8.315022e+00 3.682530e+00 4.029068e+00 -2.946791e+00 8.881423e-01 -2.231072e+00 4.844296e-01 1.248723e+00 -8.452374e-01 -8.182315e-01 -3.204588e-01 -1.481995e+00 4.515845e+01 -2.517430e-01 -6.865035e-01 1.226833e-01 -5.155337e-01 -5.404686e-02 -4.279177e-01 8.441822e-02 2.204567e-01 -3.416384e-01 -1.574085e-01 -2.399707e-01 2.157439e-02 1.663416e+00 1.164756e-01 1.496289e-02 -9.069750e-02 -7.695857e-02 -9.356435e-02 3.718705e-03 -4.200570e-02 -3.223061e-02 -4.884558e-02 -4.054343e-02 -4.904903e-02 1.990897e-02 -2.642213e-02
<VARIANCE> 39
 5.621860e+01 7.408064e+01 6.481821e+01 9.562053e+01 6.049548e+01 5.657086e+01 5.480392e+01 5.008425e+01 4.914367e+01 3.600889e+01 5.758591e+01 2.791097e+01 2.658269e+02 5.919265e+00 6.294523e+00 4.104744e+00 4.946190e+00 3.984494e+00 3.953064e+00 3.539438e+00 3.391782e+00 3.839540e+00 2.629556e+00 2.973428e+00 2.884634e+00 1.361823e+01 1.015991e+00 1.153367e+00 8.276866e-01 9.228803e-01 8.132035e-01 7.865475e-01 6.933594e-01 6.960818e-01 7.620184e-01 5.252113e-01 5.779142e-01 5.940168e-01 2.438991e+00
<GCONST> 1.418068e+02
<STATE> 4
<MEAN> 39
 -4.378844e+00 4.973216e-01 2.138533e+00 -4.356918e+00 -4.547664e-01 -4.036331e+00 4.742526e-01 6.970081e-01 -3.027765e+00 -3.777025e+00 -1.244416e+00 -7.823726e-01 4.266094e+01 -3.823520e-02 7.520696e-02 2.481173e-02 2.448794e-02 9.128433e-03 5.521379e-02 -3.616773e-03 -1.656155e-02 1.834037e-02 1.041241e-02 -4.683472e-04 -1.929566e-02 -3.328519e-02 -2.183722e-02 -1.304481e-02 1.694885e-02 -8.320522e-03 1.485735e-02 -1.017107e-03 6.719302e-03 -3.215300e-03 -1.904910e-03 1.555634e-02 8.439040e-04 -6.745990e-03 9.200412e-02
<VARIANCE> 39
 5.621860e+01 7.408064e+01 6.481821e+01 9.562053e+01 6.049548e+01 5.657086e+01 5.480392e+01 5.008425e+01 4.914367e+01 3.600889e+01 5.758591e+01 2.695450e+01 2.658269e+02 2.237194e+00 2.592087e+00 2.314184e+00 3.129044e+00 2.833982e+00 2.664105e+00 2.646528e+00 2.741223e+00 2.630443e+00 2.383868e+00 2.569609e+00 1.958500e+00 4.984552e+00 3.580279e-01 4.174158e-01 3.847587e-01 5.025513e-01 4.999610e-01 4.797978e-01 4.820749e-01 5.089008e-01 4.798635e-01 4.500161e-01 4.608459e-01 3.767788e-01 6.789643e-01
<GCONST> 1.279592e+02
<TRANSP> 5
 0.000000e+00 1.000000e+00 0.000000e+00 0.000000e+00 0.000000e+00
 0.000000e+00 5.132800e-01 4.867200e-01 0.000000e+00 0.000000e+00
 0.000000e+00 0.000000e+00 7.431414e-01 2.568586e-01 0.000000e+00
 0.000000e+00 0.000000e+00 0.000000e+00 9.283878e-01 7.161219e-02
 0.000000e+00 0.000000e+00 0.000000e+00 0.000000e+00 0.000000e+00
<ENDHMM>
~h "ah"
<BEGINHMM>
<NUMSTATES> 5
<STATE> 2
<MEAN> 39
 -2.611301e-01 -1.488965e+00 1.829758e+00 -1.442426e+00 4.664465e+00 -4.061846e+00 2.650063e+00 4.686786e+00 -2.238819e+00 -3.528965e+00 -4.642300e+00 -1.680721e-01 4.819651e+01 1.127509e-01 3.805592e-01 -2.971212e-01 3.316840e-01 2.532778e-01 3.463613e-01 6.482311e-02 -1.428413e-01 1.372881e-01 -3.082869e-02 1.537398e-01 9.542998e-02 -8.621761e-01 -9.846125e-03 6.973474e-02 5.867705e-02 -5.199291e-02 -1.042183e-01 -1.102643e-03 -8.367623e-02 -6.442416e-02 1.346329e-03 4.513032e-02 2.572481e-02 -2.754518e-02 1.607526e-02
<VARIANCE> 39
 5.621860e+01 7.408064e+01 6.481821e+01 9.562053e+01 6.997613e+01 5.657086e+01 5.480392e+01 5.291148e+01 4.914367e+01 3.830280e+01 5.758591e+01 3.695194e+01 2.658269e+02 2.237194e+00 2.592087e+00 2.314184e+00 3.129044e+00 2.833982e+00 2.664105e+00 2.646528e+00 2.741223e+00 2.630443e+00 2.383868e+00 2.569609e+00 2.145802e+00 4.984552e+00 3.580279e-01 4.174158e-01 3.847587e-01 5.025513e-01 4.999610e-01 4.797978e-01 4.820749e-01 5.089008e-01 4.798635e-01 4.500161e-01 4.608459e-01 4.037735e-01 6.789643e-01
<GCONST> 1.286975e+02
<STATE> 3
<MEAN> 39
 4.693545e+00 1.133466e+01 3.519016e+00 5.549272e-01 2.621549e+00 2.505462e+00 1.674590e+00 7.976008e-01 2.903168e-01 -1.520433e+00 -2.735962e-01 -1.496922e+00 3.965037e+01 -2.260926e-01 1.945748e-01 1.540756e-01 3.333094e-02 -1.378782e-01 2.009717e-02 -1.175675e-01 -4.487732e-02 1.246669e-01 1.479128e-01 7.813911e-02 7.452245e-03 -3.273107e-01 -8.181494e-02 -8.856565e-02 -6.259363e-03 -1.275356e-02 5.374644e-03 -5.694702e-02 -1.181302e-02 1.155776e-02 -2.341208e-02 -3.361129e-03 -1.045494e-03 6.837815e-03 3.512349e-02
<VARIANCE> 39
 5.621860e+01 7.408064e+01 6.481821e+01 9.562053e+01 6.049548e+01 5.657086e+01 5.480392e+01 5.008425e+01 4.914367e+01 3.600889e+01 5.758591e+01 2.695450e+01 2.658269e+02 2.237194e+00 2.592087e+00 2.314184e+00 3.129044e+00 2.833982e+00 2.664105e+00 2.646528e+00 2.741223e+00 2.630443e+00 2.383868e+00 2.569609e+00 1.958500e+00 4.984552e+00 3.580279e-01 4.174158e-01 3.847587e-01 5.025513e-01 4.999610e-01 4.797978e-01 4.820749e-01 5.089008e-01 4.798635e-01 4.500161e-01 4.608459e-01 3.767788e-01 6.789643e-01
<GCONST> 1.279592e+02
<STATE> 4
<MEAN> 39
 -5.602753e+00 3.630487e+00 1.204823e+00 -1.266163e+00 -6.411588e-01 -1.904988e+00 -1.152163e+00 1.916244e-02 -1.330348e+00 -1.792038e+00 5.625643e-01 -8.180117e-01 3.424684e+01 -4.737083e-02 -4.432200e-02 -2.126990e-03 -4.005418e-02 -3.204142e-02 -2.658799e-02 -1.729929e-02 -1.842437e-02 -3.363124e-02 7.722699e-03 7.547853e-03 -1.001781e-02 9.208293e-03 2.005567e-02 8.070895e-03 1.268155e-02 2.386468e-04 8.848903e-03 5.148077e-03 1.306544e-02 1.007925e-02 -1.130880e-03 -4.356188e-03 -1.311035e-02 -6.932125e-03 2.805547e-02
<VARIANCE> 39
 5.621860e+01 7.408064e+01 6.481821e+01 9.562053e+01 6.049548e+01 5.657086e+01 5.480392e+01 5.008425e+01 4.914367e+01 3.600889e+01 5.758591e+01 2.695450e+01 2.658269e+02 2.237194e+00 2.592087e+00 2.314184e+00 3.129044e+00 2.833982e+00 2.664105e+00 2.646528e+00 2.741223e+00 2.630443e+00 2.383868e+00 2.569609e+00 1.958500e+00 4.984552e+00 3.580279e-01 4.174158e-01 3.847587e-01 5.025513e-01 4.999610e-01 4.797978e-01 4.820749e-01 5.089008e-01 4.798635e-01 4.500161e-01 4.608459e-01 3.767788e-01 6.789643e-01
<GCONST> 1.279592e+02
<TRANSP> 5
 0.000000e+00 1.000000e+00 0.000000e+00 0.000000e+00 0.000000e+00
 0.000000e+00 9.065884e-01 9.341165e-02 0.000000e+00 0.000000e+00
 0.000000e+00 0.000000e+00 9.183254e-01 8.167466e-02 0.000000e+00
 0.000000e+00 0.000000e+00 0.000000e+00 9.719500e-01 2.805004e-02
 0.000000e+00 0.000000e+00 0.000000e+00 0.000000e+00 0.000000e+00
<ENDHMM>
~h "ao"
<BEGINHMM>
<NUMSTATES> 5
<STATE> 2
<MEAN> 39
 -5.158051e+00 3.460160e+00 -6.056926e+00 -7.073915e+00 8.458618e+00 2.536556e+00 -3.927330e+00 -1.171071e+00 -5.297672e+00 3.380860e+00 -1.449328e-01 -1.847751e+00 5.190448e+01 1.171740e+00 -5.935184e-01 -1.128388e+00 -2.099529e+00 7.587012e-01 3.880215e-01 -9.210902e-01 -1.949571e-01 -1.375498e+00 2.445013e-01 -3.709658e-01 -4.922414e-01 3.963614e+00 3.436660e-01 -7.410421e-02 3.898983e-01 -3.413893e-01 -3.900822e-01 -1.622645e-01 -9.755597e-02 -7.599516e-02 -4.195372e-02 -9.690504e-02 -8.767138e-02 -2.028990e-02 -6.955168e-02
<VARIANCE> 39
 5.621860e+01 7.408064e+01 6.481821e+01 9.562053e+01 6.049548e+01 5.657086e+01 5.480392e+01 5.008425e+01 4.914367e+01 4.298022e+01 5.758591e+01 3.159463e+01 2.658269e+02 3.942308e+00 5.304473e+00 9.432797e+00 5.860245e+00 8.775960e+00 5.204200e+00 4.774201e+00 3.286698e+00 3.757104e+00 3.396891e+00 4.289655e+00 3.193728e+00 1.905469e+01 6.182383e-01 1.227507e+00 1.758891e+00 1.110450e+00 1.618955e+00 1.027452e+00 9.680057e-01 6.186033e-01 7.158803e-01 6.416946e-01 8.041221e-01 5.705461e-01 4.227784e+00
<GCONST> 1.475565e+02
<STATE> 3
<MEAN> 39
 9.400585e+00 -3.395704e+00 1.352381e+00 -2.251098e+01 -1.637543e+00 5.958098e+00 -7.913241e+00 2.638748e-01 -8.956824e+00 7.136174e+00 5.603957e+00 -6.998747e+00 6.906586e+01 1.801634e-01 -2.679945e-01 3.516851e-01 -4.791736e-01 -2.848173e-01 -2.077114e-01 -1.902594e-01 -3.508925e-01 8.636571e-02 6.780761e-02 -3.478282e-01 -1.016774e-01 1.069549e-01 -1.816547e-01 2.555162e-02 -9.276262e-02 2.110479e-01 1.354823e-01 -6.715839e-02 3.391412e-02 -4.068252e-02 7.734399e-02 -1.569920e-02 -1.156720e-01 2.252639e-02 -1.338273e-01
<VARIANCE> 39
 5.621860e+01 7.408064e+01 6.481821e+01 9.562053e+01 6.049548e+01 5.657086e+01 5.480392e+01 5.008425e+01 7.117684e+01 4.038784e+01 5.758591e+01 2.695450e+01 2.658269e+02 2.237194e+00 2.592087e+00 2.314184e+00 3.906316e+00 2.833982e+00 2.664105e+00 2.646528e+00 2.741223e+00 2.630443e+00 2.383868e+00 2.569609e+00 1.958500e+00 4.984552e+00 3.580279e-01 4.174158e-01 3.847587e-01 5.025513e-01 4.999610e-01 4.797978e-01 4.820749e-01 5.089008e-01 4.798635e-01 4.500161e-01 4.608459e-01 3.767788e-01 6.789643e-01
<GCONST> 1.286663e+02
<STATE> 4
<MEAN> 39
 4.715986e+00 -7.210657e+00 -5.344584e+00 -3.122942e+01 3.358362e+00 -4.082399e+00 -1.330141e+01 -6.872992e+00 -8.447263e+00 -3.542468e+00 -1.185297e+01 -3.738616e+00 7.202924e+01 5.704015e-03 -4.736406e-02 2.588493e-01 1.523548e-01 -1.176339e-01 -2.741705e-01 -1.653053e-01 2.823920e-02 2.334342e-01 -1.915464e-01 -5.911010e-02 5.399433e-03 -1.253664e-01 -8.592629e-02 1.228510e-01 2.505312e-02 2.525914e-01 6.081982e-02 6.128277e-02 5.790250e-02 6.109960e-02 2.132661e-02 2.886520e-03 8.330337e-02 -5.301544e-03 -1.118464e-01
<VARIANCE> 39
 5.621860e+01 7.408064e+01 6.481821e+01 9.562053e+01 6.049548e+01 5.657086e+01 7.694429e+01 7.796244e+01 4.914367e+01 3.600889e+01 5.758591e+01 2.695450e+01 2.658269e+02 2.237194e+00 2.592087e+00 2.314184e+00 3.129044e+00 2.833982e+00 2.664105e+00 2.646528e+00 2.741223e+00 2.630443e+00 2.383868e+00 2.569609e+00 1.958500e+00 4.984552e+00 3.580279e-01 4.174158e-01 3.847587e-01 5.025513e-01 4.999610e-01 4.797978e-01 4.820749e-01 5.089008e-01 4.798635e-01 4.500161e-01 4.608459e-01 3.767788e-01 6.789643e-01
<GCONST> 1.287411e+02
<TRANSP> 5
 0.000000e+00 1.000000e+00 0.000000e+00 0.000000e+00 0.000000e+00
 0.000000e+00 8.390564e-01 1.609436e-01 0.000000e+00 0.000000e+00
 0.000000e+00 0.000000e+00 8.805677e-01 1.194322e-01 0.000000e+00
 0.000000e+00 0.000000e+00 0.000000e+00 9.407226e-01 5.927736e-02
 0.000000e+00 0.000000e+00 0.000000e+00 0.000000e+00 0.000000e+00
<ENDHMM>
~h "ay"
<BEGINHMM>
<NUMSTATES> 5
<STATE> 2
<MEAN> 39
 -6.442656e+00 3.802547e+00 4.009478e+00 -3.419592e+00 -2.571470e+00 -4.133965e+00 -1.607984e+00 -1.488239e-01 -9.101598e-01 -1.902373e+00 -2.087536e+00 -1.314179e+00 4.853875e+01 5.857540e-02 -6.320929e-01 -8.521730e-02 -4.636607e-01 3.066638e-01 -2.168694e-01 -1.060062e-01 -4.118295e-02 -4.147156e-02 3.718994e-02 -2.169826e-01 3.002562e-03 6.299812e-01 2.318267e-01 -3.441228e-01 5.366195e-03 -3.751199e-01 -3.812980e-02 -8.924678e-02 -7.645817e-02 -2.309361e-02 -1.280579e-01 4.152484e-03 -2.341385e-01 6.352688e-03 3.458432e-01
<VARIANCE> 39
 5.720037e+01 7.408064e+01 6.481821e+01 9.562053e+01 6.126013e+01 5.657086e+01 5.480392e+01 8.375018e+01 6.181427e+01 3.773870e+01 5.758591e+01 3.867807e+01 2.658269e+02 5.659421e+00 6.811599e+00 4.692457e+00 8.667458e+00 5.272564e+00 5.806862e+00 4.737933e+00 8.966213e+00 6.198508e+00 3.832584e+00 6.356654e+00 3.889072e+00 1.533478e+01 8.444718e-01 1.220236e+00 7.701619e-01 1.503028e+00 9.681231e-01 1.095246e+00 9.317441e-01 1.784839e+00 1.131573e+00 7.220432e-01 1.294531e+00 8.260108e-01 2.485503e+00
<GCONST> 1.515421e+02
<STATE> 3
<MEAN> 39
 2.107782e-01 -7.730187e+00 1.944934e+00 -1.428568e+01 1.652173e+00 -7.514134e+00 -5.326068e+00 -3.564496e+00 -4.947738e+00 -2.034897e+00 -8.739911e+00 -1.515840e+00 6.622614e+01 1.555239e+00 -2.634097e+00 -1.686418e-01 -2.905643e+00 -2.243112e-01 -1.324988e+00 -2.458621e-01 -1.290105e-01 -8.074269e-01 -7.511851e-01 -2.104938e+00 -3.466571e-01 3.331849e+00 -4.702346e-01 4.442211e-01 -6.211363e-03 5.736186e-01 -1.342745e-01 1.830405e-01 3.265947e-01 1.636297e-01 2.391959e-02 -3.174420e-01 1.809821e-01 -1.453135e-02 -5.961305e-01
<VARIANCE> 39
 5.621860e+01 7.711269e+01 6.524878e+01 9.562053e+01 8.003915e+01 7.656759e+01 8.889689e+01 8.121693e+01 5.674067e+01 5.420108e+01 7.089456e+01 4.528478e+01 2.658269e+02 4.144799e+00 6.480216e+00 3.680272e+00 7.779096e+00 5.473089e+00 4.842998e+00 4.643956e+00 5.784654e+00 6.405269e+00 3.866122e+00 5.181984e+00 2.651766e+00 1.204957e+01 7.380054e-01 1.029357e+00 7.133594e-01 1.287009e+00 8.685120e-01 8.663977e-01 7.116662e-01 8.004712e-01 9.464445e-01 6.825066e-01 1.046128e+00 5.430558e-01 1.385327e+00
<GCONST> 1.477319e+02
<STATE> 4
<MEAN> 39
 -3.979384e-01 -1.129781e+01 4.807872e+00 -2.239413e+01 -2.169239e+00 -1.356476e+01 -3.120635e+00 -5.986379e+00 -8.432533e+00 -7.818427e+00 -1.256336e+01 -1.857087e+00 7.335502e+01 -8.322009e-02 4.265994e-01 2.574776e-01 3.792587e-01 -2.898684e-01 -1.736023e-02 2.227544e-01 1.046287e-01 3.071449e-02 2.694772e-02 2.206059e-01 1.927451e-02 -4.828151e-01 -5.417779e-02 2.044370e-01 8.094687e-03 2.341163e-01 3.032031e-02 1.280356e-01 3.109024e-03 1.707707e-02 8.850675e-02 7.891379e-02 1.338455e-01 3.857841e-03 -2.440002e-01
<VARIANCE> 39
 5.621860e+01 9.399310e+01 8.494358e+01 9.562053e+01 7.432178e+01 5.657086e+01 6.515711e+01 7.241085e+01 4.914367e+01 6.430630e+01 5.758591e+01 2.695450e+01 2.658269e+02 2.237194e+00 2.760836e+00 2.314184e+00 3.943001e+00 2.833982e+00 2.664105e+00 2.646528e+00 2.741223e+00 2.630443e+00 3.028081e+00 2.569609e+00 2.033182e+00 4.984552e+00 3.580279e-01 4.174158e-01 3.847587e-01 6.210622e-01 4.999610e-01 4.797978e-01 4.820749e-01 5.089008e-01 4.798635e-01 4.500161e-01 4.608459e-01 3.767788e-01 6.789643e-01
<GCONST> 1.305778e+02
<TRANSP> 5
 0.000000e+00 1.000000e+00 0.000000e+00 0.000000e+00 0.000000e+00
 0.000000e+00 8.538188e-01 1.461812e-01 0.000000e+00 0.000000e+00
 0.000000e+00 0.000000e+00 6.558980e-01 3.441019e-01 0.000000e+00
 0.000000e+00 0.000000e+00 0.000000e+00 9.195006e-01 8.049937e-02
 0.000000e+00 0.000000e+00 0.000000e+00 0.000000e+00 0.000000e+00
<ENDHMM>
~h "ch"
<BEGINHMM>
<NUMSTATES> 5
<STATE> 2
<MEAN> 39
 -4.740526e+00 6.186149e+00 4.389586e+00 -4.037296e+00 -6.267413e+00 -3.007339e+00 -3.407117e+00 -1.694569e+00 1.490124e-01 4.563649e-01 2.307013e-01 6.176585e-02 3.650293e+01 -6.529487e-01 4.568554e-03 -5.780373e-01 -7.865760e-02 5.692559e-01 2.234970e-01 9.871221e-02 -9.219037e-02 -5.223759e-02 1.223097e-01 4.254686e-01 -2.484300e-02 -5.808899e-01 1.145847e-01 7.068478e-04 1.767833e-01 1.952183e-01 2.075120e-01 1.056347e-01 1.085892e-01 2.122800e-02 -1.479282e-01 -1.359936e-01 -1.721204e-01 -2.154769e-01 3.794053e-01
<VARIANCE> 39
 5.621860e+01 7.408064e+01 6.798945e+01 9.562053e+01 6.049548e+01 5.657086e+01 5.480392e+01 5.008425e+01 4.914367e+01 3.600889e+01 5.758591e+01 2.695450e+01 2.658269e+02 2.237194e+00 2.592087e+00 2.314184e+00 3.129044e+00 2.833982e+00 2.664105e+00 2.646528e+00 2.741223e+00 2.630443e+00 2.383868e+00 2.569609e+00 1.958500e+00 4.984552e+00 3.580279e-01 4.174158e-01 3.847587e-01 5.025513e-01 4.999610e-01 4.797978e-01 4.820749e-01 5.089008e-01 4.798635e-01 4.590654e-01 4.608459e-01 3.767788e-01 6.789643e-01
<GCONST> 1.280269e+02
<STATE> 3
<MEAN> 39
 -9.905406e+00 5.440987e+00 3.125105e+00 -3.123940e+00 -5.687985e-01 -1.093250e+00 -4.885481e-01 -1.129834e+00 -7.485797e-01 -8.574263e-01 2.374626e-01 -2.441733e+00 4.288589e+01 1.118337e-01 -9.043818e-02 -2.464138e-01 2.696913e-01 3.854579e-01 3.251313e-01 2.665447e-01 9.102675e-02 2.868167e-02 -2.491814e-01 -1.460553e-01 -2.456697e-01 -1.495030e-01 2.394367e-01 1.348736e-02 3.623865e-02 6.828798e-02 -6.355600e-02 -5.292784e-02 -3.466699e-02 3.173325e-02 -1.735168e-02 -5.209159e-02 -1.046231e-01 7.855082e-02 -1.008647e-01
<VARIANCE> 39
 5.621860e+01 7.408064e+01 6.481821e+01 9.562053e+01 6.049548e+01 5.657086e+01 5.480392e+01 5.008425e+01 4.914367e+01 3.600889e+01 5.758591e+01 2.695450e+01 2.658269e+02 3.207367e+00 2.592087e+00 2.314184e+00 3.129044e+00 2.833982e+00 2.664105e+00 2.646528e+00 2.741223e+00 2.630443e+00 2.383868e+00 2.569609e+00 1.958500e+00 4.984552e+00 4.697660e-01 4.174158e-01 3.847587e-01 5.025513e-01 4.999610e-01 4.797978e-01 4.820749e-01 5.375194e-01 4.798635e-01 4.890738e-01 4.608459e-01 4.213834e-01 6.789643e-01
<GCONST> 1.288409e+02
<STATE> 4
<MEAN> 39
 -4.787110e+00 4.773399e+00 1.245258e+00 -1.001970e+00 -2.232505e-01 -9.015496e-01 -3.239696e-01 -2.373050e-01 -8.853547e-01 -1.807983e+00 4.810935e-01 -6.687140e-01 3.436568e+01 -3.139643e-03 4.312700e-02 1.949919e-02 4.428335e-02 7.690389e-03 7.060086e-03 8.493251e-03 3.312530e-02 2.258797e-02 6.677421e-03 1.074564e-02 5.833097e-03 -6.279431e-02 -1.150412e-02 3.405020e-03 2.237638e-02 -6.789239e-03 -7.556360e-04 -1.226190e-02 -3.392709e-03 1.613858e-03 3.958285e-03 9.031003e-03 1.012197e-03 -5.786737e-03 3.673673e-02
<VARIANCE> 39
 5.621860e+01 7.408064e+01 6.481821e+01 9.562053e+01 6.049548e+01 5.657086e+01 5.480392e+01 5.008425e+01 4.914367e+01 3.600889e+01 5.758591e+01 2.695450e+01 2.658269e+02 2.237194e+00 2.592087e+00 2.314184e+00 3.129044e+00 2.833982e+00 2.664105e+00 2.646528e+00 2.741223e+00 2.630443e+00 2.383868e+00 2.569609e+00 1.958500e+00 4.984552e+00 3.580279e-01 4.174158e-01 3.847587e-01 5.025513e-01 4.999610e-01 4.797978e-01 4.820749e-01 5.089008e-01 4.798635e-01 4.500161e-01 4.608459e-01 3.767788e-01 6.789643e-01
<GCONST> 1.279592e+02
<TRANSP> 5
 0.000000e+00 1.000000e+00 0.000000e+00 0.000000e+00 0.000000e+00
 0.000000e+00 6.867774e-01 3.132226e-01 0.000000e+00 0.000000e+00
 0.000000e+00 0.000000e+00 6.492001e-01 3.507999e-01 0.000000e+00
 0.000000e+00 0.000000e+00 0.000000e+00 9.605914e-01 3.940859e-02
 0.000000e+00 0.000000e+00 0.000000e+00 0.000000e+00 0.000000e+00
<ENDHMM>
~h "eh"
<BEGINHMM>
<NUMSTATES> 5
<STATE> 2
<MEAN> 39
 -1.500589e+01 1.283562e+01 -1.597677e+00 4.795888e-01 3.752280e-01 -3.009936e+00 2.165176e+00 -1.476797e+00 -1.340912e+00 -3.357395e+00 2.873783e-01 -2.131345e+00 6.259421e+01 3.495692e-01 -2.232047e-01 1.750795e-01 -7.429421e-02 -3.012736e-01 -1.309038e-01 -2.865252e-01 7.265708e-02 2.805553e-01 1.822094e-01 1.689334e-01 4.780297e-02 8.322824e-01 9.213791e-01 -6.990471e-01 5.084410e-01 -4.410626e-01 -5.673681e-01 -4.100536e-01 -3.824153e-01 7.096905e-02 -2.550992e-01 1.568990e-02 -3.747495e-01 1.523857e-02 2.435009e-01
<VARIANCE> 39
 5.929816e+01 7.408064e+01 6.481821e+01 9.562053e+01 6.049548e+01 5.657086e+01 5.480392e+01 5.008425e+01 4.914367e+01 3.600889e+01 5.758591e+01 2.695450e+01 2.658269e+02 1.010447e+01 4.508474e+00 3.494800e+00 3.129044e+00 4.465943e+00 2.951602e+00 2.646528e+00 2.741223e+00 2.630443e+00 2.383868e+00 2.882181e+00 1.958500e+00 4.984552e+00 7.096242e-01 7.106518e-01 4.300489e-01 6.122308e-01 6.630481e-01 7.616286e-01 5.118152e-01 6.300647e-01 4.930267e-01 4.575448e-01 6.019307e-01 3.767788e-01 6.789643e-01
<GCONST> 1.340116e+02
<STATE> 3
<MEAN> 39
 -4.771206e+00 4.601534e+00 5.736778e+00 -1.383424e+00 -5.625893e+00 -2.950925e+00 -5.286916e-01 2.321672e-02 -3.124584e+00 -2.786167e+00 -2.713454e+00 -2.091233e+00 6.355776e+01 1.698271e+00 -9.410386e-01 9.969148e-01 -5.659070e-01 -8.343790e-01 -7.758569e-01 -8.214715e-01 -7.964560e-02 -3.656341e-01 -1.644701e-03 -6.698591e-01 -2.153089e-02 6.437321e-01 2.099032e-01 -3.652988e-01 5.141106e-02 -4.272909e-01 -1.307473e-01 -2.832685e-01 -2.005813e-01 5.645016e-02 -2.195866e-01 1.123518e-02 -3.155580e-01 7.436177e-02 1.296657e-01
<VARIANCE> 39
 1.019370e+02 1.049512e+02 8.071340e+01 9.562053e+01 7.039779e+01 5.657086e+01 5.480392e+01 5.008425e+01 4.914367e+01 3.600889e+01 5.758591e+01 2.695450e+01 2.658269e+02 9.566721e+00 8.121103e+00 4.372135e+00 4.044288e+00 7.575951e+00 4.288864e+00 3.256479e+00 3.606679e+00 2.887974e+00 2.563947e+00 3.485524e+00 1.958500e+00 4.984552e+00 9.437494e-01 1.453270e+00 5.509152e-01 9.265717e-01 8.841105e-01 9.177024e-01 5.711750e-01 6.190240e-01 5.306779e-01 4.862200e-01 7.950373e-01 3.767788e-01 7.335619e-01
<GCONST> 1.407460e+02
<STATE> 4
<MEAN> 39
 -7.289265e-01 6.632916e-01 9.194869e+00 -1.136736e+01 -8.382759e+00 -1.058173e+01 -6.174520e+00 -3.468940e+00 -6.599618e+00 -2.727032e+00 -7.414360e+00 -2.375034e+00 6.672536e+01 9.285551e-01 -1.453987e+00 4.393872e-01 -1.166726e+00 -5.591704e-01 -7.967107e-01 -3.786013e-01 4.925474e-01 -4.760545e-01 4.356803e-02 -8.728143e-01 2.155263e-01 8.097410e-01 -4.748675e-01 1.802912e-01 -2.445727e-01 2.418083e-01 2.669866e-01 3.216022e-01 3.135065e-01 4.146879e-02 2.765886e-02 -7.634221e-02 1.843618e-01 -6.824805e-02 -1.685313e-01
<VARIANCE> 39
 5.621860e+01 8.660046e+01 7.025107e+01 1.221403e+02 6.098086e+01 7.728405e+01 5.480392e+01 8.046416e+01 4.914367e+01 4.771176e+01 7.015468e+01 4.478529e+01 2.658269e+02 7.724758e+00 1.128422e+01 4.638770e+00 1.198707e+01 6.065173e+00 7.263849e+00 5.059122e+00 4.230416e+00 4.197042e+00 4.032382e+00 6.813753e+00 3.450272e+00 6.972852e+00 1.141025e+00 1.340112e+00 6.150883e-01 1.193947e+00 9.763994e-01 1.008185e+00 8.127939e-01 6.468136e-01 6.899754e-01 7.308429e-01 9.386597e-01 5.873786e-01 9.414795e-01
<GCONST> 1.488501e+02
<TRANSP> 5
 0.000000e+00 1.000000e+00 0.000000e+00 0.000000e+00 0.000000e+00
 0.000000e+00 6.365547e-01 3.634453e-01 0.000000e+00 0.000000e+00
 0.000000e+00 0.000000e+00 5.603694e-01 4.396307e-01 0.000000e+00
 0.000000e+00 0.000000e+00 0.000000e+00 8.639711e-01 1.360290e-01
 0.000000e+00 0.000000e+00 0.000000e+00 0.000000e+00 0.000000e+00
<ENDHMM>
~h "er"
<BEGINHMM>
<NUMSTATES> 5
<STATE> 2
<MEAN> 39
 3.137247e+00 -1.059448e+00 1.981743e+00 3.163435e+00 5.066219e+00 -3.717961e-01 1.064621e+00 4.683855e+00 3.525346e-01 -4.642235e+00 -3.569787e+00 -5.606058e-01 4.481662e+01 1.585371e-01 8.819345e-01 -2.699800e-01 -1.750107e-01 2.397208e-01 2.428156e-01 -5.108530e-02 -1.654390e-01 1.952178e-02 2.441726e-02 7.706877e-02 -1.797841e-01 -7.021896e-01 -4.833581e-02 6.328140e-02 7.307042e-02 -2.268938e-02 -8.353880e-02 -2.483375e-02 -3.499325e-02 -5.983615e-02 7.488746e-04 6.273516e-02 3.840850e-02 -2.044555e-02 2.174271e-02
<VARIANCE> 39
 5.621860e+01 7.408064e+01 6.481821e+01 9.562053e+01 6.049548e+01 5.657086e+01 5.480392e+01 5.008425e+01 4.914367e+01 3.600889e+01 5.758591e+01 2.695450e+01 2.658269e+02 2.237194e+00 2.592087e+00 2.314184e+00 3.129044e+00 2.833982e+00 2.664105e+00 2.646528e+00 2.741223e+00 2.630443e+00 2.383868e+00 2.569609e+00 1.958500e+00 4.984552e+00 3.580279e-01 4.174158e-01 3.847587e-01 5.025513e-01 4.999610e-01 4.797978e-01 4.820749e-01 5.089008e-01 4.798635e-01 4.500161e-01 4.608459e-01 3.767788e-01 6.789643e-01
<GCONST> 1.279592e+02
<STATE> 3
<MEAN> 39
 3.981977e+00 1.199064e+01 4.668925e+00 4.177873e-01 3.776847e+00 2.334162e+00 2.419468e+00 1.342011e+00 2.995662e-01 -2.428562e+00 -7.367192e-02 -1.247672e+00 3.959684e+01 -2.378925e-01 1.591394e-01 8.732898e-02 -4.401318e-02 -1.033937e-01 4.789224e-02 -4.300899e-02 -7.476771e-02 -2.434653e-02 1.119749e-01 8.174755e-02 3.331146e-02 -2.199753e-01 -3.866279e-02 -8.492488e-02 -1.312231e-02 -1.043605e-03 -8.883565e-03 -2.146345e-02 -2.132420e-02 -3.205258e-04 -7.158212e-03 -4.005551e-03 5.516909e-03 1.543166e-02 1.522392e-02
<VARIANCE> 39
 5.621860e+01 7.408064e+01 6.481821e+01 9.562053e+01 6.049548e+01 5.657086e+01 5.480392e+01 5.008425e+01 4.914367e+01 3.600889e+01 5.758591e+01 2.695450e+01 2.658269e+02 2.237194e+00 2.592087e+00 2.314184e+00 3.129044e+00 2.833982e+00 2.664105e+00 2.646528e+00 2.741223e+00 2.630443e+00 2.383868e+00 2.569609e+00 1.958500e+00 4.984552e+00 3.580279e-01 4.174158e-01 3.847587e-01 5.025513e-01 4.999610e-01 4.797978e-01 4.820749e-01 5.089008e-01 4.798635e-01 4.500161e-01 4.608459e-01 3.767788e-01 6.789643e-01
<GCONST> 1.279592e+02
<STATE> 4
<MEAN> 39
 -4.799357e+00 9.700894e-02 2.124391e-01 -2.841692e+00 2.127768e-01 -3.307241e+00 -1.140937e+00 1.625957e+00 -2.743576e+00 -3.924381e+00 -3.980832e-01 -8.001305e-01 3.806878e+01 -1.219841e-02 -4.741365e-02 -3.668163e-02 -1.541191e-02 -5.349023e-02 -5.370137e-02 4.387443e-03 1.120943e-02 -1.106733e-02 -6.877026e-05 -1.933829e-02 -6.431584e-03 6.354847e-02 6.264772e-03 2.398442e-02 1.392422e-02 1.429239e-02 1.471555e-02 7.375244e-03 2.065978e-02 1.270982e-02 1.522420e-02 1.098460e-02 1.438401e-03 -2.724749e-03 2.158672e-02
<VARIANCE> 39
 5.621860e+01 7.408064e+01 6.481821e+01 9.562053e+01 6.049548e+01 5.657086e+01 5.480392e+01 5.008425e+01 4.914367e+01 3.600889e+01 5.758591e+01 2.695450e+01 2.658269e+02 2.237194e+00 2.592087e+00 2.314184e+00 3.129044e+00 2.833982e+00 2.664105e+00 2.646528e+00 2.741223e+00 2.630443e+00 2.383868e+00 2.569609e+00 1.958500e+00 4.984552e+00 3.580279e-01 4.174158e-01 3.847587e-01 5.025513e-01 4.999610e-01 4.797978e-01 4.820749e-01 5.089008e-01 4.798635e-01 4.500161e-01 4.608459e-01 3.767788e-01 6.789643e-01
<GCONST> 1.279592e+02
<TRANSP> 5
 0.000000e+00 1.000000e+00 0.000000e+00 0.000000e+00 0.000000e+00
 0.000000e+00 8.811283e-01 1.188717e-01 0.000000e+00 0.000000e+00
 0.000000e+00 0.000000e+00 9.536387e-01 4.636132e-02 0.000000e+00
 0.000000e+00 0.000000e+00 0.000000e+00 9.760292e-01 2.397074e-02
 0.000000e+00 0.000000e+00 0.000000e+00 0.000000e+00 0.000000e+00
<ENDHMM>
~h "ey"
<BEGINHMM>
<NUMSTATES> 5
<STATE> 2
<MEAN> 39
 -1.644535e+00 3.886831e+00 1.012081e+01 -6.095861e+00 -1.415073e+00 -3.465137e+00 1.723383e+00 6.502680e-01 -3.872158e+00 -1.092413e+00 7.253168e-02 2.129682e+00 4.755412e+01 8.562028e-02 7.317302e-01 1.505155e-01 6.005519e-01 3.952961e-01 5.987584e-01 3.939957e-02 -7.537511e-02 3.090702e-01 -5.603372e-02 9.215988e-02 9.200308e-02 -9.483991e-01 4.935761e-03 -1.524900e-02 -1.926284e-02 4.066645e-02 2.884955e-02 1.707668e-02 -1.003690e-01 3.635267e-03 -6.018512e-02 -7.270350e-02 -9.304632e-02 -1.452032e-01 9.256910e-02
<VARIANCE> 39
 5.621860e+01 7.408064e+01 6.481821e+01 9.562053e+01 1.283387e+02 5.657086e+01 6.756032e+01 5.008425e+01 4.914367e+01 3.600889e+01 5.758591e+01 3.852730e+01 2.658269e+02 2.237194e+00 2.592087e+00 2.314184e+00 3.129044e+00 2.833982e+00 2.664105e+00 2.646528e+00 2.741223e+00 2.662946e+00 2.492914e+00 2.569609e+00 1.958500e+00 4.984552e+00 3.580279e-01 4.174158e-01 3.847587e-01 5.025513e-01 4.999610e-01 4.797978e-01 4.820749e-01 5.089008e-01 4.798635e-01 5.197671e-01 4.608459e-01 3.767788e-01 6.789643e-01
<GCONST> 1.294789e+02
<STATE> 3
<MEAN> 39
 5.327770e-01 7.677400e+00 1.041963e+01 -2.743983e+00 -2.824105e+00 -1.354271e+00 -5.678499e-02 -3.444254e-01 -2.889748e+00 -1.307787e+00 -1.040722e+00 -1.385220e+00 4.567245e+01 9.953812e-02 5.139591e-01 -6.893377e-02 6.270151e-01 1.821628e-01 3.532726e-01 -1.779014e-01 2.914581e-02 2.551267e-01 -1.824437e-01 -1.122864e-01 -2.454320e-01 -7.242175e-01 -1.540042e-01 -1.768355e-01 -8.468227e-02 -6.935311e-02 -4.271204e-02 -1.649905e-01 -7.709916e-02 1.484687e-02 -4.686680e-02 -2.495356e-03 4.087003e-03 3.851482e-02 1.205351e-01
<VARIANCE> 39
 5.621860e+01 7.408064e+01 6.976936e+01 9.562053e+01 6.861757e+01 6.034276e+01 5.902636e+01 5.008425e+01 4.914367e+01 3.600889e+01 5.758591e+01 2.695450e+01 2.658269e+02 2.237194e+00 2.592087e+00 2.314184e+00 3.129044e+00 2.833982e+00 2.664105e+00 2.646528e+00 2.741223e+00 2.630443e+00 2.383868e+00 2.569609e+00 1.958500e+00 4.984552e+00 4.030588e-01 4.174158e-01 4.022262e-01 5.025513e-01 4.999610e-01 4.797978e-01 4.820749e-01 5.089008e-01 4.798635e-01 4.500161e-01 4.608459e-01 3.767788e-01 7.411209e-01
<GCONST> 1.285481e+02
<STATE> 4
<MEAN> 39
 -3.043327e+00 8.531561e+00 4.704857e+00 -5.221634e-01 -1.500597e-01 -4.629865e-01 2.652996e-01 5.007322e-01 -3.870615e-01 -1.021045e+00 7.965919e-01 -1.156492e-01 3.520630e+01 -5.764714e-02 -1.911589e-02 -7.032061e-03 2.699101e-02 2.824683e-02 -2.808616e-03 -6.373984e-02 -4.306272e-02 3.158674e-02 2.043067e-03 9.553407e-03 1.305916e-02 -5.061955e-02 9.618386e-04 -1.553932e-02 7.881240e-03 -1.378971e-02 -1.042991e-02 -2.146302e-02 -5.309861e-03 -8.664528e-04 -2.298352e-02 -1.435471e-03 6.346612e-03 4.987633e-03 4.029768e-02
<VARIANCE> 39
 5.621860e+01 7.408064e+01 6.481821e+01 9.562053e+01 6.049548e+01 5.657086e+01 5.480392e+01 5.008425e+01 4.914367e+01 3.600889e+01 5.758591e+01 2.695450e+01 2.658269e+02 2.237194e+00 2.592087e+00 2.314184e+00 3.129044e+00 2.833982e+00 2.664105e+00 2.646528e+00 2.741223e+00 2.630443e+00 2.383868e+00 2.569609e+00 1.958500e+00 4.984552e+00 3.580279e-01 4.174158e-01 3.847587e-01 5.025513e-01 4.999610e-01 4.797978e-01 4.820749e-01 5.089008e-01 4.798635e-01 4.500161e-01 4.608459e-01 3.767788e-01 6.789643e-01
<GCONST> 1.279592e+02
<TRANSP> 5
 0.000000e+00 1.000000e+00 0.000000e+00 0.000000e+00 0.000000e+00
 0.000000e+00 6.146207e-01 3.853792e-01 0.000000e+00 0.000000e+00
 0.000000e+00 0.000000e+00 5.065838e-01 4.934162e-01 0.000000e+00
 0.000000e+00 0.000000e+00 0.000000e+00 9.369634e-01 6.303666e-02
 0.000000e+00 0.000000e+00 0.000000e+00 0.000000e+00 0.000000e+00
<ENDHMM>
~h "hh"
<BEGINHMM>
<NUMSTATES> 5
<STATE> 2
<MEAN> 39
 1.323960e+00 -7.192551e+00 2.263607e+00 -5.171360e+00 -6.383395e+00 -1.198183e+00 -1.618525e+00 3.159830e+00 -1.654293e+00 -3.527204e+00 -1.699056e+00 -7.827576e+00 6.892484e+01 -4.269883e-01 7.791459e-01 5.015320e-01 1.936585e-01 -2.247596e-01 1.180293e-02 3.843828e-01 1.348942e-01 -3.260981e-01 1.630793e-01 4.887734e-01 1.216607e-01 6.235625e-01 -2.596470e-01 2.111501e-01 -3.538573e-02 2.020387e-01 1.673948e-01 6.344320e-02 1.399578e-01 2.015412e-03 1.412955e-01 1.033310e-01 4.616428e-02 1.418931e-01 -1.825613e-01
<VARIANCE> 39
 5.621860e+01 8.564676e+01 6.481821e+01 9.562053e+01 2.176066e+02 5.657086e+01 5.480392e+01 5.008425e+01 4.914367e+01 3.600889e+01 5.758591e+01 3.887063e+01 2.658269e+02 4.975275e+00 5.473760e+00 2.980944e+00 3.129044e+00 1.191451e+01 2.830533e+00 4.844138e+00 4.180341e+00 2.630443e+00 2.383868e+00 3.642011e+00 2.788981e+00 4.984552e+00 3.656274e-01 5.542635e-01 3.847587e-01 5.025513e-01 1.258797e+00 4.797978e-01 5.494804e-01 5.861324e-01 5.310759e-01 4.500161e-01 5.813820e-01 3.767788e-01 6.789643e-01
<GCONST> 1.366098e+02
<STATE> 3
<MEAN> 39
 -1.037065e+01 2.253003e+00 -1.176032e+00 -1.966784e+00 6.689313e+00 -1.611491e+00 2.046545e+00 1.939461e+00 -4.038772e+00 -6.935723e-02 1.400396e+00 -9.853817e-01 6.107124e+01 4.602187e-01 -3.611621e-01 -4.805610e-01 -5.540990e-01 2.892151e-03 4.574287e-01 -6.257741e-01 -1.146432e-01 -5.997285e-01 3.676952e-01 -1.292845e-01 3.602727e-01 2.229481e-01 3.139941e-01 2.902725e-02 1.120103e-01 -1.098574e-01 -3.371289e-01 -1.426440e-01 -2.374554e-01 -7.703078e-02 -1.042555e-01 -1.826991e-01 -2.609264e-02 -2.027884e-03 -1.098240e-01
<VARIANCE> 39
 7.763263e+01 9.025055e+01 8.411401e+01 9.562053e+01 7.218011e+01 5.657086e+01 7.324889e+01 5.008425e+01 4.961761e+01 3.600889e+01 5.758591e+01 3.388138e+01 2.658269e+02 6.867698e+00 4.263867e+00 7.372507e+00 5.712880e+00 7.538315e+00 3.914045e+00 4.932161e+00 3.720057e+00 3.890935e+00 2.406387e+00 3.342726e+00 3.117483e+00 1.073358e+01 6.606263e-01 7.287608e-01 1.179409e+00 9.341398e-01 1.263190e+00 8.477585e-01 9.114021e-01 7.393425e-01 6.641294e-01 4.500161e-01 6.099983e-01 7.030149e-01 2.158040e+00
<GCONST> 1.448136e+02
<STATE> 4
<MEAN> 39
 3.030400e+00 1.779212e+00 -1.302097e+00 -1.331679e+01 5.383217e-01 2.939862e+00 -3.082014e+00 -3.356069e+00 -6.184887e+00 -3.294659e+00 -3.962879e-01 3.431981e+00 6.206841e+01 -3.234907e-01 1.556471e-01 -8.990587e-02 -7.078704e-02 4.205354e-02 -2.577801e-01 2.438769e-01 -2.164102e-02 2.082749e-02 -9.976099e-02 -1.329697e-01 -1.595833e-01 -2.624317e-01 2.820310e-02 2.313130e-02 -3.178484e-02 2.856088e-02 -6.933932e-02 -1.485240e-01 -2.496557e-02 2.275510e-02 6.809267e-03 -8.192012e-02 -7.499202e-02 -1.304670e-01 -8.614756e-02
<VARIANCE> 39
 1.382725e+02 1.221118e+02 6.481821e+01 9.562053e+01 1.577753e+02 1.184364e+02 5.695450e+01 5.008425e+01 4.914367e+01 6.175612e+01 5.758591e+01 2.695450e+01 2.658269e+02 3.962272e+00 4.286737e+00 2.314184e+00 4.091197e+00 6.052500e+00 3.598457e+00 3.110001e+00 2.852561e+00 2.630443e+00 3.375892e+00 2.569609e+00 1.958500e+00 4.984552e+00 7.216019e-01 6.573202e-01 3.994769e-01 6.259884e-01 1.001440e+00 6.443061e-01 6.774987e-01 5.089008e-01 4.798635e-01 4.957045e-01 4.608459e-01 3.767788e-01 6.789643e-01
<GCONST> 1.374243e+02
<TRANSP> 5
 0.000000e+00 1.000000e+00 0.000000e+00 0.000000e+00 0.000000e+00
 0.000000e+00 8.076268e-01 1.923732e-01 0.000000e+00 0.000000e+00
 0.000000e+00 0.000000e+00 8.523900e-01 1.476101e-01 0.000000e+00
 0.000000e+00 0.000000e+00 0.000000e+00 8.889363e-01 1.110636e-01
 0.000000e+00 0.000000e+00 0.000000e+00 0.000000e+00 0.000000e+00
<ENDHMM>
~h "ih"
<BEGINHMM>
<NUMSTATES> 5
<STATE> 2
<MEAN> 39
 -2.788646e+00 2.745638e+00 1.444335e+01 -9.728130e+00 -9.041977e+00 -7.522471e+00 -6.495037e+00 -7.590630e+00 -7.322536e+00 -1.258983e+00 -7.504225e+00 -2.413808e+00 6.110538e+01 4.547902e-01 -4.192752e-01 5.190632e-01 -3.087815e-01 -2.880943e-01 -1.855781e-01 -3.497763e-01 1.223234e-01 -1.408065e-01 1.495515e-01 -8.710590e-02 1.347436e-01 1.832005e-01 -8.999757e-02 -9.235796e-03 -1.749133e-01 -3.713433e-02 1.266676e-01 8.953918e-02 9.209431e-02 1.010099e-01 1.189571e-01 4.658879e-02 -4.164984e-02 5.560222e-02 -1.732294e-01
<VARIANCE> 39
 5.621860e+01 7.408064e+01 9.560207e+01 1.119885e+02 6.127470e+01 7.379120e+01 5.561260e+01 9.425886e+01 6.435057e+01 4.030041e+01 8.958086e+01 3.520622e+01 2.658269e+02 4.824275e+00 5.609436e+00 7.978981e+00 1.138219e+01 7.032645e+00 5.803693e+00 5.886355e+00 5.934006e+00 4.602594e+00 4.427606e+00 7.351052e+00 2.951623e+00 1.616679e+01 7.516112e-01 9.628322e-01 1.105705e+00 1.630529e+00 1.125851e+00 9.762531e-01 1.066373e+00 9.510459e-01 7.268326e-01 8.156872e-01 1.100951e+00 5.631272e-01 2.145009e+00
<GCONST> 1.518521e+02
<STATE> 3
<MEAN> 39
 -1.033009e+00 3.248610e-01 1.304117e+01 -5.693005e+00 -9.593790e+00 -6.263334e+00 -5.509113e+00 -8.502393e-01 -7.031213e+00 3.990647e-01 -3.316370e+00 -2.267327e+00 5.674894e+01 -1.040736e-02 1.751154e-01 -5.958374e-01 1.221550e-01 7.636620e-01 8.115140e-02 3.115658e-01 1.096926e-01 6.496028e-01 1.160093e-01 -2.391491e-01 2.559077e-01 -1.380301e+00 -1.414789e-01 7.108171e-02 -1.856315e-01 -1.229501e-02 1.606853e-01 5.558800e-02 5.401306e-02 -1.231121e-01 9.089510e-02 -4.000039e-02 -4.188487e-02 -1.495806e-02 6.918416e-02
<VARIANCE> 39
 5.621860e+01 7.408064e+01 8.098474e+01 9.562053e+01 6.195636e+01 6.035732e+01 5.480392e+01 7.495879e+01 5.971502e+01 4.296606e+01 6.956940e+01 2.937902e+01 2.658269e+02 2.748060e+00 3.184109e+00 3.566707e+00 3.437372e+00 4.004344e+00 3.797669e+00 2.729321e+00 3.544652e+00 3.348484e+00 2.844184e+00 3.338159e+00 2.404740e+00 1.208111e+01 5.574290e-01 5.675735e-01 5.982670e-01 9.251379e-01 8.339546e-01 6.978129e-01 5.668881e-01 7.030283e-01 5.804327e-01 6.497726e-01 8.164077e-01 4.934828e-01 1.785517e+00
<GCONST> 1.385559e+02
<STATE> 4
<MEAN> 39
 2.148794e-01 2.416650e-01 1.405326e+01 -1.491980e+01 -5.650005e+00 -8.174287e+00 -7.211123e+00 -6.059443e+00 -7.143196e+00 -2.448067e-01 -1.229249e+01 7.740197e-01 6.176442e+01 -5.780012e-02 3.786032e-01 -3.690150e-01 7.067053e-01 5.421069e-01 5.005316e-01 3.843755e-01 6.610052e-02 4.515114e-01 -3.219717e-01 3.219559e-01 3.799522e-02 -1.073017e+00 -1.074355e-01 3.050186e-02 -5.200631e-02 1.303778e-01 2.233667e-03 4.363711e-02 4.857558e-02 2.916375e-02 2.751603e-02 -3.071149e-03 1.632790e-01 -2.935555e-02 -4.466818e-02
<VARIANCE> 39
 5.621860e+01 7.889144e+01 9.652877e+01 1.166558e+02 6.543987e+01 6.304842e+01 5.480392e+01 9.892088e+01 5.612641e+01 6.423999e+01 6.129758e+01 3.181428e+01 2.658269e+02 2.237194e+00 2.592087e+00 2.314184e+00 3.129044e+00 2.833982e+00 2.664105e+00 2.646528e+00 2.741223e+00 2.630443e+00 2.593927e+00 3.053672e+00 1.958500e+00 4.984552e+00 3.580279e-01 4.174158e-01 3.847587e-01 5.025513e-01 4.999610e-01 4.797978e-01 4.820749e-01 5.089008e-01 4.798635e-01 4.547561e-01 5.054163e-01 3.767788e-01 6.789643e-01
<GCONST> 1.307866e+02
<TRANSP> 5
 0.000000e+00 1.000000e+00 0.000000e+00 0.000000e+00 0.000000e+00
 0.000000e+00 8.349077e-01 1.650923e-01 0.000000e+00 0.000000e+00
 0.000000e+00 0.000000e+00 5.766912e-01 4.233088e-01 0.000000e+00
 0.000000e+00 0.000000e+00 0.000000e+00 8.360873e-01 1.639126e-01
