~o
<STREAMINFO> 1 39
<VECSIZE> 39<NULLD><MFCC_D_A_0><DIAGC>
~s "silst"
<MEAN> 39
 -1.557112e+00 8.844255e+00 4.179954e+00 5.426231e-02 1.234499e+00 5.470883e-01 7.526714e-01 9.242103e-01 9.064720e-01 -6.741079e-01 2.705761e-01 -5.570560e-01 3.710411e+01 -9.622916e-02 3.164903e-02 -5.430992e-02 5.558367e-02 1.846277e-02 -9.480949e-03 -1.646605e-02 -4.975466e-03 1.229595e-02 2.410793e-02 4.124129e-02 -1.381493e-02 -1.361825e-01 1.172386e-03 -2.801573e-02 1.542206e-02 -3.365716e-02 -1.171396e-02 -3.140432e-02 -3.431915e-02 -2.715307e-02 -5.027539e-02 -2.270235e-02 -3.256823e-02 -1.666502e-02 7.978144e-02
<VARIANCE> 39
 5.621860e+01 7.408064e+01 6.481821e+01 9.562053e+01 6.049548e+01 5.657086e+01 5.480392e+01 5.008425e+01 4.914367e+01 3.600889e+01 5.758591e+01 2.695450e+01 2.658269e+02 2.237194e+00 2.592087e+00 2.314184e+00 3.129044e+00 2.833982e+00 2.664105e+00 2.646528e+00 2.741223e+00 2.630443e+00 2.383868e+00 2.569609e+00 1.958500e+00 4.984552e+00 3.580279e-01 4.174158e-01 3.847587e-01 5.025513e-01 4.999610e-01 4.797978e-01 4.820749e-01 5.089008e-01 4.798635e-01 4.500161e-01 4.608459e-01 3.767788e-01 6.789643e-01
<GCONST> 1.279592e+02
~h "b"
<BEGINHMM>
<NUMSTATES> 5
<STATE> 2
<MEAN> 39
 3.272573e+00 1.022157e+01 8.548743e+00 2.513693e+00 1.542155e+00 -2.684655e-01 -5.566227e+00 -7.076259e+00 -6.419770e+00 -2.116500e+00 -4.477957e+00 -7.490276e+00 3.980324e+01 1.255974e+00 2.500944e-01 2.576129e-01 1.634163e-01 7.837643e-02 -2.133511e-02 -7.899435e-01 -9.650545e-01 -9.430077e-01 -7.259688e-01 -5.187296e-01 -7.387306e-01 1.339208e+00 -8.472539e-02 -3.418101e-01 -1.981496e-01 -2.372691e-01 -1.109121e-01 -1.775258e-01 1.417551e-03 1.827000e-01 2.558638e-01 1.540369e-01 1.775778e-01 2.432416e-01 5.572944e-01
<VARIANCE> 39
 5.621860e+01 7.408064e+01 6.481821e+01 9.562053e+01 6.049548e+01 5.657086e+01 5.480392e+01 5.008425e+01 4.914367e+01 4.399889e+01 5.758591e+01 3.348222e+01 2.658269e+02 4.269544e+00 3.864483e+00 2.355716e+00 3.129044e+00 2.833982e+00 3.060537e+00 3.458454e+00 4.303331e+00 5.015015e+00 4.050313e+00 3.691970e+00 3.219371e+00 5.249350e+00 9.070763e-01 6.942925e-01 4.736901e-01 6.735414e-01 5.207223e-01 5.718206e-01 6.273291e-01 8.051355e-01 8.934261e-01 8.151196e-01 6.637859e-01 5.980737e-01 9.400654e-01
<GCONST> 1.376292e+02
<STATE> 3
<MEAN> 39
 7.805758e+00 1.419563e+00 6.392831e+00 -9.315099e-01 -3.706533e+00 -5.295688e+00 -1.064713e+01 -8.543381e+00 -2.531172e+00 -1.029404e-01 -3.976603e+00 -5.664000e+00 6.122504e+01 -1.153183e-01 -1.860417e+00 -8.664151e-01 -2.310767e+00 -9.303142e-01 -8.456511e-01 -5.811145e-01 9.804437e-01 1.278325e+00 1.070704e+00 3.056039e-01 6.812451e-01 3.588615e+00 -1.163925e-01 3.379595e-02 -6.988318e-02 -4.400227e-01 9.291399e-02 1.657178e-01 7.446213e-02 2.023893e-01 -8.825961e-02 8.703083e-03 -1.553221e-01 -4.967324e-02 -3.121842e-01
<VARIANCE> 39
 5.621860e+01 7.408064e+01 6.481821e+01 9.562053e+01 7.070054e+01 6.008952e+01 5.710004e+01 6.265779e+01 7.645995e+01 6.400903e+01 5.758591e+01 3.828614e+01 2.658269e+02 3.017317e+00 4.537535e+00 3.543362e+00 7.532704e+00 6.575428e+00 6.084219e+00 5.824696e+00 7.684568e+00 5.945975e+00 5.486124e+00 6.074235e+00 5.460323e+00 8.924871e+00 6.265759e-01 8.495916e-01 5.622178e-01 9.368073e-01 1.154281e+00 9.423057e-01 1.051738e+00 1.514459e+00 1.321826e+00 1.212515e+00 1.126690e+00 8.724378e-01 1.507149e+00
<GCONST> 1.497668e+02
<STATE> 4
<MEAN> 39
 3.446111e+00 -8.777767e+00 -1.642627e+00 -2.359438e+01 8.060796e-01 -6.766607e+00 -1.199669e+01 -6.568396e-02 -3.002818e+00 -1.505361e+00 -1.241327e+01 -4.450527e+00 7.423502e+01 -1.855919e-01 -5.937690e-01 -5.122586e-01 -1.098355e+00 6.620771e-01 5.309302e-01 5.390567e-01 3.338915e-01 -2.407313e-01 -1.952474e-01 -2.842509e-01 -1.400376e-01 3.629712e-01 4.139993e-02 1.793783e-01 1.307227e-01 3.657029e-01 -4.071631e-02 6.253242e-02 8.828379e-02 -1.922817e-01 -6.385275e-02 -5.916404e-03 1.619983e-01 -6.729444e-03 -2.542933e-01
<VARIANCE> 39
 5.621860e+01 7.673460e+01 6.481821e+01 1.016418e+02 7.305318e+01 1.088656e+02 6.104140e+01 5.308771e+01 5.324504e+01 6.027324e+01 8.821944e+01 6.182139e+01 2.658269e+02 2.237194e+00 2.592087e+00 2.314184e+00 3.726302e+00 2.833982e+00 2.664105e+00 2.646528e+00 3.282854e+00 2.630443e+00 2.691905e+00 3.339931e+00 2.322221e+00 4.984552e+00 3.580279e-01 4.174158e-01 3.847587e-01 5.025513e-01 4.999610e-01 4.797978e-01 4.820749e-01 5.549896e-01 4.798635e-01 4.500161e-01 4.907390e-01 4.130053e-01 6.789643e-01
<GCONST> 1.320671e+02
<TRANSP> 5
 0.000000e+00 1.000000e+00 0.000000e+00 0.000000e+00 0.000000e+00
 0.000000e+00 8.470169e-01 1.529831e-01 0.000000e+00 0.000000e+00
 0.000000e+00 0.000000e+00 8.029830e-01 1.970170e-01 0.000000e+00
 0.000000e+00 0.000000e+00 0.000000e+00 8.552335e-01 1.447665e-01
 0.000000e+00 0.000000e+00 0.000000e+00 0.000000e+00 0.000000e+00
<ENDHMM>
~h "d"
<BEGINHMM>
<NUMSTATES> 5
<STATE> 2
<MEAN> 39
 -2.010781e+00 -1.262788e+00 7.388725e+00 -7.605076e+00 -3.415259e+00 -5.353914e+00 -2.315851e+00 -2.045420e+00 -6.501097e+00 -4.753331e+00 -6.974292e+00 -3.357783e+00 5.590118e+01 4.558628e-01 -1.339773e+00 1.036101e+00 -1.411425e+00 -1.071729e+00 -8.319325e-01 -4.242879e-01 -6.175232e-01 -1.142056e+00 8.709709e-02 -7.930154e-01 -3.278479e-01 3.252352e+00 -7.538987e-02 3.235529e-02 8.206028e-02 -1.046717e-01 -1.441706e-01 -4.626089e-05 -9.111337e-02 -9.870529e-03 3.041094e-02 2.436999e-01 1.282185e-02 1.098233e-01 -5.980103e-02
<VARIANCE> 39
 5.621860e+01 1.320925e+02 6.481821e+01 9.770247e+01 8.001355e+01 5.657086e+01 5.954089e+01 8.966956e+01 6.775429e+01 4.684455e+01 5.758591e+01 3.908562e+01 2.753957e+02 4.813311e+00 7.793937e+00 4.102029e+00 5.549835e+00 6.019773e+00 3.756661e+00 4.164294e+00 6.372713e+00 4.663010e+00 5.031161e+00 4.703787e+00 3.705321e+00 1.754054e+01 7.584227e-01 1.281538e+00 6.727027e-01 9.130058e-01 9.942067e-01 6.042455e-01 6.926412e-01 9.813166e-01 7.868991e-01 7.173454e-01 7.668011e-01 5.506889e-01 2.821388e+00
<GCONST> 1.479606e+02
<STATE> 3
<MEAN> 39
 4.720111e+00 -6.611481e+00 1.147738e+01 -8.562489e+00 -1.159579e+01 -4.079756e+00 -5.997365e+00 6.579398e-01 -6.554613e+00 -2.298609e-01 -9.078654e+00 -4.674740e+00 6.705838e+01 -7.239717e-02 5.411060e-01 4.113255e-01 -3.123952e-02 -1.930556e-01 -3.254640e-02 -4.187396e-01 -4.655374e-01 -3.346396e-02 3.660379e-01 7.312177e-02 -1.009521e-02 -1.823286e-01 -1.058477e-01 1.710742e-01 -7.690112e-02 8.848227e-02 2.629523e-01 5.004075e-03 4.503584e-02 1.954729e-02 7.277901e-02 -1.252750e-01 7.505354e-02 5.219628e-02 -2.189253e-01
<VARIANCE> 39
 5.621860e+01 7.408064e+01 6.481821e+01 9.562053e+01 6.703857e+01 5.657086e+01 5.480392e+01 6.305906e+01 4.914367e+01 5.835323e+01 5.758591e+01 4.209095e+01 2.658269e+02 2.237194e+00 2.592087e+00 2.514677e+00 3.129044e+00 2.833982e+00 2.664105e+00 2.646528e+00 2.741223e+00 2.630443e+00 2.406155e+00 2.569609e+00 1.958500e+00 4.984552e+00 3.580279e-01 4.174158e-01 3.847587e-01 5.025513e-01 4.999610e-01 4.797978e-01 4.820749e-01 5.089008e-01 4.798635e-01 4.500161e-01 4.608459e-01 3.767788e-01 6.789643e-01
<GCONST> 1.293131e+02
<STATE> 4
<MEAN> 39
 -3.613657e+00 -2.899847e+00 1.323026e+01 -2.144997e+01 -8.142723e+00 -1.549511e+01 -7.743595e+00 -8.616219e+00 -1.323159e+01 -3.057180e+00 -1.693289e+01 -1.527454e-02 6.940002e+01 8.930112e-02 4.690210e-01 8.425828e-02 4.482195e-01 1.040297e-01 5.358058e-02 -1.053840e-01 -7.692244e-03 1.227997e-01 -1.045670e-02 1.203331e-01 2.458344e-02 -5.809057e-01 4.057351e-03 4.745620e-02 -8.163358e-02 1.677354e-01 6.840605e-02 1.055565e-01 7.751174e-02 7.987425e-02 7.074621e-02 -3.735062e-02 1.189587e-01 -2.437232e-02 -1.465006e-01
<VARIANCE> 39
 5.621860e+01 9.153104e+01 7.138807e+01 9.562053e+01 6.472684e+01 7.402866e+01 7.979184e+01 5.286715e+01 6.088851e+01 7.548188e+01 6.010259e+01 3.262527e+01 2.658269e+02 2.237194e+00 2.592087e+00 2.314184e+00 3.453700e+00 2.833982e+00 2.871943e+00 2.646528e+00 2.741223e+00 2.671968e+00 2.789567e+00 2.959370e+00 1.958500e+00 4.984552e+00 3.580279e-01 4.174158e-01 3.847587e-01 5.025513e-01 4.999610e-01 4.797978e-01 4.820749e-01 5.089008e-01 4.847591e-01 4.864203e-01 4.954854e-01 3.767788e-01 6.789643e-01
<GCONST> 1.308700e+02
<TRANSP> 5
 0.000000e+00 1.000000e+00 0.000000e+00 0.000000e+00 0.000000e+00
 0.000000e+00 6.508079e-01 3.491921e-01 0.000000e+00 0.000000e+00
 0.000000e+00 0.000000e+00 7.673720e-01 2.326281e-01 0.000000e+00
 0.000000e+00 0.000000e+00 0.000000e+00 8.942058e-01 1.057942e-01
 0.000000e+00 0.000000e+00 0.000000e+00 0.000000e+00 0.000000e+00
<ENDHMM>
~h "f"
<BEGINHMM>
<NUMSTATES> 5
<STATE> 2
<MEAN> 39
 9.781920e+00 -8.410363e-01 2.027369e+00 -1.098847e+01 -6.231938e+00 7.178187e-01 -1.420773e+01 -4.063342e+00 -5.263865e+00 6.047042e-01 7.812799e+00 -6.473840e+00 6.748071e+01 2.304483e-01 -1.376076e-01 -1.607764e-02 -8.128595e-01 8.353619e-02 -1.485416e-01 -5.884013e-01 1.327124e-02 -1.986363e-02 5.591990e-01 2.269270e-02 -3.236603e-02 -3.094462e-02 -3.289343e-01 1.509511e-01 3.515036e-02 4.011215e-01 2.336348e-01 -1.381412e-01 2.881672e-01 6.537205e-02 1.575878e-01 -5.282276e-02 -2.934096e-01 8.503350e-02 -3.116878e-01
<VARIANCE> 39
 5.621860e+01 7.408064e+01 6.481821e+01 2.257240e+02 6.368728e+01 6.958080e+01 6.028831e+01 5.442188e+01 1.432828e+02 4.464466e+01 6.718342e+01 5.005227e+01 2.658269e+02 2.712266e+00 2.592087e+00 2.314184e+00 1.133481e+01 3.015142e+00 4.253170e+00 7.554843e+00 4.035579e+00 4.491944e+00 2.852217e+00 4.106383e+00 3.402237e+00 4.984552e+00 3.739836e-01 4.174158e-01 3.847587e-01 1.207494e+00 4.999610e-01 6.266958e-01 1.043880e+00 6.035339e-01 6.306465e-01 4.857189e-01 5.533568e-01 6.191854e-01 6.789643e-01
<GCONST> 1.396535e+02
<STATE> 3
<MEAN> 39
 6.889049e+00 1.845440e+00 1.517106e+00 -2.120863e+01 -8.784328e-01 7.983428e-01 -9.719955e+00 -1.983234e+00 -5.369925e+00 2.526034e+00 -8.076365e-01 -1.465501e+00 6.311337e+01 -4.542213e-01 4.363523e-01 1.167353e-01 9.511840e-01 6.782795e-01 -4.455440e-01 7.847086e-01 4.372365e-01 7.968317e-01 -8.122434e-02 -7.265514e-01 4.060876e-02 -1.345930e+00 -3.672908e-02 8.792166e-02 -4.771784e-02 2.017861e-01 -2.000492e-01 9.238365e-02 -5.271661e-02 -6.776205e-02 5.645438e-02 -1.533887e-01 2.266705e-01 1.044004e-02 -2.878607e-01
<VARIANCE> 39
 5.621860e+01 7.408064e+01 6.481821e+01 1.674939e+02 7.823343e+01 8.496046e+01 7.854092e+01 5.008425e+01 4.914367e+01 3.600889e+01 5.758591e+01 2.819269e+01 2.658269e+02 2.237194e+00 2.592087e+00 2.314184e+00 3.129044e+00 2.833982e+00 2.664105e+00 2.646528e+00 2.741223e+00 2.960294e+00 2.383868e+00 2.569609e+00 2.800257e+00 5.852615e+00 3.580279e-01 4.174158e-01 3.847587e-01 5.423148e-01 4.999610e-01 4.797978e-01 4.820749e-01 5.089008e-01 4.798635e-01 4.500161e-01 4.608459e-01 4.291399e-01 7.555866e-01
<GCONST> 1.305378e+02
<STATE> 4
<MEAN> 39
 1.733228e+00 4.968012e+00 1.373285e+00 -5.852057e+00 4.198173e+00 8.871336e-01 -4.337093e+00 -9.416134e-01 -9.977534e-01 4.811567e-01 -2.812195e-01 -1.485176e+00 5.098998e+01 -7.086021e-01 3.673803e-01 -3.530947e-01 7.532377e-01 -3.585020e-01 5.182265e-02 3.113379e-01 1.226058e-01 3.829111e-01 -3.671575e-01 1.363521e-01 4.167541e-01 -1.613770e+00 -1.643989e-02 -1.172695e-01 -1.026235e-01 -1.715954e-01 -3.241989e-01 -1.628566e-02 -1.890969e-01 -1.648960e-01 -6.769869e-02 -3.110881e-02 2.562593e-01 -6.809054e-02 2.521737e-01
<VARIANCE> 39
 5.621860e+01 7.408064e+01 6.481821e+01 1.331550e+02 6.049548e+01 7.262624e+01 6.630408e+01 5.008425e+01 4.914367e+01 3.600889e+01 5.758591e+01 2.695450e+01 2.658269e+02 2.237194e+00 2.861085e+00 2.314184e+00 3.781932e+00 3.486346e+00 2.664105e+00 2.646528e+00 2.741223e+00 2.642805e+00 2.514229e+00 2.569609e+00 2.858905e+00 8.529621e+00 3.580279e-01 5.402427e-01 4.975477e-01 8.545473e-01 7.404410e-01 5.157783e-01 5.255370e-01 5.089008e-01 4.798635e-01 5.101203e-01 4.608459e-01 6.130797e-01 1.051917e+00
<GCONST> 1.328467e+02
<TRANSP> 5
 0.000000e+00 1.000000e+00 0.000000e+00 0.000000e+00 0.000000e+00
 0.000000e+00 8.463427e-01 1.536572e-01 0.000000e+00 0.000000e+00
 0.000000e+00 0.000000e+00 6.494886e-01 3.505113e-01 0.000000e+00
 0.000000e+00 0.000000e+00 0.000000e+00 3.935739e-01 6.064261e-01
 0.000000e+00 0.000000e+00 0.000000e+00 0.000000e+00 0.000000e+00
<ENDHMM>
~h "g"
<BEGINHMM>
<NUMSTATES> 5
<STATE> 2
<MEAN> 39
 -4.498725e+00 3.595839e+00 2.806218e+00 -3.649298e+00 -5.690498e+00 -6.263758e+00 -2.163822e+00 6.735924e-01 6.135912e-01 -9.743668e-01 -1.184213e+00 2.734998e-01 4.265368e+01 -1.154637e+00 2.344336e-01 -5.152640e-01 5.986471e-01 9.646711e-01 1.030727e+00 -7.571941e-03 -1.882476e-02 1.570000e-01 5.460556e-02 6.574033e-01 -1.688480e-01 -1.168239e+00 6.324820e-02 -3.450611e-01 1.068022e-01 -8.113943e-02 1.256877e-01 -3.900646e-02 -1.134297e-01 -9.826925e-02 -3.222825e-01 -1.416125e-01 -2.809579e-01 -1.846555e-01 9.397874e-01
<VARIANCE> 39
 5.621860e+01 7.408064e+01 6.481821e+01 9.562053e+01 6.049548e+01 5.657086e+01 5.480392e+01 5.008425e+01 4.914367e+01 3.600889e+01 5.758591e+01 2.749898e+01 2.658269e+02 3.415023e+00 5.600898e+00 4.678054e+00 5.125530e+00 6.096598e+00 4.994324e+00 3.093165e+00 3.164123e+00 4.730189e+00 3.916379e+00 3.686524e+00 3.117033e+00 2.492756e+01 6.355425e-01 1.048795e+00 1.003427e+00 1.205308e+00 1.236277e+00 1.017532e+00 6.693649e-01 6.980920e-01 9.046121e-01 8.875485e-01 6.305237e-01 6.318956e-01 3.229037e+00
<GCONST> 1.449155e+02
<STATE> 3
<MEAN> 39
 -8.419556e+00 3.933941e-01 3.045005e+00 7.306193e-01 2.900975e+00 -1.366778e+00 -4.785208e+00 -1.263881e+00 -2.661234e+00 -2.896317e+00 -2.835805e+00 -4.323946e+00 5.188704e+01 2.238813e+00 3.864327e-01 1.180941e+00 1.423399e+00 -3.636403e-01 1.245296e-02 -1.714088e+00 -1.628645e+00 -1.418905e+00 -1.068886e+00 -1.607126e+00 -1.589424e+00 1.528277e+00 9.866888e-01 5.028831e-01 3.292846e-01 -1.363825e-01 -9.932321e-01 -4.066075e-01 -1.353215e-01 -5.066586e-01 -4.402908e-02 1.807394e-01 -2.274702e-01 1.442508e-02 -7.119941e-01
<VARIANCE> 39
 6.028451e+01 8.843768e+01 7.510789e+01 9.562053e+01 6.562719e+01 6.431273e+01 7.051411e+01 5.736557e+01 4.914367e+01 3.600889e+01 5.758591e+01 2.695450e+01 2.658269e+02 9.421335e+00 1.129819e+01 1.016553e+01 5.587112e+00 1.164259e+01 8.988652e+00 6.964159e+00 8.342043e+00 4.491580e+00 4.987483e+00 5.054274e+00 3.248671e+00 2.140271e+01 1.498064e+00 1.989841e+00 2.381553e+00 1.220749e+00 1.953812e+00 1.894736e+00 1.543693e+00 1.528693e+00 8.552191e-01 9.482411e-01 8.975176e-01 5.456095e-01 3.521781e+00
<GCONST> 1.572530e+02
<STATE> 4
<MEAN> 39
 4.533064e+00 3.601542e+00 6.649538e+00 1.823587e+00 -3.833828e+00 -4.097100e+00 -1.028797e+01 -9.561513e+00 -6.488591e+00 -4.429613e+00 -8.015706e+00 -8.861746e+00 5.373799e+01 7.582418e-01 -1.040925e+00 -4.496690e-01 -1.271996e-01 -5.188835e-01 -2.689685e-01 -4.324437e-01 -5.604127e-01 3.307886e-02 5.561823e-01 2.357686e-01 1.762015e-01 1.843905e+00 -3.510746e-01 -2.398158e-01 -2.604275e-01 -1.869402e-01 9.312461e-02 6.121834e-02 7.359358e-02 2.151707e-01 2.516597e-01 1.459752e-01 3.011829e-01 2.909529e-01 1.951716e-01
<VARIANCE> 39
 5.621860e+01 1.058235e+02 6.481821e+01 9.562053e+01 7.568094e+01 8.636141e+01 5.480392e+01 5.349857e+01 4.914367e+01 5.094626e+01 9.401695e+01 2.732472e+01 2.658269e+02 5.104697e+00 1.129844e+01 8.635324e+00 3.129044e+00 1.155789e+01 1.094396e+01 3.884524e+00 7.787396e+00 5.065307e+00 3.752147e+00 6.248496e+00 3.738768e+00 8.830908e+00 7.994794e-01 2.272283e+00 1.687670e+00 5.956921e-01 2.066914e+00 2.238360e+00 8.581032e-01 1.358380e+00 1.023098e+00 7.800037e-01 1.062269e+00 7.236476e-01 1.621031e+00
<GCONST> 1.532852e+02
<TRANSP> 5
 0.000000e+00 1.000000e+00 0.000000e+00 0.000000e+00 0.000000e+00
 0.000000e+00 8.431676e-01 1.568324e-01 0.000000e+00 0.000000e+00
 0.000000e+00 0.000000e+00 7.031721e-01 2.968279e-01 0.000000e+00
 0.000000e+00 0.000000e+00 0.000000e+00 8.550834e-01 1.449166e-01
 0.000000e+00 0.000000e+00 0.000000e+00 0.000000e+00 0.000000e+00
<ENDHMM>
~h "k"
<BEGINHMM>
<NUMSTATES> 5
<STATE> 2
<MEAN> 39
 -5.826927e+00 2.001903e+00 3.525852e+00 -1.580734e+00 3.697312e+00 -2.458045e+00 -2.274851e+00 3.539283e-01 -5.027837e-02 -1.020051e+00 -2.742016e+00 -2.235202e+00 4.845840e+01 -5.357864e-01 -8.267294e-02 -2.167141e-01 2.087099e-01 4.528901e-01 1.131383e-01 4.084534e-01 1.606858e-01 3.055289e-01 2.262715e-01 3.760812e-01 1.006438e-01 -3.493736e-01 2.371756e-01 1.188915e-01 -7.512727e-02 -1.572248e-01 -2.948514e-01 2.408576e-02 8.077100e-02 -6.960072e-02 -3.494221e-02 1.332212e-02 2.043254e-02 8.091155e-02 -1.223810e-01
<VARIANCE> 39
 6.797224e+01 7.408064e+01 6.481821e+01 9.562053e+01 7.614734e+01 5.657086e+01 5.480392e+01 5.008425e+01 4.914367e+01 6.169743e+01 5.758591e+01 3.807199e+01 2.658269e+02 6.606841e+00 5.927729e+00 5.771350e+00 4.711179e+00 7.102863e+00 4.858572e+00 5.269352e+00 4.202166e+00 4.530318e+00 4.439363e+00 5.167260e+00 3.513468e+00 1.170100e+01 1.106722e+00 1.221596e+00 1.121089e+00 8.725829e-01 1.277956e+00 9.749856e-01 9.541184e-01 8.201975e-01 8.723716e-01 8.472789e-01 8.904625e-01 7.071542e-01 1.752807e+00
<GCONST> 1.485317e+02
<STATE> 3
<MEAN> 39
 -4.951436e+00 2.934473e+00 2.814716e+00 -9.025195e-01 5.537663e+00 -1.433050e+00 2.794127e+00 1.321797e+00 1.628231e+00 -5.738935e-01 -9.162564e-01 -6.107557e-01 4.613195e+01 3.614048e-01 6.902369e-01 -1.693671e-01 -1.389305e-02 -6.429528e-01 2.358186e-01 3.153707e-01 -2.344356e-01 -1.970881e-01 -2.057470e-01 5.074559e-01 2.499318e-01 -1.343810e+00 1.301790e-01 7.409188e-02 1.006468e-01 -8.478463e-02 -2.157252e-01 -7.667905e-02 -2.755756e-01 -1.377147e-01 -2.615960e-01 -1.067806e-01 -1.662844e-01 -6.999227e-02 1.361030e-01
<VARIANCE> 39
 5.621860e+01 7.408064e+01 6.481821e+01 9.562053e+01 7.157389e+01 5.657086e+01 5.480392e+01 5.008425e+01 4.914367e+01 4.473022e+01 5.758591e+01 2.695450e+01 2.658269e+02 2.237194e+00 2.592087e+00 2.361893e+00 3.129044e+00 3.399675e+00 2.664105e+00 2.970974e+00 2.982852e+00 2.979079e+00 2.637839e+00 2.985441e+00 2.444375e+00 4.984552e+00 3.824730e-01 4.174158e-01 4.359384e-01 5.025513e-01 6.146961e-01 4.797978e-01 5.192646e-01 5.089008e-01 5.665909e-01 5.169060e-01 5.526662e-01 5.015049e-01 6.789643e-01
<GCONST> 1.305883e+02
<STATE> 4
<MEAN> 39
 -5.670667e+00 4.847317e+00 9.462624e-01 -1.159480e+00 2.510042e-01 -1.678206e+00 -4.792747e-01 5.811762e-01 -3.731468e-01 -1.647062e+00 4.160874e-01 -1.120547e+00 3.620354e+01 1.899035e-02 2.971216e-02 3.892592e-02 4.861604e-03 -3.933283e-02 1.254864e-02 -2.591248e-02 -1.867300e-02 -3.241339e-02 5.981767e-03 4.861177e-03 -4.295837e-04 -6.394452e-02 1.052000e-02 -4.531389e-02 -7.078481e-03 -8.267686e-03 5.176611e-02 -3.573580e-03 -1.563201e-02 1.018537e-02 -9.912102e-03 1.292017e-02 -2.514729e-02 -1.018263e-02 1.043587e-01
<VARIANCE> 39
 5.621860e+01 7.408064e+01 6.481821e+01 9.562053e+01 6.049548e+01 5.657086e+01 5.480392e+01 5.008425e+01 4.914367e+01 3.600889e+01 5.758591e+01 2.695450e+01 2.658269e+02 2.237194e+00 2.592087e+00 2.314184e+00 3.129044e+00 2.833982e+00 2.664105e+00 2.646528e+00 2.741223e+00 2.630443e+00 2.383868e+00 2.569609e+00 1.958500e+00 4.984552e+00 3.580279e-01 4.174158e-01 3.847587e-01 5.025513e-01 4.999610e-01 4.797978e-01 4.820749e-01 5.089008e-01 4.798635e-01 4.500161e-01 4.608459e-01 3.767788e-01 6.789643e-01
<GCONST> 1.279592e+02
<TRANSP> 5
 0.000000e+00 1.000000e+00 0.000000e+00 0.000000e+00 0.000000e+00
 0.000000e+00 7.559282e-01 2.440719e-01 0.000000e+00 0.000000e+00
 0.000000e+00 0.000000e+00 4.736932e-01 5.263069e-01 0.000000e+00
 0.000000e+00 0.000000e+00 0.000000e+00 9.441824e-01 5.581760e-02
 0.000000e+00 0.000000e+00 0.000000e+00 0.000000e+00 0.000000e+00
<ENDHMM>
~h "l"
<BEGINHMM>
<NUMSTATES> 5
<STATE> 2
<MEAN> 39
 5.172367e+00 -1.162119e+00 1.391564e+00 -1.700211e+01 -9.096377e-01 -2.611747e+00 -9.511915e+00 -4.465583e+00 -3.645949e+00 -1.624192e+00 -5.614149e+00 -4.597430e+00 6.328917e+01 -3.046368e-01 6.233580e-01 1.703340e-01 1.169580e+00 2.648806e-01 2.521970e-01 5.609313e-01 1.464959e-01 -1.078965e-01 -1.011356e-01 3.962297e-01 -2.234688e-01 -9.304646e-01 -1.095665e-01 6.790431e-02 -1.460784e-02 1.824973e-01 1.305236e-02 2.662586e-02 1.846493e-01 2.380935e-02 -1.046419e-02 1.522800e-01 8.893955e-02 7.009263e-02 -1.320025e-01
<VARIANCE> 39
 5.621860e+01 8.330047e+01 9.350452e+01 1.314618e+02 6.556293e+01 8.363207e+01 7.421405e+01 7.469412e+01 8.893386e+01 7.113803e+01 5.758591e+01 7.120250e+01 2.658269e+02 2.237194e+00 2.592087e+00 3.098809e+00 6.377759e+00 2.833982e+00 2.824829e+00 3.713207e+00 3.520434e+00 3.428662e+00 3.180986e+00 2.819918e+00 2.767741e+00 4.984552e+00 3.580279e-01 4.174158e-01 4.833423e-01 5.415000e-01 4.999610e-01 4.797978e-01 5.900535e-01 5.674009e-01 5.736567e-01 5.714719e-01 4.654001e-01 4.912771e-01 6.789643e-01
<GCONST> 1.361310e+02
<STATE> 3
<MEAN> 39
 4.486986e+00 9.246971e-01 6.913722e+00 -1.153018e+01 -2.397203e+00 -5.739049e-01 -8.966001e+00 -2.679690e+00 -7.976635e+00 2.101032e+00 -1.423041e+00 -5.970899e+00 6.071812e+01 -3.380176e-01 6.100646e-01 -5.615457e-02 8.437226e-01 4.317126e-01 -4.946857e-02 5.344955e-01 5.226845e-02 -7.882954e-02 3.232211e-01 3.708275e-01 1.729832e-01 -9.606696e-01 -9.821173e-02 4.027427e-02 -3.322558e-02 4.557067e-02 -1.697343e-02 -7.050853e-02 4.034598e-02 1.441379e-02 5.511231e-02 -3.633267e-02 -3.268605e-02 1.101601e-01 -5.033044e-02
<VARIANCE> 39
 5.621860e+01 7.408064e+01 1.124196e+02 1.013691e+02 9.184532e+01 6.858170e+01 6.185599e+01 5.008425e+01 7.620515e+01 6.929720e+01 7.750735e+01 4.793179e+01 2.658269e+02 2.237194e+00 2.592087e+00 2.944052e+00 4.168717e+00 3.570550e+00 2.664105e+00 3.277256e+00 3.152873e+00 3.142467e+00 2.808395e+00 2.781936e+00 2.296433e+00 4.984552e+00 3.580279e-01 4.174158e-01 4.868340e-01 6.778218e-01 6.495324e-01 4.797978e-01 5.664574e-01 5.403218e-01 5.260749e-01 5.418262e-01 4.608459e-01 4.193108e-01 6.789643e-01
<GCONST> 1.343600e+02
<STATE> 4
<MEAN> 39
 -3.568201e+00 4.591354e+00 2.029043e+00 -2.998627e+00 3.652654e-01 -1.232679e+00 2.101070e-01 -1.059382e+00 -2.600570e+00 -1.373582e+00 -8.665777e-01 -1.699003e+00 4.045185e+01 -3.729500e-02 1.950509e-01 4.558276e-02 2.976886e-01 2.661358e-02 3.558297e-02 1.270795e-01 3.775803e-02 1.572786e-02 -8.727550e-02 6.128963e-02 6.450296e-02 -2.613030e-01 2.839945e-02 2.408705e-02 6.470391e-02 -4.003906e-02 -4.861331e-02 1.797760e-02 -5.281986e-02 -2.163888e-02 -4.054955e-02 -6.580725e-05 -2.040213e-02 -1.696935e-02 5.156069e-02
<VARIANCE> 39
 5.621860e+01 7.408064e+01 6.481821e+01 9.562053e+01 6.049548e+01 5.657086e+01 5.480392e+01 5.008425e+01 4.914367e+01 3.600889e+01 5.758591e+01 2.695450e+01 2.658269e+02 2.237194e+00 2.592087e+00 2.314184e+00 3.129044e+00 2.833982e+00 2.664105e+00 2.646528e+00 2.741223e+00 2.630443e+00 2.422984e+00 2.569609e+00 1.958500e+00 4.984552e+00 3.580279e-01 4.174158e-01 3.847587e-01 5.025513e-01 4.999610e-01 4.797978e-01 4.820749e-01 5.089008e-01 4.798635e-01 4.500161e-01 4.608459e-01 3.767788e-01 6.789643e-01
<GCONST> 1.279755e+02
<TRANSP> 5
 0.000000e+00 1.000000e+00 0.000000e+00 0.000000e+00 0.000000e+00
 0.000000e+00 6.582792e-01 3.417208e-01 0.000000e+00 0.000000e+00
 0.000000e+00 0.000000e+00 6.005238e-01 3.994762e-01 0.000000e+00
 0.000000e+00 0.000000e+00 0.000000e+00 8.740076e-01 1.259924e-01
 0.000000e+00 0.000000e+00 0.000000e+00 0.000000e+00 0.000000e+00
<ENDHMM>
~h "m"
<BEGINHMM>
<NUMSTATES> 5
<STATE> 2
<MEAN> 39
 -6.864219e+00 5.229896e+00 5.931973e+00 -1.213882e+00 2.554586e+00 -2.516177e+00 -8.689343e-01 -1.183081e+00 -2.051343e+00 -2.026535e+00 -2.499811e+00 -2.935321e+00 5.278981e+01 1.128325e+00 -7.902007e-01 6.775219e-01 -7.681152e-01 -4.453561e-01 -7.252063e-01 -9.914182e-01 -4.370158e-01 -8.553654e-01 -1.874155e-01 -5.289839e-01 -1.665675e-01 1.875825e+00 3.967538e-01 -2.670670e-01 5.584114e-02 -2.863515e-01 -4.729677e-01 -3.368417e-01 -3.695931e-01 -2.827315e-01 -2.384581e-01 -4.249916e-02 -3.567631e-01 -8.734468e-02 3.319962e-01
<VARIANCE> 39
 6.928539e+01 7.408064e+01 6.481821e+01 9.562053e+01 6.049548e+01 5.657086e+01 5.480392e+01 5.973996e+01 4.914367e+01 3.600889e+01 5.758591e+01 3.026856e+01 2.658269e+02 7.514596e+00 5.937188e+00 5.270788e+00 6.562571e+00 5.779232e+00 5.172835e+00 6.120750e+00 6.193540e+00 4.999130e+00 3.996518e+00 5.065300e+00 3.381486e+00 1.592982e+01 1.124966e+00 1.079622e+00 9.257883e-01 1.134976e+00 9.278216e-01 8.643792e-01 1.083593e+00 9.926139e-01 9.424088e-01 7.823845e-01 8.078193e-01 6.867480e-01 2.197218e+00
<GCONST> 1.486766e+02
<STATE> 3
<MEAN> 39
 4.663272e+00 2.834920e-01 1.053139e+01 -3.027535e+00 -5.482623e+00 -4.590335e+00 -1.048298e+01 -4.777684e+00 -7.496620e+00 -1.632042e+00 -5.997548e+00 -6.376626e+00 6.072425e+01 8.573711e-01 -1.520729e+00 1.139446e-02 -1.558748e+00 -1.058194e+00 -9.514748e-01 -8.244350e-01 5.703063e-02 -6.385592e-01 2.452300e-01 -7.935206e-01 -7.843320e-02 1.862435e+00 -4.340933e-01 -3.799494e-02 -2.498984e-01 -1.847165e-01 3.178334e-01 1.659510e-01 4.772672e-01 3.644799e-01 2.452440e-01 4.603746e-02 1.305491e-01 1.762634e-01 -2.432063e-03
<VARIANCE> 39
 5.621860e+01 7.408064e+01 6.481821e+01 9.562053e+01 6.049548e+01 9.179102e+01 5.480392e+01 7.971328e+01 4.914367e+01 4.875285e+01 6.780941e+01 4.839302e+01 2.658269e+02 4.823016e+00 4.151473e+00 5.207774e+00 7.872184e+00 5.296728e+00 4.438726e+00 5.662797e+00 6.574392e+00 4.274635e+00 4.221359e+00 5.907319e+00 5.480766e+00 5.704723e+00 6.259884e-01 7.086486e-01 6.646837e-01 9.334259e-01 7.840675e-01 5.785901e-01 6.704610e-01 1.034900e+00 6.447854e-01 7.004686e-01 8.728139e-01 7.558773e-01 7.974293e-01
<GCONST> 1.449216e+02
<STATE> 4
<MEAN> 39
 2.255093e+00 -8.103724e+00 6.906961e+00 -1.725342e+01 -3.631623e-01 -1.151555e+01 -7.281215e+00 -4.253039e+00 -9.450956e+00 -3.622439e+00 -1.282386e+01 -3.232776e+00 7.035687e+01 -1.773861e-01 2.426939e-01 -2.240648e-01 1.367272e-01 1.940208e-01 1.059943e-01 4.038246e-01 9.718851e-02 1.738352e-01 -2.906166e-01 1.381423e-01 9.418019e-02 -1.093122e-01 -1.054104e-01 2.895510e-01 -4.566614e-02 3.403010e-01 5.665046e-02 1.422319e-01 6.062371e-02 2.357954e-03 1.121691e-01 -3.665216e-03 1.954327e-01 -3.606392e-02 -2.383033e-01
<VARIANCE> 39
 5.621860e+01 7.408064e+01 6.481821e+01 9.562053e+01 1.171899e+02 7.893614e+01 5.531596e+01 5.851745e+01 4.914367e+01 6.576601e+01 5.758591e+01 4.380054e+01 2.658269e+02 2.237194e+00 3.639785e+00 2.415414e+00 5.344792e+00 2.833982e+00 2.664105e+00 2.646528e+00 3.174258e+00 2.630443e+00 2.862803e+00 2.924547e+00 3.198028e+00 4.984552e+00 3.580279e-01 4.229926e-01 4.316606e-01 7.240805e-01 4.999610e-01 4.853501e-01 4.820749e-01 6.029334e-01 4.801511e-01 5.593907e-01 4.815412e-01 6.032133e-01 6.789643e-01
<GCONST> 1.334808e+02
<TRANSP> 5
 0.000000e+00 1.000000e+00 0.000000e+00 0.000000e+00 0.000000e+00
 0.000000e+00 7.337205e-01 2.662795e-01 0.000000e+00 0.000000e+00
 0.000000e+00 0.000000e+00 7.628095e-01 2.371905e-01 0.000000e+00
 0.000000e+00 0.000000e+00 0.000000e+00 9.003646e-01 9.963533e-02
 0.000000e+00 0.000000e+00 0.000000e+00 0.000000e+00 0.000000e+00
<ENDHMM>
~h "n"
<BEGINHMM>
<NUMSTATES> 5
<STATE> 2
<MEAN> 39
 -9.281962e-01 -4.182791e+00 3.475294e+00 -6.804102e+00 -3.962927e+00 -6.125084e+00 -3.547883e+00 3.476821e+00 -3.136861e+00 -2.448318e+00 -5.209134e+00 -2.623950e-01 5.990522e+01 3.852932e-01 -1.247521e+00 -1.167122e-01 -6.295515e-01 -2.008449e-01 5.473305e-01 7.390602e-02 4.889817e-01 -7.129205e-01 -3.602068e-01 -1.018910e-01 -3.341461e-01 3.688839e-01 -2.789174e-01 3.974520e-01 -8.170786e-02 2.773693e-01 2.158199e-01 2.052088e-01 1.606887e-01 -2.827777e-01 2.708775e-02 -9.682670e-02 2.424339e-01 -7.597922e-02 -1.732283e-01
<VARIANCE> 39
 5.944101e+01 7.408064e+01 6.481821e+01 9.562053e+01 7.684343e+01 5.657086e+01 5.480392e+01 5.686649e+01 5.242088e+01 3.600889e+01 7.638571e+01 2.695450e+01 2.786668e+02 3.484050e+00 4.251449e+00 2.314184e+00 3.382375e+00 3.657007e+00 2.664105e+00 3.235807e+00 3.793070e+00 3.448723e+00 2.765199e+00 2.794396e+00 2.481976e+00 4.984552e+00 7.280411e-01 9.206086e-01 4.039693e-01 9.052707e-01 8.159418e-01 4.835099e-01 5.816588e-01 5.492213e-01 5.602705e-01 4.677662e-01 6.660143e-01 4.296118e-01 8.171815e-01
<GCONST> 1.350897e+02
<STATE> 3
<MEAN> 39
 5.089740e+00 -8.892701e+00 6.678845e+00 -8.614403e+00 -7.466956e+00 -4.542934e+00 -4.616413e+00 6.660093e+00 -7.435211e+00 -3.384811e+00 -8.107096e+00 -3.559737e+00 6.862653e+01 -8.850600e-02 2.933990e-01 1.601424e-01 2.041193e-01 1.338283e-01 2.668936e-01 1.456356e-01 -1.135896e-01 -6.468888e-02 -1.258927e-01 8.382602e-02 2.341999e-02 -5.215492e-01 -4.621458e-02 1.975226e-01 9.676965e-03 1.255122e-01 6.079013e-02 -4.443640e-02 -1.389126e-02 -1.377544e-01 1.094103e-01 6.574288e-02 4.868362e-02 2.947356e-02 -1.498043e-01
<VARIANCE> 39
 5.621860e+01 7.408064e+01 6.481821e+01 9.562053e+01 7.968456e+01 5.657086e+01 5.480392e+01 7.377431e+01 5.653679e+01 3.975075e+01 5.758591e+01 3.466856e+01 2.658269e+02 2.237194e+00 2.592087e+00 2.314184e+00 3.129044e+00 2.833982e+00 2.664105e+00 2.646528e+00 2.746747e+00 2.630443e+00 2.383868e+00 2.569609e+00 1.958500e+00 4.984552e+00 3.580279e-01 4.174158e-01 3.847587e-01 5.025513e-01 4.999610e-01 4.797978e-01 4.820749e-01 5.176886e-01 4.798635e-01 4.500161e-01 4.608459e-01 3.767788e-01 6.789643e-01
<GCONST> 1.291319e+02
<STATE> 4
<MEAN> 39
 -3.855131e+00 3.665716e+00 2.111219e+00 -1.896109e+00 -5.404862e-01 -9.884338e-01 3.576238e-01 5.882514e-01 -2.282013e+00 -2.609309e+00 3.053878e-01 -5.595450e-01 3.937601e+01 -5.493104e-02 1.076683e-01 3.430768e-02 7.047319e-02 4.055015e-02 6.263787e-02 1.139505e-02 -1.308196e-01 2.924036e-02 3.029018e-02 1.315510e-02 -8.279748e-03 -1.115252e-01 3.004645e-02 -2.037684e-02 4.402874e-02 -2.682703e-02 -2.444231e-02 -2.967129e-02 -2.411553e-02 -2.991033e-02 -8.229101e-03 2.060355e-02 -4.294243e-02 -1.591166e-02 5.271449e-02
<VARIANCE> 39
 5.621860e+01 7.408064e+01 6.481821e+01 9.562053e+01 6.049548e+01 5.657086e+01 5.480392e+01 5.008425e+01 4.914367e+01 3.600889e+01 5.758591e+01 2.695450e+01 2.658269e+02 2.237194e+00 2.592087e+00 2.314184e+00 3.129044e+00 2.833982e+00 2.664105e+00 2.646528e+00 2.741223e+00 2.630443e+00 2.383868e+00 2.569609e+00 1.958500e+00 4.984552e+00 3.580279e-01 4.174158e-01 3.847587e-01 5.025513e-01 4.999610e-01 4.797978e-01 4.820749e-01 5.089008e-01 4.798635e-01 4.500161e-01 4.608459e-01 3.767788e-01 6.789643e-01
<GCONST> 1.279592e+02
<TRANSP> 5
 0.000000e+00 1.000000e+00 0.000000e+00 0.000000e+00 0.000000e+00
 0.000000e+00 4.766605e-01 5.233394e-01 0.000000e+00 0.000000e+00
 0.000000e+00 0.000000e+00 8.582611e-01 1.417389e-01 0.000000e+00
 0.000000e+00 0.000000e+00 0.000000e+00 9.306249e-01 6.937511e-02
 0.000000e+00 0.000000e+00 0.000000e+00 0.000000e+00 0.000000e+00
<ENDHMM>
~h "p"
<BEGINHMM>
<NUMSTATES> 5
<STATE> 2
<MEAN> 39
 -2.626170e+00 -3.518101e+00 7.629498e-01 -1.072363e+01 -8.468702e-03 -5.516893e+00 -3.397701e+00 -4.822156e+00 -2.555968e+00 -4.014899e+00 -5.704225e+00 -3.856990e+00 6.160294e+01 7.581647e-01 -3.785863e-01 2.013953e-01 -6.048157e-01 1.458547e-01 -2.169967e-01 -3.245277e-01 -1.784559e-01 -4.126781e-02 -5.663015e-02 -5.093403e-01 -2.856589e-01 1.340892e+00 -1.650507e-02 2.631297e-01 1.366028e-01 2.645746e-01 8.628946e-02 1.311921e-01 -4.654577e-03 1.376883e-01 9.759195e-02 6.126608e-02 6.137728e-02 1.284180e-01 -4.590524e-01
<VARIANCE> 39
 5.621860e+01 9.736669e+01 6.481821e+01 1.130654e+02 8.751677e+01 8.391286e+01 9.503048e+01 8.346358e+01 6.970762e+01 7.953186e+01 5.981727e+01 3.763665e+01 2.658269e+02 4.534035e+00 8.143765e+00 3.058717e+00 9.169121e+00 6.326451e+00 7.677290e+00 7.058866e+00 7.975413e+00 7.521428e+00 7.496477e+00 4.010082e+00 3.822486e+00 1.536458e+01 7.565496e-01 1.242465e+00 5.058414e-01 1.379863e+00 1.035257e+00 1.238079e+00 1.274801e+00 1.436358e+00 1.510013e+00 1.284406e+00 6.556606e-01 7.803231e-01 2.342956e+00
<GCONST> 1.546130e+02
<STATE> 3
<MEAN> 39
 -5.045804e+00 4.794041e+00 3.096591e+00 -2.115829e+00 2.589277e+00 5.465739e-01 -2.773534e+00 1.002121e-02 1.697642e+00 -1.571895e-01 -8.206599e-01 -2.585992e+00 5.001908e+01 -3.419619e-02 1.250036e-01 4.306608e-01 3.087487e-01 2.004210e-01 1.198996e-01 -1.407901e-01 1.551181e-01 -2.040400e-01 -2.052641e-01 -9.301014e-02 1.240206e-01 4.731721e-02 2.039942e-01 -3.820457e-01 -1.329408e-02 -2.839940e-01 -3.168699e-01 -2.154926e-01 -6.214254e-02 -1.868023e-01 -2.313733e-01 -5.762449e-02 -1.426052e-01 -1.241659e-01 2.314339e-01
<VARIANCE> 39
 8.568342e+01 7.408064e+01 6.481821e+01 9.562053e+01 6.049548e+01 5.657086e+01 5.480392e+01 5.008425e+01 4.914367e+01 3.600889e+01 5.758591e+01 3.167713e+01 2.658269e+02 7.592206e+00 7.208713e+00 6.416873e+00 7.048356e+00 6.618681e+00 5.271077e+00 4.675778e+00 4.903458e+00 4.805045e+00 4.322281e+00 3.745413e+00 4.051971e+00 2.692455e+01 1.248429e+00 1.298645e+00 1.368072e+00 1.392888e+00 1.277008e+00 1.052091e+00 9.546479e-01 9.628223e-01 7.484894e-01 9.345156e-01 6.284820e-01 7.585154e-01 3.529492e+00
<GCONST> 1.508374e+02
<STATE> 4
<MEAN> 39
 1.471293e+00 -1.875598e+00 3.952348e+00 -6.926683e+00 -1.754961e-01 -3.414515e+00 -4.850044e+00 -9.155858e-01 -4.829656e+00 -3.141541e+00 -5.161109e+00 -3.156171e+00 5.724305e+01 1.042528e+00 -8.542671e-01 2.625480e-01 -5.938155e-01 -6.556599e-01 -7.377906e-02 5.819182e-02 1.202627e-01 -5.002017e-01 -3.380506e-01 -1.142656e-01 -1.424014e-01 1.480977e+00 -3.794448e-01 2.456070e-01 -3.398642e-02 3.359021e-02 4.836330e-02 1.529339e-01 6.050521e-02 5.539080e-02 2.451872e-01 1.889318e-01 2.494931e-01 3.076677e-02 -2.396166e-01
<VARIANCE> 39
 5.621860e+01 9.949329e+01 6.481821e+01 9.562053e+01 6.049548e+01 5.657086e+01 5.480392e+01 7.685719e+01 4.914367e+01 3.600889e+01 5.758591e+01 2.695450e+01 2.658269e+02 5.679912e+00 7.998089e+00 3.821366e+00 7.152935e+00 4.714989e+00 4.216325e+00 3.364268e+00 4.632416e+00 4.810151e+00 3.162419e+00 5.095201e+00 2.793918e+00 1.327385e+01 7.294833e-01 1.150336e+00 6.187962e-01 9.682034e-01 7.738353e-01 6.442707e-01 6.890449e-01 7.640991e-01 7.282933e-01 6.646893e-01 8.323616e-01 4.548507e-01 2.000359e+00
<GCONST> 1.437264e+02
<TRANSP> 5
 0.000000e+00 1.000000e+00 0.000000e+00 0.000000e+00 0.000000e+00
 0.000000e+00 7.631241e-01 2.368759e-01 0.000000e+00 0.000000e+00
 0.000000e+00 0.000000e+00 7.459996e-01 2.540004e-01 0.000000e+00
 0.000000e+00 0.000000e+00 0.000000e+00 7.108254e-01 2.891746e-01
 0.000000e+00 0.000000e+00 0.000000e+00 0.000000e+00 0.000000e+00
<ENDHMM>
~h "r"
<BEGINHMM>
<NUMSTATES> 5
<STATE> 2
<MEAN> 39
 6.364904e+00 -4.799785e+00 1.177211e+00 2.250667e+00 -9.421420e+00 -1.114469e+00 -1.142787e+01 -7.110878e+00 1.334567e+00 -4.271467e-01 -2.261319e-01 -5.378674e+00 6.394547e+01 3.108295e-01 -7.298679e-01 -1.179294e-01 -4.347925e-01 -8.473030e-01 3.909169e-01 -8.582942e-01 2.240204e-01 5.134755e-01 -2.889665e-02 4.734071e-01 -1.225056e-01 1.674175e+00 -2.438585e-02 1.416617e-01 2.607149e-01 -1.101576e-01 1.349456e-02 1.344010e-01 -7.517211e-03 4.393971e-02 -1.709607e-01 1.761159e-02 -5.653998e-03 -2.087593e-02 -1.462096e-01
<VARIANCE> 39
 7.580853e+01 7.408064e+01 6.481821e+01 9.562053e+01 1.368195e+02 6.122409e+01 5.480392e+01 7.231540e+01 7.290273e+01 3.600889e+01 5.758591e+01 3.679026e+01 2.658269e+02 2.237194e+00 3.947272e+00 2.314184e+00 3.220951e+00 4.986709e+00 5.234070e+00 3.161200e+00 2.967007e+00 3.256119e+00 2.383868e+00 2.569609e+00 2.043879e+00 9.858364e+00 3.580279e-01 7.843168e-01 5.420829e-01 5.300999e-01 1.009772e+00 9.972228e-01 6.693083e-01 6.498744e-01 5.330681e-01 4.500161e-01 4.608459e-01 4.003850e-01 1.232212e+00
<GCONST> 1.369070e+02
<STATE> 3
<MEAN> 39
 1.485219e+00 -4.595060e+00 6.046979e+00 -2.451840e+00 -6.426007e+00 -1.401785e+00 -1.137233e+01 -3.165386e+00 -1.587474e+00 -8.167386e-03 -1.528444e+00 -4.557294e+00 6.574879e+01 1.043411e+00 -7.334033e-02 1.552952e+00 -9.399867e-01 -1.135633e+00 -8.227971e-01 -7.285024e-01 -1.039534e+00 -1.270723e+00 4.318935e-01 -6.074882e-01 3.158660e-01 4.432300e-01 -3.587051e-02 3.474414e-03 7.657115e-04 -1.856667e-01 2.127468e-01 -1.520048e-01 1.568704e-01 7.559270e-02 -2.184493e-01 1.127308e-03 -2.625424e-01 9.058532e-02 -3.987253e-01
<VARIANCE> 39
 8.576434e+01 7.408064e+01 6.481821e+01 9.562053e+01 1.008720e+02 7.107568e+01 7.563550e+01 1.015222e+02 6.314690e+01 3.958342e+01 5.758591e+01 2.815469e+01 2.658269e+02 5.395184e+00 5.518256e+00 5.184821e+00 7.876513e+00 8.728145e+00 7.259710e+00 6.595970e+00 5.851028e+00 4.845673e+00 4.456796e+00 4.272121e+00 3.431978e+00 4.984552e+00 1.149922e+00 1.139426e+00 9.025198e-01 1.048818e+00 1.422827e+00 1.180202e+00 1.503513e+00 1.251812e+00 8.223380e-01 7.553182e-01 7.078603e-01 5.161449e-01 7.785744e-01
<GCONST> 1.496894e+02
<STATE> 4
<MEAN> 39
 5.637388e+00 -6.485923e+00 4.829731e+00 -2.064253e+01 -9.178873e+00 -3.935560e+00 -2.169454e+01 -8.538318e+00 -8.734505e+00 4.131607e+00 -9.959911e+00 -1.502505e+00 7.071439e+01 -2.127875e-01 7.332736e-01 -1.308064e-01 -3.584880e-01 8.861128e-01 1.794432e-01 5.607829e-01 6.366928e-01 -3.736265e-01 -2.832609e-01 2.232239e-01 2.641305e-01 -5.349360e-01 -1.753329e-01 3.342537e-01 -6.268688e-02 5.195456e-01 1.763595e-01 3.739823e-02 3.513996e-01 1.073940e-02 2.523792e-01 -1.810445e-01 1.960506e-01 -1.228282e-01 -3.906273e-01
<VARIANCE> 39
 5.621860e+01 7.408064e+01 6.481821e+01 1.048561e+02 6.049548e+01 7.492886e+01 1.127465e+02 5.008425e+01 4.914367e+01 4.102633e+01 6.471233e+01 2.695450e+01 2.658269e+02 2.237194e+00 2.592087e+00 2.314184e+00 5.985141e+00 2.911023e+00 2.911440e+00 5.515384e+00 2.741223e+00 2.813275e+00 2.835122e+00 2.859932e+00 1.958500e+00 4.984552e+00 3.580279e-01 4.174158e-01 3.847587e-01 6.854547e-01 4.999610e-01 4.797978e-01 5.570827e-01 5.089008e-01 4.798635e-01 4.659737e-01 4.608459e-01 3.767788e-01 6.789643e-01
<GCONST> 1.316369e+02
<TRANSP> 5
 0.000000e+00 1.000000e+00 0.000000e+00 0.000000e+00 0.000000e+00
 0.000000e+00 7.931786e-01 2.068214e-01 0.000000e+00 0.000000e+00
 0.000000e+00 0.000000e+00 7.462757e-01 2.537243e-01 0.000000e+00
 0.000000e+00 0.000000e+00 0.000000e+00 8.206524e-01 1.793475e-01
 0.000000e+00 0.000000e+00 0.000000e+00 0.000000e+00 0.000000e+00
<ENDHMM>
~h "s"
<BEGINHMM>
<NUMSTATES> 5
<STATE> 2
<MEAN> 39
 -6.782621e+00 8.152508e+00 4.120684e+00 -1.551919e+00 -1.127307e+00 -5.492979e+00 7.443833e-01 -1.904781e+00 -2.503121e+00 -3.400286e+00 -2.306916e+00 -2.184664e+00 5.576709e+01 -3.155447e+00 1.378357e+00 -1.416832e+00 1.529647e+00 1.304240e+00 1.101484e+00 1.269718e+00 3.043168e-01 9.132208e-01 -3.635793e-02 1.339067e+00 1.565032e-02 9.284134e-01 -2.622069e-01 -2.769448e-01 -1.316407e-01 -4.339764e-01 -1.697618e-01 2.127287e-02 -1.796406e-01 1.050585e-01 -1.451509e-02 1.690212e-01 -3.789360e-02 1.037260e-01 2.520802e-01
<VARIANCE> 39
 5.867443e+01 7.408064e+01 6.481821e+01 9.562053e+01 6.049548e+01 5.657086e+01 5.480392e+01 5.544870e+01 4.914367e+01 3.600889e+01 5.758591e+01 3.549722e+01 2.658269e+02 5.249848e+00 7.417008e+00 4.456778e+00 8.180820e+00 5.051674e+00 6.441658e+00 4.463872e+00 4.906104e+00 3.552394e+00 3.992482e+00 4.538040e+00 3.550119e+00 1.289762e+01 1.023374e+00 1.263574e+00 6.813951e-01 1.044402e+00 7.881852e-01 9.776537e-01 9.082382e-01 8.147616e-01 6.646814e-01 6.377200e-01 7.318181e-01 6.473727e-01 1.441813e+00
<GCONST> 1.455592e+02
<STATE> 3
<MEAN> 39
 -1.923251e+01 1.272339e+01 -9.385278e-01 -7.145261e-01 3.339583e+00 -3.719892e+00 5.173151e+00 3.445826e-01 -2.500780e-01 -1.403611e+00 1.573818e+00 -6.827177e-01 6.210562e+01 -1.380388e+00 4.296625e-01 -8.709670e-01 -1.418048e-01 -6.995478e-02 1.447875e-01 -1.533864e-01 -1.059273e-01 2.578660e-02 7.548629e-02 1.462317e-01 3.557540e-02 4.631540e-01 7.166891e-01 -2.256671e-01 3.118378e-01 -1.288635e-01 -2.899755e-01 -2.058979e-01 -2.846288e-01 -1.653432e-01 -2.243942e-01 -8.198876e-02 -2.565958e-01 -1.017563e-01 -2.908223e-01
<VARIANCE> 39
 5.621860e+01 7.408064e+01 6.481821e+01 9.562053e+01 6.049548e+01 5.657086e+01 5.480392e+01 5.008425e+01 4.914367e+01 3.600889e+01 5.758591e+01 2.695450e+01 2.658269e+02 2.380618e+00 2.592087e+00 2.314184e+00 3.129044e+00 2.833982e+00 2.664105e+00 2.646528e+00 2.741223e+00 2.630443e+00 2.383868e+00 2.569609e+00 1.958500e+00 4.984552e+00 3.845193e-01 4.217487e-01 3.847587e-01 5.025513e-01 4.999610e-01 5.789925e-01 4.856675e-01 5.089008e-01 4.798635e-01 4.500161e-01 4.804053e-01 3.767788e-01 6.789643e-01
<GCONST> 1.283400e+02
<STATE> 4
<MEAN> 39
 -1.939085e+01 1.161240e+01 -4.951692e+00 2.105279e+00 -1.754750e+00 -1.065649e+00 1.802339e+00 -9.671179e-01 -9.727974e-01 -2.498422e+00 1.286512e+00 -1.768924e+00 6.050536e+01 4.574884e-01 -5.506245e-02 3.666570e-01 2.520418e-02 -1.387058e-01 -1.729056e-02 -1.467624e-01 -1.029940e-01 -6.599295e-02 3.532973e-02 -1.458302e-01 -4.367077e-02 -2.595978e-01 3.547206e-01 -1.169693e-01 2.726255e-01 -6.165871e-02 -4.813880e-03 -5.019210e-02 -3.993731e-02 -1.761580e-02 -1.803873e-02 1.894176e-02 -5.151263e-02 1.760793e-02 -6.523197e-02
<VARIANCE> 39
 5.621860e+01 7.408064e+01 6.481821e+01 9.562053e+01 6.049548e+01 5.657086e+01 5.480392e+01 5.008425e+01 4.914367e+01 3.600889e+01 5.758591e+01 2.695450e+01 2.658269e+02 2.237194e+00 2.592087e+00 2.314184e+00 3.129044e+00 2.833982e+00 2.664105e+00 2.646528e+00 2.741223e+00 2.630443e+00 2.383868e+00 2.569609e+00 1.958500e+00 4.984552e+00 3.580279e-01 4.174158e-01 3.847587e-01 5.025513e-01 4.999610e-01 4.797978e-01 4.820749e-01 5.089008e-01 4.798635e-01 4.500161e-01 4.608459e-01 3.767788e-01 6.789643e-01
<GCONST> 1.279592e+02
<TRANSP> 5
 0.000000e+00 1.000000e+00 0.000000e+00 0.000000e+00 0.000000e+00
 0.000000e+00 7.205283e-01 2.794717e-01 0.000000e+00 0.000000e+00
 0.000000e+00 0.000000e+00 7.188095e-01 2.811904e-01 0.000000e+00
 0.000000e+00 0.000000e+00 0.000000e+00 8.533284e-01 1.466716e-01
 0.000000e+00 0.000000e+00 0.000000e+00 0.000000e+00 0.000000e+00
<ENDHMM>
~h "t"
<BEGINHMM>
<NUMSTATES> 5
<STATE> 2
<MEAN> 39
 -1.323984e+01 7.164716e+00 5.010819e+00 -4.785837e+00 1.331513e+00 -1.480710e+00 -1.067116e+00 -9.200838e-01 -5.919540e-02 -7.636413e-01 4.622368e-01 -1.524106e+00 5.384487e+01 6.556929e-02 -7.613152e-02 4.687204e-01 -4.602203e-01 -2.453730e-01 2.654186e-02 5.338854e-02 -1.058487e-01 -2.280745e-01 -5.342243e-02 -8.816841e-02 -6.305026e-02 2.474834e+00 5.073866e-01 -2.159514e-01 2.304170e-01 -1.685281e-01 -4.214584e-01 -2.146350e-01 -1.282542e-01 -9.044756e-02 -2.277845e-01 -7.400539e-03 -1.636535e-01 -3.394214e-02 8.330543e-02
<VARIANCE> 39
 6.815392e+01 7.408064e+01 6.481821e+01 9.562053e+01 6.049548e+01 5.657086e+01 5.480392e+01 5.008425e+01 4.914367e+01 3.600889e+01 5.758591e+01 2.695450e+01 2.658269e+02 8.597915e+00 4.332394e+00 4.756530e+00 4.534372e+00 5.137057e+00 4.083668e+00 3.064023e+00 3.204598e+00 2.948104e+00 2.611178e+00 2.569609e+00 1.958500e+00 2.358163e+01 1.358425e+00 1.060299e+00 8.478026e-01 9.415408e-01 8.992565e-01 9.143077e-01 6.535549e-01 6.184772e-01 5.568314e-01 5.596534e-01 4.905037e-01 4.081803e-01 3.583252e+00
<GCONST> 1.417743e+02
<STATE> 3
<MEAN> 39
 -2.723273e+00 1.316874e+00 1.141798e+01 -8.923123e+00 -8.305472e+00 -7.426720e+00 -3.294252e+00 -3.418678e+00 -5.922493e+00 -1.197755e+00 -3.696374e+00 -2.266038e+00 6.339408e+01 1.815147e+00 -1.961861e+00 3.630303e-01 -1.296892e+00 -1.349557e+00 -1.124621e+00 -5.188401e-01 3.148160e-01 -6.813555e-01 9.725511e-02 -9.523857e-01 -9.726906e-02 2.395133e-01 -4.415128e-01 -1.384884e-01 -3.609235e-01 -3.799298e-02 2.804132e-01 1.732158e-01 1.462550e-01 2.388838e-01 2.401880e-01 8.711695e-02 6.705064e-02 -2.018107e-03 -1.312056e-01
<VARIANCE> 39
 5.621860e+01 7.408064e+01 7.069353e+01 9.562053e+01 6.906033e+01 5.813716e+01 5.480392e+01 6.338002e+01 4.914367e+01 3.600889e+01 5.758591e+01 2.695450e+01 2.658269e+02 7.926625e+00 8.274816e+00 6.636642e+00 8.336970e+00 9.318656e+00 6.872813e+00 4.585150e+00 5.478529e+00 4.933901e+00 3.700661e+00 5.451390e+00 2.645408e+00 1.411429e+01 1.043638e+00 1.317770e+00 9.387749e-01 1.282669e+00 1.390491e+00 9.444636e-01 7.436083e-01 7.789919e-01 6.852247e-01 6.606166e-01 7.717413e-01 4.737353e-01 2.046346e+00
<GCONST> 1.486385e+02
<STATE> 4
<MEAN> 39
 2.261643e+00 -9.547039e+00 6.903600e+00 -1.471807e+01 -8.961995e+00 -1.133992e+01 -2.484411e+00 1.774249e+00 -6.347479e+00 -3.022079e+00 -9.342617e+00 -2.435054e+00 6.980116e+01 -3.743831e-02 4.070785e-01 -4.456812e-01 5.886519e-01 2.311287e-01 1.516036e-01 -3.027568e-02 1.091831e-01 5.031688e-01 8.233742e-03 1.040688e-02 1.771704e-01 -1.340430e+00 -1.649189e-01 3.208369e-01 -2.789366e-02 1.661837e-01 1.118299e-01 1.254911e-01 3.121178e-02 -8.616646e-02 1.187398e-01 1.280831e-02 1.636745e-01 3.696178e-02 -3.207482e-01
<VARIANCE> 39
 5.621860e+01 7.408064e+01 6.481821e+01 1.211140e+02 6.110474e+01 7.153473e+01 5.480392e+01 7.135918e+01 4.914367e+01 5.622929e+01 5.758591e+01 2.695450e+01 2.658269e+02 2.237194e+00 3.880664e+00 2.314184e+00 3.133508e+00 2.833982e+00 2.664105e+00 2.646528e+00 2.741223e+00 2.630443e+00 2.383868e+00 2.569609e+00 1.958500e+00 7.587442e+00 3.580279e-01 5.176231e-01 3.847587e-01 5.767972e-01 4.999610e-01 4.797978e-01 4.820749e-01 5.089008e-01 4.798635e-01 4.500161e-01 4.608459e-01 3.767788e-01 8.978251e-01
<GCONST> 1.306975e+02
<TRANSP> 5
 0.000000e+00 1.000000e+00 0.000000e+00 0.000000e+00 0.000000e+00
 0.000000e+00 8.196366e-01 1.803634e-01 0.000000e+00 0.000000e+00
 0.000000e+00 0.000000e+00 7.459525e-01 2.540475e-01 0.000000e+00
 0.000000e+00 0.000000e+00 0.000000e+00 8.777795e-01 1.222204e-01
 0.000000e+00 0.000000e+00 0.000000e+00 0.000000e+00 0.000000e+00
<ENDHMM>
~h "v"
<BEGINHMM>
<NUMSTATES> 5
<STATE> 2
<MEAN> 39
 -5.553035e+00 4.673559e+00 9.733201e+00 -5.093903e+00 -3.431709e+00 -3.612090e+00 -1.715252e+00 -5.183488e+00 -3.906626e+00 -7.276602e-01 -3.340323e+00 -1.211961e+00 5.561295e+01 1.836209e+00 -6.454932e-01 2.565223e+00 -3.662313e+00 -2.182724e+00 -1.734891e+00 -1.521634e+00 -2.391083e+00 -2.258718e+00 7.026591e-01 -1.734905e+00 -2.546909e-01 2.992240e+00 2.975923e-02 -2.431025e-01 1.932820e-01 -8.107881e-01 -3.279099e-01 -2.280761e-01 -4.733512e-01 -7.163554e-02 -3.432006e-01 4.635940e-02 -4.355012e-01 -9.467950e-02 4.774011e-01
<VARIANCE> 39
 5.621860e+01 7.408064e+01 6.481821e+01 9.562053e+01 6.049548e+01 5.657086e+01 5.480392e+01 5.791851e+01 4.914367e+01 3.600889e+01 5.758591e+01 2.695450e+01 2.658269e+02 4.082063e+00 3.123364e+00 5.925148e+00 9.427911e+00 4.526253e+00 7.496562e+00 5.156679e+00 5.756705e+00 4.387665e+00 4.242961e+00 5.665034e+00 2.426443e+00 1.373512e+01 8.028771e-01 5.398591e-01 8.786541e-01 1.402583e+00 7.951882e-01 1.135452e+00 7.997189e-01 1.172355e+00 8.694637e-01 7.796907e-01 9.009902e-01 4.606340e-01 1.877153e+00
<GCONST> 1.455693e+02
<STATE> 3
<MEAN> 39
 -2.159174e+00 -4.815639e-01 1.997606e+01 -2.363598e+01 -1.227381e+01 -1.288071e+01 -7.962448e+00 -1.313148e+01 -1.413236e+01 2.443521e+00 -1.611532e+01 -2.914353e+00 6.891106e+01 2.344688e-01 -6.068079e-01 3.891802e-01 -6.496756e-01 -7.838632e-01 -2.834560e-01 -5.500530e-01 -2.392953e-02 -1.143063e+00 -5.910552e-01 -9.419798e-01 -3.316352e-01 9.307891e-01 -7.346155e-02 3.700384e-01 -6.596241e-01 1.317573e+00 5.236059e-01 4.285394e-01 4.545463e-01 4.198937e-01 5.129590e-01 -4.816715e-01 5.743077e-01 1.075447e-01 -1.005606e+00
<VARIANCE> 39
 5.621860e+01 7.408064e+01 6.481821e+01 9.562053e+01 6.049548e+01 5.829260e+01 5.480392e+01 5.879374e+01 4.914367e+01 3.600889e+01 6.385215e+01 2.695450e+01 2.658269e+02 2.237194e+00 2.608338e+00 3.749116e+00 1.139687e+01 3.224550e+00 3.393225e+00 4.138268e+00 3.582398e+00 2.871240e+00 3.511613e+00 5.323808e+00 2.150359e+00 7.721968e+00 6.117905e-01 4.178862e-01 5.083714e-01 9.028295e-01 6.380324e-01 5.772918e-01 6.589046e-01 9.076656e-01 5.781562e-01 5.011187e-01 6.871778e-01 4.719447e-01 8.282725e-01
<GCONST> 1.366931e+02
<STATE> 4
<MEAN> 39
 1.668348e+00 -2.895600e-01 7.428232e+00 -1.351048e+01 -5.945662e+00 -1.226829e+01 -9.307456e+00 -9.450814e+00 -9.091301e+00 -6.501124e+00 -1.428255e+01 -2.461358e+00 6.595679e+01 -6.107731e-02 4.168796e-01 -4.053276e-01 8.525879e-01 6.159989e-01 5.654531e-01 -6.134795e-02 1.572481e-01 4.193933e-01 -1.857507e-01 4.717678e-01 -9.039741e-02 -2.919118e-01 -8.023602e-02 8.580063e-03 8.502219e-03 -4.410007e-02 6.541921e-02 5.165770e-02 5.232117e-02 1.471473e-02 6.009332e-02 1.481173e-01 1.042152e-01 -4.594053e-02 2.049878e-02
<VARIANCE> 39
 5.621860e+01 7.408064e+01 7.125981e+01 1.070306e+02 6.179329e+01 8.182494e+01 7.623302e+01 7.800763e+01 4.914367e+01 4.585721e+01 7.285427e+01 3.498591e+01 2.658269e+02 2.237194e+00 2.592087e+00 2.314184e+00 4.451632e+00 3.247017e+00 3.640814e+00 3.905355e+00 3.814825e+00 2.630443e+00 3.534390e+00 3.987529e+00 3.556710e+00 4.984552e+00 3.580279e-01 4.174158e-01 3.847587e-01 7.537314e-01 5.419724e-01 5.883743e-01 6.710586e-01 7.978680e-01 4.798635e-01 5.126432e-01 6.652509e-01 5.881622e-01 6.789643e-01
<GCONST> 1.354315e+02
<TRANSP> 5
 0.000000e+00 1.000000e+00 0.000000e+00 0.000000e+00 0.000000e+00
 0.000000e+00 7.128000e-01 2.872000e-01 0.000000e+00 0.000000e+00
 0.000000e+00 0.000000e+00 7.413140e-01 2.586861e-01 0.000000e+00
 0.000000e+00 0.000000e+00 0.000000e+00 8.838253e-01 1.161747e-01
 0.000000e+00 0.000000e+00 0.000000e+00 0.000000e+00 0.000000e+00
<ENDHMM>
~h "w"
<BEGINHMM>
<NUMSTATES> 5
<STATE> 2
<MEAN> 39
 -2.893878e-01 4.479120e+00 1.548675e+01 -1.856690e+01 -9.889891e+00 -1.311302e+01 -1.159444e+01 -1.269891e+01 -1.231698e+01 3.097940e+00 -1.669071e+01 1.756448e+00 6.421529e+01 -2.017647e-01 2.125609e-01 5.746624e-01 9.726042e-02 -3.140078e-01 1.333321e-01 -8.229890e-02 -1.747786e-01 1.008556e-01 -7.695860e-02 -2.520607e-01 -1.010285e-01 2.418571e-01 -3.275169e-02 -7.218871e-03 -8.735877e-02 4.968297e-02 6.176240e-02 1.622668e-01 1.146413e-01 1.098613e-01 1.538407e-01 3.520130e-03 1.514608e-01 4.489121e-02 -1.270837e-01
<VARIANCE> 39
 5.621860e+01 7.408064e+01 6.481821e+01 9.562053e+01 6.049548e+01 7.318383e+01 5.480392e+01 5.401178e+01 4.914367e+01 4.890712e+01 6.526073e+01 5.030960e+01 2.658269e+02 2.882133e+00 2.592087e+00 2.911854e+00 3.665555e+00 3.288585e+00 4.064981e+00 4.573630e+00 3.442718e+00 2.630443e+00 3.706909e+00 4.816491e+00 3.006847e+00 4.984552e+00 4.490623e-01 4.174158e-01 3.847587e-01 6.256196e-01 4.999610e-01 5.565909e-01 7.303674e-01 8.024557e-01 4.798635e-01 6.559634e-01 8.044225e-01 6.030474e-01 6.789643e-01
<GCONST> 1.357027e+02
<STATE> 3
<MEAN> 39
 2.784816e+00 6.662551e+00 2.146189e+01 -2.192517e+00 -1.270981e+01 3.772423e+00 -8.536478e+00 -6.894325e+00 -7.453327e+00 -2.294295e+00 -1.904909e+00 -6.567080e+00 5.873765e+01 -1.600151e-01 1.775061e-01 -1.881341e-01 1.298109e-01 5.017064e-01 4.311327e-01 4.118955e-01 1.541490e-01 3.497713e-01 1.283328e-01 1.593910e-01 6.068684e-03 -6.796753e-01 -1.780242e-02 -9.199503e-02 -1.980947e-01 3.176575e-02 1.367457e-01 -5.464103e-02 8.971700e-02 1.023066e-01 1.451749e-01 9.164924e-03 -1.052389e-02 6.645429e-02 -5.466163e-02
<VARIANCE> 39
 5.621860e+01 7.408064e+01 6.481821e+01 9.562053e+01 9.028017e+01 5.657086e+01 5.480392e+01 5.008425e+01 4.914367e+01 3.600889e+01 5.758591e+01 3.781363e+01 2.658269e+02 2.237194e+00 2.592087e+00 3.661533e+00 3.129044e+00 5.304421e+00 2.801331e+00 3.476783e+00 3.018275e+00 2.630443e+00 2.383868e+00 2.569609e+00 1.958500e+00 4.984552e+00 3.852918e-01 4.174158e-01 5.711226e-01 5.257927e-01 1.011091e+00 4.991974e-01 5.180320e-01 5.331532e-01 4.798635e-01 4.500161e-01 4.608459e-01 3.767788e-01 6.789643e-01
<GCONST> 1.315791e+02
<STATE> 4
<MEAN> 39
 -6.934059e-01 7.874924e+00 3.657392e+00 -2.135723e+00 1.132436e-01 2.508543e+00 -8.952921e-01 -1.523235e-01 8.119185e-01 -1.995115e-01 -7.674861e-01 -2.407020e+00 3.974045e+01 -1.589923e-02 -1.987051e-01 -5.616698e-01 1.403991e-01 1.209948e-01 -8.091550e-02 2.208136e-01 1.017278e-01 2.527269e-01 3.380696e-02 1.915981e-02 7.057147e-02 -2.144502e-01 1.018994e-02 -3.534336e-02 1.203891e-01 -3.316014e-02 -5.282055e-02 -5.740897e-02 -1.302167e-01 -6.977632e-02 -1.235739e-01 -3.011043e-02 -4.549194e-03 -4.291892e-02 1.463714e-01
<VARIANCE> 39
 5.621860e+01 7.408064e+01 6.481821e+01 9.562053e+01 6.049548e+01 5.657086e+01 5.480392e+01 5.008425e+01 4.914367e+01 3.600889e+01 5.758591e+01 2.695450e+01 2.658269e+02 2.237194e+00 2.592087e+00 2.777894e+00 3.129044e+00 2.833982e+00 2.837374e+00 2.740980e+00 2.775699e+00 2.630443e+00 2.383868e+00 2.569609e+00 2.152398e+00 4.984552e+00 3.580279e-01 4.174158e-01 3.847587e-01 5.025513e-01 5.218332e-01 5.878009e-01 5.333878e-01 5.689235e-01 4.798635e-01 4.576497e-01 4.608459e-01 4.521690e-01 6.789643e-01
<GCONST> 1.290045e+02
<TRANSP> 5
 0.000000e+00 1.000000e+00 0.000000e+00 0.000000e+00 0.000000e+00
 0.000000e+00 8.974744e-01 1.025256e-01 0.000000e+00 0.000000e+00
 0.000000e+00 0.000000e+00 8.949667e-01 1.050334e-01 0.000000e+00
 0.000000e+00 0.000000e+00 0.000000e+00 9.124654e-01 8.753460e-02
 0.000000e+00 0.000000e+00 0.000000e+00 0.000000e+00 0.000000e+00
<ENDHMM>
~h "y"
<BEGINHMM>
<NUMSTATES> 5
<STATE> 2
<MEAN> 39
 4.960600e+00 2.066852e+00 1.196136e+01 -2.123781e+01 -3.588804e+00 -6.692416e+00 -1.430103e+01 -9.177298e+00 -1.438021e+01 3.673036e+00 -1.255220e+01 -7.503219e-01 6.577512e+01 3.646683e-01 -2.051785e-01 -7.744933e-01 6.242620e-01 5.335013e-01 -3.578184e-02 2.386855e-02 -5.536770e-02 9.889320e-02 1.021843e-01 1.398225e-01 -1.959790e-01 4.057695e-01 -1.869268e-01 -1.286496e-01 -1.757135e-01 -4.764830e-02 7.349578e-02 -2.765536e-02 -4.883310e-03 1.795750e-01 2.261719e-01 9.708463e-02 1.986513e-02 6.354015e-02 7.768977e-02
<VARIANCE> 39
 5.621860e+01 7.408064e+01 1.442766e+02 1.052214e+02 6.345912e+01 1.177835e+02 5.480392e+01 5.848307e+01 5.890109e+01 4.036268e+01 5.758591e+01 3.777030e+01 2.658269e+02 2.237194e+00 2.767494e+00 7.212962e+00 7.044055e+00 4.903810e+00 5.041534e+00 4.664140e+00 6.568226e+00 6.896083e+00 5.226563e+00 2.569609e+00 3.625620e+00 8.680391e+00 3.580279e-01 4.174158e-01 6.401298e-01 1.031382e+00 4.999610e-01 7.785208e-01 7.432112e-01 1.240852e+00 8.360955e-01 1.080242e+00 4.608459e-01 7.644094e-01 1.170380e+00
<GCONST> 1.437028e+02
<STATE> 3
<MEAN> 39
 1.447881e+00 -2.052434e+00 7.542629e-01 -1.150504e+01 5.855048e+00 -9.733477e+00 -1.301396e+01 -1.635107e+00 5.290780e-01 3.709132e+00 -1.514084e+01 1.222000e+00 6.836319e+01 -2.910335e-01 -1.242072e+00 -1.148220e-01 -2.845084e+00 -7.772318e-01 -1.321884e+00 5.693769e-01 2.784359e+00 1.315712e+00 1.658879e-01 -1.057304e+00 7.068685e-01 2.004622e+00 4.030813e-01 3.328122e-01 5.416611e-01 -1.283214e-01 -3.591394e-01 2.318022e-01 5.459499e-01 -4.343556e-01 -5.464296e-01 -4.379350e-01 -9.431207e-02 -1.996124e-01 -6.939709e-01
<VARIANCE> 39
 5.621860e+01 7.408064e+01 6.481821e+01 1.040674e+02 6.049548e+01 1.241064e+02 5.480392e+01 5.008425e+01 4.914367e+01 3.600889e+01 1.043004e+02 3.064189e+01 2.658269e+02 2.389424e+00 2.592087e+00 5.940635e+00 5.321182e+00 1.029582e+01 5.347083e+00 7.043734e+00 2.741223e+00 2.696009e+00 2.383868e+00 3.463834e+00 2.864846e+00 9.442820e+00 4.470666e-01 4.174158e-01 1.874921e+00 2.539182e+00 3.273043e+00 9.801486e-01 9.735757e-01 5.089008e-01 4.798635e-01 4.500161e-01 1.243723e+00 7.101471e-01 6.789643e-01
<GCONST> 1.437479e+02
<STATE> 4
<MEAN> 39
 8.840430e-01 -4.008883e+00 2.814236e-01 -1.270381e+01 1.149682e+01 -9.414726e+00 4.346371e-03 2.777633e+00 9.935784e-01 -4.770143e+00 -1.266441e+01 -1.478783e+00 5.883039e+01 -2.405676e-01 4.108042e-01 -1.620312e-01 9.132071e-01 3.581107e-01 6.269568e-01 2.740871e-01 -2.201027e-01 -1.609877e-01 -2.513263e-01 6.951860e-01 -1.454206e-01 -1.703209e+00 9.362221e-03 1.707098e-01 9.530149e-02 7.756068e-02 -2.557088e-01 4.030048e-02 -1.269672e-01 -9.419394e-02 5.768877e-02 1.138686e-01 7.352452e-02 9.335227e-02 -5.356102e-02
<VARIANCE> 39
 5.621860e+01 7.408064e+01 6.481821e+01 9.562053e+01 6.049548e+01 5.657086e+01 5.480392e+01 5.008425e+01 4.914367e+01 3.600889e+01 6.536072e+01 2.695450e+01 2.658269e+02 2.237194e+00 2.592087e+00 2.314184e+00 3.129044e+00 3.659497e+00 2.664105e+00 4.545106e+00 2.741223e+00 3.132972e+00 2.383868e+00 3.165078e+00 1.958500e+00 4.984552e+00 3.580279e-01 4.667873e-01 4.516379e-01 5.025513e-01 5.262160e-01 4.797978e-01 7.066338e-01 5.089008e-01 6.094080e-01 4.500161e-01 6.054721e-01 3.767788e-01 6.789643e-01
<GCONST> 1.304832e+02
<TRANSP> 5
 0.000000e+00 1.000000e+00 0.000000e+00 0.000000e+00 0.000000e+00
 0.000000e+00 9.400451e-01 5.995488e-02 0.000000e+00 0.000000e+00
 0.000000e+00 0.000000e+00 8.052485e-01 1.947515e-01 0.000000e+00
 0.000000e+00 0.000000e+00 0.000000e+00 9.287233e-01 7.127669e-02
 0.000000e+00 0.000000e+00 0.000000e+00 0.000000e+00 0.000000e+00
<ENDHMM>
~h "z"
<BEGINHMM>
<NUMSTATES> 5
<STATE> 2
<MEAN> 39
 -1.395401e+01 1.303596e+01 -5.235909e-01 2.363062e+00 -5.960034e+00 -2.247481e+00 6.511805e-01 -4.358685e+00 -3.162612e+00 -3.488286e+00 9.838630e-01 -4.858272e+00 6.459426e+01 -1.560235e+00 1.140388e+00 -9.138640e-01 1.085932e+00 5.885202e-01 1.060196e+00 5.866099e-01 3.150491e-01 4.474416e-01 8.382128e-02 6.703696e-01 -3.166634e-01 -1.517004e-02 2.455921e-01 -2.494584e-01 3.404467e-01 -3.955759e-01 -1.958645e-01 -2.635475e-01 -8.494285e-02 -2.199058e-01 -1.834778e-01 1.170543e-01 -2.565013e-01 8.152697e-02 4.271181e-02
<VARIANCE> 39
 8.843893e+01 7.408064e+01 6.915452e+01 9.562053e+01 6.049548e+01 5.657086e+01 5.480392e+01 5.008425e+01 4.914367e+01 3.600889e+01 5.758591e+01 2.695450e+01 2.658269e+02 4.725554e+00 4.157551e+00 4.471913e+00 6.763780e+00 3.178905e+00 4.052666e+00 2.646528e+00 4.174791e+00 3.259712e+00 2.838906e+00 3.134076e+00 4.021699e+00 4.984552e+00 8.264558e-01 6.048721e-01 6.224327e-01 7.447783e-01 7.535998e-01 5.656286e-01 5.782098e-01 6.850579e-01 5.264773e-01 7.117957e-01 4.608459e-01 7.402678e-01 6.789643e-01
<GCONST> 1.377516e+02
<STATE> 3
<MEAN> 39
 -1.140007e+01 1.310455e+01 9.063589e+00 -2.431882e+00 -6.635426e+00 -3.161091e+00 -9.488953e-01 -8.328210e+00 -5.294921e+00 -4.189190e+00 -1.347124e+00 -5.204238e+00 6.560730e+01 1.626653e+00 -1.113598e+00 2.546094e+00 -1.654051e+00 -2.276676e+00 -1.358323e+00 -1.691588e+00 -1.478528e+00 -8.349471e-01 1.947939e-01 -4.806094e-01 2.347331e-01 1.017607e+00 3.354648e-01 -5.184788e-01 2.454085e-01 -3.450061e-01 -2.413931e-01 5.564063e-02 -4.423555e-01 3.278188e-01 -5.982050e-02 3.079298e-01 -1.883570e-01 2.550982e-01 -2.771980e-01
<VARIANCE> 39
 6.254729e+01 7.408064e+01 1.074731e+02 9.562053e+01 1.069395e+02 5.793327e+01 5.480392e+01 5.660276e+01 4.914367e+01 3.600889e+01 5.758591e+01 2.695450e+01 2.658269e+02 1.025211e+01 6.927346e+00 1.067504e+01 8.723459e+00 1.147226e+01 4.328040e+00 4.872478e+00 5.765891e+00 3.990289e+00 3.700875e+00 6.381455e+00 3.689382e+00 4.984552e+00 1.260437e+00 6.466571e-01 1.169436e+00 8.346679e-01 1.975213e+00 9.049868e-01 7.375321e-01 9.425554e-01 7.417043e-01 7.155450e-01 6.843381e-01 5.528913e-01 6.789643e-01
<GCONST> 1.480271e+02
<STATE> 4
<MEAN> 39
 -2.389650e+00 6.647712e+00 2.048654e+01 -1.273710e+01 -1.251142e+01 -2.547557e-01 -1.119715e+01 -8.119400e+00 -6.297751e+00 -9.392295e-01 -5.595789e+00 -1.767551e+00 6.098763e+01 1.575719e-01 -1.158316e-01 -2.784903e-01 2.342435e-01 5.238288e-01 3.514920e-01 2.252520e-01 3.656409e-01 3.376938e-01 4.031627e-02 3.971312e-02 1.674869e-01 -7.610880e-01 -8.489569e-02 1.072340e-01 -2.116478e-01 2.176000e-01 1.893777e-01 3.654638e-02 1.765607e-01 1.082313e-01 6.783210e-02 -3.567944e-02 1.130596e-01 -1.865295e-02 -5.488531e-02
<VARIANCE> 39
 5.621860e+01 7.408064e+01 7.687231e+01 9.588168e+01 9.573663e+01 7.583522e+01 5.480392e+01 8.113249e+01 7.518791e+01 4.035900e+01 7.306536e+01 4.820110e+01 2.658269e+02 2.237194e+00 2.592087e+00 2.917952e+00 3.514640e+00 2.833982e+00 3.277652e+00 3.081340e+00 2.741223e+00 2.795319e+00 2.383868e+00 2.569609e+00 2.278492e+00 4.984552e+00 3.580279e-01 4.293305e-01 4.698691e-01 5.025513e-01 4.999610e-01 5.880880e-01 5.086638e-01 5.089008e-01 4.798635e-01 4.500161e-01 4.608459e-01 3.800986e-01 6.789643e-01
<GCONST> 1.321391e+02
<TRANSP> 5
 0.000000e+00 1.000000e+00 0.000000e+00 0.000000e+00 0.000000e+00
 0.000000e+00 8.163727e-01 1.836273e-01 0.000000e+00 0.000000e+00
 0.000000e+00 0.000000e+00 7.145178e-01 2.854822e-01 0.000000e+00
 0.000000e+00 0.000000e+00 0.000000e+00 9.083868e-01 9.161320e-02
 0.000000e+00 0.000000e+00 0.000000e+00 0.000000e+00 0.000000e+00
<ENDHMM>
~h "aa"
<BEGINHMM>
<NUMSTATES> 5
<STATE> 2
<MEAN> 39
 -1.014827e+00 -2.876442e+00 -1.053551e+00 -1.120472e+01 3.282509e+00 -4.049853e+00 -6.103482e+00 -8.874434e-01 -2.568677e+00 -6.698635e-02 -5.489653e+00 -4.226629e+00 5.624316e+01 -6.791009e-01 5.513805e-01 -2.226810e-01 1.575539e+00 3.585694e-01 2.122917e-01 4.305769e-01 2.917261e-01 4.869611e-01 -1.112762e-01 4.520006e-01 1.955616e-01 -1.459596e+00 -6.171351e-02 -1.504097e-01 9.493437e-04 -7.833079e-02 -2.948307e-04 2.849874e-02 1.508787e-01 1.934103e-02 1.151261e-01 -5.970281e-02 -4.983753e-02 7.897422e-02 1.670758e-01
<VARIANCE> 39
 5.621860e+01 8.480674e+01 6.481821e+01 9.562053e+01 6.073397e+01 9.340956e+01 5.480392e+01 6.425087e+01 7.754851e+01 8.659899e+01 7.789041e+01 3.576734e+01 2.658269e+02 3.804096e+00 8.062572e+00 2.992413e+00 7.884711e+00 5.974781e+00 8.046292e+00 5.080719e+00 5.630497e+00 6.955652e+00 5.046097e+00 4.645012e+00 2.936417e+00 2.780414e+01 6.656418e-01 1.259341e+00 5.751727e-01 1.378173e+00 1.214365e+00 1.424201e+00 9.116527e-01 1.097148e+00 1.360597e+00 8.904863e-01 7.290045e-01 5.155240e-01 3.525725e+00
<GCONST> 1.519360e+02
<STATE> 3
<MEAN> 39
 -2.469216e+00 -2.298471e+00 -3.922911e-01 -4.188012e+00 8.062705e+00 -4.048513e+00 -2.590734e-01 2.113727e+00 -3.884029e-01 -1.272074e+00 -5.028188e+00 -1.246910e+00 6.033777e+01 -2.070282e-01 9.348755e-01 6.162158e-01 6.513433e-01 -2.124901e-02 3.445134e-01 7.130917e-01 1.054312e-01 2.443821e-01 5.815053e-02 4.724528e-01 4.604438e-01 -1.120092e+00 1.358845e-01 3.594902e-02 1.520237e-01 -1.083788e-01 -1.762284e-01 5.872956e-02 -1.647117e-01 -1.625521e-01 -9.795447e-02 -2.573659e-02 2.902925e-02 -1.437321e-01 -2.639060e-01
<VARIANCE> 39
 5.621860e+01 7.408064e+01 6.481821e+01 9.562053e+01 6.632754e+01 5.923128e+01 5.480392e+01 5.008425e+01 5.304956e+01 4.048522e+01 5.758591e+01 4.772583e+01 2.658269e+02 2.237194e+00 2.937904e+00 3.355140e+00 3.129044e+00 3.336993e+00 2.774743e+00 3.273926e+00 3.397186e+00 3.178423e+00 2.576314e+00 2.876483e+00 2.737856e+00 6.960248e+00 3.580279e-01 5.031638e-01 5.838745e-01 5.238695e-01 5.850401e-01 6.673570e-01 6.411424e-01 6.681204e-01 6.471878e-01 5.087438e-01 5.578422e-01 5.218915e-01 1.345312e+00
<GCONST> 1.343511e+02
<STATE> 4
<MEAN> 39
 -5.066742e+00 4.815604e+00 3.147414e+00 -3.242320e-01 1.398640e+00 -1.492255e+00 1.941812e-01 3.756940e-01 4.820995e-01 -6.370635e-01 -6.193526e-01 -3.276263e-01 3.730327e+01 -8.074370e-02 1.133595e-02 1.614742e-01 1.022420e-01 -2.032294e-02 3.396511e-02 -1.477768e-02 -1.085887e-01 -3.455087e-02 -2.298132e-05 -1.659621e-02 -5.732587e-02 -1.712831e-01 2.020016e-02 -5.165901e-02 1.539333e-03 -2.860783e-02 2.782739e-02 -2.880565e-02 -5.419122e-02 1.635019e-02 -4.965770e-02 -1.183055e-02 -4.080587e-02 -2.234777e-02 1.595274e-01
<VARIANCE> 39
 5.621860e+01 7.408064e+01 6.481821e+01 9.562053e+01 6.049548e+01 5.657086e+01 5.480392e+01 5.008425e+01 4.914367e+01 3.600889e+01 5.758591e+01 2.695450e+01 2.658269e+02 2.237194e+00 2.592087e+00 2.314184e+00 3.129044e+00 2.833982e+00 2.664105e+00 2.646528e+00 2.741223e+00 2.630443e+00 2.383868e+00 2.569609e+00 1.958500e+00 4.984552e+00 3.580279e-01 4.174158e-01 3.847587e-01 5.025513e-01 4.999610e-01 4.797978e-01 4.820749e-01 5.089008e-01 4.798635e-01 4.500161e-01 4.608459e-01 3.767788e-01 6.789643e-01
<GCONST> 1.279592e+02
<TRANSP> 5
 0.000000e+00 1.000000e+00 0.000000e+00 0.000000e+00 0.000000e+00
 0.000000e+00 8.642288e-01 1.357712e-01 0.000000e+00 0.000000e+00
 0.000000e+00 0.000000e+00 7.703821e-01 2.296179e-01 0.000000e+00
 0.000000e+00 0.000000e+00 0.000000e+00 9.352773e-01 6.472271e-02
 0.000000e+00 0.000000e+00 0.000000e+00 0.000000e+00 0.000000e+00
<ENDHMM>
~h "ae"
<BEGINHMM>
<NUMSTATES> 5
<STATE> 2
<MEAN> 39
 -1.599062e+00 7.691844e+00 5.631374e+00 1.246105e+00 5.852554e-01 1.851254e+00 -6.858886e-01 -5.327287e-01 8.809151e-01 -1.046815e+00 -7.077481e-01 -1.793504e+00 4.010659e+01 -3.732324e-01 1.117667e-01 2.118725e-01 1.233707e-01 3.310270e-01 -7.668875e-02 1.590690e-01 1.333558e-01 1.679476e-02 1.855978e-02 1.272391e-01 -1.115726e-01 3.245431e-01 -1.725651e-01 -2.683492e-01 1.586260e-02 -1.642529e-01 5.262757e-02 -1.695061e-01 -1.440881e-02 9.095083e-02 -7.300341e-02 2.657263e-02 2.006016e-02 -2.056508e-02 3.838288e-01
<VARIANCE> 39
 5.621860e+01 7.408064e+01 6.481821e+01 9.562053e+01 6.049548e+01 5.657086e+01 5.480392e+01 5.008425e+01 4.914367e+01 3.600889e+01 5.758591e+01 2.695450e+01 2.658269e+02 2.237194e+00 2.592087e+00 2.314184e+00 3.129044e+00 2.833982e+00 2.664105e+00 2.646528e+00 2.741223e+00 2.630443e+00 2.383868e+00 2.569609e+00 1.958500e+00 4.984552e+00 3.580279e-01 4.174158e-01 3.847587e-01 5.025513e-01 4.999610e-01 4.797978e-01 4.820749e-01 5.089008e-01 4.798635e-01 4.500161e-01 4.608459e-01 4.120601e-01 6.789643e-01
<GCONST> 1.280487e+02
<STATE> 3
<MEAN> 39
 -9.212178e+00 3.601660e+00 3.849444e+00 -2.599258e+00 1.882557e+00 -2.681818e+00 4.691814e-01 1.449467e+00 -3.625615e-01 -8.539642e-01 -4.215728e-01 -1.269367e+00 4.546373e+01 -3.600049e-01 -7.013457e-01 -1.402760e-02 -5.016214e-01 2.128856e-02 -5.679489e-01 4.821818e-02 3.038639e-01 -2.735639e-01 -1.768556e-01 -2.435867e-01 5.841126e-02 1.779425e+00 1.525847e-01 6.169518e-02 -1.089666e-01 -8.574618e-02 -1.441006e-01 3.667700e-02 -3.149031e-02 -5.798991e-02 -3.861700e-02 -5.959459e-02 -3.380994e-02 1.659451e-02 -6.895772e-02
<VARIANCE> 39
 5.621860e+01 7.408064e+01 6.481821e+01 9.562053e+01 6.049548e+01 5.657086e+01 5.480392e+01 5.008425e+01 4.914367e+01 3.600889e+01 5.758591e+01 2.743059e+01 2.658269e+02 5.724750e+00 5.861490e+00 4.535355e+00 5.920590e+00 4.749248e+00 4.710162e+00 4.020546e+00 3.801203e+00 4.455508e+00 2.902317e+00 3.387407e+00 2.903814e+00 1.455442e+01 9.669310e-01 1.144047e+00 9.094961e-01 1.119899e+00 9.436560e-01 9.828386e-01 7.979692e-01 7.877875e-01 8.965340e-01 5.859714e-01 6.730667e-01 6.175350e-01 2.454328e+00
<GCONST> 1.443430e+02
<STATE> 4
<MEAN> 39
 -4.572182e+00 7.056243e-01 2.312544e+00 -4.346467e+00 -5.034060e-01 -3.780289e+00 4.686311e-01 6.178993e-01 -2.929880e+00 -3.953739e+00 -9.122078e-01 -8.770339e-01 4.283992e+01 -1.956275e-02 6.963375e-02 -3.161920e-03 1.501515e-02 5.874160e-03 5.831544e-02 -1.925734e-02 -3.265570e-02 9.813727e-03 -2.176600e-03 -6.371347e-03 -4.794241e-02 -2.110098e-02 -1.906988e-02 -6.528949e-03 2.628021e-02 -3.301678e-03 1.781635e-02 1.009628e-02 4.392828e-03 -8.016933e-03 5.000081e-03 1.537411e-02 -3.031544e-03 -1.008079e-02 8.240923e-02
<VARIANCE> 39
 5.621860e+01 7.408064e+01 6.481821e+01 9.562053e+01 6.049548e+01 5.657086e+01 5.480392e+01 5.008425e+01 4.914367e+01 3.600889e+01 5.758591e+01 2.695450e+01 2.658269e+02 2.237194e+00 2.592087e+00 2.314184e+00 3.129044e+00 2.833982e+00 2.664105e+00 2.646528e+00 2.741223e+00 2.630443e+00 2.383868e+00 2.569609e+00 1.958500e+00 4.984552e+00 3.580279e-01 4.174158e-01 3.847587e-01 5.025513e-01 4.999610e-01 4.797978e-01 4.820749e-01 5.089008e-01 4.798635e-01 4.500161e-01 4.608459e-01 3.767788e-01 6.789643e-01
<GCONST> 1.279592e+02
<TRANSP> 5
 0.000000e+00 1.000000e+00 0.000000e+00 0.000000e+00 0.000000e+00
 0.000000e+00 6.680257e-01 3.319744e-01 0.000000e+00 0.000000e+00
 0.000000e+00 0.000000e+00 7.598916e-01 2.401084e-01 0.000000e+00
 0.000000e+00 0.000000e+00 0.000000e+00 9.242324e-01 7.576767e-02
 0.000000e+00 0.000000e+00 0.000000e+00 0.000000e+00 0.000000e+00
<ENDHMM>
~h "ah"
<BEGINHMM>
<NUMSTATES> 5
<STATE> 2
<MEAN> 39
 -8.514117e-01 -2.992171e+00 1.660002e+00 -2.876720e+00 4.282146e+00 -5.917668e+00 2.576103e+00 5.621476e+00 -2.509419e+00 -3.291838e+00 -6.180812e+00 -5.961446e-02 5.029079e+01 1.354612e-02 3.481214e-01 -3.202736e-01 4.285474e-01 3.604408e-01 3.602925e-01 1.431619e-01 -1.219708e-01 1.286037e-01 -1.132649e-01 1.323754e-01 1.174483e-01 -9.814858e-01 2.505697e-03 8.068172e-02 5.734785e-02 -3.368374e-02 -1.007264e-01 2.490805e-02 -7.201256e-02 -8.836474e-02 -4.935318e-03 5.013142e-02 4.939136e-02 -1.889711e-02 3.198144e-03
<VARIANCE> 39
 5.621860e+01 7.408064e+01 6.481821e+01 9.562053e+01 7.914626e+01 5.657086e+01 5.480392e+01 5.872416e+01 4.914367e+01 4.646807e+01 5.758591e+01 4.357426e+01 2.658269e+02 2.237194e+00 2.592087e+00 2.314184e+00 3.129044e+00 2.884463e+00 2.664105e+00 2.646528e+00 2.741223e+00 2.630443e+00 2.383868e+00 2.569609e+00 2.297809e+00 4.984552e+00 3.580279e-01 4.174158e-01 3.847587e-01 5.025513e-01 4.999610e-01 4.797978e-01 4.820749e-01 5.089008e-01 4.798635e-01 4.500161e-01 4.608459e-01 4.545941e-01 6.789643e-01
<GCONST> 1.294876e+02
<STATE> 3
<MEAN> 39
 4.684830e+00 1.115661e+01 3.745157e+00 4.387120e-01 2.722042e+00 2.217665e+00 1.712916e+00 7.294279e-01 -8.494636e-02 -1.448154e+00 3.115025e-02 -1.679911e+00 4.011207e+01 -1.566044e-01 1.724593e-01 1.094199e-01 4.297858e-02 -1.477308e-01 4.790455e-02 -1.282685e-01 -4.309265e-02 1.020656e-01 1.479845e-01 6.972314e-02 -1.624117e-03 -3.247919e-01 -8.630195e-02 -8.569134e-02 -1.394663e-02 -2.497092e-02 2.650127e-03 -6.182215e-02 -1.610011e-02 5.834389e-03 -1.091838e-02 -7.611368e-03 -9.628894e-03 1.389432e-02 4.395913e-02
<VARIANCE> 39
 5.621860e+01 7.408064e+01 6.481821e+01 9.562053e+01 6.049548e+01 5.657086e+01 5.480392e+01 5.008425e+01 4.914367e+01 3.600889e+01 5.758591e+01 2.695450e+01 2.658269e+02 2.237194e+00 2.592087e+00 2.314184e+00 3.129044e+00 2.833982e+00 2.664105e+00 2.646528e+00 2.741223e+00 2.630443e+00 2.383868e+00 2.569609e+00 1.958500e+00 4.984552e+00 3.580279e-01 4.174158e-01 3.847587e-01 5.025513e-01 4.999610e-01 4.797978e-01 4.820749e-01 5.089008e-01 4.798635e-01 4.500161e-01 4.608459e-01 3.767788e-01 6.789643e-01
<GCONST> 1.279592e+02
<STATE> 4
<MEAN> 39
 -5.405090e+00 3.345945e+00 9.801450e-01 -1.243387e+00 -5.783686e-01 -2.183508e+00 -1.272915e+00 1.087958e-01 -1.423987e+00 -1.850441e+00 5.654696e-01 -9.361057e-01 3.448333e+01 -3.969605e-02 -5.210436e-02 -8.329796e-03 -5.262879e-02 -3.875487e-02 -3.435150e-02 -2.865455e-02 -2.273480e-02 -3.350601e-02 3.346365e-03 9.400435e-03 -2.026505e-03 1.243973e-02 2.025743e-02 1.043393e-02 1.483851e-02 1.704694e-03 1.274544e-02 7.813632e-03 1.283475e-02 1.330955e-02 1.839942e-03 -3.399576e-03 -1.316336e-02 -6.326015e-03 2.966207e-02
<VARIANCE> 39
 5.621860e+01 7.408064e+01 6.481821e+01 9.562053e+01 6.049548e+01 5.657086e+01 5.480392e+01 5.008425e+01 4.914367e+01 3.600889e+01 5.758591e+01 2.695450e+01 2.658269e+02 2.237194e+00 2.592087e+00 2.314184e+00 3.129044e+00 2.833982e+00 2.664105e+00 2.646528e+00 2.741223e+00 2.630443e+00 2.383868e+00 2.569609e+00 1.958500e+00 4.984552e+00 3.580279e-01 4.174158e-01 3.847587e-01 5.025513e-01 4.999610e-01 4.797978e-01 4.820749e-01 5.089008e-01 4.798635e-01 4.500161e-01 4.608459e-01 3.767788e-01 6.789643e-01
<GCONST> 1.279592e+02
<TRANSP> 5
 0.000000e+00 1.000000e+00 0.000000e+00 0.000000e+00 0.000000e+00
 0.000000e+00 9.041249e-01 9.587511e-02 0.000000e+00 0.000000e+00
 0.000000e+00 0.000000e+00 9.256647e-01 7.433534e-02 0.000000e+00
 0.000000e+00 0.000000e+00 0.000000e+00 9.677701e-01 3.222992e-02
 0.000000e+00 0.000000e+00 0.000000e+00 0.000000e+00 0.000000e+00
<ENDHMM>
~h "ao"
<BEGINHMM>
<NUMSTATES> 5
<STATE> 2
<MEAN> 39
 -4.466862e+00 3.441156e+00 -6.707915e+00 -8.566465e+00 8.595403e+00 2.945761e+00 -4.641654e+00 -1.234562e+00 -6.129247e+00 3.313919e+00 -3.253123e-01 -2.298154e+00 5.388064e+01 1.349610e+00 -7.218783e-01 -1.086382e+00 -2.420614e+00 6.800241e-01 2.691373e-01 -1.060982e+00 -2.700431e-01 -1.476211e+00 2.248636e-01 -4.814799e-01 -5.365772e-01 4.100519e+00 3.394451e-01 -1.014904e-01 4.273314e-01 -3.225730e-01 -4.204275e-01 -1.794991e-01 -7.613174e-02 -8.118378e-02 -3.176029e-02 -1.019010e-01 -9.636300e-02 1.236338e-03 -1.224594e-01
<VARIANCE> 39
 5.621860e+01 7.408064e+01 6.481821e+01 9.562053e+01 6.049548e+01 5.657086e+01 5.480392e+01 5.008425e+01 4.914367e+01 4.615831e+01 5.758591e+01 3.174632e+01 2.658269e+02 4.073584e+00 5.245035e+00 9.715268e+00 6.654623e+00 8.946276e+00 5.858503e+00 4.905051e+00 3.572261e+00 3.705516e+00 3.517646e+00 4.966452e+00 3.170967e+00 1.804852e+01 6.227595e-01 1.174239e+00 1.728372e+00 1.165483e+00 1.557761e+00 1.047058e+00 9.378986e-01 6.364530e-01 7.262931e-01 6.419228e-01 8.349485e-01 5.487874e-01 4.025075e+00
<GCONST> 1.481003e+02
<STATE> 3
<MEAN> 39
 9.824221e+00 -3.218356e+00 1.534386e+00 -2.312792e+01 -2.027397e+00 6.082017e+00 -8.077116e+00 2.199001e-01 -8.942516e+00 6.978023e+00 5.743699e+00 -6.935669e+00 6.905789e+01 1.242528e-01 -2.658417e-01 3.075004e-01 -4.053638e-01 -1.907532e-01 -1.832019e-01 -1.267411e-01 -3.007264e-01 1.157258e-01 1.514331e-01 -3.669465e-01 -9.726612e-02 6.364268e-02 -2.081597e-01 5.116250e-02 -1.008621e-01 2.571431e-01 1.529617e-01 -5.334975e-02 5.960435e-02 -3.529645e-02 8.409690e-02 -2.691033e-02 -1.062654e-01 1.681788e-02 -1.457892e-01
<VARIANCE> 39
 5.621860e+01 7.408064e+01 6.481821e+01 9.562053e+01 6.049548e+01 5.657086e+01 5.480392e+01 5.008425e+01 7.047926e+01 4.054514e+01 5.758591e+01 2.695450e+01 2.658269e+02 2.237194e+00 2.592087e+00 2.314184e+00 3.316374e+00 2.833982e+00 2.664105e+00 2.646528e+00 2.741223e+00 2.630443e+00 2.383868e+00 2.569609e+00 1.958500e+00 4.984552e+00 3.580279e-01 4.174158e-01 3.847587e-01 5.025513e-01 4.999610e-01 4.797978e-01 4.820749e-01 5.089008e-01 4.798635e-01 4.500161e-01 4.608459e-01 3.767788e-01 6.789643e-01
<GCONST> 1.284966e+02
<STATE> 4
<MEAN> 39
 4.819578e+00 -7.451783e+00 -5.778074e+00 -3.217485e+01 3.607435e+00 -3.812132e+00 -1.346982e+01 -6.721584e+00 -8.667317e+00 -3.089977e+00 -1.201587e+01 -3.586713e+00 7.266808e+01 -2.268431e-03 -4.841631e-02 2.125463e-01 1.805875e-01 -1.069580e-01 -2.598052e-01 -1.419541e-01 6.811456e-02 3.002995e-01 -2.152254e-01 -1.883034e-02 2.428157e-02 -1.264862e-01 -7.317829e-02 1.409670e-01 2.578929e-02 2.428092e-01 4.400774e-02 5.665066e-02 4.804499e-02 4.559531e-02 2.379163e-02 -1.077360e-02 9.200970e-02 -1.567689e-02 -1.233915e-01
<VARIANCE> 39
 5.621860e+01 7.408064e+01 6.481821e+01 9.562053e+01 6.049548e+01 5.657086e+01 7.337659e+01 7.910368e+01 4.914367e+01 3.600889e+01 5.758591e+01 2.695450e+01 2.658269e+02 2.237194e+00 2.592087e+00 2.314184e+00 3.129044e+00 2.833982e+00 2.664105e+00 2.646528e+00 2.741223e+00 2.630443e+00 2.383868e+00 2.569609e+00 1.958500e+00 4.984552e+00 3.580279e-01 4.174158e-01 3.847587e-01 5.025513e-01 4.999610e-01 4.797978e-01 4.820749e-01 5.089008e-01 4.798635e-01 4.500161e-01 4.608459e-01 3.767788e-01 6.789643e-01
<GCONST> 1.287081e+02
<TRANSP> 5
 0.000000e+00 1.000000e+00 0.000000e+00 0.000000e+00 0.000000e+00
 0.000000e+00 8.350378e-01 1.649622e-01 0.000000e+00 0.000000e+00
 0.000000e+00 0.000000e+00 8.874259e-01 1.125741e-01 0.000000e+00
 0.000000e+00 0.000000e+00 0.000000e+00 9.356772e-01 6.432281e-02
 0.000000e+00 0.000000e+00 0.000000e+00 0.000000e+00 0.000000e+00
<ENDHMM>
~h "ay"
<BEGINHMM>
<NUMSTATES> 5
<STATE> 2
<MEAN> 39
 -6.818720e+00 3.696513e+00 3.447806e+00 -2.975692e+00 -2.238248e+00 -3.518606e+00 -1.406134e+00 4.519187e-01 3.238255e-02 -2.233121e+00 -2.001659e+00 -1.138127e+00 4.688243e+01 7.802388e-02 -7.817123e-01 -1.451924e-01 -5.781890e-01 3.615342e-01 -2.430632e-01 -1.254310e-01 -8.712244e-02 -1.017809e-01 -4.108154e-02 -2.318497e-01 2.506608e-04 8.529796e-01 3.131601e-01 -3.956851e-01 2.350317e-02 -4.167689e-01 -5.743045e-02 -1.198661e-01 -1.079607e-01 -3.993548e-02 -1.558420e-01 1.149188e-02 -2.579073e-01 -1.696227e-02 4.020854e-01
<VARIANCE> 39
 5.621860e+01 7.408064e+01 6.481821e+01 9.562053e+01 6.049548e+01 5.657086e+01 5.480392e+01 8.261202e+01 5.385877e+01 3.648222e+01 5.758591e+01 4.039023e+01 2.658269e+02 5.473282e+00 6.452404e+00 4.151263e+00 7.702442e+00 5.010485e+00 5.796533e+00 4.700449e+00 9.391692e+00 6.043620e+00 3.848527e+00 6.339469e+00 4.016569e+00 1.578098e+01 8.313301e-01 1.185709e+00 7.077265e-01 1.431648e+00 9.448059e-01 1.069833e+00 9.448640e-01 1.917628e+00 1.123537e+00 7.157206e-01 1.328915e+00 8.567061e-01 2.598505e+00
<GCONST> 1.510162e+02
<STATE> 3
<MEAN> 39
 1.428090e+00 -8.606751e+00 2.070146e+00 -1.487514e+01 1.077863e+00 -7.487388e+00 -6.805442e+00 -4.526663e+00 -5.031094e+00 -2.650365e+00 -8.540972e+00 -2.733295e+00 6.773332e+01 1.613678e+00 -2.895421e+00 -1.555606e-01 -2.971405e+00 -3.430775e-01 -1.392322e+00 -3.471496e-01 3.167449e-02 -7.927733e-01 -6.690813e-01 -2.228877e+00 -4.885724e-01 3.436956e+00 -6.058961e-01 4.819082e-01 1.088693e-02 6.555393e-01 -1.296820e-01 2.183167e-01 3.938842e-01 2.484774e-01 1.791146e-02 -3.413517e-01 1.556629e-01 4.659402e-02 -6.573426e-01
<VARIANCE> 39
 5.621860e+01 7.408064e+01 6.526895e+01 9.562053e+01 7.828255e+01 7.390239e+01 9.132658e+01 7.917261e+01 5.676593e+01 4.870044e+01 6.909427e+01 3.332015e+01 2.658269e+02 4.089856e+00 5.389328e+00 3.648451e+00 7.696334e+00 5.369662e+00 4.732278e+00 5.158491e+00 6.127554e+00 7.002553e+00 4.475587e+00 5.387776e+00 2.363348e+00 1.181969e+01 5.445781e-01 9.494061e-01 6.171588e-01 1.146060e+00 7.377163e-01 8.012925e-01 7.408822e-01 6.864977e-01 1.012074e+00 6.841493e-01 1.124071e+00 4.665723e-01 1.203207e+00
<GCONST> 1.460885e+02
<STATE> 4
<MEAN> 39
 -6.891949e-01 -1.253976e+01 4.855443e+00 -2.231169e+01 -2.859434e+00 -1.364658e+01 -2.911671e+00 -5.930954e+00 -8.747558e+00 -8.270990e+00 -1.311000e+01 -1.816309e+00 7.441872e+01 -9.334289e-02 4.427347e-01 3.665699e-01 2.058153e-01 -3.987194e-01 -1.505476e-01 2.423169e-01 9.413008e-02 8.504169e-03 9.991074e-02 2.581748e-01 7.203159e-02 -3.220395e-01 -3.787952e-02 2.429521e-01 2.623529e-02 2.253562e-01 2.279625e-02 1.102165e-01 -2.818124e-02 1.610908e-03 8.985810e-02 9.656966e-02 1.338198e-01 3.952698e-04 -2.505276e-01
<VARIANCE> 39
 5.621860e+01 8.535629e+01 8.368114e+01 9.562053e+01 7.192065e+01 5.657086e+01 6.668710e+01 7.174925e+01 4.914367e+01 6.217656e+01 5.758591e+01 2.695450e+01 2.658269e+02 2.237194e+00 2.592087e+00 2.314184e+00 3.324570e+00 2.833982e+00 2.664105e+00 2.646528e+00 2.741223e+00 2.630443e+00 2.914843e+00 2.569609e+00 1.958500e+00 4.984552e+00 3.580279e-01 4.174158e-01 3.847587e-01 5.628957e-01 4.999610e-01 4.797978e-01 4.820749e-01 5.089008e-01 4.798635e-01 4.500161e-01 4.608459e-01 3.767788e-01 6.789643e-01
<GCONST> 1.300064e+02
<TRANSP> 5
 0.000000e+00 1.000000e+00 0.000000e+00 0.000000e+00 0.000000e+00
 0.000000e+00 8.366566e-01 1.633434e-01 0.000000e+00 0.000000e+00
 0.000000e+00 0.000000e+00 6.446186e-01 3.553815e-01 0.000000e+00
 0.000000e+00 0.000000e+00 0.000000e+00 9.137648e-01 8.623520e-02
 0.000000e+00 0.000000e+00 0.000000e+00 0.000000e+00 0.000000e+00
<ENDHMM>
~h "ch"
<BEGINHMM>
<NUMSTATES> 5
<STATE> 2
<MEAN> 39
 -4.333574e+00 6.139561e+00 4.039996e+00 -4.171293e+00 -7.428441e+00 -3.995226e+00 -3.616534e+00 -1.401256e+00 7.619958e-01 5.439878e-01 5.065778e-01 6.542816e-01 3.567611e+01 -7.533556e-01 7.627804e-02 -6.563410e-01 -1.469916e-01 5.704834e-01 2.749729e-01 1.005009e-01 -6.272660e-02 4.365868e-02 2.356600e-01 4.265103e-01 -3.447085e-02 -7.723588e-01 9.309371e-02 -1.297639e-02 1.964419e-01 1.658519e-01 2.648334e-01 1.299350e-01 8.369083e-02 2.839489e-02 -1.709028e-01 -1.656128e-01 -1.938493e-01 -2.486109e-01 4.917579e-01
<VARIANCE> 39
 5.621860e+01 7.408064e+01 6.481821e+01 9.562053e+01 6.049548e+01 5.657086e+01 5.480392e+01 5.008425e+01 4.914367e+01 3.600889e+01 5.758591e+01 2.695450e+01 2.658269e+02 2.237194e+00 2.592087e+00 2.314184e+00 3.129044e+00 2.833982e+00 2.664105e+00 2.646528e+00 2.741223e+00 2.630443e+00 2.383868e+00 2.569609e+00 1.958500e+00 4.984552e+00 3.580279e-01 4.174158e-01 3.847587e-01 5.025513e-01 4.999610e-01 4.797978e-01 4.820749e-01 5.089008e-01 4.798635e-01 4.619344e-01 4.608459e-01 3.767788e-01 6.789643e-01
<GCONST> 1.279854e+02
<STATE> 3
<MEAN> 39
 -9.717643e+00 4.944341e+00 3.911184e+00 -3.461362e+00 -9.948618e-01 -8.303642e-01 -8.765172e-01 -1.202079e+00 -1.164832e+00 1.832985e-01 -7.494048e-01 -2.961505e+00 4.124950e+01 -4.858582e-02 -9.702818e-02 -1.343665e-01 1.990711e-01 4.056960e-01 3.590635e-01 2.761609e-01 9.154635e-02 3.078874e-02 -3.483648e-01 -3.231108e-01 -3.048124e-01 -3.225630e-02 2.795264e-01 4.095293e-02 -1.467433e-03 1.059403e-01 -1.251477e-01 -8.407819e-02 -3.012507e-02 1.699069e-02 -2.264405e-02 -9.016633e-02 -5.341863e-02 1.759394e-01 -1.898839e-01
<VARIANCE> 39
 5.621860e+01 7.408064e+01 6.481821e+01 9.562053e+01 6.049548e+01 5.657086e+01 5.480392e+01 5.008425e+01 4.914367e+01 3.600889e+01 5.758591e+01 2.759675e+01 2.658269e+02 2.934839e+00 2.592087e+00 2.314184e+00 3.129044e+00 2.833982e+00 2.664105e+00 2.646528e+00 2.741223e+00 2.630443e+00 2.383868e+00 2.569609e+00 2.364249e+00 4.984552e+00 4.583761e-01 4.174158e-01 3.847587e-01 5.025513e-01 5.081065e-01 4.797978e-01 4.820749e-01 5.630978e-01 4.798635e-01 4.876423e-01 4.608459e-01 4.681972e-01 6.789643e-01
<GCONST> 1.291045e+02
<STATE> 4
<MEAN> 39
 -5.458230e+00 4.419830e+00 1.152271e+00 -1.165739e+00 -5.899190e-01 -8.698882e-01 -5.982727e-01 -2.925002e-01 -9.505708e-01 -2.063069e+00 3.935946e-01 -4.037005e-01 3.374515e+01 2.282842e-02 5.076195e-02 9.671064e-03 5.575842e-02 1.768290e-02 1.645754e-02 1.549349e-02 1.917795e-02 2.313220e-02 3.319355e-03 1.509200e-02 1.634954e-02 -6.273903e-02 -9.087044e-03 8.030448e-03 2.312837e-02 -3.726913e-03 7.362974e-03 -7.785533e-03 -3.782881e-04 -3.060853e-03 7.255312e-03 1.728218e-02 2.772237e-03 -9.909254e-03 4.436504e-02
<VARIANCE> 39
 5.621860e+01 7.408064e+01 6.481821e+01 9.562053e+01 6.049548e+01 5.657086e+01 5.480392e+01 5.008425e+01 4.914367e+01 3.600889e+01 5.758591e+01 2.695450e+01 2.658269e+02 2.237194e+00 2.592087e+00 2.314184e+00 3.129044e+00 2.833982e+00 2.664105e+00 2.646528e+00 2.741223e+00 2.630443e+00 2.383868e+00 2.569609e+00 1.958500e+00 4.984552e+00 3.580279e-01 4.174158e-01 3.847587e-01 5.025513e-01 4.999610e-01 4.797978e-01 4.820749e-01 5.089008e-01 4.798635e-01 4.500161e-01 4.608459e-01 3.767788e-01 6.789643e-01
<GCONST> 1.279592e+02
<TRANSP> 5
 0.000000e+00 1.000000e+00 0.000000e+00 0.000000e+00 0.000000e+00
 0.000000e+00 7.244295e-01 2.755705e-01 0.000000e+00 0.000000e+00
 0.000000e+00 0.000000e+00 6.619341e-01 3.380658e-01 0.000000e+00
 0.000000e+00 0.000000e+00 0.000000e+00 9.550434e-01 4.495666e-02
 0.000000e+00 0.000000e+00 0.000000e+00 0.000000e+00 0.000000e+00
<ENDHMM>
~h "eh"
<BEGINHMM>
<NUMSTATES> 5
<STATE> 2
<MEAN> 39
 -1.572508e+01 1.324332e+01 -2.095665e+00 6.098469e-01 3.848294e-01 -2.922830e+00 2.648487e+00 -1.557733e+00 -1.311939e+00 -3.512599e+00 4.224680e-01 -2.256560e+00 6.306872e+01 3.885837e-01 -5.518590e-02 2.164019e-01 -1.924855e-01 -1.513958e-01 -2.718605e-01 -3.319653e-01 2.838380e-02 2.647456e-01 2.282663e-01 1.890383e-01 1.292092e-01 9.190224e-01 9.903153e-01 -7.947304e-01 5.613852e-01 -5.631738e-01 -5.772456e-01 -5.241574e-01 -4.752090e-01 4.059155e-02 -3.155712e-01 2.251485e-02 -4.532551e-01 3.852560e-02 2.539656e-01
<VARIANCE> 39
 5.649293e+01 7.408064e+01 6.481821e+01 9.562053e+01 6.049548e+01 5.657086e+01 5.480392e+01 5.008425e+01 4.914367e+01 3.600889e+01 5.758591e+01 2.695450e+01 2.658269e+02 1.108293e+01 3.798886e+00 4.184511e+00 3.165138e+00 3.703703e+00 3.384407e+00 2.646528e+00 2.741223e+00 2.672375e+00 2.547805e+00 3.157302e+00 1.958500e+00 4.984552e+00 6.721205e-01 7.235151e-01 4.577922e-01 8.134753e-01 6.296588e-01 8.520663e-01 5.434725e-01 5.643475e-01 5.318527e-01 5.355662e-01 6.575326e-01 4.027933e-01 6.789643e-01
<GCONST> 1.349082e+02
<STATE> 3
<MEAN> 39
 -5.577986e+00 6.810740e+00 6.488134e+00 -1.157520e+00 -4.161916e+00 -3.297859e+00 -6.531098e-01 -6.600420e-01 -3.267096e+00 -2.302362e+00 -1.498470e+00 -2.124728e+00 6.260152e+01 2.387216e+00 -1.895060e+00 1.477575e+00 -1.312410e+00 -1.542043e+00 -1.247236e+00 -1.324785e+00 8.298288e-02 -6.899823e-01 4.902250e-02 -1.130634e+00 1.006196e-01 1.359384e+00 1.536478e-01 -5.721545e-01 1.631993e-02 -4.779995e-01 -2.583987e-01 -2.306562e-01 -1.618713e-01 1.301401e-01 -2.548692e-01 2.779592e-02 -3.411429e-01 5.315252e-02 2.009333e-01
<VARIANCE> 39
 7.698920e+01 8.412679e+01 6.618454e+01 9.562053e+01 6.817225e+01 5.657086e+01 5.480392e+01 5.008425e+01 4.914367e+01 3.600889e+01 5.758591e+01 2.695450e+01 2.658269e+02 1.072913e+01 1.108207e+01 4.658584e+00 6.241084e+00 8.826826e+00 6.336972e+00 3.973101e+00 4.156727e+00 3.460667e+00 2.686356e+00 4.117674e+00 2.225187e+00 7.160891e+00 9.733383e-01 1.780483e+00 5.496911e-01 9.770709e-01 1.071527e+00 8.728575e-01 4.942664e-01 6.459384e-01 5.813168e-01 4.706992e-01 7.993705e-01 4.278055e-01 1.026876e+00
<GCONST> 1.435569e+02
<STATE> 4
<MEAN> 39
 -3.379841e-01 -1.086599e+00 9.864175e+00 -1.451615e+01 -8.351302e+00 -1.262642e+01 -6.000675e+00 -4.751405e+00 -7.043755e+00 -3.005359e+00 -8.488178e+00 -2.492011e+00 6.766325e+01 7.315198e-01 -1.178230e+00 3.494434e-01 -9.328617e-01 -4.292111e-01 -6.521365e-01 -1.937669e-01 3.643582e-01 -4.745342e-01 6.073359e-02 -8.060872e-01 7.758926e-02 6.647568e-01 -5.125117e-01 3.356340e-01 -2.872418e-01 3.790177e-01 3.335431e-01 3.876514e-01 3.071648e-01 3.756711e-02 9.367556e-02 -8.347715e-02 2.506479e-01 -8.158628e-02 -2.689185e-01
<VARIANCE> 39
 5.621860e+01 8.158794e+01 6.725800e+01 1.178512e+02 6.453006e+01 8.466517e+01 6.558575e+01 8.219164e+01 4.914367e+01 5.042524e+01 6.940940e+01 4.429025e+01 2.658269e+02 5.591638e+00 1.089266e+01 4.079258e+00 1.226067e+01 5.508464e+00 7.198565e+00 4.904154e+00 4.682081e+00 4.044007e+00 4.078339e+00 6.426216e+00 3.437004e+00 8.215959e+00 9.063500e-01 9.966124e-01 5.869367e-01 1.067890e+00 8.252897e-01 9.718918e-01 8.455620e-01 7.217814e-01 6.553313e-01 7.437804e-01 8.068999e-01 5.708557e-01 9.800693e-01
<GCONST> 1.477558e+02
<TRANSP> 5
 0.000000e+00 1.000000e+00 0.000000e+00 0.000000e+00 0.000000e+00
 0.000000e+00 6.582291e-01 3.417709e-01 0.000000e+00 0.000000e+00
 0.000000e+00 0.000000e+00 5.862301e-01 4.137699e-01 0.000000e+00
 0.000000e+00 0.000000e+00 0.000000e+00 8.573606e-01 1.426394e-01
 0.000000e+00 0.000000e+00 0.000000e+00 0.000000e+00 0.000000e+00
<ENDHMM>
~h "er"
<BEGINHMM>
<NUMSTATES> 5
<STATE> 2
<MEAN> 39
 2.418065e+00 -2.520564e+00 1.471869e+00 3.612563e+00 4.749322e+00 -4.719194e-01 7.230504e-01 5.143627e+00 7.980484e-01 -4.850620e+00 -4.174113e+00 1.047912e-01 4.453402e+01 8.783744e-02 9.051681e-01 -2.069805e-01 -2.638449e-01 3.436634e-01 2.016290e-01 -8.006672e-02 -2.933623e-01 2.027191e-03 6.726089e-02 9.550741e-02 -2.003238e-01 -7.401949e-01 -5.328349e-02 8.468705e-02 1.065525e-01 -5.397549e-03 -1.037476e-01 -2.060341e-02 -3.507428e-02 -6.032592e-02 -4.805011e-03 6.782836e-02 3.952680e-02 -4.206415e-02 1.888451e-02
<VARIANCE> 39
 5.621860e+01 7.408064e+01 6.481821e+01 9.562053e+01 6.049548e+01 5.657086e+01 5.480392e+01 5.008425e+01 4.914367e+01 3.600889e+01 5.758591e+01 2.695450e+01 2.658269e+02 2.237194e+00 2.592087e+00 2.314184e+00 3.129044e+00 2.833982e+00 2.664105e+00 2.646528e+00 2.741223e+00 2.630443e+00 2.383868e+00 2.569609e+00 1.981094e+00 4.984552e+00 3.580279e-01 4.174158e-01 3.847587e-01 5.025513e-01 4.999610e-01 4.797978e-01 4.820749e-01 5.089008e-01 4.798635e-01 4.500161e-01 4.608459e-01 3.767788e-01 6.789643e-01
<GCONST> 1.279707e+02
<STATE> 3
<MEAN> 39
 3.757007e+00 1.199050e+01 4.977440e+00 4.293715e-01 3.747491e+00 2.244835e+00 2.489843e+00 1.253925e+00 2.267114e-01 -2.131228e+00 6.052284e-02 -1.455346e+00 3.986043e+01 -2.200181e-01 1.408227e-01 7.288265e-02 -3.859280e-02 -1.170565e-01 5.228123e-02 -4.547699e-02 -4.216954e-02 -2.823309e-02 9.638997e-02 8.143339e-02 4.723922e-02 -2.253310e-01 -3.120664e-02 -8.615855e-02 -2.798976e-02 -6.178045e-03 3.739993e-03 -1.821089e-02 -2.255170e-02 7.598959e-03 6.405949e-04 -1.939198e-02 -6.511137e-04 1.716718e-02 1.137691e-02
<VARIANCE> 39
 5.621860e+01 7.408064e+01 6.481821e+01 9.562053e+01 6.049548e+01 5.657086e+01 5.480392e+01 5.008425e+01 4.914367e+01 3.600889e+01 5.758591e+01 2.695450e+01 2.658269e+02 2.237194e+00 2.592087e+00 2.314184e+00 3.129044e+00 2.833982e+00 2.664105e+00 2.646528e+00 2.741223e+00 2.630443e+00 2.383868e+00 2.569609e+00 1.958500e+00 4.984552e+00 3.580279e-01 4.174158e-01 3.847587e-01 5.025513e-01 4.999610e-01 4.797978e-01 4.820749e-01 5.089008e-01 4.798635e-01 4.500161e-01 4.608459e-01 3.767788e-01 6.789643e-01
<GCONST> 1.279592e+02
<STATE> 4
<MEAN> 39
 -4.954706e+00 -4.198174e-01 2.141611e-01 -3.034060e+00 1.041656e-01 -3.517531e+00 -1.271435e+00 1.837599e+00 -2.893689e+00 -4.126782e+00 -5.420705e-01 -9.259788e-01 3.835355e+01 -1.696306e-02 -3.282283e-02 -4.101416e-02 -1.207572e-02 -3.854330e-02 -3.931880e-02 1.507830e-02 1.696095e-02 -9.662320e-03 -9.806588e-03 -1.758756e-02 -9.622027e-03 4.494619e-02 5.861959e-03 3.441638e-02 1.419735e-02 1.713956e-02 2.055399e-02 1.169565e-02 2.790060e-02 5.792859e-03 2.011417e-02 1.802272e-02 9.330800e-03 3.860410e-03 7.502002e-03
<VARIANCE> 39
 5.621860e+01 7.408064e+01 6.481821e+01 9.562053e+01 6.049548e+01 5.657086e+01 5.480392e+01 5.008425e+01 4.914367e+01 3.600889e+01 5.758591e+01 2.695450e+01 2.658269e+02 2.237194e+00 2.592087e+00 2.314184e+00 3.129044e+00 2.833982e+00 2.664105e+00 2.646528e+00 2.741223e+00 2.630443e+00 2.383868e+00 2.569609e+00 1.958500e+00 4.984552e+00 3.580279e-01 4.174158e-01 3.847587e-01 5.025513e-01 4.999610e-01 4.797978e-01 4.820749e-01 5.089008e-01 4.798635e-01 4.500161e-01 4.608459e-01 3.767788e-01 6.789643e-01
<GCONST> 1.279592e+02
<TRANSP> 5
 0.000000e+00 1.000000e+00 0.000000e+00 0.000000e+00 0.000000e+00
 0.000000e+00 8.888872e-01 1.111128e-01 0.000000e+00 0.000000e+00
 0.000000e+00 0.000000e+00 9.575280e-01 4.247202e-02 0.000000e+00
 0.000000e+00 0.000000e+00 0.000000e+00 9.741619e-01 2.583813e-02
 0.000000e+00 0.000000e+00 0.000000e+00 0.000000e+00 0.000000e+00
<ENDHMM>
~h "ey"
<BEGINHMM>
<NUMSTATES> 5
<STATE> 2
<MEAN> 39
 -1.028412e+00 2.627921e+00 1.039616e+01 -7.113771e+00 -2.558469e+00 -4.941517e+00 8.459351e-01 1.223928e+00 -4.355316e+00 -8.296419e-01 -4.174412e-01 1.724001e+00 4.994204e+01 -3.206968e-02 1.049421e+00 3.507984e-01 6.177925e-01 3.390320e-01 6.644566e-01 -1.142330e-01 -3.687394e-01 2.760319e-01 9.825616e-02 1.085334e-01 1.321480e-01 -1.132460e+00 -2.244843e-02 2.190920e-02 -8.068221e-03 5.816010e-02 6.371976e-02 1.565205e-01 -1.006612e-01 -2.093406e-02 -2.054650e-02 -8.683212e-02 -1.296382e-01 -1.731882e-01 -1.742580e-02
<VARIANCE> 39
 5.621860e+01 7.408064e+01 6.481821e+01 9.562053e+01 1.362623e+02 5.657086e+01 6.769794e+01 5.008425e+01 4.914367e+01 3.600889e+01 5.758591e+01 3.669023e+01 2.658269e+02 2.237194e+00 2.592087e+00 3.009790e+00 3.129044e+00 3.029212e+00 2.664105e+00 2.646528e+00 2.759412e+00 2.677180e+00 2.667462e+00 2.569609e+00 1.958500e+00 4.984552e+00 3.580279e-01 4.174158e-01 3.847587e-01 5.025513e-01 4.999610e-01 4.797978e-01 4.820749e-01 5.089008e-01 4.798635e-01 5.721915e-01 4.608459e-01 3.767788e-01 7.318845e-01
<GCONST> 1.300722e+02
<STATE> 3
<MEAN> 39
 1.092540e+00 7.491386e+00 1.424599e+01 -4.132706e+00 -5.957973e+00 -2.234539e+00 -4.193085e+00 -2.394295e+00 -5.467091e+00 -1.383324e+00 -2.584869e+00 -3.455520e+00 4.959648e+01 1.775790e-01 5.315186e-01 -4.771262e-03 7.591154e-01 2.404840e-01 5.574741e-01 -1.909582e-01 1.584824e-01 2.458929e-01 -1.019758e-01 9.269767e-02 -3.066050e-01 -8.986623e-01 -1.086329e-01 -2.498572e-01 -2.580515e-01 -1.078635e-01 -6.999146e-02 -1.977065e-01 -3.472201e-02 8.574048e-02 -5.652849e-03 1.587369e-02 6.481709e-02 7.527523e-02 1.826067e-01
<VARIANCE> 39
 5.621860e+01 7.408064e+01 1.031594e+02 9.562053e+01 7.159334e+01 5.657086e+01 6.162121e+01 5.008425e+01 5.389108e+01 3.677628e+01 5.758591e+01 2.905444e+01 2.658269e+02 2.368676e+00 2.592087e+00 2.485527e+00 3.129044e+00 2.833982e+00 2.830206e+00 2.646528e+00 2.741223e+00 2.630443e+00 2.383868e+00 2.569609e+00 1.958500e+00 5.067910e+00 4.577185e-01 4.174158e-01 3.940130e-01 5.025513e-01 5.073320e-01 4.797978e-01 4.820749e-01 5.089008e-01 4.798635e-01 4.736631e-01 4.608459e-01 3.767788e-01 8.556660e-01
<GCONST> 1.296701e+02
<STATE> 4
<MEAN> 39
 -4.222220e+00 7.311455e+00 5.274053e+00 -1.037707e+00 -2.807708e-01 -6.586056e-01 1.586203e-01 1.346087e-01 -1.053636e+00 -9.260198e-01 9.943850e-01 -5.180925e-01 3.606810e+01 -7.133336e-02 2.383137e-03 -4.706582e-02 4.466525e-02 7.800905e-02 2.696191e-02 -1.020254e-01 -5.967712e-02 3.623023e-02 8.545818e-04 3.067460e-02 3.503075e-02 -8.179375e-02 5.853081e-03 -3.222961e-02 1.649530e-02 -3.140724e-02 -1.594682e-02 -4.341859e-02 -9.926096e-03 -8.696061e-03 -4.092745e-02 -5.312752e-03 6.615730e-03 9.734689e-03 9.357269e-02
<VARIANCE> 39
 5.621860e+01 7.408064e+01 6.481821e+01 9.562053e+01 6.049548e+01 5.657086e+01 5.480392e+01 5.008425e+01 4.914367e+01 3.600889e+01 5.758591e+01 2.695450e+01 2.658269e+02 2.237194e+00 2.592087e+00 2.314184e+00 3.129044e+00 2.833982e+00 2.664105e+00 2.646528e+00 2.741223e+00 2.630443e+00 2.383868e+00 2.569609e+00 1.958500e+00 4.984552e+00 3.580279e-01 4.174158e-01 3.847587e-01 5.025513e-01 4.999610e-01 4.797978e-01 4.820749e-01 5.089008e-01 4.798635e-01 4.500161e-01 4.608459e-01 3.767788e-01 6.789643e-01
<GCONST> 1.279592e+02
<TRANSP> 5
 0.000000e+00 1.000000e+00 0.000000e+00 0.000000e+00 0.000000e+00
 0.000000e+00 5.691699e-01 4.308301e-01 0.000000e+00 0.000000e+00
 0.000000e+00 0.000000e+00 5.167779e-01 4.832221e-01 0.000000e+00
 0.000000e+00 0.000000e+00 0.000000e+00 9.054611e-01 9.453892e-02
 0.000000e+00 0.000000e+00 0.000000e+00 0.000000e+00 0.000000e+00
<ENDHMM>
~h "hh"
<BEGINHMM>
<NUMSTATES> 5
<STATE> 2
<MEAN> 39
 5.610627e-01 -8.629998e+00 1.522640e+00 -5.869558e+00 -2.248332e+00 -1.146120e+00 -1.836142e+00 2.306066e+00 -1.396042e+00 -3.293004e+00 -2.688910e+00 -7.340765e+00 6.648271e+01 -6.153152e-01 3.727908e-01 5.566015e-01 2.027509e-01 -1.212928e-01 -1.636597e-01 4.124978e-01 -2.519959e-02 -3.593759e-01 1.046097e-01 5.273602e-01 6.177309e-02 6.634747e-01 -2.506054e-01 3.079637e-01 -5.325412e-03 2.838957e-01 4.469053e-02 9.390446e-02 1.951444e-01 4.148874e-02 1.917549e-01 1.107414e-01 1.687732e-01 1.891774e-01 -1.240022e-01
<VARIANCE> 39
 5.621860e+01 7.408064e+01 6.481821e+01 9.562053e+01 2.815609e+02 5.657086e+01 5.480392e+01 5.008425e+01 4.914367e+01 3.600889e+01 5.758591e+01 3.740072e+01 2.658269e+02 4.214954e+00 5.305202e+00 2.391073e+00 3.129044e+00 1.018485e+01 2.664105e+00 4.099904e+00 3.922743e+00 2.630443e+00 2.383868e+00 3.856449e+00 2.612542e+00 4.984552e+00 3.580279e-01 4.174158e-01 3.847587e-01 5.025513e-01 1.117552e+00 4.797978e-01 4.820749e-01 5.089008e-01 4.798635e-01 4.500161e-01 6.772990e-01 3.767788e-01 6.789643e-01
<GCONST> 1.351657e+02
<STATE> 3
<MEAN> 39
 -1.210192e+01 2.128842e+00 -1.225413e+00 8.240879e-01 7.121047e+00 -7.942985e-01 3.879994e+00 -1.564026e-03 -2.804137e+00 -2.800174e-01 1.402812e+00 -1.153377e+00 6.139200e+01 2.889435e-01 -4.237154e-01 -5.129302e-01 -3.430041e-01 -8.827188e-02 3.200815e-01 -4.300225e-01 -2.161749e-01 -4.890667e-01 4.942584e-01 -2.230150e-01 6.328005e-01 1.983298e-01 5.090088e-01 1.709833e-02 1.451095e-01 -2.464553e-01 -4.948653e-01 -1.599902e-01 -3.263476e-01 -1.206163e-01 -1.667022e-01 -2.329520e-01 -5.077657e-02 2.116569e-02 -4.552240e-02
<VARIANCE> 39
 5.621860e+01 1.150877e+02 8.037506e+01 9.562053e+01 8.654709e+01 5.657086e+01 6.155936e+01 5.008425e+01 4.914367e+01 3.600889e+01 5.758591e+01 3.227625e+01 2.658269e+02 6.840458e+00 4.429607e+00 6.365079e+00 5.693429e+00 7.797762e+00 4.076313e+00 5.793242e+00 3.307686e+00 3.348972e+00 2.383868e+00 2.569609e+00 2.952826e+00 7.726720e+00 4.947980e-01 7.817926e-01 9.005230e-01 7.445561e-01 1.355399e+00 9.218832e-01 9.822685e-01 6.545743e-01 5.991280e-01 4.500161e-01 5.316105e-01 7.225428e-01 1.495493e+00
<GCONST> 1.426464e+02
<STATE> 4
<MEAN> 39
 6.599914e+00 4.845594e+00 -7.077584e-01 -1.419195e+01 5.978007e-01 7.540940e+00 -4.743537e+00 -2.031763e+00 -6.240901e+00 -1.380269e+00 1.698856e+00 4.706603e+00 5.934092e+01 -2.929211e-01 -1.283261e-02 -4.747158e-02 -9.003475e-02 2.470285e-01 -1.772551e-01 4.505097e-01 5.019682e-02 1.768949e-01 -1.905288e-01 -1.151579e-01 -8.710463e-02 -3.045584e-01 3.146523e-02 -8.424227e-02 -1.453742e-01 -4.584472e-02 3.417045e-03 -2.289249e-01 -4.429591e-02 -2.855322e-02 -3.001689e-02 -1.383143e-01 -2.005158e-01 -2.213642e-01 -2.295851e-02
<VARIANCE> 39
 1.245043e+02 9.288264e+01 6.481821e+01 9.562053e+01 1.400143e+02 5.657086e+01 6.017843e+01 5.008425e+01 4.914367e+01 3.600889e+01 5.758591e+01 2.695450e+01 2.658269e+02 3.821594e+00 2.879072e+00 2.314184e+00 3.129044e+00 5.758576e+00 3.104484e+00 2.798761e+00 2.741223e+00 2.630443e+00 2.665141e+00 2.569609e+00 1.958500e+00 4.984552e+00 7.327206e-01 5.589541e-01 3.847587e-01 5.025513e-01 9.562449e-01 6.213046e-01 6.000574e-01 5.089008e-01 5.180300e-01 4.500161e-01 4.608459e-01 3.767788e-01 6.789643e-01
<GCONST> 1.337937e+02
<TRANSP> 5
 0.000000e+00 1.000000e+00 0.000000e+00 0.000000e+00 0.000000e+00
 0.000000e+00 8.297098e-01 1.702903e-01 0.000000e+00 0.000000e+00
 0.000000e+00 0.000000e+00 8.176559e-01 1.823441e-01 0.000000e+00
 0.000000e+00 0.000000e+00 0.000000e+00 8.471147e-01 1.528854e-01
 0.000000e+00 0.000000e+00 0.000000e+00 0.000000e+00 0.000000e+00
<ENDHMM>
~h "ih"
<BEGINHMM>
<NUMSTATES> 5
<STATE> 2
<MEAN> 39
 -3.902412e+00 3.156056e+00 1.375036e+01 -1.049409e+01 -8.592269e+00 -8.309049e+00 -6.123526e+00 -9.129416e+00 -6.741444e+00 -1.107615e+00 -8.455606e+00 -1.484709e+00 6.080905e+01 5.293307e-01 -5.097498e-01 5.452358e-01 -2.991832e-01 -3.537927e-01 -2.916048e-01 -3.552109e-01 1.529253e-01 -1.502597e-01 1.476726e-01 -2.615867e-02 1.316234e-01 3.024222e-01 -7.316524e-02 -4.876695e-02 -1.541450e-01 -8.330608e-02 8.591732e-02 8.761176e-02 6.421795e-02 1.344096e-01 9.585668e-02 6.408425e-02 -3.703673e-02 3.664154e-02 -1.386567e-01
<VARIANCE> 39
 5.621860e+01 7.408064e+01 9.076395e+01 1.146236e+02 6.049548e+01 7.395076e+01 5.480392e+01 9.024483e+01 6.342268e+01 4.043490e+01 8.911466e+01 3.341854e+01 2.658269e+02 4.988363e+00 6.157218e+00 8.388411e+00 1.242059e+01 7.158571e+00 6.139717e+00 5.923761e+00 6.236760e+00 4.710654e+00 4.828704e+00 7.996359e+00 3.242697e+00 1.758048e+01 7.719241e-01 1.082047e+00 1.126433e+00 1.806268e+00 1.110866e+00 1.003197e+00 1.035713e+00 1.012974e+00 7.498586e-01 8.904716e-01 1.190635e+00 6.418349e-01 2.367490e+00
<GCONST> 1.531908e+02
<STATE> 3
<MEAN> 39
 -4.508162e-01 6.238314e-01 1.513189e+01 -5.494601e+00 -1.097850e+01 -6.341132e+00 -5.266269e+00 -1.204579e+00 -8.468952e+00 9.737024e-01 -2.467067e+00 -3.068186e+00 5.849504e+01 5.012844e-02 2.293107e-01 -6.770937e-01 2.082919e-01 7.135181e-01 2.813489e-02 2.343680e-01 1.284239e-01 6.257054e-01 8.086380e-02 -2.145843e-01 2.627246e-01 -1.507006e+00 -1.579016e-01 8.055379e-02 -2.470539e-01 3.894479e-02 1.960332e-01 5.578320e-02 9.553010e-02 -1.370515e-01 1.519030e-01 -6.396289e-02 -5.971478e-02 9.791681e-03 -3.468819e-02
<VARIANCE> 39
 5.621860e+01 7.408064e+01 8.416529e+01 9.562053e+01 6.324131e+01 6.575637e+01 5.480392e+01 7.660134e+01 5.555807e+01 4.088839e+01 6.901919e+01 3.316584e+01 2.658269e+02 2.715622e+00 3.199217e+00 3.640392e+00 3.769310e+00 4.454427e+00 3.792826e+00 3.173824e+00 3.673041e+00 3.264550e+00 2.578645e+00 3.140570e+00 2.258823e+00 1.195972e+01 5.511729e-01 5.595078e-01 6.162345e-01 9.340737e-01 9.248989e-01 7.765875e-01 6.904236e-01 7.473199e-01 6.071598e-01 6.390787e-01 7.569230e-01 4.917552e-01 1.835853e+00
<GCONST> 1.393134e+02
<STATE> 4
<MEAN> 39
 4.374092e-01 3.366864e-02 1.382156e+01 -1.589832e+01 -6.429486e+00 -9.015974e+00 -7.415864e+00 -6.885706e+00 -7.443039e+00 -3.609428e-01 -1.271226e+01 1.026121e+00 6.306622e+01 -1.440240e-02 3.711117e-01 -3.632745e-01 6.979000e-01 4.623492e-01 5.471409e-01 3.116389e-01 9.429927e-02 4.433872e-01 -3.942612e-01 3.795778e-01 1.221022e-02 -1.055462e+00 -1.236154e-01 4.965638e-02 -3.308526e-02 1.545540e-01 8.848432e-03 5.422756e-02 5.107396e-02 1.557749e-02 2.198699e-02 -1.180403e-02 1.763306e-01 -3.165882e-02 -7.134017e-02
<VARIANCE> 39
 5.621860e+01 7.685156e+01 9.742657e+01 1.076741e+02 6.433778e+01 6.745416e+01 5.480392e+01 8.971729e+01 5.665158e+01 6.330114e+01 5.773809e+01 3.457468e+01 2.658269e+02 2.237194e+00 2.592087e+00 2.314184e+00 3.182109e+00 2.833982e+00 2.664105e+00 2.646528e+00 2.751530e+00 2.630443e+00 2.641341e+00 2.950397e+00 1.958500e+00 4.984552e+00 3.580279e-01 4.174158e-01 3.847587e-01 5.284987e-01 4.999610e-01 4.797978e-01 4.820749e-01 5.089008e-01 4.798635e-01 4.533149e-01 5.239608e-01 3.767788e-01 6.789643e-01
<GCONST> 1.307479e+02
<TRANSP> 5
 0.000000e+00 1.000000e+00 0.000000e+00 0.000000e+00 0.000000e+00
 0.000000e+00 8.099398e-01 1.900602e-01 0.000000e+00 0.000000e+00
 0.000000e+00 0.000000e+00 6.239470e-01 3.760530e-01 0.000000e+00
 0.000000e+00 0.000000e+00 0.000000e+00 8.254760e-01 1.745240e-01
