~o
<STREAMINFO> 1 39
<VECSIZE> 39<NULLD><MFCC_D_A_0><DIAGC>
~s "silst"
<MEAN> 39
 -8.302152e-01 8.553626e+00 3.963856e+00 -2.574099e-01 1.105153e+00 4.097404e-01 7.015430e-01 8.831801e-01 4.272212e-01 -1.262256e+00 -8.789401e-02 -7.117442e-01 3.786789e+01 -8.000457e-02 6.391358e-02 -5.211138e-02 7.799849e-02 1.796177e-02 9.455871e-03 3.717667e-03 7.978640e-03 2.725845e-02 3.015797e-02 5.896078e-02 -2.425870e-02 -1.581651e-01 -3.432462e-03 -2.497253e-02 1.719760e-02 -2.934003e-02 -6.285810e-03 -2.698604e-02 -2.950684e-02 -2.287272e-02 -4.350446e-02 -1.338034e-02 -2.726096e-02 -1.446310e-02 7.817621e-02
<VARIANCE> 39
 5.621860e+01 7.408064e+01 6.481821e+01 9.562053e+01 6.049548e+01 5.657086e+01 5.480392e+01 5.008425e+01 4.914367e+01 3.600889e+01 5.758591e+01 2.695450e+01 2.658269e+02 2.237194e+00 2.592087e+00 2.314184e+00 3.129044e+00 2.833982e+00 2.664105e+00 2.646528e+00 2.741223e+00 2.630443e+00 2.383868e+00 2.569609e+00 1.958500e+00 4.984552e+00 3.580279e-01 4.174158e-01 3.847587e-01 5.025513e-01 4.999610e-01 4.797978e-01 4.820749e-01 5.089008e-01 4.798635e-01 4.500161e-01 4.608459e-01 3.767788e-01 6.789643e-01
<GCONST> 1.279592e+02
~h "b"
<BEGINHMM>
<NUMSTATES> 5
<STATE> 2
<MEAN> 39
 4.713666e+00 1.099839e+01 9.527893e+00 3.060791e+00 1.567482e+00 -2.512921e-01 -6.825063e+00 -8.990599e+00 -8.446305e+00 -3.269911e+00 -5.465502e+00 -8.726920e+00 4.046445e+01 1.423206e+00 2.592154e-01 1.933345e-01 1.110206e-01 7.641467e-02 -1.697676e-01 -8.974854e-01 -9.278865e-01 -9.849600e-01 -6.848247e-01 -5.237606e-01 -6.453353e-01 1.755507e+00 -2.250146e-01 -4.899909e-01 -3.091372e-01 -3.468192e-01 -1.165291e-01 -1.688277e-01 7.890282e-02 3.541284e-01 4.395910e-01 3.002537e-01 3.099542e-01 3.974808e-01 6.438373e-01
<VARIANCE> 39
 5.621860e+01 7.408064e+01 6.481821e+01 9.562053e+01 6.049548e+01 5.657086e+01 5.480392e+01 5.008425e+01 4.914367e+01 4.617648e+01 5.758591e+01 2.743757e+01 2.658269e+02 4.010551e+00 3.577110e+00 2.314184e+00 3.129044e+00 2.833982e+00 2.664105e+00 3.453053e+00 4.070823e+00 5.064246e+00 4.203483e+00 3.751955e+00 3.596992e+00 4.984552e+00 7.936576e-01 4.883628e-01 3.847587e-01 5.784592e-01 4.999610e-01 5.222431e-01 6.161427e-01 6.993830e-01 7.777150e-01 8.562355e-01 6.617890e-01 5.826651e-01 8.810200e-01
<GCONST> 1.359279e+02
<STATE> 3
<MEAN> 39
 7.797388e+00 8.711702e-01 5.888885e+00 -2.013844e+00 -3.522071e+00 -5.861146e+00 -1.134443e+01 -8.181793e+00 -2.413341e+00 1.696837e-01 -3.901138e+00 -4.816382e+00 6.281001e+01 -1.083773e-01 -1.886229e+00 -9.268527e-01 -2.438565e+00 -9.839544e-01 -8.729272e-01 -6.175150e-01 1.031193e+00 1.232162e+00 9.506143e-01 2.162045e-01 6.404213e-01 3.496096e+00 -8.511035e-02 6.161358e-02 -4.463574e-02 -3.656915e-01 9.489243e-02 2.031375e-01 8.634001e-02 1.872334e-01 -1.120936e-01 -7.157359e-02 -1.973489e-01 -1.643243e-01 -4.074776e-01
<VARIANCE> 39
 5.621860e+01 7.408064e+01 6.481821e+01 9.562053e+01 7.068109e+01 6.954684e+01 6.152576e+01 5.944057e+01 7.621880e+01 6.056752e+01 5.758591e+01 3.976328e+01 2.658269e+02 2.623686e+00 4.274136e+00 3.481642e+00 7.468491e+00 6.244870e+00 6.198935e+00 5.397166e+00 7.408844e+00 5.715053e+00 5.453022e+00 6.021230e+00 5.302807e+00 8.091667e+00 5.664715e-01 7.742194e-01 5.617350e-01 9.375376e-01 1.120925e+00 9.862501e-01 1.012541e+00 1.409685e+00 1.284143e+00 1.104708e+00 1.082980e+00 8.165012e-01 1.248623e+00
<GCONST> 1.486577e+02
<STATE> 4
<MEAN> 39
 3.643250e+00 -1.005682e+01 -1.691588e+00 -2.349116e+01 6.334893e-01 -6.291771e+00 -1.143228e+01 5.753823e-01 -3.462932e+00 -1.986979e+00 -1.307551e+01 -4.595152e+00 7.492990e+01 -1.579491e-01 -5.740605e-01 -4.260677e-01 -9.879194e-01 7.154340e-01 6.196818e-01 5.624015e-01 2.276848e-01 -3.283007e-01 -1.522349e-01 -2.517125e-01 -1.567313e-01 2.836314e-01 5.594977e-02 1.953116e-01 1.306012e-01 3.402346e-01 -3.253818e-02 7.771723e-03 5.552521e-02 -2.184328e-01 -6.122526e-02 6.042054e-02 1.981660e-01 3.274226e-02 -2.467391e-01
<VARIANCE> 39
 5.621860e+01 7.408064e+01 6.481821e+01 1.015610e+02 7.743610e+01 1.015873e+02 5.480392e+01 5.076708e+01 4.914367e+01 6.225024e+01 7.964717e+01 5.636000e+01 2.658269e+02 2.237194e+00 2.592087e+00 2.314184e+00 3.365714e+00 2.833982e+00 2.664105e+00 2.646528e+00 3.079176e+00 2.630443e+00 2.561133e+00 3.212021e+00 2.086893e+00 4.984552e+00 3.580279e-01 4.174158e-01 3.847587e-01 5.025513e-01 4.999610e-01 4.797978e-01 4.820749e-01 5.089008e-01 4.798635e-01 4.500161e-01 4.608459e-01 3.767788e-01 6.789643e-01
<GCONST> 1.310222e+02
<TRANSP> 5
 0.000000e+00 1.000000e+00 0.000000e+00 0.000000e+00 0.000000e+00
 0.000000e+00 8.234527e-01 1.765473e-01 0.000000e+00 0.000000e+00
 0.000000e+00 0.000000e+00 8.177914e-01 1.822086e-01 0.000000e+00
 0.000000e+00 0.000000e+00 0.000000e+00 8.585438e-01 1.414562e-01
 0.000000e+00 0.000000e+00 0.000000e+00 0.000000e+00 0.000000e+00
<ENDHMM>
~h "d"
<BEGINHMM>
<NUMSTATES> 5
<STATE> 2
<MEAN> 39
 -2.905926e+00 7.304188e-01 7.598077e+00 -6.719216e+00 -2.645927e+00 -4.851923e+00 -2.114886e+00 -2.465691e+00 -5.746260e+00 -3.836444e+00 -6.420861e+00 -2.945951e+00 5.288745e+01 2.708837e-01 -1.222345e+00 9.996074e-01 -1.376796e+00 -8.114083e-01 -6.915311e-01 -2.905016e-01 -5.251339e-01 -1.089390e+00 1.033538e-01 -7.293068e-01 -1.166323e-01 3.150434e+00 -1.023428e-02 -4.046265e-02 7.647698e-02 -1.743255e-01 -1.694892e-01 -8.657160e-02 -7.049288e-02 3.075800e-03 -4.687651e-02 1.539745e-01 -6.300618e-02 9.051466e-02 1.154796e-01
<VARIANCE> 39
 5.702565e+01 1.101719e+02 6.481821e+01 9.562053e+01 6.852722e+01 5.657086e+01 5.652131e+01 9.089721e+01 6.830577e+01 4.506678e+01 5.758591e+01 4.049865e+01 2.658269e+02 5.578220e+00 8.060680e+00 4.542822e+00 6.734710e+00 5.863335e+00 4.423072e+00 4.676449e+00 6.559994e+00 5.375743e+00 5.544962e+00 4.798532e+00 4.030727e+00 1.840660e+01 9.352809e-01 1.290154e+00 8.078567e-01 1.044167e+00 9.453260e-01 7.240178e-01 7.901663e-01 1.100229e+00 9.389915e-01 8.457609e-01 7.973932e-01 6.370202e-01 3.038702e+00
<GCONST> 1.502090e+02
<STATE> 3
<MEAN> 39
 4.185445e+00 -6.414063e+00 1.205891e+01 -8.990529e+00 -1.190193e+01 -3.990616e+00 -6.059951e+00 2.764354e-01 -6.823739e+00 2.159105e-02 -8.825794e+00 -4.369829e+00 6.733500e+01 -6.577452e-02 4.686961e-01 3.845046e-01 -7.677652e-02 -2.288661e-01 -6.353089e-02 -4.645912e-01 -4.526692e-01 -7.154053e-02 2.653807e-01 -7.805888e-03 1.170383e-02 -1.447884e-02 -9.189788e-02 1.780803e-01 -1.201475e-01 1.355767e-01 2.950870e-01 2.794315e-03 6.096180e-02 5.550642e-02 9.430440e-02 -1.570235e-01 5.807866e-02 1.259035e-02 -2.878589e-01
<VARIANCE> 39
 5.621860e+01 7.408064e+01 6.481821e+01 9.562053e+01 7.026004e+01 5.657086e+01 5.529479e+01 6.855604e+01 4.914367e+01 5.564417e+01 5.758591e+01 4.183406e+01 2.658269e+02 2.237194e+00 2.592087e+00 2.569614e+00 3.129044e+00 2.833982e+00 2.664105e+00 2.646528e+00 2.745991e+00 2.630443e+00 2.417123e+00 2.569609e+00 1.958500e+00 4.984552e+00 3.580279e-01 4.174158e-01 3.847587e-01 5.025513e-01 4.999610e-01 4.797978e-01 4.820749e-01 5.089008e-01 4.798635e-01 4.500161e-01 4.608459e-01 3.767788e-01 6.789643e-01
<GCONST> 1.294268e+02
<STATE> 4
<MEAN> 39
 -3.851967e+00 -3.468736e+00 1.315145e+01 -2.203939e+01 -8.198084e+00 -1.617059e+01 -7.212584e+00 -9.117562e+00 -1.356696e+01 -3.778817e+00 -1.709791e+01 1.614948e-01 6.990961e+01 1.012820e-01 4.713026e-01 1.017852e-01 4.337657e-01 6.116926e-02 2.681269e-02 -1.224471e-01 1.160510e-02 1.052477e-01 -5.019033e-02 7.551503e-02 -1.772604e-03 -5.982904e-01 1.116965e-02 5.934352e-02 -7.725900e-02 1.856438e-01 6.696279e-02 1.174489e-01 8.268589e-02 8.561284e-02 7.349718e-02 -2.706557e-02 1.301885e-01 -2.667159e-02 -1.647758e-01
<VARIANCE> 39
 5.621860e+01 9.730138e+01 7.135208e+01 9.562053e+01 6.104669e+01 6.687950e+01 8.025948e+01 5.526210e+01 5.424713e+01 7.472015e+01 5.874776e+01 3.224766e+01 2.658269e+02 2.237194e+00 2.592087e+00 2.314184e+00 3.129044e+00 2.833982e+00 2.690167e+00 2.646528e+00 2.741223e+00 2.630443e+00 2.580885e+00 2.712777e+00 1.958500e+00 4.984552e+00 3.580279e-01 4.174158e-01 3.847587e-01 5.025513e-01 4.999610e-01 4.797978e-01 4.820749e-01 5.089008e-01 4.798635e-01 4.547918e-01 4.608459e-01 3.767788e-01 6.789643e-01
<GCONST> 1.301663e+02
<TRANSP> 5
 0.000000e+00 1.000000e+00 0.000000e+00 0.000000e+00 0.000000e+00
 0.000000e+00 7.210234e-01 2.789766e-01 0.000000e+00 0.000000e+00
 0.000000e+00 0.000000e+00 7.670713e-01 2.329287e-01 0.000000e+00
 0.000000e+00 0.000000e+00 0.000000e+00 8.899063e-01 1.100938e-01
 0.000000e+00 0.000000e+00 0.000000e+00 0.000000e+00 0.000000e+00
<ENDHMM>
~h "f"
<BEGINHMM>
<NUMSTATES> 5
<STATE> 2
<MEAN> 39
 8.767642e+00 2.464929e-01 1.844794e+00 -1.060231e+01 -5.140148e+00 9.223151e-01 -1.406269e+01 -3.662682e+00 -5.506468e+00 -2.776535e-01 7.042102e+00 -6.400475e+00 6.767421e+01 4.660102e-01 -2.081591e-01 -2.015962e-02 -9.546289e-01 2.542880e-01 -3.421181e-01 -1.114853e+00 -1.558232e-01 -2.046833e-01 7.180859e-01 -9.635983e-02 -2.201387e-01 1.535276e-01 -4.645717e-01 7.501301e-02 5.855772e-02 4.500546e-01 2.211070e-01 -2.137648e-01 2.492660e-01 1.563279e-01 3.607522e-01 4.522226e-02 -2.294217e-01 9.321359e-02 -2.730732e-01
<VARIANCE> 39
 5.621860e+01 7.408064e+01 6.481821e+01 1.570804e+02 6.049548e+01 6.357956e+01 6.508986e+01 6.316879e+01 1.467058e+02 5.375827e+01 7.624251e+01 4.268864e+01 2.658269e+02 3.713695e+00 2.592087e+00 2.314184e+00 1.296292e+01 3.064333e+00 4.601896e+00 8.251641e+00 4.508418e+00 4.956212e+00 3.736649e+00 5.122525e+00 3.179846e+00 4.984552e+00 4.357072e-01 4.174158e-01 3.847587e-01 1.435286e+00 5.357127e-01 6.705674e-01 1.136122e+00 7.062663e-01 7.805284e-01 7.179121e-01 6.363915e-01 6.537342e-01 6.789643e-01
<GCONST> 1.423184e+02
<STATE> 3
<MEAN> 39
 2.282194e+00 -6.938845e-01 -1.331303e+00 -2.106638e+01 3.629574e+00 -8.865305e+00 -1.782768e+01 -4.519676e+00 -4.482174e+00 3.690662e+00 -7.242460e+00 -2.288281e+00 6.984160e+01 -6.522711e-01 9.050012e-01 5.575143e-01 1.957406e+00 4.635529e-01 -1.277401e+00 4.500061e-01 3.202844e-01 1.525068e+00 -5.991926e-01 -5.511340e-01 1.729807e-01 -1.285652e+00 -2.072553e-02 5.246750e-01 2.493991e-01 7.854185e-01 -1.684150e-01 4.766898e-01 7.379025e-01 6.203594e-02 -5.225502e-02 -3.308929e-01 4.469785e-01 -2.212127e-02 -1.171522e+00
<VARIANCE> 39
 5.621860e+01 7.408064e+01 6.481821e+01 1.725477e+02 6.049548e+01 5.657086e+01 8.855778e+01 5.008425e+01 4.914367e+01 3.600889e+01 5.758591e+01 3.157136e+01 2.658269e+02 2.237194e+00 3.471520e+00 2.314184e+00 5.209063e+00 2.833982e+00 4.097242e+00 5.407365e+00 2.741223e+00 3.052361e+00 2.625829e+00 2.653583e+00 3.960761e+00 6.201648e+00 3.580279e-01 4.509503e-01 3.847587e-01 9.894481e-01 4.999610e-01 7.744035e-01 7.217916e-01 5.089008e-01 6.850721e-01 5.125653e-01 4.608459e-01 5.060699e-01 1.238860e+00
<GCONST> 1.353542e+02
<STATE> 4
<MEAN> 39
 2.798372e-01 7.820462e+00 3.290090e+00 -3.541022e+00 5.534392e+00 -5.866354e+00 -8.448186e+00 -2.675004e+00 -9.317335e-01 4.211757e-01 -2.501929e+00 -2.429609e+00 5.290199e+01 -4.995717e-01 7.532672e-01 3.587165e-01 1.459118e+00 -2.760967e-01 1.046470e+00 1.301059e+00 4.889448e-01 7.810907e-01 4.041490e-01 7.252192e-01 3.407299e-01 -5.041018e+00 9.133169e-02 -5.850475e-01 -4.092921e-01 -8.598669e-01 -6.654626e-01 1.965826e-01 -4.883248e-01 -7.861387e-02 1.694903e-02 3.065842e-01 3.056652e-01 -3.889684e-02 1.595932e-01
<VARIANCE> 39
 5.621860e+01 7.408064e+01 6.481821e+01 9.562053e+01 6.049548e+01 6.427689e+01 6.944227e+01 5.008425e+01 4.914367e+01 3.600889e+01 5.758591e+01 2.695450e+01 2.658269e+02 2.677888e+00 5.022584e+00 2.726834e+00 7.950995e+00 4.540250e+00 2.685390e+00 3.974170e+00 2.741223e+00 4.122484e+00 2.558007e+00 3.274038e+00 4.969951e+00 1.547941e+01 6.972765e-01 6.274937e-01 5.383780e-01 1.179940e+00 8.716950e-01 9.311323e-01 5.265900e-01 6.105956e-01 6.906533e-01 6.207668e-01 4.765972e-01 8.166510e-01 1.915430e+00
<GCONST> 1.402572e+02
<TRANSP> 5
 0.000000e+00 1.000000e+00 0.000000e+00 0.000000e+00 0.000000e+00
 0.000000e+00 8.288801e-01 1.711199e-01 0.000000e+00 0.000000e+00
 0.000000e+00 0.000000e+00 6.041455e-01 3.958545e-01 0.000000e+00
 0.000000e+00 0.000000e+00 0.000000e+00 5.895718e-01 4.104282e-01
 0.000000e+00 0.000000e+00 0.000000e+00 0.000000e+00 0.000000e+00
<ENDHMM>
~h "g"
<BEGINHMM>
<NUMSTATES> 5
<STATE> 2
<MEAN> 39
 -2.944551e+00 3.344987e+00 3.047112e+00 -4.156114e+00 -6.991168e+00 -7.234542e+00 -2.046025e+00 4.711578e-01 7.284627e-01 -7.742931e-01 -2.311625e+00 2.804029e-01 4.374353e+01 -1.158156e+00 5.308582e-01 -6.003919e-01 5.879513e-01 8.110121e-01 1.068213e+00 7.880866e-02 4.977515e-02 3.893237e-01 1.554159e-01 8.206717e-01 -1.073704e-02 -2.174277e+00 -7.050602e-02 -4.228940e-01 3.134334e-02 -1.824368e-01 1.333283e-01 9.054584e-03 -3.920087e-02 -3.556579e-02 -2.844921e-01 -1.205461e-01 -1.691414e-01 -1.619237e-01 9.602561e-01
<VARIANCE> 39
 5.621860e+01 7.408064e+01 6.481821e+01 9.562053e+01 6.049548e+01 5.657086e+01 5.480392e+01 5.008425e+01 4.914367e+01 3.600889e+01 5.758591e+01 2.736975e+01 2.658269e+02 2.663704e+00 5.241464e+00 4.246675e+00 4.985892e+00 6.009713e+00 4.662887e+00 2.785136e+00 2.943338e+00 4.397134e+00 3.588014e+00 3.455405e+00 2.813301e+00 2.376248e+01 5.164006e-01 9.322468e-01 9.079605e-01 1.129547e+00 1.201188e+00 8.962896e-01 6.282600e-01 6.120797e-01 8.049197e-01 8.061896e-01 6.269297e-01 6.049751e-01 2.937554e+00
<GCONST> 1.426381e+02
<STATE> 3
<MEAN> 39
 -1.011032e+01 1.013869e+00 2.753740e+00 1.642105e-01 3.049055e+00 -2.439938e+00 -4.005454e+00 -6.195667e-01 -1.907631e+00 -2.765596e+00 -2.044445e+00 -3.157976e+00 4.992118e+01 1.655005e+00 5.535895e-01 1.360424e+00 1.572669e+00 2.906383e-01 9.493146e-03 -1.530561e+00 -1.462150e+00 -1.394908e+00 -1.147048e+00 -1.670391e+00 -1.580475e+00 1.186898e+00 1.155603e+00 5.238724e-01 3.739991e-01 -5.905972e-02 -9.968708e-01 -3.153444e-01 -2.426181e-01 -5.145416e-01 -6.915584e-02 8.525335e-02 -3.354249e-01 -9.340209e-02 -7.210276e-01
<VARIANCE> 39
 5.621860e+01 7.408064e+01 6.481821e+01 9.562053e+01 6.174495e+01 5.657086e+01 6.398696e+01 5.527875e+01 4.914367e+01 3.600889e+01 5.758591e+01 2.713818e+01 2.658269e+02 1.026652e+01 9.761613e+00 8.237812e+00 5.123145e+00 1.171982e+01 7.729522e+00 7.311826e+00 7.602276e+00 4.240525e+00 4.776018e+00 3.867579e+00 3.311368e+00 1.951663e+01 1.193484e+00 1.513947e+00 1.953776e+00 1.259516e+00 1.851319e+00 1.655786e+00 1.448632e+00 1.399278e+00 8.759837e-01 9.862189e-01 8.022870e-01 5.871186e-01 3.490052e+00
<GCONST> 1.545621e+02
<STATE> 4
<MEAN> 39
 4.705261e+00 4.643487e+00 6.869946e+00 2.416370e+00 -3.446947e+00 -3.087015e+00 -9.996671e+00 -9.339713e+00 -6.479868e+00 -4.398730e+00 -7.857409e+00 -8.705055e+00 5.179302e+01 1.028842e+00 -1.302521e+00 -6.204065e-01 -2.758754e-02 -4.365924e-01 1.042196e-01 -5.140644e-01 -4.537278e-01 -5.175168e-02 5.093761e-01 3.312004e-01 9.485107e-02 2.078693e+00 -4.491501e-01 -3.012698e-01 -2.729400e-01 -1.487604e-01 9.999889e-02 -8.811103e-03 1.214308e-01 2.818503e-01 2.637919e-01 1.621899e-01 3.995492e-01 2.988134e-01 3.170551e-01
<VARIANCE> 39
 5.621860e+01 1.049062e+02 6.481821e+01 9.562053e+01 7.873067e+01 9.127468e+01 5.480392e+01 5.140234e+01 4.914367e+01 5.054164e+01 9.633131e+01 2.736539e+01 2.658269e+02 5.500233e+00 1.168556e+01 9.291641e+00 3.129044e+00 1.181985e+01 1.093926e+01 4.166653e+00 7.578290e+00 5.414855e+00 3.843464e+00 6.442752e+00 3.807940e+00 1.019270e+01 6.640350e-01 2.288263e+00 1.887212e+00 5.913795e-01 2.135992e+00 2.246549e+00 9.196988e-01 1.250083e+00 1.075087e+00 8.016201e-01 9.418036e-01 6.417105e-01 1.690884e+00
<GCONST> 1.537061e+02
<TRANSP> 5
 0.000000e+00 1.000000e+00 0.000000e+00 0.000000e+00 0.000000e+00
 0.000000e+00 8.620782e-01 1.379218e-01 0.000000e+00 0.000000e+00
 0.000000e+00 0.000000e+00 7.202576e-01 2.797424e-01 0.000000e+00
 0.000000e+00 0.000000e+00 0.000000e+00 8.541005e-01 1.458994e-01
 0.000000e+00 0.000000e+00 0.000000e+00 0.000000e+00 0.000000e+00
<ENDHMM>
~h "k"
<BEGINHMM>
<NUMSTATES> 5
<STATE> 2
<MEAN> 39
 -6.269856e+00 1.335327e+00 2.932958e+00 -1.601233e+00 2.582026e+00 -3.878490e+00 -2.916297e+00 6.357253e-01 -6.830677e-01 -6.265771e-01 -2.483666e+00 -1.502305e+00 4.949589e+01 -3.498095e-01 -3.234736e-01 -2.480192e-01 1.049074e-01 3.443248e-01 5.609839e-02 4.316743e-02 2.432411e-01 2.330594e-01 1.319755e-01 2.134606e-01 4.228989e-02 2.910185e-01 2.012052e-01 1.443448e-01 1.993766e-02 -1.474261e-01 -2.898897e-01 6.437170e-02 9.377962e-02 -4.729074e-02 -1.353212e-02 4.228718e-02 7.056781e-02 1.248217e-02 -3.717472e-02
<VARIANCE> 39
 6.253295e+01 7.408064e+01 6.481821e+01 9.562053e+01 7.663647e+01 6.246170e+01 5.710825e+01 5.008425e+01 4.914367e+01 5.333797e+01 5.758591e+01 3.277811e+01 2.658269e+02 6.756272e+00 7.002419e+00 6.185106e+00 5.333619e+00 7.469541e+00 5.437356e+00 5.616808e+00 4.668341e+00 4.566359e+00 4.049800e+00 4.850837e+00 3.206248e+00 1.878275e+01 1.088719e+00 1.390543e+00 1.161436e+00 9.723909e-01 1.343732e+00 1.029755e+00 1.039618e+00 8.928794e-01 8.325167e-01 7.986517e-01 8.595070e-01 6.442397e-01 3.094366e+00
<GCONST> 1.501148e+02
<STATE> 3
<MEAN> 39
 -5.546558e+00 3.345199e+00 4.159913e+00 -1.158288e+00 5.175405e+00 -5.847228e-01 1.871375e+00 9.110130e-01 2.106157e+00 -3.118634e-02 1.613736e-01 -3.855261e-01 4.670433e+01 5.104463e-01 8.677554e-01 5.775155e-02 -4.400788e-02 -9.434447e-01 3.940362e-01 5.634108e-01 -2.391504e-01 -1.508058e-01 -1.656438e-02 8.062170e-01 7.975767e-02 -1.415624e+00 2.113067e-01 -3.817047e-02 -3.057521e-03 -1.230149e-01 -2.804869e-01 -1.771130e-01 -3.124516e-01 -1.459451e-01 -3.548754e-01 -1.996330e-01 -2.834400e-01 -9.899917e-02 8.352563e-02
<VARIANCE> 39
 5.621860e+01 7.408064e+01 6.481821e+01 9.562053e+01 7.477822e+01 5.657086e+01 5.480392e+01 5.008425e+01 4.914367e+01 4.262381e+01 5.758591e+01 2.700172e+01 2.658269e+02 3.453087e+00 2.592087e+00 3.504797e+00 3.129044e+00 3.984919e+00 2.664105e+00 3.891672e+00 3.438462e+00 3.714280e+00 3.042187e+00 3.732527e+00 2.929179e+00 4.984552e+00 4.350587e-01 4.497931e-01 5.927672e-01 5.025513e-01 7.779859e-01 5.088511e-01 6.198864e-01 5.441107e-01 6.212317e-01 5.144298e-01 6.391557e-01 5.822141e-01 6.789643e-01
<GCONST> 1.341838e+02
<STATE> 4
<MEAN> 39
 -6.212949e+00 5.122016e+00 1.281416e+00 -1.214093e+00 -8.409819e-02 -1.797339e+00 -4.930320e-01 4.088626e-01 -1.438365e-01 -1.288674e+00 4.788347e-01 -1.147425e+00 3.656177e+01 6.600276e-02 -6.532561e-03 1.189036e-02 2.182099e-03 -3.794292e-02 1.846961e-02 -3.203308e-02 -1.221285e-02 -2.496848e-02 -1.290845e-02 -9.652999e-03 -1.082665e-02 -5.566248e-02 1.404446e-02 -5.727852e-02 -1.084007e-02 -1.275774e-02 6.702431e-02 1.011057e-03 -1.942701e-02 1.304889e-02 -1.494820e-02 1.616072e-02 -3.009488e-02 -1.007831e-02 1.364850e-01
<VARIANCE> 39
 5.621860e+01 7.408064e+01 6.481821e+01 9.562053e+01 6.049548e+01 5.657086e+01 5.480392e+01 5.008425e+01 4.914367e+01 3.600889e+01 5.758591e+01 2.695450e+01 2.658269e+02 2.237194e+00 2.592087e+00 2.314184e+00 3.129044e+00 2.833982e+00 2.664105e+00 2.646528e+00 2.741223e+00 2.630443e+00 2.383868e+00 2.569609e+00 1.958500e+00 4.984552e+00 3.580279e-01 4.174158e-01 3.847587e-01 5.025513e-01 4.999610e-01 4.797978e-01 4.820749e-01 5.089008e-01 4.798635e-01 4.500161e-01 4.608459e-01 3.767788e-01 6.789643e-01
<GCONST> 1.279592e+02
<TRANSP> 5
 0.000000e+00 1.000000e+00 0.000000e+00 0.000000e+00 0.000000e+00
 0.000000e+00 7.934494e-01 2.065506e-01 0.000000e+00 0.000000e+00
 0.000000e+00 0.000000e+00 4.781940e-01 5.218059e-01 0.000000e+00
 0.000000e+00 0.000000e+00 0.000000e+00 9.350072e-01 6.499283e-02
 0.000000e+00 0.000000e+00 0.000000e+00 0.000000e+00 0.000000e+00
<ENDHMM>
~h "l"
<BEGINHMM>
<NUMSTATES> 5
<STATE> 2
<MEAN> 39
 4.953190e+00 -1.103435e+00 1.416215e+00 -1.934130e+01 -5.020231e-01 -3.001631e+00 -1.052673e+01 -5.434743e+00 -3.460874e+00 -1.925328e+00 -5.790154e+00 -4.395780e+00 6.374981e+01 -1.960459e-01 7.895086e-01 1.881433e-01 1.146302e+00 2.375589e-01 3.513856e-01 2.616588e-01 -4.763588e-02 -1.744559e-01 -2.252420e-01 4.338684e-01 -3.467454e-01 -1.036987e+00 -1.501346e-01 9.923559e-02 -3.537869e-03 3.419408e-01 1.522306e-02 3.071550e-02 2.138414e-01 5.264095e-02 -7.840562e-02 1.352320e-01 7.082613e-02 6.030529e-02 -1.592957e-01
<VARIANCE> 39
 5.621860e+01 7.408064e+01 9.538537e+01 1.138901e+02 6.049548e+01 8.308356e+01 8.083846e+01 7.254662e+01 9.630942e+01 6.765157e+01 5.758591e+01 7.111245e+01 2.658269e+02 2.237194e+00 2.592087e+00 3.068800e+00 6.278830e+00 2.833982e+00 2.887444e+00 3.018208e+00 3.672490e+00 3.445060e+00 3.504002e+00 2.853600e+00 2.858192e+00 4.984552e+00 3.580279e-01 4.174158e-01 4.784036e-01 5.514070e-01 4.999610e-01 4.797978e-01 5.964895e-01 5.713265e-01 5.935825e-01 6.011512e-01 4.650839e-01 5.193018e-01 6.789643e-01
<GCONST> 1.360299e+02
<STATE> 3
<MEAN> 39
 4.787020e+00 1.149870e+00 4.131012e+00 -1.260316e+01 6.040089e-01 -3.466318e-01 -8.787400e+00 -3.536941e+00 -7.591872e+00 1.364443e+00 -1.951855e+00 -6.993323e+00 5.945092e+01 -7.267104e-01 8.068171e-01 -1.997413e-01 1.334492e+00 6.777344e-01 -2.139025e-01 1.077260e+00 2.707061e-01 2.616142e-02 4.406966e-01 2.792925e-01 2.426240e-01 -1.261646e+00 -1.496820e-01 -1.590859e-02 -4.085368e-02 8.618850e-03 -1.337265e-01 -5.825568e-02 9.608650e-02 6.861408e-02 1.450711e-01 3.201241e-02 5.054656e-02 2.201519e-01 -5.327996e-02
<VARIANCE> 39
 5.621860e+01 7.408064e+01 6.626349e+01 1.249120e+02 6.477510e+01 8.197482e+01 6.244431e+01 5.008425e+01 6.088353e+01 8.993120e+01 8.163851e+01 5.169184e+01 2.658269e+02 2.249604e+00 2.592087e+00 2.509794e+00 5.021860e+00 3.088475e+00 2.716592e+00 3.386132e+00 3.000061e+00 3.735112e+00 3.777213e+00 3.281762e+00 2.821036e+00 4.984552e+00 3.580279e-01 4.390270e-01 4.282765e-01 8.201239e-01 6.252107e-01 4.797978e-01 5.402483e-01 5.089008e-01 5.485144e-01 6.529565e-01 5.244786e-01 4.957401e-01 6.789643e-01
<GCONST> 1.352648e+02
<STATE> 4
<MEAN> 39
 -4.640144e+00 3.873508e+00 1.607002e+00 -3.747483e+00 1.003986e+00 -1.210558e+00 3.602951e-01 -9.834419e-01 -2.601367e+00 -9.919206e-01 -9.968011e-01 -1.407009e+00 4.026611e+01 -6.967546e-02 1.774595e-01 2.653904e-02 3.891703e-01 -1.789168e-02 3.054835e-02 1.255383e-01 7.007398e-02 6.247105e-02 -7.782836e-02 1.296070e-01 1.105758e-01 -3.398105e-01 4.971036e-02 2.712988e-02 8.007421e-02 -2.589742e-02 -5.288483e-02 2.635951e-02 -6.251443e-02 -2.584420e-02 -3.173695e-02 -9.159436e-03 -2.565392e-02 -2.964407e-02 4.077558e-02
<VARIANCE> 39
 5.621860e+01 7.408064e+01 6.481821e+01 9.562053e+01 6.049548e+01 5.657086e+01 5.480392e+01 5.008425e+01 4.914367e+01 3.600889e+01 5.758591e+01 2.695450e+01 2.658269e+02 2.237194e+00 2.592087e+00 2.314184e+00 3.129044e+00 2.833982e+00 2.664105e+00 2.646528e+00 2.741223e+00 2.630443e+00 2.481538e+00 2.569609e+00 1.958500e+00 4.984552e+00 3.580279e-01 4.174158e-01 3.847587e-01 5.025513e-01 4.999610e-01 4.797978e-01 4.820749e-01 5.089008e-01 4.798635e-01 4.500161e-01 4.608459e-01 3.767788e-01 6.789643e-01
<GCONST> 1.279994e+02
<TRANSP> 5
 0.000000e+00 1.000000e+00 0.000000e+00 0.000000e+00 0.000000e+00
 0.000000e+00 6.295522e-01 3.704477e-01 0.000000e+00 0.000000e+00
 0.000000e+00 0.000000e+00 5.309922e-01 4.690078e-01 0.000000e+00
 0.000000e+00 0.000000e+00 0.000000e+00 8.751525e-01 1.248475e-01
 0.000000e+00 0.000000e+00 0.000000e+00 0.000000e+00 0.000000e+00
<ENDHMM>
~h "m"
<BEGINHMM>
<NUMSTATES> 5
<STATE> 2
<MEAN> 39
 -6.345410e+00 5.351778e+00 6.848699e+00 -1.203595e+00 2.722913e+00 -2.877941e+00 -1.977980e+00 -2.456819e+00 -2.361825e+00 -2.592255e+00 -2.977106e+00 -2.803405e+00 5.357047e+01 1.056592e+00 -8.805262e-01 5.605353e-01 -8.875213e-01 -5.508475e-01 -7.982922e-01 -1.052070e+00 -5.844461e-01 -9.687604e-01 -1.934826e-01 -6.587731e-01 -1.706824e-01 1.717769e+00 3.451498e-01 -3.325154e-01 1.043890e-02 -3.184448e-01 -4.753721e-01 -3.243367e-01 -3.046626e-01 -1.741604e-01 -2.495265e-01 2.338194e-02 -3.386867e-01 -8.008233e-02 3.104324e-01
<VARIANCE> 39
 6.405943e+01 7.408064e+01 6.481821e+01 9.562053e+01 6.049548e+01 5.657086e+01 5.480392e+01 6.119357e+01 4.914367e+01 3.600889e+01 5.758591e+01 3.051347e+01 2.658269e+02 8.604548e+00 5.926993e+00 5.041759e+00 7.131529e+00 6.904318e+00 4.871206e+00 6.696866e+00 6.214094e+00 5.420581e+00 4.309892e+00 5.428536e+00 3.700639e+00 1.460507e+01 1.142898e+00 1.065055e+00 8.428761e-01 1.212892e+00 1.105074e+00 7.533467e-01 1.108477e+00 9.696704e-01 9.505327e-01 8.243896e-01 7.789623e-01 7.057270e-01 2.028159e+00
<GCONST> 1.492260e+02
<STATE> 3
<MEAN> 39
 4.453596e+00 -1.238422e+00 1.015017e+01 -5.347628e+00 -5.244915e+00 -7.264187e+00 -1.086341e+01 -6.442050e+00 -8.313086e+00 -9.444709e-01 -7.772216e+00 -5.867609e+00 6.162817e+01 6.693591e-01 -1.844057e+00 -1.992102e-01 -1.936717e+00 -9.482872e-01 -8.869357e-01 -5.992326e-01 4.601640e-01 -5.615877e-01 3.472182e-01 -6.759598e-01 -6.285891e-02 2.089727e+00 -4.863554e-01 5.989744e-02 -2.565087e-01 -6.380804e-02 3.601733e-01 2.626810e-01 5.618605e-01 3.974251e-01 3.155521e-01 -6.618624e-02 2.109507e-01 1.794161e-01 -4.870055e-02
<VARIANCE> 39
 5.621860e+01 7.408064e+01 6.481821e+01 9.930452e+01 6.049548e+01 1.220537e+02 5.480392e+01 6.585030e+01 4.914367e+01 5.528455e+01 6.600433e+01 4.871214e+01 2.658269e+02 3.806808e+00 3.725729e+00 4.839828e+00 7.454699e+00 4.511191e+00 4.325060e+00 5.325426e+00 5.708292e+00 3.895728e+00 4.885980e+00 5.591241e+00 5.475217e+00 6.138781e+00 5.123599e-01 6.530252e-01 7.369250e-01 1.006497e+00 6.276402e-01 6.262585e-01 7.004621e-01 9.894922e-01 6.149290e-01 8.805463e-01 8.818515e-01 8.535527e-01 8.191761e-01
<GCONST> 1.444597e+02
<STATE> 4
<MEAN> 39
 2.454831e+00 -8.163174e+00 7.194223e+00 -1.703710e+01 -6.638471e-01 -1.122712e+01 -6.738413e+00 -3.779327e+00 -9.236154e+00 -3.906306e+00 -1.286615e+01 -2.701089e+00 7.044257e+01 -1.950072e-01 4.474721e-01 -1.651970e-01 3.460110e-01 2.107256e-01 8.478759e-02 4.128315e-01 8.053507e-02 2.201573e-01 -3.287936e-01 2.183513e-01 6.704288e-02 -2.681193e-01 -9.609309e-02 3.024883e-01 -3.857853e-02 3.306604e-01 6.076871e-02 1.250923e-01 1.631222e-02 -2.825156e-02 1.085212e-01 4.040757e-02 2.002908e-01 -6.129959e-02 -2.387460e-01
<VARIANCE> 39
 5.621860e+01 7.408064e+01 6.939520e+01 9.562053e+01 1.172951e+02 7.075038e+01 5.480392e+01 5.834138e+01 4.914367e+01 6.407751e+01 5.758591e+01 4.162469e+01 2.658269e+02 2.237194e+00 3.265466e+00 2.314184e+00 4.508179e+00 2.833982e+00 2.664105e+00 2.646528e+00 2.816526e+00 2.630443e+00 2.520583e+00 2.649935e+00 2.844324e+00 4.984552e+00 3.580279e-01 4.174158e-01 3.848652e-01 6.474177e-01 4.999610e-01 4.797978e-01 4.820749e-01 5.604106e-01 4.798635e-01 4.865581e-01 4.608459e-01 5.334373e-01 6.789643e-01
<GCONST> 1.319353e+02
<TRANSP> 5
 0.000000e+00 1.000000e+00 0.000000e+00 0.000000e+00 0.000000e+00
 0.000000e+00 7.446530e-01 2.553470e-01 0.000000e+00 0.000000e+00
 0.000000e+00 0.000000e+00 7.554853e-01 2.445147e-01 0.000000e+00
 0.000000e+00 0.000000e+00 0.000000e+00 9.014211e-01 9.857892e-02
 0.000000e+00 0.000000e+00 0.000000e+00 0.000000e+00 0.000000e+00
<ENDHMM>
~h "n"
<BEGINHMM>
<NUMSTATES> 5
<STATE> 2
<MEAN> 39
 -8.760136e-02 -4.453941e+00 4.551184e+00 -7.892364e+00 -5.634997e+00 -7.393918e+00 -3.944891e+00 3.709493e+00 -4.494650e+00 -2.186134e+00 -6.634912e+00 -8.633649e-01 6.450780e+01 6.311804e-01 -1.652622e+00 -1.294195e-01 -8.099715e-01 -4.348302e-01 6.105287e-01 -5.844209e-02 7.823349e-01 -8.936545e-01 -4.345061e-01 -3.803273e-01 -4.071435e-01 4.809619e-01 -3.361432e-01 4.206687e-01 -5.175938e-02 2.839624e-01 2.219352e-01 3.233608e-01 1.787483e-01 -3.531108e-01 8.739624e-02 -6.259012e-02 3.600849e-01 -2.035389e-02 -2.730058e-01
<VARIANCE> 39
 6.413433e+01 7.408064e+01 6.481821e+01 9.562053e+01 6.967287e+01 5.657086e+01 5.480392e+01 5.550148e+01 4.914367e+01 3.685246e+01 8.931827e+01 2.711735e+01 2.658269e+02 4.549641e+00 3.903450e+00 2.676690e+00 3.393744e+00 3.398243e+00 2.664105e+00 3.754022e+00 3.734633e+00 4.168443e+00 2.922617e+00 3.150147e+00 2.212215e+00 4.984552e+00 8.106355e-01 9.741238e-01 4.721148e-01 9.801955e-01 8.084574e-01 5.405654e-01 6.507738e-01 5.089008e-01 6.218543e-01 4.845668e-01 7.857602e-01 3.885323e-01 6.789643e-01
<GCONST> 1.363137e+02
<STATE> 3
<MEAN> 39
 5.274217e+00 -9.888218e+00 6.430794e+00 -9.383629e+00 -7.800037e+00 -4.737541e+00 -5.304836e+00 7.006686e+00 -7.738217e+00 -3.598631e+00 -9.020724e+00 -3.333697e+00 6.970467e+01 -4.023364e-02 2.818190e-01 1.328122e-01 2.343417e-01 1.594118e-01 2.516678e-01 1.353810e-01 -1.577680e-01 -1.441491e-02 -1.284802e-01 6.958369e-02 3.256724e-02 -5.267597e-01 -4.859383e-02 2.486484e-01 2.439355e-02 1.519101e-01 5.145074e-02 -3.825153e-02 6.031803e-03 -1.734023e-01 1.235061e-01 7.142066e-02 8.009111e-02 1.323484e-02 -1.861307e-01
<VARIANCE> 39
 5.621860e+01 7.408064e+01 6.481821e+01 9.562053e+01 7.353930e+01 5.657086e+01 5.480392e+01 6.605471e+01 5.585916e+01 3.955001e+01 5.758591e+01 3.476976e+01 2.658269e+02 2.237194e+00 2.592087e+00 2.314184e+00 3.129044e+00 2.833982e+00 2.664105e+00 2.646528e+00 2.741223e+00 2.630443e+00 2.383868e+00 2.569609e+00 1.958500e+00 4.984552e+00 3.580279e-01 4.174158e-01 3.847587e-01 5.025513e-01 4.999610e-01 4.797978e-01 4.820749e-01 5.089008e-01 4.798635e-01 4.500161e-01 4.608459e-01 3.767788e-01 6.789643e-01
<GCONST> 1.289077e+02
<STATE> 4
<MEAN> 39
 -4.305459e+00 3.281001e+00 2.442657e+00 -2.172632e+00 -9.304918e-01 -1.728770e+00 1.625985e-01 5.841870e-01 -2.648131e+00 -2.464811e+00 3.239423e-01 -5.179644e-01 3.917973e+01 -8.507283e-02 1.186434e-01 2.573904e-02 1.174995e-01 6.850597e-02 1.068795e-01 2.783825e-02 -1.536173e-01 7.559463e-02 3.889617e-02 -1.479173e-03 -1.283870e-02 -1.785050e-01 2.593218e-02 -2.721038e-02 5.696905e-02 -3.510962e-02 -2.202251e-02 -2.803647e-02 -2.674364e-02 -3.253445e-02 -2.131951e-02 3.251113e-02 -4.956203e-02 -1.413717e-02 6.838435e-02
<VARIANCE> 39
 5.621860e+01 7.408064e+01 6.481821e+01 9.562053e+01 6.049548e+01 5.657086e+01 5.480392e+01 5.008425e+01 4.914367e+01 3.600889e+01 5.758591e+01 2.695450e+01 2.658269e+02 2.237194e+00 2.592087e+00 2.314184e+00 3.129044e+00 2.833982e+00 2.664105e+00 2.646528e+00 2.741223e+00 2.630443e+00 2.383868e+00 2.569609e+00 1.958500e+00 4.984552e+00 3.580279e-01 4.174158e-01 3.847587e-01 5.025513e-01 4.999610e-01 4.797978e-01 4.820749e-01 5.089008e-01 4.798635e-01 4.500161e-01 4.608459e-01 3.767788e-01 6.789643e-01
<GCONST> 1.279592e+02
<TRANSP> 5
 0.000000e+00 1.000000e+00 0.000000e+00 0.000000e+00 0.000000e+00
 0.000000e+00 3.771585e-01 6.228415e-01 0.000000e+00 0.000000e+00
 0.000000e+00 0.000000e+00 8.565456e-01 1.434545e-01 0.000000e+00
 0.000000e+00 0.000000e+00 0.000000e+00 9.126389e-01 8.736112e-02
 0.000000e+00 0.000000e+00 0.000000e+00 0.000000e+00 0.000000e+00
<ENDHMM>
~h "p"
<BEGINHMM>
<NUMSTATES> 5
<STATE> 2
<MEAN> 39
 -3.016316e+00 -4.972356e+00 -2.057763e-01 -8.893390e+00 -4.874278e-01 -5.076786e+00 -1.740232e+00 -6.023202e+00 -1.780636e+00 -4.739997e+00 -5.591967e+00 -5.372723e+00 5.983618e+01 7.822544e-01 -1.875090e-01 1.963844e-01 -1.517228e-01 2.715133e-01 6.904534e-01 1.490897e-01 -1.327758e-01 -4.400278e-02 1.193278e-01 -1.478659e-02 -5.511612e-01 1.293130e+00 6.075600e-02 3.391270e-01 1.428993e-01 1.665913e-01 1.474756e-01 1.116091e-01 -6.337020e-02 2.341545e-01 1.438478e-01 1.692109e-01 9.772315e-02 2.376875e-01 -5.342562e-01
<VARIANCE> 39
 5.621860e+01 1.128469e+02 6.481821e+01 1.024951e+02 8.509999e+01 7.608409e+01 5.595760e+01 8.714758e+01 6.117671e+01 7.885503e+01 5.953994e+01 4.826162e+01 2.883560e+02 3.050170e+00 9.186089e+00 3.504528e+00 7.154453e+00 6.419969e+00 5.978530e+00 5.019907e+00 9.221220e+00 7.497908e+00 7.906650e+00 3.770143e+00 4.142892e+00 1.578688e+01 5.598161e-01 1.352237e+00 5.727367e-01 1.134764e+00 1.102252e+00 9.980820e-01 9.661736e-01 1.697155e+00 1.517320e+00 1.238819e+00 5.345097e-01 8.695625e-01 2.561907e+00
<GCONST> 1.529242e+02
<STATE> 3
<MEAN> 39
 -6.455284e+00 3.609678e+00 2.710977e+00 -1.910704e+00 3.339339e+00 1.680976e+00 -1.848063e+00 1.418547e+00 2.195172e+00 1.055935e+00 -6.541012e-01 -3.053735e+00 4.862523e+01 2.385794e-02 -2.873511e-01 2.810826e-01 -1.364179e-01 2.378277e-01 -3.135210e-01 -2.609748e-01 3.185574e-01 -3.164067e-01 -3.762119e-01 -4.132967e-01 1.925619e-01 7.787473e-01 2.853645e-01 -3.719054e-01 -3.443126e-02 -2.895529e-01 -2.807132e-01 -3.284768e-01 -1.159293e-01 -2.009526e-01 -2.847503e-01 -2.098327e-01 -1.801928e-01 -4.144865e-02 3.408820e-01
<VARIANCE> 39
 8.371214e+01 7.408064e+01 6.481821e+01 9.562053e+01 6.049548e+01 5.657086e+01 5.480392e+01 5.008425e+01 4.914367e+01 4.144035e+01 5.758591e+01 3.060874e+01 2.658269e+02 8.301183e+00 6.865307e+00 5.846457e+00 6.306996e+00 6.275548e+00 5.242149e+00 3.942517e+00 5.382432e+00 5.460128e+00 4.524617e+00 3.864882e+00 3.727792e+00 2.208741e+01 1.257568e+00 1.206782e+00 1.290277e+00 1.128568e+00 1.216171e+00 9.026470e-01 8.527073e-01 1.052049e+00 9.978243e-01 1.017551e+00 7.322841e-01 7.218254e-01 3.209638e+00
<GCONST> 1.503636e+02
<STATE> 4
<MEAN> 39
 2.363312e+00 -6.674843e+00 3.813600e+00 -9.864851e+00 -7.086918e-01 -5.071722e+00 -3.854480e+00 1.208290e+00 -5.811275e+00 -4.135531e+00 -6.890357e+00 -3.086375e+00 6.503654e+01 1.362062e+00 -9.100573e-01 5.566006e-01 -9.690059e-01 -8.327935e-01 -6.141257e-01 -1.151900e-01 -5.452186e-04 -6.265398e-01 -3.895788e-01 -4.553356e-01 -2.120822e-01 1.567707e+00 -6.120039e-01 5.146601e-01 5.134843e-03 2.391396e-01 1.269067e-01 3.151034e-01 1.032067e-01 -5.427688e-03 3.551533e-01 2.971196e-01 3.189241e-01 -1.556385e-02 -6.740555e-01
<VARIANCE> 39
 5.621860e+01 8.183422e+01 6.481821e+01 9.562053e+01 7.101180e+01 5.865232e+01 5.480392e+01 6.925403e+01 5.139908e+01 3.600889e+01 5.758591e+01 2.697745e+01 2.658269e+02 5.898793e+00 8.241111e+00 3.894160e+00 6.237549e+00 6.229099e+00 4.276105e+00 3.701476e+00 4.838896e+00 5.785082e+00 4.201652e+00 4.981952e+00 2.501579e+00 9.896473e+00 5.885885e-01 8.908596e-01 5.035466e-01 8.065297e-01 9.058717e-01 5.086596e-01 5.555726e-01 7.996480e-01 7.412203e-01 5.937393e-01 7.002999e-01 3.767788e-01 1.090119e+00
<GCONST> 1.419213e+02
<TRANSP> 5
 0.000000e+00 1.000000e+00 0.000000e+00 0.000000e+00 0.000000e+00
 0.000000e+00 6.240828e-01 3.759171e-01 0.000000e+00 0.000000e+00
 0.000000e+00 0.000000e+00 7.602043e-01 2.397957e-01 0.000000e+00
 0.000000e+00 0.000000e+00 0.000000e+00 6.540065e-01 3.459935e-01
 0.000000e+00 0.000000e+00 0.000000e+00 0.000000e+00 0.000000e+00
<ENDHMM>
~h "r"
<BEGINHMM>
<NUMSTATES> 5
<STATE> 2
<MEAN> 39
 8.402102e+00 -6.443171e+00 6.675611e-01 1.769263e+00 -1.072476e+01 -1.853411e-01 -1.203400e+01 -6.076241e+00 1.372072e+00 -8.383312e-01 -6.177270e-02 -6.704429e+00 6.698756e+01 1.723305e-01 -2.972921e-01 1.366072e-02 -2.764025e-01 -7.285000e-01 1.863844e-01 -6.157655e-01 1.511112e-01 5.001512e-01 3.905387e-02 5.816451e-01 -1.161017e-01 9.823596e-01 -5.744680e-02 2.035141e-01 2.622433e-01 -7.455204e-02 5.868834e-02 1.959801e-02 3.013752e-02 -5.234522e-02 -1.601070e-01 2.149129e-02 -6.989391e-02 3.847636e-02 -2.537141e-01
<VARIANCE> 39
 5.621860e+01 7.408064e+01 6.481821e+01 9.562053e+01 1.217462e+02 6.701434e+01 5.480392e+01 7.864993e+01 8.191162e+01 3.600889e+01 5.758591e+01 3.511286e+01 2.658269e+02 2.237194e+00 2.819618e+00 2.314184e+00 3.129044e+00 4.298041e+00 4.733244e+00 2.891365e+00 2.741223e+00 2.995009e+00 2.383868e+00 2.569609e+00 1.958500e+00 6.215534e+00 3.580279e-01 6.307319e-01 4.753436e-01 5.025513e-01 8.999088e-01 8.998665e-01 6.212959e-01 6.300213e-01 5.019425e-01 4.500161e-01 4.608459e-01 4.259438e-01 6.789643e-01
<GCONST> 1.340447e+02
<STATE> 3
<MEAN> 39
 1.679307e+00 -4.566267e+00 5.888201e+00 -2.627184e+00 -5.666241e+00 -2.806246e+00 -1.162125e+01 -4.871229e+00 -2.079310e+00 -1.140422e-01 -2.791989e+00 -4.536446e+00 6.614319e+01 1.128594e+00 -9.139822e-02 1.701080e+00 -9.640253e-01 -1.515990e+00 -8.882017e-01 -9.254475e-01 -1.430494e+00 -1.313548e+00 6.835923e-01 -6.886453e-01 3.810056e-01 3.831675e-01 2.905236e-02 -9.865676e-02 1.304669e-03 -3.048200e-01 1.501352e-01 4.940156e-02 3.713433e-03 1.143220e-01 -2.361915e-01 -1.137618e-02 -2.536022e-01 8.808524e-02 -3.546328e-01
<VARIANCE> 39
 7.811268e+01 7.408064e+01 6.481821e+01 9.562053e+01 9.894674e+01 7.334235e+01 5.974246e+01 9.754823e+01 5.762786e+01 4.235377e+01 5.758591e+01 2.695450e+01 2.658269e+02 5.445461e+00 5.614512e+00 4.867926e+00 8.467075e+00 7.910656e+00 8.259686e+00 5.263591e+00 6.016062e+00 4.408221e+00 4.738192e+00 4.301882e+00 3.329242e+00 4.984552e+00 1.179807e+00 1.146019e+00 8.548294e-01 1.070313e+00 1.370589e+00 1.382836e+00 1.263499e+00 1.371604e+00 7.607188e-01 8.272559e-01 7.321720e-01 5.065920e-01 8.258494e-01
<GCONST> 1.491997e+02
<STATE> 4
<MEAN> 39
 6.106265e+00 -6.827327e+00 5.119321e+00 -2.027937e+01 -9.856292e+00 -3.148361e+00 -2.366731e+01 -9.073810e+00 -8.885262e+00 5.122097e+00 -9.785705e+00 -1.740986e+00 7.048782e+01 -2.182347e-01 5.872588e-01 -8.350977e-02 -8.452031e-01 8.744140e-01 1.855814e-01 3.314071e-01 6.372677e-01 -4.743310e-01 -1.783004e-01 2.048638e-01 3.596176e-01 -2.994782e-01 -1.568854e-01 3.674857e-01 -8.963793e-02 5.015445e-01 2.559519e-01 -3.809176e-02 4.981225e-01 3.259618e-02 2.156046e-01 -2.685929e-01 1.664981e-01 -9.826744e-02 -3.351168e-01
<VARIANCE> 39
 5.621860e+01 7.408064e+01 6.481821e+01 1.171644e+02 6.049548e+01 6.750345e+01 8.240408e+01 5.008425e+01 4.914367e+01 3.600889e+01 7.052983e+01 2.695450e+01 2.658269e+02 2.237194e+00 2.592087e+00 2.314184e+00 4.248835e+00 2.833982e+00 2.664105e+00 4.702289e+00 2.741223e+00 2.630443e+00 2.633108e+00 2.569609e+00 1.958500e+00 4.984552e+00 3.580279e-01 4.174158e-01 3.847587e-01 6.592414e-01 4.999610e-01 4.797978e-01 5.277198e-01 5.089008e-01 4.798635e-01 4.500161e-01 4.608459e-01 3.767788e-01 6.789643e-01
<GCONST> 1.302918e+02
<TRANSP> 5
 0.000000e+00 1.000000e+00 0.000000e+00 0.000000e+00 0.000000e+00
 0.000000e+00 8.078707e-01 1.921293e-01 0.000000e+00 0.000000e+00
 0.000000e+00 0.000000e+00 7.313953e-01 2.686048e-01 0.000000e+00
 0.000000e+00 0.000000e+00 0.000000e+00 8.003619e-01 1.996381e-01
 0.000000e+00 0.000000e+00 0.000000e+00 0.000000e+00 0.000000e+00
<ENDHMM>
~h "s"
<BEGINHMM>
<NUMSTATES> 5
<STATE> 2
<MEAN> 39
 -5.677158e+00 8.201123e+00 4.938651e+00 -2.272913e+00 -2.403780e+00 -6.470054e+00 -1.129308e-01 -2.730187e+00 -3.938339e+00 -3.706500e+00 -3.439899e+00 -2.730850e+00 5.753075e+01 -3.472039e+00 1.811317e+00 -1.471907e+00 1.901926e+00 1.604635e+00 1.379404e+00 1.453636e+00 3.004231e-01 1.094463e+00 -1.196268e-01 1.546362e+00 -8.136079e-02 7.598739e-01 -4.237483e-01 -3.154207e-01 -1.892394e-01 -4.412566e-01 -7.513712e-02 8.770625e-02 -1.078983e-01 1.706053e-01 5.039372e-02 1.942839e-01 4.656901e-02 1.304754e-01 2.891977e-01
<VARIANCE> 39
 5.621860e+01 7.408064e+01 6.481821e+01 9.562053e+01 6.049548e+01 5.657086e+01 5.480392e+01 5.761733e+01 4.914367e+01 3.873539e+01 5.758591e+01 3.646654e+01 2.658269e+02 4.406015e+00 7.453975e+00 4.243382e+00 8.766491e+00 5.332854e+00 6.472526e+00 4.197904e+00 4.791126e+00 3.456722e+00 4.078478e+00 4.652996e+00 3.604460e+00 1.244365e+01 9.253191e-01 1.285327e+00 6.506960e-01 1.136529e+00 8.362437e-01 9.710165e-01 9.314529e-01 7.676193e-01 6.171283e-01 6.661037e-01 7.539220e-01 6.667739e-01 1.302042e+00
<GCONST> 1.453761e+02
<STATE> 3
<MEAN> 39
 -1.857413e+01 1.266972e+01 -1.437885e-01 -3.999211e-01 3.817190e+00 -3.272269e+00 5.364696e+00 4.525645e-01 -9.430429e-02 -1.428021e+00 1.667899e+00 -7.164422e-01 6.156898e+01 -1.909858e+00 4.974148e-01 -1.092744e+00 -2.050856e-01 1.127860e-01 2.127485e-01 -9.657374e-02 -4.127748e-02 1.518480e-01 1.621504e-01 2.838965e-01 1.440647e-01 6.928714e-01 7.917851e-01 -2.668065e-01 2.651574e-01 -2.011358e-01 -4.234208e-01 -2.858200e-01 -3.612921e-01 -1.729541e-01 -2.775025e-01 -9.459943e-02 -3.144628e-01 -8.568089e-02 -3.169725e-01
<VARIANCE> 39
 5.621860e+01 7.408064e+01 6.481821e+01 9.562053e+01 6.049548e+01 5.657086e+01 5.480392e+01 5.008425e+01 4.914367e+01 3.600889e+01 5.758591e+01 2.695450e+01 2.658269e+02 2.655715e+00 2.765538e+00 2.400321e+00 3.129044e+00 2.833982e+00 2.664105e+00 2.646528e+00 2.741223e+00 2.630443e+00 2.383868e+00 2.569609e+00 1.958500e+00 4.984552e+00 4.637168e-01 4.982088e-01 4.074703e-01 5.403034e-01 5.639563e-01 6.806840e-01 5.450674e-01 5.089008e-01 4.798635e-01 4.500161e-01 5.100155e-01 3.837765e-01 6.789643e-01
<GCONST> 1.295102e+02
<STATE> 4
<MEAN> 39
 -2.001629e+01 1.193477e+01 -4.999811e+00 1.779139e+00 -1.266434e+00 -1.333700e+00 2.210306e+00 -8.058528e-01 -9.818963e-01 -2.463983e+00 1.413676e+00 -1.650864e+00 6.156342e+01 3.383461e-01 5.091140e-03 3.024691e-01 3.586464e-02 -1.841228e-01 -2.722671e-02 -1.345183e-01 -1.068644e-01 -8.272399e-02 2.290450e-02 -1.056828e-01 -4.872122e-02 -1.150102e-01 3.985435e-01 -1.142877e-01 3.030422e-01 -4.439696e-02 -1.561465e-02 -6.676441e-02 -4.045454e-02 -3.978097e-02 -2.935801e-02 1.637966e-02 -5.535066e-02 5.812324e-03 -9.483592e-02
<VARIANCE> 39
 5.621860e+01 7.408064e+01 6.481821e+01 9.562053e+01 6.049548e+01 5.657086e+01 5.480392e+01 5.008425e+01 4.914367e+01 3.600889e+01 5.758591e+01 2.695450e+01 2.658269e+02 2.237194e+00 2.592087e+00 2.314184e+00 3.129044e+00 2.833982e+00 2.664105e+00 2.646528e+00 2.741223e+00 2.630443e+00 2.383868e+00 2.569609e+00 1.958500e+00 4.984552e+00 3.580279e-01 4.174158e-01 3.847587e-01 5.025513e-01 4.999610e-01 4.797978e-01 4.820749e-01 5.089008e-01 4.798635e-01 4.500161e-01 4.608459e-01 3.767788e-01 6.789643e-01
<GCONST> 1.279592e+02
<TRANSP> 5
 0.000000e+00 1.000000e+00 0.000000e+00 0.000000e+00 0.000000e+00
 0.000000e+00 6.863821e-01 3.136179e-01 0.000000e+00 0.000000e+00
 0.000000e+00 0.000000e+00 6.797722e-01 3.202278e-01 0.000000e+00
 0.000000e+00 0.000000e+00 0.000000e+00 8.663181e-01 1.336819e-01
 0.000000e+00 0.000000e+00 0.000000e+00 0.000000e+00 0.000000e+00
<ENDHMM>
~h "t"
<BEGINHMM>
<NUMSTATES> 5
<STATE> 2
<MEAN> 39
 -1.311260e+01 7.122848e+00 5.130567e+00 -4.878515e+00 9.307607e-01 -1.443013e+00 -1.052902e+00 -9.491503e-01 5.629634e-02 -7.271685e-01 5.573367e-01 -1.371192e+00 5.345742e+01 1.324825e-01 -9.116434e-02 4.764316e-01 -4.815273e-01 -1.846535e-01 4.445564e-02 4.098199e-02 -6.452280e-02 -1.966996e-01 -8.346192e-02 -1.102550e-01 -7.098269e-02 2.395964e+00 5.042801e-01 -2.182825e-01 2.029787e-01 -1.537025e-01 -4.038230e-01 -2.173692e-01 -1.419416e-01 -1.078629e-01 -2.360549e-01 -2.877950e-02 -1.737000e-01 -3.934076e-02 8.137945e-02
<VARIANCE> 39
 6.658540e+01 7.408064e+01 6.481821e+01 9.562053e+01 6.049548e+01 5.657086e+01 5.480392e+01 5.008425e+01 4.914367e+01 3.600889e+01 5.758591e+01 2.695450e+01 2.658269e+02 8.213082e+00 4.463962e+00 4.325904e+00 4.274925e+00 4.766280e+00 3.932399e+00 2.837783e+00 3.187502e+00 2.876135e+00 2.499446e+00 2.569609e+00 1.958500e+00 2.411155e+01 1.316119e+00 1.087412e+00 7.971653e-01 9.274442e-01 8.679562e-01 9.073900e-01 6.290526e-01 6.137280e-01 5.488077e-01 5.213239e-01 4.765839e-01 4.123076e-01 3.495683e+00
<GCONST> 1.410395e+02
<STATE> 3
<MEAN> 39
 -2.539337e+00 1.618766e+00 1.169498e+01 -9.419002e+00 -8.447322e+00 -7.131630e+00 -3.073437e+00 -4.172672e+00 -5.846992e+00 -1.261068e+00 -3.973545e+00 -2.368457e+00 6.415462e+01 1.983391e+00 -2.131737e+00 4.402136e-01 -1.399065e+00 -1.412823e+00 -1.245914e+00 -5.532362e-01 2.172475e-01 -8.817583e-01 4.348088e-02 -1.120550e+00 -1.226189e-01 4.011062e-01 -4.849553e-01 -1.362871e-01 -3.309457e-01 -3.839268e-02 2.965609e-01 1.738946e-01 1.453763e-01 2.736496e-01 1.993650e-01 8.605029e-02 3.855650e-02 -1.189501e-03 -1.389952e-01
<VARIANCE> 39
 5.621860e+01 7.408064e+01 7.128313e+01 9.562053e+01 7.047552e+01 5.772800e+01 5.480392e+01 5.682712e+01 4.914367e+01 3.600889e+01 5.758591e+01 2.695450e+01 2.658269e+02 7.789293e+00 8.332778e+00 6.727277e+00 8.789829e+00 9.413559e+00 7.126712e+00 4.583698e+00 5.442614e+00 4.536033e+00 3.788392e+00 5.249386e+00 2.678479e+00 1.309509e+01 1.021730e+00 1.405300e+00 9.159360e-01 1.274084e+00 1.356024e+00 9.426653e-01 7.275624e-01 6.982893e-01 6.147636e-01 6.648762e-01 7.484590e-01 4.595474e-01 1.826817e+00
<GCONST> 1.480625e+02
<STATE> 4
<MEAN> 39
 1.821610e+00 -1.092369e+01 6.995388e+00 -1.679674e+01 -8.863935e+00 -1.191417e+01 -1.859961e+00 9.201888e-01 -7.426864e+00 -3.976046e+00 -1.014486e+01 -2.536578e+00 7.237768e+01 8.592792e-02 3.183190e-01 -4.198671e-01 5.871593e-01 2.826388e-01 6.597704e-02 -1.388480e-01 1.312986e-01 4.413515e-01 -6.142184e-02 -1.150563e-01 1.701906e-01 -9.725094e-01 -1.607533e-01 4.241418e-01 -1.140320e-02 2.680312e-01 1.232943e-01 1.530623e-01 2.504480e-02 -1.058361e-01 1.602225e-01 2.226751e-02 1.949052e-01 4.268276e-02 -4.486323e-01
<VARIANCE> 39
 5.621860e+01 7.408064e+01 6.481821e+01 1.040012e+02 6.452738e+01 7.583504e+01 5.480392e+01 7.516853e+01 4.914367e+01 5.394340e+01 5.758591e+01 2.695450e+01 2.658269e+02 2.237194e+00 4.055633e+00 2.314184e+00 3.155514e+00 2.833982e+00 2.664105e+00 2.646528e+00 2.741223e+00 2.630443e+00 2.383868e+00 2.569609e+00 1.958500e+00 5.671818e+00 3.580279e-01 4.394384e-01 3.847587e-01 5.147586e-01 4.999610e-01 4.797978e-01 4.820749e-01 5.089008e-01 4.798635e-01 4.500161e-01 4.608459e-01 3.767788e-01 7.062675e-01
<GCONST> 1.299111e+02
<TRANSP> 5
 0.000000e+00 1.000000e+00 0.000000e+00 0.000000e+00 0.000000e+00
 0.000000e+00 8.186442e-01 1.813558e-01 0.000000e+00 0.000000e+00
 0.000000e+00 0.000000e+00 7.145777e-01 2.854222e-01 0.000000e+00
 0.000000e+00 0.000000e+00 0.000000e+00 8.596159e-01 1.403841e-01
 0.000000e+00 0.000000e+00 0.000000e+00 0.000000e+00 0.000000e+00
<ENDHMM>
~h "v"
<BEGINHMM>
<NUMSTATES> 5
<STATE> 2
<MEAN> 39
 -5.908329e+00 5.043714e+00 9.682799e+00 -3.611982e+00 -3.472202e+00 -2.973483e+00 -1.125040e+00 -4.232803e+00 -3.623737e+00 -1.411886e+00 -3.396770e+00 -1.537375e+00 5.596435e+01 1.822428e+00 -5.453696e-01 2.793932e+00 -3.552763e+00 -2.191886e+00 -1.714400e+00 -1.439920e+00 -2.549297e+00 -2.226047e+00 7.096132e-01 -1.557364e+00 -3.230861e-01 2.767385e+00 7.492607e-02 -2.530821e-01 2.623623e-01 -9.608893e-01 -4.216957e-01 -3.195269e-01 -5.194647e-01 -2.312769e-01 -4.283554e-01 1.118339e-01 -4.755274e-01 -8.892751e-02 5.301136e-01
<VARIANCE> 39
 5.621860e+01 7.408064e+01 6.481821e+01 9.562053e+01 6.049548e+01 5.657086e+01 5.480392e+01 5.288546e+01 4.914367e+01 3.600889e+01 5.758591e+01 2.695450e+01 2.658269e+02 3.800533e+00 2.808683e+00 5.719099e+00 9.184824e+00 3.988821e+00 7.194553e+00 5.369728e+00 4.858872e+00 3.885198e+00 3.837946e+00 5.296924e+00 2.313471e+00 1.195884e+01 7.217718e-01 4.447220e-01 9.088149e-01 1.077249e+00 6.928706e-01 1.047512e+00 7.457196e-01 1.083485e+00 6.854956e-01 6.700380e-01 8.567331e-01 3.982722e-01 1.518290e+00
<GCONST> 1.427725e+02
<STATE> 3
<MEAN> 39
 -2.716767e+00 2.612544e-02 2.051167e+01 -2.431986e+01 -1.196105e+01 -1.362091e+01 -7.423160e+00 -1.413841e+01 -1.357783e+01 2.645120e+00 -1.696276e+01 -2.637841e+00 6.925659e+01 3.286558e-01 -5.235577e-01 4.029230e-01 -7.294227e-01 -8.805925e-01 -3.353418e-01 -5.864436e-01 -1.870854e-01 -1.166677e+00 -5.532726e-01 -1.023768e+00 -3.313859e-01 9.257835e-01 -1.605476e-02 3.227127e-01 -6.620279e-01 1.316983e+00 4.266990e-01 4.964657e-01 3.783392e-01 4.571194e-01 4.387053e-01 -5.178134e-01 5.548855e-01 6.149957e-02 -1.006612e+00
<VARIANCE> 39
 5.621860e+01 7.408064e+01 6.481821e+01 9.562053e+01 6.049548e+01 5.657086e+01 5.480392e+01 5.104221e+01 4.914367e+01 3.600889e+01 5.758591e+01 2.695450e+01 2.658269e+02 2.237194e+00 2.592087e+00 3.947896e+00 1.225150e+01 2.833982e+00 3.990353e+00 3.558612e+00 3.908845e+00 2.630443e+00 3.367622e+00 5.591296e+00 1.977965e+00 8.914035e+00 5.346332e-01 4.174158e-01 5.196181e-01 8.609280e-01 5.365189e-01 5.192472e-01 5.220473e-01 7.752731e-01 5.017090e-01 4.500161e-01 6.528871e-01 4.291101e-01 7.736449e-01
<GCONST> 1.351897e+02
<STATE> 4
<MEAN> 39
 1.184348e+00 1.170017e+00 6.581574e+00 -1.071251e+01 -5.450401e+00 -1.116180e+01 -8.579659e+00 -9.526639e+00 -9.121614e+00 -7.292901e+00 -1.238809e+01 -3.219172e+00 6.557082e+01 -1.263719e-01 3.647136e-01 -5.391468e-01 8.349763e-01 7.600391e-01 6.437774e-01 -1.389695e-01 1.722926e-01 4.522161e-01 -2.014984e-01 6.228453e-01 -9.683857e-02 -2.348346e-01 -7.491539e-02 -3.337823e-02 4.090402e-02 -1.569344e-01 1.121189e-01 -9.414515e-03 1.852665e-02 -1.880514e-02 9.185564e-02 1.997315e-01 5.736541e-02 -1.541131e-02 5.887802e-02
<VARIANCE> 39
 5.621860e+01 7.408064e+01 6.481821e+01 9.562053e+01 6.049548e+01 8.935071e+01 8.845818e+01 7.781148e+01 4.914367e+01 3.600889e+01 7.632456e+01 3.475458e+01 2.658269e+02 2.237194e+00 2.592087e+00 2.314184e+00 4.676084e+00 3.155868e+00 3.890635e+00 3.982294e+00 3.785996e+00 2.630443e+00 3.276809e+00 3.329581e+00 3.594546e+00 4.984552e+00 3.580279e-01 4.174158e-01 3.847587e-01 7.320913e-01 6.022947e-01 6.884500e-01 7.134348e-01 7.829935e-01 4.875014e-01 4.668522e-01 5.731412e-01 6.054947e-01 6.789643e-01
<GCONST> 1.351669e+02
<TRANSP> 5
 0.000000e+00 1.000000e+00 0.000000e+00 0.000000e+00 0.000000e+00
 0.000000e+00 7.076126e-01 2.923874e-01 0.000000e+00 0.000000e+00
 0.000000e+00 0.000000e+00 7.661645e-01 2.338355e-01 0.000000e+00
 0.000000e+00 0.000000e+00 0.000000e+00 8.801874e-01 1.198126e-01
 0.000000e+00 0.000000e+00 0.000000e+00 0.000000e+00 0.000000e+00
<ENDHMM>
~h "w"
<BEGINHMM>
<NUMSTATES> 5
<STATE> 2
<MEAN> 39
 1.980038e-01 3.525941e+00 1.599401e+01 -1.970028e+01 -9.535982e+00 -1.312260e+01 -1.167592e+01 -1.218354e+01 -1.236296e+01 3.869889e+00 -1.658194e+01 2.430490e+00 6.557280e+01 -2.663219e-01 2.814089e-01 6.920445e-01 1.219191e-01 -2.560436e-01 1.798698e-01 8.821877e-02 -1.196521e-01 2.030783e-01 2.514669e-02 -2.304326e-01 -2.894520e-02 -4.073641e-02 -2.937277e-02 -6.599930e-02 -1.213787e-01 -5.947286e-03 6.689107e-02 7.935622e-02 8.572659e-02 7.910683e-02 1.336927e-01 -9.858669e-03 1.327263e-01 6.926212e-02 -9.565850e-02
<VARIANCE> 39
 5.621860e+01 7.408064e+01 6.481821e+01 9.562053e+01 6.049548e+01 7.233170e+01 5.480392e+01 5.263176e+01 4.914367e+01 4.588402e+01 5.960080e+01 5.435288e+01 2.658269e+02 2.562499e+00 2.592087e+00 2.963637e+00 3.285561e+00 2.833982e+00 3.656289e+00 4.104620e+00 3.240043e+00 2.630443e+00 3.593677e+00 4.194107e+00 3.463165e+00 4.984552e+00 3.580279e-01 4.174158e-01 3.847587e-01 6.259128e-01 4.999610e-01 4.797978e-01 6.571020e-01 6.590740e-01 4.798635e-01 6.134344e-01 7.701647e-01 6.806412e-01 6.789643e-01
<GCONST> 1.342602e+02
<STATE> 3
<MEAN> 39
 3.044328e+00 4.629372e+00 2.019007e+01 -1.523092e+00 -1.293858e+01 2.191964e+00 -8.118230e+00 -5.742996e+00 -8.529900e+00 -2.331664e+00 -1.527598e+00 -8.705325e+00 6.013338e+01 -2.211289e-01 2.042473e-01 -1.095363e-02 9.090738e-02 3.489428e-01 1.374790e-01 3.178393e-01 6.511733e-02 3.140245e-01 -5.200609e-02 1.719020e-01 5.680946e-02 -5.188330e-01 -2.669121e-02 -7.269551e-02 -1.483010e-01 -1.151730e-02 7.272054e-02 -4.115756e-02 7.369144e-02 1.103920e-01 8.033811e-02 1.230606e-02 2.577505e-02 8.705973e-02 -6.048961e-02
<VARIANCE> 39
 5.621860e+01 7.408064e+01 6.481821e+01 9.562053e+01 9.945932e+01 5.657086e+01 5.480392e+01 6.276731e+01 4.914367e+01 3.600889e+01 5.758591e+01 4.032672e+01 2.658269e+02 2.237194e+00 2.592087e+00 2.828114e+00 3.129044e+00 5.192540e+00 2.664105e+00 3.165845e+00 3.066976e+00 2.630443e+00 2.383868e+00 2.569609e+00 1.958500e+00 4.984552e+00 3.580279e-01 4.174158e-01 4.346794e-01 5.025513e-01 1.026433e+00 4.797978e-01 4.820749e-01 5.705057e-01 4.798635e-01 4.500161e-01 4.608459e-01 3.767788e-01 6.789643e-01
<GCONST> 1.311381e+02
<STATE> 4
<MEAN> 39
 -7.366132e-01 6.034788e+00 2.816661e+00 -3.346298e+00 -3.813114e-01 1.371181e+00 -6.957878e-01 -2.533751e-01 8.335617e-01 1.328219e-01 -1.076861e+00 -1.741023e+00 3.892044e+01 -3.865001e-02 -1.482621e-01 -4.874081e-01 4.716180e-02 7.650740e-02 -6.310114e-02 6.841396e-02 5.568202e-02 1.194710e-01 3.841057e-02 1.774665e-01 4.513330e-02 -3.498039e-01 1.106859e-02 -2.445668e-02 1.185402e-01 1.881873e-03 -3.179630e-02 -7.372156e-02 -1.349987e-01 -8.689630e-02 -1.461942e-01 -6.157056e-02 -3.758796e-02 -5.506658e-02 1.911629e-01
<VARIANCE> 39
 5.621860e+01 7.408064e+01 6.481821e+01 9.562053e+01 6.049548e+01 5.657086e+01 5.480392e+01 5.008425e+01 4.914367e+01 3.600889e+01 5.758591e+01 2.695450e+01 2.658269e+02 2.237194e+00 2.592087e+00 2.514453e+00 3.129044e+00 2.833982e+00 2.666711e+00 2.920153e+00 3.085478e+00 2.630443e+00 2.383868e+00 2.569609e+00 2.317466e+00 4.984552e+00 3.580279e-01 4.174158e-01 3.847587e-01 5.025513e-01 5.699725e-01 5.420935e-01 5.877313e-01 5.864381e-01 4.986976e-01 5.168151e-01 4.608459e-01 4.571987e-01 6.789643e-01
<GCONST> 1.293917e+02
<TRANSP> 5
 0.000000e+00 1.000000e+00 0.000000e+00 0.000000e+00 0.000000e+00
 0.000000e+00 8.663623e-01 1.336378e-01 0.000000e+00 0.000000e+00
 0.000000e+00 0.000000e+00 8.897264e-01 1.102736e-01 0.000000e+00
 0.000000e+00 0.000000e+00 0.000000e+00 9.120429e-01 8.795710e-02
 0.000000e+00 0.000000e+00 0.000000e+00 0.000000e+00 0.000000e+00
<ENDHMM>
~h "y"
<BEGINHMM>
<NUMSTATES> 5
<STATE> 2
<MEAN> 39
 4.037477e+00 1.521125e+00 1.142317e+01 -2.243418e+01 -3.283996e+00 -8.366629e+00 -1.341764e+01 -9.809534e+00 -1.311960e+01 3.921100e+00 -1.362503e+01 2.956212e-01 6.620551e+01 4.363896e-01 -1.072174e-01 -6.696373e-01 5.609804e-01 4.497300e-01 -1.472566e-01 -3.269320e-02 -1.694749e-01 -1.014705e-01 7.259069e-02 8.244988e-02 -2.004411e-01 4.233185e-01 -1.484105e-01 -1.269463e-01 -1.545171e-01 -4.450611e-03 4.635311e-02 -1.240730e-02 -1.080095e-03 1.743199e-01 2.059305e-01 1.009170e-01 3.459274e-02 4.702543e-02 6.983662e-02
<VARIANCE> 39
 5.621860e+01 7.408064e+01 1.382248e+02 9.867190e+01 6.652777e+01 1.236976e+02 5.480392e+01 5.962778e+01 6.629401e+01 4.104572e+01 5.758591e+01 3.958939e+01 2.658269e+02 2.237194e+00 2.920744e+00 6.602472e+00 6.943810e+00 4.723370e+00 5.512903e+00 4.239309e+00 6.102527e+00 6.990667e+00 5.601691e+00 2.569609e+00 3.783514e+00 8.909562e+00 3.580279e-01 4.174158e-01 6.266249e-01 9.483880e-01 4.999610e-01 7.697524e-01 6.918967e-01 1.122130e+00 8.487902e-01 1.189577e+00 4.646351e-01 7.976308e-01 1.171634e+00
<GCONST> 1.437536e+02
<STATE> 3
<MEAN> 39
 1.328256e+00 -1.663721e+00 8.794160e-01 -1.019959e+01 6.326376e+00 -8.976295e+00 -1.367318e+01 -2.424277e+00 3.083589e-01 3.874799e+00 -1.441531e+01 8.910356e-01 6.743470e+01 -3.522435e-01 -1.285598e+00 -6.226780e-02 -3.117398e+00 -9.844251e-01 -1.540666e+00 2.320530e-01 2.910020e+00 1.398805e+00 4.216085e-01 -1.254154e+00 9.077849e-01 2.246352e+00 4.440150e-01 3.353147e-01 5.686718e-01 -2.334523e-01 -4.799288e-01 2.395396e-01 6.177328e-01 -4.067973e-01 -5.954595e-01 -4.585997e-01 -1.407569e-01 -1.858761e-01 -7.039225e-01
<VARIANCE> 39
 5.621860e+01 7.408064e+01 6.481821e+01 9.966721e+01 6.049548e+01 1.299639e+02 5.480392e+01 5.008425e+01 4.914367e+01 3.600889e+01 1.104805e+02 3.251379e+01 2.658269e+02 2.676139e+00 2.592087e+00 6.591578e+00 5.015879e+00 1.085701e+01 5.354979e+00 6.690723e+00 2.741223e+00 2.852897e+00 2.383868e+00 3.283895e+00 2.632144e+00 9.922747e+00 4.702627e-01 4.174158e-01 2.029489e+00 2.735283e+00 3.443796e+00 1.082958e+00 1.001043e+00 5.089008e-01 4.798635e-01 4.500161e-01 1.322802e+00 7.823012e-01 6.789643e-01
<GCONST> 1.445381e+02
<STATE> 4
<MEAN> 39
 1.208676e+00 -4.299654e+00 3.618027e-01 -1.346121e+01 1.120731e+01 -1.029332e+01 1.043174e-01 3.072484e+00 1.291387e+00 -4.594892e+00 -1.330989e+01 -1.280442e+00 6.026281e+01 -2.417593e-01 2.500814e-01 -2.591927e-01 8.696001e-01 5.706864e-01 5.682582e-01 4.158832e-01 -1.643676e-01 -1.972251e-01 -3.445558e-01 6.360898e-01 -2.083842e-01 -1.618924e+00 1.603481e-02 1.714690e-01 6.257107e-02 8.582353e-02 -2.269520e-01 9.332052e-02 -1.736186e-01 -1.201092e-01 1.801859e-02 9.502487e-02 7.230684e-02 1.026950e-01 -8.078033e-02
<VARIANCE> 39
 5.621860e+01 7.408064e+01 6.481821e+01 9.562053e+01 6.049548e+01 5.657086e+01 5.480392e+01 5.008425e+01 4.914367e+01 3.600889e+01 6.589629e+01 2.695450e+01 2.658269e+02 2.237194e+00 2.592087e+00 2.314184e+00 3.129044e+00 3.119858e+00 2.664105e+00 4.795482e+00 2.741223e+00 3.136735e+00 2.383868e+00 2.950593e+00 1.958500e+00 4.984552e+00 3.580279e-01 4.669258e-01 4.107181e-01 5.025513e-01 5.633754e-01 4.797978e-01 6.392696e-01 5.089008e-01 5.899521e-01 4.500161e-01 5.960561e-01 3.767788e-01 6.789643e-01
<GCONST> 1.301417e+02
<TRANSP> 5
 0.000000e+00 1.000000e+00 0.000000e+00 0.000000e+00 0.000000e+00
 0.000000e+00 9.504627e-01 4.953730e-02 0.000000e+00 0.000000e+00
 0.000000e+00 0.000000e+00 7.860230e-01 2.139770e-01 0.000000e+00
 0.000000e+00 0.000000e+00 0.000000e+00 9.277107e-01 7.228932e-02
 0.000000e+00 0.000000e+00 0.000000e+00 0.000000e+00 0.000000e+00
<ENDHMM>
~h "z"
<BEGINHMM>
<NUMSTATES> 5
<STATE> 2
<MEAN> 39
 -1.730995e+01 1.387318e+01 -2.610350e+00 2.406583e+00 -4.005022e+00 -3.057636e+00 8.755760e-01 -3.439665e+00 -2.852063e+00 -4.133914e+00 7.444947e-01 -4.733686e+00 6.327285e+01 -1.087562e+00 8.414267e-01 -7.077156e-01 7.463378e-01 2.965996e-01 6.818004e-01 3.097731e-01 1.950055e-01 2.157100e-01 1.338955e-02 3.405852e-01 -3.042985e-01 -1.551596e-02 3.809828e-01 -2.582619e-01 3.251440e-01 -2.760562e-01 -1.932836e-01 -1.976714e-01 -6.605685e-02 -1.502489e-01 -1.392576e-01 1.155356e-01 -2.343191e-01 1.036513e-01 -5.654119e-02
<VARIANCE> 39
 6.950565e+01 7.408064e+01 6.481821e+01 9.562053e+01 6.049548e+01 5.657086e+01 5.480392e+01 5.008425e+01 4.914367e+01 3.600889e+01 5.758591e+01 2.695450e+01 2.658269e+02 5.861965e+00 3.341734e+00 4.689167e+00 4.936745e+00 4.337638e+00 3.399593e+00 2.721340e+00 4.026535e+00 3.926894e+00 2.863438e+00 3.342020e+00 3.400665e+00 4.984552e+00 5.970277e-01 4.575659e-01 5.570168e-01 6.124098e-01 8.921155e-01 4.901752e-01 5.500371e-01 7.379793e-01 6.895806e-01 6.755967e-01 4.648291e-01 5.960432e-01 6.789643e-01
<GCONST> 1.365423e+02
<STATE> 3
<MEAN> 39
 -1.008460e+01 1.221591e+01 1.046504e+01 -2.701953e+00 -9.195671e+00 -4.153696e+00 -2.266711e+00 -1.015156e+01 -6.037954e+00 -4.168152e+00 -2.111460e+00 -4.809257e+00 6.599475e+01 2.461825e+00 -1.869065e+00 3.334080e+00 -2.274620e+00 -2.483977e+00 -1.423491e+00 -1.824384e+00 -1.247873e+00 -1.013716e+00 5.765101e-01 -9.553646e-01 7.786900e-01 7.155211e-01 1.149059e-01 -4.718753e-01 7.538782e-02 -3.739833e-01 1.582493e-02 1.444023e-01 -3.344632e-01 4.438825e-01 3.010685e-02 3.704048e-01 -1.517732e-01 2.847050e-01 -2.235378e-01
<VARIANCE> 39
 5.621860e+01 7.408064e+01 1.087290e+02 9.562053e+01 9.317605e+01 6.454942e+01 5.480392e+01 5.008425e+01 4.914367e+01 3.600889e+01 5.758591e+01 2.695450e+01 2.658269e+02 5.033357e+00 4.769423e+00 6.207526e+00 8.682241e+00 7.046004e+00 3.904505e+00 4.741006e+00 5.544805e+00 2.630443e+00 3.559373e+00 6.837036e+00 2.880066e+00 4.984552e+00 9.929568e-01 6.771048e-01 1.081537e+00 9.697769e-01 1.477659e+00 8.296479e-01 7.105964e-01 8.520998e-01 4.798635e-01 6.241332e-01 8.577145e-01 5.532967e-01 6.789643e-01
<GCONST> 1.438759e+02
<STATE> 4
<MEAN> 39
 -1.186383e+00 5.382320e+00 2.218257e+01 -1.353545e+01 -1.337862e+01 -3.123636e-01 -1.170929e+01 -7.223518e+00 -7.654876e+00 -2.852339e-01 -5.277242e+00 -1.179757e+00 6.245660e+01 2.770135e-01 -1.704072e-01 -3.763888e-01 2.486656e-01 5.398945e-01 3.370125e-01 2.752785e-01 4.640976e-01 3.082139e-01 9.650008e-02 1.158118e-01 5.554784e-02 -7.970822e-01 -7.678360e-02 1.234603e-01 -2.637989e-01 2.416978e-01 1.725481e-01 4.347080e-03 1.704459e-01 4.429820e-02 1.230664e-01 -5.627215e-02 1.053641e-01 -4.412475e-02 -4.766244e-02
<VARIANCE> 39
 5.621860e+01 7.408064e+01 6.481821e+01 9.562053e+01 1.010243e+02 6.371156e+01 5.480392e+01 7.970943e+01 6.458002e+01 3.600889e+01 8.744788e+01 4.395359e+01 2.658269e+02 2.237194e+00 2.592087e+00 2.482073e+00 3.129044e+00 2.833982e+00 3.119734e+00 2.886759e+00 2.741223e+00 2.630443e+00 2.383868e+00 2.569609e+00 2.087320e+00 4.984552e+00 3.580279e-01 4.174158e-01 4.165617e-01 5.025513e-01 4.999610e-01 5.360072e-01 4.820749e-01 5.089008e-01 4.798635e-01 4.500161e-01 4.608459e-01 3.767788e-01 6.789643e-01
<GCONST> 1.308042e+02
<TRANSP> 5
 0.000000e+00 1.000000e+00 0.000000e+00 0.000000e+00 0.000000e+00
 0.000000e+00 8.783430e-01 1.216570e-01 0.000000e+00 0.000000e+00
 0.000000e+00 0.000000e+00 6.849650e-01 3.150350e-01 0.000000e+00
 0.000000e+00 0.000000e+00 0.000000e+00 9.034936e-01 9.650635e-02
 0.000000e+00 0.000000e+00 0.000000e+00 0.000000e+00 0.000000e+00
<ENDHMM>
~h "aa"
<BEGINHMM>
<NUMSTATES> 5
<STATE> 2
<MEAN> 39
 -9.728768e-01 -2.036691e+00 -1.725769e+00 -1.018728e+01 3.555370e+00 -3.309073e+00 -6.169714e+00 -4.640121e-01 -1.853707e+00 8.231604e-02 -5.253477e+00 -4.291941e+00 5.492805e+01 -7.242808e-01 5.258003e-01 -2.466136e-01 1.713830e+00 3.934372e-01 3.890633e-01 5.578896e-01 2.817722e-01 5.987976e-01 -9.563106e-02 4.980756e-01 2.630885e-01 -1.642724e+00 -6.679775e-02 -2.495311e-01 -5.844744e-03 -1.811247e-01 -1.492208e-02 -4.962880e-02 1.674920e-01 5.569939e-03 1.237204e-01 -5.773478e-02 -9.605100e-02 1.105582e-01 2.963673e-01
<VARIANCE> 39
 5.621860e+01 7.710133e+01 6.481821e+01 9.562053e+01 6.049548e+01 9.277539e+01 5.480392e+01 6.659245e+01 8.147820e+01 9.451499e+01 7.809505e+01 3.346196e+01 2.658269e+02 3.884315e+00 7.842093e+00 3.039692e+00 8.087156e+00 5.900938e+00 8.529659e+00 5.605848e+00 6.497093e+00 7.302927e+00 5.713221e+00 4.860852e+00 2.779252e+00 2.991146e+01 6.743293e-01 1.192729e+00 5.937192e-01 1.360370e+00 1.206077e+00 1.489201e+00 9.967216e-01 1.230978e+00 1.482126e+00 9.994010e-01 7.493258e-01 4.899424e-01 3.528080e+00
<GCONST> 1.528943e+02
<STATE> 3
<MEAN> 39
 -1.735584e+00 -3.188462e+00 4.456398e-01 -4.836509e+00 8.879234e+00 -4.066490e+00 -9.159671e-01 1.020996e+00 -1.160319e+00 -2.176051e+00 -5.734503e+00 -1.870338e+00 6.232799e+01 -1.532141e-01 8.947843e-01 5.522786e-01 6.297585e-01 -2.516883e-02 2.229372e-01 6.137113e-01 1.608199e-01 2.121831e-01 4.529685e-02 4.083929e-01 3.186934e-01 -1.110758e+00 1.038239e-01 3.436700e-02 1.013691e-01 -8.950215e-02 -1.955240e-01 3.302424e-02 -1.423081e-01 -1.253417e-01 -7.033876e-02 -2.654351e-03 4.180248e-02 -1.148702e-01 -2.800818e-01
<VARIANCE> 39
 5.621860e+01 7.408064e+01 6.481821e+01 9.562053e+01 6.049548e+01 5.817999e+01 5.480392e+01 5.008425e+01 5.481493e+01 4.052781e+01 5.758591e+01 4.624973e+01 2.658269e+02 2.237194e+00 3.038964e+00 3.270958e+00 3.129044e+00 3.386028e+00 2.664105e+00 2.898687e+00 3.229823e+00 3.238226e+00 2.383868e+00 2.802450e+00 2.587495e+00 5.423140e+00 3.580279e-01 5.043988e-01 5.591815e-01 5.305912e-01 5.743207e-01 6.080966e-01 5.782704e-01 6.217409e-01 5.977231e-01 4.633625e-01 5.190539e-01 4.797872e-01 1.115231e+00
<GCONST> 1.328312e+02
<STATE> 4
<MEAN> 39
 -5.668698e+00 4.671504e+00 2.857278e+00 -3.745505e-01 1.118168e+00 -1.685780e+00 6.366033e-02 3.482353e-01 6.919762e-01 -3.915473e-01 -7.924930e-01 -2.748433e-01 3.647940e+01 -1.039641e-01 1.784976e-02 1.588293e-01 1.029922e-01 -2.236487e-02 2.930420e-02 -2.693856e-02 -1.217128e-01 -3.506339e-02 7.057952e-03 -1.660665e-02 -2.592938e-02 -2.136038e-01 2.612526e-02 -5.199187e-02 3.416274e-03 -2.445115e-02 3.819148e-02 -2.631011e-02 -6.197160e-02 -3.607383e-03 -5.837673e-02 -2.453937e-02 -4.630239e-02 -2.155732e-02 1.819492e-01
<VARIANCE> 39
 5.621860e+01 7.408064e+01 6.481821e+01 9.562053e+01 6.049548e+01 5.657086e+01 5.480392e+01 5.008425e+01 4.914367e+01 3.600889e+01 5.758591e+01 2.695450e+01 2.658269e+02 2.237194e+00 2.592087e+00 2.314184e+00 3.129044e+00 2.833982e+00 2.664105e+00 2.646528e+00 2.741223e+00 2.630443e+00 2.383868e+00 2.569609e+00 1.958500e+00 4.984552e+00 3.580279e-01 4.174158e-01 3.847587e-01 5.025513e-01 4.999610e-01 4.797978e-01 4.820749e-01 5.089008e-01 4.798635e-01 4.500161e-01 4.608459e-01 3.767788e-01 6.789643e-01
<GCONST> 1.279592e+02
<TRANSP> 5
 0.000000e+00 1.000000e+00 0.000000e+00 0.000000e+00 0.000000e+00
 0.000000e+00 8.439563e-01 1.560436e-01 0.000000e+00 0.000000e+00
 0.000000e+00 0.000000e+00 7.839459e-01 2.160541e-01 0.000000e+00
 0.000000e+00 0.000000e+00 0.000000e+00 9.355444e-01 6.445566e-02
 0.000000e+00 0.000000e+00 0.000000e+00 0.000000e+00 0.000000e+00
<ENDHMM>
~h "ae"
<BEGINHMM>
<NUMSTATES> 5
<STATE> 2
<MEAN> 39
 -8.874444e-01 8.633389e+00 6.668776e+00 1.696576e+00 1.423151e+00 2.785219e+00 1.404310e-01 -2.160394e-01 1.362065e+00 -2.610431e-01 -5.085581e-01 -1.544149e+00 3.975006e+01 -3.490441e-01 1.010737e-01 1.905281e-01 4.416104e-02 2.741100e-01 -6.421186e-02 1.548019e-01 1.422156e-01 5.065019e-02 2.253179e-02 6.032944e-02 -1.322052e-01 2.130664e-01 -2.099771e-01 -2.611546e-01 -6.562694e-02 -1.564409e-01 4.962007e-03 -1.830552e-01 -6.582567e-02 7.136763e-02 -8.424931e-02 -2.527338e-02 2.016603e-02 -4.047689e-02 2.980764e-01
<VARIANCE> 39
 5.621860e+01 7.408064e+01 6.481821e+01 9.562053e+01 6.049548e+01 5.657086e+01 5.480392e+01 5.008425e+01 4.914367e+01 3.600889e+01 5.758591e+01 2.695450e+01 2.658269e+02 2.237194e+00 2.592087e+00 2.314184e+00 3.129044e+00 2.833982e+00 2.664105e+00 2.646528e+00 2.741223e+00 2.630443e+00 2.383868e+00 2.569609e+00 2.030716e+00 4.984552e+00 3.580279e-01 4.174158e-01 3.847587e-01 5.025513e-01 4.999610e-01 4.797978e-01 4.820749e-01 5.089008e-01 4.798635e-01 4.500161e-01 4.608459e-01 4.220001e-01 6.789643e-01
<GCONST> 1.281088e+02
<STATE> 3
<MEAN> 39
 -9.059854e+00 3.527890e+00 3.950190e+00 -2.475927e+00 1.671322e+00 -2.669943e+00 2.952418e-01 1.426144e+00 1.524190e-01 -1.168984e+00 -5.373105e-01 -1.352286e+00 4.531558e+01 -4.705001e-01 -5.403595e-01 -2.247505e-01 -2.648357e-01 3.876849e-02 -5.019619e-01 -5.530354e-02 2.014595e-01 -1.022605e-01 -2.032377e-01 -8.423488e-02 6.197030e-02 1.340637e+00 1.902034e-01 1.109467e-01 -9.186425e-02 -6.514566e-02 -1.137331e-01 9.575994e-02 -4.861630e-02 -8.713065e-02 -2.066505e-02 -3.585311e-02 -1.576280e-02 2.293617e-02 -1.337533e-01
<VARIANCE> 39
 5.621860e+01 7.408064e+01 6.481821e+01 9.562053e+01 6.049548e+01 5.657086e+01 5.480392e+01 5.008425e+01 4.914367e+01 3.600889e+01 5.758591e+01 2.753485e+01 2.658269e+02 5.481121e+00 5.085734e+00 4.755292e+00 5.697174e+00 5.036901e+00 5.096052e+00 4.544672e+00 4.418656e+00 4.412357e+00 3.207340e+00 3.281810e+00 2.861908e+00 1.326463e+01 9.485226e-01 1.001539e+00 9.551151e-01 1.117679e+00 1.010687e+00 1.049169e+00 8.855612e-01 9.028888e-01 8.843968e-01 6.705042e-01 6.493449e-01 6.167541e-01 2.299815e+00
<GCONST> 1.448202e+02
<STATE> 4
<MEAN> 39
 -5.215942e+00 1.815793e+00 1.622168e+00 -2.821215e+00 -4.682090e-01 -2.708251e+00 7.459649e-01 1.291648e+00 -2.430766e+00 -3.212779e+00 4.097458e-01 -1.015869e+00 4.018002e+01 -8.034241e-03 7.233168e-02 -7.795376e-03 -6.570328e-03 -5.472980e-03 5.271642e-02 -3.761670e-02 -5.003512e-02 -1.861362e-02 -2.422953e-02 -2.041017e-02 -4.525743e-02 -1.349205e-02 -1.631739e-02 -2.110912e-02 4.782079e-02 -2.026353e-02 2.150006e-02 1.361330e-03 1.745232e-02 5.126345e-03 1.373173e-03 1.707293e-02 -1.859011e-02 -4.509734e-03 1.143220e-01
<VARIANCE> 39
 5.621860e+01 7.408064e+01 6.481821e+01 9.562053e+01 6.049548e+01 5.657086e+01 5.480392e+01 5.008425e+01 4.914367e+01 3.600889e+01 5.758591e+01 2.695450e+01 2.658269e+02 2.237194e+00 2.592087e+00 2.314184e+00 3.129044e+00 2.833982e+00 2.664105e+00 2.646528e+00 2.741223e+00 2.630443e+00 2.383868e+00 2.569609e+00 1.958500e+00 4.984552e+00 3.580279e-01 4.174158e-01 3.847587e-01 5.025513e-01 4.999610e-01 4.797978e-01 4.820749e-01 5.089008e-01 4.798635e-01 4.500161e-01 4.608459e-01 3.767788e-01 6.789643e-01
<GCONST> 1.279592e+02
<TRANSP> 5
 0.000000e+00 1.000000e+00 0.000000e+00 0.000000e+00 0.000000e+00
 0.000000e+00 7.512500e-01 2.487499e-01 0.000000e+00 0.000000e+00
 0.000000e+00 0.000000e+00 7.669079e-01 2.330921e-01 0.000000e+00
 0.000000e+00 0.000000e+00 0.000000e+00 9.184702e-01 8.152981e-02
 0.000000e+00 0.000000e+00 0.000000e+00 0.000000e+00 0.000000e+00
<ENDHMM>
~h "ah"
<BEGINHMM>
<NUMSTATES> 5
<STATE> 2
<MEAN> 39
 -4.237756e-01 -4.661864e+00 1.987858e+00 -5.121410e+00 4.180781e+00 -7.271666e+00 1.778843e+00 5.591676e+00 -2.861658e+00 -3.570762e+00 -7.240185e+00 -1.186065e+00 5.433946e+01 -9.418094e-02 3.492529e-01 -4.242874e-01 6.334367e-01 5.839568e-01 3.394585e-01 1.738003e-01 -6.917641e-02 1.563199e-01 -2.139723e-01 1.061708e-01 8.354148e-02 -1.128797e+00 -1.459290e-02 1.106955e-01 5.982399e-02 -1.148188e-02 -1.029981e-01 5.571180e-02 -4.912599e-02 -9.779833e-02 2.742133e-03 5.804919e-02 5.871730e-02 1.752739e-02 -3.370922e-02
<VARIANCE> 39
 5.621860e+01 7.408064e+01 6.481821e+01 9.562053e+01 8.840082e+01 5.657086e+01 5.480392e+01 6.721291e+01 4.914367e+01 6.120107e+01 5.758591e+01 5.106653e+01 2.658269e+02 2.237194e+00 2.592087e+00 2.314184e+00 3.129044e+00 2.971784e+00 2.664105e+00 2.646528e+00 2.741223e+00 2.630443e+00 2.473758e+00 2.569609e+00 2.494355e+00 4.984552e+00 3.580279e-01 4.174158e-01 3.847587e-01 5.025513e-01 4.999610e-01 4.797978e-01 4.820749e-01 5.089008e-01 4.798635e-01 4.500161e-01 4.608459e-01 4.667403e-01 6.789643e-01
<GCONST> 1.303425e+02
<STATE> 3
<MEAN> 39
 4.170564e+00 1.111802e+01 3.951198e+00 6.606384e-01 3.280112e+00 1.782147e+00 2.240519e+00 7.286761e-01 -2.767607e-01 -1.419270e+00 2.054695e-01 -1.196904e+00 4.010673e+01 -1.208863e-01 2.356051e-01 1.069522e-01 3.018301e-02 -1.811349e-01 9.892558e-02 -1.106811e-01 -6.578143e-02 8.496583e-02 1.323920e-01 6.907122e-02 8.986812e-03 -3.608875e-01 -7.880647e-02 -9.327025e-02 -2.035704e-02 -3.160377e-02 -6.481850e-03 -6.427414e-02 -3.811654e-02 -4.499196e-03 -1.198546e-02 -1.020812e-02 -2.048143e-02 -5.178351e-03 4.797293e-02
<VARIANCE> 39
 5.621860e+01 7.408064e+01 6.481821e+01 9.562053e+01 6.049548e+01 5.657086e+01 5.480392e+01 5.008425e+01 4.914367e+01 3.600889e+01 5.758591e+01 2.695450e+01 2.658269e+02 2.237194e+00 2.592087e+00 2.314184e+00 3.129044e+00 2.833982e+00 2.664105e+00 2.646528e+00 2.741223e+00 2.630443e+00 2.383868e+00 2.569609e+00 1.958500e+00 4.984552e+00 3.580279e-01 4.174158e-01 3.847587e-01 5.025513e-01 4.999610e-01 4.797978e-01 4.820749e-01 5.089008e-01 4.798635e-01 4.500161e-01 4.608459e-01 3.767788e-01 6.789643e-01
<GCONST> 1.279592e+02
<STATE> 4
<MEAN> 39
 -5.147568e+00 3.157419e+00 7.600262e-01 -1.304065e+00 -3.934038e-01 -2.227658e+00 -1.230694e+00 1.975651e-01 -1.480955e+00 -2.199929e+00 5.234066e-01 -1.055744e+00 3.483615e+01 -3.859746e-02 -3.438487e-02 -5.960354e-03 -5.067549e-02 -3.336541e-02 -2.219813e-02 -2.551612e-02 -2.828704e-02 -2.835491e-02 2.381773e-03 1.756982e-02 -5.740480e-03 5.288056e-03 2.203175e-02 8.151202e-03 1.744676e-02 4.981842e-03 1.650525e-02 8.263444e-03 1.590418e-02 1.532191e-02 2.571101e-04 -5.869755e-04 -1.206928e-02 -4.315915e-03 3.104001e-02
<VARIANCE> 39
 5.621860e+01 7.408064e+01 6.481821e+01 9.562053e+01 6.049548e+01 5.657086e+01 5.480392e+01 5.008425e+01 4.914367e+01 3.600889e+01 5.758591e+01 2.695450e+01 2.658269e+02 2.237194e+00 2.592087e+00 2.314184e+00 3.129044e+00 2.833982e+00 2.664105e+00 2.646528e+00 2.741223e+00 2.630443e+00 2.383868e+00 2.569609e+00 1.958500e+00 4.984552e+00 3.580279e-01 4.174158e-01 3.847587e-01 5.025513e-01 4.999610e-01 4.797978e-01 4.820749e-01 5.089008e-01 4.798635e-01 4.500161e-01 4.608459e-01 3.767788e-01 6.789643e-01
<GCONST> 1.279592e+02
<TRANSP> 5
 0.000000e+00 1.000000e+00 0.000000e+00 0.000000e+00 0.000000e+00
 0.000000e+00 9.161713e-01 8.382874e-02 0.000000e+00 0.000000e+00
 0.000000e+00 0.000000e+00 9.370725e-01 6.292751e-02 0.000000e+00
 0.000000e+00 0.000000e+00 0.000000e+00 9.733610e-01 2.663901e-02
 0.000000e+00 0.000000e+00 0.000000e+00 0.000000e+00 0.000000e+00
<ENDHMM>
~h "ao"
<BEGINHMM>
<NUMSTATES> 5
<STATE> 2
<MEAN> 39
 -3.566097e+00 3.238125e+00 -7.411705e+00 -1.049120e+01 8.411161e+00 3.353792e+00 -5.489460e+00 -1.710459e+00 -7.106878e+00 3.213516e+00 -6.340648e-01 -2.510839e+00 5.615378e+01 1.527370e+00 -8.524359e-01 -1.014877e+00 -2.773926e+00 5.377067e-01 1.829653e-01 -1.177024e+00 -2.746367e-01 -1.572635e+00 2.451203e-01 -5.799442e-01 -5.267293e-01 4.329592e+00 2.974283e-01 -1.143697e-01 4.630839e-01 -2.550889e-01 -4.199790e-01 -1.899012e-01 -3.712685e-02 -5.331061e-02 1.056314e-02 -9.283356e-02 -8.614837e-02 1.802077e-02 -2.099793e-01
<VARIANCE> 39
 5.621860e+01 7.408064e+01 6.481821e+01 9.562053e+01 6.049548e+01 5.657086e+01 5.480392e+01 5.008425e+01 4.914367e+01 4.728004e+01 5.758591e+01 3.189131e+01 2.658269e+02 4.062604e+00 5.444533e+00 1.010278e+01 6.414385e+00 9.136844e+00 6.144423e+00 4.768256e+00 3.734656e+00 3.624383e+00 3.646108e+00 5.489122e+00 3.111149e+00 1.675536e+01 6.552866e-01 1.151118e+00 1.679013e+00 1.202389e+00 1.457283e+00 1.002372e+00 9.105366e-01 6.253668e-01 7.076708e-01 6.374519e-01 8.478593e-01 5.279481e-01 3.805758e+00
<GCONST> 1.480345e+02
<STATE> 3
<MEAN> 39
 1.004203e+01 -2.748729e+00 1.490824e+00 -2.399721e+01 -2.492333e+00 6.427500e+00 -8.056971e+00 1.570484e-01 -8.703413e+00 6.355312e+00 5.542766e+00 -6.315907e+00 6.870355e+01 1.234589e-02 -2.381116e-01 2.415482e-01 -3.443331e-01 -8.194896e-02 -1.163396e-01 -4.723631e-02 -2.308333e-01 1.901870e-01 1.787450e-01 -3.290308e-01 -8.919922e-02 -1.702018e-02 -1.989440e-01 7.263803e-02 -8.457184e-02 2.581690e-01 1.721964e-01 -5.875387e-02 5.526395e-02 -4.234888e-02 7.757679e-02 -3.277764e-02 -1.006691e-01 6.466336e-03 -1.462787e-01
<VARIANCE> 39
 5.621860e+01 7.408064e+01 6.481821e+01 9.562053e+01 6.049548e+01 5.657086e+01 5.480392e+01 5.008425e+01 6.705962e+01 4.306920e+01 5.758591e+01 2.785279e+01 2.658269e+02 2.237194e+00 2.592087e+00 2.314184e+00 3.129044e+00 2.833982e+00 2.664105e+00 2.646528e+00 2.741223e+00 2.630443e+00 2.383868e+00 2.569609e+00 1.958500e+00 4.984552e+00 3.580279e-01 4.174158e-01 3.847587e-01 5.025513e-01 4.999610e-01 4.797978e-01 4.820749e-01 5.089008e-01 4.798635e-01 4.500161e-01 4.608459e-01 3.767788e-01 6.789643e-01
<GCONST> 1.284819e+02
<STATE> 4
<MEAN> 39
 4.697717e+00 -7.515397e+00 -5.885161e+00 -3.242244e+01 3.688718e+00 -3.691568e+00 -1.358720e+01 -6.680625e+00 -8.537236e+00 -2.904736e+00 -1.201926e+01 -3.516241e+00 7.278692e+01 -6.584057e-03 -6.369381e-02 1.840329e-01 1.730012e-01 -5.710607e-02 -2.584684e-01 -1.293371e-01 8.194150e-02 3.424040e-01 -2.047428e-01 -2.532676e-02 1.327113e-02 -1.087038e-01 -5.160683e-02 1.349503e-01 1.844051e-02 2.052952e-01 2.821872e-02 3.674962e-02 3.609998e-02 3.714145e-02 1.824925e-02 -2.146083e-02 7.802127e-02 -1.469507e-02 -1.143084e-01
<VARIANCE> 39
 5.621860e+01 7.408064e+01 6.481821e+01 9.562053e+01 6.049548e+01 5.657086e+01 7.165116e+01 7.747417e+01 4.914367e+01 3.600889e+01 5.758591e+01 2.695450e+01 2.658269e+02 2.237194e+00 2.592087e+00 2.314184e+00 3.129044e+00 2.833982e+00 2.664105e+00 2.646528e+00 2.741223e+00 2.630443e+00 2.383868e+00 2.569609e+00 1.958500e+00 4.984552e+00 3.580279e-01 4.174158e-01 3.847587e-01 5.025513e-01 4.999610e-01 4.797978e-01 4.820749e-01 5.089008e-01 4.798635e-01 4.500161e-01 4.608459e-01 3.767788e-01 6.789643e-01
<GCONST> 1.286635e+02
<TRANSP> 5
 0.000000e+00 1.000000e+00 0.000000e+00 0.000000e+00 0.000000e+00
 0.000000e+00 8.292775e-01 1.707225e-01 0.000000e+00 0.000000e+00
 0.000000e+00 0.000000e+00 8.953493e-01 1.046508e-01 0.000000e+00
 0.000000e+00 0.000000e+00 0.000000e+00 9.339662e-01 6.603380e-02
 0.000000e+00 0.000000e+00 0.000000e+00 0.000000e+00 0.000000e+00
<ENDHMM>
~h "ay"
<BEGINHMM>
<NUMSTATES> 5
<STATE> 2
<MEAN> 39
 -7.314203e+00 3.621228e+00 2.867998e+00 -2.913555e+00 -1.970776e+00 -3.628407e+00 -1.262829e+00 1.152433e+00 6.537536e-01 -2.117737e+00 -1.674866e+00 -7.881428e-01 4.625494e+01 6.762645e-02 -7.671481e-01 -8.913894e-02 -5.934541e-01 4.105124e-01 -2.352634e-01 -9.301265e-02 -1.965931e-01 -1.276512e-01 -6.822801e-02 -2.748721e-01 -3.030581e-02 1.001382e+00 3.373537e-01 -4.051604e-01 4.576622e-02 -4.454144e-01 -6.130040e-02 -9.189053e-02 -9.720840e-02 -5.273866e-02 -1.774582e-01 -1.123273e-02 -2.940571e-01 -4.749731e-02 4.228653e-01
<VARIANCE> 39
 5.621860e+01 7.408064e+01 6.481821e+01 9.562053e+01 6.049548e+01 5.657086e+01 5.480392e+01 7.374311e+01 4.946703e+01 3.600889e+01 5.758591e+01 3.795374e+01 2.658269e+02 5.476200e+00 6.355392e+00 3.833145e+00 7.463356e+00 5.179200e+00 5.994492e+00 4.291416e+00 9.225590e+00 5.535636e+00 3.557296e+00 6.293835e+00 3.887706e+00 1.678849e+01 8.426806e-01 1.155889e+00 7.198387e-01 1.380830e+00 9.674775e-01 1.004687e+00 8.560824e-01 1.956696e+00 1.039322e+00 6.690283e-01 1.322307e+00 8.515296e-01 2.795929e+00
<GCONST> 1.501979e+02
<STATE> 3
<MEAN> 39
 1.810860e+00 -8.671915e+00 1.914878e+00 -1.637033e+01 1.614314e+00 -7.617932e+00 -7.186037e+00 -5.936144e+00 -5.418747e+00 -3.041425e+00 -9.364985e+00 -3.067677e+00 6.894009e+01 1.564120e+00 -2.977237e+00 -1.869934e-01 -3.016777e+00 -2.413313e-01 -1.339951e+00 -2.969997e-01 4.181629e-02 -7.359639e-01 -6.706272e-01 -2.416525e+00 -6.081151e-01 3.447177e+00 -6.467811e-01 4.724891e-01 -6.977271e-03 7.633918e-01 -1.597301e-01 1.831742e-01 4.025110e-01 3.675273e-01 5.969213e-02 -3.027597e-01 1.933684e-01 7.181080e-02 -6.971517e-01
<VARIANCE> 39
 5.621860e+01 7.594592e+01 6.685535e+01 9.562053e+01 7.146761e+01 7.429179e+01 7.574685e+01 8.058877e+01 5.566430e+01 4.757126e+01 7.055856e+01 3.182392e+01 2.658269e+02 4.093773e+00 5.459567e+00 3.452937e+00 7.565541e+00 4.878860e+00 4.389579e+00 4.802536e+00 6.043633e+00 6.589492e+00 4.495819e+00 5.305041e+00 2.239985e+00 1.161241e+01 4.342090e-01 1.004986e+00 5.799931e-01 1.057171e+00 7.227461e-01 7.478453e-01 7.042665e-01 6.944082e-01 9.493375e-01 7.135524e-01 1.247005e+00 4.546701e-01 1.191408e+00
<GCONST> 1.449616e+02
<STATE> 4
<MEAN> 39
 -7.414650e-01 -1.318694e+01 4.382154e+00 -2.310678e+01 -3.040642e+00 -1.399806e+01 -2.882408e+00 -5.906771e+00 -8.903275e+00 -8.339087e+00 -1.385939e+01 -1.903097e+00 7.548224e+01 -1.102452e-01 4.965097e-01 5.407721e-01 2.779572e-02 -6.198301e-01 -2.322380e-01 2.856517e-01 7.300429e-02 -2.167036e-02 2.744080e-01 2.904881e-01 1.233122e-01 -2.307318e-01 -2.464537e-02 2.569591e-01 3.552527e-02 2.151155e-01 1.512027e-02 9.720396e-02 -5.127770e-02 -3.145548e-02 8.673537e-02 1.065714e-01 1.482830e-01 6.003983e-03 -2.528650e-01
<VARIANCE> 39
 5.621860e+01 7.622597e+01 8.069407e+01 9.562053e+01 6.656332e+01 5.657086e+01 6.197896e+01 6.836021e+01 4.914367e+01 5.901167e+01 5.758591e+01 2.695450e+01 2.658269e+02 2.237194e+00 2.592087e+00 2.314184e+00 3.171838e+00 2.833982e+00 2.664105e+00 2.646528e+00 2.741223e+00 2.630443e+00 2.897038e+00 2.569609e+00 1.958500e+00 4.984552e+00 3.580279e-01 4.174158e-01 3.847587e-01 5.551623e-01 4.999610e-01 4.797978e-01 4.820749e-01 5.089008e-01 4.798635e-01 4.500161e-01 4.608459e-01 3.767788e-01 6.789643e-01
<GCONST> 1.295386e+02
<TRANSP> 5
 0.000000e+00 1.000000e+00 0.000000e+00 0.000000e+00 0.000000e+00
 0.000000e+00 8.426486e-01 1.573514e-01 0.000000e+00 0.000000e+00
 0.000000e+00 0.000000e+00 6.701302e-01 3.298698e-01 0.000000e+00
 0.000000e+00 0.000000e+00 0.000000e+00 9.154985e-01 8.450148e-02
 0.000000e+00 0.000000e+00 0.000000e+00 0.000000e+00 0.000000e+00
<ENDHMM>
~h "ch"
<BEGINHMM>
<NUMSTATES> 5
<STATE> 2
<MEAN> 39
 -3.705586e+00 5.188378e+00 2.721344e+00 -4.280640e+00 -7.432767e+00 -5.073268e+00 -3.069594e+00 -5.113581e-01 2.048738e+00 6.242155e-01 2.207633e-01 1.347654e+00 3.547868e+01 -8.197230e-01 2.118727e-01 -7.541242e-01 -8.664261e-02 4.997801e-01 3.910473e-01 1.629573e-01 -2.135262e-02 2.344026e-01 3.106923e-01 5.199565e-01 -1.199666e-01 -1.164729e+00 7.275223e-02 -2.252782e-02 2.063325e-01 8.438788e-02 2.400370e-01 1.049364e-01 1.873996e-02 -3.395222e-02 -2.528553e-01 -1.819851e-01 -2.240369e-01 -2.987143e-01 5.879651e-01
<VARIANCE> 39
 5.621860e+01 7.408064e+01 6.481821e+01 9.562053e+01 6.049548e+01 5.657086e+01 5.480392e+01 5.008425e+01 4.914367e+01 3.600889e+01 5.758591e+01 2.695450e+01 2.658269e+02 2.237194e+00 2.592087e+00 2.314184e+00 3.129044e+00 2.833982e+00 2.664105e+00 2.646528e+00 2.741223e+00 2.630443e+00 2.383868e+00 2.569609e+00 2.082659e+00 4.984552e+00 3.580279e-01 4.174158e-01 3.847587e-01 5.025513e-01 4.999610e-01 4.797978e-01 4.820749e-01 5.089008e-01 4.798635e-01 4.563832e-01 4.608459e-01 3.835072e-01 6.789643e-01
<GCONST> 1.280524e+02
<STATE> 3
<MEAN> 39
 -7.967460e+00 5.149121e+00 5.359100e+00 -2.871501e+00 -2.238215e+00 -5.534971e-02 -1.896348e+00 -1.676377e+00 -1.630775e+00 5.725197e-01 -1.280004e+00 -4.263829e+00 3.928121e+01 -2.030485e-01 -9.847482e-02 -6.901589e-02 8.536312e-02 4.360279e-01 3.481044e-01 1.644050e-01 -4.265369e-02 -6.057382e-02 -3.721747e-01 -3.664302e-01 -3.753565e-01 4.211011e-02 2.330076e-01 6.094207e-02 -4.840101e-02 7.480117e-02 -1.267983e-01 -1.280170e-01 1.782939e-02 3.550707e-02 3.286494e-02 -9.347767e-02 3.899772e-02 3.303518e-01 -2.074090e-01
<VARIANCE> 39
 5.621860e+01 7.408064e+01 6.481821e+01 9.562053e+01 6.049548e+01 5.657086e+01 5.480392e+01 5.008425e+01 4.914367e+01 3.600889e+01 5.758591e+01 2.888151e+01 2.658269e+02 2.237194e+00 2.592087e+00 2.314184e+00 3.129044e+00 2.833982e+00 2.664105e+00 2.646528e+00 2.741223e+00 2.630443e+00 2.383868e+00 2.569609e+00 2.928837e+00 4.984552e+00 3.829050e-01 4.174158e-01 3.847587e-01 5.025513e-01 4.999610e-01 4.797978e-01 4.820749e-01 5.089008e-01 4.798635e-01 4.689488e-01 4.608459e-01 5.054054e-01 6.789643e-01
<GCONST> 1.288328e+02
<STATE> 4
<MEAN> 39
 -5.812490e+00 3.811948e+00 8.050889e-01 -1.347028e+00 -9.596459e-01 -1.255205e+00 -1.099082e+00 -2.138684e-01 -9.369773e-01 -2.126648e+00 5.372404e-01 -2.636082e-01 3.347036e+01 2.818112e-02 5.813983e-02 1.022481e-02 7.588923e-02 3.074068e-02 3.682640e-02 5.336713e-02 1.690918e-02 3.784928e-02 1.536553e-02 3.447305e-02 5.144112e-02 -6.012850e-02 3.916821e-03 1.521244e-02 3.243951e-02 4.112815e-03 1.651593e-02 4.259153e-03 9.705385e-03 2.814503e-03 1.357756e-02 2.760171e-02 -2.102120e-03 -1.955342e-02 4.594840e-02
<VARIANCE> 39
 5.621860e+01 7.408064e+01 6.481821e+01 9.562053e+01 6.049548e+01 5.657086e+01 5.480392e+01 5.008425e+01 4.914367e+01 3.600889e+01 5.758591e+01 2.695450e+01 2.658269e+02 2.237194e+00 2.592087e+00 2.314184e+00 3.129044e+00 2.833982e+00 2.664105e+00 2.646528e+00 2.741223e+00 2.630443e+00 2.383868e+00 2.569609e+00 1.958500e+00 4.984552e+00 3.580279e-01 4.174158e-01 3.847587e-01 5.025513e-01 4.999610e-01 4.797978e-01 4.820749e-01 5.089008e-01 4.798635e-01 4.500161e-01 4.608459e-01 3.767788e-01 6.789643e-01
<GCONST> 1.279592e+02
<TRANSP> 5
 0.000000e+00 1.000000e+00 0.000000e+00 0.000000e+00 0.000000e+00
 0.000000e+00 7.202566e-01 2.797434e-01 0.000000e+00 0.000000e+00
 0.000000e+00 0.000000e+00 6.581242e-01 3.418757e-01 0.000000e+00
 0.000000e+00 0.000000e+00 0.000000e+00 9.521284e-01 4.787170e-02
 0.000000e+00 0.000000e+00 0.000000e+00 0.000000e+00 0.000000e+00
<ENDHMM>
~h "eh"
<BEGINHMM>
<NUMSTATES> 5
<STATE> 2
<MEAN> 39
 -1.582689e+01 1.349553e+01 -2.388731e+00 1.094102e+00 2.645485e-01 -2.629454e+00 2.471334e+00 -1.777292e+00 -1.424317e+00 -3.441424e+00 5.178046e-01 -2.616318e+00 6.256318e+01 4.283686e-01 3.490457e-02 1.601186e-01 -2.486809e-01 -9.861103e-02 -3.790108e-01 -3.337803e-01 -3.315356e-02 2.531973e-01 1.872642e-01 9.474422e-02 1.749286e-01 1.027853e+00 1.037544e+00 -8.649238e-01 5.798535e-01 -7.213316e-01 -5.803499e-01 -6.157626e-01 -4.846845e-01 2.636594e-02 -3.406732e-01 2.742607e-02 -5.253544e-01 7.885817e-02 3.353366e-01
<VARIANCE> 39
 5.621860e+01 7.408064e+01 6.481821e+01 9.562053e+01 6.049548e+01 5.657086e+01 5.480392e+01 5.008425e+01 4.914367e+01 3.600889e+01 5.758591e+01 2.695450e+01 2.658269e+02 1.110512e+01 3.483582e+00 4.160605e+00 3.588644e+00 3.235308e+00 3.563790e+00 2.646528e+00 2.741223e+00 2.650852e+00 2.690822e+00 3.358505e+00 1.958500e+00 4.984552e+00 5.954180e-01 6.565351e-01 4.316125e-01 9.150854e-01 5.500480e-01 8.726114e-01 5.535302e-01 5.408656e-01 5.930341e-01 5.902050e-01 6.995909e-01 3.829373e-01 7.519666e-01
<GCONST> 1.349879e+02
<STATE> 3
<MEAN> 39
 -7.496385e+00 9.117685e+00 3.734490e+00 -2.444282e+00 -2.890329e+00 -5.381760e+00 -1.597941e+00 -2.707526e+00 -2.273575e+00 -3.017959e+00 -2.381764e+00 -2.083997e+00 6.202765e+01 3.585496e+00 -3.689511e+00 2.160798e+00 -3.047503e+00 -2.632959e+00 -2.477245e+00 -1.730250e+00 3.246790e-01 -1.237348e+00 1.793805e-01 -2.105450e+00 3.753287e-01 3.094046e+00 7.802142e-02 -9.195229e-01 8.536125e-02 -6.197457e-01 -3.610272e-01 -1.225789e-01 -6.544702e-03 3.656148e-01 -3.458234e-01 7.961054e-02 -3.769981e-01 6.756076e-03 2.258793e-01
<VARIANCE> 39
 5.621860e+01 7.408064e+01 6.481821e+01 9.562053e+01 6.049548e+01 5.657086e+01 5.480392e+01 5.008425e+01 4.914367e+01 3.600889e+01 5.758591e+01 2.695450e+01 2.658269e+02 7.796603e+00 8.251948e+00 3.417166e+00 8.799891e+00 6.633081e+00 7.295043e+00 5.033524e+00 5.958899e+00 4.240776e+00 3.901619e+00 6.583821e+00 3.278091e+00 9.989621e+00 1.162970e+00 1.123387e+00 5.130762e-01 8.892880e-01 8.657485e-01 8.367090e-01 5.949982e-01 7.297153e-01 7.829053e-01 5.861373e-01 8.023189e-01 4.532334e-01 1.604086e+00
<GCONST> 1.452433e+02
<STATE> 4
<MEAN> 39
 8.553728e-01 -3.832176e+00 1.083835e+01 -1.625882e+01 -9.702082e+00 -1.381670e+01 -4.086158e+00 -4.146056e+00 -7.865147e+00 -2.363736e+00 -8.930496e+00 -2.367188e+00 6.990800e+01 5.794200e-01 -6.638802e-01 2.463687e-01 -4.709463e-01 -1.359938e-01 -4.164464e-01 -3.048807e-02 2.611146e-01 -4.180436e-01 -5.727191e-02 -7.200594e-01 -8.076906e-03 2.386584e-01 -5.657088e-01 5.946249e-01 -3.182266e-01 5.528134e-01 4.226269e-01 4.628098e-01 2.567187e-01 -4.406842e-02 1.696231e-01 -1.329022e-01 3.296449e-01 -1.142415e-01 -4.242977e-01
<VARIANCE> 39
 5.621860e+01 7.408064e+01 6.481821e+01 1.061495e+02 6.238272e+01 8.179083e+01 7.177643e+01 1.021297e+02 4.914367e+01 5.024385e+01 6.712926e+01 3.735514e+01 2.658269e+02 2.816896e+00 9.799451e+00 3.372011e+00 1.083203e+01 4.398380e+00 4.972862e+00 4.215059e+00 4.131670e+00 3.819639e+00 3.283269e+00 4.520454e+00 2.583921e+00 7.739711e+00 6.073834e-01 8.284267e-01 5.731775e-01 9.779072e-01 6.661718e-01 8.256756e-01 8.215547e-01 6.825300e-01 6.123329e-01 6.300295e-01 6.502753e-01 4.729510e-01 8.845075e-01
<GCONST> 1.427024e+02
<TRANSP> 5
 0.000000e+00 1.000000e+00 0.000000e+00 0.000000e+00 0.000000e+00
 0.000000e+00 6.338431e-01 3.661569e-01 0.000000e+00 0.000000e+00
 0.000000e+00 0.000000e+00 5.865560e-01 4.134440e-01 0.000000e+00
 0.000000e+00 0.000000e+00 0.000000e+00 8.373326e-01 1.626674e-01
 0.000000e+00 0.000000e+00 0.000000e+00 0.000000e+00 0.000000e+00
<ENDHMM>
~h "er"
<BEGINHMM>
<NUMSTATES> 5
<STATE> 2
<MEAN> 39
 3.758472e+00 -5.570910e+00 1.463658e+00 5.045506e+00 1.126322e+00 -2.353182e+00 -8.165406e-01 7.236104e+00 -1.763902e-01 -2.735018e+00 -4.923665e+00 -8.242249e-01 4.860213e+01 -3.026674e-02 6.852804e-01 -2.194304e-01 -1.135634e-01 4.933949e-01 1.851773e-01 2.239584e-01 -2.969202e-01 -7.372653e-02 8.535206e-02 -1.627839e-02 -6.611105e-02 -7.805341e-01 -4.104974e-02 1.178901e-01 8.153196e-02 -1.359508e-02 -5.235143e-02 -5.793334e-03 -2.983279e-02 -6.732219e-02 3.269494e-03 3.570482e-02 3.774940e-02 -3.607151e-02 -5.898230e-03
<VARIANCE> 39
 5.621860e+01 7.408064e+01 6.481821e+01 9.562053e+01 6.663812e+01 5.657086e+01 5.480392e+01 5.008425e+01 4.914367e+01 4.452500e+01 5.758591e+01 3.010106e+01 2.658269e+02 2.237194e+00 2.592087e+00 2.314184e+00 3.129044e+00 2.833982e+00 2.664105e+00 2.646528e+00 2.741223e+00 2.630443e+00 2.383868e+00 2.569609e+00 1.958500e+00 4.984552e+00 3.580279e-01 4.174158e-01 3.847587e-01 5.025513e-01 4.999610e-01 4.797978e-01 4.820749e-01 5.089008e-01 4.798635e-01 4.500161e-01 4.608459e-01 3.767788e-01 6.789643e-01
<GCONST> 1.283786e+02
<STATE> 3
<MEAN> 39
 3.499683e+00 1.169031e+01 4.915051e+00 4.863379e-01 3.813587e+00 2.195843e+00 2.321755e+00 1.159321e+00 2.621831e-01 -2.091859e+00 5.109179e-02 -1.487090e+00 3.975595e+01 -2.044044e-01 1.512451e-01 6.210934e-02 -4.610423e-02 -1.277965e-01 4.245124e-02 -5.262122e-02 -5.419122e-02 -2.881265e-02 9.697176e-02 6.345703e-02 3.732506e-02 -2.240157e-01 -2.666843e-02 -8.560768e-02 -2.770231e-02 -7.819917e-03 9.988754e-04 -1.978875e-02 -1.964706e-02 1.632451e-02 -5.213851e-04 -2.469925e-02 -3.235650e-03 1.855102e-02 1.490922e-02
<VARIANCE> 39
 5.621860e+01 7.408064e+01 6.481821e+01 9.562053e+01 6.049548e+01 5.657086e+01 5.480392e+01 5.008425e+01 4.914367e+01 3.600889e+01 5.758591e+01 2.695450e+01 2.658269e+02 2.237194e+00 2.592087e+00 2.314184e+00 3.129044e+00 2.833982e+00 2.664105e+00 2.646528e+00 2.741223e+00 2.630443e+00 2.383868e+00 2.569609e+00 1.958500e+00 4.984552e+00 3.580279e-01 4.174158e-01 3.847587e-01 5.025513e-01 4.999610e-01 4.797978e-01 4.820749e-01 5.089008e-01 4.798635e-01 4.500161e-01 4.608459e-01 3.767788e-01 6.789643e-01
<GCONST> 1.279592e+02
<STATE> 4
<MEAN> 39
 -4.904845e+00 -7.433679e-01 1.287084e-01 -3.038162e+00 7.399610e-02 -3.662969e+00 -1.335873e+00 1.964115e+00 -2.989706e+00 -4.233967e+00 -5.805453e-01 -8.752816e-01 3.851401e+01 -5.681424e-03 -3.647263e-02 -4.666128e-02 -8.516070e-03 -3.553041e-02 -4.045667e-02 1.605753e-02 2.265813e-02 -1.212438e-02 -2.677739e-02 -2.725988e-02 -1.007529e-02 4.593736e-02 4.256565e-03 3.872297e-02 1.610696e-02 1.499474e-02 1.911428e-02 1.381832e-02 2.735800e-02 2.064001e-03 2.035778e-02 2.186130e-02 1.417247e-02 5.070869e-03 2.330422e-03
<VARIANCE> 39
 5.621860e+01 7.408064e+01 6.481821e+01 9.562053e+01 6.049548e+01 5.657086e+01 5.480392e+01 5.008425e+01 4.914367e+01 3.600889e+01 5.758591e+01 2.695450e+01 2.658269e+02 2.237194e+00 2.592087e+00 2.314184e+00 3.129044e+00 2.833982e+00 2.664105e+00 2.646528e+00 2.741223e+00 2.630443e+00 2.383868e+00 2.569609e+00 1.958500e+00 4.984552e+00 3.580279e-01 4.174158e-01 3.847587e-01 5.025513e-01 4.999610e-01 4.797978e-01 4.820749e-01 5.089008e-01 4.798635e-01 4.500161e-01 4.608459e-01 3.767788e-01 6.789643e-01
<GCONST> 1.279592e+02
<TRANSP> 5
 0.000000e+00 1.000000e+00 0.000000e+00 0.000000e+00 0.000000e+00
 0.000000e+00 9.145560e-01 8.544400e-02 0.000000e+00 0.000000e+00
 0.000000e+00 0.000000e+00 9.602656e-01 3.973435e-02 0.000000e+00
 0.000000e+00 0.000000e+00 0.000000e+00 9.729376e-01 2.706232e-02
 0.000000e+00 0.000000e+00 0.000000e+00 0.000000e+00 0.000000e+00
<ENDHMM>
~h "ey"
<BEGINHMM>
<NUMSTATES> 5
<STATE> 2
<MEAN> 39
 1.204814e+00 -2.145320e+00 1.171279e+01 -1.123798e+01 -9.902864e+00 -8.998775e+00 -2.825673e+00 1.435345e+00 -6.095211e+00 -1.034889e+00 -4.124179e+00 -2.199274e+00 6.396498e+01 1.357593e-01 1.697570e+00 1.498473e+00 7.151953e-01 -7.086163e-01 5.359014e-01 -7.986137e-01 -9.553823e-01 -2.166005e-01 2.230663e-01 6.299061e-01 1.040163e-01 -1.187301e+00 -1.986431e-01 2.390539e-02 -2.879467e-02 -6.985601e-03 1.653078e-01 3.388919e-01 -1.448788e-01 -1.209685e-01 -2.417371e-02 4.880844e-02 -1.069963e-01 -4.465103e-02 -3.919857e-01
<VARIANCE> 39
 5.621860e+01 8.207557e+01 6.481821e+01 9.562053e+01 7.802377e+01 7.835062e+01 5.480392e+01 8.438886e+01 4.914367e+01 4.317255e+01 5.758591e+01 2.695450e+01 2.658269e+02 2.237194e+00 2.747547e+00 4.334045e+00 4.130273e+00 4.010675e+00 2.876661e+00 3.290521e+00 4.001276e+00 3.205281e+00 4.534127e+00 3.329642e+00 1.958500e+00 9.239273e+00 3.580279e-01 4.256876e-01 3.847587e-01 5.025513e-01 5.949303e-01 4.797978e-01 5.845206e-01 6.828350e-01 4.798635e-01 8.153946e-01 5.065306e-01 3.767788e-01 7.706321e-01
<GCONST> 1.345409e+02
<STATE> 3
<MEAN> 39
 3.484875e+00 4.718735e+00 1.911937e+01 -8.460873e+00 -9.393650e+00 -3.650838e+00 -1.121316e+01 -2.998395e+00 -1.123823e+01 2.392728e-01 -3.555232e+00 -3.834222e+00 5.956473e+01 2.897821e-01 2.575279e-01 -4.921669e-01 3.409119e-01 6.361102e-01 3.180791e-01 -2.928575e-01 1.106295e-01 7.924810e-02 9.305640e-02 2.779845e-01 -1.116613e-01 -9.070715e-01 -1.409736e-01 -1.045782e-01 -3.010451e-01 -4.444422e-02 1.292466e-01 -4.536733e-02 1.443322e-01 1.099283e-01 1.202602e-01 5.118096e-02 1.019032e-01 6.412648e-02 -5.154409e-03
<VARIANCE> 39
 5.621860e+01 7.408064e+01 6.703358e+01 9.562053e+01 7.175312e+01 5.881833e+01 5.739384e+01 6.221173e+01 5.273570e+01 3.895677e+01 6.885802e+01 2.701784e+01 2.658269e+02 2.237194e+00 2.592087e+00 3.102196e+00 3.129044e+00 3.133552e+00 3.315276e+00 2.777844e+00 2.875914e+00 3.190212e+00 2.383868e+00 2.569609e+00 1.958500e+00 4.984552e+00 3.580279e-01 4.174158e-01 3.847587e-01 5.025513e-01 5.302852e-01 5.236093e-01 5.494121e-01 6.217175e-01 5.532937e-01 4.620435e-01 4.608459e-01 3.767788e-01 6.789643e-01
<GCONST> 1.303434e+02
<STATE> 4
<MEAN> 39
 -5.292111e+00 4.991773e+00 4.125025e+00 -2.713272e+00 -2.280554e+00 -1.554528e+00 -5.908546e-01 -9.801812e-02 -1.699360e+00 -6.198938e-01 8.278037e-01 -8.078120e-01 3.682386e+01 -1.893903e-01 2.512981e-02 -2.005669e-01 8.477632e-02 2.700149e-01 1.197857e-01 2.499581e-02 -1.872646e-02 1.203591e-01 -3.730070e-02 7.065493e-02 7.397286e-02 -2.063528e-01 -8.745704e-03 -2.614462e-02 6.381452e-02 -2.558436e-02 -3.302785e-03 -8.963891e-02 -1.228798e-02 -1.582339e-02 -6.555912e-02 -6.997786e-02 -4.028580e-02 1.015009e-02 2.108248e-01
<VARIANCE> 39
 5.621860e+01 7.408064e+01 6.481821e+01 9.562053e+01 6.049548e+01 5.657086e+01 5.480392e+01 5.008425e+01 4.914367e+01 3.600889e+01 5.758591e+01 2.695450e+01 2.658269e+02 2.237194e+00 2.592087e+00 2.314184e+00 3.129044e+00 2.833982e+00 2.664105e+00 2.646528e+00 2.741223e+00 2.630443e+00 2.412124e+00 2.569609e+00 1.958500e+00 4.984552e+00 3.580279e-01 4.174158e-01 3.847587e-01 5.025513e-01 4.999610e-01 4.797978e-01 4.956235e-01 5.089008e-01 4.798635e-01 4.992658e-01 4.608459e-01 3.767788e-01 6.789643e-01
<GCONST> 1.281026e+02
<TRANSP> 5
 0.000000e+00 1.000000e+00 0.000000e+00 0.000000e+00 0.000000e+00
 0.000000e+00 5.617113e-01 4.382887e-01 0.000000e+00 0.000000e+00
 0.000000e+00 0.000000e+00 7.993829e-01 2.006171e-01 0.000000e+00
 0.000000e+00 0.000000e+00 0.000000e+00 8.669519e-01 1.330480e-01
 0.000000e+00 0.000000e+00 0.000000e+00 0.000000e+00 0.000000e+00
<ENDHMM>
~h "hh"
<BEGINHMM>
<NUMSTATES> 5
<STATE> 2
<MEAN> 39
 -7.864825e-01 -8.825993e+00 4.712993e-01 -5.615523e+00 1.554970e+00 -1.473446e+00 -7.248178e-01 2.245358e+00 -1.311913e+00 -3.018965e+00 -2.939732e+00 -6.382461e+00 6.466758e+01 -4.760045e-01 -1.212433e-01 3.963995e-01 1.449600e-02 -4.853262e-02 -8.932172e-02 3.170031e-01 -6.200293e-02 -4.642068e-01 9.185030e-02 3.271321e-01 -6.844993e-02 7.788056e-01 -1.472569e-01 3.750942e-01 2.243235e-02 2.618355e-01 7.141288e-04 9.129924e-02 1.590938e-01 5.125722e-02 1.603185e-01 1.488530e-01 1.392222e-01 1.102772e-01 -1.163536e-01
<VARIANCE> 39
 5.621860e+01 7.408064e+01 6.481821e+01 9.562053e+01 2.624766e+02 5.657086e+01 5.480392e+01 5.008425e+01 4.914367e+01 3.600889e+01 5.758591e+01 3.623022e+01 2.658269e+02 3.410161e+00 5.100021e+00 2.314184e+00 3.129044e+00 8.137331e+00 2.664105e+00 3.309803e+00 3.823759e+00 2.630443e+00 2.383868e+00 3.722664e+00 2.384608e+00 4.984552e+00 4.701895e-01 4.174158e-01 3.935932e-01 5.025513e-01 9.697401e-01 4.797978e-01 4.820749e-01 5.227650e-01 4.999580e-01 4.500161e-01 7.020103e-01 3.767788e-01 6.789643e-01
<GCONST> 1.344462e+02
<STATE> 3
<MEAN> 39
 -1.253720e+01 1.319661e+00 -8.859574e-01 1.238810e+00 7.629576e+00 -9.502460e-01 4.134857e+00 -1.735572e-02 -2.059228e+00 -6.196244e-01 1.466508e+00 -7.631817e-01 6.181441e+01 8.093229e-02 -3.978167e-01 -6.710885e-01 -2.711998e-01 -3.193615e-02 1.996248e-01 -2.537630e-01 -2.041015e-01 -2.275800e-01 4.564680e-01 -4.146462e-01 5.795326e-01 2.096890e-01 5.666167e-01 5.844285e-03 1.720660e-01 -2.928757e-01 -5.077846e-01 -2.095484e-01 -3.814792e-01 -2.028654e-01 -2.621743e-01 -2.843458e-01 -1.413713e-01 -5.880428e-02 -5.680199e-02
<VARIANCE> 39
 5.621860e+01 1.212831e+02 7.891348e+01 9.562053e+01 9.085832e+01 5.657086e+01 5.480392e+01 5.008425e+01 4.914367e+01 3.600889e+01 5.758591e+01 3.632127e+01 2.658269e+02 5.863186e+00 4.093520e+00 5.219807e+00 5.545905e+00 7.679738e+00 3.984049e+00 5.793452e+00 3.108304e+00 2.854506e+00 2.383868e+00 2.569609e+00 2.848134e+00 7.410736e+00 4.650168e-01 7.834276e-01 8.184614e-01 6.995298e-01 1.338763e+00 9.220952e-01 9.340602e-01 6.276456e-01 5.394993e-01 4.500161e-01 5.819947e-01 7.620168e-01 1.411119e+00
<GCONST> 1.415939e+02
<STATE> 4
<MEAN> 39
 9.050523e+00 7.086636e+00 -5.059393e-01 -1.530540e+01 -1.254802e+00 8.712634e+00 -5.959167e+00 -2.068611e+00 -7.080495e+00 -1.434057e+00 1.935928e+00 4.989042e+00 5.893927e+01 -2.756032e-02 1.748887e-01 1.049301e-01 -1.308536e-01 2.359574e-01 -1.546132e-01 3.333387e-01 -4.819906e-02 4.084849e-02 -2.820539e-01 -4.550505e-02 -1.020065e-01 -4.044397e-01 -1.050837e-01 -1.861530e-01 -2.316264e-01 -4.512078e-02 -2.097802e-02 -2.232183e-01 1.104940e-02 -2.556434e-02 -9.514263e-03 -1.083421e-01 -7.328354e-02 -1.582309e-01 3.514385e-02
<VARIANCE> 39
 8.658707e+01 7.408064e+01 6.481821e+01 9.562053e+01 1.247489e+02 5.657086e+01 5.480392e+01 5.008425e+01 4.914367e+01 3.600889e+01 5.758591e+01 2.695450e+01 2.658269e+02 5.501771e+00 3.352486e+00 2.314184e+00 3.129044e+00 6.599551e+00 3.469664e+00 3.163136e+00 2.741223e+00 2.630443e+00 3.137084e+00 2.569609e+00 1.958500e+00 4.984552e+00 6.403094e-01 5.722623e-01 3.969715e-01 5.025513e-01 1.055565e+00 6.631012e-01 6.141958e-01 5.089008e-01 5.411388e-01 4.500161e-01 4.608459e-01 3.767788e-01 6.789643e-01
<GCONST> 1.341957e+02
<TRANSP> 5
 0.000000e+00 1.000000e+00 0.000000e+00 0.000000e+00 0.000000e+00
 0.000000e+00 8.693669e-01 1.306331e-01 0.000000e+00 0.000000e+00
 0.000000e+00 0.000000e+00 8.281478e-01 1.718522e-01 0.000000e+00
 0.000000e+00 0.000000e+00 0.000000e+00 8.300920e-01 1.699080e-01
 0.000000e+00 0.000000e+00 0.000000e+00 0.000000e+00 0.000000e+00
<ENDHMM>
~h "ih"
<BEGINHMM>
<NUMSTATES> 5
<STATE> 2
<MEAN> 39
 -4.312387e+00 3.964224e+00 1.267753e+01 -1.025599e+01 -7.782547e+00 -8.429273e+00 -5.953236e+00 -9.706632e+00 -5.952982e+00 -1.389639e+00 -8.087605e+00 -1.106350e+00 5.982054e+01 7.943711e-01 -6.239734e-01 6.768698e-01 -2.752002e-01 -4.466070e-01 -4.560376e-01 -3.887614e-01 8.999033e-02 -1.927986e-01 1.621777e-01 -1.020317e-01 1.682490e-01 2.015070e-01 -4.246361e-02 -1.099115e-01 -1.400144e-01 -9.966219e-02 3.485396e-02 9.870259e-02 4.439085e-02 1.926560e-01 6.067131e-02 5.402096e-02 -3.576236e-02 1.196232e-02 -9.625408e-02
<VARIANCE> 39
 5.621860e+01 7.408064e+01 8.111448e+01 1.106872e+02 6.049548e+01 6.790134e+01 5.480392e+01 8.522442e+01 5.827950e+01 3.967401e+01 8.694904e+01 3.145938e+01 2.658269e+02 5.392663e+00 6.778419e+00 8.291500e+00 1.283518e+01 7.396578e+00 6.319347e+00 6.104273e+00 6.323594e+00 5.190334e+00 4.973480e+00 8.325989e+00 3.372467e+00 1.769487e+01 7.968616e-01 1.096895e+00 1.073574e+00 1.912396e+00 1.086184e+00 1.021503e+00 1.051718e+00 1.036829e+00 7.968758e-01 9.008486e-01 1.245271e+00 6.630827e-01 2.351771e+00
<GCONST> 1.534575e+02
<STATE> 3
<MEAN> 39
 6.327838e-01 1.313173e+00 1.821251e+01 -5.513287e+00 -1.272408e+01 -5.335566e+00 -6.004811e+00 -2.282592e+00 -1.010034e+01 9.645606e-01 -1.685033e+00 -4.365596e+00 6.067854e+01 9.117378e-02 1.072741e-01 -6.359280e-01 2.862039e-01 4.926960e-01 3.295039e-02 1.683532e-01 1.738923e-01 5.351111e-01 1.024450e-01 -2.001640e-01 2.693503e-01 -1.375575e+00 -2.464063e-01 2.044582e-01 -4.117870e-01 1.496909e-01 3.572669e-01 6.926601e-02 1.460710e-01 -8.849733e-02 2.681550e-01 -1.138329e-01 -7.395906e-02 7.471183e-02 -2.016400e-01
<VARIANCE> 39
 5.621860e+01 7.408064e+01 7.046043e+01 9.562053e+01 6.074156e+01 7.038011e+01 5.480392e+01 6.168869e+01 5.319759e+01 3.835985e+01 6.952360e+01 4.568365e+01 2.658269e+02 2.515448e+00 3.518207e+00 3.998708e+00 4.326555e+00 5.205729e+00 3.526795e+00 4.001014e+00 4.036852e+00 3.572558e+00 2.383868e+00 3.148684e+00 2.618762e+00 9.927493e+00 5.949112e-01 6.166946e-01 7.088097e-01 9.500088e-01 1.040123e+00 8.054295e-01 8.897384e-01 7.223598e-01 6.960649e-01 5.812805e-01 7.335730e-01 5.231626e-01 1.464599e+00
<GCONST> 1.403528e+02
<STATE> 4
<MEAN> 39
 3.684212e-01 6.598395e-01 1.478818e+01 -1.631055e+01 -7.115324e+00 -9.121908e+00 -7.778346e+00 -7.391471e+00 -7.590127e+00 -2.229010e-01 -1.367687e+01 1.260013e+00 6.259416e+01 -1.013785e-02 4.059776e-01 -4.230669e-01 7.418121e-01 4.848313e-01 5.964575e-01 2.387042e-01 1.356669e-01 4.264883e-01 -4.772003e-01 3.196813e-01 2.550529e-02 -1.052065e+00 -1.302658e-01 5.638702e-02 -2.526302e-02 1.492442e-01 3.665431e-02 8.697837e-02 3.602377e-02 1.762700e-02 1.534283e-02 -2.366623e-02 2.054508e-01 -3.095183e-02 -5.200830e-02
<VARIANCE> 39
 5.621860e+01 7.418585e+01 8.689523e+01 1.081720e+02 6.049548e+01 7.149914e+01 5.480392e+01 7.013291e+01 5.924128e+01 6.435794e+01 6.337150e+01 3.479207e+01 2.658269e+02 2.237194e+00 2.592087e+00 2.386576e+00 3.339774e+00 2.833982e+00 2.782791e+00 2.646528e+00 2.755171e+00 2.630443e+00 2.685946e+00 3.526997e+00 2.115135e+00 4.984552e+00 3.580279e-01 4.174158e-01 3.847587e-01 5.818968e-01 4.999610e-01 4.797978e-01 4.820749e-01 5.089008e-01 4.798635e-01 4.822901e-01 6.407791e-01 4.062809e-01 6.789643e-01
<GCONST> 1.313450e+02
<TRANSP> 5
 0.000000e+00 1.000000e+00 0.000000e+00 0.000000e+00 0.000000e+00
 0.000000e+00 7.770920e-01 2.229080e-01 0.000000e+00 0.000000e+00
 0.000000e+00 0.000000e+00 6.434979e-01 3.565020e-01 0.000000e+00
 0.000000e+00 0.000000e+00 0.000000e+00 7.869304e-01 2.130696e-01
