~o
<STREAMINFO> 1 39
<VECSIZE> 39<NULLD><MFCC_D_A_0><DIAGC>
~h "b"
<BEGINHMM>
<NUMSTATES> 5
<STATE> 2
<MEAN> 39
 -1.657666e+00 3.355841e+00 4.447599e+00 -4.741971e+00 -5.597928e-01 -2.366325e+00 -2.930049e+00 -1.516684e+00 -2.568916e+00 -9.381152e-01 -2.454853e+00 -1.850094e+00 4.786859e+01 4.358213e-03 -3.052828e-03 1.813902e-03 -1.593669e-04 -1.889487e-03 -4.563212e-03 2.065340e-03 1.988582e-03 -3.122208e-03 -2.279447e-03 5.560925e-04 2.524275e-03 8.855083e-03 2.219426e-04 -6.278924e-04 -8.590847e-04 -4.688060e-04 3.585650e-05 -1.019328e-04 -2.435789e-04 5.531864e-04 1.999432e-04 -3.286137e-04 -1.983807e-04 5.459355e-06 1.778233e-04
<VARIANCE> 39
 5.834548e+01 7.602286e+01 6.711077e+01 1.071382e+02 6.525841e+01 5.721239e+01 6.327647e+01 5.148829e+01 4.954232e+01 3.943217e+01 5.812251e+01 3.150613e+01 2.658269e+02 2.380909e+00 3.055177e+00 2.562819e+00 3.505131e+00 3.260734e+00 2.916165e+00 2.850617e+00 3.048364e+00 3.036054e+00 2.699224e+00 2.669639e+00 2.181741e+00 5.897117e+00 3.947611e-01 5.023703e-01 4.280987e-01 5.436179e-01 5.744304e-01 5.309335e-01 5.105062e-01 5.681195e-01 5.577429e-01 5.083501e-01 4.742945e-01 4.083622e-01 8.200695e-01
<GCONST> 1.315747e+02
<STATE> 3
<MEAN> 39
 -1.643123e+00 3.328514e+00 4.442921e+00 -4.753141e+00 -5.688488e-01 -2.390586e+00 -2.926028e+00 -1.497691e+00 -2.581486e+00 -9.510107e-01 -2.456006e+00 -1.838419e+00 4.791293e+01 2.586017e-03 -5.860240e-03 -1.716482e-03 -1.922212e-03 -1.728797e-03 -4.816669e-03 6.804980e-04 4.407641e-03 -1.833243e-03 -2.622958e-03 8.343524e-05 2.060348e-03 8.200031e-03 -4.193763e-04 -5.346242e-04 -6.683846e-04 -3.375997e-04 3.733754e-05 -5.142180e-05 -2.709994e-04 4.707656e-04 2.472965e-04 -3.672610e-05 -7.608644e-05 -8.917640e-05 -1.750592e-04
<VARIANCE> 39
 5.811370e+01 7.598371e+01 6.725841e+01 1.065949e+02 6.516908e+01 5.714401e+01 6.327261e+01 5.170973e+01 4.961079e+01 3.953726e+01 5.819237e+01 3.154015e+01 2.658269e+02 2.381124e+00 3.054689e+00 2.570095e+00 3.502691e+00 3.266301e+00 2.924447e+00 2.847381e+00 3.047611e+00 3.040295e+00 2.702452e+00 2.676458e+00 2.186609e+00 5.891557e+00 3.953660e-01 5.021737e-01 4.298245e-01 5.433360e-01 5.762299e-01 5.320617e-01 5.099013e-01 5.677505e-01 5.583298e-01 5.090228e-01 4.758765e-01 4.096249e-01 8.187140e-01
<GCONST> 1.316022e+02
<STATE> 4
<MEAN> 39
 -1.664904e+00 3.178863e+00 4.343180e+00 -4.851143e+00 -3.526437e-01 -2.551497e+00 -2.925062e+00 -1.433968e+00 -2.688982e+00 -1.031871e+00 -2.596743e+00 -1.811043e+00 4.800223e+01 -1.323302e-03 -5.053448e-03 -3.790096e-03 2.008498e-04 -5.044589e-04 -2.587863e-03 1.228012e-03 6.144503e-03 1.955600e-04 -1.848137e-03 1.194003e-03 5.063011e-04 6.693923e-04 -2.378274e-04 4.531317e-05 -1.776608e-04 2.159880e-04 9.416934e-05 1.143391e-04 4.827658e-05 1.765240e-04 1.693731e-04 4.243222e-06 9.321817e-05 -1.145489e-04 -5.728201e-04
<VARIANCE> 39
 5.712370e+01 7.716763e+01 6.685923e+01 1.073895e+02 6.336016e+01 5.700809e+01 6.328323e+01 5.164334e+01 4.996000e+01 3.993897e+01 5.996021e+01 3.128930e+01 2.658269e+02 2.305632e+00 2.996001e+00 2.539947e+00 3.486073e+00 3.180393e+00 2.923097e+00 2.820243e+00 3.016870e+00 3.054474e+00 2.713589e+00 2.712829e+00 2.187062e+00 5.806464e+00 3.837163e-01 4.886939e-01 4.225455e-01 5.361009e-01 5.631315e-01 5.292886e-01 5.043808e-01 5.596285e-01 5.625257e-01 5.091748e-01 4.798090e-01 4.104761e-01 8.043569e-01
<GCONST> 1.313616e+02
<TRANSP> 5
 0.000000e+00 1.000000e+00 0.000000e+00 0.000000e+00 0.000000e+00
 0.000000e+00 8.006254e-01 1.993746e-01 0.000000e+00 0.000000e+00
 0.000000e+00 0.000000e+00 8.006237e-01 1.993763e-01 0.000000e+00
 0.000000e+00 0.000000e+00 0.000000e+00 9.355817e-01 6.441827e-02
 0.000000e+00 0.000000e+00 0.000000e+00 0.000000e+00 0.000000e+00
<ENDHMM>
~h "d"
<BEGINHMM>
<NUMSTATES> 5
<STATE> 2
<MEAN> 39
 -3.066176e+00 2.758746e+00 5.560953e+00 -5.625397e+00 -2.323965e+00 -3.212951e+00 -2.490438e+00 -1.029412e+00 -3.170087e+00 -1.859313e+00 -3.364357e+00 -1.751250e+00 4.933103e+01 2.549053e-03 -6.067019e-05 5.887309e-03 -5.133319e-03 -1.752077e-03 -1.185797e-03 -4.984295e-03 -8.086531e-04 -6.533361e-04 1.685808e-03 -1.354545e-05 -1.340066e-03 1.202960e-02 1.094130e-04 -3.577146e-05 1.002472e-05 1.445669e-05 1.349869e-04 1.277690e-04 -3.628418e-05 -1.492797e-05 -2.152025e-04 -8.960084e-05 8.040789e-05 9.890253e-06 -2.462633e-04
<VARIANCE> 39
 5.786873e+01 8.171735e+01 7.569478e+01 9.982587e+01 6.495496e+01 6.197820e+01 5.783612e+01 5.241431e+01 5.518787e+01 3.729276e+01 6.486723e+01 2.820226e+01 2.803573e+02 2.237194e+00 2.669471e+00 2.351794e+00 3.217465e+00 2.833982e+00 2.735048e+00 2.798270e+00 2.878515e+00 2.710411e+00 2.400402e+00 2.654655e+00 1.974812e+00 5.280035e+00 3.580279e-01 4.174158e-01 3.847587e-01 5.181752e-01 4.999610e-01 4.855309e-01 5.098811e-01 5.331938e-01 4.898037e-01 4.500161e-01 4.757504e-01 3.794282e-01 7.008391e-01
<GCONST> 1.294906e+02
<STATE> 3
<MEAN> 39
 -3.048407e+00 2.755397e+00 5.591550e+00 -5.654262e+00 -2.330333e+00 -3.217551e+00 -2.515413e+00 -1.032855e+00 -3.177217e+00 -1.852143e+00 -3.362469e+00 -1.756193e+00 4.938706e+01 2.953236e-03 -2.493373e-04 5.910666e-03 -5.261469e-03 -1.096315e-03 -6.654668e-04 -4.685295e-03 -7.047014e-04 -1.545784e-03 1.604430e-03 5.532578e-04 -9.011048e-04 1.083243e-02 7.714669e-05 -5.003826e-05 8.843845e-06 -3.003829e-05 1.260037e-04 9.577089e-05 6.943090e-05 2.353714e-05 -1.742562e-04 -1.610075e-05 1.049139e-04 1.027127e-04 -2.246453e-04
<VARIANCE> 39
 5.794775e+01 8.189479e+01 7.575987e+01 1.002513e+02 6.504025e+01 6.230605e+01 5.806724e+01 5.259262e+01 5.547173e+01 3.743905e+01 6.514977e+01 2.827297e+01 2.807001e+02 2.238808e+00 2.678751e+00 2.357492e+00 3.229404e+00 2.833982e+00 2.743944e+00 2.802787e+00 2.884362e+00 2.719649e+00 2.404489e+00 2.662612e+00 1.979343e+00 5.319169e+00 3.580279e-01 4.174158e-01 3.847587e-01 5.192420e-01 4.999610e-01 4.866343e-01 5.103833e-01 5.341671e-01 4.913868e-01 4.503624e-01 4.767009e-01 3.802713e-01 7.060360e-01
<GCONST> 1.295881e+02
<STATE> 4
<MEAN> 39
 -2.919547e+00 2.849181e+00 5.677700e+00 -6.022730e+00 -2.120875e+00 -3.296763e+00 -2.590212e+00 -1.241996e+00 -3.331582e+00 -1.871215e+00 -3.454279e+00 -1.678059e+00 4.939090e+01 4.233548e-03 8.644139e-04 5.988702e-03 -4.786497e-03 4.071939e-04 -6.431644e-05 -3.085756e-03 -2.148319e-04 -1.608019e-03 2.219042e-03 7.245197e-04 -1.391028e-04 5.600524e-03 -2.038816e-05 8.987924e-05 1.111117e-05 6.662743e-05 1.013892e-04 3.769830e-05 1.098916e-04 1.348526e-05 -2.550247e-05 4.512978e-05 1.728442e-05 5.836190e-05 -2.407535e-04
<VARIANCE> 39
 5.662986e+01 8.314729e+01 7.626852e+01 1.058563e+02 6.270695e+01 6.449089e+01 5.961281e+01 5.280957e+01 5.672983e+01 3.863086e+01 6.714577e+01 2.805425e+01 2.823704e+02 2.237194e+00 2.652325e+00 2.334140e+00 3.343763e+00 2.833982e+00 2.761714e+00 2.801885e+00 2.868068e+00 2.763524e+00 2.423952e+00 2.686909e+00 1.984919e+00 5.353951e+00 3.580279e-01 4.174158e-01 3.847587e-01 5.305054e-01 4.999610e-01 4.875120e-01 5.068340e-01 5.307738e-01 4.968761e-01 4.531772e-01 4.786553e-01 3.821288e-01 7.127321e-01
<GCONST> 1.298546e+02
<TRANSP> 5
 0.000000e+00 1.000000e+00 0.000000e+00 0.000000e+00 0.000000e+00
 0.000000e+00 8.070402e-01 1.929598e-01 0.000000e+00 0.000000e+00
 0.000000e+00 0.000000e+00 8.070426e-01 1.929574e-01 0.000000e+00
 0.000000e+00 0.000000e+00 0.000000e+00 9.438343e-01 5.616564e-02
 0.000000e+00 0.000000e+00 0.000000e+00 0.000000e+00 0.000000e+00
<ENDHMM>
~h "f"
<BEGINHMM>
<NUMSTATES> 5
<STATE> 2
<MEAN> 39
 -6.732037e-01 5.179979e+00 3.300753e+00 -5.085853e+00 -8.926935e-01 -1.066658e+00 -3.000350e+00 -1.878598e+00 -1.975367e+00 -4.624175e-01 -1.544490e+00 -1.496618e+00 4.611969e+01 -7.776919e-03 2.430691e-02 3.489966e-03 1.260632e-02 1.348321e-02 3.435045e-03 2.339753e-02 4.596478e-03 1.683891e-02 -8.104710e-03 -1.162455e-02 2.430292e-02 -8.792334e-02 -3.855847e-04 2.601006e-04 1.933197e-04 4.388893e-04 -2.785410e-04 1.304150e-05 4.283411e-05 3.631567e-04 1.959690e-04 1.447510e-04 2.428599e-04 -2.045237e-04 -2.032812e-04
<VARIANCE> 39
 5.621860e+01 7.408064e+01 6.481821e+01 1.099442e+02 6.049548e+01 5.835123e+01 6.559896e+01 5.008425e+01 5.090789e+01 3.637846e+01 5.758591e+01 2.807844e+01 2.658269e+02 2.237194e+00 2.592087e+00 2.314184e+00 3.501840e+00 2.833982e+00 2.664105e+00 2.646528e+00 2.741223e+00 2.630443e+00 2.383868e+00 2.575376e+00 1.958500e+00 4.984552e+00 3.580279e-01 4.174158e-01 3.847587e-01 5.370159e-01 4.999610e-01 4.797978e-01 4.820749e-01 5.089008e-01 4.798635e-01 4.500161e-01 4.727016e-01 3.767788e-01 6.789643e-01
<GCONST> 1.286025e+02
<STATE> 3
<MEAN> 39
 -7.118464e-01 5.313989e+00 3.325379e+00 -5.010921e+00 -8.277128e-01 -1.039213e+00 -2.879598e+00 -1.852525e+00 -1.890793e+00 -5.019311e-01 -1.599404e+00 -1.375711e+00 4.565175e+01 -1.009485e-02 2.550721e-02 4.431795e-03 1.494637e-02 1.190386e-02 3.256882e-03 2.330175e-02 6.173330e-03 1.817800e-02 -7.484486e-03 -1.026210e-02 2.316835e-02 -8.882190e-02 -4.013358e-04 1.972266e-04 1.623965e-04 4.996300e-04 -2.432707e-04 2.292319e-05 2.772951e-05 4.100350e-04 1.913537e-04 1.840789e-04 3.988739e-04 -3.087217e-04 -7.032576e-05
<VARIANCE> 39
 5.621860e+01 7.408064e+01 6.481821e+01 1.087593e+02 6.049548e+01 5.732485e+01 6.389287e+01 5.008425e+01 4.978000e+01 3.600889e+01 5.758591e+01 2.754343e+01 2.658269e+02 2.237194e+00 2.592087e+00 2.314184e+00 3.420646e+00 2.833982e+00 2.664105e+00 2.646528e+00 2.741223e+00 2.630443e+00 2.383868e+00 2.569609e+00 1.958500e+00 4.984552e+00 3.580279e-01 4.174158e-01 3.847587e-01 5.247136e-01 4.999610e-01 4.797978e-01 4.820749e-01 5.089008e-01 4.798635e-01 4.500161e-01 4.638707e-01 3.767788e-01 6.789643e-01
<GCONST> 1.284280e+02
<STATE> 4
<MEAN> 39
 -4.033067e-01 5.794573e+00 3.357986e+00 -4.859395e+00 -4.267737e-01 -9.051764e-01 -2.589593e+00 -1.551506e+00 -2.002964e+00 -5.771680e-01 -1.738965e+00 -1.147123e+00 4.495579e+01 -1.565410e-02 3.355939e-02 7.859575e-03 2.577107e-02 8.432836e-03 7.557117e-03 2.297357e-02 6.355180e-03 2.301128e-02 -6.712271e-03 -5.609481e-03 2.052226e-02 -1.065714e-01 -5.698507e-04 -5.235896e-05 4.531297e-05 3.978612e-04 -3.004975e-04 -1.525455e-04 -1.377215e-04 2.651078e-04 2.396238e-04 2.216310e-04 5.204139e-04 -4.489886e-04 2.713953e-04
<VARIANCE> 39
 5.621860e+01 7.408064e+01 6.481821e+01 1.130787e+02 6.049548e+01 5.780815e+01 6.341015e+01 5.008425e+01 5.095554e+01 3.600889e+01 5.758591e+01 2.695450e+01 2.658269e+02 2.237194e+00 2.592087e+00 2.314184e+00 3.374822e+00 2.833982e+00 2.664105e+00 2.646528e+00 2.741223e+00 2.630443e+00 2.383868e+00 2.569609e+00 1.958500e+00 4.984552e+00 3.580279e-01 4.174158e-01 3.847587e-01 5.025513e-01 4.999610e-01 4.797978e-01 4.820749e-01 5.089008e-01 4.798635e-01 4.500161e-01 4.608459e-01 3.767788e-01 6.789643e-01
<GCONST> 1.284062e+02
<TRANSP> 5
 0.000000e+00 1.000000e+00 0.000000e+00 0.000000e+00 0.000000e+00
 0.000000e+00 7.975935e-01 2.024065e-01 0.000000e+00 0.000000e+00
 0.000000e+00 0.000000e+00 7.975935e-01 2.024065e-01 0.000000e+00
 0.000000e+00 0.000000e+00 0.000000e+00 9.352693e-01 6.473071e-02
 0.000000e+00 0.000000e+00 0.000000e+00 0.000000e+00 0.000000e+00
<ENDHMM>
~h "g"
<BEGINHMM>
<NUMSTATES> 5
<STATE> 2
<MEAN> 39
 -2.146804e+00 2.619002e+00 4.630005e+00 -4.794696e+00 -2.795897e+00 -2.501902e+00 -3.903388e+00 -1.799325e+00 -2.429012e+00 -6.363192e-01 -2.011358e+00 -2.113534e+00 4.857924e+01 1.286840e-02 -7.199567e-04 3.368399e-03 -1.559623e-02 -5.866091e-03 -4.519501e-03 -1.308893e-02 -1.026308e-02 -1.110721e-02 3.765221e-03 -4.688990e-03 -6.967706e-03 5.284014e-02 -2.760386e-04 3.323191e-04 -4.580347e-04 -8.809755e-06 5.131955e-04 1.067161e-04 -6.107577e-06 -4.720740e-05 2.305980e-05 -2.440540e-04 1.714760e-04 2.590719e-04 -1.315237e-03
<VARIANCE> 39
 5.942656e+01 7.408064e+01 6.481821e+01 9.688115e+01 6.896641e+01 6.190799e+01 6.749560e+01 5.192233e+01 5.100665e+01 3.600889e+01 5.758591e+01 2.746588e+01 2.796187e+02 2.770452e+00 3.569887e+00 2.876826e+00 3.405184e+00 3.758377e+00 3.329463e+00 3.059114e+00 3.103622e+00 3.183473e+00 2.650172e+00 2.884729e+00 2.207417e+00 7.442707e+00 4.424644e-01 6.131238e-01 5.248329e-01 5.739651e-01 6.709769e-01 6.213025e-01 5.588998e-01 5.848606e-01 5.787994e-01 5.138486e-01 5.339135e-01 4.303056e-01 1.065097e+00
<GCONST> 1.340728e+02
<STATE> 3
<MEAN> 39
 -2.085497e+00 2.616289e+00 4.639006e+00 -4.870046e+00 -2.820592e+00 -2.525543e+00 -3.969754e+00 -1.849886e+00 -2.483520e+00 -6.234441e-01 -2.031317e+00 -2.144317e+00 4.882055e+01 1.207019e-02 -8.204824e-05 1.206052e-03 -1.549902e-02 -3.570542e-03 -3.962568e-03 -1.311076e-02 -1.043398e-02 -1.111613e-02 2.684613e-03 -4.474781e-03 -5.888186e-03 4.678168e-02 -1.680955e-04 9.821777e-05 -4.586646e-04 5.746217e-05 4.787591e-04 1.500284e-04 3.534014e-05 -1.537587e-05 4.347622e-05 -2.368251e-04 3.482852e-05 2.365205e-04 -1.328681e-03
<VARIANCE> 39
 5.971593e+01 7.408064e+01 6.481821e+01 9.828954e+01 6.961228e+01 6.279395e+01 6.836622e+01 5.228839e+01 5.137447e+01 3.600889e+01 5.758591e+01 2.782774e+01 2.805033e+02 2.791289e+00 3.593613e+00 2.894688e+00 3.458148e+00 3.796674e+00 3.362891e+00 3.079430e+00 3.126396e+00 3.205614e+00 2.664328e+00 2.916023e+00 2.226143e+00 7.540477e+00 4.452181e-01 6.162150e-01 5.277758e-01 5.809558e-01 6.766912e-01 6.269235e-01 5.605518e-01 5.896841e-01 5.827255e-01 5.159292e-01 5.394084e-01 4.332545e-01 1.077174e+00
<GCONST> 1.343700e+02
<STATE> 4
<MEAN> 39
 -2.146852e+00 2.655373e+00 4.582984e+00 -5.099001e+00 -2.690076e+00 -2.679170e+00 -4.013985e+00 -1.916896e+00 -2.657953e+00 -7.410618e-01 -2.151121e+00 -2.176736e+00 4.884869e+01 1.213822e-02 -1.834869e-03 -2.935180e-04 -1.477148e-02 -1.473747e-03 -3.839567e-03 -1.158411e-02 -1.067103e-02 -1.336089e-02 -1.730281e-04 -6.208092e-03 -5.486686e-03 4.171379e-02 -1.106343e-04 -2.614000e-05 -2.668878e-04 1.339693e-04 4.142484e-04 2.389302e-04 2.471345e-04 6.142566e-05 2.397405e-05 -2.022443e-04 -9.548292e-05 1.344101e-04 -1.013432e-03
<VARIANCE> 39
 5.848950e+01 7.466868e+01 6.481821e+01 9.974241e+01 6.801000e+01 6.372805e+01 6.974930e+01 5.268063e+01 5.149141e+01 3.617300e+01 5.758591e+01 2.831902e+01 2.792953e+02 2.715209e+00 3.579104e+00 2.831644e+00 3.564461e+00 3.728704e+00 3.399698e+00 3.095510e+00 3.123091e+00 3.228941e+00 2.680538e+00 2.958979e+00 2.239293e+00 7.625669e+00 4.340362e-01 6.075418e-01 5.160575e-01 5.913669e-01 6.624360e-01 6.326792e-01 5.580391e-01 5.892218e-01 5.864490e-01 5.190448e-01 5.485781e-01 4.342448e-01 1.078895e+00
<GCONST> 1.344009e+02
<TRANSP> 5
 0.000000e+00 1.000000e+00 0.000000e+00 0.000000e+00 0.000000e+00
 0.000000e+00 7.924613e-01 2.075387e-01 0.000000e+00 0.000000e+00
 0.000000e+00 0.000000e+00 7.924614e-01 2.075386e-01 0.000000e+00
 0.000000e+00 0.000000e+00 0.000000e+00 9.264583e-01 7.354169e-02
 0.000000e+00 0.000000e+00 0.000000e+00 0.000000e+00 0.000000e+00
<ENDHMM>
~h "k"
<BEGINHMM>
<NUMSTATES> 5
<STATE> 2
<MEAN> 39
 -2.472953e+00 2.721916e+00 4.062486e+00 -5.040510e+00 -7.266874e-01 -2.664683e+00 -2.460674e+00 -7.744005e-01 -2.567321e+00 -1.331664e+00 -2.467528e+00 -1.706553e+00 4.792404e+01 -1.447713e-03 1.686738e-03 2.337690e-03 6.401551e-03 4.970109e-04 1.604427e-03 1.682502e-03 3.594026e-03 3.311106e-03 8.255824e-04 2.565084e-03 7.499639e-04 -9.374141e-03 1.084039e-04 -5.991157e-05 7.992324e-05 -2.819892e-04 -3.271693e-04 -1.769906e-04 -2.137477e-04 5.489647e-05 1.463761e-04 9.657102e-06 -1.678340e-04 -9.601020e-05 4.894771e-04
<VARIANCE> 39
 5.689303e+01 7.515703e+01 6.622326e+01 1.041494e+02 6.217520e+01 5.657086e+01 5.733790e+01 5.282813e+01 4.914367e+01 3.899568e+01 5.758591e+01 2.835892e+01 2.658269e+02 2.307047e+00 2.699934e+00 2.390540e+00 3.218222e+00 2.946890e+00 2.698296e+00 2.743193e+00 2.849606e+00 2.716767e+00 2.431739e+00 2.576480e+00 1.970675e+00 5.062684e+00 3.738804e-01 4.400108e-01 4.058925e-01 5.087011e-01 5.234246e-01 4.872350e-01 4.977617e-01 5.268999e-01 5.022706e-01 4.531736e-01 4.608459e-01 3.767788e-01 7.038820e-01
<GCONST> 1.290624e+02
<STATE> 3
<MEAN> 39
 -2.476878e+00 2.731930e+00 4.072039e+00 -5.013413e+00 -7.267860e-01 -2.655651e+00 -2.452932e+00 -7.544490e-01 -2.549376e+00 -1.329015e+00 -2.456007e+00 -1.704073e+00 4.787845e+01 -6.198292e-04 1.580571e-03 2.035363e-03 4.692612e-03 -9.009927e-04 1.301899e-03 1.222235e-03 3.504841e-03 3.594218e-03 4.095501e-04 2.021943e-03 3.295142e-04 -7.833430e-03 1.725855e-04 -1.986866e-05 -5.886566e-05 -4.346502e-04 -2.972658e-04 -7.428290e-05 -8.403386e-05 -5.687236e-05 1.906577e-05 -1.200972e-04 -8.872271e-05 -7.696648e-05 3.403146e-04
<VARIANCE> 39
 5.684597e+01 7.502304e+01 6.627122e+01 1.040314e+02 6.232220e+01 5.657086e+01 5.708304e+01 5.255744e+01 4.914367e+01 3.887902e+01 5.758591e+01 2.830705e+01 2.658269e+02 2.292776e+00 2.679732e+00 2.381026e+00 3.197775e+00 2.933203e+00 2.686476e+00 2.742468e+00 2.834511e+00 2.712118e+00 2.427122e+00 2.569609e+00 1.967163e+00 5.013952e+00 3.715579e-01 4.368775e-01 4.039668e-01 5.053244e-01 5.210660e-01 4.851465e-01 4.983568e-01 5.236325e-01 5.015693e-01 4.525065e-01 4.608459e-01 3.767788e-01 6.965245e-01
<GCONST> 1.289389e+02
<STATE> 4
<MEAN> 39
 -2.492180e+00 2.863847e+00 4.117148e+00 -5.196679e+00 -5.323965e-01 -2.679710e+00 -2.484607e+00 -8.484757e-01 -2.635115e+00 -1.412135e+00 -2.591112e+00 -1.646582e+00 4.770615e+01 -2.398132e-05 3.301663e-03 -1.732499e-05 3.197690e-03 7.341735e-05 9.868531e-04 1.402484e-03 3.178966e-03 3.807863e-03 2.249203e-04 1.366073e-03 4.157698e-04 -9.101157e-03 1.235137e-06 6.869246e-05 -7.843028e-05 -2.674976e-04 -4.341766e-05 -1.520418e-04 1.835069e-07 -1.038282e-04 -2.011138e-05 -4.079066e-05 -7.371041e-05 -6.184811e-06 1.034790e-04
<VARIANCE> 39
 5.621860e+01 7.480751e+01 6.729865e+01 1.083216e+02 6.049548e+01 5.657086e+01 5.695578e+01 5.136929e+01 4.914367e+01 3.887373e+01 5.849761e+01 2.820603e+01 2.658269e+02 2.237194e+00 2.592087e+00 2.335472e+00 3.177312e+00 2.833982e+00 2.664105e+00 2.707572e+00 2.769201e+00 2.683306e+00 2.405852e+00 2.569609e+00 1.965542e+00 4.984552e+00 3.580279e-01 4.174158e-01 3.937050e-01 5.025513e-01 5.013459e-01 4.797978e-01 4.912867e-01 5.122805e-01 4.954084e-01 4.500161e-01 4.608459e-01 3.767788e-01 6.789643e-01
<GCONST> 1.285060e+02
<TRANSP> 5
 0.000000e+00 1.000000e+00 0.000000e+00 0.000000e+00 0.000000e+00
 0.000000e+00 8.030511e-01 1.969489e-01 0.000000e+00 0.000000e+00
 0.000000e+00 0.000000e+00 8.030502e-01 1.969498e-01 0.000000e+00
 0.000000e+00 0.000000e+00 0.000000e+00 9.397177e-01 6.028228e-02
 0.000000e+00 0.000000e+00 0.000000e+00 0.000000e+00 0.000000e+00
<ENDHMM>
~h "l"
<BEGINHMM>
<NUMSTATES> 5
<STATE> 2
<MEAN> 39
 -2.858026e+00 3.360436e+00 4.627636e+00 -5.095290e+00 -1.146819e+00 -2.676382e+00 -2.826130e+00 -1.114396e+00 -2.732737e+00 -1.061705e+00 -2.452764e+00 -1.659698e+00 4.779393e+01 2.317517e-03 -3.418800e-03 3.034302e-03 2.274880e-03 -5.327315e-04 -4.028878e-05 -3.134415e-03 7.370893e-04 7.199082e-04 3.076244e-04 -6.422210e-04 -2.923824e-03 6.079068e-04 3.978191e-05 2.461289e-04 -1.057455e-04 2.643574e-04 5.131107e-06 1.739014e-04 1.497346e-04 1.678622e-06 1.212293e-04 -1.199840e-04 -1.471110e-04 -5.092671e-05 -4.949316e-04
<VARIANCE> 39
 5.805587e+01 7.408064e+01 6.950365e+01 1.038222e+02 6.384636e+01 5.657086e+01 6.030322e+01 5.081071e+01 5.253791e+01 3.704756e+01 6.047211e+01 2.955639e+01 2.658269e+02 2.284714e+00 2.592087e+00 2.349444e+00 3.129044e+00 2.994754e+00 2.707916e+00 2.691765e+00 2.741612e+00 2.673710e+00 2.421172e+00 2.569609e+00 1.975674e+00 4.984552e+00 3.734718e-01 4.227228e-01 3.883621e-01 5.025513e-01 5.301483e-01 4.880722e-01 4.876954e-01 5.101017e-01 4.883439e-01 4.567557e-01 4.608459e-01 3.767788e-01 6.789643e-01
<GCONST> 1.288952e+02
<STATE> 3
<MEAN> 39
 -2.844265e+00 3.350747e+00 4.640408e+00 -5.079710e+00 -1.146834e+00 -2.671342e+00 -2.838741e+00 -1.114022e+00 -2.727457e+00 -1.062299e+00 -2.457281e+00 -1.674547e+00 4.778823e+01 2.791959e-03 -1.994704e-03 2.547801e-03 3.555748e-03 -4.664884e-04 1.107795e-03 -2.317027e-03 4.470350e-04 1.347966e-03 -3.882496e-04 -1.085376e-03 -3.131794e-03 -1.562131e-03 1.163779e-04 2.830134e-04 -1.104900e-04 2.536974e-04 1.311499e-05 2.266392e-04 1.786852e-04 -5.199676e-05 1.218927e-04 -1.224262e-04 -8.454180e-05 -5.701143e-05 -4.271594e-04
<VARIANCE> 39
 5.793277e+01 7.408064e+01 6.964951e+01 1.036385e+02 6.391529e+01 5.657086e+01 6.048198e+01 5.086600e+01 5.253708e+01 3.697068e+01 6.040947e+01 2.944867e+01 2.658269e+02 2.284487e+00 2.592087e+00 2.347134e+00 3.129044e+00 3.001731e+00 2.708697e+00 2.693488e+00 2.742764e+00 2.677360e+00 2.422647e+00 2.569609e+00 1.973523e+00 4.984552e+00 3.735333e-01 4.234550e-01 3.879513e-01 5.025513e-01 5.311664e-01 4.880409e-01 4.877428e-01 5.100600e-01 4.894121e-01 4.571399e-01 4.608459e-01 3.767788e-01 6.789643e-01
<GCONST> 1.289010e+02
<STATE> 4
<MEAN> 39
 -2.750903e+00 3.376649e+00 4.530596e+00 -5.234434e+00 -8.764723e-01 -2.648581e+00 -2.900576e+00 -1.209682e+00 -2.807142e+00 -1.131329e+00 -2.598455e+00 -1.650532e+00 4.768915e+01 4.109811e-03 1.606594e-03 1.033520e-03 4.297520e-03 8.428047e-04 4.114507e-03 -4.150535e-04 -1.070728e-03 2.598504e-03 -1.459293e-03 -2.719965e-04 -2.567650e-03 -5.146152e-03 1.125439e-04 1.957820e-04 -1.038680e-04 1.132798e-04 1.991259e-05 1.914429e-04 1.360081e-04 -4.391590e-05 1.184698e-04 -5.906168e-05 4.761812e-05 -2.208742e-05 -2.597154e-04
<VARIANCE> 39
 5.691161e+01 7.408064e+01 7.018549e+01 1.087344e+02 6.261950e+01 5.657086e+01 6.169451e+01 5.031303e+01 5.237867e+01 3.734648e+01 6.141425e+01 2.893865e+01 2.659265e+02 2.237194e+00 2.592087e+00 2.314357e+00 3.155493e+00 2.919737e+00 2.684625e+00 2.688888e+00 2.741223e+00 2.676889e+00 2.424047e+00 2.581359e+00 1.958500e+00 4.984552e+00 3.607565e-01 4.174158e-01 3.847587e-01 5.025513e-01 5.169963e-01 4.817526e-01 4.840706e-01 5.089008e-01 4.902329e-01 4.566700e-01 4.608459e-01 3.767788e-01 6.789643e-01
<GCONST> 1.287590e+02
<TRANSP> 5
 0.000000e+00 1.000000e+00 0.000000e+00 0.000000e+00 0.000000e+00
 0.000000e+00 8.026562e-01 1.973437e-01 0.000000e+00 0.000000e+00
 0.000000e+00 0.000000e+00 8.026567e-01 1.973433e-01 0.000000e+00
 0.000000e+00 0.000000e+00 0.000000e+00 9.386279e-01 6.137207e-02
 0.000000e+00 0.000000e+00 0.000000e+00 0.000000e+00 0.000000e+00
<ENDHMM>
~h "m"
<BEGINHMM>
<NUMSTATES> 5
<STATE> 2
<MEAN> 39
 -2.885877e+00 3.205559e+00 4.525401e+00 -4.799250e+00 -1.403483e+00 -3.369895e+00 -2.363781e+00 -1.100764e+00 -2.662476e+00 -1.860134e+00 -2.886652e+00 -2.010768e+00 4.949710e+01 1.103789e-03 8.340621e-03 5.324672e-03 1.310105e-04 5.916759e-03 7.306963e-04 1.931989e-03 -2.598575e-04 2.324828e-03 -8.087247e-04 -5.955070e-03 2.025661e-03 -1.714606e-02 -2.363925e-04 1.303079e-04 -2.952772e-05 1.789177e-04 3.131168e-04 9.966292e-05 1.285519e-04 -4.718632e-05 7.783165e-05 1.460357e-04 2.487815e-04 -1.124048e-06 -8.590667e-04
<VARIANCE> 39
 6.473685e+01 7.848842e+01 6.481821e+01 9.670354e+01 6.256469e+01 6.005200e+01 5.480392e+01 5.298446e+01 4.953210e+01 3.658102e+01 5.758591e+01 2.824445e+01 2.790500e+02 2.612399e+00 2.942514e+00 2.561191e+00 3.496975e+00 3.004241e+00 2.830694e+00 2.699311e+00 2.851143e+00 2.656556e+00 2.453419e+00 2.665588e+00 2.110696e+00 5.004314e+00 3.981468e-01 4.572680e-01 4.082185e-01 5.367967e-01 5.285150e-01 4.979573e-01 4.870571e-01 5.195252e-01 4.798635e-01 4.603485e-01 4.688559e-01 3.962286e-01 6.789643e-01
<GCONST> 1.298009e+02
<STATE> 3
<MEAN> 39
 -2.879579e+00 3.248345e+00 4.555305e+00 -4.797524e+00 -1.373637e+00 -3.366944e+00 -2.353548e+00 -1.102546e+00 -2.651360e+00 -1.863178e+00 -2.916464e+00 -2.000118e+00 4.940524e+01 1.155293e-04 8.969114e-03 5.271600e-03 1.197486e-03 7.234695e-03 1.278333e-03 2.546005e-03 -3.548307e-04 2.723494e-03 3.751216e-05 -4.642598e-03 2.056383e-03 -2.143658e-02 -2.313168e-04 9.921071e-05 2.485719e-05 1.812024e-04 2.295647e-04 8.068651e-05 9.805108e-05 -5.834279e-05 7.189474e-05 1.799472e-04 2.533965e-04 1.545373e-05 -7.829188e-04
<VARIANCE> 39
 6.417307e+01 7.859134e+01 6.481821e+01 9.720615e+01 6.215953e+01 6.016413e+01 5.480392e+01 5.296362e+01 4.976123e+01 3.661095e+01 5.773276e+01 2.835004e+01 2.780786e+02 2.595459e+00 2.924721e+00 2.565615e+00 3.506492e+00 2.979225e+00 2.836098e+00 2.704271e+00 2.848940e+00 2.654060e+00 2.462860e+00 2.678630e+00 2.116022e+00 4.984552e+00 3.964733e-01 4.546702e-01 4.083763e-01 5.380099e-01 5.254591e-01 4.989648e-01 4.879778e-01 5.190794e-01 4.798635e-01 4.625494e-01 4.706514e-01 3.969839e-01 6.789643e-01
<GCONST> 1.297952e+02
<STATE> 4
<MEAN> 39
 -2.931418e+00 3.311563e+00 4.579308e+00 -4.952929e+00 -1.179351e+00 -3.471866e+00 -2.380545e+00 -1.268924e+00 -2.767750e+00 -1.966503e+00 -3.105393e+00 -1.954526e+00 4.918246e+01 4.634434e-04 9.759266e-03 6.383727e-03 4.015654e-03 6.280058e-03 2.803883e-03 3.145126e-03 4.617017e-04 2.943096e-03 1.738393e-03 -2.193949e-03 2.753899e-03 -2.574052e-02 -1.810185e-04 1.238762e-04 4.000876e-05 2.397850e-04 9.162159e-05 1.346500e-04 9.567239e-05 -7.630602e-06 9.787752e-05 1.881225e-04 2.921878e-04 6.481833e-05 -7.047093e-04
<VARIANCE> 39
 6.199898e+01 7.889863e+01 6.481821e+01 1.017185e+02 6.049548e+01 6.108944e+01 5.480392e+01 5.270268e+01 5.022634e+01 3.707033e+01 5.905648e+01 2.832293e+01 2.788097e+02 2.544044e+00 2.891819e+00 2.582521e+00 3.611367e+00 2.885889e+00 2.868946e+00 2.730717e+00 2.850933e+00 2.676000e+00 2.511916e+00 2.739033e+00 2.122998e+00 4.984552e+00 3.905202e-01 4.463747e-01 4.092152e-01 5.489276e-01 5.144156e-01 5.028502e-01 4.920004e-01 5.204394e-01 4.823737e-01 4.736263e-01 4.792917e-01 3.981803e-01 6.789643e-01
<GCONST> 1.299237e+02
<TRANSP> 5
 0.000000e+00 1.000000e+00 0.000000e+00 0.000000e+00 0.000000e+00
 0.000000e+00 8.062435e-01 1.937565e-01 0.000000e+00 0.000000e+00
 0.000000e+00 0.000000e+00 8.062432e-01 1.937568e-01 0.000000e+00
 0.000000e+00 0.000000e+00 0.000000e+00 9.427693e-01 5.723071e-02
 0.000000e+00 0.000000e+00 0.000000e+00 0.000000e+00 0.000000e+00
<ENDHMM>
~h "n"
<BEGINHMM>
<NUMSTATES> 5
<STATE> 2
<MEAN> 39
 -3.197771e+00 2.671730e+00 4.253904e+00 -4.664185e+00 -1.860474e+00 -3.412010e+00 -2.134770e+00 -8.424348e-01 -2.775841e+00 -2.273544e+00 -3.099695e+00 -1.490875e+00 4.891084e+01 4.150019e-03 -3.146272e-03 -3.618727e-04 -7.699286e-03 -5.809983e-03 -3.813605e-03 -4.988593e-03 -5.877079e-03 -4.736022e-03 1.010648e-03 -2.398646e-03 -4.518460e-03 3.020193e-02 3.123135e-05 3.974705e-04 -1.332357e-04 -6.124451e-05 2.098471e-04 2.016465e-04 -8.841176e-06 -1.171429e-04 1.394927e-04 5.127038e-05 1.463409e-04 -6.191719e-05 -6.059706e-04
<VARIANCE> 39
 6.210736e+01 7.940736e+01 6.481821e+01 9.562053e+01 6.049548e+01 6.069132e+01 5.480392e+01 5.148843e+01 4.914367e+01 3.600889e+01 6.379428e+01 2.849916e+01 2.770620e+02 2.237194e+00 2.592087e+00 2.314184e+00 3.129044e+00 2.833982e+00 2.664105e+00 2.646528e+00 2.741223e+00 2.630443e+00 2.383868e+00 2.608408e+00 1.958500e+00 4.984552e+00 3.580279e-01 4.174158e-01 3.847587e-01 5.025513e-01 4.999610e-01 4.797978e-01 4.820749e-01 5.089008e-01 4.798635e-01 4.500161e-01 4.608459e-01 3.767788e-01 6.789643e-01
<GCONST> 1.284407e+02
<STATE> 3
<MEAN> 39
 -3.172941e+00 2.658562e+00 4.250239e+00 -4.709489e+00 -1.886750e+00 -3.430248e+00 -2.162852e+00 -8.743980e-01 -2.798979e+00 -2.267437e+00 -3.111474e+00 -1.514676e+00 4.905855e+01 4.632822e-03 -1.364993e-03 -7.746422e-04 -8.051606e-03 -4.886105e-03 -2.703208e-03 -5.271153e-03 -6.232128e-03 -3.947021e-03 1.256982e-03 -1.841916e-03 -4.783452e-03 2.691609e-02 8.305430e-05 3.890381e-04 -6.278709e-05 -3.534925e-05 2.242193e-04 2.280666e-04 -2.522489e-05 -5.008030e-05 1.489673e-04 5.416738e-05 9.805188e-05 -4.153638e-05 -6.528887e-04
<VARIANCE> 39
 6.263139e+01 7.960194e+01 6.481821e+01 9.562053e+01 6.049548e+01 6.129312e+01 5.480392e+01 5.139524e+01 4.914367e+01 3.600889e+01 6.437375e+01 2.871642e+01 2.778098e+02 2.237194e+00 2.592087e+00 2.314184e+00 3.129044e+00 2.833982e+00 2.664105e+00 2.646528e+00 2.741223e+00 2.630443e+00 2.383868e+00 2.624262e+00 1.958500e+00 4.984552e+00 3.580279e-01 4.174158e-01 3.847587e-01 5.025513e-01 4.999610e-01 4.797978e-01 4.820749e-01 5.089008e-01 4.798635e-01 4.500161e-01 4.624150e-01 3.767788e-01 6.789643e-01
<GCONST> 1.284884e+02
<STATE> 4
<MEAN> 39
 -3.062199e+00 2.826609e+00 4.242626e+00 -4.981578e+00 -1.720603e+00 -3.459018e+00 -2.285517e+00 -1.113965e+00 -2.954456e+00 -2.305606e+00 -3.179682e+00 -1.503624e+00 4.914264e+01 7.369373e-03 -8.216006e-04 1.151728e-03 -1.052127e-02 -2.941209e-03 -1.144023e-03 -6.632661e-03 -6.156903e-03 -4.767215e-03 1.974151e-03 -1.681134e-03 -4.575497e-03 1.900702e-02 8.005014e-05 2.571151e-04 1.403935e-04 7.287838e-05 2.096553e-04 1.720588e-04 2.741400e-05 3.847918e-05 4.409113e-05 5.915907e-05 4.357472e-05 2.465966e-05 -6.804265e-04
<VARIANCE> 39
 6.241902e+01 7.964538e+01 6.481821e+01 1.001668e+02 6.049548e+01 6.404636e+01 5.480392e+01 5.034125e+01 4.914367e+01 3.686378e+01 6.707244e+01 2.847357e+01 2.808856e+02 2.237194e+00 2.592087e+00 2.314184e+00 3.149734e+00 2.833982e+00 2.664105e+00 2.646528e+00 2.741223e+00 2.630443e+00 2.383868e+00 2.685740e+00 1.958500e+00 4.984552e+00 3.580279e-01 4.174158e-01 3.847587e-01 5.025513e-01 4.999610e-01 4.797978e-01 4.820749e-01 5.089008e-01 4.798635e-01 4.500161e-01 4.700201e-01 3.767788e-01 6.789643e-01
<GCONST> 1.286684e+02
<TRANSP> 5
 0.000000e+00 1.000000e+00 0.000000e+00 0.000000e+00 0.000000e+00
 0.000000e+00 8.078871e-01 1.921129e-01 0.000000e+00 0.000000e+00
 0.000000e+00 0.000000e+00 8.078873e-01 1.921127e-01 0.000000e+00
 0.000000e+00 0.000000e+00 0.000000e+00 9.446939e-01 5.530605e-02
 0.000000e+00 0.000000e+00 0.000000e+00 0.000000e+00 0.000000e+00
<ENDHMM>
~h "p"
<BEGINHMM>
<NUMSTATES> 5
<STATE> 2
<MEAN> 39
 -1.790497e+00 2.557921e+00 3.684237e+00 -5.080317e+00 -1.603377e+00 -2.288141e+00 -3.779458e+00 -1.737359e+00 -2.493420e+00 -8.473917e-01 -2.407753e+00 -2.024128e+00 4.945118e+01 -7.597850e-03 1.126437e-02 -1.127052e-02 2.331880e-04 1.924399e-02 3.296947e-03 1.275692e-02 6.440166e-03 4.141032e-03 -4.116573e-03 2.552837e-03 8.842788e-03 -3.174095e-02 -5.139712e-05 3.806737e-06 1.101419e-04 8.178204e-05 -7.935979e-05 -1.449681e-04 1.711418e-04 1.943151e-04 6.821915e-05 3.873646e-05 -3.341073e-05 1.487385e-04 -4.287495e-04
<VARIANCE> 39
 6.247148e+01 7.592583e+01 6.481821e+01 1.007497e+02 7.580089e+01 6.166311e+01 7.374525e+01 5.520332e+01 4.914367e+01 3.913810e+01 5.758591e+01 2.954733e+01 2.668438e+02 2.939049e+00 3.588172e+00 2.789637e+00 3.790646e+00 3.889989e+00 3.302748e+00 3.133145e+00 3.198166e+00 3.072667e+00 2.772886e+00 3.012444e+00 2.257519e+00 7.566453e+00 4.679852e-01 6.100129e-01 5.057530e-01 6.237065e-01 6.785050e-01 6.203291e-01 5.574322e-01 5.923943e-01 5.617427e-01 5.311558e-01 5.361805e-01 4.349237e-01 1.078071e+00
<GCONST> 1.349594e+02
<STATE> 3
<MEAN> 39
 -1.825575e+00 2.611928e+00 3.630691e+00 -5.075480e+00 -1.512650e+00 -2.272668e+00 -3.715023e+00 -1.703868e+00 -2.471954e+00 -8.661525e-01 -2.394291e+00 -1.981040e+00 4.929135e+01 -7.792861e-03 1.125483e-02 -1.068109e-02 7.057523e-04 1.865656e-02 2.635306e-03 1.356322e-02 7.174586e-03 4.459321e-03 -3.977783e-03 2.411928e-03 9.500473e-03 -3.364148e-02 -2.528468e-05 -2.036584e-06 1.485606e-04 1.233849e-04 -1.430682e-04 -1.199239e-04 1.709967e-04 1.575369e-04 6.001044e-05 3.667017e-05 -1.803448e-06 1.240631e-04 -4.012684e-04
<VARIANCE> 39
 6.224062e+01 7.585590e+01 6.481821e+01 1.005369e+02 7.556315e+01 6.131273e+01 7.331377e+01 5.512005e+01 4.914367e+01 3.916336e+01 5.758591e+01 2.930406e+01 2.658269e+02 2.925751e+00 3.561695e+00 2.763604e+00 3.787144e+00 3.871538e+00 3.272185e+00 3.113308e+00 3.183746e+00 3.052957e+00 2.768977e+00 2.989876e+00 2.241055e+00 7.468345e+00 4.663495e-01 6.048697e-01 5.007337e-01 6.226669e-01 6.746391e-01 6.146022e-01 5.536146e-01 5.892335e-01 5.580205e-01 5.300192e-01 5.321257e-01 4.318118e-01 1.064582e+00
<GCONST> 1.347551e+02
<STATE> 4
<MEAN> 39
 -1.883072e+00 2.767200e+00 3.500118e+00 -5.093741e+00 -1.236356e+00 -2.278567e+00 -3.558761e+00 -1.636627e+00 -2.478613e+00 -9.253654e-01 -2.409653e+00 -1.880506e+00 4.887359e+01 -7.263564e-03 1.182709e-02 -9.670085e-03 2.918389e-03 1.657045e-02 2.603475e-03 1.566178e-02 7.369259e-03 5.488660e-03 -3.620201e-03 3.049224e-03 1.012554e-02 -3.837440e-02 -2.464352e-05 1.986476e-05 1.960209e-04 1.353275e-04 -2.459955e-04 -5.993918e-05 1.568211e-04 2.649344e-05 6.410398e-05 2.546130e-05 3.533164e-05 8.001733e-05 -3.210535e-04
<VARIANCE> 39
 6.104565e+01 7.621306e+01 6.481821e+01 1.010800e+02 7.345377e+01 6.088529e+01 7.214155e+01 5.409648e+01 4.914367e+01 3.958342e+01 5.758591e+01 2.873193e+01 2.658269e+02 2.853939e+00 3.488006e+00 2.690837e+00 3.792660e+00 3.767405e+00 3.215425e+00 3.056472e+00 3.144660e+00 3.011335e+00 2.759439e+00 2.957683e+00 2.201353e+00 7.262288e+00 4.562768e-01 5.906994e-01 4.874230e-01 6.204959e-01 6.569809e-01 6.031284e-01 5.435355e-01 5.819389e-01 5.495656e-01 5.272658e-01 5.261815e-01 4.247427e-01 1.035035e+00
<GCONST> 1.342177e+02
<TRANSP> 5
 0.000000e+00 1.000000e+00 0.000000e+00 0.000000e+00 0.000000e+00
 0.000000e+00 7.892656e-01 2.107344e-01 0.000000e+00 0.000000e+00
 0.000000e+00 0.000000e+00 7.892651e-01 2.107349e-01 0.000000e+00
 0.000000e+00 0.000000e+00 0.000000e+00 9.213628e-01 7.863724e-02
 0.000000e+00 0.000000e+00 0.000000e+00 0.000000e+00 0.000000e+00
<ENDHMM>
~h "r"
<BEGINHMM>
<NUMSTATES> 5
<STATE> 2
<MEAN> 39
 -1.733629e+00 2.365739e+00 4.746480e+00 -4.934867e+00 -2.388345e+00 -2.563569e+00 -3.615983e+00 -1.487179e+00 -2.721014e+00 -9.915985e-01 -2.294982e+00 -2.131358e+00 4.913831e+01 4.959960e-03 -1.572740e-03 2.730767e-03 -9.725093e-03 -3.459334e-03 -1.940063e-03 -5.512075e-03 -4.707722e-03 -6.170172e-03 1.496347e-03 -6.120612e-04 -3.166549e-03 1.924375e-02 -1.257157e-04 3.049074e-04 -3.319513e-04 -5.612462e-05 4.812494e-04 1.642808e-04 3.469439e-04 -9.365084e-05 1.197324e-04 -1.571694e-04 9.304658e-05 1.334337e-04 -9.878568e-04
<VARIANCE> 39
 6.001249e+01 8.046449e+01 6.481821e+01 9.946532e+01 7.406084e+01 5.967182e+01 6.563279e+01 5.216940e+01 5.105904e+01 3.726248e+01 5.758591e+01 2.786324e+01 2.726726e+02 2.626451e+00 3.280323e+00 2.725711e+00 3.495442e+00 3.624969e+00 3.102560e+00 3.002238e+00 3.045467e+00 3.072870e+00 2.599609e+00 2.749654e+00 2.111311e+00 6.641011e+00 4.269190e-01 5.484762e-01 4.746752e-01 5.762606e-01 6.363513e-01 5.702964e-01 5.468645e-01 5.655468e-01 5.574593e-01 4.964792e-01 4.975184e-01 4.046078e-01 9.270925e-01
<GCONST> 1.328755e+02
<STATE> 3
<MEAN> 39
 -1.711751e+00 2.361954e+00 4.753753e+00 -4.978276e+00 -2.395335e+00 -2.572048e+00 -3.638143e+00 -1.507849e+00 -2.748982e+00 -9.855072e-01 -2.297437e+00 -2.144596e+00 4.921557e+01 4.069387e-03 -3.012466e-04 9.932725e-04 -9.303262e-03 -9.889066e-04 -1.406137e-03 -4.107989e-03 -4.562817e-03 -5.191248e-03 9.668730e-04 -4.429223e-04 -2.347976e-03 1.445566e-02 -2.155983e-04 2.825932e-04 -4.129443e-04 1.089624e-04 5.804008e-04 1.048748e-04 2.960611e-04 3.871675e-05 2.473551e-04 -1.042510e-04 1.580219e-05 1.915482e-04 -1.050543e-03
<VARIANCE> 39
 5.996806e+01 8.037917e+01 6.481821e+01 9.978571e+01 7.456279e+01 5.995881e+01 6.601498e+01 5.213989e+01 5.101786e+01 3.744130e+01 5.758591e+01 2.789343e+01 2.731218e+02 2.640553e+00 3.302670e+00 2.728328e+00 3.524210e+00 3.651767e+00 3.114810e+00 3.004230e+00 3.051445e+00 3.075703e+00 2.607203e+00 2.761772e+00 2.120722e+00 6.675313e+00 4.287983e-01 5.526423e-01 4.756227e-01 5.799564e-01 6.411447e-01 5.723414e-01 5.458741e-01 5.667214e-01 5.580306e-01 4.979652e-01 4.993206e-01 4.066765e-01 9.333201e-01
<GCONST> 1.330047e+02
<STATE> 4
<MEAN> 39
 -1.723197e+00 2.394995e+00 4.695813e+00 -5.175748e+00 -2.053823e+00 -2.674039e+00 -3.550397e+00 -1.509376e+00 -2.895729e+00 -1.132112e+00 -2.470204e+00 -2.102918e+00 4.915497e+01 1.344648e-03 8.896327e-04 -1.379375e-03 -6.581091e-03 2.395823e-03 -2.025964e-03 -2.228177e-03 -2.788587e-03 -3.967618e-03 2.093156e-04 -8.895821e-04 -6.249241e-04 7.345923e-03 -2.395870e-04 1.260213e-04 -2.844787e-04 1.717179e-04 3.944703e-04 1.872510e-05 1.657918e-04 8.790616e-05 2.033154e-04 -9.501742e-05 -8.853628e-05 1.843777e-04 -6.811557e-04
<VARIANCE> 39
 5.900953e+01 8.186073e+01 6.481821e+01 1.017319e+02 7.204684e+01 6.045760e+01 6.618840e+01 5.169425e+01 5.110389e+01 3.803439e+01 5.758591e+01 2.776975e+01 2.738136e+02 2.585955e+00 3.291632e+00 2.684708e+00 3.609978e+00 3.557295e+00 3.103382e+00 2.973751e+00 3.040321e+00 3.055798e+00 2.603793e+00 2.775233e+00 2.119137e+00 6.615107e+00 4.198151e-01 5.487413e-01 4.669934e-01 5.892928e-01 6.257618e-01 5.681326e-01 5.375465e-01 5.644717e-01 5.548761e-01 4.965829e-01 5.005046e-01 4.070334e-01 9.236867e-01
<GCONST> 1.328396e+02
<TRANSP> 5
 0.000000e+00 1.000000e+00 0.000000e+00 0.000000e+00 0.000000e+00
 0.000000e+00 7.949002e-01 2.050999e-01 0.000000e+00 0.000000e+00
 0.000000e+00 0.000000e+00 7.949008e-01 2.050992e-01 0.000000e+00
 0.000000e+00 0.000000e+00 0.000000e+00 9.301888e-01 6.981120e-02
 0.000000e+00 0.000000e+00 0.000000e+00 0.000000e+00 0.000000e+00
<ENDHMM>
~h "s"
<BEGINHMM>
<NUMSTATES> 5
<STATE> 2
<MEAN> 39
 -3.616227e+00 3.084040e+00 3.740917e+00 -4.452910e+00 -1.306244e+00 -3.304737e+00 -2.007812e+00 -3.439345e-01 -2.451967e+00 -2.049605e+00 -2.660854e+00 -1.428799e+00 4.867926e+01 -7.475724e-03 2.962744e-03 1.542394e-03 -2.508122e-04 -1.172442e-03 3.911451e-03 -1.205623e-03 -4.376965e-03 -1.335318e-04 2.469227e-03 -2.966587e-03 4.838214e-03 5.486089e-03 7.782519e-04 -1.127612e-03 2.729986e-04 -7.785829e-05 -9.183116e-04 -3.575004e-04 7.682059e-05 2.974882e-04 -2.264790e-04 -4.282131e-04 -2.354046e-04 4.683317e-05 4.520811e-04
<VARIANCE> 39
 6.885880e+01 8.116328e+01 6.481821e+01 9.562053e+01 6.049548e+01 5.657086e+01 5.480392e+01 5.046428e+01 4.914367e+01 3.600889e+01 5.758591e+01 2.695450e+01 2.658269e+02 2.657227e+00 2.848631e+00 2.385329e+00 3.184411e+00 2.895159e+00 2.741569e+00 2.663084e+00 2.805300e+00 2.630443e+00 2.383868e+00 2.665412e+00 1.958500e+00 4.984552e+00 4.024428e-01 4.449768e-01 3.980158e-01 5.025513e-01 5.074450e-01 4.883798e-01 4.859298e-01 5.141302e-01 4.798635e-01 4.500161e-01 4.719869e-01 3.767788e-01 6.789643e-01
<GCONST> 1.289805e+02
<STATE> 3
<MEAN> 39
 -3.635627e+00 3.073126e+00 3.751439e+00 -4.454113e+00 -1.329643e+00 -3.287606e+00 -2.014621e+00 -3.542169e-01 -2.451081e+00 -2.046391e+00 -2.680057e+00 -1.408220e+00 4.871558e+01 -3.013261e-03 -2.818845e-03 2.160809e-03 1.240973e-04 -5.444213e-03 2.727204e-03 -1.185943e-03 -2.229795e-03 1.036269e-04 5.084153e-04 -3.784972e-03 3.855430e-03 6.334839e-03 9.257884e-04 -1.122493e-03 6.310389e-05 1.121598e-04 -8.265382e-04 -2.390725e-04 -2.357168e-05 4.466355e-04 9.696239e-05 -3.861572e-04 -1.222297e-04 -2.260733e-04 1.179186e-04
<VARIANCE> 39
 6.899972e+01 8.123910e+01 6.481821e+01 9.562053e+01 6.049548e+01 5.657086e+01 5.480392e+01 5.043252e+01 4.914367e+01 3.600889e+01 5.758591e+01 2.695450e+01 2.658269e+02 2.647830e+00 2.832223e+00 2.372528e+00 3.161584e+00 2.882938e+00 2.736547e+00 2.655323e+00 2.806006e+00 2.630443e+00 2.383868e+00 2.653820e+00 1.958500e+00 4.984552e+00 4.003474e-01 4.421225e-01 3.950207e-01 5.025513e-01 5.050673e-01 4.875312e-01 4.840200e-01 5.141294e-01 4.798635e-01 4.500161e-01 4.695684e-01 3.767788e-01 6.789643e-01
<GCONST> 1.289132e+02
<STATE> 4
<MEAN> 39
 -3.695669e+00 3.225989e+00 3.810755e+00 -4.470128e+00 -1.340173e+00 -3.230489e+00 -2.041306e+00 -5.750789e-01 -2.493710e+00 -2.123466e+00 -2.790771e+00 -1.330783e+00 4.839928e+01 6.765949e-04 -4.888815e-03 1.724190e-03 6.327724e-04 -6.621513e-03 6.232970e-04 1.561018e-04 -4.435311e-04 -1.427048e-03 -5.040645e-04 -3.944059e-03 2.164906e-03 8.744345e-03 2.517887e-04 -8.935414e-05 -6.163122e-05 7.951574e-05 -1.476582e-04 -1.829558e-04 6.795526e-06 1.829828e-05 -9.109364e-05 -5.453467e-05 5.990788e-05 -1.186418e-04 -1.489513e-04
<VARIANCE> 39
 6.740955e+01 8.024521e+01 6.481821e+01 9.562053e+01 6.049548e+01 5.657086e+01 5.480392e+01 5.008425e+01 4.914367e+01 3.600889e+01 5.863937e+01 2.695450e+01 2.658269e+02 2.531172e+00 2.732864e+00 2.338293e+00 3.157025e+00 2.833982e+00 2.690089e+00 2.646528e+00 2.743637e+00 2.630443e+00 2.383868e+00 2.648303e+00 1.958500e+00 4.984552e+00 3.806737e-01 4.255804e-01 3.849643e-01 5.025513e-01 4.999610e-01 4.797978e-01 4.820749e-01 5.089008e-01 4.798635e-01 4.500161e-01 4.665617e-01 3.767788e-01 6.789643e-01
<GCONST> 1.285687e+02
<TRANSP> 5
 0.000000e+00 1.000000e+00 0.000000e+00 0.000000e+00 0.000000e+00
 0.000000e+00 8.035101e-01 1.964899e-01 0.000000e+00 0.000000e+00
 0.000000e+00 0.000000e+00 8.035113e-01 1.964887e-01 0.000000e+00
 0.000000e+00 0.000000e+00 0.000000e+00 9.406573e-01 5.934276e-02
 0.000000e+00 0.000000e+00 0.000000e+00 0.000000e+00 0.000000e+00
<ENDHMM>
~h "t"
<BEGINHMM>
<NUMSTATES> 5
<STATE> 2
<MEAN> 39
 -2.949899e+00 3.382801e+00 5.392854e+00 -4.827833e+00 -2.428246e+00 -3.045283e+00 -2.515274e+00 -1.430858e+00 -2.930557e+00 -1.597138e+00 -2.536054e+00 -1.659535e+00 4.838650e+01 5.408747e-03 1.477320e-03 -1.017714e-03 4.374061e-03 1.012244e-03 1.913807e-03 1.052729e-03 5.914458e-04 3.300995e-03 1.051314e-03 1.048507e-03 -9.015391e-04 -4.307815e-03 -1.549073e-05 -2.774644e-05 -4.424277e-05 -3.535751e-05 5.848269e-05 -3.214837e-05 -2.898449e-05 9.180240e-05 -2.116489e-05 -1.953841e-05 -4.476037e-05 5.169818e-05 -7.932078e-06
<VARIANCE> 39
 5.952896e+01 7.408064e+01 6.679752e+01 9.562053e+01 6.565179e+01 5.791648e+01 5.598014e+01 5.227468e+01 5.112116e+01 3.600889e+01 5.815310e+01 2.695450e+01 2.687927e+02 2.584966e+00 2.800506e+00 2.499182e+00 3.240627e+00 3.152963e+00 2.831749e+00 2.722529e+00 2.820608e+00 2.680697e+00 2.435851e+00 2.657202e+00 2.009291e+00 5.867411e+00 4.122239e-01 4.590870e-01 4.160801e-01 5.340905e-01 5.543849e-01 5.105409e-01 5.009273e-01 5.254545e-01 4.829904e-01 4.639464e-01 4.765105e-01 3.882914e-01 7.935916e-01
<GCONST> 1.299648e+02
<STATE> 3
<MEAN> 39
 -2.926143e+00 3.391842e+00 5.387706e+00 -4.806732e+00 -2.421048e+00 -3.036973e+00 -2.509383e+00 -1.427164e+00 -2.913971e+00 -1.592065e+00 -2.531420e+00 -1.662509e+00 4.836418e+01 5.065317e-03 1.412145e-03 -1.196443e-03 4.093893e-03 1.587338e-03 1.671808e-03 9.784470e-04 1.007993e-03 3.030386e-03 1.002624e-03 6.405638e-04 -5.658782e-04 -4.271928e-03 -7.248850e-05 -1.822419e-05 -3.239574e-05 -6.273383e-05 1.274507e-04 -4.184690e-05 -9.416552e-06 8.599403e-05 -6.021124e-05 -7.530303e-06 -9.706292e-05 7.119232e-05 1.121539e-05
<VARIANCE> 39
 5.944349e+01 7.408064e+01 6.667467e+01 9.562053e+01 6.556087e+01 5.789400e+01 5.598335e+01 5.228440e+01 5.106853e+01 3.600889e+01 5.804333e+01 2.695450e+01 2.691391e+02 2.582968e+00 2.801075e+00 2.502164e+00 3.239953e+00 3.147958e+00 2.833792e+00 2.722735e+00 2.820832e+00 2.679556e+00 2.436919e+00 2.655879e+00 2.010839e+00 5.864201e+00 4.119492e-01 4.595017e-01 4.170905e-01 5.342973e-01 5.538183e-01 5.112588e-01 5.009658e-01 5.255681e-01 4.829264e-01 4.641745e-01 4.764445e-01 3.885212e-01 7.929024e-01
<GCONST> 1.299614e+02
<STATE> 4
<MEAN> 39
 -2.943263e+00 3.514352e+00 5.284132e+00 -4.852851e+00 -2.225428e+00 -3.115251e+00 -2.416239e+00 -1.494690e+00 -2.896281e+00 -1.660865e+00 -2.615203e+00 -1.578283e+00 4.804536e+01 3.179008e-03 7.281231e-04 -1.290782e-03 2.704896e-03 3.384576e-03 1.393850e-03 9.329868e-04 1.092663e-03 1.960689e-03 5.284323e-04 -8.346196e-04 -4.102429e-05 -3.816335e-03 -5.182384e-05 -1.164646e-04 -5.004906e-05 -1.038686e-04 1.325632e-04 -4.186484e-06 -2.177211e-05 4.708792e-05 -1.009903e-04 -1.623204e-05 -1.244470e-04 3.662176e-05 2.873050e-05
<VARIANCE> 39
 5.809161e+01 7.408064e+01 6.481821e+01 9.562053e+01 6.279333e+01 5.805518e+01 5.480392e+01 5.124574e+01 5.051554e+01 3.600889e+01 5.844691e+01 2.695450e+01 2.721888e+02 2.490459e+00 2.738330e+00 2.443039e+00 3.262248e+00 3.011640e+00 2.808130e+00 2.682822e+00 2.777899e+00 2.646397e+00 2.441179e+00 2.652634e+00 1.996859e+00 5.750072e+00 3.966476e-01 4.460457e-01 4.066210e-01 5.356974e-01 5.322298e-01 5.062959e-01 4.938221e-01 5.174755e-01 4.798635e-01 4.646322e-01 4.743354e-01 3.861462e-01 7.734017e-01
<GCONST> 1.294270e+02
<TRANSP> 5
 0.000000e+00 1.000000e+00 0.000000e+00 0.000000e+00 0.000000e+00
 0.000000e+00 8.004147e-01 1.995853e-01 0.000000e+00 0.000000e+00
 0.000000e+00 0.000000e+00 8.004125e-01 1.995876e-01 0.000000e+00
 0.000000e+00 0.000000e+00 0.000000e+00 9.361065e-01 6.389353e-02
 0.000000e+00 0.000000e+00 0.000000e+00 0.000000e+00 0.000000e+00
<ENDHMM>
~h "v"
<BEGINHMM>
<NUMSTATES> 5
<STATE> 2
<MEAN> 39
 -2.608786e+00 3.072600e+00 5.721204e+00 -6.064818e+00 -2.335233e+00 -3.729625e+00 -2.423794e+00 -1.928116e+00 -3.491095e+00 -2.034608e+00 -3.249554e+00 -1.661312e+00 5.072292e+01 2.666193e-03 1.430598e-02 -7.685641e-03 2.923841e-03 1.137717e-02 2.813143e-03 8.551116e-03 -2.463908e-03 3.269360e-03 5.074297e-03 -7.253178e-05 3.737458e-03 -2.236847e-02 -3.074665e-04 6.632862e-05 1.512366e-04 2.182101e-04 -5.103844e-05 -1.451283e-04 1.235076e-04 -8.152568e-05 1.790342e-05 -1.458194e-04 -1.049789e-04 1.224704e-04 -6.149297e-04
<VARIANCE> 39
 5.621860e+01 7.408064e+01 7.769626e+01 1.055425e+02 6.503459e+01 6.840501e+01 5.480392e+01 6.172972e+01 5.172399e+01 4.212480e+01 6.946918e+01 2.746034e+01 2.764772e+02 2.237194e+00 2.592087e+00 2.596164e+00 3.688062e+00 2.876701e+00 2.803706e+00 2.779011e+00 2.883810e+00 2.647594e+00 2.545224e+00 2.817539e+00 2.043617e+00 4.984552e+00 3.580279e-01 4.174158e-01 4.039586e-01 5.779465e-01 4.999610e-01 4.797978e-01 5.034317e-01 5.231826e-01 4.798635e-01 4.656194e-01 4.950285e-01 3.928504e-01 6.789643e-01
<GCONST> 1.302225e+02
<STATE> 3
<MEAN> 39
 -2.596642e+00 3.145868e+00 5.688195e+00 -6.049226e+00 -2.280276e+00 -3.719551e+00 -2.380405e+00 -1.945198e+00 -3.476363e+00 -2.008341e+00 -3.253582e+00 -1.640556e+00 5.060651e+01 1.013292e-03 1.445668e-02 -6.558333e-03 4.203942e-03 1.101917e-02 2.145230e-03 9.188514e-03 -2.884020e-03 3.459641e-03 4.351096e-03 -4.155048e-04 4.366701e-03 -2.512405e-02 -3.046866e-04 -9.580690e-06 2.681769e-04 2.024030e-04 -1.197528e-04 -1.477624e-04 7.669787e-05 -9.522300e-05 8.833900e-06 -1.414572e-04 -7.412772e-05 1.040900e-04 -4.144662e-04
<VARIANCE> 39
 5.621860e+01 7.408064e+01 7.730633e+01 1.053174e+02 6.452039e+01 6.835097e+01 5.480392e+01 6.168118e+01 5.159873e+01 4.209268e+01 6.919444e+01 2.737163e+01 2.756287e+02 2.237194e+00 2.592087e+00 2.597570e+00 3.687146e+00 2.880395e+00 2.805839e+00 2.783055e+00 2.890651e+00 2.650205e+00 2.546139e+00 2.818588e+00 2.041694e+00 4.984552e+00 3.580279e-01 4.174158e-01 4.044308e-01 5.778254e-01 4.999610e-01 4.797978e-01 5.042573e-01 5.254160e-01 4.798635e-01 4.658345e-01 4.957860e-01 3.926515e-01 6.789643e-01
<GCONST> 1.302077e+02
<STATE> 4
<MEAN> 39
 -2.568253e+00 3.302467e+00 5.646898e+00 -6.218793e+00 -2.107992e+00 -3.872042e+00 -2.343297e+00 -2.164570e+00 -3.621550e+00 -2.002415e+00 -3.453043e+00 -1.544981e+00 5.041717e+01 -1.623567e-03 1.253370e-02 -3.761245e-03 6.662638e-03 9.353003e-03 2.253894e-03 9.472148e-03 -3.472049e-03 5.495965e-03 3.937021e-03 7.711906e-04 5.116016e-03 -2.770556e-02 -2.989494e-04 -8.655740e-05 1.497720e-04 2.285097e-04 -8.509685e-05 1.659235e-05 6.093844e-05 1.355624e-05 1.513160e-04 -1.389325e-04 8.032456e-05 4.500365e-05 -3.120673e-04
<VARIANCE> 39
 5.621860e+01 7.408064e+01 7.673241e+01 1.084221e+02 6.286959e+01 6.903169e+01 5.511425e+01 6.073349e+01 5.227205e+01 4.322066e+01 6.988169e+01 2.695450e+01 2.744438e+02 2.237194e+00 2.592087e+00 2.564341e+00 3.748987e+00 2.833982e+00 2.805234e+00 2.779989e+00 2.873692e+00 2.677984e+00 2.560305e+00 2.812993e+00 2.020706e+00 4.984552e+00 3.580279e-01 4.174158e-01 3.992632e-01 5.824946e-01 4.999610e-01 4.797978e-01 5.016914e-01 5.254278e-01 4.798635e-01 4.663439e-01 4.934705e-01 3.896458e-01 6.789643e-01
<GCONST> 1.301959e+02
<TRANSP> 5
 0.000000e+00 1.000000e+00 0.000000e+00 0.000000e+00 0.000000e+00
 0.000000e+00 8.099589e-01 1.900411e-01 0.000000e+00 0.000000e+00
 0.000000e+00 0.000000e+00 8.099586e-01 1.900414e-01 0.000000e+00
 0.000000e+00 0.000000e+00 0.000000e+00 9.463296e-01 5.367041e-02
 0.000000e+00 0.000000e+00 0.000000e+00 0.000000e+00 0.000000e+00
<ENDHMM>
~h "w"
<BEGINHMM>
<NUMSTATES> 5
<STATE> 2
<MEAN> 39
 -1.760433e+00 4.372081e+00 6.348073e+00 -5.989735e+00 -2.145038e+00 -2.067353e+00 -3.439698e+00 -2.370947e+00 -3.601298e+00 -7.218198e-01 -2.945198e+00 -1.467833e+00 4.715246e+01 3.740803e-03 4.054278e-03 -1.307457e-02 1.354289e-02 1.196639e-02 4.877495e-03 1.070874e-02 1.038871e-02 1.122204e-02 3.173446e-03 8.963890e-03 -2.916991e-03 -1.852311e-02 -7.187306e-05 -2.091990e-04 1.071309e-04 -2.973021e-05 -5.556109e-05 -1.162234e-04 -2.081679e-04 -1.429421e-04 -1.131974e-04 -6.014354e-05 -1.815075e-05 -1.470111e-04 4.632841e-04
<VARIANCE> 39
 5.621860e+01 7.408064e+01 8.484460e+01 1.056316e+02 6.383934e+01 6.560693e+01 6.060114e+01 5.248302e+01 5.898153e+01 3.700137e+01 7.420616e+01 2.997415e+01 2.658269e+02 2.237194e+00 2.592087e+00 2.333120e+00 3.129044e+00 2.833982e+00 2.713043e+00 2.769041e+00 2.741223e+00 2.679219e+00 2.492014e+00 2.569609e+00 1.958500e+00 4.984552e+00 3.580279e-01 4.174158e-01 3.847587e-01 5.025513e-01 4.999610e-01 4.865356e-01 5.000473e-01 5.089008e-01 4.825218e-01 4.659610e-01 4.608459e-01 3.779489e-01 6.789643e-01
<GCONST> 1.294751e+02
<STATE> 3
<MEAN> 39
 -1.739661e+00 4.391583e+00 6.281152e+00 -5.916466e+00 -2.082495e+00 -2.040379e+00 -3.383878e+00 -2.315746e+00 -3.542825e+00 -7.062573e-01 -2.896844e+00 -1.484836e+00 4.705738e+01 3.368780e-03 2.944523e-03 -1.252222e-02 1.337964e-02 1.169382e-02 4.258079e-03 9.602226e-03 9.613324e-03 1.057777e-02 2.850033e-03 8.801710e-03 -3.673978e-03 -1.614222e-02 -8.869515e-05 -2.180617e-04 1.340005e-04 -5.138605e-05 -6.468991e-05 -1.055065e-04 -2.347181e-04 -1.624756e-04 -1.352684e-04 -7.006344e-05 -4.877144e-05 -1.368228e-04 4.592284e-04
<VARIANCE> 39
 5.621860e+01 7.408064e+01 8.338474e+01 1.053035e+02 6.346439e+01 6.476497e+01 6.018993e+01 5.203568e+01 5.898089e+01 3.687448e+01 7.380312e+01 2.989530e+01 2.658269e+02 2.237194e+00 2.592087e+00 2.314184e+00 3.129044e+00 2.833982e+00 2.691797e+00 2.743735e+00 2.741223e+00 2.670294e+00 2.490573e+00 2.569609e+00 1.958500e+00 4.984552e+00 3.580279e-01 4.174158e-01 3.847587e-01 5.025513e-01 4.999610e-01 4.835998e-01 4.958152e-01 5.089008e-01 4.814723e-01 4.659258e-01 4.608459e-01 3.767788e-01 6.789643e-01
<GCONST> 1.293599e+02
<STATE> 4
<MEAN> 39
 -1.700297e+00 4.462317e+00 6.077364e+00 -5.961027e+00 -1.759246e+00 -2.073423e+00 -3.376555e+00 -2.250404e+00 -3.507509e+00 -7.318065e-01 -2.915457e+00 -1.398318e+00 4.679387e+01 3.474094e-03 7.610426e-04 -1.164816e-02 1.425921e-02 1.162002e-02 4.372284e-03 8.784388e-03 9.316890e-03 9.364797e-03 2.003816e-03 9.140036e-03 -5.260095e-03 -1.365520e-02 -1.077439e-04 -2.559132e-04 1.182305e-04 -9.182435e-05 -7.036158e-05 -1.145140e-04 -2.350111e-04 -1.827716e-04 -1.758734e-04 -7.714180e-05 -9.085020e-05 -1.268918e-04 4.209228e-04
<VARIANCE> 39
 5.621860e+01 7.408064e+01 7.965617e+01 1.084619e+02 6.126688e+01 6.340546e+01 5.989856e+01 5.097646e+01 5.898180e+01 3.695434e+01 7.393043e+01 2.959302e+01 2.658269e+02 2.237194e+00 2.592087e+00 2.314184e+00 3.129044e+00 2.833982e+00 2.664105e+00 2.667039e+00 2.741223e+00 2.630443e+00 2.489343e+00 2.569609e+00 1.958500e+00 4.984552e+00 3.580279e-01 4.174158e-01 3.847587e-01 5.025513e-01 4.999610e-01 4.797978e-01 4.827828e-01 5.089008e-01 4.798635e-01 4.657284e-01 4.608459e-01 3.767788e-01 6.789643e-01
<GCONST> 1.291631e+02
<TRANSP> 5
 0.000000e+00 1.000000e+00 0.000000e+00 0.000000e+00 0.000000e+00
 0.000000e+00 8.086958e-01 1.913043e-01 0.000000e+00 0.000000e+00
 0.000000e+00 0.000000e+00 8.086954e-01 1.913046e-01 0.000000e+00
 0.000000e+00 0.000000e+00 0.000000e+00 9.447499e-01 5.525011e-02
 0.000000e+00 0.000000e+00 0.000000e+00 0.000000e+00 0.000000e+00
<ENDHMM>
~h "y"
<BEGINHMM>
<NUMSTATES> 5
<STATE> 2
<MEAN> 39
 -1.532611e+00 3.968609e+00 4.170961e+00 -8.321799e+00 -6.547665e-01 -2.613390e+00 -3.580182e+00 -1.591813e+00 -1.800483e+00 -2.132395e+00 -3.436607e+00 -2.497927e+00 4.636103e+01 -8.314854e-03 -8.884788e-04 -1.209647e-02 1.216078e-02 -4.137577e-03 -3.179796e-03 1.280522e-02 1.198010e-02 -8.045798e-03 -1.626051e-02 6.412784e-03 7.228259e-03 -3.169449e-02 -9.530602e-05 -4.231009e-04 9.446656e-04 -5.491880e-04 -5.428192e-04 -2.935048e-04 -1.871137e-04 -2.964164e-04 -4.161262e-04 -7.323471e-05 -3.259054e-04 1.397708e-04 1.311852e-03
<VARIANCE> 39
 5.621860e+01 7.408064e+01 8.195395e+01 9.562053e+01 6.049548e+01 6.494955e+01 5.480392e+01 5.227093e+01 4.914367e+01 3.858863e+01 6.638188e+01 3.062581e+01 2.658269e+02 2.237194e+00 2.592087e+00 2.503879e+00 3.505578e+00 2.882210e+00 2.933117e+00 2.646528e+00 2.810250e+00 3.021940e+00 2.486217e+00 2.569609e+00 2.175463e+00 5.313205e+00 3.580279e-01 4.174158e-01 4.376473e-01 5.530534e-01 5.058777e-01 5.112682e-01 4.820749e-01 5.089008e-01 5.365184e-01 4.754946e-01 4.771369e-01 4.430635e-01 7.049026e-01
<GCONST> 1.300946e+02
<STATE> 3
<MEAN> 39
 -1.576777e+00 3.962646e+00 4.117669e+00 -8.258354e+00 -6.809484e-01 -2.628550e+00 -3.514524e+00 -1.530369e+00 -1.849134e+00 -2.221266e+00 -3.400127e+00 -2.460289e+00 4.620575e+01 -8.751878e-03 -3.262308e-03 -7.029421e-03 9.031353e-03 -6.892946e-03 -4.873093e-03 1.168241e-02 1.022995e-02 -1.042155e-02 -1.667987e-02 4.558973e-03 7.994821e-03 -2.415066e-02 -4.038292e-05 -4.299103e-04 9.851850e-04 -5.967355e-04 -5.313075e-04 -2.825960e-04 -2.406828e-04 -3.501229e-04 -4.203665e-04 -3.568258e-05 -3.435480e-04 1.273936e-04 1.468194e-03
<VARIANCE> 39
 5.621860e+01 7.408064e+01 8.116973e+01 9.562053e+01 6.049548e+01 6.330701e+01 5.480392e+01 5.181733e+01 4.914367e+01 3.863646e+01 6.426354e+01 3.051996e+01 2.658269e+02 2.237194e+00 2.592087e+00 2.472037e+00 3.468586e+00 2.845003e+00 2.886625e+00 2.646528e+00 2.795924e+00 2.984699e+00 2.479069e+00 2.569609e+00 2.167360e+00 5.352806e+00 3.580279e-01 4.174158e-01 4.338792e-01 5.483797e-01 5.000543e-01 5.066408e-01 4.820749e-01 5.089008e-01 5.314881e-01 4.754658e-01 4.770042e-01 4.405653e-01 7.076649e-01
<GCONST> 1.298976e+02
<STATE> 4
<MEAN> 39
 -1.664232e+00 4.015929e+00 4.067075e+00 -8.223892e+00 -6.655486e-01 -2.784998e+00 -3.356664e+00 -1.550164e+00 -2.048615e+00 -2.258206e+00 -3.509804e+00 -2.289177e+00 4.598720e+01 -7.368021e-03 -5.065143e-03 5.131887e-03 3.544182e-03 -1.012084e-02 -4.421550e-03 6.944302e-03 5.477902e-03 -1.580650e-02 -1.627788e-02 3.461895e-03 7.309383e-03 -6.572857e-03 1.761672e-05 -3.426872e-04 1.005293e-03 -6.609018e-04 -4.470875e-04 -2.549370e-04 -3.462640e-04 -4.281576e-04 -4.197555e-04 3.578128e-05 -3.630777e-04 8.676179e-05 1.506117e-03
<VARIANCE> 39
 5.621860e+01 7.530024e+01 8.111845e+01 9.562053e+01 6.049548e+01 5.966481e+01 5.480392e+01 5.008425e+01 4.914367e+01 3.776381e+01 6.129620e+01 2.948719e+01 2.658269e+02 2.237194e+00 2.592087e+00 2.363096e+00 3.414497e+00 2.833982e+00 2.767513e+00 2.646528e+00 2.741223e+00 2.896883e+00 2.431712e+00 2.569609e+00 2.112618e+00 5.413009e+00 3.580279e-01 4.174158e-01 4.177828e-01 5.386018e-01 4.999610e-01 4.982385e-01 4.820749e-01 5.089008e-01 5.160677e-01 4.678805e-01 4.807520e-01 4.266595e-01 7.063067e-01
<GCONST> 1.293810e+02
<TRANSP> 5
 0.000000e+00 1.000000e+00 0.000000e+00 0.000000e+00 0.000000e+00
 0.000000e+00 8.164009e-01 1.835991e-01 0.000000e+00 0.000000e+00
 0.000000e+00 0.000000e+00 8.164010e-01 1.835990e-01 0.000000e+00
 0.000000e+00 0.000000e+00 0.000000e+00 9.529442e-01 4.705582e-02
 0.000000e+00 0.000000e+00 0.000000e+00 0.000000e+00 0.000000e+00
<ENDHMM>
~h "z"
<BEGINHMM>
<NUMSTATES> 5
<STATE> 2
<MEAN> 39
 -3.765040e+00 4.630259e+00 6.130953e+00 -4.762462e+00 -2.755263e+00 -3.314514e+00 -2.136087e+00 -1.455904e+00 -3.006118e+00 -1.475968e+00 -2.309826e+00 -1.918851e+00 4.919031e+01 3.574827e-03 3.895643e-04 1.091036e-02 -1.101047e-02 -5.112953e-03 -6.368757e-03 -3.091573e-03 -5.857846e-03 -2.619777e-03 -3.184717e-03 -8.807112e-04 4.629820e-03 5.608035e-03 4.553801e-05 -8.723936e-05 -4.292981e-04 9.750863e-05 2.168489e-04 8.336268e-05 3.304528e-04 5.795730e-05 -9.588490e-05 1.996417e-05 -2.172732e-05 1.152589e-05 -7.555974e-04
<VARIANCE> 39
 6.133109e+01 7.408064e+01 7.699826e+01 9.733975e+01 6.859904e+01 5.857536e+01 5.526577e+01 5.331031e+01 5.023059e+01 3.600889e+01 5.758591e+01 2.695450e+01 2.658269e+02 2.573686e+00 2.846256e+00 2.771572e+00 3.635034e+00 3.134045e+00 2.999496e+00 2.689920e+00 2.842252e+00 2.738485e+00 2.516751e+00 2.821561e+00 2.073755e+00 5.330346e+00 3.930912e-01 4.574752e-01 4.262037e-01 5.595412e-01 5.376392e-01 5.161880e-01 4.820749e-01 5.266103e-01 4.881623e-01 4.751336e-01 5.051251e-01 4.005657e-01 6.972701e-01
<GCONST> 1.304632e+02
<STATE> 3
<MEAN> 39
 -3.745113e+00 4.629929e+00 6.186674e+00 -4.818508e+00 -2.785862e+00 -3.347167e+00 -2.145349e+00 -1.490996e+00 -3.025796e+00 -1.491468e+00 -2.321433e+00 -1.898922e+00 4.923137e+01 3.670582e-03 1.918295e-04 8.827988e-03 -1.014247e-02 -4.095645e-03 -5.706103e-03 -1.253369e-03 -5.534699e-03 -2.948413e-03 -3.004587e-03 -7.080296e-04 4.605460e-03 2.429308e-03 -1.998706e-06 3.045976e-05 -4.558765e-04 2.263658e-04 1.907276e-04 1.546498e-04 3.732782e-04 3.822405e-05 -9.603897e-05 6.647098e-05 8.210866e-05 -2.458801e-05 -6.568326e-04
<VARIANCE> 39
 6.082754e+01 7.408064e+01 7.691437e+01 9.751354e+01 6.828973e+01 5.908333e+01 5.525289e+01 5.384441e+01 5.056548e+01 3.600889e+01 5.758591e+01 2.695450e+01 2.658269e+02 2.589221e+00 2.866224e+00 2.785517e+00 3.665588e+00 3.135213e+00 3.016218e+00 2.694739e+00 2.864249e+00 2.748989e+00 2.527366e+00 2.811266e+00 2.078122e+00 5.359438e+00 3.964182e-01 4.603890e-01 4.268348e-01 5.636113e-01 5.381058e-01 5.174716e-01 4.820749e-01 5.305271e-01 4.889598e-01 4.775044e-01 5.029076e-01 4.010290e-01 7.001986e-01
<GCONST> 1.305717e+02
<STATE> 4
<MEAN> 39
 -3.691507e+00 4.720005e+00 6.096607e+00 -5.129112e+00 -2.715549e+00 -3.458236e+00 -2.224200e+00 -1.825087e+00 -3.218174e+00 -1.596871e+00 -2.480237e+00 -1.874948e+00 4.897618e+01 4.511064e-03 6.106681e-04 6.590049e-03 -8.544690e-03 -3.761135e-03 -4.694946e-03 1.666881e-03 -7.264986e-03 -3.031829e-03 -1.861548e-03 -2.578129e-04 3.897138e-03 3.779530e-03 5.061895e-05 1.063519e-04 -3.910222e-04 2.548555e-04 2.022569e-04 1.564273e-04 2.108322e-04 6.954467e-05 1.111357e-04 1.151947e-04 2.768105e-04 2.707531e-05 -6.945792e-04
<VARIANCE> 39
 5.861086e+01 7.408064e+01 7.787364e+01 1.013988e+02 6.506968e+01 5.948331e+01 5.629486e+01 5.433915e+01 5.163170e+01 3.600889e+01 5.761520e+01 2.713366e+01 2.658269e+02 2.500451e+00 2.849762e+00 2.828811e+00 3.804353e+00 2.980639e+00 2.988043e+00 2.718123e+00 2.843775e+00 2.782275e+00 2.560235e+00 2.786058e+00 2.085025e+00 5.287688e+00 3.830098e-01 4.522857e-01 4.285263e-01 5.750023e-01 5.138528e-01 5.117062e-01 4.820749e-01 5.261884e-01 4.909543e-01 4.854739e-01 4.965178e-01 3.997459e-01 6.921546e-01
<GCONST> 1.304589e+02
<TRANSP> 5
 0.000000e+00 1.000000e+00 0.000000e+00 0.000000e+00 0.000000e+00
 0.000000e+00 8.076011e-01 1.923990e-01 0.000000e+00 0.000000e+00
 0.000000e+00 0.000000e+00 8.076000e-01 1.924000e-01 0.000000e+00
 0.000000e+00 0.000000e+00 0.000000e+00 9.444262e-01 5.557382e-02
 0.000000e+00 0.000000e+00 0.000000e+00 0.000000e+00 0.000000e+00
<ENDHMM>
~h "aa"
<BEGINHMM>
<NUMSTATES> 5
<STATE> 2
<MEAN> 39
 -2.410321e+00 2.534282e+00 3.644164e+00 -4.320538e+00 4.124520e-01 -2.551045e+00 -2.395396e+00 -6.474544e-01 -1.734286e+00 -1.168059e+00 -2.696203e+00 -1.953881e+00 4.738234e+01 4.663921e-03 2.090906e-03 -1.647206e-03 5.032437e-03 9.428829e-03 7.518511e-04 4.304859e-04 1.150001e-03 1.499721e-03 -3.873809e-03 -6.976360e-03 9.052724e-04 -1.071183e-02 -2.275869e-04 2.928441e-04 4.226239e-04 -1.050117e-04 9.285883e-06 4.455707e-05 -2.936708e-05 -2.102184e-04 -1.868845e-04 5.701573e-05 9.767833e-05 1.797879e-05 -5.851154e-05
<VARIANCE> 39
 5.621860e+01 7.766479e+01 6.481821e+01 9.562053e+01 6.049548e+01 5.657086e+01 5.480392e+01 5.008425e+01 4.914367e+01 4.087069e+01 5.828101e+01 3.057198e+01 2.752563e+02 2.237194e+00 2.744779e+00 2.314184e+00 3.150451e+00 2.833982e+00 2.729914e+00 2.770531e+00 2.961210e+00 2.865296e+00 2.587314e+00 2.609837e+00 2.172539e+00 5.756243e+00 3.580279e-01 4.267102e-01 3.847587e-01 5.025513e-01 5.143300e-01 4.921003e-01 4.992913e-01 5.541496e-01 5.335791e-01 4.710282e-01 4.653310e-01 4.058726e-01 7.539369e-01
<GCONST> 1.294845e+02
<STATE> 3
<MEAN> 39
 -2.388757e+00 2.548582e+00 3.644004e+00 -4.298790e+00 4.598271e-01 -2.546112e+00 -2.394082e+00 -6.460549e-01 -1.729763e+00 -1.186941e+00 -2.730517e+00 -1.950038e+00 4.733016e+01 3.849036e-03 2.880298e-03 1.967478e-04 4.194882e-03 9.042604e-03 8.962990e-04 9.046617e-05 3.986242e-04 7.330645e-04 -3.529530e-03 -6.323098e-03 8.168514e-04 -1.066718e-02 -1.505357e-04 1.580580e-04 3.576283e-04 -1.713782e-04 -9.559341e-05 3.480686e-05 -6.828665e-05 -1.636426e-04 -1.513560e-04 7.947105e-05 1.344711e-04 -2.421960e-05 4.514569e-05
<VARIANCE> 39
 5.621860e+01 7.816807e+01 6.481821e+01 9.562053e+01 6.049548e+01 5.657086e+01 5.480392e+01 5.008425e+01 4.914367e+01 4.085933e+01 5.824764e+01 3.029522e+01 2.749835e+02 2.237194e+00 2.748389e+00 2.314184e+00 3.150797e+00 2.833982e+00 2.720000e+00 2.766717e+00 2.959954e+00 2.863314e+00 2.588088e+00 2.611313e+00 2.168771e+00 5.724918e+00 3.580279e-01 4.262751e-01 3.847587e-01 5.025513e-01 5.106434e-01 4.901893e-01 4.983066e-01 5.539268e-01 5.333328e-01 4.711276e-01 4.660498e-01 4.049325e-01 7.477456e-01
<GCONST> 1.294452e+02
<STATE> 4
<MEAN> 39
 -2.512320e+00 2.597469e+00 3.696787e+00 -4.335779e+00 6.270059e-01 -2.625934e+00 -2.416117e+00 -7.248868e-01 -1.820548e+00 -1.289106e+00 -2.880785e+00 -1.846362e+00 4.693506e+01 3.053664e-03 3.010383e-03 3.757393e-03 3.177145e-03 4.801643e-03 -1.816371e-04 -1.095202e-03 1.010327e-03 2.519247e-04 -2.608028e-03 -3.948483e-03 2.983913e-04 -1.189540e-02 -9.216390e-05 5.741598e-05 2.242409e-04 -6.315715e-05 -2.737609e-04 -7.022084e-05 -9.465138e-05 1.447818e-05 -4.045183e-05 9.269353e-05 1.745010e-04 -2.091766e-05 -9.745800e-05
<VARIANCE> 39
 5.621860e+01 7.939096e+01 6.481821e+01 9.562053e+01 6.049548e+01 5.657086e+01 5.480392e+01 5.008425e+01 4.914367e+01 4.091507e+01 5.888262e+01 2.912574e+01 2.766251e+02 2.237194e+00 2.692654e+00 2.314184e+00 3.135170e+00 2.833982e+00 2.679716e+00 2.728828e+00 2.927353e+00 2.842584e+00 2.585719e+00 2.606525e+00 2.130465e+00 5.545644e+00 3.580279e-01 4.174158e-01 3.847587e-01 5.025513e-01 4.999610e-01 4.818811e-01 4.919397e-01 5.481281e-01 5.298952e-01 4.709341e-01 4.662755e-01 3.981068e-01 7.217355e-01
<GCONST> 1.291732e+02
<TRANSP> 5
 0.000000e+00 1.000000e+00 0.000000e+00 0.000000e+00 0.000000e+00
 0.000000e+00 8.078433e-01 1.921567e-01 0.000000e+00 0.000000e+00
 0.000000e+00 0.000000e+00 8.078429e-01 1.921571e-01 0.000000e+00
 0.000000e+00 0.000000e+00 0.000000e+00 9.433893e-01 5.661067e-02
 0.000000e+00 0.000000e+00 0.000000e+00 0.000000e+00 0.000000e+00
<ENDHMM>
~h "ae"
<BEGINHMM>
<NUMSTATES> 5
<STATE> 2
<MEAN> 39
 -2.771311e+00 3.031060e+00 4.987576e+00 -4.914615e+00 -1.593866e+00 -2.840070e+00 -2.072287e+00 -9.174870e-01 -2.697587e+00 -1.798527e+00 -2.588301e+00 -1.655163e+00 4.775460e+01 -2.947820e-03 5.158611e-03 -1.623993e-03 3.233989e-03 3.568210e-03 6.834671e-04 6.778527e-03 3.535221e-03 4.415255e-03 9.067556e-04 1.920038e-03 3.378762e-03 -6.832664e-03 4.218047e-05 1.126663e-04 8.194360e-06 3.342437e-06 -1.765699e-04 5.877604e-05 -1.261852e-04 -8.651393e-05 1.306307e-05 1.239132e-04 -9.771896e-05 3.513080e-05 -1.430228e-04
<VARIANCE> 39
 5.621860e+01 7.745749e+01 6.630379e+01 9.562053e+01 6.127582e+01 5.657086e+01 5.480392e+01 5.101707e+01 4.914367e+01 3.600889e+01 5.758591e+01 2.695450e+01 2.658269e+02 2.381670e+00 2.804852e+00 2.369164e+00 3.129044e+00 2.929425e+00 2.668343e+00 2.646528e+00 2.800580e+00 2.630443e+00 2.383868e+00 2.569609e+00 1.958500e+00 5.614807e+00 3.880828e-01 4.534252e-01 3.999174e-01 5.025513e-01 5.144094e-01 4.861376e-01 4.820749e-01 5.203484e-01 4.798635e-01 4.500161e-01 4.608459e-01 3.791931e-01 7.571098e-01
<GCONST> 1.287791e+02
<STATE> 3
<MEAN> 39
 -2.784699e+00 3.057505e+00 4.980541e+00 -4.899473e+00 -1.579768e+00 -2.836197e+00 -2.041116e+00 -9.011843e-01 -2.675020e+00 -1.793181e+00 -2.582306e+00 -1.637330e+00 4.771973e+01 -2.514140e-03 5.070263e-03 -1.500659e-03 2.919174e-03 2.597416e-03 5.159345e-04 5.742264e-03 3.410064e-03 4.156663e-03 1.435397e-03 1.410819e-03 3.154651e-03 -6.883085e-03 8.647187e-05 -2.682998e-05 3.746452e-05 -7.230183e-05 -1.904138e-04 -3.186863e-05 -2.129359e-04 -3.346139e-05 -5.575365e-05 1.024185e-04 -9.035225e-05 -5.863526e-05 1.340535e-05
<VARIANCE> 39
 5.621860e+01 7.728745e+01 6.614732e+01 9.562053e+01 6.123005e+01 5.657086e+01 5.480392e+01 5.093359e+01 4.914367e+01 3.600889e+01 5.758591e+01 2.695450e+01 2.658269e+02 2.385525e+00 2.809281e+00 2.372771e+00 3.129044e+00 2.929745e+00 2.669066e+00 2.646528e+00 2.802580e+00 2.630443e+00 2.383868e+00 2.569609e+00 1.960605e+00 5.626422e+00 3.887712e-01 4.547738e-01 4.008833e-01 5.025513e-01 5.144910e-01 4.863109e-01 4.824034e-01 5.210177e-01 4.798635e-01 4.500161e-01 4.608459e-01 3.797819e-01 7.589888e-01
<GCONST> 1.287948e+02
<STATE> 4
<MEAN> 39
 -2.775059e+00 3.064920e+00 4.988989e+00 -5.137574e+00 -1.442130e+00 -2.953902e+00 -1.997173e+00 -9.599640e-01 -2.736378e+00 -1.856821e+00 -2.719012e+00 -1.557535e+00 4.772699e+01 -8.927259e-04 3.362044e-03 5.276594e-04 2.704507e-04 4.002077e-04 -1.139818e-03 3.134582e-03 2.391964e-03 2.635102e-03 1.466334e-03 -2.117649e-04 2.088730e-03 -2.794897e-03 9.856929e-05 -9.968320e-05 1.144579e-04 -1.440593e-04 -1.328572e-04 -9.424430e-05 -1.912667e-04 -3.069929e-05 -1.108212e-04 5.042790e-05 -4.194274e-05 -1.108303e-04 2.220446e-04
<VARIANCE> 39
 5.621860e+01 7.827335e+01 6.629153e+01 9.562053e+01 6.049548e+01 5.715723e+01 5.480392e+01 5.053111e+01 4.914367e+01 3.600889e+01 5.758591e+01 2.695450e+01 2.664919e+02 2.333919e+00 2.800499e+00 2.366269e+00 3.129044e+00 2.855368e+00 2.665534e+00 2.646528e+00 2.791958e+00 2.632524e+00 2.383868e+00 2.569609e+00 1.970088e+00 5.698946e+00 3.819923e-01 4.529041e-01 3.987530e-01 5.090095e-01 5.025229e-01 4.850633e-01 4.820749e-01 5.195376e-01 4.808378e-01 4.500161e-01 4.608459e-01 3.823931e-01 7.682176e-01
<GCONST> 1.287393e+02
<TRANSP> 5
 0.000000e+00 1.000000e+00 0.000000e+00 0.000000e+00 0.000000e+00
 0.000000e+00 8.039856e-01 1.960143e-01 0.000000e+00 0.000000e+00
 0.000000e+00 0.000000e+00 8.039854e-01 1.960146e-01 0.000000e+00
 0.000000e+00 0.000000e+00 0.000000e+00 9.399785e-01 6.002146e-02
 0.000000e+00 0.000000e+00 0.000000e+00 0.000000e+00 0.000000e+00
<ENDHMM>
~h "ah"
<BEGINHMM>
<NUMSTATES> 5
<STATE> 2
<MEAN> 39
 -2.896908e+00 3.651255e+00 4.852354e+00 -4.677033e+00 -1.207895e+00 -2.838529e+00 -1.919692e+00 -8.817343e-01 -2.497976e+00 -1.570091e+00 -2.609024e+00 -1.461823e+00 4.662399e+01 -1.200629e-02 7.395029e-03 4.269456e-03 2.973493e-03 -3.326500e-03 2.324448e-03 4.340193e-04 -5.133300e-03 -1.056680e-03 3.217528e-03 7.099758e-03 1.968247e-03 -2.747946e-02 -3.214639e-05 -1.644015e-04 1.084432e-04 -8.633375e-05 -2.258747e-04 -5.059416e-05 -2.114915e-04 -1.492714e-04 -7.359067e-05 -1.875869e-05 -5.951646e-05 -6.439809e-05 3.273123e-04
<VARIANCE> 39
 5.621860e+01 7.408064e+01 6.781296e+01 9.562053e+01 6.049548e+01 5.657086e+01 5.480392e+01 5.177981e+01 4.914367e+01 3.600889e+01 5.758591e+01 2.695450e+01 2.658269e+02 2.237194e+00 2.592087e+00 2.314184e+00 3.129044e+00 2.833982e+00 2.664105e+00 2.646528e+00 2.741223e+00 2.630443e+00 2.383868e+00 2.569609e+00 1.958500e+00 4.984552e+00 3.580279e-01 4.174158e-01 3.847587e-01 5.025513e-01 4.999610e-01 4.797978e-01 4.820749e-01 5.089008e-01 4.798635e-01 4.500161e-01 4.608459e-01 3.767788e-01 6.789643e-01
<GCONST> 1.280377e+02
<STATE> 3
<MEAN> 39
 -2.958568e+00 3.688538e+00 4.873725e+00 -4.662860e+00 -1.227740e+00 -2.826162e+00 -1.920099e+00 -9.090996e-01 -2.503888e+00 -1.553644e+00 -2.572959e+00 -1.452371e+00 4.648396e+01 -1.210657e-02 6.552146e-03 4.761229e-03 2.523337e-03 -4.429515e-03 2.079042e-03 -6.455573e-04 -5.872306e-03 -1.422749e-03 3.110252e-03 6.741255e-03 1.597780e-03 -2.575728e-02 1.873265e-05 -1.603759e-04 6.393914e-05 -9.993475e-05 -2.057204e-04 -2.002172e-05 -1.976902e-04 -1.321503e-04 -5.792810e-05 -4.404098e-05 -7.853472e-05 -7.744854e-05 3.414516e-04
<VARIANCE> 39
 5.621860e+01 7.408064e+01 6.790257e+01 9.562053e+01 6.049548e+01 5.657086e+01 5.480392e+01 5.134552e+01 4.914367e+01 3.600889e+01 5.758591e+01 2.695450e+01 2.658269e+02 2.237194e+00 2.592087e+00 2.314184e+00 3.129044e+00 2.833982e+00 2.664105e+00 2.646528e+00 2.741223e+00 2.630443e+00 2.383868e+00 2.569609e+00 1.958500e+00 4.984552e+00 3.580279e-01 4.174158e-01 3.847587e-01 5.025513e-01 4.999610e-01 4.797978e-01 4.820749e-01 5.089008e-01 4.798635e-01 4.500161e-01 4.608459e-01 3.767788e-01 6.789643e-01
<GCONST> 1.280306e+02
<STATE> 4
<MEAN> 39
 -3.067687e+00 3.808860e+00 4.946367e+00 -4.801833e+00 -1.153303e+00 -2.826352e+00 -1.953677e+00 -1.089576e+00 -2.639459e+00 -1.632041e+00 -2.659797e+00 -1.388988e+00 4.628637e+01 -1.131493e-02 5.318229e-03 4.348458e-03 1.577548e-03 -5.935773e-03 2.138303e-03 -2.433394e-03 -6.522702e-03 -1.640652e-03 2.941981e-03 5.802164e-03 9.660212e-04 -2.278907e-02 6.688017e-05 -1.497148e-04 1.056036e-05 -1.094951e-04 -1.347056e-04 8.221134e-06 -1.458036e-04 -8.281930e-05 -2.356827e-05 -4.839754e-05 -8.602324e-05 -7.989570e-05 3.729372e-04
<VARIANCE> 39
 5.621860e+01 7.408064e+01 6.875161e+01 9.682665e+01 6.049548e+01 5.657086e+01 5.480392e+01 5.038333e+01 4.914367e+01 3.600889e+01 5.758591e+01 2.695450e+01 2.658269e+02 2.237194e+00 2.592087e+00 2.314184e+00 3.129044e+00 2.833982e+00 2.664105e+00 2.646528e+00 2.741223e+00 2.630443e+00 2.383868e+00 2.569609e+00 1.958500e+00 4.984552e+00 3.580279e-01 4.174158e-01 3.847587e-01 5.025513e-01 4.999610e-01 4.797978e-01 4.820749e-01 5.089008e-01 4.798635e-01 4.500161e-01 4.608459e-01 3.767788e-01 6.789643e-01
<GCONST> 1.280366e+02
<TRANSP> 5
 0.000000e+00 1.000000e+00 0.000000e+00 0.000000e+00 0.000000e+00
 0.000000e+00 8.064384e-01 1.935615e-01 0.000000e+00 0.000000e+00
 0.000000e+00 0.000000e+00 8.064408e-01 1.935593e-01 0.000000e+00
 0.000000e+00 0.000000e+00 0.000000e+00 9.429324e-01 5.706755e-02
 0.000000e+00 0.000000e+00 0.000000e+00 0.000000e+00 0.000000e+00
<ENDHMM>
~h "ao"
<BEGINHMM>
<NUMSTATES> 5
<STATE> 2
<MEAN> 39
 -2.085535e+00 2.991833e+00 3.007557e+00 -6.017892e+00 -1.331514e-01 -1.842657e+00 -3.170002e+00 -1.341072e+00 -2.605032e+00 -6.070638e-01 -1.840247e+00 -1.840768e+00 4.716626e+01 4.404014e-03 -4.158877e-03 1.658899e-03 5.498283e-03 -2.370884e-03 4.665723e-03 -2.784573e-03 5.336420e-03 2.437366e-03 1.726742e-03 7.302688e-03 -4.132180e-03 2.283743e-03 1.501222e-04 9.408020e-05 -7.517086e-05 -4.464428e-05 -1.896772e-04 8.382958e-06 -2.109740e-04 -5.687043e-05 3.429653e-05 -5.480116e-05 -9.771400e-05 -8.763140e-05 1.464207e-05
<VARIANCE> 39
 5.636087e+01 7.408064e+01 6.573805e+01 1.187860e+02 6.049548e+01 5.657086e+01 6.039404e+01 5.008425e+01 4.914367e+01 3.958184e+01 5.758591e+01 2.908403e+01 2.658269e+02 2.237194e+00 2.592087e+00 2.314184e+00 3.129044e+00 2.833982e+00 2.664105e+00 2.646528e+00 2.741223e+00 2.630443e+00 2.383868e+00 2.569609e+00 1.958500e+00 4.984552e+00 3.580279e-01 4.174158e-01 3.945907e-01 5.025513e-01 5.109657e-01 4.797978e-01 4.820749e-01 5.089008e-01 4.798635e-01 4.500161e-01 4.608459e-01 3.767788e-01 6.789643e-01
<GCONST> 1.285076e+02
<STATE> 3
<MEAN> 39
 -2.063820e+00 2.977518e+00 3.011751e+00 -5.985919e+00 -1.434489e-01 -1.817543e+00 -3.183005e+00 -1.315201e+00 -2.589456e+00 -6.000643e-01 -1.804894e+00 -1.859763e+00 4.716428e+01 4.656265e-03 -3.261885e-03 1.466874e-03 5.736257e-03 -3.079415e-03 4.672738e-03 -3.563670e-03 4.657028e-03 2.650229e-03 1.259574e-03 6.517214e-03 -4.206398e-03 1.768850e-03 1.342286e-05 1.972703e-04 -2.085964e-05 7.107045e-05 -1.389962e-04 -1.274611e-05 -1.333710e-04 -1.294964e-04 3.677719e-05 -1.123517e-04 -1.598897e-04 1.006134e-06 -1.461022e-04
<VARIANCE> 39
 5.656282e+01 7.408064e+01 6.566660e+01 1.184836e+02 6.049548e+01 5.657086e+01 6.051186e+01 5.008425e+01 4.914367e+01 3.936409e+01 5.758591e+01 2.918378e+01 2.658269e+02 2.237194e+00 2.592087e+00 2.314184e+00 3.129044e+00 2.835698e+00 2.664105e+00 2.646528e+00 2.741223e+00 2.630443e+00 2.383868e+00 2.569609e+00 1.958500e+00 4.984552e+00 3.580279e-01 4.174158e-01 3.942830e-01 5.025513e-01 5.120358e-01 4.797978e-01 4.820749e-01 5.089008e-01 4.798635e-01 4.500161e-01 4.608459e-01 3.767788e-01 6.789643e-01
<GCONST> 1.285093e+02
<STATE> 4
<MEAN> 39
 -2.108868e+00 3.121123e+00 2.907181e+00 -6.019753e+00 1.267829e-01 -1.777393e+00 -3.233229e+00 -1.320683e+00 -2.730121e+00 -7.415304e-01 -1.950876e+00 -1.829781e+00 4.682824e+01 2.958615e-03 5.947868e-04 -3.947204e-04 5.116931e-03 -1.329377e-03 4.611647e-03 -2.281601e-03 1.064721e-03 2.648588e-03 -4.067299e-04 1.761755e-03 -2.331385e-03 -1.171720e-03 -9.607589e-05 1.311076e-04 -2.300816e-05 -5.515026e-05 -5.812863e-05 -7.515536e-05 -5.561019e-05 -2.049236e-04 -4.684227e-05 -1.216830e-04 -3.097043e-04 5.821946e-05 5.646415e-05
<VARIANCE> 39
 5.621860e+01 7.408064e+01 6.583019e+01 1.236570e+02 6.049548e+01 5.657086e+01 6.113264e+01 5.008425e+01 4.914367e+01 3.890828e+01 5.758591e+01 2.908965e+01 2.658269e+02 2.237194e+00 2.592087e+00 2.314184e+00 3.129044e+00 2.833982e+00 2.664105e+00 2.646528e+00 2.741223e+00 2.630443e+00 2.383868e+00 2.569609e+00 1.958500e+00 4.984552e+00 3.580279e-01 4.174158e-01 3.847587e-01 5.025513e-01 4.999610e-01 4.797978e-01 4.820749e-01 5.089008e-01 4.798635e-01 4.500161e-01 4.608459e-01 3.767788e-01 6.789643e-01
<GCONST> 1.284948e+02
<TRANSP> 5
 0.000000e+00 1.000000e+00 0.000000e+00 0.000000e+00 0.000000e+00
 0.000000e+00 8.072881e-01 1.927119e-01 0.000000e+00 0.000000e+00
 0.000000e+00 0.000000e+00 8.072879e-01 1.927121e-01 0.000000e+00
 0.000000e+00 0.000000e+00 0.000000e+00 9.449299e-01 5.507017e-02
 0.000000e+00 0.000000e+00 0.000000e+00 0.000000e+00 0.000000e+00
<ENDHMM>
~h "ay"
<BEGINHMM>
<NUMSTATES> 5
<STATE> 2
<MEAN> 39
 -2.550927e+00 2.407190e+00 5.140829e+00 -6.479916e+00 -1.885538e+00 -3.395306e+00 -2.451396e+00 -1.546847e+00 -3.354572e+00 -1.974021e+00 -3.321040e+00 -1.554946e+00 4.960888e+01 1.425528e-03 3.995290e-03 1.067822e-03 4.120231e-04 3.941510e-03 -9.656326e-04 3.471161e-03 6.526674e-04 1.330666e-03 -2.899034e-04 2.191721e-03 2.087792e-04 -4.517217e-03 1.257224e-05 4.811227e-06 7.251845e-05 1.647687e-04 -1.221610e-05 1.004733e-05 5.220935e-05 -4.247727e-05 2.702686e-05 3.173394e-05 -3.697060e-06 -1.390672e-05 -1.365050e-04
<VARIANCE> 39
 5.621860e+01 8.673724e+01 7.482559e+01 1.070151e+02 6.486919e+01 6.750099e+01 5.587710e+01 5.872322e+01 5.028867e+01 4.119231e+01 6.381686e+01 2.936595e+01 2.759040e+02 2.253860e+00 2.843851e+00 2.486036e+00 3.539503e+00 2.962332e+00 2.844362e+00 2.803092e+00 3.007670e+00 2.740430e+00 2.555509e+00 2.737297e+00 2.064072e+00 5.687864e+00 3.580279e-01 4.397146e-01 4.027288e-01 5.669643e-01 5.122672e-01 5.050153e-01 5.132508e-01 5.565451e-01 4.993980e-01 4.697362e-01 4.862325e-01 3.982172e-01 7.812974e-01
<GCONST> 1.308726e+02
<STATE> 3
<MEAN> 39
 -2.542529e+00 2.427699e+00 5.149343e+00 -6.474806e+00 -1.867908e+00 -3.399225e+00 -2.433615e+00 -1.544714e+00 -3.347397e+00 -1.974169e+00 -3.310200e+00 -1.554520e+00 4.958872e+01 1.474038e-03 4.135253e-03 1.332541e-03 1.317181e-03 3.978664e-03 -6.850064e-04 3.623747e-03 4.241058e-04 1.502208e-03 -1.275826e-04 2.192868e-03 1.557384e-04 -5.377789e-03 8.810923e-06 2.153139e-05 5.509337e-05 1.754065e-04 -1.277149e-05 4.679665e-05 3.091713e-05 -5.586261e-05 2.846409e-05 3.127237e-05 -1.860516e-05 -4.928341e-06 -1.759387e-04
<VARIANCE> 39
 5.621860e+01 8.668228e+01 7.499146e+01 1.071867e+02 6.498196e+01 6.766305e+01 5.578187e+01 5.878887e+01 5.041650e+01 4.125245e+01 6.379140e+01 2.935613e+01 2.755637e+02 2.252933e+00 2.841666e+00 2.487318e+00 3.551638e+00 2.971272e+00 2.845902e+00 2.800132e+00 3.004882e+00 2.741723e+00 2.550899e+00 2.736011e+00 2.064304e+00 5.689839e+00 3.580279e-01 4.394166e-01 4.032366e-01 5.688897e-01 5.137810e-01 5.050467e-01 5.126393e-01 5.560372e-01 4.997888e-01 4.687104e-01 4.862932e-01 3.981979e-01 7.810584e-01
<GCONST> 1.308876e+02
<STATE> 4
<MEAN> 39
 -2.504988e+00 2.547658e+00 5.292071e+00 -6.682775e+00 -1.718158e+00 -3.472038e+00 -2.396724e+00 -1.734173e+00 -3.414197e+00 -2.048337e+00 -3.426394e+00 -1.489126e+00 4.935663e+01 1.739094e-03 4.806030e-03 2.133947e-03 3.567562e-03 3.491493e-03 1.490605e-03 2.724231e-03 1.284237e-04 1.995491e-03 7.528495e-04 2.306486e-03 -2.443301e-04 -6.608755e-03 2.830086e-06 5.417934e-05 1.889492e-05 1.567129e-04 1.760863e-05 1.279967e-04 -2.261097e-05 -3.016740e-05 2.944225e-05 2.976785e-05 -6.542396e-06 -8.740826e-06 -2.503406e-04
<VARIANCE> 39
 5.621860e+01 8.646069e+01 7.644170e+01 1.101312e+02 6.310579e+01 6.800245e+01 5.576599e+01 5.849343e+01 5.082843e+01 4.135260e+01 6.445157e+01 2.856248e+01 2.768285e+02 2.237194e+00 2.765751e+00 2.440931e+00 3.587651e+00 2.869163e+00 2.822106e+00 2.763137e+00 2.955698e+00 2.744163e+00 2.542444e+00 2.718458e+00 2.043206e+00 5.683570e+00 3.580279e-01 4.267903e-01 3.952736e-01 5.749288e-01 4.999610e-01 4.997721e-01 5.047668e-01 5.467563e-01 4.993136e-01 4.669603e-01 4.836476e-01 3.951473e-01 7.750515e-01
<GCONST> 1.306293e+02
<TRANSP> 5
 0.000000e+00 1.000000e+00 0.000000e+00 0.000000e+00 0.000000e+00
 0.000000e+00 8.075650e-01 1.924350e-01 0.000000e+00 0.000000e+00
 0.000000e+00 0.000000e+00 8.075645e-01 1.924356e-01 0.000000e+00
 0.000000e+00 0.000000e+00 0.000000e+00 9.440448e-01 5.595523e-02
 0.000000e+00 0.000000e+00 0.000000e+00 0.000000e+00 0.000000e+00
<ENDHMM>
~h "ch"
<BEGINHMM>
<NUMSTATES> 5
<STATE> 2
<MEAN> 39
 -3.289094e+00 3.632496e+00 5.655574e+00 -4.610521e+00 -2.212061e+00 -2.856291e+00 -2.078119e+00 -1.188649e+00 -2.974842e+00 -1.736500e+00 -2.308250e+00 -1.600384e+00 4.745835e+01 4.561896e-03 5.603482e-03 -4.146139e-03 1.344157e-02 2.765177e-03 2.981553e-03 7.090373e-03 6.827970e-03 7.338487e-03 -3.008669e-03 8.054712e-03 -3.454056e-03 -3.951425e-03 -2.477897e-04 2.646011e-05 -1.391272e-04 -2.230699e-04 5.967598e-04 -3.012632e-04 3.627113e-05 1.951852e-04 -5.612679e-05 6.024304e-04 -9.963546e-05 4.567386e-04 6.859472e-04
<VARIANCE> 39
 5.621860e+01 7.408064e+01 6.692570e+01 9.562053e+01 6.146028e+01 5.657086e+01 5.480392e+01 5.008425e+01 5.105049e+01 3.600889e+01 5.758591e+01 2.695450e+01 2.658269e+02 2.498958e+00 2.615957e+00 2.414032e+00 3.129044e+00 2.956323e+00 2.664105e+00 2.646528e+00 2.741223e+00 2.630443e+00 2.383868e+00 2.569609e+00 1.958500e+00 5.501259e+00 4.027966e-01 4.270524e-01 4.001349e-01 5.025513e-01 5.187110e-01 4.893255e-01 4.820749e-01 5.089008e-01 4.798635e-01 4.500161e-01 4.608459e-01 3.782345e-01 7.295651e-01
<GCONST> 1.286601e+02
<STATE> 3
<MEAN> 39
 -3.267800e+00 3.659315e+00 5.627280e+00 -4.546372e+00 -2.187138e+00 -2.841249e+00 -2.039989e+00 -1.152005e+00 -2.937913e+00 -1.740044e+00 -2.268462e+00 -1.608643e+00 4.744154e+01 3.948925e-03 4.864096e-03 -5.590038e-03 1.218791e-02 5.141866e-03 2.641490e-03 7.203577e-03 7.409356e-03 7.456122e-03 -3.254196e-04 7.640965e-03 -1.449117e-03 -2.619918e-03 -9.989970e-05 -1.620073e-04 -2.894659e-04 -2.706948e-04 4.404645e-04 -7.382641e-05 7.829847e-06 8.330720e-05 -8.674127e-06 5.189726e-04 -1.274525e-04 3.745275e-04 2.348698e-04
<VARIANCE> 39
 5.621860e+01 7.408064e+01 6.651474e+01 9.562053e+01 6.140829e+01 5.657086e+01 5.480392e+01 5.008425e+01 5.076308e+01 3.600889e+01 5.758591e+01 2.695450e+01 2.658269e+02 2.503694e+00 2.610072e+00 2.411814e+00 3.129044e+00 2.953162e+00 2.664105e+00 2.646528e+00 2.741223e+00 2.630443e+00 2.383868e+00 2.569609e+00 1.958500e+00 5.492990e+00 4.034008e-01 4.266714e-01 4.001991e-01 5.025513e-01 5.181389e-01 4.881330e-01 4.820749e-01 5.089008e-01 4.798635e-01 4.500161e-01 4.608459e-01 3.774055e-01 7.287229e-01
<GCONST> 1.286375e+02
<STATE> 4
<MEAN> 39
 -3.223795e+00 3.664075e+00 5.452550e+00 -4.569396e+00 -2.018842e+00 -2.964592e+00 -1.918663e+00 -1.074450e+00 -2.884617e+00 -1.752179e+00 -2.288296e+00 -1.547859e+00 4.739370e+01 3.080609e-03 3.347552e-03 -6.508735e-03 9.847908e-03 5.577010e-03 4.208046e-03 6.612618e-03 6.663179e-03 8.353431e-03 2.407877e-03 4.826225e-03 8.657220e-05 -4.577006e-03 -2.987753e-05 -1.392039e-04 -3.746500e-05 -2.113413e-04 1.475972e-05 3.184642e-05 -1.247475e-04 -5.083244e-05 1.516529e-05 1.885199e-04 -2.148498e-04 6.282239e-05 -3.940293e-05
<VARIANCE> 39
 5.621860e+01 7.408064e+01 6.481821e+01 9.562053e+01 6.049548e+01 5.657086e+01 5.480392e+01 5.008425e+01 5.016885e+01 3.600889e+01 5.758591e+01 2.695450e+01 2.658269e+02 2.488867e+00 2.601559e+00 2.390315e+00 3.129044e+00 2.886713e+00 2.664105e+00 2.646528e+00 2.741223e+00 2.630443e+00 2.383868e+00 2.569609e+00 1.958500e+00 5.502913e+00 4.014768e-01 4.247608e-01 3.964644e-01 5.025513e-01 5.090244e-01 4.808317e-01 4.820749e-01 5.089008e-01 4.798635e-01 4.500161e-01 4.608459e-01 3.772341e-01 7.297966e-01
<GCONST> 1.284953e+02
<TRANSP> 5
 0.000000e+00 1.000000e+00 0.000000e+00 0.000000e+00 0.000000e+00
 0.000000e+00 8.031310e-01 1.968689e-01 0.000000e+00 0.000000e+00
 0.000000e+00 0.000000e+00 8.031318e-01 1.968683e-01 0.000000e+00
 0.000000e+00 0.000000e+00 0.000000e+00 9.384273e-01 6.157265e-02
 0.000000e+00 0.000000e+00 0.000000e+00 0.000000e+00 0.000000e+00
<ENDHMM>
~h "eh"
<BEGINHMM>
<NUMSTATES> 5
<STATE> 2
<MEAN> 39
 -3.838760e+00 2.744772e+00 4.066379e+00 -3.959615e+00 -2.159823e+00 -3.502532e+00 -1.625278e+00 -1.013887e-01 -2.577577e+00 -2.294124e+00 -2.866520e+00 -1.625064e+00 4.910310e+01 1.233902e-02 -1.568867e-02 5.024718e-03 -1.770602e-03 -1.432919e-02 -3.206675e-03 -3.855059e-03 -1.050601e-03 -9.260352e-03 1.100911e-03 -1.510889e-02 -2.259184e-03 5.149959e-02 1.666897e-04 1.008936e-04 1.902217e-05 -5.200685e-05 -6.569443e-05 -1.944784e-05 2.022514e-04 1.068076e-05 -2.416124e-04 -8.589651e-05 4.377465e-04 -1.116830e-04 -1.237634e-04
<VARIANCE> 39
 6.950896e+01 8.040841e+01 6.481821e+01 9.562053e+01 6.049548e+01 5.657086e+01 5.480392e+01 5.063996e+01 4.914367e+01 3.600889e+01 5.758591e+01 2.695450e+01 2.697439e+02 2.596994e+00 2.877547e+00 2.457648e+00 3.200438e+00 2.833982e+00 2.695080e+00 2.646528e+00 2.742645e+00 2.630443e+00 2.383868e+00 2.600315e+00 1.958500e+00 4.984552e+00 3.926221e-01 4.437867e-01 4.107741e-01 5.093402e-01 4.999610e-01 4.821356e-01 4.820749e-01 5.089008e-01 4.798635e-01 4.500161e-01 4.656197e-01 3.767788e-01 6.789643e-01
<GCONST> 1.288868e+02
<STATE> 3
<MEAN> 39
 -3.774054e+00 2.678360e+00 4.089763e+00 -3.972556e+00 -2.226066e+00 -3.517491e+00 -1.639142e+00 -1.095359e-01 -2.630358e+00 -2.290186e+00 -2.935804e+00 -1.638121e+00 4.936274e+01 1.175672e-02 -1.183110e-02 5.050892e-03 -2.520735e-03 -1.314349e-02 -3.112597e-03 -3.110563e-03 -2.121676e-03 -9.801902e-03 1.113452e-03 -1.200585e-02 -2.679510e-03 4.838136e-02 -2.106334e-04 8.402654e-04 6.370719e-07 -1.563568e-04 2.413531e-04 2.366925e-05 1.107099e-04 -2.455724e-04 -9.979450e-05 -1.653098e-08 6.457919e-04 -9.758647e-05 -6.455673e-04
<VARIANCE> 39
 7.019441e+01 8.124783e+01 6.481821e+01 9.562053e+01 6.049548e+01 5.657086e+01 5.480392e+01 5.048130e+01 4.914367e+01 3.600889e+01 5.758591e+01 2.695450e+01 2.705705e+02 2.590647e+00 2.875091e+00 2.473481e+00 3.196605e+00 2.833982e+00 2.703328e+00 2.646528e+00 2.741223e+00 2.630443e+00 2.383868e+00 2.618057e+00 1.958500e+00 4.984552e+00 3.895981e-01 4.434965e-01 4.125513e-01 5.068956e-01 4.999610e-01 4.829830e-01 4.820749e-01 5.089008e-01 4.798635e-01 4.500161e-01 4.672128e-01 3.767788e-01 6.789643e-01
<GCONST> 1.289145e+02
<STATE> 4
<MEAN> 39
 -3.780112e+00 2.883275e+00 4.100832e+00 -4.229726e+00 -2.152082e+00 -3.586493e+00 -1.750657e+00 -4.741327e-01 -2.854757e+00 -2.354796e+00 -3.083617e+00 -1.624587e+00 4.965908e+01 1.124346e-02 -1.568459e-03 3.615457e-03 -7.357512e-03 -5.510975e-03 -3.168994e-03 -5.112326e-03 -3.747772e-03 -8.520310e-03 9.396842e-04 -5.808356e-03 -1.885555e-03 4.014472e-02 -2.396469e-04 7.358750e-04 -4.385752e-06 -1.776436e-04 3.525101e-04 4.486439e-05 -1.670835e-04 -2.070931e-04 1.264303e-04 5.265269e-05 5.085690e-04 -3.312220e-06 -8.186492e-04
<VARIANCE> 39
 7.017146e+01 8.033630e+01 6.481821e+01 9.562053e+01 6.049548e+01 5.913693e+01 5.480392e+01 5.008425e+01 4.914367e+01 3.600889e+01 6.116706e+01 2.695450e+01 2.746301e+02 2.569220e+00 2.815071e+00 2.516944e+00 3.364957e+00 2.833982e+00 2.725878e+00 2.651879e+00 2.741223e+00 2.630443e+00 2.383868e+00 2.716326e+00 1.958500e+00 4.984552e+00 3.832230e-01 4.346167e-01 4.171505e-01 5.268496e-01 4.999610e-01 4.824169e-01 4.851681e-01 5.089008e-01 4.798635e-01 4.500161e-01 4.802386e-01 3.767788e-01 6.789643e-01
<GCONST> 1.291468e+02
<TRANSP> 5
 0.000000e+00 1.000000e+00 0.000000e+00 0.000000e+00 0.000000e+00
 0.000000e+00 8.081970e-01 1.918030e-01 0.000000e+00 0.000000e+00
 0.000000e+00 0.000000e+00 8.081961e-01 1.918039e-01 0.000000e+00
 0.000000e+00 0.000000e+00 0.000000e+00 9.457051e-01 5.429496e-02
 0.000000e+00 0.000000e+00 0.000000e+00 0.000000e+00 0.000000e+00
<ENDHMM>
~h "er"
<BEGINHMM>
<NUMSTATES> 5
<STATE> 2
<MEAN> 39
 -4.227714e+00 2.996363e+00 3.424464e+00 -2.429547e+00 -8.736387e-01 -2.644528e+00 -1.182744e+00 4.919429e-01 -1.677325e+00 -2.424093e+00 -2.416996e+00 -1.128180e+00 4.495077e+01 -7.086178e-03 -6.872843e-03 -1.083387e-02 -1.039717e-02 -2.997407e-03 -3.670735e-03 -4.394476e-03 2.014694e-03 8.951833e-03 -5.395324e-03 -1.041112e-02 -4.153372e-03 4.193615e-03 7.395021e-06 3.931197e-04 -1.111655e-04 -1.261576e-03 -9.451165e-05 -1.318585e-04 -4.134414e-04 1.652637e-04 -4.359099e-04 -2.741297e-04 4.168055e-04 1.854003e-04 8.009594e-04
<VARIANCE> 39
 6.186705e+01 7.793778e+01 6.481821e+01 9.562053e+01 6.049548e+01 5.657086e+01 5.480392e+01 5.008425e+01 4.914367e+01 3.600889e+01 5.758591e+01 2.695450e+01 2.658269e+02 2.237194e+00 2.592087e+00 2.314184e+00 3.129044e+00 2.833982e+00 2.664105e+00 2.646528e+00 2.741223e+00 2.630443e+00 2.383868e+00 2.569609e+00 1.958500e+00 4.984552e+00 3.580279e-01 4.174158e-01 3.847587e-01 5.025513e-01 4.999610e-01 4.797978e-01 4.820749e-01 5.089008e-01 4.798635e-01 4.500161e-01 4.608459e-01 3.767788e-01 6.789643e-01
<GCONST> 1.281057e+02
<STATE> 3
<MEAN> 39
 -4.263473e+00 2.957495e+00 3.370980e+00 -2.486743e+00 -8.950047e-01 -2.669825e+00 -1.211764e+00 5.072037e-01 -1.635140e+00 -2.443957e+00 -2.470980e+00 -1.152356e+00 4.498898e+01 -6.773413e-03 -5.043898e-03 -1.133504e-02 -1.604530e-02 -3.704265e-03 -4.273530e-03 -5.686768e-03 2.728578e-03 6.518000e-03 -6.500621e-03 -8.543486e-03 -3.233665e-03 8.031056e-03 -4.547396e-05 4.587184e-04 1.241087e-04 -1.195620e-03 -4.978363e-04 6.727714e-07 -8.883543e-05 1.966542e-04 -5.797309e-04 4.531900e-05 2.874836e-04 3.327700e-04 8.793377e-04
<VARIANCE> 39
 6.122618e+01 7.806818e+01 6.481821e+01 9.562053e+01 6.049548e+01 5.657086e+01 5.480392e+01 5.008425e+01 4.914367e+01 3.600889e+01 5.758591e+01 2.695450e+01 2.658269e+02 2.237194e+00 2.592087e+00 2.314184e+00 3.129044e+00 2.833982e+00 2.664105e+00 2.646528e+00 2.741223e+00 2.630443e+00 2.383868e+00 2.569609e+00 1.958500e+00 4.984552e+00 3.580279e-01 4.174158e-01 3.847587e-01 5.025513e-01 4.999610e-01 4.797978e-01 4.820749e-01 5.089008e-01 4.798635e-01 4.500161e-01 4.608459e-01 3.767788e-01 6.789643e-01
<GCONST> 1.280970e+02
<STATE> 4
<MEAN> 39
 -4.491920e+00 3.288693e+00 3.458473e+00 -2.637681e+00 -9.041132e-01 -2.513778e+00 -1.357308e+00 2.219480e-01 -1.540351e+00 -2.483796e+00 -2.422551e+00 -1.130809e+00 4.427455e+01 -6.174849e-03 -4.650064e-03 -1.005398e-02 -2.012044e-02 -7.358937e-03 -5.871590e-03 -4.234375e-03 4.718299e-03 3.710372e-03 -2.627254e-03 -8.612988e-03 -3.476637e-03 1.591769e-02 -5.686212e-05 6.410489e-04 4.639793e-04 -5.609221e-04 -3.619217e-04 2.477172e-04 6.907526e-04 3.766604e-04 -2.352597e-04 3.504211e-04 1.516126e-04 5.952606e-04 8.321699e-04
<VARIANCE> 39
 5.759010e+01 7.504479e+01 6.481821e+01 9.562053e+01 6.049548e+01 5.657086e+01 5.480392e+01 5.008425e+01 4.914367e+01 3.600889e+01 5.758591e+01 2.695450e+01 2.658269e+02 2.237194e+00 2.592087e+00 2.314184e+00 3.129044e+00 2.833982e+00 2.664105e+00 2.646528e+00 2.741223e+00 2.630443e+00 2.383868e+00 2.569609e+00 1.958500e+00 4.984552e+00 3.580279e-01 4.174158e-01 3.847587e-01 5.025513e-01 4.999610e-01 4.797978e-01 4.820749e-01 5.089008e-01 4.798635e-01 4.500161e-01 4.608459e-01 3.767788e-01 6.789643e-01
<GCONST> 1.279963e+02
<TRANSP> 5
 0.000000e+00 1.000000e+00 0.000000e+00 0.000000e+00 0.000000e+00
 0.000000e+00 7.981699e-01 2.018301e-01 0.000000e+00 0.000000e+00
 0.000000e+00 0.000000e+00 7.981703e-01 2.018297e-01 0.000000e+00
 0.000000e+00 0.000000e+00 0.000000e+00 9.347828e-01 6.521718e-02
 0.000000e+00 0.000000e+00 0.000000e+00 0.000000e+00 0.000000e+00
<ENDHMM>
~h "ey"
<BEGINHMM>
<NUMSTATES> 5
<STATE> 2
<MEAN> 39
 -2.721440e+00 5.326706e+00 5.803415e+00 -3.574931e+00 -1.588539e+00 -2.075888e+00 -2.213109e+00 -1.211815e+00 -1.665821e+00 -7.222096e-01 -1.477485e+00 -1.263024e+00 4.475262e+01 -3.439553e-03 3.423806e-03 1.876620e-03 -2.236329e-03 -4.821444e-03 1.416506e-03 -1.164562e-02 -8.849716e-03 9.527076e-04 3.925169e-03 -2.611337e-03 -5.623288e-03 -4.492769e-04 8.962263e-06 -3.786517e-04 -1.434068e-04 -4.860172e-04 -2.492770e-04 -1.693762e-04 -1.753981e-04 -1.364641e-04 -4.571864e-04 8.504030e-05 -6.325859e-05 -1.985000e-04 6.462508e-04
<VARIANCE> 39
 5.621860e+01 7.408064e+01 6.481821e+01 9.562053e+01 6.114920e+01 5.657086e+01 5.792327e+01 5.008425e+01 4.914367e+01 3.600889e+01 5.758591e+01 2.695450e+01 2.658269e+02 2.237194e+00 2.592087e+00 2.314184e+00 3.129044e+00 2.833982e+00 2.664105e+00 2.646528e+00 2.741223e+00 2.630443e+00 2.383868e+00 2.569609e+00 1.958500e+00 4.984552e+00 3.580279e-01 4.174158e-01 3.847587e-01 5.025513e-01 4.999610e-01 4.797978e-01 4.820749e-01 5.089008e-01 4.817219e-01 4.546411e-01 4.608459e-01 3.767788e-01 6.789643e-01
<GCONST> 1.280394e+02
<STATE> 3
<MEAN> 39
 -2.742651e+00 5.346064e+00 5.814654e+00 -3.589270e+00 -1.614806e+00 -2.067002e+00 -2.269222e+00 -1.253082e+00 -1.663440e+00 -7.032316e-01 -1.485425e+00 -1.292435e+00 4.474216e+01 -3.628199e-03 1.645513e-03 1.123036e-03 -5.067714e-03 -5.988466e-03 4.819408e-04 -1.233491e-02 -9.511669e-03 -1.244035e-03 4.416924e-03 -2.770083e-03 -6.487031e-03 2.425711e-03 -1.485803e-05 -3.526666e-04 -9.264021e-05 -4.966262e-04 -1.658999e-04 -1.918024e-04 -9.261553e-05 -9.873765e-05 -4.101578e-04 1.305089e-04 -1.100115e-05 -1.388091e-04 5.518082e-04
<VARIANCE> 39
 5.621860e+01 7.408064e+01 6.481821e+01 9.562053e+01 6.077826e+01 5.657086e+01 5.789231e+01 5.008425e+01 4.914367e+01 3.600889e+01 5.758591e+01 2.695450e+01 2.658269e+02 2.237194e+00 2.592087e+00 2.314184e+00 3.129044e+00 2.833982e+00 2.664105e+00 2.646528e+00 2.741223e+00 2.630443e+00 2.383868e+00 2.569609e+00 1.958500e+00 4.984552e+00 3.580279e-01 4.174158e-01 3.847587e-01 5.025513e-01 4.999610e-01 4.797978e-01 4.820749e-01 5.089008e-01 4.830180e-01 4.572210e-01 4.608459e-01 3.767788e-01 6.789643e-01
<GCONST> 1.280412e+02
<STATE> 4
<MEAN> 39
 -2.832601e+00 5.783997e+00 5.798424e+00 -3.545321e+00 -1.324148e+00 -1.995576e+00 -2.095094e+00 -1.260245e+00 -1.663815e+00 -7.738882e-01 -1.537970e+00 -1.185026e+00 4.420117e+01 -5.960913e-03 1.537539e-03 -8.932868e-04 -7.558541e-03 -5.860979e-03 1.024979e-03 -1.015541e-02 -8.103926e-03 -2.115241e-03 4.755759e-03 -2.727883e-04 -6.352703e-03 -2.819875e-03 -5.980156e-05 -3.215427e-04 -1.593438e-04 -3.634676e-04 3.081413e-05 -1.592663e-04 2.818140e-05 -7.369799e-05 -2.494209e-04 1.340409e-04 -2.966779e-05 -3.921734e-06 2.988596e-04
<VARIANCE> 39
 5.621860e+01 7.408064e+01 6.481821e+01 9.562053e+01 6.049548e+01 5.657086e+01 5.615649e+01 5.008425e+01 4.914367e+01 3.600889e+01 5.758591e+01 2.695450e+01 2.658269e+02 2.237194e+00 2.592087e+00 2.314184e+00 3.129044e+00 2.833982e+00 2.664105e+00 2.646528e+00 2.741223e+00 2.630443e+00 2.383868e+00 2.569609e+00 1.958500e+00 4.984552e+00 3.580279e-01 4.174158e-01 3.847587e-01 5.025513e-01 4.999610e-01 4.797978e-01 4.820749e-01 5.089008e-01 4.798635e-01 4.500161e-01 4.608459e-01 3.767788e-01 6.789643e-01
<GCONST> 1.279836e+02
<TRANSP> 5
 0.000000e+00 1.000000e+00 0.000000e+00 0.000000e+00 0.000000e+00
 0.000000e+00 8.009637e-01 1.990363e-01 0.000000e+00 0.000000e+00
 0.000000e+00 0.000000e+00 8.009630e-01 1.990370e-01 0.000000e+00
 0.000000e+00 0.000000e+00 0.000000e+00 9.378437e-01 6.215630e-02
 0.000000e+00 0.000000e+00 0.000000e+00 0.000000e+00 0.000000e+00
<ENDHMM>
~h "hh"
<BEGINHMM>
<NUMSTATES> 5
<STATE> 2
<MEAN> 39
 -1.663334e+00 8.745120e-01 1.905632e+00 -7.544177e+00 -5.519593e-01 -2.881511e+00 -4.925337e+00 -1.618267e+00 -4.294379e+00 -6.017627e-01 -2.163245e+00 -1.606536e+00 5.454441e+01 -1.100630e-02 2.381890e-02 -4.065194e-02 -2.410022e-02 5.941270e-02 1.932018e-02 3.227337e-02 1.613870e-02 -1.586015e-02 -5.701141e-03 1.910606e-02 1.966407e-02 -4.286750e-02 -7.320016e-04 4.336140e-04 3.018164e-04 8.680445e-04 -4.101578e-04 -5.094217e-04 1.210221e-03 -4.969963e-04 5.634434e-04 -7.190028e-05 9.616316e-05 8.987794e-05 -1.546567e-03
<VARIANCE> 39
 8.266978e+01 7.901001e+01 6.481821e+01 1.237708e+02 9.577013e+01 7.196472e+01 9.399178e+01 6.175864e+01 6.044823e+01 5.156589e+01 6.053127e+01 3.124884e+01 2.658269e+02 3.877274e+00 4.166329e+00 3.303380e+00 4.884088e+00 5.395823e+00 3.580360e+00 3.555102e+00 3.658883e+00 3.573519e+00 3.254145e+00 3.423266e+00 2.353013e+00 8.091690e+00 5.579450e-01 6.564036e-01 6.304466e-01 7.336922e-01 8.880672e-01 6.782439e-01 6.033577e-01 6.751445e-01 6.162205e-01 5.944543e-01 5.781374e-01 4.606324e-01 1.239975e+00
<GCONST> 1.405564e+02
<STATE> 3
<MEAN> 39
 -1.723267e+00 9.930105e-01 1.717645e+00 -7.645376e+00 -2.820233e-01 -2.797940e+00 -4.752986e+00 -1.556501e+00 -4.361186e+00 -6.293132e-01 -2.071099e+00 -1.512545e+00 5.433047e+01 -1.397127e-02 2.600555e-02 -3.919618e-02 -1.977921e-02 5.663196e-02 1.708474e-02 3.747819e-02 1.298224e-02 -1.276139e-02 -5.995950e-03 1.919591e-02 2.010385e-02 -5.063746e-02 -6.549973e-04 4.189661e-04 3.548461e-04 9.654188e-04 -6.237190e-04 -5.298527e-04 1.052035e-03 -6.968990e-04 6.873928e-04 -7.827717e-05 -7.849958e-06 4.644402e-05 -1.603097e-03
<VARIANCE> 39
 8.295164e+01 8.023085e+01 6.481821e+01 1.255819e+02 9.516206e+01 7.236411e+01 9.288509e+01 6.067086e+01 6.076303e+01 5.289974e+01 5.927438e+01 3.094148e+01 2.658269e+02 3.872332e+00 4.164704e+00 3.280509e+00 4.943635e+00 5.339382e+00 3.539282e+00 3.514646e+00 3.622148e+00 3.517057e+00 3.249385e+00 3.378787e+00 2.306365e+00 7.881261e+00 5.560226e-01 6.538608e-01 6.241018e-01 7.370815e-01 8.762696e-01 6.692982e-01 5.995035e-01 6.683452e-01 6.039743e-01 5.908167e-01 5.705864e-01 4.517121e-01 1.210901e+00
<GCONST> 1.403035e+02
<STATE> 4
<MEAN> 39
 -1.961321e+00 1.280950e+00 1.349930e+00 -7.895682e+00 3.396447e-01 -2.823753e+00 -4.295162e+00 -1.557490e+00 -4.546104e+00 -7.151657e-01 -1.970074e+00 -1.293378e+00 5.366249e+01 -1.638186e-02 3.183943e-02 -3.485073e-02 -9.246930e-03 4.648157e-02 1.465441e-02 4.435641e-02 2.072819e-03 -3.640943e-03 -5.886601e-03 1.705634e-02 2.075216e-02 -6.763562e-02 -3.880541e-04 4.940953e-04 4.803458e-04 1.023125e-03 -8.798027e-04 -3.185747e-04 5.215848e-04 -8.348993e-04 8.881579e-04 -5.874835e-05 -2.298926e-04 1.148857e-05 -1.842647e-03
<VARIANCE> 39
 8.175159e+01 8.342127e+01 6.481821e+01 1.326246e+02 9.273739e+01 7.351344e+01 8.890472e+01 5.768284e+01 6.097030e+01 5.657125e+01 5.758591e+01 3.003549e+01 2.658269e+02 3.786897e+00 4.179110e+00 3.179306e+00 5.081923e+00 5.181219e+00 3.471161e+00 3.377648e+00 3.592329e+00 3.391712e+00 3.214591e+00 3.293285e+00 2.211169e+00 7.371303e+00 5.418087e-01 6.517959e-01 5.997212e-01 7.394427e-01 8.507699e-01 6.527787e-01 5.846378e-01 6.644059e-01 5.780430e-01 5.748938e-01 5.588551e-01 4.329795e-01 1.133109e+00
<GCONST> 1.396361e+02
<TRANSP> 5
 0.000000e+00 1.000000e+00 0.000000e+00 0.000000e+00 0.000000e+00
 0.000000e+00 7.889854e-01 2.110146e-01 0.000000e+00 0.000000e+00
 0.000000e+00 0.000000e+00 7.889851e-01 2.110149e-01 0.000000e+00
 0.000000e+00 0.000000e+00 0.000000e+00 9.209341e-01 7.906592e-02
 0.000000e+00 0.000000e+00 0.000000e+00 0.000000e+00 0.000000e+00
<ENDHMM>
~h "ih"
<BEGINHMM>
<NUMSTATES> 5
<STATE> 2
<MEAN> 39
 -3.209104e+00 3.220626e+00 5.727801e+00 -5.346845e+00 -2.312050e+00 -3.361965e+00 -2.447705e+00 -1.404053e+00 -3.283644e+00 -1.787983e+00 -2.971915e+00 -1.620457e+00 4.841208e+01 -6.401506e-04 3.835105e-04 2.382355e-03 -4.494821e-04 5.164939e-04 3.624409e-04 1.221983e-03 -1.930629e-03 -2.671763e-03 5.880326e-04 2.160329e-04 3.091126e-03 -2.406001e-03 8.084468e-05 -9.676157e-05 1.619308e-04 1.066632e-04 -2.805560e-05 -3.568589e-05 1.336194e-04 2.670857e-05 1.503185e-04 2.004011e-04 2.597936e-05 3.226021e-05 5.005545e-04
<VARIANCE> 39
 5.621860e+01 7.408064e+01 7.314397e+01 9.672684e+01 6.436288e+01 5.800647e+01 5.534660e+01 5.530587e+01 5.204298e+01 3.681562e+01 6.323031e+01 2.695450e+01 2.696505e+02 2.240089e+00 2.592087e+00 2.453621e+00 3.239707e+00 2.898002e+00 2.703572e+00 2.672184e+00 2.805360e+00 2.640840e+00 2.450450e+00 2.665409e+00 1.981909e+00 5.362879e+00 3.628006e-01 4.174158e-01 3.973500e-01 5.234157e-01 5.055493e-01 4.797978e-01 4.891731e-01 5.206344e-01 4.798635e-01 4.583816e-01 4.752940e-01 3.842249e-01 7.218744e-01
<GCONST> 1.290572e+02
<STATE> 3
<MEAN> 39
 -3.213409e+00 3.220700e+00 5.741672e+00 -5.349604e+00 -2.307994e+00 -3.361506e+00 -2.440559e+00 -1.413103e+00 -3.294313e+00 -1.781797e+00 -2.970961e+00 -1.605164e+00 4.841118e+01 -7.732950e-04 -3.354807e-04 2.845406e-03 -2.628225e-04 3.047251e-04 1.263490e-04 1.343303e-03 -1.852223e-03 -2.194480e-03 1.321409e-03 -1.149915e-04 2.935679e-03 1.693473e-04 -3.600004e-05 -1.185463e-04 7.840084e-05 3.075662e-05 -3.472059e-05 -4.345359e-05 5.736724e-05 2.022496e-05 8.222739e-05 1.217564e-04 -7.509431e-05 -3.990432e-05 4.950318e-04
<VARIANCE> 39
 5.621860e+01 7.408064e+01 7.313660e+01 9.699445e+01 6.446440e+01 5.795197e+01 5.535470e+01 5.531617e+01 5.213300e+01 3.688920e+01 6.327131e+01 2.695450e+01 2.695496e+02 2.240306e+00 2.592087e+00 2.447598e+00 3.229605e+00 2.892346e+00 2.700169e+00 2.665742e+00 2.800682e+00 2.639157e+00 2.450955e+00 2.658240e+00 1.979204e+00 5.351421e+00 3.626481e-01 4.174158e-01 3.958452e-01 5.214770e-01 5.042377e-01 4.797978e-01 4.876812e-01 5.203848e-01 4.798635e-01 4.581461e-01 4.738068e-01 3.835524e-01 7.197601e-01
<GCONST> 1.290231e+02
<STATE> 4
<MEAN> 39
 -3.149301e+00 3.359882e+00 5.697531e+00 -5.503847e+00 -2.097501e+00 -3.398826e+00 -2.420549e+00 -1.559797e+00 -3.335626e+00 -1.789288e+00 -3.064708e+00 -1.522550e+00 4.828677e+01 -1.337675e-03 5.857238e-04 8.490352e-04 -4.752702e-05 -4.133859e-04 -6.506913e-04 7.722775e-04 -1.948035e-03 -4.202538e-04 1.894336e-03 -4.068723e-04 1.968138e-03 1.851148e-04 -1.499426e-05 7.625052e-05 -1.042263e-04 4.706397e-05 -7.694408e-05 -1.795653e-05 4.521811e-06 -1.314665e-05 8.281217e-05 1.587595e-05 -6.619991e-05 -6.153939e-05 2.126906e-05
<VARIANCE> 39
 5.621860e+01 7.408064e+01 7.271121e+01 1.006674e+02 6.301553e+01 5.823377e+01 5.515347e+01 5.459599e+01 5.255013e+01 3.749610e+01 6.398905e+01 2.695450e+01 2.710815e+02 2.237194e+00 2.592087e+00 2.395648e+00 3.245990e+00 2.833982e+00 2.664752e+00 2.646528e+00 2.765507e+00 2.630443e+00 2.456806e+00 2.637224e+00 1.970915e+00 5.206773e+00 3.580279e-01 4.174158e-01 3.854251e-01 5.200276e-01 4.999610e-01 4.797978e-01 4.820749e-01 5.146983e-01 4.798635e-01 4.578289e-01 4.681711e-01 3.816980e-01 6.995544e-01
<GCONST> 1.288300e+02
<TRANSP> 5
 0.000000e+00 1.000000e+00 0.000000e+00 0.000000e+00 0.000000e+00
 0.000000e+00 8.044879e-01 1.955121e-01 0.000000e+00 0.000000e+00
 0.000000e+00 0.000000e+00 8.044887e-01 1.955113e-01 0.000000e+00
 0.000000e+00 0.000000e+00 0.000000e+00 9.407787e-01 5.922121e-02
 0.000000e+00 0.000000e+00 0.000000e+00 0.000000e+00 0.000000e+00
<ENDHMM>
~h "iy"
<BEGINHMM>
<NUMSTATES> 5
<STATE> 2
<MEAN> 39
 -2.904296e+00 3.559115e+00 6.400302e+00 -5.479953e+00 -2.554865e+00 -2.827300e+00 -2.828964e+00 -1.480574e+00 -3.087072e+00 -1.169051e+00 -2.680849e+00 -1.687083e+00 4.759627e+01 3.423175e-03 2.936734e-03 -1.290470e-03 5.987702e-03 1.845113e-03 2.606867e-03 1.750521e-04 -2.281570e-03 4.311054e-03 2.462156e-03 6.292290e-04 -1.767969e-03 -1.949751e-03 1.545464e-04 1.146226e-04 -3.424290e-04 3.034940e-04 2.295884e-04 1.089349e-04 1.231622e-04 -2.051464e-05 6.884259e-05 1.013964e-05 9.052595e-05 1.292369e-05 -3.804862e-04
<VARIANCE> 39
