~o
<STREAMINFO> 1 39
<VECSIZE> 39<NULLD><MFCC_D_A_0><DIAGC>
~h "proto"
<BEGINHMM>
<NUMSTATES> 5
<STATE> 2
<MEAN> 39
 -2.931601e+00 3.435079e+00 4.785057e+00 -4.895432e+00 -1.498577e+00 -2.841928e+00 -2.400874e+00 -1.164363e+00 -2.659816e+00 -1.539987e+00 -2.578349e+00 -1.590647e+00 4.743975e+01 3.334700e-04 1.926279e-03 -5.770997e-05 5.891106e-04 4.177404e-04 1.183442e-03 4.649069e-04 1.504686e-04 5.183730e-04 6.052142e-04 3.391333e-04 4.510950e-04 -2.257007e-03 -2.585959e-04 -1.815003e-04 -1.540496e-05 3.996780e-05 2.134590e-04 -9.420062e-05 9.257939e-05 -2.148499e-04 -6.201201e-05 -1.252264e-04 -2.494980e-04 -1.103563e-04 3.822022e-05
<VARIANCE> 39
 5.621860e+01 7.408064e+01 6.481821e+01 9.562053e+01 6.049548e+01 5.657086e+01 5.480392e+01 5.008425e+01 4.914367e+01 3.600889e+01 5.758591e+01 2.695450e+01 2.658269e+02 2.237194e+00 2.592087e+00 2.314184e+00 3.129044e+00 2.833982e+00 2.664105e+00 2.646528e+00 2.741223e+00 2.630443e+00 2.383868e+00 2.569609e+00 1.958500e+00 4.984552e+00 3.580279e-01 4.174158e-01 3.847587e-01 5.025513e-01 4.999610e-01 4.797978e-01 4.820749e-01 5.089008e-01 4.798635e-01 4.500161e-01 4.608459e-01 3.767788e-01 6.789643e-01
<GCONST> 1.279592e+02
<STATE> 3
<MEAN> 39
 -2.931601e+00 3.435079e+00 4.785057e+00 -4.895432e+00 -1.498577e+00 -2.841928e+00 -2.400874e+00 -1.164363e+00 -2.659816e+00 -1.539987e+00 -2.578349e+00 -1.590647e+00 4.743975e+01 3.334700e-04 1.926279e-03 -5.770997e-05 5.891106e-04 4.177404e-04 1.183442e-03 4.649069e-04 1.504686e-04 5.183730e-04 6.052142e-04 3.391333e-04 4.510950e-04 -2.257007e-03 -2.585959e-04 -1.815003e-04 -1.540496e-05 3.996780e-05 2.134590e-04 -9.420062e-05 9.257939e-05 -2.148499e-04 -6.201201e-05 -1.252264e-04 -2.494980e-04 -1.103563e-04 3.822022e-05
<VARIANCE> 39
 5.621860e+01 7.408064e+01 6.481821e+01 9.562053e+01 6.049548e+01 5.657086e+01 5.480392e+01 5.008425e+01 4.914367e+01 3.600889e+01 5.758591e+01 2.695450e+01 2.658269e+02 2.237194e+00 2.592087e+00 2.314184e+00 3.129044e+00 2.833982e+00 2.664105e+00 2.646528e+00 2.741223e+00 2.630443e+00 2.383868e+00 2.569609e+00 1.958500e+00 4.984552e+00 3.580279e-01 4.174158e-01 3.847587e-01 5.025513e-01 4.999610e-01 4.797978e-01 4.820749e-01 5.089008e-01 4.798635e-01 4.500161e-01 4.608459e-01 3.767788e-01 6.789643e-01
<GCONST> 1.279592e+02
<STATE> 4
<MEAN> 39
 -2.931601e+00 3.435079e+00 4.785057e+00 -4.895432e+00 -1.498577e+00 -2.841928e+00 -2.400874e+00 -1.164363e+00 -2.659816e+00 -1.539987e+00 -2.578349e+00 -1.590647e+00 4.743975e+01 3.334700e-04 1.926279e-03 -5.770997e-05 5.891106e-04 4.177404e-04 1.183442e-03 4.649069e-04 1.504686e-04 5.183730e-04 6.052142e-04 3.391333e-04 4.510950e-04 -2.257007e-03 -2.585959e-04 -1.815003e-04 -1.540496e-05 3.996780e-05 2.134590e-04 -9.420062e-05 9.257939e-05 -2.148499e-04 -6.201201e-05 -1.252264e-04 -2.494980e-04 -1.103563e-04 3.822022e-05
<VARIANCE> 39
 5.621860e+01 7.408064e+01 6.481821e+01 9.562053e+01 6.049548e+01 5.657086e+01 5.480392e+01 5.008425e+01 4.914367e+01 3.600889e+01 5.758591e+01 2.695450e+01 2.658269e+02 2.237194e+00 2.592087e+00 2.314184e+00 3.129044e+00 2.833982e+00 2.664105e+00 2.646528e+00 2.741223e+00 2.630443e+00 2.383868e+00 2.569609e+00 1.958500e+00 4.984552e+00 3.580279e-01 4.174158e-01 3.847587e-01 5.025513e-01 4.999610e-01 4.797978e-01 4.820749e-01 5.089008e-01 4.798635e-01 4.500161e-01 4.608459e-01 3.767788e-01 6.789643e-01
<GCONST> 1.279592e+02
<TRANSP> 5
 0.000000e+00 1.000000e+00 0.000000e+00 0.000000e+00 0.000000e+00
 0.000000e+00 6.000000e-01 4.000000e-01 0.000000e+00 0.000000e+00
 0.000000e+00 0.000000e+00 6.000000e-01 4.000000e-01 0.000000e+00
 0.000000e+00 0.000000e+00 0.000000e+00 7.000000e-01 3.000000e-01
 0.000000e+00 0.000000e+00 0.000000e+00 0.000000e+00 0.000000e+00
<ENDHMM>
