~o
<STREAMINFO> 1 39
<VECSIZE> 39<NULLD><MFCC_D_A_0><DIAGC>
~h "b"
<BEGINHMM>
<NUMSTATES> 5
<STATE> 2
<MEAN> 39
 1.064222e+00 8.035660e+00 7.264605e+00 2.146882e+00 1.523344e+00 4.120303e-01 -3.090201e+00 -4.459013e+00 -3.039040e+00 -6.309844e-01 -2.623829e+00 -5.454348e+00 4.134919e+01 8.122987e-01 -1.878691e-02 7.903308e-02 1.401615e-01 1.061159e-02 -2.329903e-02 -4.730578e-01 -6.358133e-01 -4.266380e-01 -3.400297e-01 -2.784509e-01 -4.226257e-01 9.197692e-01 -1.209306e-02 -1.809215e-01 -9.147532e-02 -1.576460e-01 -1.134174e-01 -1.299995e-01 -4.779899e-02 6.518599e-02 7.761936e-02 4.358823e-02 6.797420e-02 9.738572e-02 3.290673e-01
<VARIANCE> 39
 6.280649e+01 7.408064e+01 6.481821e+01 9.562053e+01 6.049548e+01 5.657086e+01 5.480392e+01 5.825510e+01 5.501291e+01 3.905409e+01 5.758591e+01 3.830861e+01 2.658269e+02 4.837615e+00 4.553691e+00 3.688762e+00 3.441927e+00 3.089862e+00 3.785592e+00 3.759144e+00 4.967868e+00 5.238266e+00 3.931677e+00 3.548466e+00 3.240477e+00 6.941020e+00 1.012532e+00 8.353109e-01 7.439714e-01 7.595409e-01 6.393161e-01 7.196940e-01 6.491368e-01 9.609429e-01 9.709836e-01 7.659729e-01 6.598790e-01 5.962270e-01 1.054117e+00
<GCONST> 1.412776e+02
<STATE> 3
<MEAN> 39
 2.018399e+00 2.143328e+00 3.554493e+00 -4.591848e+00 -1.299627e+00 -1.476939e+00 -6.900557e+00 -5.334997e+00 -1.466012e+00 1.337141e+00 -1.829990e+00 -5.876064e+00 5.571169e+01 -6.958421e-02 -6.290247e-01 -3.020101e-01 -8.773315e-01 -2.259215e-01 -2.408784e-01 -1.906182e-01 3.692417e-01 2.092504e-01 3.418197e-01 1.084538e-01 2.173017e-01 1.167034e+00 -2.926677e-02 4.632819e-03 1.865150e-02 -1.650756e-01 4.362463e-03 2.073089e-02 5.224419e-02 8.673085e-02 -2.855530e-02 5.350847e-02 -6.139662e-02 3.329024e-02 -6.529369e-02
<VARIANCE> 39
 9.070914e+01 7.408064e+01 6.481821e+01 9.653735e+01 7.772137e+01 6.197906e+01 5.948668e+01 6.292823e+01 7.088667e+01 6.398792e+01 5.758591e+01 4.148951e+01 2.658269e+02 4.113056e+00 6.775931e+00 4.672141e+00 7.735207e+00 7.926705e+00 5.562442e+00 5.067158e+00 5.797208e+00 5.929707e+00 4.685636e+00 4.641531e+00 4.259385e+00 1.525537e+01 7.493209e-01 1.211786e+00 7.889999e-01 1.014504e+00 1.438645e+00 9.122863e-01 8.969866e-01 1.128601e+00 1.129342e+00 9.160727e-01 8.458856e-01 7.726192e-01 1.932100e+00
<GCONST> 1.510678e+02
<STATE> 4
<MEAN> 39
 1.824447e+00 -3.767170e+00 -4.417920e-02 -1.813379e+01 2.343925e+00 -4.645102e+00 -9.478898e+00 -2.223798e+00 -4.409550e+00 -2.329078e-01 -8.026222e+00 -3.369479e+00 6.525896e+01 -1.566680e-01 -4.534035e-02 -2.074276e-01 -1.319568e-01 1.998412e-01 1.978282e-01 3.729776e-01 1.958123e-01 -3.453518e-03 -2.535087e-02 -4.022742e-02 8.099172e-02 -2.109556e-01 -2.911138e-02 8.018386e-02 4.549024e-02 1.871047e-01 -3.177799e-03 4.251868e-02 7.200792e-02 -5.130405e-02 1.331968e-02 -4.451930e-02 3.041875e-02 -9.811248e-03 -1.476853e-01
<VARIANCE> 39
 5.621860e+01 8.547613e+01 7.093877e+01 1.705855e+02 7.319822e+01 1.049923e+02 8.483569e+01 5.008425e+01 6.912051e+01 5.475173e+01 9.702740e+01 5.075448e+01 2.658269e+02 2.237194e+00 3.506371e+00 2.669394e+00 7.275028e+00 3.334219e+00 3.845631e+00 3.339044e+00 3.699885e+00 4.155771e+00 3.460153e+00 3.948253e+00 2.827459e+00 8.742809e+00 3.580279e-01 5.167394e-01 4.095518e-01 8.306501e-01 5.770949e-01 7.038743e-01 6.010556e-01 6.717315e-01 7.903385e-01 6.103557e-01 6.146302e-01 5.024969e-01 1.203846e+00
<GCONST> 1.402269e+02
<TRANSP> 5
 0.000000e+00 1.000000e+00 0.000000e+00 0.000000e+00 0.000000e+00
 0.000000e+00 8.347872e-01 1.652128e-01 0.000000e+00 0.000000e+00
 0.000000e+00 0.000000e+00 8.728881e-01 1.271119e-01 0.000000e+00
 0.000000e+00 0.000000e+00 0.000000e+00 9.001021e-01 9.989780e-02
 0.000000e+00 0.000000e+00 0.000000e+00 0.000000e+00 0.000000e+00
<ENDHMM>
~h "d"
<BEGINHMM>
<NUMSTATES> 5
<STATE> 2
<MEAN> 39
 1.440096e+00 -5.694273e+00 7.282969e+00 -8.780930e+00 -6.229139e+00 -4.158818e+00 -2.953004e+00 2.309300e+00 -6.321140e+00 -3.569180e+00 -7.367913e+00 -3.467479e+00 6.264916e+01 4.338435e-01 -3.114156e-01 5.019165e-01 -4.257921e-01 -7.119225e-01 -4.053530e-01 -3.714119e-01 -1.903532e-01 -5.423335e-01 1.203509e-01 -2.646332e-01 -2.699922e-01 1.224022e+00 -5.152128e-02 1.451731e-01 2.251963e-02 4.822835e-02 -1.588572e-02 -2.519942e-02 -6.539119e-02 -6.025775e-02 6.133763e-02 1.504903e-01 5.184287e-02 6.046468e-02 -1.797724e-01
<VARIANCE> 39
 5.621860e+01 1.159678e+02 6.481821e+01 9.562053e+01 8.619421e+01 5.657086e+01 5.480392e+01 8.845557e+01 6.113186e+01 4.732709e+01 5.758591e+01 3.290295e+01 2.658269e+02 2.582423e+00 3.503603e+00 2.314184e+00 3.129044e+00 3.526411e+00 2.664105e+00 2.944459e+00 3.866173e+00 3.307628e+00 2.646297e+00 3.152246e+00 2.329777e+00 8.651960e+00 4.238627e-01 4.845922e-01 4.128179e-01 5.025513e-01 5.881751e-01 4.797978e-01 4.927377e-01 5.738304e-01 5.777163e-01 4.822969e-01 4.841248e-01 3.767788e-01 9.871761e-01
<GCONST> 1.337694e+02
<STATE> 3
<MEAN> 39
 4.047494e+00 -4.947588e+00 1.005667e+01 -7.460182e+00 -9.489697e+00 -4.298462e+00 -6.392023e+00 1.394799e+00 -6.040488e+00 -1.520914e+00 -7.723288e+00 -4.319529e+00 6.427644e+01 -1.099938e-01 2.814326e-01 2.382300e-01 -1.608162e-01 -7.559528e-02 -1.961438e-01 -2.972051e-01 -3.257771e-01 -1.426145e-01 2.552020e-01 6.489573e-02 2.619855e-02 -1.109512e-01 -7.393467e-02 7.530622e-02 -2.560642e-02 4.087877e-03 1.124644e-01 1.979863e-03 3.822387e-02 -1.868662e-02 4.490002e-02 2.668168e-03 1.659962e-02 4.543344e-02 -9.320012e-02
<VARIANCE> 39
 5.621860e+01 7.408064e+01 6.481821e+01 9.562053e+01 6.874609e+01 5.657086e+01 5.983346e+01 7.369014e+01 6.534544e+01 4.915998e+01 6.046587e+01 4.625394e+01 2.658269e+02 2.237194e+00 2.592087e+00 2.314184e+00 3.129044e+00 3.116747e+00 2.664105e+00 2.646528e+00 2.871022e+00 2.630443e+00 2.383868e+00 2.569609e+00 1.958500e+00 4.984552e+00 3.580279e-01 4.174158e-01 3.847587e-01 5.025513e-01 4.999610e-01 4.797978e-01 4.820749e-01 5.089008e-01 4.798635e-01 4.500161e-01 4.608459e-01 3.767788e-01 6.789643e-01
<GCONST> 1.298875e+02
<STATE> 4
<MEAN> 39
 -1.801019e+00 -3.546009e+00 1.063268e+01 -1.958939e+01 -6.228763e+00 -1.304832e+01 -9.040925e+00 -6.500186e+00 -1.168210e+01 -2.705122e+00 -1.495897e+01 -9.151933e-01 6.863605e+01 1.791033e-02 2.890533e-01 3.997115e-02 2.283687e-01 4.989475e-02 5.580896e-02 -2.641106e-02 -4.982525e-02 1.237992e-01 6.117192e-02 1.317830e-01 2.104091e-02 -3.432165e-01 -1.121590e-02 6.656915e-02 -4.801042e-02 1.275279e-01 5.379751e-02 8.443081e-02 4.824772e-02 2.887979e-02 7.052495e-02 -3.098111e-02 8.302847e-02 -8.425016e-03 -1.331517e-01
<VARIANCE> 39
 5.621860e+01 8.795139e+01 9.434715e+01 1.072108e+02 8.083717e+01 8.043697e+01 8.561344e+01 6.285126e+01 6.902151e+01 7.592810e+01 6.830537e+01 3.580846e+01 2.658269e+02 2.237194e+00 2.592087e+00 2.314184e+00 4.553965e+00 2.833982e+00 3.271685e+00 3.352772e+00 3.074587e+00 3.034697e+00 3.309083e+00 3.546809e+00 2.121433e+00 4.984552e+00 3.580279e-01 4.174158e-01 3.847587e-01 5.973670e-01 4.999610e-01 4.797978e-01 5.409971e-01 5.262180e-01 5.292429e-01 5.503625e-01 5.579608e-01 3.836835e-01 6.789643e-01
<GCONST> 1.341115e+02
<TRANSP> 5
 0.000000e+00 1.000000e+00 0.000000e+00 0.000000e+00 0.000000e+00
 0.000000e+00 6.921794e-01 3.078206e-01 0.000000e+00 0.000000e+00
 0.000000e+00 0.000000e+00 7.431275e-01 2.568725e-01 0.000000e+00
 0.000000e+00 0.000000e+00 0.000000e+00 9.205702e-01 7.942980e-02
 0.000000e+00 0.000000e+00 0.000000e+00 0.000000e+00 0.000000e+00
<ENDHMM>
~h "f"
<BEGINHMM>
<NUMSTATES> 5
<STATE> 2
<MEAN> 39
 1.078909e+01 -8.528786e-01 1.532091e+00 -1.689562e+01 -4.275423e+00 2.158840e+00 -1.110210e+01 -8.599609e-01 -6.741626e+00 2.074741e+00 6.638460e+00 -5.810714e+00 6.567020e+01 -4.452351e-02 1.921884e-01 -1.417181e-01 -1.840402e-01 3.955961e-01 1.177616e-01 3.982426e-01 9.310725e-02 3.578594e-02 3.422137e-01 -2.422546e-01 5.385499e-02 -4.058118e-01 -1.063608e-01 1.016649e-01 4.030335e-02 2.542275e-01 8.900022e-02 -8.932010e-02 1.109672e-01 -6.570500e-02 3.357111e-02 -1.101861e-01 -1.477505e-01 2.715907e-02 -1.797418e-01
<VARIANCE> 39
 5.621860e+01 7.408064e+01 6.481821e+01 2.483597e+02 7.710936e+01 5.657086e+01 5.765835e+01 5.052090e+01 1.167071e+02 4.280962e+01 6.787179e+01 4.391177e+01 2.658269e+02 2.237194e+00 2.592087e+00 2.314184e+00 4.911613e+00 2.833982e+00 2.664105e+00 3.465072e+00 3.215705e+00 2.630443e+00 2.383868e+00 2.569609e+00 2.012079e+00 4.984552e+00 3.580279e-01 4.174158e-01 3.847587e-01 8.160494e-01 4.999610e-01 4.797978e-01 6.391147e-01 5.089008e-01 4.798635e-01 4.500161e-01 4.608459e-01 3.767788e-01 6.789643e-01
<GCONST> 1.325799e+02
<STATE> 3
<MEAN> 39
 7.162827e+00 5.221488e+00 -1.121946e+00 -2.051680e+01 3.361462e+00 2.086458e+00 -4.242977e+00 -2.322678e+00 -7.428756e+00 1.196379e+00 -1.869729e+00 -1.002252e+00 5.830317e+01 -3.617758e-01 3.458632e-01 -8.558317e-02 1.123033e+00 3.320997e-01 -1.810620e-01 8.938257e-01 -1.040973e-01 1.003984e-01 -2.121907e-01 -4.768121e-01 -1.300716e-01 -9.073151e-01 -7.277443e-02 -1.269415e-01 3.450258e-02 1.038879e-01 -1.361401e-01 1.811844e-02 -6.474666e-02 -6.984982e-03 2.973432e-02 -1.178161e-01 1.451385e-01 2.629272e-02 -2.751165e-02
<VARIANCE> 39
 5.621860e+01 7.408064e+01 6.481821e+01 1.634837e+02 9.131227e+01 5.657086e+01 5.480392e+01 5.008425e+01 4.914367e+01 5.820903e+01 5.758591e+01 3.772855e+01 2.658269e+02 2.237194e+00 2.592087e+00 2.314184e+00 3.129044e+00 2.833982e+00 2.664105e+00 2.646528e+00 2.741223e+00 2.630443e+00 2.383868e+00 2.569609e+00 2.195754e+00 4.984552e+00 3.580279e-01 4.174158e-01 3.847587e-01 5.025513e-01 4.999610e-01 4.797978e-01 4.820749e-01 5.089008e-01 4.798635e-01 4.500161e-01 4.608459e-01 4.540323e-01 6.789643e-01
<GCONST> 1.300247e+02
<STATE> 4
<MEAN> 39
 3.657656e+00 7.413678e+00 2.429048e-01 -3.141000e+00 4.094590e+00 4.853530e+00 3.082394e+00 -1.145968e+00 -2.730153e+00 -1.627632e+00 -9.179105e-01 1.183225e+00 4.358087e+01 -2.386591e-01 8.269896e-02 6.866978e-02 4.226834e-01 -1.879386e-01 1.103934e-01 6.478383e-02 7.779274e-02 2.041395e-01 -1.915126e-01 1.556287e-01 2.160445e-01 -4.823798e-01 -2.777602e-02 -3.184900e-02 1.304676e-02 -9.741660e-02 -1.952241e-02 -1.104465e-02 -6.601670e-02 -1.063964e-02 1.737961e-03 4.846822e-03 3.817541e-02 -2.006333e-02 6.949171e-02
<VARIANCE> 39
 5.621860e+01 7.408064e+01 6.481821e+01 9.562053e+01 6.049548e+01 5.657086e+01 5.480392e+01 5.008425e+01 4.914367e+01 3.822888e+01 5.758591e+01 2.695450e+01 2.658269e+02 2.237194e+00 2.592087e+00 2.314184e+00 3.129044e+00 2.833982e+00 2.664105e+00 2.646528e+00 2.741223e+00 2.630443e+00 2.383868e+00 2.569609e+00 1.958500e+00 4.984552e+00 3.580279e-01 4.174158e-01 3.847587e-01 5.025513e-01 4.999610e-01 4.797978e-01 4.820749e-01 5.089008e-01 4.798635e-01 4.500161e-01 4.608459e-01 4.062593e-01 6.789643e-01
<GCONST> 1.280944e+02
<TRANSP> 5
 0.000000e+00 1.000000e+00 0.000000e+00 0.000000e+00 0.000000e+00
 0.000000e+00 8.781371e-01 1.218629e-01 0.000000e+00 0.000000e+00
 0.000000e+00 0.000000e+00 7.338958e-01 2.661042e-01 0.000000e+00
 0.000000e+00 0.000000e+00 0.000000e+00 8.837352e-01 1.162648e-01
 0.000000e+00 0.000000e+00 0.000000e+00 0.000000e+00 0.000000e+00
<ENDHMM>
~h "g"
<BEGINHMM>
<NUMSTATES> 5
<STATE> 2
<MEAN> 39
 -6.436043e+00 3.860704e+00 2.451563e+00 -3.042337e+00 -2.647010e+00 -4.772779e+00 -2.469792e+00 7.909284e-01 1.407896e+00 -7.740632e-01 -1.055336e+00 -3.593848e-01 4.407624e+01 -9.421607e-01 -2.418949e-01 -1.069504e-01 2.207031e-01 1.113982e+00 6.810290e-01 3.118330e-02 3.408888e-03 -7.834312e-02 -3.146638e-02 2.479929e-01 -2.307330e-01 5.864768e-01 1.751853e-01 -2.856206e-01 1.948502e-01 -4.220635e-03 -4.377364e-02 1.735876e-02 -1.550900e-01 -7.886188e-02 -3.623011e-01 -1.431435e-01 -2.298743e-01 -1.527409e-01 7.242199e-01
<VARIANCE> 39
 5.621860e+01 7.408064e+01 6.481821e+01 9.562053e+01 6.098017e+01 5.657086e+01 5.480392e+01 5.008425e+01 4.914367e+01 3.600889e+01 5.758591e+01 2.695450e+01 2.658269e+02 5.163074e+00 8.299084e+00 5.453964e+00 6.482265e+00 7.211941e+00 5.568521e+00 3.789464e+00 3.447526e+00 4.665188e+00 3.401617e+00 3.161375e+00 2.670112e+00 2.902085e+01 8.381428e-01 1.228485e+00 1.058307e+00 1.228075e+00 1.409514e+00 1.174329e+00 7.383943e-01 7.488428e-01 7.892293e-01 7.283398e-01 5.571344e-01 5.340669e-01 4.189162e+00
<GCONST> 1.469366e+02
<STATE> 3
<MEAN> 39
 -6.331695e+00 -2.267766e-01 4.243674e+00 -1.685894e-01 1.319775e+00 -1.712391e+00 -4.258864e+00 -1.421500e+00 -2.420753e+00 -2.245821e+00 -2.777782e+00 -3.646957e+00 5.558345e+01 2.013996e+00 -3.139947e-01 5.539247e-01 5.992609e-01 -7.760624e-01 2.778673e-02 -1.102239e+00 -1.345909e+00 -1.251773e+00 -4.774278e-01 -9.147625e-01 -9.450157e-01 2.110447e+00 6.174133e-01 3.419915e-01 1.312341e-01 -7.298256e-02 -6.373812e-01 -2.881276e-01 -1.468480e-01 -4.209436e-01 -7.320791e-02 9.534819e-02 -1.579215e-01 -4.936977e-02 -6.127823e-01
<VARIANCE> 39
 8.780962e+01 1.108313e+02 7.258010e+01 9.562053e+01 6.992450e+01 6.905105e+01 6.430746e+01 6.464779e+01 4.914367e+01 3.600889e+01 5.758591e+01 2.695450e+01 2.658269e+02 9.664315e+00 1.254322e+01 1.095243e+01 6.119972e+00 1.091205e+01 9.251172e+00 6.549117e+00 6.974506e+00 4.290747e+00 4.562545e+00 4.301141e+00 2.985887e+00 1.873284e+01 1.825889e+00 2.583186e+00 2.335599e+00 1.003157e+00 2.049045e+00 1.896134e+00 1.168314e+00 1.378887e+00 8.325223e-01 8.173163e-01 7.759445e-01 4.576445e-01 3.128307e+00
<GCONST> 1.567821e+02
<STATE> 4
<MEAN> 39
 2.610440e+00 1.011807e-01 5.719263e+00 -2.740321e+00 -5.438572e+00 -5.365224e+00 -8.053306e+00 -8.255322e+00 -6.404449e+00 -3.101551e+00 -5.512297e+00 -7.520185e+00 5.868002e+01 4.215932e-01 -2.154644e-01 -5.517440e-02 -1.335953e-02 -5.161024e-01 -1.532003e-01 -3.556955e-01 -5.687588e-01 -1.135854e-01 2.511863e-01 -3.177125e-03 3.875847e-02 5.825022e-01 -1.512509e-01 -7.357053e-02 -1.088165e-01 -7.089989e-02 5.208380e-02 1.106367e-01 1.459630e-02 1.363267e-01 1.251105e-01 9.256522e-02 1.239177e-01 1.484052e-01 -5.134781e-02
<VARIANCE> 39
 5.621860e+01 9.418776e+01 6.481821e+01 1.162771e+02 7.357953e+01 1.096284e+02 7.697645e+01 6.705420e+01 4.914367e+01 5.407109e+01 9.216287e+01 3.573268e+01 2.658269e+02 4.238897e+00 7.610049e+00 5.482661e+00 4.866788e+00 8.281859e+00 8.451825e+00 4.518085e+00 6.189202e+00 4.706561e+00 3.863832e+00 5.459005e+00 4.021656e+00 1.047512e+01 6.976874e-01 1.443906e+00 1.115363e+00 8.428920e-01 1.454652e+00 1.658594e+00 9.534440e-01 1.115860e+00 9.102066e-01 7.193509e-01 9.345086e-01 7.490868e-01 1.671865e+00
<GCONST> 1.515891e+02
<TRANSP> 5
 0.000000e+00 1.000000e+00 0.000000e+00 0.000000e+00 0.000000e+00
 0.000000e+00 7.836933e-01 2.163068e-01 0.000000e+00 0.000000e+00
 0.000000e+00 0.000000e+00 7.511373e-01 2.488627e-01 0.000000e+00
 0.000000e+00 0.000000e+00 0.000000e+00 9.085137e-01 9.148630e-02
 0.000000e+00 0.000000e+00 0.000000e+00 0.000000e+00 0.000000e+00
<ENDHMM>
~h "k"
<BEGINHMM>
<NUMSTATES> 5
<STATE> 2
<MEAN> 39
 -1.660900e+00 1.270614e+00 3.730418e+00 -2.003886e+00 2.257153e+00 -1.422594e+00 -6.961644e-01 1.932835e+00 -1.485549e-01 -1.220875e+00 -2.969981e+00 -2.537536e+00 4.866772e+01 -3.801656e-01 1.039230e-01 -6.031007e-01 3.863528e-01 5.653729e-01 7.474161e-02 4.895468e-01 2.065252e-01 1.511363e-01 1.192737e-01 2.129849e-01 7.491608e-02 -5.161289e-01 9.719140e-02 1.139465e-01 -9.310834e-03 -8.979123e-02 -1.115162e-01 -1.663375e-02 -2.050505e-02 -7.157137e-02 -8.116752e-02 -8.617572e-03 -2.405812e-02 4.487167e-02 -4.479572e-02
<VARIANCE> 39
 6.631603e+01 7.408064e+01 6.481821e+01 9.562053e+01 8.439121e+01 5.657086e+01 5.480392e+01 5.008425e+01 4.914367e+01 5.590653e+01 5.758591e+01 3.448943e+01 2.658269e+02 4.548556e+00 3.667099e+00 4.366437e+00 3.129044e+00 4.836774e+00 3.642531e+00 3.665617e+00 2.986019e+00 3.461360e+00 3.259921e+00 3.846042e+00 2.597952e+00 5.452989e+00 7.067512e-01 6.872144e-01 7.765380e-01 5.807010e-01 8.580386e-01 7.889765e-01 6.439845e-01 5.634590e-01 6.547130e-01 6.131197e-01 6.250257e-01 5.321782e-01 6.789643e-01
<GCONST> 1.381813e+02
<STATE> 3
<MEAN> 39
 -1.427888e+00 1.038589e+00 2.332191e+00 -2.029640e+00 3.384581e+00 -2.273420e+00 6.668257e-01 2.902957e+00 -9.219770e-01 -1.165094e+00 -2.584174e+00 -1.909297e+00 4.723326e+01 -4.779112e-03 3.500032e-01 -2.973144e-01 1.703732e-01 6.938739e-02 5.664711e-02 2.185355e-01 -2.902101e-02 -1.228474e-01 -1.169611e-01 2.118692e-01 1.209919e-01 -7.068242e-01 4.358345e-02 7.499868e-02 1.228065e-01 -5.568331e-02 -1.088804e-01 -5.784483e-03 -1.154136e-01 -1.161309e-01 -9.486753e-02 -3.631386e-02 -3.924873e-02 2.544661e-03 5.132733e-02
<VARIANCE> 39
 6.043642e+01 7.408064e+01 6.481821e+01 9.562053e+01 7.541851e+01 5.657086e+01 5.480392e+01 5.008425e+01 4.914367e+01 4.513832e+01 5.758591e+01 2.907465e+01 2.658269e+02 2.237194e+00 2.592087e+00 2.314184e+00 3.129044e+00 2.833982e+00 2.664105e+00 2.646528e+00 2.741223e+00 2.630443e+00 2.398910e+00 2.569609e+00 1.966426e+00 4.984552e+00 3.580279e-01 4.174158e-01 4.039499e-01 5.025513e-01 4.999610e-01 4.797978e-01 4.820749e-01 5.089008e-01 5.399964e-01 4.647902e-01 4.608459e-01 4.259507e-01 6.789643e-01
<GCONST> 1.288858e+02
<STATE> 4
<MEAN> 39
 -3.044670e+00 4.991415e+00 1.188272e+00 -8.268653e-01 1.106591e+00 -1.321776e+00 -4.576632e-01 9.492313e-01 -4.555157e-01 -1.797734e+00 6.715745e-02 -1.006792e+00 3.686240e+01 -2.641439e-02 7.777115e-02 4.358037e-02 1.761326e-02 -2.868932e-02 3.455465e-02 -2.598361e-02 -4.842471e-02 -4.170039e-03 1.100103e-02 2.007991e-03 2.777318e-03 -6.054945e-02 6.635634e-03 -1.748129e-02 2.204562e-03 -1.143341e-02 1.330289e-02 -1.342996e-03 -1.436202e-02 -8.356463e-03 -6.965664e-03 7.084092e-03 -1.527803e-02 -1.269267e-02 6.707610e-02
<VARIANCE> 39
 5.621860e+01 7.408064e+01 6.481821e+01 9.562053e+01 6.049548e+01 5.657086e+01 5.480392e+01 5.008425e+01 4.914367e+01 3.600889e+01 5.758591e+01 2.695450e+01 2.658269e+02 2.237194e+00 2.592087e+00 2.314184e+00 3.129044e+00 2.833982e+00 2.664105e+00 2.646528e+00 2.741223e+00 2.630443e+00 2.383868e+00 2.569609e+00 1.958500e+00 4.984552e+00 3.580279e-01 4.174158e-01 3.847587e-01 5.025513e-01 4.999610e-01 4.797978e-01 4.820749e-01 5.089008e-01 4.798635e-01 4.500161e-01 4.608459e-01 3.767788e-01 6.789643e-01
<GCONST> 1.279592e+02
<TRANSP> 5
 0.000000e+00 1.000000e+00 0.000000e+00 0.000000e+00 0.000000e+00
 0.000000e+00 6.297843e-01 3.702156e-01 0.000000e+00 0.000000e+00
 0.000000e+00 0.000000e+00 5.507724e-01 4.492276e-01 0.000000e+00
 0.000000e+00 0.000000e+00 0.000000e+00 9.502007e-01 4.979931e-02
 0.000000e+00 0.000000e+00 0.000000e+00 0.000000e+00 0.000000e+00
<ENDHMM>
~h "l"
<BEGINHMM>
<NUMSTATES> 5
<STATE> 2
<MEAN> 39
 5.842222e-01 -8.923481e-01 4.549168e+00 -1.040074e+01 -7.690065e-01 -2.212857e+00 -6.767046e+00 -1.384402e+00 -3.447464e+00 -7.618303e-01 -4.955697e+00 -4.182113e+00 5.820876e+01 -2.527604e-01 3.833239e-01 3.110110e-02 7.214618e-01 1.950769e-01 9.598622e-02 4.749920e-01 3.480704e-01 1.426687e-01 7.600494e-02 2.043342e-01 -2.083946e-02 -5.985068e-01 -1.283695e-02 6.823961e-02 7.605815e-02 -2.450042e-02 -2.355798e-02 -2.580843e-02 3.125726e-02 -5.808498e-02 -7.018274e-02 2.837720e-02 5.955416e-02 -2.073912e-02 2.016000e-02
<VARIANCE> 39
 6.062304e+01 7.408064e+01 8.323224e+01 1.168216e+02 7.889236e+01 6.302420e+01 8.068809e+01 5.008425e+01 6.422816e+01 5.627657e+01 5.758591e+01 5.488352e+01 2.658269e+02 2.237194e+00 2.592087e+00 2.523058e+00 4.493044e+00 2.833982e+00 2.888875e+00 3.075438e+00 2.741223e+00 2.699575e+00 3.063578e+00 2.573339e+00 2.194517e+00 4.984552e+00 3.580279e-01 4.174158e-01 4.460943e-01 5.466231e-01 4.999610e-01 4.797978e-01 5.719836e-01 5.089008e-01 4.798635e-01 5.063673e-01 4.608459e-01 3.956744e-01 6.789643e-01
<GCONST> 1.323120e+02
<STATE> 3
<MEAN> 39
 9.726942e-02 1.447561e+00 7.586440e+00 -7.732704e+00 -3.160810e+00 -9.977052e-01 -6.206506e+00 -7.508309e-01 -4.642447e+00 7.731607e-01 -2.354062e+00 -4.379642e+00 5.612855e+01 -6.822518e-02 3.944527e-01 1.452816e-01 5.624781e-01 1.650764e-01 -5.727931e-02 1.736919e-01 4.557931e-02 -1.213179e-01 -4.814175e-04 1.948763e-01 3.106319e-02 -5.298123e-01 -1.362590e-02 1.306413e-02 4.466650e-02 1.054869e-02 -3.280046e-02 -4.897054e-02 1.638530e-02 -7.509343e-02 -4.806158e-02 -7.420342e-02 -2.510897e-02 3.045475e-02 -9.061359e-04
<VARIANCE> 39
 5.969643e+01 7.408064e+01 1.172348e+02 9.562053e+01 1.093764e+02 5.765175e+01 8.457957e+01 5.008425e+01 6.739108e+01 5.329363e+01 5.758591e+01 5.243670e+01 2.658269e+02 2.237194e+00 2.592087e+00 2.827269e+00 3.568212e+00 2.843587e+00 2.664105e+00 2.917634e+00 2.741223e+00 2.630443e+00 2.557438e+00 2.569609e+00 1.958500e+00 4.984552e+00 3.580279e-01 4.174158e-01 4.618761e-01 5.158110e-01 4.999610e-01 4.797978e-01 5.164536e-01 5.089008e-01 4.850127e-01 4.798622e-01 4.608459e-01 3.767788e-01 6.789643e-01
<GCONST> 1.318855e+02
<STATE> 4
<MEAN> 39
 -2.747602e+00 4.427763e+00 3.937871e+00 -3.423894e+00 -1.972841e-01 -1.710859e+00 -1.972851e+00 -1.234453e+00 -3.210404e+00 -1.452430e+00 -1.834827e+00 -1.637778e+00 4.305247e+01 -6.701311e-02 1.849872e-01 1.283758e-01 2.327596e-01 3.555793e-02 -5.597007e-02 1.024386e-01 -3.633322e-02 -2.310928e-02 -1.058474e-01 3.603583e-02 4.492399e-02 -1.611681e-01 -1.976208e-02 -8.403226e-03 2.747965e-02 -2.741120e-02 -4.908406e-02 9.573352e-03 -5.732376e-03 -2.600951e-02 -9.009903e-04 -4.887568e-03 1.036249e-02 -3.896400e-03 6.408148e-02
<VARIANCE> 39
 5.621860e+01 7.408064e+01 6.481821e+01 9.562053e+01 6.049548e+01 5.657086e+01 5.588295e+01 5.008425e+01 4.914367e+01 3.600889e+01 5.758591e+01 2.695450e+01 2.658269e+02 2.237194e+00 2.592087e+00 2.314184e+00 3.129044e+00 2.833982e+00 2.664105e+00 2.646528e+00 2.741223e+00 2.630443e+00 2.383868e+00 2.569609e+00 1.958500e+00 4.984552e+00 3.580279e-01 4.174158e-01 3.847587e-01 5.025513e-01 4.999610e-01 4.797978e-01 4.820749e-01 5.089008e-01 4.868957e-01 4.500161e-01 4.608459e-01 3.767788e-01 6.789643e-01
<GCONST> 1.279933e+02
<TRANSP> 5
 0.000000e+00 1.000000e+00 0.000000e+00 0.000000e+00 0.000000e+00
 0.000000e+00 5.350410e-01 4.649591e-01 0.000000e+00 0.000000e+00
 0.000000e+00 0.000000e+00 5.582454e-01 4.417546e-01 0.000000e+00
 0.000000e+00 0.000000e+00 0.000000e+00 8.217420e-01 1.782580e-01
 0.000000e+00 0.000000e+00 0.000000e+00 0.000000e+00 0.000000e+00
<ENDHMM>
~h "m"
<BEGINHMM>
<NUMSTATES> 5
<STATE> 2
<MEAN> 39
 -7.350923e+00 4.687120e+00 3.200169e+00 -1.939281e+00 2.412853e+00 -1.422697e+00 -1.495921e+00 2.691148e-01 -1.351447e+00 -1.779327e+00 -1.783223e+00 -2.741630e+00 5.209425e+01 1.208711e+00 -5.900007e-01 3.884356e-01 -2.641173e-01 2.526869e-02 -3.602488e-01 -6.744703e-01 -2.234925e-01 -5.885271e-01 -2.399985e-01 -3.144509e-01 -3.574424e-01 1.741508e+00 3.801972e-01 -2.154169e-01 1.232579e-01 -1.799952e-01 -3.107992e-01 -1.090483e-01 -1.484089e-01 -8.059796e-02 -1.602217e-01 3.859736e-04 -8.306443e-02 -3.782343e-02 8.201772e-02
<VARIANCE> 39
 1.025771e+02 7.408064e+01 6.481821e+01 9.562053e+01 6.049548e+01 5.657086e+01 5.480392e+01 5.008425e+01 4.914367e+01 3.600889e+01 5.758591e+01 3.433405e+01 2.658269e+02 7.897984e+00 5.688764e+00 5.340425e+00 4.603061e+00 6.617477e+00 3.348172e+00 4.336378e+00 4.594141e+00 3.595250e+00 3.295706e+00 3.720797e+00 3.460861e+00 1.253927e+01 1.130737e+00 9.391213e-01 9.221237e-01 8.446372e-01 1.183959e+00 6.254916e-01 8.498984e-01 7.888913e-01 5.631130e-01 5.513473e-01 6.384954e-01 6.808397e-01 1.667473e+00
<GCONST> 1.443235e+02
<STATE> 3
<MEAN> 39
 2.713046e+00 7.190973e-02 6.343829e+00 -2.705664e+00 -1.592847e+00 -1.129639e+00 -7.011854e+00 4.633819e-01 -4.832836e+00 -1.460582e+00 -2.673304e+00 -5.975606e+00 5.815371e+01 1.106639e+00 -7.359337e-01 4.053469e-01 -7.060425e-01 -5.337688e-01 -4.918343e-01 -6.380013e-01 -3.994249e-01 -7.693986e-01 -2.641037e-01 -4.988496e-01 -2.310632e-01 7.219181e-01 -2.162544e-01 -1.534661e-02 -7.136642e-02 -1.623030e-01 2.634393e-02 -2.288676e-02 1.819827e-01 3.371391e-02 2.456885e-02 -1.164978e-02 -6.556177e-02 1.079349e-01 9.104729e-03
<VARIANCE> 39
 7.576361e+01 8.736942e+01 6.893864e+01 9.562053e+01 6.091516e+01 5.657086e+01 5.480392e+01 7.845618e+01 5.847698e+01 4.143135e+01 5.758591e+01 5.354694e+01 2.658269e+02 4.970263e+00 5.369308e+00 4.354478e+00 7.727037e+00 5.279118e+00 4.426986e+00 4.736057e+00 6.507099e+00 3.935915e+00 2.737391e+00 5.023994e+00 4.391346e+00 4.984552e+00 8.094440e-01 8.181201e-01 6.734298e-01 1.035821e+00 9.572384e-01 6.132421e-01 7.472234e-01 1.061626e+00 6.030508e-01 4.978782e-01 7.460418e-01 7.018896e-01 7.113170e-01
<GCONST> 1.439189e+02
<STATE> 4
<MEAN> 39
 1.007650e+00 -4.883580e+00 5.682342e+00 -1.512802e+01 2.037687e-01 -1.086327e+01 -6.847411e+00 -4.316566e+00 -8.321680e+00 -4.112671e+00 -1.048057e+01 -3.433128e+00 6.684437e+01 -7.500846e-02 1.413556e-01 1.563713e-02 8.994650e-02 4.179602e-02 4.367307e-03 6.410819e-02 -5.150978e-04 6.290673e-02 -3.378398e-02 -1.450099e-03 4.095723e-02 -1.221351e-01 -1.216035e-01 1.202319e-01 -4.306755e-02 1.224956e-01 3.133941e-02 1.090017e-01 4.759844e-02 2.155677e-02 1.148740e-01 4.940615e-02 1.232455e-01 2.239874e-02 -1.196373e-01
<VARIANCE> 39
 5.621860e+01 9.273660e+01 7.431937e+01 1.482541e+02 8.223631e+01 9.038656e+01 6.207603e+01 7.794890e+01 4.914367e+01 5.689462e+01 7.253512e+01 3.619073e+01 2.658269e+02 2.237194e+00 3.971223e+00 3.248171e+00 6.228280e+00 2.856302e+00 4.076398e+00 3.273363e+00 4.035913e+00 2.893463e+00 3.217140e+00 3.613281e+00 2.919082e+00 5.683221e+00 3.774460e-01 5.261162e-01 5.078831e-01 8.936661e-01 4.999610e-01 6.520537e-01 5.513330e-01 7.153745e-01 4.978218e-01 5.803624e-01 5.645495e-01 5.341930e-01 6.789643e-01
<GCONST> 1.375997e+02
<TRANSP> 5
 0.000000e+00 1.000000e+00 0.000000e+00 0.000000e+00 0.000000e+00
 0.000000e+00 7.075815e-01 2.924185e-01 0.000000e+00 0.000000e+00
 0.000000e+00 0.000000e+00 7.053376e-01 2.946624e-01 0.000000e+00
 0.000000e+00 0.000000e+00 0.000000e+00 9.139059e-01 8.609404e-02
 0.000000e+00 0.000000e+00 0.000000e+00 0.000000e+00 0.000000e+00
<ENDHMM>
~h "n"
<BEGINHMM>
<NUMSTATES> 5
<STATE> 2
<MEAN> 39
 -1.005997e+00 -2.104868e+00 3.649498e+00 -6.046366e+00 -4.126493e+00 -3.773965e+00 -2.580609e+00 3.968858e+00 -1.675918e+00 -2.689678e+00 -4.343390e+00 -9.489212e-01 5.564524e+01 6.867864e-03 -4.693210e-01 -1.542792e-01 -2.848295e-01 -6.541397e-02 3.677636e-01 3.437788e-01 2.749362e-01 -5.009615e-01 -2.990493e-01 3.279673e-02 -1.790328e-01 -1.785711e-02 -1.184743e-01 2.748323e-01 6.354049e-02 1.948253e-01 1.390212e-01 9.237355e-02 9.661146e-02 -2.240653e-01 -7.914851e-02 -4.364745e-02 1.030357e-01 -8.926609e-02 -8.039452e-02
<VARIANCE> 39
 5.660371e+01 7.495338e+01 6.481821e+01 9.562053e+01 6.924178e+01 5.657086e+01 5.480392e+01 5.008425e+01 4.962257e+01 3.600889e+01 6.229888e+01 2.942309e+01 3.029394e+02 2.237194e+00 2.592087e+00 2.314184e+00 3.129044e+00 2.833982e+00 2.664105e+00 2.646528e+00 2.741223e+00 2.721696e+00 2.383868e+00 2.569609e+00 1.958500e+00 4.984552e+00 3.580279e-01 5.106789e-01 3.847587e-01 5.619651e-01 4.999610e-01 4.797978e-01 4.820749e-01 5.089008e-01 4.798635e-01 4.500161e-01 6.009313e-01 3.767788e-01 6.789643e-01
<GCONST> 1.290324e+02
<STATE> 3
<MEAN> 39
 3.451448e+00 -5.593840e+00 3.142968e+00 -7.163501e+00 -6.208897e+00 -2.262248e+00 -4.163993e+00 4.328908e+00 -3.554609e+00 -3.331527e+00 -5.888122e+00 -3.028275e+00 6.200095e+01 -9.275856e-02 1.056820e-01 2.179190e-01 3.183961e-02 1.402489e-01 2.051536e-01 2.509324e-01 -1.565111e-01 -3.061773e-01 -1.506494e-01 8.656963e-02 -1.108616e-01 -2.664151e-01 -2.621971e-03 1.484632e-01 4.080448e-02 7.586566e-02 5.180188e-02 -3.919088e-02 -3.338537e-02 -1.212114e-01 7.048235e-02 5.588491e-02 4.038222e-02 -6.924517e-03 -5.700505e-02
<VARIANCE> 39
 6.106346e+01 7.408064e+01 6.481821e+01 9.562053e+01 7.555267e+01 5.792192e+01 5.480392e+01 5.779572e+01 6.734223e+01 3.600889e+01 6.418629e+01 3.457076e+01 2.658269e+02 2.237194e+00 2.592087e+00 2.314184e+00 3.129044e+00 2.833982e+00 2.664105e+00 2.646528e+00 2.741223e+00 2.630443e+00 2.383868e+00 2.569609e+00 1.958500e+00 4.984552e+00 3.580279e-01 4.174158e-01 3.847587e-01 5.025513e-01 4.999610e-01 4.797978e-01 4.820749e-01 5.089008e-01 4.798635e-01 4.500161e-01 4.608459e-01 3.767788e-01 6.789643e-01
<GCONST> 1.291034e+02
<STATE> 4
<MEAN> 39
 -2.657777e+00 4.743188e+00 2.933010e+00 -2.289076e+00 -6.543459e-01 -9.887282e-01 4.140112e-01 5.242012e-01 -2.064720e+00 -2.214617e+00 -4.654984e-01 -1.042231e+00 4.074661e+01 -7.765196e-02 7.590467e-02 7.387950e-02 1.019896e-02 1.974061e-02 5.279283e-02 -1.633350e-02 -1.234481e-01 -3.807557e-02 -3.395481e-03 3.091707e-03 -3.513608e-02 -1.044655e-01 4.580099e-02 -1.649238e-02 3.686878e-02 -3.941455e-02 -3.164538e-02 -4.406172e-02 -4.741964e-02 -3.619174e-02 -1.391927e-02 1.764549e-02 -3.420971e-02 -1.050203e-02 6.087158e-02
<VARIANCE> 39
 5.621860e+01 7.408064e+01 6.481821e+01 9.562053e+01 6.049548e+01 5.657086e+01 5.480392e+01 5.008425e+01 4.914367e+01 3.600889e+01 5.758591e+01 2.695450e+01 2.658269e+02 2.237194e+00 2.592087e+00 2.314184e+00 3.129044e+00 2.833982e+00 2.664105e+00 2.646528e+00 2.741223e+00 2.630443e+00 2.383868e+00 2.569609e+00 1.958500e+00 4.984552e+00 3.580279e-01 4.174158e-01 3.847587e-01 5.025513e-01 4.999610e-01 4.797978e-01 4.820749e-01 5.089008e-01 4.798635e-01 4.500161e-01 4.608459e-01 3.767788e-01 6.789643e-01
<GCONST> 1.279592e+02
<TRANSP> 5
 0.000000e+00 1.000000e+00 0.000000e+00 0.000000e+00 0.000000e+00
 0.000000e+00 5.561629e-01 4.438370e-01 0.000000e+00 0.000000e+00
 0.000000e+00 0.000000e+00 6.768314e-01 3.231686e-01 0.000000e+00
 0.000000e+00 0.000000e+00 0.000000e+00 8.998878e-01 1.001122e-01
 0.000000e+00 0.000000e+00 0.000000e+00 0.000000e+00 0.000000e+00
<ENDHMM>
~h "p"
<BEGINHMM>
<NUMSTATES> 5
<STATE> 2
<MEAN> 39
 -4.050529e+00 -9.352993e-01 1.669937e+00 -7.099057e+00 -1.005110e-01 -5.703484e+00 -3.920223e+00 -3.164654e+00 -2.511930e+00 -2.761543e+00 -5.213638e+00 -4.071793e+00 5.949785e+01 4.130847e-01 -3.920763e-01 -6.283805e-03 -4.048018e-01 6.465239e-02 -2.921237e-01 -2.506471e-01 -1.505931e-01 -8.238030e-02 9.576861e-03 -4.156367e-01 -2.569172e-01 1.248372e+00 3.466484e-02 8.043908e-02 3.778090e-02 4.240442e-02 -4.804881e-03 3.486727e-02 6.467806e-03 4.339648e-02 5.960242e-02 4.846279e-02 2.933892e-02 1.006281e-01 -1.949693e-01
<VARIANCE> 39
 8.273518e+01 1.031363e+02 6.481821e+01 1.244900e+02 7.004399e+01 9.000073e+01 9.036147e+01 8.416069e+01 6.154563e+01 6.380233e+01 7.094508e+01 4.316288e+01 2.658269e+02 6.269105e+00 8.858603e+00 3.809831e+00 9.252813e+00 6.018301e+00 7.496836e+00 7.002828e+00 7.734772e+00 6.465957e+00 6.636227e+00 5.111736e+00 4.645141e+00 1.915821e+01 8.996621e-01 1.468791e+00 6.441705e-01 1.401394e+00 1.093466e+00 1.334388e+00 1.205806e+00 1.406720e+00 1.221419e+00 1.225769e+00 8.470649e-01 8.954235e-01 2.804553e+00
<GCONST> 1.567966e+02
<STATE> 3
<MEAN> 39
 -2.462647e+00 3.392633e+00 4.156791e+00 -4.413169e+00 1.290389e+00 -2.159063e+00 -4.572140e+00 -2.411153e+00 -9.270010e-01 -2.302102e-01 -2.963088e+00 -3.162776e+00 5.304829e+01 1.200799e-01 7.491030e-02 3.884612e-01 2.588313e-01 -4.532702e-02 1.149615e-01 7.603000e-02 1.098692e-01 -1.218601e-01 -1.677537e-01 1.621365e-01 2.631561e-01 -4.312572e-01 3.642151e-02 -1.625299e-01 -3.902272e-02 -1.983221e-01 -2.693724e-01 -2.303604e-02 1.791766e-02 -1.776218e-02 -9.276105e-02 -6.621942e-03 2.778301e-02 2.665352e-02 7.496236e-02
<VARIANCE> 39
 8.300252e+01 7.408064e+01 6.933141e+01 9.562053e+01 8.786694e+01 5.827054e+01 6.924196e+01 7.089506e+01 5.048727e+01 3.862856e+01 5.758591e+01 3.040874e+01 2.658269e+02 6.317399e+00 6.691101e+00 6.621961e+00 7.896546e+00 7.024476e+00 5.406668e+00 5.579112e+00 5.011038e+00 5.217319e+00 4.829436e+00 4.651772e+00 4.187760e+00 2.257985e+01 9.808965e-01 1.250266e+00 1.432578e+00 1.593209e+00 1.349751e+00 1.070437e+00 1.112839e+00 1.016332e+00 8.273115e-01 9.760039e-01 9.192442e-01 8.347515e-01 2.938064e+00
<GCONST> 1.529681e+02
<STATE> 4
<MEAN> 39
 -5.966055e-01 2.273753e+00 4.589167e+00 -6.076732e+00 6.012053e-01 -1.629429e+00 -4.424489e+00 -1.922393e+00 -3.200173e+00 -2.116397e+00 -2.361240e+00 -2.095690e+00 5.321198e+01 3.796453e-01 -4.584965e-01 1.572660e-01 -7.588419e-01 -4.754189e-01 1.216164e-01 -3.474816e-02 2.970594e-01 -2.093073e-01 -3.942489e-02 1.536756e-01 1.847600e-01 8.819338e-01 -5.267450e-02 3.770228e-02 -3.151203e-02 -9.149420e-02 2.817281e-02 3.043972e-02 -6.425750e-03 2.802366e-03 1.274598e-02 6.531279e-02 -2.037236e-02 -1.542742e-02 4.728808e-02
<VARIANCE> 39
 7.404558e+01 7.408064e+01 6.481821e+01 9.562053e+01 6.049548e+01 5.657086e+01 5.480392e+01 5.987226e+01 4.914367e+01 3.600889e+01 5.758591e+01 2.695450e+01 2.658269e+02 5.689695e+00 6.510586e+00 3.782896e+00 8.173091e+00 4.022509e+00 4.208276e+00 3.238835e+00 3.545628e+00 3.873287e+00 3.662288e+00 5.065043e+00 2.965377e+00 1.406304e+01 8.373230e-01 1.256355e+00 6.873538e-01 1.239947e+00 7.440364e-01 8.159511e-01 6.521693e-01 6.329473e-01 7.689926e-01 7.119546e-01 9.160206e-01 5.662433e-01 2.186961e+00
<GCONST> 1.440109e+02
<TRANSP> 5
 0.000000e+00 1.000000e+00 0.000000e+00 0.000000e+00 0.000000e+00
 0.000000e+00 8.926082e-01 1.073919e-01 0.000000e+00 0.000000e+00
 0.000000e+00 0.000000e+00 7.561079e-01 2.438921e-01 0.000000e+00
 0.000000e+00 0.000000e+00 0.000000e+00 8.029682e-01 1.970318e-01
 0.000000e+00 0.000000e+00 0.000000e+00 0.000000e+00 0.000000e+00
<ENDHMM>
~h "r"
<BEGINHMM>
<NUMSTATES> 5
<STATE> 2
<MEAN> 39
 2.354606e+00 -1.185196e+00 3.281615e+00 9.512343e-01 -6.363579e+00 -8.170401e-01 -9.065115e+00 -6.232424e+00 3.143892e-01 2.467703e-01 -1.094523e+00 -3.803123e+00 5.739238e+01 2.081335e-01 -8.974726e-01 -8.031518e-02 -4.442650e-01 -6.012474e-01 1.786727e-01 -7.976481e-01 3.122160e-01 3.600493e-01 -5.382431e-02 2.481545e-01 -3.463458e-02 2.053083e+00 -2.563376e-02 2.322144e-02 8.773500e-02 -1.425129e-01 7.051745e-02 5.483916e-03 -4.734939e-02 1.525455e-01 -6.439178e-02 -3.715584e-02 4.513429e-03 -1.895913e-02 6.626628e-02
<VARIANCE> 39
 1.055646e+02 7.408064e+01 6.481821e+01 9.562053e+01 1.229290e+02 5.657086e+01 7.925662e+01 8.573445e+01 6.526400e+01 3.600889e+01 5.758591e+01 2.737422e+01 2.658269e+02 3.355028e+00 6.101772e+00 3.527201e+00 4.609906e+00 5.803109e+00 5.516490e+00 4.198421e+00 3.700729e+00 4.348083e+00 3.021165e+00 2.685925e+00 2.304252e+00 1.382304e+01 6.224028e-01 1.104223e+00 6.710857e-01 7.205198e-01 1.094594e+00 9.860647e-01 8.432074e-01 7.380450e-01 7.354138e-01 5.268556e-01 4.654817e-01 4.173448e-01 2.052366e+00
<GCONST> 1.434269e+02
<STATE> 3
<MEAN> 39
 1.609974e+00 -2.699814e+00 7.040897e+00 -2.846339e+00 -8.200624e+00 -1.828739e+00 -1.007570e+01 -2.714668e+00 -1.445267e+00 -4.174168e-01 -5.865360e-01 -3.930412e+00 6.469027e+01 5.249343e-01 -9.570697e-02 7.135909e-01 -7.849709e-01 -3.167213e-01 -5.081106e-01 -2.994304e-01 -2.166232e-01 -8.142653e-01 1.572423e-01 -3.363932e-01 9.915692e-02 4.884987e-01 -2.236648e-03 1.282633e-01 3.061481e-02 -2.646494e-02 1.166192e-01 -1.445286e-01 1.763440e-01 -1.590566e-02 -8.456981e-02 -6.716780e-05 -1.754504e-01 4.150381e-02 -3.717158e-01
<VARIANCE> 39
 1.071518e+02 9.024747e+01 7.796867e+01 9.562053e+01 1.248694e+02 5.993064e+01 8.436592e+01 7.598857e+01 7.848795e+01 3.659228e+01 5.758591e+01 2.751747e+01 2.658269e+02 6.415283e+00 6.426842e+00 5.972342e+00 5.151859e+00 1.069498e+01 5.930558e+00 6.675266e+00 5.565970e+00 5.331307e+00 3.860337e+00 3.746088e+00 2.694465e+00 6.998864e+00 1.135785e+00 1.150364e+00 9.814254e-01 8.428113e-01 1.517565e+00 9.830413e-01 1.182821e+00 1.044466e+00 9.207592e-01 7.257347e-01 6.427751e-01 4.555317e-01 9.730332e-01
<GCONST> 1.495937e+02
<STATE> 4
<MEAN> 39
 2.144127e+00 -3.493258e+00 5.872409e+00 -1.692985e+01 -7.036757e+00 -6.589273e+00 -1.402638e+01 -6.764932e+00 -7.383512e+00 2.688935e-01 -9.513144e+00 -1.934516e+00 6.783879e+01 -1.514678e-01 4.818886e-01 -7.034020e-02 1.216967e-01 4.247753e-01 2.450347e-02 4.186590e-01 3.583842e-01 9.408244e-02 -8.042246e-02 1.506184e-01 1.668020e-01 -9.640570e-01 -1.532820e-01 8.677793e-02 -8.548591e-02 1.860178e-01 -1.801213e-02 7.765958e-02 9.153040e-02 8.428834e-03 1.541334e-01 5.281742e-02 1.817234e-01 -7.115738e-03 -2.529424e-01
<VARIANCE> 39
 5.621860e+01 8.375928e+01 6.481821e+01 1.366305e+02 6.049548e+01 7.537926e+01 1.580017e+02 6.111675e+01 4.914367e+01 6.713950e+01 6.476268e+01 2.695450e+01 2.658269e+02 2.465374e+00 4.632298e+00 3.286740e+00 8.330948e+00 3.604060e+00 3.958596e+00 4.262517e+00 3.729903e+00 3.872605e+00 3.644910e+00 4.948031e+00 2.294018e+00 8.883433e+00 3.842542e-01 7.011941e-01 4.964161e-01 1.126598e+00 6.585593e-01 6.258002e-01 6.105994e-01 6.543738e-01 5.932993e-01 7.249267e-01 6.780099e-01 4.555965e-01 9.151748e-01
<GCONST> 1.405997e+02
<TRANSP> 5
 0.000000e+00 1.000000e+00 0.000000e+00 0.000000e+00 0.000000e+00
 0.000000e+00 7.971269e-01 2.028731e-01 0.000000e+00 0.000000e+00
 0.000000e+00 0.000000e+00 8.241957e-01 1.758042e-01 0.000000e+00
 0.000000e+00 0.000000e+00 0.000000e+00 8.865589e-01 1.134410e-01
 0.000000e+00 0.000000e+00 0.000000e+00 0.000000e+00 0.000000e+00
<ENDHMM>
~h "s"
<BEGINHMM>
<NUMSTATES> 5
<STATE> 2
<MEAN> 39
 -8.449383e+00 7.643812e+00 2.348314e+00 -5.964641e-01 4.740746e-01 -3.482827e+00 2.006207e+00 5.931509e-01 -8.419203e-01 -2.641720e+00 -6.957224e-01 -1.878358e+00 5.272903e+01 -2.425874e+00 8.182122e-01 -1.096141e+00 7.572024e-01 7.978528e-01 5.422443e-01 8.764457e-01 2.565590e-01 5.533797e-01 9.946864e-03 7.538168e-01 1.516197e-01 1.164348e+00 -3.179895e-02 -1.144475e-01 4.137884e-02 -3.094939e-01 -1.966607e-01 -7.551596e-02 -2.438129e-01 -8.667630e-02 -8.607911e-02 4.999880e-02 -8.594323e-02 7.256099e-02 4.837979e-02
<VARIANCE> 39
 7.566328e+01 7.408064e+01 6.481821e+01 9.562053e+01 6.049548e+01 5.657086e+01 5.480392e+01 5.008425e+01 4.914367e+01 3.600889e+01 5.758591e+01 2.884213e+01 2.658269e+02 5.960193e+00 5.173972e+00 3.960812e+00 4.896961e+00 4.479716e+00 5.349746e+00 4.062502e+00 4.457079e+00 3.178709e+00 3.046427e+00 3.547601e+00 2.973376e+00 8.542163e+00 1.032718e+00 9.702163e-01 6.206003e-01 7.573291e-01 6.693255e-01 9.156206e-01 7.608792e-01 6.917059e-01 6.322410e-01 5.727675e-01 6.415487e-01 5.836716e-01 9.981987e-01
<GCONST> 1.409263e+02
<STATE> 3
<MEAN> 39
 -1.836061e+01 1.154308e+01 -1.749406e+00 -1.239960e-01 2.221925e+00 -3.088382e+00 4.148421e+00 1.281752e-01 -2.650284e-01 -1.816667e+00 1.605531e+00 -1.366111e+00 6.033721e+01 -6.985869e-01 3.519495e-01 -3.765892e-01 -1.644590e-02 -1.036422e-01 1.014290e-01 -1.096067e-01 -1.234387e-01 -1.138397e-01 1.720998e-02 6.653193e-02 2.718299e-02 2.291346e-01 5.986373e-01 -1.623020e-01 2.911079e-01 -9.954479e-02 -1.811093e-01 -1.138418e-01 -1.806382e-01 -1.146531e-01 -1.605869e-01 -3.772457e-02 -1.755232e-01 -7.265674e-02 -2.453748e-01
<VARIANCE> 39
 7.274672e+01 7.408064e+01 6.481821e+01 9.562053e+01 6.049548e+01 5.657086e+01 5.480392e+01 5.008425e+01 4.914367e+01 3.600889e+01 5.758591e+01 2.695450e+01 2.658269e+02 3.456226e+00 2.592087e+00 2.314184e+00 3.129044e+00 2.833982e+00 2.664105e+00 2.646528e+00 2.741223e+00 2.630443e+00 2.383868e+00 2.569609e+00 1.958500e+00 4.984552e+00 4.548651e-01 4.174158e-01 3.847587e-01 5.025513e-01 4.999610e-01 5.300881e-01 4.820749e-01 5.089008e-01 4.798635e-01 4.500161e-01 4.608459e-01 3.767788e-01 6.789643e-01
<GCONST> 1.289910e+02
<STATE> 4
<MEAN> 39
 -1.655012e+01 9.959126e+00 -2.811959e+00 1.294428e+00 -1.662669e-01 -1.387511e+00 2.003616e+00 3.310222e-01 -9.943329e-01 -2.394198e+00 9.360768e-01 -1.116113e+00 5.679184e+01 3.427128e-01 1.232205e-03 2.425586e-01 -1.404051e-03 -1.482213e-01 6.074334e-03 -1.823592e-01 -1.413988e-01 -8.876240e-02 1.456783e-02 -1.447566e-01 -5.132896e-02 -2.907642e-01 2.062805e-01 -9.440368e-02 1.569812e-01 -6.103593e-02 -4.057832e-02 -4.725260e-02 -5.612108e-02 -1.094474e-02 -1.111431e-02 6.258887e-03 -4.023008e-02 9.197942e-04 -1.289590e-02
<VARIANCE> 39
 6.772148e+01 7.408064e+01 6.481821e+01 9.562053e+01 6.049548e+01 5.657086e+01 5.480392e+01 5.008425e+01 4.914367e+01 3.600889e+01 5.758591e+01 2.695450e+01 2.658269e+02 2.237194e+00 2.592087e+00 2.314184e+00 3.129044e+00 2.833982e+00 2.664105e+00 2.646528e+00 2.741223e+00 2.630443e+00 2.383868e+00 2.569609e+00 1.958500e+00 4.984552e+00 3.580279e-01 4.174158e-01 3.847587e-01 5.025513e-01 4.999610e-01 4.797978e-01 4.820749e-01 5.089008e-01 4.798635e-01 4.500161e-01 4.608459e-01 3.767788e-01 6.789643e-01
<GCONST> 1.281454e+02
<TRANSP> 5
 0.000000e+00 1.000000e+00 0.000000e+00 0.000000e+00 0.000000e+00
 0.000000e+00 7.196155e-01 2.803845e-01 0.000000e+00 0.000000e+00
 0.000000e+00 0.000000e+00 6.861085e-01 3.138916e-01 0.000000e+00
 0.000000e+00 0.000000e+00 0.000000e+00 8.707098e-01 1.292903e-01
 0.000000e+00 0.000000e+00 0.000000e+00 0.000000e+00 0.000000e+00
<ENDHMM>
~h "t"
<BEGINHMM>
<NUMSTATES> 5
<STATE> 2
<MEAN> 39
 -1.010464e+01 7.460365e+00 6.642359e+00 -4.324111e+00 -3.180575e-01 -2.122535e+00 -1.447494e+00 -1.667153e+00 -1.548913e+00 -8.791593e-01 -1.760434e-01 -1.902788e+00 5.317572e+01 -1.151261e-01 -1.170906e-01 3.755719e-01 -4.457848e-01 -1.797206e-01 -7.530443e-02 -8.674893e-02 -3.861569e-02 -1.819194e-01 4.773289e-02 -3.754521e-02 -7.825002e-02 2.021422e+00 2.526926e-01 -1.670298e-01 1.340091e-01 -1.209505e-01 -2.900928e-01 -8.455994e-02 -6.936445e-02 1.151931e-03 -8.714166e-02 4.053422e-02 -7.591005e-02 -1.191222e-02 7.415257e-02
<VARIANCE> 39
 7.823096e+01 7.408064e+01 6.481821e+01 9.562053e+01 6.803757e+01 5.657086e+01 5.480392e+01 5.008425e+01 4.914367e+01 3.600889e+01 5.758591e+01 2.695450e+01 2.658269e+02 8.402086e+00 5.386695e+00 6.222783e+00 5.349870e+00 7.506950e+00 4.184817e+00 3.800173e+00 3.545516e+00 3.613262e+00 2.844324e+00 2.822575e+00 2.270298e+00 2.254738e+01 1.377223e+00 1.062201e+00 1.021963e+00 9.658993e-01 1.229926e+00 8.128754e-01 7.354596e-01 6.788678e-01 6.241947e-01 5.938467e-01 5.396541e-01 4.414928e-01 3.226531e+00
<GCONST> 1.447418e+02
<STATE> 3
<MEAN> 39
 -3.737077e+00 1.623484e+00 1.084883e+01 -7.623654e+00 -7.430333e+00 -5.700429e+00 -3.600272e+00 -2.622387e+00 -4.223351e+00 -1.135015e+00 -3.786814e+00 -2.319734e+00 6.152283e+01 9.993805e-01 -1.052327e+00 -8.525605e-02 -3.711514e-01 -6.424042e-01 -4.921766e-01 -1.816506e-01 3.849168e-01 -9.441015e-02 3.631286e-02 -3.339048e-01 1.381469e-02 7.738222e-02 -9.269156e-02 -7.679297e-02 -2.169502e-01 -6.060455e-02 1.331503e-01 8.744568e-03 4.601469e-02 6.046895e-02 7.049005e-02 -6.693558e-03 -3.046692e-02 6.693589e-03 -7.262387e-02
<VARIANCE> 39
 7.022490e+01 7.408064e+01 7.308382e+01 9.562053e+01 1.045663e+02 6.250473e+01 5.480392e+01 8.023269e+01 4.914367e+01 3.664314e+01 6.011570e+01 2.695450e+01 2.658269e+02 8.036065e+00 8.079748e+00 5.329911e+00 7.225469e+00 8.844993e+00 5.895134e+00 4.161005e+00 5.287359e+00 4.416543e+00 3.553953e+00 4.890075e+00 2.462312e+00 1.511740e+01 1.232666e+00 1.338857e+00 8.490639e-01 1.206129e+00 1.491943e+00 9.647657e-01 8.068872e-01 9.065841e-01 7.236079e-01 6.817629e-01 7.985454e-01 4.632052e-01 2.087942e+00
<GCONST> 1.491673e+02
<STATE> 4
<MEAN> 39
 -9.809661e-02 -3.151478e+00 5.855144e+00 -9.422844e+00 -7.741671e+00 -7.992931e+00 -2.295679e+00 1.848384e+00 -3.215532e+00 -1.496965e+00 -5.979063e+00 -1.745782e+00 5.973498e+01 -1.648860e-01 2.648689e-01 -3.690336e-01 2.716959e-01 2.564588e-01 9.102493e-02 -1.544792e-02 -3.632416e-02 2.889439e-01 -4.660712e-02 5.811305e-02 6.437100e-02 -9.328447e-01 -9.206374e-02 1.370456e-01 2.060692e-02 7.046913e-02 7.942335e-02 5.202378e-02 -5.296496e-03 -6.809273e-02 6.673464e-03 -8.875477e-03 4.571546e-02 -5.886196e-03 -2.531183e-02
<VARIANCE> 39
 5.621860e+01 8.196864e+01 6.481821e+01 9.562053e+01 6.528192e+01 6.586899e+01 5.480392e+01 6.066045e+01 5.696876e+01 3.985014e+01 5.949612e+01 2.695450e+01 3.026012e+02 2.237194e+00 3.768076e+00 2.314184e+00 3.838989e+00 2.887315e+00 3.085764e+00 2.646528e+00 2.799640e+00 2.720378e+00 2.383868e+00 2.704325e+00 1.958500e+00 1.047527e+01 3.704847e-01 6.020087e-01 3.847587e-01 6.516337e-01 5.756943e-01 5.563083e-01 4.820749e-01 5.089008e-01 4.798635e-01 4.500161e-01 4.608459e-01 3.767788e-01 1.401297e+00
<GCONST> 1.321581e+02
<TRANSP> 5
 0.000000e+00 1.000000e+00 0.000000e+00 0.000000e+00 0.000000e+00
 0.000000e+00 8.366879e-01 1.633122e-01 0.000000e+00 0.000000e+00
 0.000000e+00 0.000000e+00 8.128233e-01 1.871767e-01 0.000000e+00
 0.000000e+00 0.000000e+00 0.000000e+00 8.822082e-01 1.177918e-01
 0.000000e+00 0.000000e+00 0.000000e+00 0.000000e+00 0.000000e+00
<ENDHMM>
~h "v"
<BEGINHMM>
<NUMSTATES> 5
<STATE> 2
<MEAN> 39
 -4.330403e+00 3.972171e+00 1.096621e+01 -7.627357e+00 -4.430801e+00 -5.049201e+00 -2.796824e+00 -6.276772e+00 -5.784584e+00 -1.202993e+00 -5.434580e+00 -1.858093e+00 5.609144e+01 1.588836e+00 -1.021014e+00 2.459619e+00 -3.401719e+00 -1.898363e+00 -1.994602e+00 -1.171963e+00 -2.152540e+00 -1.950065e+00 7.009947e-01 -1.833847e+00 -4.001536e-01 3.662583e+00 -7.678770e-02 -1.965691e-01 1.284308e-02 -3.983025e-01 -1.377531e-01 -8.778429e-02 -2.236954e-01 3.136634e-02 -1.053508e-01 9.994866e-03 -2.332413e-01 -1.704853e-02 3.250174e-01
<VARIANCE> 39
 5.621860e+01 7.408064e+01 8.609387e+01 1.128363e+02 6.049548e+01 6.913110e+01 5.480392e+01 7.104987e+01 4.914367e+01 3.600889e+01 5.758591e+01 2.695450e+01 2.658269e+02 3.854773e+00 4.251613e+00 7.401831e+00 7.798979e+00 4.530513e+00 7.411632e+00 5.845255e+00 6.031765e+00 3.957416e+00 5.256349e+00 5.141188e+00 2.556699e+00 1.808915e+01 7.986158e-01 6.585867e-01 1.173390e+00 1.564299e+00 8.311405e-01 1.225356e+00 8.876051e-01 1.168138e+00 8.242633e-01 8.736786e-01 9.346220e-01 4.664744e-01 2.790881e+00
<GCONST> 1.485298e+02
<STATE> 3
<MEAN> 39
 -1.247186e+00 -1.174873e-01 1.832425e+01 -1.864646e+01 -1.213591e+01 -1.247026e+01 -7.198351e+00 -1.186980e+01 -1.282642e+01 4.628770e-01 -1.385179e+01 -3.542632e+00 6.784080e+01 2.185403e-01 -5.347281e-01 1.149248e-01 -5.187970e-01 -5.033533e-01 -4.224860e-01 -4.402683e-01 -2.107824e-01 -4.006035e-01 -5.369810e-01 -7.420114e-01 -1.515919e-01 7.054539e-01 -1.937217e-01 2.946232e-01 -5.450473e-01 7.776617e-01 5.191174e-01 3.552818e-01 2.684754e-01 3.356248e-01 4.524781e-01 -2.749116e-01 3.913479e-01 1.570385e-01 -7.647799e-01
<VARIANCE> 39
 5.621860e+01 7.408064e+01 7.251115e+01 1.065891e+02 6.049548e+01 8.948633e+01 5.480392e+01 7.448248e+01 4.914367e+01 5.330412e+01 7.611710e+01 2.695450e+01 2.658269e+02 2.953993e+00 3.155210e+00 4.052098e+00 9.161073e+00 3.801703e+00 4.582703e+00 4.867142e+00 4.005234e+00 3.798150e+00 4.102472e+00 4.467021e+00 2.847792e+00 7.133506e+00 5.988473e-01 5.050991e-01 6.668626e-01 1.585966e+00 6.897189e-01 9.231958e-01 1.048102e+00 1.143190e+00 6.706127e-01 8.791922e-01 8.053719e-01 4.736391e-01 1.493548e+00
<GCONST> 1.433825e+02
<STATE> 4
<MEAN> 39
 -1.658992e-01 -1.560406e+00 9.620335e+00 -1.736113e+01 -6.086718e+00 -1.353611e+01 -7.172934e+00 -1.091300e+01 -8.620073e+00 -4.873165e+00 -1.431461e+01 -2.159187e+00 6.770457e+01 -3.089168e-02 2.203547e-01 -3.760313e-01 4.884556e-01 3.305832e-01 3.674713e-01 6.176531e-06 2.062224e-01 2.477360e-01 -4.814891e-02 4.077747e-01 -1.138536e-02 -1.789027e-01 -9.315623e-03 2.980281e-02 -4.065309e-02 5.634573e-02 4.139871e-02 7.173072e-02 3.911134e-02 4.804069e-02 5.156121e-02 3.493751e-02 8.384387e-02 -1.778631e-02 -8.168439e-02
<VARIANCE> 39
 5.621860e+01 8.169605e+01 9.277631e+01 1.295237e+02 6.229794e+01 7.746896e+01 5.480392e+01 5.233040e+01 4.914367e+01 6.807765e+01 6.588258e+01 3.137472e+01 2.658269e+02 2.237194e+00 2.592087e+00 2.475814e+00 4.963766e+00 2.873160e+00 3.169446e+00 3.376719e+00 3.493055e+00 2.630443e+00 3.905788e+00 3.948622e+00 3.149904e+00 4.984552e+00 3.580279e-01 4.174158e-01 3.847587e-01 7.544938e-01 4.999610e-01 5.113166e-01 5.970017e-01 6.517097e-01 4.961135e-01 6.292179e-01 6.736507e-01 5.671254e-01 6.789643e-01
<GCONST> 1.347193e+02
<TRANSP> 5
 0.000000e+00 1.000000e+00 0.000000e+00 0.000000e+00 0.000000e+00
 0.000000e+00 7.109227e-01 2.890773e-01 0.000000e+00 0.000000e+00
 0.000000e+00 0.000000e+00 6.515441e-01 3.484559e-01 0.000000e+00
 0.000000e+00 0.000000e+00 0.000000e+00 9.288716e-01 7.112838e-02
 0.000000e+00 0.000000e+00 0.000000e+00 0.000000e+00 0.000000e+00
<ENDHMM>
~h "w"
<BEGINHMM>
<NUMSTATES> 5
<STATE> 2
<MEAN> 39
 -6.969678e-01 2.795971e+00 1.582837e+01 -1.582264e+01 -1.163518e+01 -1.238489e+01 -1.204045e+01 -1.173926e+01 -1.358164e+01 2.180990e+00 -1.407706e+01 -7.303087e-01 6.645454e+01 -2.640364e-01 9.477131e-02 5.510093e-01 5.874180e-02 -5.452448e-01 2.272661e-02 -5.828219e-02 -7.932171e-02 5.895286e-02 -1.021560e-01 -1.500666e-01 -8.048213e-02 3.162623e-01 -4.641834e-02 3.345569e-02 -6.803118e-02 6.926809e-02 1.181023e-01 1.329214e-01 1.497702e-01 8.755671e-02 1.360905e-01 8.273106e-03 1.048511e-01 2.943825e-02 -1.946834e-01
<VARIANCE> 39
 5.621860e+01 7.408064e+01 6.481821e+01 9.562053e+01 6.989587e+01 8.877873e+01 6.598177e+01 7.242239e+01 5.032517e+01 5.339533e+01 8.688014e+01 5.111817e+01 2.658269e+02 2.313930e+00 2.592087e+00 2.420739e+00 3.830738e+00 4.045579e+00 4.317300e+00 4.989164e+00 4.201931e+00 2.967185e+00 3.095057e+00 4.187300e+00 3.028816e+00 4.984552e+00 4.204585e-01 4.174158e-01 3.847587e-01 6.286781e-01 5.917691e-01 6.133690e-01 8.513917e-01 8.599845e-01 5.793350e-01 5.297521e-01 6.980727e-01 5.707149e-01 6.789643e-01
<GCONST> 1.371388e+02
<STATE> 3
<MEAN> 39
 6.219188e-01 8.362534e+00 2.214771e+01 -5.072566e+00 -1.060826e+01 2.892428e+00 -9.793378e+00 -6.831860e+00 -7.725912e+00 -1.930645e+00 -3.149088e+00 -5.971477e+00 5.864364e+01 -1.091956e-01 2.064124e-01 -2.547109e-01 1.934693e-01 5.699078e-01 3.516924e-01 3.058550e-01 1.677169e-01 3.121322e-01 5.083675e-02 1.653641e-01 2.622237e-02 -9.429816e-01 -1.787145e-02 -8.450256e-02 -1.192150e-01 -2.238099e-03 3.863285e-02 -5.665203e-02 4.702001e-02 8.002144e-02 1.495221e-02 2.434620e-02 2.687698e-02 3.562128e-02 -2.514631e-02
<VARIANCE> 39
 5.621860e+01 7.408064e+01 6.481821e+01 9.562053e+01 8.164895e+01 5.657086e+01 5.480392e+01 5.008425e+01 4.914367e+01 3.600889e+01 5.758591e+01 4.868758e+01 2.658269e+02 2.237194e+00 2.592087e+00 3.320235e+00 3.129044e+00 3.068590e+00 2.664105e+00 2.978837e+00 2.741223e+00 2.630443e+00 2.383868e+00 2.569609e+00 1.958500e+00 4.984552e+00 3.580279e-01 4.174158e-01 4.723041e-01 5.025513e-01 6.180422e-01 4.797978e-01 4.820749e-01 5.089008e-01 4.798635e-01 4.500161e-01 4.608459e-01 3.767788e-01 6.789643e-01
<GCONST> 1.298262e+02
<STATE> 4
<MEAN> 39
 -2.010685e+00 7.728084e+00 5.069103e+00 -1.121897e+00 6.683393e-01 1.743089e+00 1.681774e-01 -4.422868e-01 -1.097069e+00 -6.847016e-01 1.000028e+00 -1.341626e+00 3.786300e+01 -4.774071e-04 -7.443881e-02 -2.375849e-01 1.260067e-01 9.323678e-02 -9.550448e-02 6.334423e-02 5.674863e-02 -1.505045e-02 -2.828382e-02 -1.160800e-02 -3.002374e-02 -1.157871e-01 -9.937280e-03 -2.546744e-02 2.988751e-02 -3.693199e-02 -2.318277e-02 -2.233572e-02 -5.612015e-02 -1.645516e-02 -3.275353e-02 -6.648810e-03 -1.348162e-02 -7.206923e-03 1.012415e-01
<VARIANCE> 39
 5.621860e+01 7.408064e+01 6.481821e+01 9.562053e+01 6.049548e+01 5.657086e+01 5.480392e+01 5.008425e+01 4.914367e+01 3.600889e+01 5.758591e+01 2.695450e+01 2.658269e+02 2.237194e+00 2.592087e+00 2.314184e+00 3.129044e+00 2.833982e+00 2.664105e+00 2.646528e+00 2.741223e+00 2.630443e+00 2.383868e+00 2.569609e+00 1.958500e+00 4.984552e+00 3.580279e-01 4.174158e-01 3.847587e-01 5.025513e-01 4.999610e-01 4.797978e-01 4.820749e-01 5.089008e-01 4.798635e-01 4.500161e-01 4.608459e-01 3.767788e-01 6.789643e-01
<GCONST> 1.279592e+02
<TRANSP> 5
 0.000000e+00 1.000000e+00 0.000000e+00 0.000000e+00 0.000000e+00
 0.000000e+00 9.269339e-01 7.306609e-02 0.000000e+00 0.000000e+00
 0.000000e+00 0.000000e+00 9.278046e-01 7.219540e-02 0.000000e+00
 0.000000e+00 0.000000e+00 0.000000e+00 9.647262e-01 3.527378e-02
 0.000000e+00 0.000000e+00 0.000000e+00 0.000000e+00 0.000000e+00
<ENDHMM>
~h "y"
<BEGINHMM>
<NUMSTATES> 5
<STATE> 2
<MEAN> 39
 8.529159e+00 1.452749e+00 5.817142e+00 -1.727103e+01 -2.203625e+00 -1.913782e+00 -1.545853e+01 -5.355062e+00 -1.492671e+01 2.515049e+00 -8.883123e+00 -3.940451e+00 6.587481e+01 5.566850e-02 1.230095e-01 -1.340869e+00 5.051376e-01 1.328547e+00 4.504984e-01 -2.646852e-02 2.485023e-01 1.132883e+00 2.593020e-02 8.367115e-02 -7.570168e-02 -7.696698e-01 -8.058079e-02 -3.151511e-02 1.672096e-01 -2.249850e-01 -3.327942e-02 5.529746e-02 -1.174274e-01 2.082010e-02 9.093361e-02 1.232057e-01 -4.360509e-02 2.365920e-02 4.162765e-02
<VARIANCE> 39
 5.621860e+01 7.408064e+01 6.481821e+01 1.362276e+02 7.820744e+01 7.866893e+01 7.137050e+01 5.008425e+01 8.637772e+01 5.227163e+01 5.758591e+01 2.916746e+01 2.658269e+02 2.237194e+00 2.592087e+00 6.313505e+00 9.375056e+00 4.317998e+00 5.060252e+00 6.909150e+00 8.974236e+00 7.249010e+00 5.048730e+00 2.569609e+00 3.987337e+00 7.634228e+00 3.580279e-01 4.174158e-01 4.691494e-01 1.549293e+00 6.712460e-01 9.620817e-01 1.109707e+00 1.766828e+00 9.596189e-01 8.695496e-01 4.608459e-01 7.114093e-01 1.159438e+00
<GCONST> 1.453054e+02
<STATE> 3
<MEAN> 39
 3.270452e-01 -4.163091e+00 2.302144e+00 -9.873346e+00 8.925089e+00 -6.770344e+00 -8.459928e+00 3.685481e+00 5.400053e+00 1.503523e+00 -6.768044e+00 -9.018630e-01 5.887657e+01 -3.325748e-02 -6.687435e-01 -8.369576e-02 -7.226663e-01 6.950526e-01 -3.402361e-01 1.458166e-01 1.753683e+00 -5.153995e-02 -2.020504e-01 2.004597e-01 -9.162950e-01 -3.508296e-01 3.746859e-01 5.190643e-01 3.416825e-01 1.378094e-01 -2.103591e-01 2.716229e-01 2.141432e-01 -4.608399e-01 -8.423898e-01 -4.077423e-01 -4.362346e-01 -2.766367e-01 -1.717632e-01
<VARIANCE> 39
 6.375526e+01 7.408064e+01 6.481821e+01 9.562053e+01 8.490302e+01 5.657086e+01 7.731368e+01 5.008425e+01 4.914367e+01 3.600889e+01 1.073742e+02 2.695450e+01 2.658269e+02 2.388418e+00 2.592087e+00 4.137137e+00 4.330374e+00 9.745442e+00 2.664105e+00 7.312396e+00 2.741223e+00 6.120161e+00 4.030612e+00 4.839857e+00 2.756574e+00 5.311920e+00 4.769698e-01 4.174158e-01 1.221765e+00 5.025513e-01 2.627045e+00 4.797978e-01 1.168289e+00 5.089008e-01 5.315310e-01 4.668905e-01 8.990996e-01 6.209050e-01 6.789643e-01
<GCONST> 1.403155e+02
<STATE> 4
<MEAN> 39
 3.264225e+00 -1.506931e+00 4.415265e-01 -9.696164e+00 1.192417e+01 -3.866863e+00 -2.065197e+00 3.514905e+00 -3.135300e+00 -3.257635e+00 -1.267215e+01 -4.349820e+00 5.370681e+01 -2.736268e-01 8.564671e-01 -2.969920e-01 6.480388e-01 -4.399813e-01 8.831409e-01 4.012206e-01 -3.789834e-01 -2.279827e-01 9.333351e-02 2.480489e-01 2.680605e-01 -1.733112e+00 -7.942252e-02 1.491701e-01 1.980454e-01 1.734267e-02 -4.627144e-01 -9.135570e-02 -1.187346e-02 -8.618822e-02 3.304799e-01 1.669018e-01 2.031699e-01 1.331303e-01 -4.937734e-02
<VARIANCE> 39
 5.621860e+01 7.408064e+01 6.481821e+01 9.562053e+01 6.049548e+01 5.657086e+01 5.480392e+01 5.008425e+01 4.914367e+01 3.600889e+01 5.758591e+01 2.695450e+01 2.658269e+02 2.237194e+00 3.614563e+00 2.817344e+00 3.129044e+00 5.420390e+00 3.397284e+00 4.886232e+00 2.741223e+00 2.935197e+00 2.383868e+00 3.099453e+00 1.958500e+00 4.984552e+00 3.580279e-01 6.699353e-01 7.868167e-01 5.025513e-01 8.186868e-01 8.006359e-01 1.030340e+00 5.089008e-01 4.798635e-01 4.500161e-01 5.294689e-01 3.767788e-01 6.789643e-01
<GCONST> 1.333824e+02
<TRANSP> 5
 0.000000e+00 1.000000e+00 0.000000e+00 0.000000e+00 0.000000e+00
 0.000000e+00 8.762485e-01 1.237515e-01 0.000000e+00 0.000000e+00
 0.000000e+00 0.000000e+00 7.682329e-01 2.317671e-01 0.000000e+00
 0.000000e+00 0.000000e+00 0.000000e+00 8.647789e-01 1.352211e-01
 0.000000e+00 0.000000e+00 0.000000e+00 0.000000e+00 0.000000e+00
<ENDHMM>
~h "z"
<BEGINHMM>
<NUMSTATES> 5
<STATE> 2
<MEAN> 39
 -3.836872e+00 5.724444e+00 7.149354e+00 5.487919e-02 -5.099864e+00 -5.262413e+00 -2.432540e+00 3.933448e-01 -6.784822e+00 -2.213388e+00 -2.962525e+00 -4.910395e+00 5.796879e+01 -1.116830e+00 -3.201099e-03 -1.489956e-02 -5.653138e-01 -6.155524e-02 -4.713685e-02 4.978407e-01 8.528300e-02 4.412675e-02 1.580494e-01 5.419111e-01 3.354603e-01 2.138637e+00 -8.395009e-02 -1.340068e-01 1.036595e-01 -2.861139e-01 -9.095991e-02 -1.127922e-01 1.229405e-02 -1.250343e-01 -3.712479e-02 1.822113e-01 1.623675e-03 9.261286e-02 2.829342e-01
<VARIANCE> 39
 1.104020e+02 7.408064e+01 1.118304e+02 9.562053e+01 6.463696e+01 5.657086e+01 5.480392e+01 6.738873e+01 4.914367e+01 5.405739e+01 5.758591e+01 3.880763e+01 2.658269e+02 4.553115e+00 4.617309e+00 4.934344e+00 5.928433e+00 5.655807e+00 3.985924e+00 4.047842e+00 3.501907e+00 3.742524e+00 3.469144e+00 3.870644e+00 3.420760e+00 1.638721e+01 9.152500e-01 8.128811e-01 8.251573e-01 1.027988e+00 8.657878e-01 6.425334e-01 6.398564e-01 5.996975e-01 6.866617e-01 8.004395e-01 6.677422e-01 5.590351e-01 1.692366e+00
<GCONST> 1.446315e+02
<STATE> 3
<MEAN> 39
 -9.366717e+00 6.292947e+00 6.834573e+00 -3.461425e+00 -4.996056e+00 -6.540062e+00 -2.376548e-01 -4.210548e+00 -6.199484e+00 -2.764462e+00 -5.940126e-01 -3.028355e+00 6.448827e+01 3.044148e-01 -7.601241e-01 1.154515e+00 -1.511205e+00 -1.682505e+00 -4.662522e-01 -6.759297e-01 -5.886136e-01 -7.878158e-01 8.919466e-01 3.926121e-02 3.635526e-01 2.266698e+00 2.942196e-01 -1.722845e-01 1.078866e-01 -2.368310e-01 -1.537847e-01 4.294487e-02 -3.233836e-01 1.495577e-01 -1.918487e-01 9.826834e-02 -3.421747e-01 1.435670e-02 -4.134748e-01
<VARIANCE> 39
 9.479585e+01 7.408064e+01 1.125624e+02 9.562053e+01 9.292368e+01 7.023173e+01 5.555856e+01 5.314143e+01 4.914367e+01 3.600889e+01 5.758591e+01 2.974270e+01 2.658269e+02 1.134665e+01 8.201197e+00 9.170720e+00 1.137485e+01 9.095108e+00 7.000054e+00 8.291248e+00 5.063904e+00 4.575840e+00 5.055944e+00 5.650625e+00 3.728870e+00 1.276140e+01 1.294262e+00 9.490132e-01 9.477732e-01 1.249922e+00 1.184132e+00 7.994596e-01 1.128578e+00 8.074720e-01 7.473751e-01 6.391351e-01 8.302884e-01 5.985379e-01 1.356361e+00
<GCONST> 1.520005e+02
<STATE> 4
<MEAN> 39
 -6.753338e+00 7.526264e+00 1.318758e+01 -1.007989e+01 -1.134070e+01 -4.464010e+00 -7.277612e+00 -8.260530e+00 -7.200428e+00 -7.070488e-01 -5.474928e+00 -1.869537e+00 6.407993e+01 -1.508734e-01 1.748541e-01 -9.210399e-02 -1.181312e-02 2.848254e-01 4.405715e-01 -4.579717e-02 3.534755e-02 1.870790e-01 -3.388972e-02 -5.859797e-02 3.807922e-02 -4.967740e-01 -3.335133e-02 4.342943e-02 -1.068735e-01 1.457856e-01 1.370025e-01 4.745267e-02 7.538562e-02 6.755357e-02 9.194948e-02 -5.120521e-02 6.017747e-02 -1.071165e-02 -1.402076e-01
<VARIANCE> 39
 6.527591e+01 7.408064e+01 1.394535e+02 1.481677e+02 6.049548e+01 9.832867e+01 6.794035e+01 6.647882e+01 7.634225e+01 5.386409e+01 7.463803e+01 3.582401e+01 2.658269e+02 2.896535e+00 3.549649e+00 5.636302e+00 8.112521e+00 3.645706e+00 4.677295e+00 4.872885e+00 4.077462e+00 3.537670e+00 3.775560e+00 4.027422e+00 2.548908e+00 4.984552e+00 3.954207e-01 5.781480e-01 7.153761e-01 9.761038e-01 6.416790e-01 7.990407e-01 8.605621e-01 6.351320e-01 5.932997e-01 7.051820e-01 5.595771e-01 5.142165e-01 6.789643e-01
<GCONST> 1.418937e+02
<TRANSP> 5
 0.000000e+00 1.000000e+00 0.000000e+00 0.000000e+00 0.000000e+00
 0.000000e+00 7.015991e-01 2.984008e-01 0.000000e+00 0.000000e+00
 0.000000e+00 0.000000e+00 7.194896e-01 2.805105e-01 0.000000e+00
 0.000000e+00 0.000000e+00 0.000000e+00 9.191703e-01 8.082969e-02
 0.000000e+00 0.000000e+00 0.000000e+00 0.000000e+00 0.000000e+00
<ENDHMM>
~h "aa"
<BEGINHMM>
<NUMSTATES> 5
<STATE> 2
<MEAN> 39
 6.333880e-01 -1.764201e+00 1.178276e+00 -9.348866e+00 2.677763e+00 -2.848694e+00 -5.651463e+00 5.988277e-01 -2.142124e+00 9.434441e-02 -5.436271e+00 -4.287712e+00 5.603351e+01 -3.754670e-01 3.724227e-01 -1.635524e-01 6.584328e-01 1.158949e-01 2.116315e-01 3.256293e-01 1.894934e-01 4.214093e-01 8.518174e-04 3.598330e-01 1.635980e-01 -9.961836e-01 -5.492337e-02 -7.123132e-02 -1.724377e-03 -4.046733e-02 1.374958e-03 6.175041e-05 6.244377e-02 6.712340e-04 -2.154085e-02 -3.810568e-02 1.169946e-02 5.726320e-02 7.254668e-02
<VARIANCE> 39
 5.621860e+01 7.408064e+01 6.481821e+01 1.052538e+02 6.049548e+01 7.446311e+01 6.167397e+01 5.816888e+01 7.846043e+01 7.332436e+01 6.179860e+01 5.205209e+01 2.658269e+02 3.004597e+00 5.562906e+00 2.863717e+00 6.338528e+00 3.988055e+00 5.336513e+00 4.544539e+00 4.798591e+00 5.929578e+00 4.080971e+00 3.974111e+00 3.387888e+00 1.924954e+01 4.430321e-01 8.840852e-01 5.546614e-01 9.740014e-01 7.658357e-01 1.014083e+00 8.097632e-01 9.367419e-01 1.096378e+00 7.189655e-01 7.005475e-01 6.184240e-01 2.579322e+00
<GCONST> 1.461440e+02
<STATE> 3
<MEAN> 39
 -3.078404e+00 -3.386981e-01 1.931597e+00 -4.923524e+00 3.911366e+00 -3.581552e+00 -3.141913e-01 1.944051e-01 -2.120654e-02 -1.411837e+00 -3.238674e+00 -1.738214e+00 5.223995e+01 -1.812912e-01 1.641511e-01 9.226992e-02 3.417972e-01 2.537877e-01 -3.486726e-02 3.526434e-01 -9.144971e-02 7.513911e-04 -1.099944e-01 2.490077e-01 2.402534e-01 -4.320797e-01 7.504280e-02 3.517234e-02 7.229540e-02 -9.881399e-02 -9.982812e-02 -1.341441e-02 -9.313074e-02 -5.884933e-02 -9.663779e-02 5.700815e-03 -6.922560e-03 -8.071799e-02 5.989067e-02
<VARIANCE> 39
 5.621860e+01 7.425597e+01 6.481821e+01 9.562053e+01 7.580271e+01 6.712650e+01 5.480392e+01 5.029538e+01 4.914367e+01 5.061456e+01 5.758591e+01 4.806464e+01 2.658269e+02 2.639516e+00 3.714211e+00 3.220544e+00 3.129044e+00 3.187823e+00 3.377742e+00 3.939373e+00 3.357301e+00 2.969429e+00 3.840324e+00 3.863261e+00 3.154958e+00 1.001846e+01 3.961741e-01 5.646999e-01 5.315636e-01 5.191714e-01 5.478116e-01 6.476029e-01 7.303306e-01 6.118363e-01 5.409490e-01 6.736734e-01 6.335545e-01 6.451880e-01 1.462572e+00
<GCONST> 1.371701e+02
<STATE> 4
<MEAN> 39
 -3.691653e+00 5.693476e+00 3.245082e+00 -3.954667e-01 1.613013e+00 -1.212857e+00 3.206262e-01 9.060583e-01 1.691530e-01 -1.051135e+00 -5.945377e-01 -2.186033e-01 3.724614e+01 -5.396030e-02 5.037285e-02 4.061339e-02 3.498174e-02 -3.503842e-02 2.924140e-02 -2.874355e-02 -3.607531e-02 -3.333959e-02 -4.203238e-03 3.209579e-02 -2.712206e-02 -4.051141e-02 8.417874e-03 -1.982105e-02 7.746601e-04 -1.487854e-02 -1.153234e-02 -1.610146e-02 -1.963654e-02 -2.070682e-04 -1.528478e-02 -7.758821e-03 -1.790419e-02 -1.422221e-02 6.504302e-02
<VARIANCE> 39
 5.621860e+01 7.408064e+01 6.481821e+01 9.562053e+01 6.049548e+01 5.657086e+01 5.480392e+01 5.008425e+01 4.914367e+01 3.600889e+01 5.758591e+01 2.695450e+01 2.658269e+02 2.237194e+00 2.592087e+00 2.314184e+00 3.129044e+00 2.833982e+00 2.664105e+00 2.646528e+00 2.741223e+00 2.630443e+00 2.383868e+00 2.569609e+00 1.958500e+00 4.984552e+00 3.580279e-01 4.174158e-01 3.847587e-01 5.025513e-01 4.999610e-01 4.797978e-01 4.820749e-01 5.089008e-01 4.798635e-01 4.500161e-01 4.608459e-01 3.767788e-01 6.789643e-01
<GCONST> 1.279592e+02
<TRANSP> 5
 0.000000e+00 1.000000e+00 0.000000e+00 0.000000e+00 0.000000e+00
 0.000000e+00 8.434488e-01 1.565513e-01 0.000000e+00 0.000000e+00
 0.000000e+00 0.000000e+00 6.763250e-01 3.236751e-01 0.000000e+00
 0.000000e+00 0.000000e+00 0.000000e+00 9.712085e-01 2.879157e-02
 0.000000e+00 0.000000e+00 0.000000e+00 0.000000e+00 0.000000e+00
<ENDHMM>
~h "ae"
<BEGINHMM>
<NUMSTATES> 5
<STATE> 2
<MEAN> 39
 -4.131867e+00 4.575182e+00 3.744131e+00 -1.580833e+00 1.816144e-01 -5.965898e-01 -1.158234e-01 3.678774e-01 -2.200480e-01 -1.731248e+00 -9.559467e-01 -1.507739e+00 4.341111e+01 -2.488393e-01 -1.074777e-01 7.377218e-02 1.441973e-02 8.892242e-02 -8.670851e-02 9.293622e-02 1.385765e-01 3.145665e-02 -1.214723e-01 -3.428017e-02 -3.677759e-02 2.241111e-01 -5.275207e-02 -5.907096e-02 3.786289e-02 -7.704660e-02 -6.888716e-03 -4.497121e-02 -3.079077e-02 -1.214249e-02 9.898894e-03 2.577906e-02 4.504706e-02 -3.191666e-03 1.387841e-01
<VARIANCE> 39
 5.716717e+01 7.408064e+01 6.481821e+01 9.562053e+01 6.049548e+01 5.657086e+01 5.480392e+01 5.008425e+01 4.914367e+01 3.600889e+01 5.758591e+01 2.695450e+01 2.658269e+02 2.237194e+00 2.809022e+00 2.314184e+00 3.129044e+00 2.833982e+00 2.664105e+00 2.646528e+00 2.741223e+00 2.630443e+00 2.383868e+00 2.569609e+00 1.958500e+00 4.984552e+00 3.629396e-01 5.557443e-01 3.847587e-01 5.025513e-01 4.999610e-01 4.797978e-01 4.820749e-01 5.089008e-01 5.403760e-01 4.500161e-01 4.608459e-01 3.776467e-01 7.591950e-01
<GCONST> 1.285889e+02
<STATE> 3
<MEAN> 39
 -5.635863e+00 3.716465e+00 5.441475e+00 -3.440374e+00 -1.152405e+00 -1.716470e+00 -6.246782e-02 5.842621e-01 -6.906499e-01 -1.334019e+00 -1.228602e+00 -2.008861e+00 4.741982e+01 -1.583193e-01 -2.859614e-01 1.237796e-01 -2.781007e-01 -4.252816e-02 -1.682808e-01 7.282895e-02 6.293789e-02 -1.619746e-01 -1.014118e-01 -6.910183e-02 -2.942088e-02 8.094950e-01 2.329869e-02 -1.069922e-02 -8.527944e-04 -6.850316e-02 -2.817872e-02 -1.114040e-02 -8.454822e-03 -2.522381e-02 -6.655167e-02 -1.230839e-02 -1.969811e-02 -1.715562e-02 7.980076e-02
<VARIANCE> 39
 6.555104e+01 7.507547e+01 6.481821e+01 9.562053e+01 6.049548e+01 5.657086e+01 5.480392e+01 5.008425e+01 4.914367e+01 3.600889e+01 5.758591e+01 2.695450e+01 2.658269e+02 4.063350e+00 6.042561e+00 3.045980e+00 3.410752e+00 3.358456e+00 2.878951e+00 2.999303e+00 3.027519e+00 3.001901e+00 2.383868e+00 2.569609e+00 2.499819e+00 1.022889e+01 7.473223e-01 9.836016e-01 5.611624e-01 6.334040e-01 6.205658e-01 5.593802e-01 5.578622e-01 6.087726e-01 6.126224e-01 4.500161e-01 4.608459e-01 4.925975e-01 1.782575e+00
<GCONST> 1.358712e+02
<STATE> 4
<MEAN> 39
 -3.645130e+00 1.669946e+00 3.124400e+00 -4.420815e+00 -7.612616e-02 -3.505908e+00 5.118190e-01 8.579254e-02 -2.545989e+00 -3.439847e+00 -1.800058e+00 -7.866112e-01 4.387877e+01 -5.553798e-02 5.894554e-02 4.878399e-02 2.650600e-02 -2.251512e-03 3.709141e-02 -8.465973e-03 -9.017637e-03 1.223559e-03 1.135769e-02 1.470150e-02 -7.487300e-03 -2.309462e-02 -1.098498e-02 -1.172631e-02 1.340842e-02 -1.191036e-02 9.711930e-04 -1.367727e-02 -1.653326e-03 -4.951657e-03 -4.354014e-03 5.966368e-03 -1.197381e-02 -7.002229e-03 8.205526e-02
<VARIANCE> 39
 5.621860e+01 7.766864e+01 6.481821e+01 9.562053e+01 6.049548e+01 5.657086e+01 5.480392e+01 5.008425e+01 4.914367e+01 3.600889e+01 5.758591e+01 2.695450e+01 2.658269e+02 2.237194e+00 2.592087e+00 2.314184e+00 3.129044e+00 2.833982e+00 2.664105e+00 2.646528e+00 2.741223e+00 2.630443e+00 2.383868e+00 2.569609e+00 1.958500e+00 4.984552e+00 3.580279e-01 4.174158e-01 3.847587e-01 5.025513e-01 4.999610e-01 4.797978e-01 4.820749e-01 5.089008e-01 4.798635e-01 4.500161e-01 4.608459e-01 3.767788e-01 6.789643e-01
<GCONST> 1.280065e+02
<TRANSP> 5
 0.000000e+00 1.000000e+00 0.000000e+00 0.000000e+00 0.000000e+00
 0.000000e+00 5.054443e-01 4.945557e-01 0.000000e+00 0.000000e+00
 0.000000e+00 0.000000e+00 6.788080e-01 3.211920e-01 0.000000e+00
 0.000000e+00 0.000000e+00 0.000000e+00 9.329917e-01 6.700837e-02
 0.000000e+00 0.000000e+00 0.000000e+00 0.000000e+00 0.000000e+00
<ENDHMM>
~h "ah"
<BEGINHMM>
<NUMSTATES> 5
<STATE> 2
<MEAN> 39
 2.081079e+00 1.594674e+00 1.760682e+00 5.709785e-02 4.277796e+00 -1.712323e+00 2.430415e+00 3.116844e+00 -1.842847e+00 -3.201434e+00 -2.925614e+00 -7.653912e-01 4.630403e+01 1.616241e-01 3.723511e-01 -2.444395e-01 2.264431e-01 7.329644e-02 2.623781e-01 4.035039e-02 -1.182965e-01 1.382974e-01 4.113921e-02 1.538398e-01 7.056119e-02 -7.071002e-01 -2.551973e-02 2.759405e-02 4.537668e-02 -5.605411e-02 -6.530652e-02 -2.983523e-02 -6.812146e-02 -5.481141e-02 -7.595189e-03 1.642305e-02 -1.352191e-02 -2.101717e-02 3.928268e-02
<VARIANCE> 39
 5.621860e+01 7.408064e+01 6.481821e+01 9.562053e+01 6.049548e+01 5.657086e+01 5.480392e+01 5.008425e+01 4.914367e+01 3.600889e+01 5.758591e+01 2.834206e+01 2.658269e+02 2.237194e+00 2.592087e+00 2.314184e+00 3.129044e+00 2.833982e+00 2.664105e+00 2.646528e+00 2.741223e+00 2.630443e+00 2.383868e+00 2.569609e+00 1.958500e+00 4.984552e+00 3.580279e-01 4.174158e-01 3.847587e-01 5.025513e-01 4.999610e-01 4.797978e-01 4.820749e-01 5.089008e-01 4.798635e-01 4.500161e-01 4.608459e-01 3.767788e-01 6.789643e-01
<GCONST> 1.280094e+02
<STATE> 3
<MEAN> 39
 3.897146e+00 1.040685e+01 2.797521e+00 2.691610e-01 2.495083e+00 1.885705e+00 1.561051e+00 9.967521e-01 3.897283e-01 -1.704701e+00 -4.502566e-01 -1.299926e+00 3.947087e+01 -1.821556e-01 2.114142e-01 1.422114e-01 2.311178e-02 -1.254757e-01 1.083261e-02 -7.405494e-02 -5.267775e-02 1.097570e-01 1.174580e-01 8.125855e-02 4.904485e-03 -2.997300e-01 -5.370869e-02 -4.436986e-02 1.730063e-02 4.720469e-04 -1.297394e-03 -3.242697e-02 -1.856512e-02 2.486194e-04 -2.032674e-02 7.704698e-03 3.337159e-03 -7.343946e-03 2.605220e-02
<VARIANCE> 39
 5.621860e+01 7.408064e+01 6.481821e+01 9.562053e+01 6.049548e+01 5.657086e+01 5.480392e+01 5.008425e+01 4.914367e+01 3.600889e+01 5.758591e+01 2.695450e+01 2.658269e+02 2.237194e+00 2.592087e+00 2.314184e+00 3.129044e+00 2.833982e+00 2.664105e+00 2.646528e+00 2.741223e+00 2.630443e+00 2.383868e+00 2.569609e+00 1.958500e+00 4.984552e+00 3.580279e-01 4.174158e-01 3.847587e-01 5.025513e-01 4.999610e-01 4.797978e-01 4.820749e-01 5.089008e-01 4.798635e-01 4.500161e-01 4.608459e-01 3.767788e-01 6.789643e-01
<GCONST> 1.279592e+02
<STATE> 4
<MEAN> 39
 -5.301189e+00 4.341648e+00 1.629636e+00 -9.531264e-01 -4.605537e-01 -1.550494e+00 -6.731809e-01 4.953966e-02 -1.137407e+00 -1.632399e+00 6.178659e-01 -6.944067e-01 3.448084e+01 -4.059742e-02 -3.779402e-02 1.778233e-02 -1.651649e-02 -1.105586e-02 -1.599297e-02 -2.068481e-02 -2.333753e-02 -3.265873e-02 4.548009e-03 -7.829351e-03 -2.408378e-02 1.078412e-02 1.294527e-02 -2.938454e-03 4.856775e-03 -7.546050e-03 3.087011e-03 -3.625577e-03 2.369962e-03 1.440274e-03 -1.295449e-02 -9.696083e-03 -1.328293e-02 -9.892479e-03 3.061366e-02
<VARIANCE> 39
 5.621860e+01 7.408064e+01 6.481821e+01 9.562053e+01 6.049548e+01 5.657086e+01 5.480392e+01 5.008425e+01 4.914367e+01 3.600889e+01 5.758591e+01 2.695450e+01 2.658269e+02 2.237194e+00 2.592087e+00 2.314184e+00 3.129044e+00 2.833982e+00 2.664105e+00 2.646528e+00 2.741223e+00 2.630443e+00 2.383868e+00 2.569609e+00 1.958500e+00 4.984552e+00 3.580279e-01 4.174158e-01 3.847587e-01 5.025513e-01 4.999610e-01 4.797978e-01 4.820749e-01 5.089008e-01 4.798635e-01 4.500161e-01 4.608459e-01 3.767788e-01 6.789643e-01
<GCONST> 1.279592e+02
<TRANSP> 5
 0.000000e+00 1.000000e+00 0.000000e+00 0.000000e+00 0.000000e+00
 0.000000e+00 8.904753e-01 1.095247e-01 0.000000e+00 0.000000e+00
 0.000000e+00 0.000000e+00 9.009451e-01 9.905495e-02 0.000000e+00
 0.000000e+00 0.000000e+00 0.000000e+00 9.764274e-01 2.357260e-02
 0.000000e+00 0.000000e+00 0.000000e+00 0.000000e+00 0.000000e+00
<ENDHMM>
~h "ao"
<BEGINHMM>
<NUMSTATES> 5
<STATE> 2
<MEAN> 39
 -2.804486e+00 3.135383e+00 -4.164785e+00 -8.257928e+00 5.350545e+00 1.894249e+00 -3.182404e+00 -1.350112e+00 -4.633393e+00 3.308979e+00 -7.166052e-02 -2.523283e+00 4.998899e+01 8.755740e-01 -4.797207e-01 -1.232356e+00 -1.410130e+00 6.992826e-01 4.940341e-01 -6.771403e-01 -1.417596e-01 -1.044461e+00 2.872504e-01 -1.388874e-01 -4.083425e-01 3.431036e+00 9.654257e-02 7.307435e-03 2.511929e-01 -9.191672e-02 -1.406023e-01 -4.161781e-02 -6.210510e-02 7.128662e-02 1.243193e-02 -7.142272e-02 -3.343616e-02 -6.849028e-05 -2.574977e-02
<VARIANCE> 39
 5.621860e+01 7.408064e+01 6.481821e+01 9.562053e+01 6.049548e+01 5.657086e+01 5.480392e+01 5.008425e+01 4.914367e+01 4.311452e+01 5.758591e+01 2.724109e+01 2.658269e+02 3.038930e+00 3.476813e+00 7.238239e+00 3.621121e+00 6.280058e+00 3.135558e+00 3.620558e+00 2.741223e+00 3.465523e+00 3.264560e+00 2.940743e+00 2.711375e+00 1.895975e+01 5.510293e-01 7.889089e-01 1.385619e+00 5.676647e-01 1.015478e+00 6.207013e-01 6.608546e-01 5.089008e-01 5.960766e-01 6.355577e-01 5.374373e-01 4.496699e-01 2.748503e+00
<GCONST> 1.397378e+02
<STATE> 3
<MEAN> 39
 6.190290e+00 -2.449389e+00 -5.596724e-01 -1.974795e+01 4.475924e-01 6.080156e+00 -6.047683e+00 4.713655e-01 -9.337873e+00 7.214379e+00 4.174598e+00 -6.432089e+00 6.626154e+01 2.602474e-01 -1.302126e-01 3.005548e-01 -6.008543e-01 -2.764533e-01 -5.057650e-02 -1.907425e-01 -3.835446e-01 -8.533319e-03 -2.887463e-03 -2.861357e-01 -8.310981e-02 3.832673e-01 -5.660886e-02 -2.508274e-02 6.029332e-02 6.599081e-02 -2.501805e-02 -1.424981e-01 -1.031609e-02 -5.798650e-02 6.411149e-02 -4.240133e-02 -9.613276e-02 3.848339e-02 -2.449071e-01
<VARIANCE> 39
 5.621860e+01 7.408064e+01 6.481821e+01 9.562053e+01 6.049548e+01 5.657086e+01 5.480392e+01 5.008425e+01 6.497948e+01 4.691904e+01 5.758591e+01 2.730886e+01 2.658269e+02 2.504346e+00 2.592087e+00 2.338773e+00 3.561716e+00 2.833982e+00 2.664105e+00 2.646528e+00 2.741223e+00 2.630443e+00 2.383868e+00 2.569609e+00 1.958500e+00 4.984552e+00 3.975165e-01 4.174158e-01 5.137548e-01 5.025513e-01 4.999610e-01 4.797978e-01 4.820749e-01 5.089008e-01 4.798635e-01 4.500161e-01 4.608459e-01 3.767788e-01 6.789643e-01
<GCONST> 1.291629e+02
<STATE> 4
<MEAN> 39
 5.060732e+00 -5.510374e+00 -4.589476e+00 -2.932941e+01 3.216192e+00 -2.095449e+00 -1.237605e+01 -6.915927e+00 -8.015265e+00 -2.648084e+00 -9.939880e+00 -3.767653e+00 7.016852e+01 3.843153e-02 -1.256539e-01 2.347391e-01 4.262947e-02 -5.997775e-02 -2.964737e-01 -2.274905e-01 2.886295e-02 2.243129e-01 -1.876559e-01 -1.259753e-01 -6.217552e-03 -9.119921e-02 -6.359181e-02 8.017855e-02 2.159223e-02 1.959359e-01 4.156015e-02 2.864394e-02 5.710832e-02 7.026552e-02 1.957719e-02 2.695817e-03 5.008088e-02 8.691637e-03 -8.409002e-02
<VARIANCE> 39
 5.621860e+01 7.408064e+01 6.481821e+01 9.562053e+01 6.049548e+01 5.657086e+01 7.682780e+01 6.673269e+01 4.914367e+01 3.698960e+01 5.978555e+01 2.695450e+01 2.658269e+02 2.237194e+00 2.592087e+00 2.314184e+00 3.184655e+00 2.833982e+00 2.664105e+00 2.646528e+00 2.741223e+00 2.630443e+00 2.383868e+00 2.569609e+00 1.958500e+00 4.984552e+00 3.580279e-01 4.174158e-01 3.847587e-01 5.025513e-01 4.999610e-01 4.797978e-01 4.820749e-01 5.089008e-01 4.798635e-01 4.500161e-01 4.608459e-01 3.767788e-01 6.789643e-01
<GCONST> 1.286660e+02
<TRANSP> 5
 0.000000e+00 1.000000e+00 0.000000e+00 0.000000e+00 0.000000e+00
 0.000000e+00 6.852118e-01 3.147882e-01 0.000000e+00 0.000000e+00
 0.000000e+00 0.000000e+00 8.370652e-01 1.629348e-01 0.000000e+00
 0.000000e+00 0.000000e+00 0.000000e+00 9.297953e-01 7.020470e-02
 0.000000e+00 0.000000e+00 0.000000e+00 0.000000e+00 0.000000e+00
<ENDHMM>
~h "ay"
<BEGINHMM>
<NUMSTATES> 5
<STATE> 2
<MEAN> 39
 -4.908772e+00 2.166281e+00 4.986945e+00 -5.980644e+00 -3.690834e+00 -4.821895e+00 -1.880872e+00 -1.897740e-01 -2.286030e+00 -1.565631e+00 -3.076409e+00 -1.289357e+00 5.093308e+01 1.038762e-01 -5.910307e-01 -3.251535e-02 -5.107171e-01 7.382134e-02 -2.638959e-01 -8.575246e-02 1.511065e-02 -1.539687e-02 8.317783e-03 -2.674615e-01 8.430082e-03 6.714679e-01 6.753027e-02 -2.095487e-01 1.861167e-03 -1.737388e-01 -6.060458e-03 -4.901358e-02 2.203513e-02 1.812904e-02 -6.100783e-02 -3.387294e-02 -1.563332e-01 -3.584837e-03 2.293136e-01
<VARIANCE> 39
 5.857063e+01 7.408064e+01 6.481821e+01 9.562053e+01 6.381819e+01 5.657086e+01 5.480392e+01 7.380335e+01 6.418391e+01 3.940362e+01 5.758591e+01 3.654203e+01 2.674408e+02 5.131758e+00 7.371137e+00 5.013283e+00 9.730959e+00 5.469735e+00 5.838165e+00 4.430329e+00 7.209643e+00 6.076575e+00 3.733844e+00 6.171259e+00 3.688011e+00 1.899388e+01 7.967362e-01 1.168121e+00 8.451934e-01 1.530244e+00 9.648289e-01 9.774348e-01 8.113120e-01 1.366832e+00 9.948167e-01 7.113160e-01 1.096350e+00 7.432931e-01 2.509472e+00
<GCONST> 1.505962e+02
<STATE> 3
<MEAN> 39
 -9.729682e-01 -6.031411e+00 3.226577e+00 -1.156232e+01 -8.017250e-01 -5.797724e+00 -2.742658e+00 -1.070917e+00 -4.290805e+00 -1.556017e+00 -7.215804e+00 -2.049436e+00 6.318539e+01 9.574391e-01 -1.821575e+00 9.016588e-03 -1.813321e+00 -5.225657e-02 -6.314712e-01 -6.178295e-02 -2.697267e-01 -6.820396e-01 -5.465586e-01 -1.329227e+00 -4.928019e-02 2.326353e+00 -1.879751e-01 2.832156e-01 -3.556505e-02 2.708958e-01 -1.000120e-01 1.034590e-01 8.929752e-02 8.559591e-02 -1.498934e-02 -2.037314e-01 1.273152e-01 8.532419e-03 -3.244024e-01
<VARIANCE> 39
 6.070024e+01 9.839740e+01 6.539983e+01 1.079725e+02 8.440173e+01 7.648518e+01 6.778983e+01 9.410037e+01 6.561917e+01 5.582826e+01 6.486475e+01 5.682097e+01 2.658269e+02 4.081836e+00 7.996896e+00 3.338929e+00 7.853443e+00 5.044741e+00 5.433640e+00 4.081306e+00 6.084376e+00 5.660701e+00 3.404761e+00 5.184381e+00 3.217213e+00 1.443516e+01 8.207863e-01 1.248222e+00 6.511170e-01 1.476570e+00 9.165807e-01 9.069387e-01 6.725450e-01 1.081782e+00 8.757548e-01 6.333423e-01 9.502898e-01 6.621554e-01 2.137396e+00
<GCONST> 1.496760e+02
<STATE> 4
<MEAN> 39
 -9.323670e-01 -9.212343e+00 5.562786e+00 -2.155937e+01 -2.810474e+00 -1.294361e+01 -3.105152e+00 -6.608170e+00 -7.910837e+00 -6.545980e+00 -1.176954e+01 -9.029402e-01 7.031578e+01 -7.057408e-02 3.653875e-01 1.058584e-01 4.412573e-01 -1.061184e-01 9.573991e-02 1.220549e-01 1.024505e-01 9.183674e-02 -2.342927e-02 1.753879e-01 3.449824e-02 -5.831698e-01 -5.308563e-02 1.242871e-01 -2.115846e-02 1.500843e-01 2.352247e-02 1.058450e-01 1.486149e-02 3.265386e-02 6.510002e-02 6.183377e-02 1.127326e-01 4.310476e-03 -1.719878e-01
<VARIANCE> 39
 5.621860e+01 1.086994e+02 9.924644e+01 9.562053e+01 7.229429e+01 6.424298e+01 6.382612e+01 7.843339e+01 4.914367e+01 6.901730e+01 5.758591e+01 2.997571e+01 2.658269e+02 2.237194e+00 2.994548e+00 2.314184e+00 4.907375e+00 2.833982e+00 2.715080e+00 2.724968e+00 3.005100e+00 2.630443e+00 3.287222e+00 2.721651e+00 2.193179e+00 5.580078e+00 3.580279e-01 4.174158e-01 3.847587e-01 7.223311e-01 4.999610e-01 4.797978e-01 4.820749e-01 5.276448e-01 4.798635e-01 4.981925e-01 4.774204e-01 4.036906e-01 6.960169e-01
<GCONST> 1.324009e+02
<TRANSP> 5
 0.000000e+00 1.000000e+00 0.000000e+00 0.000000e+00 0.000000e+00
 0.000000e+00 8.806713e-01 1.193286e-01 0.000000e+00 0.000000e+00
 0.000000e+00 0.000000e+00 6.882716e-01 3.117284e-01 0.000000e+00
 0.000000e+00 0.000000e+00 0.000000e+00 9.375600e-01 6.243997e-02
 0.000000e+00 0.000000e+00 0.000000e+00 0.000000e+00 0.000000e+00
<ENDHMM>
~h "ch"
<BEGINHMM>
<NUMSTATES> 5
<STATE> 2
<MEAN> 39
 -5.480856e+00 5.775628e+00 4.742894e+00 -3.847028e+00 -3.895724e+00 -1.791517e+00 -1.899996e+00 -1.082365e+00 -5.259885e-01 -4.120028e-02 -5.421116e-01 -7.421634e-01 3.960329e+01 -3.615957e-01 7.777759e-02 -3.304074e-01 6.268882e-02 3.195648e-01 1.095878e-01 1.891284e-01 -6.262191e-02 -6.519635e-02 2.338603e-03 3.082190e-01 4.936621e-03 -4.120636e-01 9.045526e-02 -2.785673e-02 1.080016e-01 9.807837e-02 1.052509e-01 2.270337e-02 1.058793e-02 -7.765959e-03 -9.549524e-02 -7.672144e-02 -1.080872e-01 -1.119688e-01 2.702940e-01
<VARIANCE> 39
 5.621860e+01 7.408064e+01 7.209243e+01 9.562053e+01 6.049548e+01 5.657086e+01 5.480392e+01 5.008425e+01 4.914367e+01 3.600889e+01 5.758591e+01 2.695450e+01 2.658269e+02 2.237194e+00 2.592087e+00 2.314184e+00 3.129044e+00 2.833982e+00 2.664105e+00 2.646528e+00 2.741223e+00 2.630443e+00 2.383868e+00 2.569609e+00 1.958500e+00 4.984552e+00 3.580279e-01 4.174158e-01 3.847587e-01 5.025513e-01 4.999610e-01 4.797978e-01 4.820749e-01 5.089008e-01 4.798635e-01 4.550624e-01 4.608459e-01 3.767788e-01 6.789643e-01
<GCONST> 1.280768e+02
<STATE> 3
<MEAN> 39
 -7.780283e+00 5.805853e+00 4.043289e+00 -3.323150e+00 -1.356983e+00 -1.009409e+00 -3.055287e-01 -7.932614e-01 -6.890662e-01 -8.847569e-01 3.945008e-02 -1.593725e+00 4.311112e+01 1.153074e-01 -3.287877e-02 -1.654783e-01 2.663603e-01 3.273070e-01 1.812332e-01 1.952993e-01 4.814091e-02 1.958047e-02 -1.534929e-01 -3.777120e-02 -8.596942e-02 -1.622392e-01 1.058653e-01 -3.101456e-02 2.255373e-02 3.292730e-02 -1.480239e-02 -1.675049e-02 -2.935287e-02 3.026993e-03 6.137488e-03 -2.185531e-02 -7.280616e-02 -1.529713e-02 -1.003235e-02
<VARIANCE> 39
 6.868408e+01 7.408064e+01 6.481821e+01 9.562053e+01 6.049548e+01 5.657086e+01 5.480392e+01 5.008425e+01 4.914367e+01 3.600889e+01 5.758591e+01 2.695450e+01 2.658269e+02 3.090516e+00 2.592087e+00 2.314184e+00 3.129044e+00 2.833982e+00 2.664105e+00 2.646528e+00 2.741223e+00 2.630443e+00 2.383868e+00 2.569609e+00 1.958500e+00 4.984552e+00 4.955556e-01 4.174158e-01 3.847587e-01 5.025513e-01 4.999610e-01 4.797978e-01 4.820749e-01 5.211250e-01 4.798635e-01 4.500161e-01 4.608459e-01 3.775443e-01 6.789643e-01
<GCONST> 1.288335e+02
<STATE> 4
<MEAN> 39
 -3.820879e+00 5.590977e+00 2.177464e+00 -6.397409e-01 8.819866e-02 -6.403710e-01 -1.090982e-01 -2.136901e-02 -7.823675e-01 -1.860867e+00 3.375454e-01 -1.071462e+00 3.576193e+01 -3.204679e-02 1.685231e-02 6.279733e-03 4.618176e-02 3.370273e-02 1.435416e-03 1.487678e-02 2.392509e-02 5.202392e-03 -6.962122e-03 -7.437021e-04 -6.213301e-03 -6.695588e-02 -8.673764e-03 -1.966154e-03 1.169792e-02 -8.918809e-03 -4.106494e-03 -8.764698e-03 -4.726308e-03 1.625570e-03 -1.585032e-03 3.528963e-03 -2.166344e-03 -1.398515e-03 2.226698e-02
<VARIANCE> 39
 5.621860e+01 7.408064e+01 6.481821e+01 9.562053e+01 6.049548e+01 5.657086e+01 5.480392e+01 5.008425e+01 4.914367e+01 3.600889e+01 5.758591e+01 2.695450e+01 2.658269e+02 2.237194e+00 2.592087e+00 2.314184e+00 3.129044e+00 2.833982e+00 2.664105e+00 2.646528e+00 2.741223e+00 2.630443e+00 2.383868e+00 2.569609e+00 1.958500e+00 4.984552e+00 3.580279e-01 4.174158e-01 3.847587e-01 5.025513e-01 4.999610e-01 4.797978e-01 4.820749e-01 5.089008e-01 4.798635e-01 4.500161e-01 4.608459e-01 3.767788e-01 6.789643e-01
<GCONST> 1.279592e+02
<TRANSP> 5
 0.000000e+00 1.000000e+00 0.000000e+00 0.000000e+00 0.000000e+00
 0.000000e+00 6.560019e-01 3.439981e-01 0.000000e+00 0.000000e+00
 0.000000e+00 0.000000e+00 6.706825e-01 3.293175e-01 0.000000e+00
 0.000000e+00 0.000000e+00 0.000000e+00 9.666114e-01 3.338864e-02
 0.000000e+00 0.000000e+00 0.000000e+00 0.000000e+00 0.000000e+00
<ENDHMM>
~h "eh"
<BEGINHMM>
<NUMSTATES> 5
<STATE> 2
<MEAN> 39
 -1.325429e+01 1.015973e+01 -9.100283e-01 4.997321e-01 -8.317863e-01 -2.722654e+00 1.263896e+00 -7.195489e-01 -4.628204e-01 -2.681621e+00 1.143583e-01 -1.661924e+00 5.691074e+01 5.614374e-01 -5.697452e-01 1.815093e-02 3.304885e-02 -5.490537e-01 -5.989484e-02 -3.057094e-01 2.534759e-01 1.890416e-01 2.318054e-02 -5.899823e-02 -3.325276e-03 6.293644e-01 5.779917e-01 -3.778612e-01 3.115645e-01 -2.638409e-01 -2.986019e-01 -2.512594e-01 -2.425196e-01 1.256372e-01 -1.391320e-01 1.154653e-02 -2.160749e-01 -3.677299e-02 2.975636e-01
<VARIANCE> 39
 8.611218e+01 7.408064e+01 6.481821e+01 9.562053e+01 6.049548e+01 5.657086e+01 5.480392e+01 5.008425e+01 4.914367e+01 3.600889e+01 5.758591e+01 2.695450e+01 2.658269e+02 6.168324e+00 5.294694e+00 2.653941e+00 3.129044e+00 4.311278e+00 2.664105e+00 2.646528e+00 3.298775e+00 2.630443e+00 2.383868e+00 2.569609e+00 2.257785e+00 4.984552e+00 7.568864e-01 8.395998e-01 4.012679e-01 5.025513e-01 6.206405e-01 5.853949e-01 4.841902e-01 6.803419e-01 4.798635e-01 4.500161e-01 5.216717e-01 4.667625e-01 6.789643e-01
<GCONST> 1.335354e+02
<STATE> 3
<MEAN> 39
 -3.904504e+00 2.126026e+00 3.433773e+00 -4.387261e-01 -6.115632e+00 -3.002281e+00 -1.072040e+00 3.613763e+00 -1.453983e+00 -1.841730e+00 -2.384390e+00 -2.540060e+00 6.211993e+01 8.525643e-01 -3.975546e-01 4.961776e-01 -2.403008e-01 -3.032679e-01 -2.632474e-01 -3.559381e-01 1.755917e-01 -1.361629e-01 -8.262474e-02 -2.899630e-01 -1.016542e-01 4.507869e-01 1.792351e-01 -1.293243e-01 1.110252e-01 -2.986522e-01 -1.752917e-02 -2.678667e-01 -1.035514e-01 -2.173569e-02 -1.305650e-01 2.323966e-04 -2.109278e-01 4.452082e-02 1.045068e-01
<VARIANCE> 39
 1.505316e+02 1.155667e+02 6.481821e+01 9.562053e+01 9.200027e+01 5.657086e+01 5.480392e+01 6.265115e+01 4.914367e+01 3.600889e+01 5.758591e+01 2.814756e+01 2.658269e+02 7.678287e+00 5.391972e+00 3.267283e+00 3.129044e+00 4.986005e+00 3.320246e+00 2.888756e+00 3.759331e+00 2.630443e+00 2.383868e+00 2.569609e+00 2.006755e+00 4.984552e+00 8.976626e-01 1.000536e+00 5.124441e-01 6.998779e-01 6.731977e-01 7.489448e-01 5.901148e-01 5.089008e-01 4.798635e-01 4.500161e-01 5.423567e-01 3.800883e-01 6.789643e-01
<GCONST> 1.371264e+02
<STATE> 4
<MEAN> 39
 -1.421105e+00 6.577872e-01 6.809483e+00 -7.866156e+00 -7.060799e+00 -8.415267e+00 -4.311446e+00 -1.578239e+00 -5.019719e+00 -2.699830e+00 -6.361458e+00 -2.218765e+00 6.589281e+01 1.024014e+00 -1.385527e+00 4.632481e-01 -1.258455e+00 -4.015972e-01 -7.562220e-01 -4.485374e-01 4.420871e-01 -4.255764e-01 3.834370e-02 -8.554981e-01 1.572119e-01 7.395687e-01 -3.286020e-01 1.001487e-02 -1.649111e-01 6.262819e-02 1.289384e-01 2.107751e-01 2.060003e-01 1.995141e-02 -6.199650e-02 -4.425964e-02 9.599771e-02 -3.264664e-02 -1.125077e-01
<VARIANCE> 39
 7.094134e+01 9.614530e+01 6.913595e+01 1.309959e+02 6.291919e+01 7.676249e+01 5.480392e+01 6.548685e+01 4.914367e+01 4.787433e+01 7.081049e+01 4.155854e+01 2.658269e+02 8.933270e+00 1.061732e+01 4.956988e+00 1.156927e+01 4.885790e+00 6.868463e+00 4.663964e+00 3.573368e+00 3.846373e+00 3.571301e+00 7.154507e+00 3.356839e+00 6.353735e+00 1.205314e+00 1.349618e+00 6.384686e-01 1.272458e+00 8.268797e-01 1.042888e+00 8.563842e-01 5.594654e-01 5.662537e-01 6.298107e-01 1.036503e+00 5.529428e-01 8.568892e-01
<GCONST> 1.478463e+02
<TRANSP> 5
 0.000000e+00 1.000000e+00 0.000000e+00 0.000000e+00 0.000000e+00
 0.000000e+00 5.913045e-01 4.086955e-01 0.000000e+00 0.000000e+00
 0.000000e+00 0.000000e+00 6.277773e-01 3.722227e-01 0.000000e+00
 0.000000e+00 0.000000e+00 0.000000e+00 8.605403e-01 1.394597e-01
 0.000000e+00 0.000000e+00 0.000000e+00 0.000000e+00 0.000000e+00
<ENDHMM>
~h "er"
<BEGINHMM>
<NUMSTATES> 5
<STATE> 2
<MEAN> 39
 4.388643e+00 1.483588e+00 2.831547e+00 2.887686e+00 4.224482e+00 -1.494441e-01 2.166922e+00 3.488447e+00 -1.009896e-01 -3.853344e+00 -3.074424e+00 -1.044700e+00 4.534019e+01 1.419965e-01 6.051140e-01 -2.213991e-01 -1.649208e-01 1.823119e-01 2.132887e-01 4.045425e-02 -5.739307e-02 3.840177e-02 -1.023447e-01 1.623228e-01 -2.195773e-02 -5.056417e-01 -3.295467e-02 2.002561e-02 1.595620e-02 -3.646037e-02 -4.275414e-02 -3.102975e-02 -6.392154e-02 -4.242490e-02 4.844318e-03 4.394059e-02 8.313777e-03 -6.165974e-03 9.141648e-03
<VARIANCE> 39
 5.621860e+01 7.408064e+01 6.481821e+01 9.562053e+01 6.049548e+01 5.657086e+01 5.480392e+01 5.008425e+01 4.914367e+01 3.600889e+01 5.758591e+01 2.695450e+01 2.658269e+02 2.237194e+00 2.592087e+00 2.314184e+00 3.129044e+00 2.833982e+00 2.664105e+00 2.646528e+00 2.741223e+00 2.630443e+00 2.383868e+00 2.569609e+00 1.958500e+00 4.984552e+00 3.580279e-01 4.174158e-01 3.847587e-01 5.025513e-01 4.999610e-01 4.797978e-01 4.820749e-01 5.089008e-01 4.798635e-01 4.500161e-01 4.608459e-01 3.767788e-01 6.789643e-01
<GCONST> 1.279592e+02
<STATE> 3
<MEAN> 39
 3.913924e+00 1.058899e+01 4.349717e+00 5.839047e-01 4.177498e+00 2.326930e+00 2.258564e+00 1.954912e+00 5.133977e-01 -3.053374e+00 -2.514737e-01 -9.833286e-01 4.004011e+01 -2.775930e-01 3.023376e-01 1.462716e-01 -5.074782e-02 -6.618731e-02 8.475442e-02 -4.335102e-02 -1.311105e-01 9.119345e-03 1.475128e-01 1.101784e-01 9.923447e-03 -3.248053e-01 -5.706875e-02 -6.507121e-02 3.166413e-03 6.420421e-04 -1.882207e-02 -1.847102e-02 -1.049651e-02 -1.907070e-02 -1.335815e-02 7.839443e-03 6.504913e-03 1.082466e-02 7.958061e-03
<VARIANCE> 39
 5.621860e+01 7.408064e+01 6.481821e+01 9.562053e+01 6.049548e+01 5.657086e+01 5.480392e+01 5.008425e+01 4.914367e+01 3.600889e+01 5.758591e+01 2.695450e+01 2.658269e+02 2.237194e+00 2.592087e+00 2.314184e+00 3.129044e+00 2.833982e+00 2.664105e+00 2.646528e+00 2.741223e+00 2.630443e+00 2.383868e+00 2.569609e+00 1.958500e+00 4.984552e+00 3.580279e-01 4.174158e-01 3.847587e-01 5.025513e-01 4.999610e-01 4.797978e-01 4.820749e-01 5.089008e-01 4.798635e-01 4.500161e-01 4.608459e-01 3.767788e-01 6.789643e-01
<GCONST> 1.279592e+02
<STATE> 4
<MEAN> 39
 -4.817417e+00 1.111616e+00 5.193853e-01 -2.520198e+00 8.313395e-01 -2.328992e+00 -6.682101e-01 1.524144e+00 -2.204080e+00 -3.639396e+00 -6.113798e-02 -4.650315e-01 3.740051e+01 -3.878283e-02 -5.694104e-02 -4.354366e-02 -1.008208e-02 -5.418095e-02 -5.421374e-02 1.535108e-02 1.627673e-02 -1.140108e-02 -3.427597e-03 -1.074238e-02 1.852067e-03 7.965297e-02 2.538301e-04 5.543143e-03 -1.381314e-03 7.922657e-03 7.214630e-03 7.878267e-04 1.442603e-02 1.262703e-02 4.755742e-03 4.570280e-03 -4.025615e-03 -4.750882e-03 4.444835e-02
<VARIANCE> 39
 5.621860e+01 7.408064e+01 6.481821e+01 9.562053e+01 6.049548e+01 5.657086e+01 5.480392e+01 5.008425e+01 4.914367e+01 3.600889e+01 5.758591e+01 2.695450e+01 2.658269e+02 2.237194e+00 2.592087e+00 2.314184e+00 3.129044e+00 2.833982e+00 2.664105e+00 2.646528e+00 2.741223e+00 2.630443e+00 2.383868e+00 2.569609e+00 1.958500e+00 4.984552e+00 3.580279e-01 4.174158e-01 3.847587e-01 5.025513e-01 4.999610e-01 4.797978e-01 4.820749e-01 5.089008e-01 4.798635e-01 4.500161e-01 4.608459e-01 3.767788e-01 6.789643e-01
<GCONST> 1.279592e+02
<TRANSP> 5
 0.000000e+00 1.000000e+00 0.000000e+00 0.000000e+00 0.000000e+00
 0.000000e+00 8.965116e-01 1.034883e-01 0.000000e+00 0.000000e+00
 0.000000e+00 0.000000e+00 9.355151e-01 6.448493e-02 0.000000e+00
 0.000000e+00 0.000000e+00 0.000000e+00 9.777936e-01 2.220645e-02
 0.000000e+00 0.000000e+00 0.000000e+00 0.000000e+00 0.000000e+00
<ENDHMM>
~h "ey"
<BEGINHMM>
<NUMSTATES> 5
<STATE> 2
<MEAN> 39
 -8.867555e-01 5.932083e+00 9.284861e+00 -4.559334e+00 -1.446472e+00 -2.206327e+00 1.963105e+00 7.277113e-01 -1.595673e+00 -1.939534e+00 4.957877e-02 1.110854e+00 4.539479e+01 2.627786e-01 6.427866e-01 4.471213e-02 6.525154e-01 2.381658e-01 4.861293e-01 4.706669e-02 2.335809e-02 2.240123e-01 4.753186e-02 1.290370e-01 2.837438e-02 -7.162328e-01 -3.163650e-03 -1.311733e-02 -3.748655e-02 1.800819e-02 -3.283024e-02 -4.799516e-02 -8.244380e-02 -6.082037e-03 -1.126687e-01 -5.859544e-02 -8.510946e-02 -1.056158e-01 1.122263e-01
<VARIANCE> 39
 5.621860e+01 7.408064e+01 6.481821e+01 9.562053e+01 1.042590e+02 5.657086e+01 5.480392e+01 5.008425e+01 4.914367e+01 3.600889e+01 5.758591e+01 2.914972e+01 2.658269e+02 2.237194e+00 2.592087e+00 2.314184e+00 3.129044e+00 2.833982e+00 2.664105e+00 2.646528e+00 2.741223e+00 2.849261e+00 2.383868e+00 2.569609e+00 1.958500e+00 4.984552e+00 3.580279e-01 4.174158e-01 3.847587e-01 5.025513e-01 4.999610e-01 4.797978e-01 4.820749e-01 5.317295e-01 5.569327e-01 4.647586e-01 4.608459e-01 3.767788e-01 6.789643e-01
<GCONST> 1.288868e+02
<STATE> 3
<MEAN> 39
 9.773037e-01 8.969982e+00 8.778115e+00 -1.889090e+00 -1.540424e+00 -2.781357e-01 1.596004e+00 6.882417e-01 -1.445619e+00 -1.667491e+00 -4.812735e-01 -4.374429e-01 4.315349e+01 1.288341e-01 3.631403e-01 -1.550552e-01 4.480771e-01 8.952498e-02 1.351096e-01 -7.815146e-02 3.260613e-02 5.294186e-02 -1.042712e-01 -7.558008e-02 -2.151325e-01 -4.298647e-01 -7.094967e-02 -7.060464e-02 -5.304450e-02 -2.261542e-02 3.627799e-02 -9.650364e-02 -4.382624e-02 -1.225857e-02 -2.121510e-02 -4.414367e-02 -2.914893e-02 1.852180e-02 8.101466e-02
<VARIANCE> 39
 5.621860e+01 7.408064e+01 6.481821e+01 9.562053e+01 6.437384e+01 5.657086e+01 5.480392e+01 5.008425e+01 4.914367e+01 3.600889e+01 5.758591e+01 2.695450e+01 2.658269e+02 2.237194e+00 2.592087e+00 2.314184e+00 3.129044e+00 2.833982e+00 2.664105e+00 2.646528e+00 2.741223e+00 2.630443e+00 2.383868e+00 2.569609e+00 1.958500e+00 4.984552e+00 3.580279e-01 4.174158e-01 3.847587e-01 5.025513e-01 4.999610e-01 4.797978e-01 4.820749e-01 5.089008e-01 5.131950e-01 4.500161e-01 4.608459e-01 3.767788e-01 6.789643e-01
<GCONST> 1.280885e+02
<STATE> 4
<MEAN> 39
 -2.031657e+00 9.043872e+00 4.173709e+00 -3.735166e-01 -1.546813e-01 -3.116633e-01 7.110944e-01 9.566655e-01 6.793919e-02 -1.272517e+00 8.271163e-01 -4.679382e-02 3.510561e+01 -6.662259e-02 -2.496491e-02 -1.004252e-03 2.300411e-02 1.565414e-02 -1.496677e-02 -5.515433e-02 -3.410312e-02 4.457659e-03 4.176659e-03 9.054428e-03 5.149823e-04 -2.548161e-02 -3.468231e-04 -1.172715e-02 1.653499e-03 -4.678894e-03 2.817618e-03 -1.248846e-02 -1.011235e-02 -2.683845e-03 -1.074409e-02 -4.854050e-03 -2.513470e-03 -3.369031e-03 2.692004e-02
<VARIANCE> 39
 5.621860e+01 7.408064e+01 6.481821e+01 9.562053e+01 6.049548e+01 5.657086e+01 5.480392e+01 5.008425e+01 4.914367e+01 3.600889e+01 5.758591e+01 2.695450e+01 2.658269e+02 2.237194e+00 2.592087e+00 2.314184e+00 3.129044e+00 2.833982e+00 2.664105e+00 2.646528e+00 2.741223e+00 2.630443e+00 2.383868e+00 2.569609e+00 1.958500e+00 4.984552e+00 3.580279e-01 4.174158e-01 3.847587e-01 5.025513e-01 4.999610e-01 4.797978e-01 4.820749e-01 5.089008e-01 4.798635e-01 4.500161e-01 4.608459e-01 3.767788e-01 6.789643e-01
<GCONST> 1.279592e+02
<TRANSP> 5
 0.000000e+00 1.000000e+00 0.000000e+00 0.000000e+00 0.000000e+00
 0.000000e+00 6.653956e-01 3.346044e-01 0.000000e+00 0.000000e+00
 0.000000e+00 0.000000e+00 6.369659e-01 3.630342e-01 0.000000e+00
 0.000000e+00 0.000000e+00 0.000000e+00 9.611909e-01 3.880914e-02
 0.000000e+00 0.000000e+00 0.000000e+00 0.000000e+00 0.000000e+00
<ENDHMM>
~h "hh"
<BEGINHMM>
<NUMSTATES> 5
<STATE> 2
<MEAN> 39
 2.517015e+00 -2.713350e+00 2.653852e+00 -3.553815e+00 -5.972858e+00 -1.882602e+00 -6.285674e+00 -2.363123e+00 -3.853121e+00 -2.771154e+00 -1.932114e+00 -7.151583e+00 6.544981e+01 -2.732498e-01 2.835251e-01 -4.050292e-03 -6.269447e-02 -2.843477e-03 1.993531e-01 3.889215e-02 2.052954e-01 -7.782757e-02 2.910144e-01 4.112652e-01 2.130598e-01 3.397948e-01 -1.507323e-01 6.129223e-02 -3.790524e-02 3.717865e-02 9.710315e-02 3.343485e-02 7.095565e-02 3.960094e-02 4.204153e-02 5.263608e-02 -2.674039e-02 5.637592e-02 -2.775786e-02
<VARIANCE> 39
 8.274658e+01 1.053620e+02 6.481821e+01 9.562053e+01 1.360914e+02 5.657086e+01 9.970586e+01 6.907660e+01 4.914367e+01 3.600889e+01 5.758591e+01 3.532622e+01 2.658269e+02 4.068795e+00 5.539260e+00 4.666421e+00 3.759150e+00 9.368829e+00 4.419864e+00 6.519572e+00 3.639712e+00 3.477004e+00 2.383868e+00 3.486193e+00 3.394409e+00 6.213020e+00 5.199267e-01 7.193440e-01 6.904210e-01 5.025513e-01 1.489166e+00 8.323988e-01 9.929979e-01 5.811113e-01 7.699291e-01 4.500161e-01 5.812935e-01 6.479754e-01 1.049586e+00
<GCONST> 1.428653e+02
<STATE> 3
<MEAN> 39
 -4.604522e+00 1.664852e+00 1.656880e+00 -6.276532e+00 4.012930e+00 -2.285610e+00 -1.492905e+00 3.911314e+00 -6.524015e+00 -9.872973e-02 1.100834e+00 -1.389519e+00 6.078224e+01 3.586075e-01 -1.938998e-02 -1.104430e-01 -4.142556e-01 -6.581448e-02 2.922584e-01 -1.878708e-01 -4.130394e-02 -2.855324e-01 5.899802e-02 1.782267e-01 8.471102e-02 2.802992e-01 8.534341e-02 1.984386e-02 2.990010e-02 -2.982041e-02 -5.558563e-02 -6.172624e-02 -6.564616e-02 -4.795962e-02 -2.617246e-03 -4.165212e-02 -2.681825e-02 4.703384e-03 -6.157371e-02
<VARIANCE> 39
 1.278074e+02 7.408064e+01 6.481821e+01 9.562053e+01 7.802069e+01 5.925702e+01 8.738434e+01 5.429327e+01 7.518212e+01 3.600889e+01 5.758591e+01 3.023669e+01 2.658269e+02 6.050711e+00 3.844615e+00 5.925962e+00 5.632689e+00 6.377191e+00 3.518664e+00 4.404644e+00 3.528202e+00 4.002162e+00 2.914930e+00 3.364240e+00 2.511900e+00 1.372158e+01 6.288459e-01 6.285008e-01 1.130670e+00 9.830650e-01 9.447230e-01 6.009068e-01 7.892249e-01 6.876683e-01 5.862132e-01 5.105041e-01 5.914292e-01 5.082613e-01 2.463061e+00
<GCONST> 1.436293e+02
<STATE> 4
<MEAN> 39
 -1.111934e+00 1.889637e+00 -7.715116e-01 -1.244412e+01 1.696663e+00 -2.229989e+00 -2.625078e+00 -3.288091e+00 -6.706995e+00 -1.268726e+00 -1.730222e+00 1.168158e+00 6.150130e+01 1.883745e-02 2.028754e-01 -1.037574e-01 -2.631090e-01 9.893425e-02 -5.817398e-02 2.983064e-02 -9.252101e-02 -1.275093e-01 1.733885e-01 -1.437918e-01 1.916374e-02 -2.857575e-01 -1.077364e-03 -8.265365e-03 4.142890e-03 2.669800e-03 -5.014362e-02 -6.035666e-02 -8.810294e-04 1.172947e-02 -6.119657e-03 -1.442425e-02 -2.460756e-02 -3.841621e-02 -4.260875e-02
<VARIANCE> 39
 1.337260e+02 1.116493e+02 6.481821e+01 1.785193e+02 1.340116e+02 9.412459e+01 5.480392e+01 5.008425e+01 6.133578e+01 7.457182e+01 5.758591e+01 2.835435e+01 2.658269e+02 5.471279e+00 5.556358e+00 3.075934e+00 7.362232e+00 7.280138e+00 3.925703e+00 3.142218e+00 3.787345e+00 3.843405e+00 3.514923e+00 3.515433e+00 2.118839e+00 6.027052e+00 7.588137e-01 8.627719e-01 5.581835e-01 9.283336e-01 1.105160e+00 7.095540e-01 5.856937e-01 6.588659e-01 6.126241e-01 5.807278e-01 6.489859e-01 3.861856e-01 9.769685e-01
<GCONST> 1.434681e+02
<TRANSP> 5
 0.000000e+00 1.000000e+00 0.000000e+00 0.000000e+00 0.000000e+00
 0.000000e+00 8.902486e-01 1.097514e-01 0.000000e+00 0.000000e+00
 0.000000e+00 0.000000e+00 9.350637e-01 6.493640e-02 0.000000e+00
 0.000000e+00 0.000000e+00 0.000000e+00 9.663827e-01 3.361734e-02
 0.000000e+00 0.000000e+00 0.000000e+00 0.000000e+00 0.000000e+00
<ENDHMM>
~h "ih"
<BEGINHMM>
<NUMSTATES> 5
<STATE> 2
<MEAN> 39
 -1.517445e+00 1.690134e+00 1.447384e+01 -8.443640e+00 -8.845671e+00 -5.828480e+00 -6.801861e+00 -5.129505e+00 -7.519169e+00 -1.845238e+00 -6.150302e+00 -3.494903e+00 6.151963e+01 3.672002e-01 -3.592550e-01 5.339105e-01 -3.009143e-01 -2.317629e-01 -5.201295e-02 -2.732270e-01 8.951134e-02 -6.268444e-02 6.612182e-02 -1.700482e-01 1.097104e-01 -6.750289e-02 -1.312565e-01 3.763789e-02 -1.697384e-01 6.990772e-02 1.512117e-01 1.104116e-01 1.031298e-01 6.500599e-02 1.160214e-01 3.808404e-02 2.204188e-02 5.060120e-02 -1.623906e-01
<VARIANCE> 39
 5.621860e+01 7.408064e+01 1.047833e+02 1.034395e+02 7.060186e+01 7.860948e+01 6.221227e+01 9.299769e+01 6.656436e+01 4.328989e+01 9.106211e+01 3.550249e+01 2.658269e+02 3.926317e+00 4.535133e+00 6.995480e+00 9.587434e+00 5.844779e+00 5.343006e+00 5.560925e+00 4.672207e+00 4.176020e+00 3.624560e+00 6.495220e+00 2.507303e+00 1.272005e+01 6.360323e-01 7.241264e-01 9.395380e-01 1.328717e+00 9.013583e-01 8.674459e-01 9.449198e-01 7.632980e-01 6.771670e-01 6.399407e-01 9.586142e-01 4.485820e-01 1.550313e+00
<GCONST> 1.476839e+02
<STATE> 3
<MEAN> 39
 -1.672625e+00 3.078132e-01 1.083347e+01 -7.139037e+00 -7.482823e+00 -5.731400e+00 -5.455688e+00 -1.339295e+00 -6.145081e+00 -7.612306e-01 -4.539336e+00 -2.482397e+00 5.595111e+01 -6.391057e-02 1.180649e-01 -3.774825e-01 1.339603e-01 5.308210e-01 1.644854e-01 2.470144e-01 4.447879e-02 5.138010e-01 7.996029e-02 -8.336902e-02 2.187786e-01 -9.493152e-01 -8.382855e-02 4.780159e-02 -1.380696e-01 2.261663e-02 8.422241e-02 2.699235e-02 4.855532e-02 -2.873245e-02 4.642773e-02 -1.692323e-02 3.604429e-02 1.579226e-02 8.053710e-02
<VARIANCE> 39
 5.621860e+01 7.408064e+01 9.269710e+01 9.562053e+01 8.083453e+01 6.442571e+01 5.480392e+01 8.022327e+01 6.023421e+01 4.187128e+01 6.612104e+01 3.246434e+01 2.658269e+02 2.239480e+00 2.978305e+00 3.201078e+00 3.390194e+00 3.967555e+00 3.302064e+00 2.992672e+00 3.513654e+00 3.127848e+00 2.875178e+00 3.616263e+00 2.406988e+00 9.085531e+00 4.659559e-01 5.005630e-01 5.541889e-01 7.823201e-01 7.530688e-01 6.462817e-01 5.749323e-01 6.590111e-01 5.287597e-01 5.608844e-01 7.593324e-01 4.598209e-01 1.412836e+00
<GCONST> 1.370054e+02
<STATE> 4
<MEAN> 39
 2.160583e-01 3.139068e-01 1.372510e+01 -1.169113e+01 -5.348187e+00 -6.613052e+00 -5.875628e+00 -4.348780e+00 -6.073477e+00 -3.129619e-01 -1.034507e+01 3.896975e-01 5.908840e+01 -6.809556e-02 3.163646e-01 -3.985053e-01 7.191665e-01 5.991597e-01 4.179701e-01 4.231738e-01 1.962393e-01 4.559999e-01 -2.175298e-01 2.857060e-01 4.182896e-02 -9.905245e-01 -6.280968e-02 2.290829e-02 -4.716655e-02 7.659830e-02 3.202874e-02 3.161258e-02 3.715561e-02 3.766485e-02 9.628842e-03 -2.243824e-03 1.161121e-01 -2.690507e-02 8.898163e-03
<VARIANCE> 39
 5.621860e+01 8.531050e+01 9.195837e+01 1.152365e+02 6.977178e+01 5.657086e+01 5.480392e+01 1.129764e+02 5.417001e+01 6.680229e+01 7.412357e+01 3.258172e+01 2.658269e+02 2.237194e+00 2.592087e+00 2.314184e+00 3.129044e+00 2.833982e+00 2.664105e+00 2.646528e+00 2.800208e+00 2.630443e+00 2.696973e+00 3.355961e+00 2.224858e+00 4.984552e+00 3.580279e-01 4.174158e-01 3.847587e-01 5.025513e-01 4.999610e-01 4.797978e-01 4.820749e-01 5.089008e-01 4.798635e-01 4.895840e-01 5.594339e-01 4.149379e-01 6.789643e-01
<GCONST> 1.316641e+02
<TRANSP> 5
 0.000000e+00 1.000000e+00 0.000000e+00 0.000000e+00 0.000000e+00
 0.000000e+00 8.069342e-01 1.930657e-01 0.000000e+00 0.000000e+00
 0.000000e+00 0.000000e+00 6.277605e-01 3.722395e-01 0.000000e+00
 0.000000e+00 0.000000e+00 0.000000e+00 8.301924e-01 1.698076e-01
 0.000000e+00 0.000000e+00 0.000000e+00 0.000000e+00 0.000000e+00
<ENDHMM>
~h "iy"
<BEGINHMM>
<NUMSTATES> 5
<STATE> 2
<MEAN> 39
 2.530735e-01 3.346857e+00 2.028246e+01 -5.069225e+00 -1.146360e+01 -2.218057e+00 -1.003417e+01 -5.247002e+00 -1.083113e+01 -3.285629e+00 -2.634206e+00 -5.886768e+00 6.260550e+01 -3.081269e-01 2.466968e-01 7.626843e-01 -3.705878e-01 -5.600757e-01 4.232554e-01 -3.349348e-01 -3.965822e-01 -3.117216e-01 -2.514585e-02 1.267994e-01 -1.442071e-01 2.479438e-01 -2.222053e-02 -5.272987e-03 -1.190513e-01 -3.730574e-02 1.172839e-01 1.954774e-02 2.313089e-02 6.178298e-02 1.176527e-01 3.797130e-02 -5.121745e-02 4.055407e-02 -3.531660e-02
<VARIANCE> 39
