~o
<STREAMINFO> 1 39
<VECSIZE> 39<NULLD><MFCC_D_A_0><DIAGC>
~s "silst"
<MEAN> 39
 -1.101391e+00 8.632285e+00 3.974616e+00 -2.110487e-01 1.077347e+00 3.988528e-01 6.366757e-01 9.350615e-01 6.216608e-01 -1.022270e+00 5.352177e-02 -6.362897e-01 3.763873e+01 -8.987796e-02 5.105223e-02 -6.086473e-02 6.906879e-02 2.058900e-02 1.898780e-03 -2.788983e-03 2.562042e-03 2.218414e-02 2.770917e-02 5.304671e-02 -2.208064e-02 -1.453566e-01 -4.090129e-04 -2.574635e-02 1.831048e-02 -3.054742e-02 -8.459067e-03 -2.897996e-02 -3.028690e-02 -2.483487e-02 -4.650419e-02 -1.732899e-02 -3.051247e-02 -1.581877e-02 8.263477e-02
<VARIANCE> 39
 5.621860e+01 7.408064e+01 6.481821e+01 9.562053e+01 6.049548e+01 5.657086e+01 5.480392e+01 5.008425e+01 4.914367e+01 3.600889e+01 5.758591e+01 2.695450e+01 2.658269e+02 2.237194e+00 2.592087e+00 2.314184e+00 3.129044e+00 2.833982e+00 2.664105e+00 2.646528e+00 2.741223e+00 2.630443e+00 2.383868e+00 2.569609e+00 1.958500e+00 4.984552e+00 3.580279e-01 4.174158e-01 3.847587e-01 5.025513e-01 4.999610e-01 4.797978e-01 4.820749e-01 5.089008e-01 4.798635e-01 4.500161e-01 4.608459e-01 3.767788e-01 6.789643e-01
<GCONST> 1.279592e+02
~h "b"
<BEGINHMM>
<NUMSTATES> 5
<STATE> 2
<MEAN> 39
 3.959032e+00 1.092712e+01 9.248902e+00 3.084224e+00 1.357825e+00 -9.480782e-02 -6.143999e+00 -8.123580e+00 -7.593391e+00 -2.930928e+00 -4.981793e+00 -8.246211e+00 3.992670e+01 1.381196e+00 3.425537e-01 2.518623e-01 1.620561e-01 1.046193e-01 -1.445334e-01 -8.949915e-01 -9.649677e-01 -1.000749e+00 -8.067931e-01 -5.765403e-01 -7.256174e-01 1.583800e+00 -1.439402e-01 -4.349324e-01 -2.620538e-01 -3.163184e-01 -1.033409e-01 -1.699555e-01 3.087280e-02 2.657028e-01 3.494828e-01 2.275033e-01 2.439189e-01 3.156245e-01 6.240441e-01
<VARIANCE> 39
 5.621860e+01 7.408064e+01 6.481821e+01 9.562053e+01 6.049548e+01 5.657086e+01 5.480392e+01 5.008425e+01 4.914367e+01 4.598862e+01 5.758591e+01 2.976528e+01 2.658269e+02 4.121382e+00 3.715568e+00 2.314184e+00 3.129044e+00 2.833982e+00 2.664105e+00 3.241474e+00 4.061475e+00 4.977271e+00 3.980700e+00 3.695688e+00 3.414801e+00 4.984552e+00 8.775598e-01 5.532369e-01 3.937624e-01 5.851061e-01 4.999610e-01 5.165254e-01 5.851523e-01 7.240864e-01 8.233292e-01 8.417634e-01 6.641124e-01 6.008092e-01 8.765272e-01
<GCONST> 1.361670e+02
<STATE> 3
<MEAN> 39
 7.858285e+00 1.205694e+00 6.179124e+00 -1.493782e+00 -3.642940e+00 -5.565517e+00 -1.104631e+01 -8.436471e+00 -2.504575e+00 6.941514e-02 -4.046057e+00 -5.231924e+00 6.200698e+01 -9.150698e-02 -1.872932e+00 -8.737241e-01 -2.415628e+00 -9.668319e-01 -8.549822e-01 -6.141052e-01 9.547551e-01 1.235453e+00 1.019562e+00 2.381804e-01 6.778889e-01 3.581444e+00 -1.093671e-01 5.198792e-02 -6.128105e-02 -4.043778e-01 9.616309e-02 1.919460e-01 9.213343e-02 2.060146e-01 -8.958495e-02 -3.920158e-02 -1.574700e-01 -1.040105e-01 -3.755680e-01
<VARIANCE> 39
 5.621860e+01 7.408064e+01 6.481821e+01 9.562053e+01 7.022429e+01 6.527651e+01 5.985008e+01 5.946842e+01 7.689399e+01 6.157245e+01 5.758591e+01 3.904568e+01 2.658269e+02 2.879151e+00 4.388460e+00 3.436585e+00 7.553730e+00 6.348614e+00 6.195816e+00 5.540340e+00 7.496481e+00 5.802285e+00 5.433024e+00 6.046760e+00 5.362689e+00 8.314172e+00 5.942793e-01 8.001431e-01 5.559319e-01 9.383692e-01 1.130973e+00 9.692046e-01 1.009951e+00 1.438355e+00 1.324582e+00 1.152824e+00 1.112127e+00 8.563105e-01 1.337358e+00
<GCONST> 1.490903e+02
<STATE> 4
<MEAN> 39
 3.543462e+00 -9.390697e+00 -1.588632e+00 -2.363722e+01 8.593128e-01 -6.369499e+00 -1.171543e+01 3.476179e-01 -3.243781e+00 -1.748676e+00 -1.280314e+01 -4.484828e+00 7.453485e+01 -1.750987e-01 -5.685476e-01 -4.549702e-01 -1.051779e+00 7.098188e-01 5.691422e-01 5.536177e-01 2.925833e-01 -2.926122e-01 -1.684335e-01 -2.623913e-01 -1.701468e-01 3.136289e-01 4.818150e-02 1.826367e-01 1.283473e-01 3.524718e-01 -4.353809e-02 2.834165e-02 7.277071e-02 -2.036482e-01 -6.253604e-02 3.746732e-02 1.786525e-01 1.541481e-02 -2.464442e-01
<VARIANCE> 39
 5.621860e+01 7.597033e+01 6.481821e+01 1.007528e+02 7.360040e+01 1.051242e+02 5.578387e+01 5.216518e+01 4.914367e+01 6.095789e+01 8.327959e+01 5.903073e+01 2.658269e+02 2.237194e+00 2.592087e+00 2.314184e+00 3.497256e+00 2.833982e+00 2.664105e+00 2.646528e+00 3.199348e+00 2.630443e+00 2.568460e+00 3.237018e+00 2.176297e+00 4.984552e+00 3.580279e-01 4.174158e-01 3.847587e-01 5.025513e-01 4.999610e-01 4.797978e-01 4.820749e-01 5.125278e-01 4.798635e-01 4.500161e-01 4.608459e-01 3.767788e-01 6.789643e-01
<GCONST> 1.312740e+02
<TRANSP> 5
 0.000000e+00 1.000000e+00 0.000000e+00 0.000000e+00 0.000000e+00
 0.000000e+00 8.287516e-01 1.712484e-01 0.000000e+00 0.000000e+00
 0.000000e+00 0.000000e+00 8.099928e-01 1.900072e-01 0.000000e+00
 0.000000e+00 0.000000e+00 0.000000e+00 8.576109e-01 1.423891e-01
 0.000000e+00 0.000000e+00 0.000000e+00 0.000000e+00 0.000000e+00
<ENDHMM>
~h "d"
<BEGINHMM>
<NUMSTATES> 5
<STATE> 2
<MEAN> 39
 -2.687274e+00 1.422818e-01 7.427597e+00 -7.030324e+00 -2.756573e+00 -4.961071e+00 -2.122588e+00 -2.536441e+00 -6.009653e+00 -4.155127e+00 -6.613644e+00 -3.220732e+00 5.387725e+01 2.937979e-01 -1.254926e+00 1.057064e+00 -1.412885e+00 -8.961456e-01 -7.321206e-01 -3.745472e-01 -6.033304e-01 -1.150373e+00 7.747679e-02 -7.863472e-01 -1.913565e-01 3.248523e+00 -4.200858e-02 -9.094987e-03 8.005903e-02 -1.477456e-01 -1.727587e-01 -5.564267e-02 -9.292950e-02 -1.310606e-02 -2.710067e-02 1.758515e-01 -3.576896e-02 1.044070e-01 5.315438e-02
<VARIANCE> 39
 5.621860e+01 1.166400e+02 6.481821e+01 9.562053e+01 7.189949e+01 5.657086e+01 5.660169e+01 9.331989e+01 6.693427e+01 4.497139e+01 5.758591e+01 4.015306e+01 2.658269e+02 5.451659e+00 8.143424e+00 4.699994e+00 6.642071e+00 5.931844e+00 4.137305e+00 4.533277e+00 6.603368e+00 5.093689e+00 5.497505e+00 4.734663e+00 3.957579e+00 1.825666e+01 9.077384e-01 1.317983e+00 8.195047e-01 1.051138e+00 9.615500e-01 6.881963e-01 7.435038e-01 1.112862e+00 8.799475e-01 8.044596e-01 7.973278e-01 6.156371e-01 3.059736e+00
<GCONST> 1.499088e+02
<STATE> 3
<MEAN> 39
 3.855489e+00 -6.252216e+00 1.188591e+01 -9.406118e+00 -1.189184e+01 -3.994751e+00 -6.605900e+00 2.047783e-01 -6.943388e+00 -2.063912e-01 -9.037905e+00 -4.527914e+00 6.752837e+01 -8.428869e-02 5.014033e-01 3.944699e-01 -6.305300e-02 -2.459493e-01 -6.481270e-02 -4.461054e-01 -4.514552e-01 -4.122417e-02 2.993706e-01 3.318622e-02 5.134277e-03 -1.016292e-01 -9.140643e-02 1.704715e-01 -1.029068e-01 1.221424e-01 2.778135e-01 6.027845e-03 5.623905e-02 3.878333e-02 8.850820e-02 -1.439377e-01 6.014713e-02 2.984481e-02 -2.586685e-01
<VARIANCE> 39
 5.621860e+01 7.408064e+01 6.481821e+01 9.562053e+01 7.007633e+01 5.657086e+01 6.169148e+01 6.584100e+01 4.997446e+01 5.509231e+01 5.758591e+01 4.011161e+01 2.658269e+02 2.237194e+00 2.592087e+00 2.655607e+00 3.129044e+00 2.833982e+00 2.664105e+00 2.646528e+00 2.741223e+00 2.630443e+00 2.610793e+00 2.569609e+00 1.958500e+00 4.984552e+00 3.580279e-01 4.174158e-01 3.847587e-01 5.025513e-01 4.999610e-01 4.797978e-01 4.820749e-01 5.089008e-01 4.798635e-01 4.500161e-01 4.608459e-01 3.767788e-01 6.789643e-01
<GCONST> 1.295663e+02
<STATE> 4
<MEAN> 39
 -3.799653e+00 -3.378329e+00 1.328555e+01 -2.201514e+01 -8.191496e+00 -1.605791e+01 -7.361348e+00 -9.109606e+00 -1.353252e+01 -3.689607e+00 -1.710424e+01 1.377176e-01 6.984173e+01 8.842123e-02 4.864462e-01 1.102652e-01 4.506983e-01 6.672306e-02 4.762851e-02 -1.239406e-01 8.329960e-03 1.141565e-01 -4.031252e-02 9.952428e-02 1.328656e-02 -6.122265e-01 1.200049e-02 5.003673e-02 -8.558551e-02 1.866419e-01 7.142182e-02 1.145610e-01 8.620331e-02 8.969563e-02 7.036657e-02 -3.352994e-02 1.316768e-01 -2.544694e-02 -1.580533e-01
<VARIANCE> 39
 5.621860e+01 9.578622e+01 7.245992e+01 9.562053e+01 6.110960e+01 6.726247e+01 8.050383e+01 5.460066e+01 5.468211e+01 7.525605e+01 5.840244e+01 3.228572e+01 2.658269e+02 2.237194e+00 2.592087e+00 2.314184e+00 3.156799e+00 2.833982e+00 2.745541e+00 2.646528e+00 2.741223e+00 2.630443e+00 2.623053e+00 2.744113e+00 1.958500e+00 4.984552e+00 3.580279e-01 4.174158e-01 3.847587e-01 5.025513e-01 4.999610e-01 4.797978e-01 4.820749e-01 5.089008e-01 4.798635e-01 4.623682e-01 4.608459e-01 3.767788e-01 6.789643e-01
<GCONST> 1.302476e+02
<TRANSP> 5
 0.000000e+00 1.000000e+00 0.000000e+00 0.000000e+00 0.000000e+00
 0.000000e+00 7.122473e-01 2.877528e-01 0.000000e+00 0.000000e+00
 0.000000e+00 0.000000e+00 7.768602e-01 2.231397e-01 0.000000e+00
 0.000000e+00 0.000000e+00 0.000000e+00 8.914882e-01 1.085118e-01
 0.000000e+00 0.000000e+00 0.000000e+00 0.000000e+00 0.000000e+00
<ENDHMM>
~h "f"
<BEGINHMM>
<NUMSTATES> 5
<STATE> 2
<MEAN> 39
 8.819504e+00 -4.249001e-02 1.728690e+00 -1.196908e+01 -4.865602e+00 7.353200e-01 -1.481047e+01 -3.735251e+00 -5.268354e+00 2.649012e-01 6.994492e+00 -5.979267e+00 6.767807e+01 3.384183e-01 -2.332457e-01 5.327936e-03 -8.151214e-01 1.481336e-01 -4.161433e-01 -9.650896e-01 -2.367743e-02 -8.216813e-02 7.046100e-01 -6.130650e-02 -1.836828e-01 9.930047e-02 -4.151457e-01 1.255541e-01 7.552573e-02 4.865518e-01 2.073498e-01 -1.930705e-01 3.186591e-01 1.064004e-01 2.740408e-01 7.056035e-04 -2.465117e-01 8.673348e-02 -3.055791e-01
<VARIANCE> 39
 5.621860e+01 7.408064e+01 6.481821e+01 1.835755e+02 6.049548e+01 6.864031e+01 6.490608e+01 6.224849e+01 1.439193e+02 5.256925e+01 7.275124e+01 4.590722e+01 2.658269e+02 3.592349e+00 2.592087e+00 2.314184e+00 1.256115e+01 2.901078e+00 5.281830e+00 8.029668e+00 4.563519e+00 4.911029e+00 3.510376e+00 4.774653e+00 3.355141e+00 4.984552e+00 4.254981e-01 4.174158e-01 3.847587e-01 1.346014e+00 5.413541e-01 6.823550e-01 1.123120e+00 6.632429e-01 6.916817e-01 6.659846e-01 6.196187e-01 6.546844e-01 6.789643e-01
<GCONST> 1.420770e+02
<STATE> 3
<MEAN> 39
 5.010907e+00 -8.344358e-01 2.532285e-01 -2.276508e+01 3.156759e+00 -3.787404e+00 -1.448262e+01 -2.222764e+00 -6.331341e+00 4.221045e+00 -3.726843e+00 -9.927261e-01 6.709894e+01 -5.491602e-01 7.387698e-01 3.514318e-01 1.382145e+00 6.361164e-01 -7.607313e-01 8.282053e-01 3.247174e-01 1.098873e+00 -4.687571e-01 -6.308367e-01 -7.817663e-02 -1.421374e+00 -2.157021e-02 3.086098e-01 7.871471e-02 3.845036e-01 -1.894331e-01 3.340604e-01 2.891896e-01 -2.053010e-02 4.192207e-03 -2.278582e-01 3.224256e-01 -7.132505e-02 -7.556208e-01
<VARIANCE> 39
 5.621860e+01 7.408064e+01 6.481821e+01 1.698212e+02 6.049548e+01 1.081252e+02 9.235327e+01 5.008425e+01 4.914367e+01 3.600889e+01 6.316473e+01 2.695450e+01 2.658269e+02 2.308542e+00 2.999290e+00 2.314184e+00 4.367080e+00 2.833982e+00 3.000499e+00 3.226684e+00 2.741223e+00 2.630443e+00 2.383868e+00 2.569609e+00 3.490777e+00 5.864152e+00 3.580279e-01 4.174158e-01 3.847587e-01 6.462179e-01 4.999610e-01 7.122355e-01 5.432497e-01 5.089008e-01 4.865990e-01 4.500161e-01 4.608459e-01 4.125462e-01 1.230941e+00
<GCONST> 1.328295e+02
<STATE> 4
<MEAN> 39
 3.692260e-01 6.285992e+00 2.833333e+00 -4.658331e+00 5.798572e+00 -4.284535e+00 -7.334476e+00 -1.653248e+00 -1.071136e+00 1.383793e+00 -1.763909e+00 -2.185722e+00 5.109823e+01 -3.932163e-01 3.000687e-01 -1.474057e-01 1.066135e+00 -6.180739e-01 8.057122e-01 8.753986e-01 4.289800e-01 8.754746e-01 1.260925e-01 5.096108e-01 2.975803e-01 -3.778188e+00 5.185318e-02 -3.834833e-01 -3.668520e-01 -5.675431e-01 -6.439346e-01 2.205982e-01 -4.330443e-01 -1.478528e-01 -2.062621e-02 1.247663e-01 3.430543e-01 -9.360915e-02 2.572079e-01
<VARIANCE> 39
 5.621860e+01 7.408064e+01 6.481821e+01 9.562053e+01 6.049548e+01 7.693067e+01 6.337886e+01 5.008425e+01 4.914367e+01 3.600889e+01 5.758591e+01 2.695450e+01 2.658269e+02 2.237194e+00 4.431564e+00 2.871299e+00 5.567156e+00 4.735233e+00 2.664105e+00 3.055400e+00 2.741223e+00 3.521730e+00 3.157574e+00 2.569609e+00 3.941864e+00 1.526086e+01 7.131793e-01 7.949842e-01 5.947353e-01 1.176733e+00 9.211793e-01 8.303692e-01 5.152466e-01 5.329924e-01 5.739865e-01 6.345206e-01 4.608459e-01 7.953290e-01 1.513096e+00
<GCONST> 1.387517e+02
<TRANSP> 5
 0.000000e+00 1.000000e+00 0.000000e+00 0.000000e+00 0.000000e+00
 0.000000e+00 8.342441e-01 1.657560e-01 0.000000e+00 0.000000e+00
 0.000000e+00 0.000000e+00 6.318121e-01 3.681879e-01 0.000000e+00
 0.000000e+00 0.000000e+00 0.000000e+00 5.412718e-01 4.587282e-01
 0.000000e+00 0.000000e+00 0.000000e+00 0.000000e+00 0.000000e+00
<ENDHMM>
~h "g"
<BEGINHMM>
<NUMSTATES> 5
<STATE> 2
<MEAN> 39
 -3.539621e+00 3.481854e+00 3.008139e+00 -3.917366e+00 -6.545904e+00 -6.996485e+00 -2.082150e+00 5.697510e-01 5.992767e-01 -9.099033e-01 -1.859936e+00 2.930999e-01 4.320367e+01 -1.158790e+00 4.011977e-01 -5.796452e-01 5.669088e-01 8.611679e-01 1.041145e+00 6.277828e-02 4.101928e-02 2.980533e-01 1.044274e-01 7.503309e-01 -5.565464e-02 -1.767647e+00 -1.930626e-02 -3.759554e-01 6.165408e-02 -1.398964e-01 1.222810e-01 -3.084123e-03 -7.354477e-02 -7.271250e-02 -2.907673e-01 -1.190497e-01 -2.104681e-01 -1.740047e-01 9.336670e-01
<VARIANCE> 39
 5.621860e+01 7.408064e+01 6.481821e+01 9.562053e+01 6.049548e+01 5.657086e+01 5.480392e+01 5.008425e+01 4.914367e+01 3.600889e+01 5.758591e+01 2.716288e+01 2.658269e+02 2.923268e+00 5.250878e+00 4.410489e+00 4.949667e+00 6.021684e+00 4.662738e+00 2.896521e+00 3.005562e+00 4.554057e+00 3.703820e+00 3.523462e+00 2.905733e+00 2.449327e+01 5.550072e-01 9.801567e-01 9.372898e-01 1.158714e+00 1.203698e+00 9.117125e-01 6.454707e-01 6.483901e-01 8.315019e-01 8.316808e-01 6.345026e-01 5.987961e-01 3.065088e+00
<GCONST> 1.433580e+02
<STATE> 3
<MEAN> 39
 -9.635017e+00 8.072189e-01 2.759967e+00 5.225744e-01 3.234082e+00 -1.995413e+00 -4.425807e+00 -1.165965e+00 -2.120740e+00 -2.839007e+00 -2.475199e+00 -3.736452e+00 5.062530e+01 2.010763e+00 5.851680e-01 1.353604e+00 1.613404e+00 -3.461540e-04 -3.668568e-02 -1.639087e+00 -1.597282e+00 -1.397460e+00 -1.108082e+00 -1.713886e+00 -1.645455e+00 1.135656e+00 1.110275e+00 5.126435e-01 3.615231e-01 -9.821326e-02 -1.003523e+00 -3.485782e-01 -1.890549e-01 -4.853232e-01 -5.825667e-02 1.257156e-01 -2.763205e-01 -3.316071e-02 -7.173846e-01
<VARIANCE> 39
 5.621860e+01 7.866036e+01 6.640047e+01 9.562053e+01 6.479318e+01 5.657086e+01 6.708227e+01 5.425655e+01 4.914367e+01 3.600889e+01 5.758591e+01 2.695450e+01 2.658269e+02 9.985298e+00 1.003528e+01 8.776364e+00 5.157734e+00 1.212945e+01 8.113869e+00 7.123636e+00 7.766507e+00 4.230607e+00 4.915910e+00 4.107380e+00 3.223356e+00 1.947301e+01 1.322379e+00 1.670320e+00 2.108870e+00 1.271563e+00 1.976549e+00 1.789323e+00 1.497148e+00 1.433821e+00 8.459412e-01 9.777173e-01 8.102875e-01 5.759667e-01 3.442206e+00
<GCONST> 1.553422e+02
<STATE> 4
<MEAN> 39
 4.838603e+00 4.439890e+00 6.841448e+00 2.339901e+00 -3.602203e+00 -3.320076e+00 -1.010125e+01 -9.455053e+00 -6.523710e+00 -4.435826e+00 -7.910283e+00 -8.774431e+00 5.218702e+01 9.110745e-01 -1.279059e+00 -6.187083e-01 -6.734587e-02 -4.091283e-01 3.302431e-02 -4.819182e-01 -4.428354e-01 -2.151032e-02 5.168055e-01 3.586526e-01 1.386901e-01 2.056541e+00 -4.383573e-01 -2.897153e-01 -2.750395e-01 -1.619435e-01 1.030186e-01 6.327279e-03 1.048880e-01 2.749183e-01 2.658481e-01 1.533344e-01 3.758696e-01 2.969857e-01 3.006786e-01
<VARIANCE> 39
 5.621860e+01 1.050882e+02 6.481821e+01 9.562053e+01 7.738210e+01 9.010258e+01 5.480392e+01 5.135935e+01 4.914367e+01 5.082878e+01 9.731368e+01 2.719216e+01 2.658269e+02 5.154478e+00 1.152998e+01 9.055668e+00 3.129044e+00 1.161729e+01 1.095336e+01 4.093825e+00 7.586073e+00 5.324882e+00 3.826256e+00 6.332553e+00 3.740704e+00 9.774811e+00 6.769174e-01 2.278434e+00 1.820447e+00 5.764760e-01 2.106116e+00 2.224104e+00 9.060296e-01 1.268351e+00 1.064912e+00 7.927547e-01 9.711636e-01 6.744527e-01 1.635960e+00
<GCONST> 1.534069e+02
<TRANSP> 5
 0.000000e+00 1.000000e+00 0.000000e+00 0.000000e+00 0.000000e+00
 0.000000e+00 8.615762e-01 1.384239e-01 0.000000e+00 0.000000e+00
 0.000000e+00 0.000000e+00 7.097592e-01 2.902408e-01 0.000000e+00
 0.000000e+00 0.000000e+00 0.000000e+00 8.536342e-01 1.463657e-01
 0.000000e+00 0.000000e+00 0.000000e+00 0.000000e+00 0.000000e+00
<ENDHMM>
~h "k"
<BEGINHMM>
<NUMSTATES> 5
<STATE> 2
<MEAN> 39
 -6.022882e+00 1.894161e+00 3.251464e+00 -1.585755e+00 2.929324e+00 -3.190332e+00 -2.665694e+00 5.544659e-01 -4.200144e-01 -7.902974e-01 -2.386922e+00 -1.724044e+00 4.913289e+01 -3.798742e-01 -1.892495e-01 -2.571410e-01 1.266288e-01 3.871660e-01 1.065963e-01 2.307423e-01 2.207734e-01 2.480108e-01 1.620440e-01 3.091155e-01 3.233321e-02 6.163612e-02 2.141102e-01 1.375978e-01 -3.504437e-02 -1.574609e-01 -3.042323e-01 4.873268e-02 1.010820e-01 -6.727496e-02 -2.615030e-02 3.391132e-02 4.209730e-02 4.340567e-02 -8.443868e-02
<VARIANCE> 39
 6.602779e+01 7.408064e+01 6.481821e+01 9.562053e+01 7.420835e+01 5.961990e+01 5.480392e+01 5.008425e+01 4.914367e+01 5.808852e+01 5.758591e+01 3.541441e+01 2.658269e+02 6.795336e+00 6.434931e+00 6.045126e+00 5.038912e+00 7.280477e+00 5.278345e+00 5.469886e+00 4.447573e+00 4.627582e+00 4.256225e+00 5.034856e+00 3.368213e+00 1.631885e+01 1.101032e+00 1.287440e+00 1.128799e+00 8.996301e-01 1.306230e+00 1.008031e+00 1.005577e+00 8.544039e-01 8.390980e-01 8.128694e-01 8.590930e-01 6.829126e-01 2.588687e+00
<GCONST> 1.495380e+02
<STATE> 3
<MEAN> 39
 -5.038628e+00 3.322454e+00 3.635347e+00 -1.069336e+00 5.649621e+00 -8.764316e-01 2.781411e+00 1.074611e+00 1.831612e+00 -3.741429e-01 -3.938650e-01 -4.350163e-01 4.677367e+01 4.042299e-01 7.864894e-01 -9.690875e-02 -3.256346e-02 -8.283184e-01 3.303578e-01 4.343413e-01 -2.262226e-01 -2.190759e-01 -1.267217e-01 6.347154e-01 1.644819e-01 -1.394719e+00 1.716199e-01 1.992750e-02 5.550064e-02 -1.049897e-01 -2.645295e-01 -1.366188e-01 -3.159084e-01 -1.283813e-01 -3.136006e-01 -1.393486e-01 -2.300162e-01 -8.784015e-02 1.103947e-01
<VARIANCE> 39
 5.621860e+01 7.408064e+01 6.481821e+01 9.562053e+01 7.208580e+01 5.657086e+01 5.480392e+01 5.008425e+01 4.914367e+01 4.406459e+01 5.758591e+01 2.699620e+01 2.658269e+02 2.796162e+00 2.592087e+00 2.813296e+00 3.129044e+00 3.716813e+00 2.664105e+00 3.424369e+00 3.134908e+00 3.270357e+00 2.704892e+00 3.335493e+00 2.614408e+00 4.984552e+00 3.979806e-01 4.292560e-01 5.113949e-01 5.025513e-01 7.110412e-01 5.056498e-01 5.566354e-01 5.089008e-01 5.883050e-01 4.977092e-01 5.892269e-01 5.414998e-01 6.789643e-01
<GCONST> 1.321928e+02
<STATE> 4
<MEAN> 39
 -5.922322e+00 5.024717e+00 1.105805e+00 -1.178418e+00 1.777169e-02 -1.729594e+00 -4.545896e-01 5.282944e-01 -2.421963e-01 -1.523594e+00 3.739072e-01 -1.175276e+00 3.645448e+01 3.790317e-02 1.392019e-02 3.013595e-02 6.547868e-03 -3.858868e-02 1.462433e-02 -2.962230e-02 -1.499575e-02 -3.407968e-02 2.784878e-04 -1.737708e-03 -4.745859e-03 -6.404581e-02 1.351909e-02 -5.015371e-02 -1.033594e-02 -1.044086e-02 6.064927e-02 -1.379502e-03 -1.674250e-02 1.093413e-02 -1.057842e-02 1.352796e-02 -2.720761e-02 -8.546119e-03 1.179715e-01
<VARIANCE> 39
 5.621860e+01 7.408064e+01 6.481821e+01 9.562053e+01 6.049548e+01 5.657086e+01 5.480392e+01 5.008425e+01 4.914367e+01 3.600889e+01 5.758591e+01 2.695450e+01 2.658269e+02 2.237194e+00 2.592087e+00 2.314184e+00 3.129044e+00 2.833982e+00 2.664105e+00 2.646528e+00 2.741223e+00 2.630443e+00 2.383868e+00 2.569609e+00 1.958500e+00 4.984552e+00 3.580279e-01 4.174158e-01 3.847587e-01 5.025513e-01 4.999610e-01 4.797978e-01 4.820749e-01 5.089008e-01 4.798635e-01 4.500161e-01 4.608459e-01 3.767788e-01 6.789643e-01
<GCONST> 1.279592e+02
<TRANSP> 5
 0.000000e+00 1.000000e+00 0.000000e+00 0.000000e+00 0.000000e+00
 0.000000e+00 7.753600e-01 2.246400e-01 0.000000e+00 0.000000e+00
 0.000000e+00 0.000000e+00 4.988184e-01 5.011816e-01 0.000000e+00
 0.000000e+00 0.000000e+00 0.000000e+00 9.415773e-01 5.842273e-02
 0.000000e+00 0.000000e+00 0.000000e+00 0.000000e+00 0.000000e+00
<ENDHMM>
~h "l"
<BEGINHMM>
<NUMSTATES> 5
<STATE> 2
<MEAN> 39
 5.077613e+00 -1.227402e+00 1.685313e+00 -1.824938e+01 2.001084e-01 -3.001308e+00 -1.006488e+01 -4.941972e+00 -4.346815e+00 -2.300280e+00 -5.911180e+00 -4.653435e+00 6.389629e+01 -2.586938e-01 7.328558e-01 1.738599e-01 1.149990e+00 2.321641e-01 2.732834e-01 3.804502e-01 3.619849e-02 -1.465663e-01 -1.733802e-01 4.191390e-01 -2.763949e-01 -9.994200e-01 -1.370817e-01 6.667388e-02 -5.773562e-03 2.617051e-01 2.294662e-02 3.128068e-02 1.963587e-01 4.564619e-02 -4.535883e-02 1.449703e-01 6.817501e-02 6.935240e-02 -1.392958e-01
<VARIANCE> 39
 5.621860e+01 7.890247e+01 8.972081e+01 1.177612e+02 6.287182e+01 7.636171e+01 7.565671e+01 7.452904e+01 9.794209e+01 6.836129e+01 5.758591e+01 7.102264e+01 2.658269e+02 2.237194e+00 2.592087e+00 3.069903e+00 6.336247e+00 2.833982e+00 2.857402e+00 3.448958e+00 3.626936e+00 3.545873e+00 3.463515e+00 2.829254e+00 3.041487e+00 4.984552e+00 3.580279e-01 4.174158e-01 4.887184e-01 5.372550e-01 4.999610e-01 4.797978e-01 6.173077e-01 5.652817e-01 6.192406e-01 5.941163e-01 4.795780e-01 5.495617e-01 6.789643e-01
<GCONST> 1.363336e+02
<STATE> 3
<MEAN> 39
 5.081687e+00 1.132125e+00 5.254923e+00 -1.265238e+01 -5.625396e-01 -5.921751e-01 -9.065210e+00 -3.414799e+00 -8.123153e+00 1.881593e+00 -2.353634e+00 -6.596737e+00 6.020259e+01 -5.619285e-01 7.205456e-01 -1.791576e-01 1.086133e+00 5.859854e-01 -1.626295e-01 8.226172e-01 1.641760e-01 -5.604926e-02 4.131190e-01 3.242240e-01 2.272623e-01 -1.129133e+00 -1.218574e-01 2.298265e-02 -4.004167e-02 4.457453e-02 -6.227616e-02 -8.156110e-02 6.598784e-02 3.970583e-02 1.039965e-01 -7.955290e-03 1.725055e-02 1.533108e-01 -5.864812e-02
<VARIANCE> 39
 5.621860e+01 7.408064e+01 8.309335e+01 1.162449e+02 7.148091e+01 7.809867e+01 5.892492e+01 5.008425e+01 6.896220e+01 8.039324e+01 8.513168e+01 5.337428e+01 2.658269e+02 2.237194e+00 2.592087e+00 2.631045e+00 4.584617e+00 3.186105e+00 2.703939e+00 3.204972e+00 3.086474e+00 3.462192e+00 3.355167e+00 3.103615e+00 2.620420e+00 4.984552e+00 3.580279e-01 4.174158e-01 4.311148e-01 7.510841e-01 6.315727e-01 4.797978e-01 5.345362e-01 5.121416e-01 5.391384e-01 5.936326e-01 4.924993e-01 4.555574e-01 6.789643e-01
<GCONST> 1.347383e+02
<STATE> 4
<MEAN> 39
 -4.354927e+00 3.983742e+00 1.551616e+00 -3.408988e+00 8.615193e-01 -1.136700e+00 3.070347e-01 -9.381037e-01 -2.851735e+00 -1.287575e+00 -7.998114e-01 -1.566397e+00 4.022504e+01 -5.795143e-02 1.745884e-01 4.501523e-02 3.395606e-01 3.078415e-02 3.657146e-02 1.352932e-01 4.461269e-02 4.243194e-02 -6.364858e-02 1.057300e-01 9.657766e-02 -3.075889e-01 4.538840e-02 3.053889e-02 7.316919e-02 -3.185678e-02 -4.940752e-02 2.345474e-02 -6.182038e-02 -2.167200e-02 -3.277554e-02 -6.125534e-03 -2.925430e-02 -2.115117e-02 3.644215e-02
<VARIANCE> 39
 5.621860e+01 7.408064e+01 6.481821e+01 9.562053e+01 6.049548e+01 5.657086e+01 5.480392e+01 5.008425e+01 4.914367e+01 3.600889e+01 5.758591e+01 2.695450e+01 2.658269e+02 2.237194e+00 2.592087e+00 2.314184e+00 3.129044e+00 2.833982e+00 2.664105e+00 2.646528e+00 2.741223e+00 2.630443e+00 2.515358e+00 2.569609e+00 1.958500e+00 4.984552e+00 3.580279e-01 4.174158e-01 3.847587e-01 5.025513e-01 4.999610e-01 4.797978e-01 4.820749e-01 5.089008e-01 4.798635e-01 4.564186e-01 4.608459e-01 3.767788e-01 6.789643e-01
<GCONST> 1.280270e+02
<TRANSP> 5
 0.000000e+00 1.000000e+00 0.000000e+00 0.000000e+00 0.000000e+00
 0.000000e+00 6.647075e-01 3.352925e-01 0.000000e+00 0.000000e+00
 0.000000e+00 0.000000e+00 5.518987e-01 4.481013e-01 0.000000e+00
 0.000000e+00 0.000000e+00 0.000000e+00 8.751990e-01 1.248009e-01
 0.000000e+00 0.000000e+00 0.000000e+00 0.000000e+00 0.000000e+00
<ENDHMM>
~h "m"
<BEGINHMM>
<NUMSTATES> 5
<STATE> 2
<MEAN> 39
 -6.567718e+00 5.210720e+00 6.270364e+00 -1.039145e+00 2.582435e+00 -3.197493e+00 -1.280805e+00 -2.423805e+00 -2.135964e+00 -1.946579e+00 -3.059509e+00 -2.811241e+00 5.412713e+01 1.111006e+00 -8.916019e-01 5.905754e-01 -8.864692e-01 -5.491612e-01 -7.759483e-01 -9.548275e-01 -4.867352e-01 -8.636284e-01 -1.758789e-01 -6.426727e-01 -1.188859e-01 1.842001e+00 3.641971e-01 -3.094294e-01 5.236080e-02 -3.191801e-01 -4.872417e-01 -3.195690e-01 -3.025020e-01 -2.013042e-01 -2.641339e-01 -1.038782e-02 -3.651085e-01 -8.962560e-02 3.051857e-01
<VARIANCE> 39
 6.166775e+01 7.408064e+01 6.481821e+01 9.562053e+01 6.049548e+01 5.657086e+01 5.480392e+01 6.098260e+01 4.914367e+01 3.600889e+01 5.758591e+01 2.805929e+01 2.658269e+02 7.785086e+00 5.673470e+00 5.431919e+00 7.415527e+00 6.163089e+00 5.132712e+00 6.586341e+00 6.106127e+00 5.039354e+00 4.096715e+00 5.454263e+00 3.463886e+00 1.630153e+01 1.041755e+00 1.061933e+00 8.973539e-01 1.221359e+00 9.732527e-01 8.100525e-01 1.103381e+00 9.285762e-01 8.912919e-01 7.723097e-01 7.600082e-01 6.626146e-01 2.277656e+00
<GCONST> 1.486702e+02
<STATE> 3
<MEAN> 39
 4.213563e+00 -4.470182e-01 1.061316e+01 -4.493565e+00 -5.502170e+00 -6.396968e+00 -1.046939e+01 -6.275403e+00 -7.906413e+00 -1.168224e+00 -7.528198e+00 -5.972031e+00 6.125668e+01 7.534258e-01 -1.742496e+00 -8.690007e-02 -1.860632e+00 -1.024538e+00 -8.948889e-01 -7.136242e-01 3.561982e-01 -6.012974e-01 3.359354e-01 -7.083777e-01 -7.344072e-02 2.073696e+00 -4.556465e-01 1.002289e-02 -2.761561e-01 -1.216981e-01 3.484282e-01 2.281125e-01 5.296009e-01 3.954721e-01 2.880096e-01 -1.247643e-02 2.044964e-01 1.844117e-01 -4.720094e-02
<VARIANCE> 39
 5.621860e+01 7.408064e+01 6.481821e+01 9.562053e+01 6.049548e+01 1.132792e+02 5.480392e+01 7.067223e+01 4.914367e+01 5.373319e+01 6.776047e+01 4.701649e+01 2.658269e+02 4.268181e+00 4.006526e+00 5.023471e+00 7.637990e+00 4.797702e+00 4.516867e+00 5.426586e+00 6.078009e+00 4.066644e+00 4.727187e+00 5.799604e+00 5.412135e+00 5.721462e+00 5.871571e-01 6.797016e-01 7.021694e-01 9.648943e-01 6.682909e-01 6.306301e-01 6.826791e-01 1.011303e+00 6.278377e-01 8.183684e-01 8.996084e-01 8.065273e-01 8.392334e-01
<GCONST> 1.448666e+02
<STATE> 4
<MEAN> 39
 2.316815e+00 -8.210786e+00 6.854793e+00 -1.759642e+01 -1.256284e+00 -1.148560e+01 -6.891438e+00 -3.690043e+00 -9.049042e+00 -3.959373e+00 -1.303734e+01 -2.975860e+00 7.064702e+01 -2.123253e-01 3.628703e-01 -2.405659e-01 2.606559e-01 2.121737e-01 9.986894e-02 4.031231e-01 7.300789e-02 1.754954e-01 -3.702301e-01 2.110750e-01 5.566531e-02 -1.958273e-01 -1.024232e-01 3.187636e-01 -4.061063e-02 3.694244e-01 6.855407e-02 1.338921e-01 3.313769e-02 -1.768177e-02 1.032454e-01 2.176325e-02 1.944241e-01 -4.461132e-02 -2.445683e-01
<VARIANCE> 39
 5.621860e+01 7.408064e+01 6.481821e+01 9.562053e+01 1.103309e+02 7.509861e+01 5.615616e+01 5.608207e+01 4.914367e+01 6.343843e+01 5.758591e+01 4.021235e+01 2.658269e+02 2.237194e+00 3.575365e+00 2.314184e+00 5.039178e+00 2.833982e+00 2.664105e+00 2.646528e+00 2.884296e+00 2.630443e+00 2.670175e+00 2.667336e+00 2.746801e+00 4.984552e+00 3.580279e-01 4.354744e-01 4.016885e-01 7.166629e-01 4.999610e-01 4.797978e-01 4.820749e-01 5.782551e-01 4.798635e-01 5.245914e-01 4.608459e-01 5.207641e-01 6.789643e-01
<GCONST> 1.323303e+02
<TRANSP> 5
 0.000000e+00 1.000000e+00 0.000000e+00 0.000000e+00 0.000000e+00
 0.000000e+00 7.416203e-01 2.583797e-01 0.000000e+00 0.000000e+00
 0.000000e+00 0.000000e+00 7.564745e-01 2.435255e-01 0.000000e+00
 0.000000e+00 0.000000e+00 0.000000e+00 9.001381e-01 9.986190e-02
 0.000000e+00 0.000000e+00 0.000000e+00 0.000000e+00 0.000000e+00
<ENDHMM>
~h "n"
<BEGINHMM>
<NUMSTATES> 5
<STATE> 2
<MEAN> 39
 -6.870278e-01 -4.239743e+00 3.637074e+00 -6.747915e+00 -4.428507e+00 -6.653587e+00 -3.636225e+00 3.608259e+00 -3.336770e+00 -2.634830e+00 -5.297599e+00 -3.739879e-01 6.097284e+01 4.661284e-01 -1.474789e+00 -1.880036e-01 -7.321528e-01 -3.362088e-01 5.547526e-01 -2.695865e-02 6.238345e-01 -7.748242e-01 -3.679223e-01 -2.697497e-01 -3.913405e-01 5.039070e-01 -2.897306e-01 3.841032e-01 -9.101181e-02 2.598664e-01 2.073066e-01 2.793218e-01 1.471528e-01 -2.992979e-01 3.724327e-02 -5.817642e-02 2.734168e-01 -4.307688e-02 -1.978616e-01
<VARIANCE> 39
 6.017982e+01 7.408064e+01 6.481821e+01 9.585744e+01 7.406171e+01 5.657086e+01 5.480392e+01 5.513549e+01 4.914367e+01 3.843492e+01 8.031549e+01 2.723026e+01 2.691117e+02 3.795990e+00 4.214116e+00 2.347421e+00 3.464628e+00 3.865140e+00 2.664105e+00 3.433264e+00 3.892778e+00 3.692033e+00 2.953473e+00 3.031113e+00 2.504408e+00 4.984552e+00 7.692627e-01 9.368826e-01 4.353434e-01 9.545688e-01 9.009255e-01 5.073043e-01 6.293088e-01 5.485157e-01 5.828471e-01 5.107857e-01 7.539148e-01 4.474795e-01 8.090368e-01
<GCONST> 1.362501e+02
<STATE> 3
<MEAN> 39
 5.136398e+00 -9.818714e+00 6.324432e+00 -9.304051e+00 -7.400865e+00 -4.737246e+00 -5.262642e+00 6.530771e+00 -7.610123e+00 -3.635550e+00 -8.835777e+00 -3.354825e+00 6.971351e+01 -5.179976e-02 2.964223e-01 1.083524e-01 1.986484e-01 1.857012e-01 2.673422e-01 1.543747e-01 -1.510479e-01 -2.168691e-02 -1.118095e-01 7.061585e-02 3.707878e-02 -5.230195e-01 -4.754123e-02 2.305161e-01 1.967086e-02 1.437582e-01 5.118461e-02 -4.499367e-02 1.589418e-03 -1.646874e-01 1.193159e-01 6.814224e-02 7.538020e-02 1.948022e-02 -1.753123e-01
<VARIANCE> 39
 5.621860e+01 7.408064e+01 6.481821e+01 9.562053e+01 7.877573e+01 5.657086e+01 5.480392e+01 7.416802e+01 5.522940e+01 4.145714e+01 5.758591e+01 3.404591e+01 2.658269e+02 2.237194e+00 2.592087e+00 2.314184e+00 3.129044e+00 2.833982e+00 2.664105e+00 2.646528e+00 2.741223e+00 2.630443e+00 2.383868e+00 2.569609e+00 1.958500e+00 4.984552e+00 3.580279e-01 4.174158e-01 3.847587e-01 5.025513e-01 4.999610e-01 4.797978e-01 4.820749e-01 5.089008e-01 4.798635e-01 4.500161e-01 4.608459e-01 3.767788e-01 6.789643e-01
<GCONST> 1.291071e+02
<STATE> 4
<MEAN> 39
 -4.120168e+00 3.320677e+00 2.357022e+00 -2.129451e+00 -7.818189e-01 -1.477780e+00 4.483925e-01 4.829183e-01 -2.579713e+00 -2.523462e+00 4.624718e-01 -4.949611e-01 3.965218e+01 -6.339225e-02 1.095417e-01 2.995560e-02 1.034605e-01 5.215565e-02 8.536955e-02 1.565404e-02 -1.446424e-01 4.981273e-02 4.120415e-02 8.703254e-03 -1.142326e-02 -1.635464e-01 2.826447e-02 -2.616868e-02 5.914312e-02 -3.102307e-02 -2.103386e-02 -3.006908e-02 -2.573972e-02 -3.310945e-02 -2.157226e-02 2.608830e-02 -5.234854e-02 -1.671297e-02 6.319750e-02
<VARIANCE> 39
 5.621860e+01 7.408064e+01 6.481821e+01 9.562053e+01 6.049548e+01 5.657086e+01 5.480392e+01 5.008425e+01 4.914367e+01 3.600889e+01 5.758591e+01 2.695450e+01 2.658269e+02 2.237194e+00 2.592087e+00 2.314184e+00 3.129044e+00 2.833982e+00 2.664105e+00 2.646528e+00 2.741223e+00 2.630443e+00 2.383868e+00 2.569609e+00 1.958500e+00 4.984552e+00 3.580279e-01 4.174158e-01 3.847587e-01 5.025513e-01 4.999610e-01 4.797978e-01 4.820749e-01 5.089008e-01 4.798635e-01 4.500161e-01 4.608459e-01 3.767788e-01 6.789643e-01
<GCONST> 1.279592e+02
<TRANSP> 5
 0.000000e+00 1.000000e+00 0.000000e+00 0.000000e+00 0.000000e+00
 0.000000e+00 4.764885e-01 5.235115e-01 0.000000e+00 0.000000e+00
 0.000000e+00 0.000000e+00 8.614969e-01 1.385030e-01 0.000000e+00
 0.000000e+00 0.000000e+00 0.000000e+00 9.201799e-01 7.982005e-02
 0.000000e+00 0.000000e+00 0.000000e+00 0.000000e+00 0.000000e+00
<ENDHMM>
~h "p"
<BEGINHMM>
<NUMSTATES> 5
<STATE> 2
<MEAN> 39
 -2.821116e+00 -4.144388e+00 2.941109e-01 -1.008885e+01 -3.767283e-01 -5.920761e+00 -2.353629e+00 -6.073741e+00 -2.101202e+00 -4.414077e+00 -5.947774e+00 -4.711883e+00 6.116676e+01 7.210188e-01 -2.341341e-01 2.938790e-01 -3.461280e-01 1.953068e-01 2.850815e-01 -1.241849e-01 -1.754286e-01 4.011252e-02 1.220895e-02 -2.587255e-01 -4.108198e-01 1.331861e+00 -1.224517e-02 3.103301e-01 1.531171e-01 2.471340e-01 1.081685e-01 1.437063e-01 -5.187378e-02 2.107074e-01 1.280100e-01 1.013216e-01 1.012693e-01 2.182288e-01 -5.846705e-01
<VARIANCE> 39
 5.621860e+01 1.053368e+02 6.481821e+01 1.107163e+02 8.493007e+01 7.676297e+01 7.272364e+01 8.164663e+01 6.562222e+01 7.887014e+01 6.023859e+01 4.396839e+01 2.774713e+02 3.387889e+00 8.732286e+00 3.136305e+00 9.079516e+00 6.304633e+00 6.612947e+00 6.571404e+00 8.378069e+00 7.350894e+00 7.687032e+00 4.037452e+00 3.968732e+00 1.693033e+01 6.213877e-01 1.284924e+00 5.408099e-01 1.330767e+00 1.069220e+00 1.042267e+00 1.198908e+00 1.558371e+00 1.530346e+00 1.281401e+00 6.203046e-01 8.676463e-01 2.536256e+00
<GCONST> 1.540494e+02
<STATE> 3
<MEAN> 39
 -6.068553e+00 4.256765e+00 3.051169e+00 -1.980379e+00 2.926876e+00 1.476020e+00 -2.335418e+00 9.111975e-01 2.288006e+00 6.210228e-01 -5.406349e-01 -2.733716e+00 4.876831e+01 -4.253925e-02 -1.392994e-01 3.999186e-01 -1.875657e-02 1.872053e-01 -1.298284e-01 -2.201591e-01 2.656314e-01 -3.011401e-01 -2.872903e-01 -2.357892e-01 2.009449e-01 4.537765e-01 2.733411e-01 -3.786052e-01 -3.157963e-02 -3.020374e-01 -2.573378e-01 -3.195099e-01 -1.139495e-01 -2.110546e-01 -2.827689e-01 -1.241609e-01 -2.081579e-01 -9.172170e-02 3.447840e-01
<VARIANCE> 39
 8.469401e+01 7.408064e+01 6.481821e+01 9.562053e+01 6.049548e+01 5.657086e+01 5.480392e+01 5.008425e+01 4.914367e+01 3.765385e+01 5.758591e+01 3.184329e+01 2.658269e+02 7.891397e+00 7.005741e+00 6.059580e+00 6.505425e+00 6.234572e+00 5.130037e+00 4.273040e+00 5.182665e+00 5.261702e+00 4.433267e+00 3.971190e+00 3.908731e+00 2.332351e+01 1.205741e+00 1.224922e+00 1.282240e+00 1.213721e+00 1.212414e+00 9.594308e-01 8.840801e-01 1.014192e+00 9.025905e-01 9.701906e-01 7.157761e-01 7.390993e-01 3.229603e+00
<GCONST> 1.503973e+02
<STATE> 4
<MEAN> 39
 2.355454e+00 -5.102310e+00 4.171711e+00 -8.647470e+00 -3.938262e-01 -4.042217e+00 -4.610569e+00 6.037590e-01 -5.704725e+00 -3.749032e+00 -6.408037e+00 -3.186333e+00 6.276392e+01 1.357603e+00 -8.982879e-01 3.762321e-01 -8.731934e-01 -6.642768e-01 -4.817711e-01 -4.500758e-02 8.014439e-02 -6.411470e-01 -3.750563e-01 -4.199859e-01 -1.243439e-01 1.626988e+00 -5.484688e-01 3.933523e-01 -2.877330e-02 1.403439e-01 8.859730e-02 2.532620e-01 1.382595e-01 6.529576e-02 3.551682e-01 2.762849e-01 3.262480e-01 1.254044e-02 -5.335823e-01
<VARIANCE> 39
 5.621860e+01 8.926190e+01 6.481821e+01 9.562053e+01 6.503656e+01 5.679875e+01 5.480392e+01 8.062474e+01 4.914367e+01 3.600889e+01 5.758591e+01 2.695450e+01 2.658269e+02 5.959899e+00 8.124745e+00 4.087889e+00 6.412755e+00 5.798624e+00 4.444132e+00 3.754853e+00 5.441380e+00 5.859782e+00 3.660155e+00 5.569152e+00 2.583040e+00 1.060787e+01 6.855569e-01 9.857541e-01 5.545165e-01 8.834351e-01 8.567876e-01 5.403202e-01 6.262946e-01 8.874176e-01 7.865841e-01 6.448620e-01 7.831458e-01 3.955477e-01 1.414600e+00
<GCONST> 1.434860e+02
<TRANSP> 5
 0.000000e+00 1.000000e+00 0.000000e+00 0.000000e+00 0.000000e+00
 0.000000e+00 6.848873e-01 3.151127e-01 0.000000e+00 0.000000e+00
 0.000000e+00 0.000000e+00 7.645668e-01 2.354332e-01 0.000000e+00
 0.000000e+00 0.000000e+00 0.000000e+00 6.767062e-01 3.232938e-01
 0.000000e+00 0.000000e+00 0.000000e+00 0.000000e+00 0.000000e+00
<ENDHMM>
~h "r"
<BEGINHMM>
<NUMSTATES> 5
<STATE> 2
<MEAN> 39
 7.692209e+00 -5.832419e+00 7.418646e-01 1.942919e+00 -1.019530e+01 -3.911278e-01 -1.185430e+01 -6.232125e+00 1.450763e+00 -7.364017e-01 -2.400258e-01 -6.265940e+00 6.588075e+01 2.299372e-01 -5.146079e-01 -8.180931e-02 -3.446427e-01 -7.701240e-01 2.638155e-01 -7.057487e-01 1.963564e-01 4.859063e-01 2.489722e-02 5.328149e-01 -1.244311e-01 1.338312e+00 -3.980570e-02 1.849148e-01 2.676382e-01 -8.308715e-02 2.300046e-02 7.048462e-02 1.690478e-02 -1.892359e-02 -1.599232e-01 2.731692e-02 -3.377281e-02 1.490323e-02 -2.261336e-01
<VARIANCE> 39
 6.117678e+01 7.408064e+01 6.481821e+01 9.562053e+01 1.287048e+02 6.470647e+01 5.480392e+01 7.813387e+01 7.953718e+01 3.600889e+01 5.758591e+01 3.675617e+01 2.658269e+02 2.237194e+00 3.418113e+00 2.314184e+00 3.129044e+00 4.525397e+00 4.935160e+00 2.966657e+00 2.827464e+00 3.087547e+00 2.383868e+00 2.569609e+00 1.958500e+00 8.134495e+00 3.580279e-01 7.098174e-01 5.181925e-01 5.025513e-01 9.473634e-01 9.297637e-01 6.348225e-01 6.512198e-01 5.115440e-01 4.500161e-01 4.608459e-01 4.228408e-01 8.439334e-01
<GCONST> 1.353737e+02
<STATE> 3
<MEAN> 39
 1.108278e+00 -4.440285e+00 5.879596e+00 -2.490635e+00 -5.656200e+00 -2.124543e+00 -1.127556e+01 -4.066326e+00 -1.900883e+00 -1.303226e-01 -2.280502e+00 -4.550713e+00 6.598162e+01 1.092812e+00 -7.090592e-02 1.631496e+00 -9.368344e-01 -1.426321e+00 -8.782259e-01 -8.831729e-01 -1.282497e+00 -1.237950e+00 5.838469e-01 -6.392583e-01 3.205423e-01 4.045218e-01 1.926509e-02 -6.239567e-02 -1.196061e-02 -2.657886e-01 1.843758e-01 -4.522078e-02 5.234409e-02 7.791562e-02 -2.148997e-01 -1.067464e-02 -2.716686e-01 8.702198e-02 -3.870515e-01
<VARIANCE> 39
 8.404610e+01 7.408064e+01 6.481821e+01 9.562053e+01 9.929728e+01 7.371894e+01 6.938044e+01 9.882314e+01 5.878891e+01 4.010305e+01 5.758591e+01 2.695450e+01 2.658269e+02 5.756963e+00 5.681364e+00 5.122628e+00 8.374050e+00 8.142594e+00 7.866249e+00 5.956747e+00 5.824765e+00 4.552850e+00 4.417592e+00 4.320646e+00 3.271719e+00 4.984552e+00 1.274765e+00 1.197986e+00 9.152237e-01 1.086515e+00 1.412344e+00 1.333368e+00 1.409595e+00 1.305799e+00 7.401094e-01 7.796807e-01 7.406865e-01 4.905751e-01 7.932931e-01
<GCONST> 1.496490e+02
<STATE> 4
<MEAN> 39
 5.928867e+00 -6.757248e+00 4.951313e+00 -2.046755e+01 -9.644938e+00 -3.512789e+00 -2.282278e+01 -8.787720e+00 -9.066838e+00 4.500586e+00 -9.939286e+00 -1.746986e+00 7.071835e+01 -2.182021e-01 6.564173e-01 -1.110456e-01 -6.434941e-01 8.835461e-01 1.362416e-01 4.878122e-01 6.074055e-01 -4.257499e-01 -2.263447e-01 1.962680e-01 3.320444e-01 -3.541557e-01 -1.668507e-01 3.611927e-01 -7.224268e-02 5.288232e-01 2.291068e-01 -4.951913e-03 4.511271e-01 2.802553e-02 2.412313e-01 -2.423002e-01 1.760196e-01 -1.026118e-01 -3.640863e-01
<VARIANCE> 39
 5.621860e+01 7.408064e+01 6.481821e+01 1.088261e+02 6.049548e+01 6.865683e+01 9.519794e+01 5.008425e+01 4.914367e+01 3.826749e+01 7.083406e+01 2.695450e+01 2.658269e+02 2.237194e+00 2.592087e+00 2.314184e+00 4.930630e+00 2.833982e+00 2.672986e+00 5.075755e+00 2.741223e+00 2.630443e+00 2.669835e+00 2.582405e+00 1.958500e+00 4.984552e+00 3.580279e-01 4.174158e-01 3.847587e-01 6.538757e-01 4.999610e-01 4.797978e-01 5.289393e-01 5.089008e-01 4.798635e-01 4.500161e-01 4.608459e-01 3.767788e-01 6.789643e-01
<GCONST> 1.306859e+02
<TRANSP> 5
 0.000000e+00 1.000000e+00 0.000000e+00 0.000000e+00 0.000000e+00
 0.000000e+00 8.084916e-01 1.915083e-01 0.000000e+00 0.000000e+00
 0.000000e+00 0.000000e+00 7.435121e-01 2.564879e-01 0.000000e+00
 0.000000e+00 0.000000e+00 0.000000e+00 8.102005e-01 1.897994e-01
 0.000000e+00 0.000000e+00 0.000000e+00 0.000000e+00 0.000000e+00
<ENDHMM>
~h "s"
<BEGINHMM>
<NUMSTATES> 5
<STATE> 2
<MEAN> 39
 -6.266484e+00 8.352206e+00 4.638187e+00 -2.021168e+00 -1.603168e+00 -6.147367e+00 2.323655e-01 -2.344436e+00 -3.337743e+00 -3.489886e+00 -2.840924e+00 -2.419657e+00 5.673447e+01 -3.450780e+00 1.641073e+00 -1.449764e+00 1.666438e+00 1.548690e+00 1.252583e+00 1.349314e+00 2.427917e-01 9.989974e-01 -6.886467e-02 1.460456e+00 -1.273231e-02 9.172741e-01 -3.601679e-01 -3.037920e-01 -1.591254e-01 -4.343386e-01 -1.363215e-01 4.714234e-02 -1.450432e-01 1.358390e-01 2.478099e-02 1.737327e-01 1.791420e-02 1.255484e-01 2.744900e-01
<VARIANCE> 39
 5.820904e+01 7.408064e+01 6.481821e+01 9.562053e+01 6.049548e+01 5.657086e+01 5.480392e+01 5.625064e+01 4.914367e+01 3.679513e+01 5.758591e+01 3.670352e+01 2.658269e+02 4.767577e+00 7.283221e+00 4.345334e+00 8.541093e+00 5.278139e+00 6.395961e+00 4.369359e+00 4.881139e+00 3.580279e+00 4.097640e+00 4.606357e+00 3.539875e+00 1.277858e+01 9.893875e-01 1.243353e+00 6.651577e-01 1.086396e+00 8.395014e-01 9.806929e-01 9.315974e-01 8.058438e-01 6.531717e-01 6.564102e-01 7.475228e-01 6.652860e-01 1.411941e+00
<GCONST> 1.456556e+02
<STATE> 3
<MEAN> 39
 -1.900015e+01 1.273188e+01 -4.478904e-01 -7.674164e-01 3.858451e+00 -3.551779e+00 5.247380e+00 4.518182e-01 -2.241931e-01 -1.380502e+00 1.573231e+00 -5.970606e-01 6.176447e+01 -1.667116e+00 4.297019e-01 -9.693204e-01 -1.840216e-01 4.859142e-03 1.786177e-01 -1.363765e-01 -9.043220e-02 8.548364e-02 1.016923e-01 2.017526e-01 9.211998e-02 6.237881e-01 7.508906e-01 -2.394216e-01 2.815207e-01 -1.492129e-01 -3.622784e-01 -2.417380e-01 -3.140000e-01 -1.611064e-01 -2.376274e-01 -9.361012e-02 -2.782340e-01 -9.662836e-02 -2.976309e-01
<VARIANCE> 39
 5.621860e+01 7.408064e+01 6.481821e+01 9.562053e+01 6.049548e+01 5.657086e+01 5.480392e+01 5.008425e+01 4.914367e+01 3.600889e+01 5.758591e+01 2.695450e+01 2.658269e+02 2.474134e+00 2.592087e+00 2.317533e+00 3.129044e+00 2.833982e+00 2.664105e+00 2.646528e+00 2.741223e+00 2.630443e+00 2.383868e+00 2.569609e+00 1.958500e+00 4.984552e+00 4.445853e-01 4.419500e-01 3.896453e-01 5.040501e-01 5.390558e-01 6.253226e-01 5.124375e-01 5.089008e-01 4.798635e-01 4.500161e-01 5.013018e-01 3.767788e-01 6.789643e-01
<GCONST> 1.288360e+02
<STATE> 4
<MEAN> 39
 -1.998357e+01 1.180302e+01 -5.138176e+00 1.959012e+00 -1.456748e+00 -1.201240e+00 2.022136e+00 -8.259834e-01 -9.148738e-01 -2.548273e+00 1.409556e+00 -1.682651e+00 6.098547e+01 3.918425e-01 -2.231219e-02 3.492410e-01 3.830234e-02 -1.628248e-01 -3.674499e-02 -1.413309e-01 -9.914375e-02 -6.817757e-02 3.758643e-02 -1.127134e-01 -4.059105e-02 -1.765547e-01 3.900267e-01 -1.168591e-01 2.898888e-01 -4.857904e-02 -5.764017e-03 -6.578383e-02 -3.598457e-02 -2.139109e-02 -2.774533e-02 2.521201e-02 -5.415950e-02 1.390480e-02 -8.616965e-02
<VARIANCE> 39
 5.621860e+01 7.408064e+01 6.481821e+01 9.562053e+01 6.049548e+01 5.657086e+01 5.480392e+01 5.008425e+01 4.914367e+01 3.600889e+01 5.758591e+01 2.695450e+01 2.658269e+02 2.237194e+00 2.592087e+00 2.314184e+00 3.129044e+00 2.833982e+00 2.664105e+00 2.646528e+00 2.741223e+00 2.630443e+00 2.383868e+00 2.569609e+00 1.958500e+00 4.984552e+00 3.580279e-01 4.174158e-01 3.847587e-01 5.025513e-01 4.999610e-01 4.797978e-01 4.820749e-01 5.089008e-01 4.798635e-01 4.500161e-01 4.608459e-01 3.767788e-01 6.789643e-01
<GCONST> 1.279592e+02
<TRANSP> 5
 0.000000e+00 1.000000e+00 0.000000e+00 0.000000e+00 0.000000e+00
 0.000000e+00 6.947125e-01 3.052876e-01 0.000000e+00 0.000000e+00
 0.000000e+00 0.000000e+00 7.037907e-01 2.962092e-01 0.000000e+00
 0.000000e+00 0.000000e+00 0.000000e+00 8.572783e-01 1.427217e-01
 0.000000e+00 0.000000e+00 0.000000e+00 0.000000e+00 0.000000e+00
<ENDHMM>
~h "t"
<BEGINHMM>
<NUMSTATES> 5
<STATE> 2
<MEAN> 39
 -1.320702e+01 7.166751e+00 5.165452e+00 -4.821430e+00 1.110300e+00 -1.427456e+00 -9.456133e-01 -9.214237e-01 2.145668e-02 -7.177198e-01 5.474784e-01 -1.487800e+00 5.391780e+01 1.425588e-01 -9.040383e-02 5.135809e-01 -4.622602e-01 -2.465847e-01 3.462185e-02 3.756902e-02 -8.615818e-02 -2.168411e-01 -6.589446e-02 -1.160039e-01 -7.189435e-02 2.450886e+00 5.120499e-01 -2.289327e-01 2.119538e-01 -1.678687e-01 -4.141072e-01 -2.263801e-01 -1.434670e-01 -1.007532e-01 -2.303051e-01 -1.946737e-02 -1.745651e-01 -3.675500e-02 7.328415e-02
<VARIANCE> 39
 6.732967e+01 7.408064e+01 6.481821e+01 9.562053e+01 6.049548e+01 5.657086e+01 5.480392e+01 5.008425e+01 4.914367e+01 3.600889e+01 5.758591e+01 2.695450e+01 2.658269e+02 8.408512e+00 4.505296e+00 4.456439e+00 4.307694e+00 4.847643e+00 4.001061e+00 2.967491e+00 3.258647e+00 2.921475e+00 2.561015e+00 2.569609e+00 1.958500e+00 2.417744e+01 1.346054e+00 1.101412e+00 8.270044e-01 9.252182e-01 8.757815e-01 9.168643e-01 6.433831e-01 6.298585e-01 5.612025e-01 5.430872e-01 4.846836e-01 4.100961e-01 3.598368e+00
<GCONST> 1.415055e+02
<STATE> 3
<MEAN> 39
 -2.623725e+00 1.396749e+00 1.136467e+01 -8.978989e+00 -8.370623e+00 -7.383069e+00 -3.229795e+00 -3.596916e+00 -5.932601e+00 -1.146913e+00 -3.695556e+00 -2.300515e+00 6.348198e+01 1.847749e+00 -2.006844e+00 3.841229e-01 -1.307932e+00 -1.380481e+00 -1.143743e+00 -5.254259e-01 2.677521e-01 -7.395592e-01 6.040040e-02 -1.007369e+00 -9.893104e-02 2.796115e-01 -4.543414e-01 -1.360436e-01 -3.338757e-01 -3.546185e-02 2.773836e-01 1.751232e-01 1.441622e-01 2.486311e-01 2.174584e-01 7.794884e-02 5.343299e-02 2.495409e-03 -1.287838e-01
<VARIANCE> 39
 5.621860e+01 7.408064e+01 7.193594e+01 9.562053e+01 6.765538e+01 5.700815e+01 5.480392e+01 6.110201e+01 4.914367e+01 3.600889e+01 5.758591e+01 2.695450e+01 2.658269e+02 7.867239e+00 8.212790e+00 6.773246e+00 8.454320e+00 9.082297e+00 7.069671e+00 4.693302e+00 5.483096e+00 4.837973e+00 3.696860e+00 5.275429e+00 2.657079e+00 1.415585e+01 1.036115e+00 1.360403e+00 9.388320e-01 1.264993e+00 1.351647e+00 9.174957e-01 7.562974e-01 7.368223e-01 6.890191e-01 6.633105e-01 7.468053e-01 4.666836e-01 1.995225e+00
<GCONST> 1.484303e+02
<STATE> 4
<MEAN> 39
 2.097239e+00 -1.046880e+01 6.906511e+00 -1.581863e+01 -8.992313e+00 -1.184169e+01 -2.147036e+00 1.218984e+00 -6.962897e+00 -3.481226e+00 -9.818444e+00 -2.451402e+00 7.141458e+01 3.834613e-02 3.677718e-01 -4.281754e-01 6.130554e-01 2.688839e-01 1.073934e-01 -9.402817e-02 1.143389e-01 4.700603e-01 -1.216222e-02 -6.521783e-02 1.741402e-01 -1.154830e+00 -1.649519e-01 3.757500e-01 -2.099878e-02 2.234584e-01 1.206870e-01 1.399619e-01 3.158314e-02 -9.042280e-02 1.412506e-01 1.290360e-02 1.829790e-01 3.991057e-02 -4.039058e-01
<VARIANCE> 39
 5.621860e+01 7.408064e+01 6.481821e+01 1.169674e+02 6.226617e+01 7.280556e+01 5.480392e+01 7.680642e+01 4.914367e+01 5.675662e+01 5.758591e+01 2.695450e+01 2.658269e+02 2.237194e+00 4.012827e+00 2.314184e+00 3.148010e+00 2.833982e+00 2.664105e+00 2.646528e+00 2.741223e+00 2.630443e+00 2.383868e+00 2.569609e+00 1.958500e+00 6.473227e+00 3.580279e-01 4.796085e-01 3.847587e-01 5.388241e-01 4.999610e-01 4.797978e-01 4.820749e-01 5.089008e-01 4.798635e-01 4.500161e-01 4.608459e-01 3.767788e-01 7.461734e-01
<GCONST> 1.303319e+02
<TRANSP> 5
 0.000000e+00 1.000000e+00 0.000000e+00 0.000000e+00 0.000000e+00
 0.000000e+00 8.123313e-01 1.876687e-01 0.000000e+00 0.000000e+00
 0.000000e+00 0.000000e+00 7.348955e-01 2.651045e-01 0.000000e+00
 0.000000e+00 0.000000e+00 0.000000e+00 8.676773e-01 1.323227e-01
 0.000000e+00 0.000000e+00 0.000000e+00 0.000000e+00 0.000000e+00
<ENDHMM>
~h "v"
<BEGINHMM>
<NUMSTATES> 5
<STATE> 2
<MEAN> 39
 -5.920550e+00 5.265121e+00 9.749709e+00 -4.219858e+00 -3.792519e+00 -3.069208e+00 -1.301038e+00 -5.048948e+00 -3.786086e+00 -1.071104e+00 -3.432033e+00 -1.464556e+00 5.617456e+01 1.908667e+00 -6.189135e-01 2.776984e+00 -3.717738e+00 -2.216545e+00 -1.792505e+00 -1.464570e+00 -2.522263e+00 -2.236999e+00 7.340207e-01 -1.638689e+00 -2.575070e-01 2.852050e+00 6.126529e-02 -2.615485e-01 2.251200e-01 -9.080806e-01 -3.802544e-01 -2.913607e-01 -5.016434e-01 -1.400762e-01 -3.692824e-01 5.788387e-02 -4.633240e-01 -9.276126e-02 4.737314e-01
<VARIANCE> 39
 5.621860e+01 7.408064e+01 6.481821e+01 9.562053e+01 6.049548e+01 5.657086e+01 5.480392e+01 5.678600e+01 4.914367e+01 3.600889e+01 5.758591e+01 2.695450e+01 2.658269e+02 3.654125e+00 2.868695e+00 5.218330e+00 8.974977e+00 4.146175e+00 7.149327e+00 5.346111e+00 5.034879e+00 4.026999e+00 4.127438e+00 5.405700e+00 2.382078e+00 1.192089e+01 7.616422e-01 4.822602e-01 8.668624e-01 1.215410e+00 7.148997e-01 1.045216e+00 7.695832e-01 1.142156e+00 7.683128e-01 7.397110e-01 8.821641e-01 4.299103e-01 1.589953e+00
<GCONST> 1.436156e+02
<STATE> 3
<MEAN> 39
 -2.530213e+00 -7.308745e-02 2.036722e+01 -2.409638e+01 -1.211189e+01 -1.336903e+01 -7.448441e+00 -1.376683e+01 -1.351908e+01 2.755534e+00 -1.655625e+01 -2.512125e+00 6.920193e+01 3.175612e-01 -6.046306e-01 4.784892e-01 -7.153092e-01 -7.888300e-01 -3.105259e-01 -5.828707e-01 -9.234798e-02 -1.107203e+00 -5.732310e-01 -1.022923e+00 -2.729025e-01 8.836327e-01 -4.732677e-02 3.461326e-01 -6.458473e-01 1.296805e+00 4.555992e-01 4.880208e-01 3.902333e-01 4.019001e-01 4.537304e-01 -5.037313e-01 5.250613e-01 8.108888e-02 -9.948865e-01
<VARIANCE> 39
 5.621860e+01 7.408064e+01 6.481821e+01 9.562053e+01 6.049548e+01 5.657086e+01 5.480392e+01 5.205680e+01 4.914367e+01 3.600889e+01 5.973655e+01 2.695450e+01 2.658269e+02 2.237194e+00 2.592087e+00 3.731221e+00 1.176036e+01 2.888325e+00 3.572135e+00 3.496454e+00 3.541093e+00 2.673010e+00 3.486055e+00 5.345644e+00 1.974951e+00 8.180395e+00 5.559188e-01 4.174158e-01 4.811181e-01 8.285717e-01 5.784580e-01 5.220985e-01 5.232878e-01 7.710480e-01 5.144828e-01 4.757516e-01 6.444557e-01 4.213495e-01 7.269605e-01
<GCONST> 1.348475e+02
<STATE> 4
<MEAN> 39
 1.385366e+00 1.024076e+00 7.201937e+00 -1.140654e+01 -5.605575e+00 -1.107862e+01 -8.698534e+00 -9.530405e+00 -9.064503e+00 -7.049719e+00 -1.287617e+01 -2.872820e+00 6.546006e+01 -1.087694e-01 4.211286e-01 -5.200286e-01 8.632468e-01 7.581460e-01 6.840617e-01 -6.877916e-02 2.020690e-01 4.739620e-01 -2.130691e-01 5.702483e-01 -8.392885e-02 -2.964824e-01 -9.506290e-02 -1.480112e-02 1.648793e-02 -1.058316e-01 9.272674e-02 8.309554e-03 4.132689e-02 -3.338938e-03 8.775327e-02 1.866942e-01 8.688974e-02 -3.266675e-02 6.010067e-02
<VARIANCE> 39
 5.621860e+01 7.408064e+01 6.752190e+01 9.562053e+01 6.049548e+01 8.501086e+01 9.124581e+01 8.118269e+01 4.914367e+01 3.600889e+01 7.933739e+01 3.613480e+01 2.658269e+02 2.237194e+00 2.592087e+00 2.314184e+00 4.546950e+00 3.027131e+00 3.862746e+00 4.139077e+00 3.628709e+00 2.630443e+00 3.353520e+00 3.386807e+00 3.687222e+00 4.984552e+00 3.580279e-01 4.174158e-01 3.847587e-01 7.488566e-01 5.633500e-01 6.733920e-01 7.134221e-01 7.547798e-01 4.798635e-01 4.709243e-01 5.599546e-01 6.151166e-01 6.789643e-01
<GCONST> 1.351764e+02
<TRANSP> 5
 0.000000e+00 1.000000e+00 0.000000e+00 0.000000e+00 0.000000e+00
 0.000000e+00 7.040901e-01 2.959099e-01 0.000000e+00 0.000000e+00
 0.000000e+00 0.000000e+00 7.591234e-01 2.408766e-01 0.000000e+00
 0.000000e+00 0.000000e+00 0.000000e+00 8.750256e-01 1.249744e-01
 0.000000e+00 0.000000e+00 0.000000e+00 0.000000e+00 0.000000e+00
<ENDHMM>
~h "w"
<BEGINHMM>
<NUMSTATES> 5
<STATE> 2
<MEAN> 39
 2.352704e-01 3.755986e+00 1.585559e+01 -1.910390e+01 -8.938644e+00 -1.301363e+01 -1.182886e+01 -1.223247e+01 -1.259646e+01 3.485452e+00 -1.640451e+01 1.949088e+00 6.482603e+01 -1.620033e-01 2.542461e-01 7.034602e-01 9.972390e-02 -2.382327e-01 8.631660e-02 -7.456405e-02 -2.041368e-01 1.607760e-01 6.111227e-02 -2.733897e-01 -7.750090e-02 1.839404e-01 -1.394642e-02 -5.921359e-02 -1.348089e-01 2.591716e-02 4.702170e-02 1.133305e-01 1.089510e-01 9.889834e-02 1.742484e-01 6.331154e-03 1.492155e-01 7.703376e-02 -1.223274e-01
<VARIANCE> 39
 5.621860e+01 7.408064e+01 6.481821e+01 9.562053e+01 6.049548e+01 7.029056e+01 5.480392e+01 5.340928e+01 4.914367e+01 4.977232e+01 5.964330e+01 5.930146e+01 2.658269e+02 2.933996e+00 2.592087e+00 3.005959e+00 3.313520e+00 2.833982e+00 3.669832e+00 4.420213e+00 3.305694e+00 2.630443e+00 3.733935e+00 4.230130e+00 3.364828e+00 4.984552e+00 3.752048e-01 4.174158e-01 3.847587e-01 6.273582e-01 4.999610e-01 4.945574e-01 6.736437e-01 6.942921e-01 4.798635e-01 6.407855e-01 7.705667e-01 6.694958e-01 6.789643e-01
<GCONST> 1.348733e+02
<STATE> 3
<MEAN> 39
 3.240983e+00 5.393671e+00 2.060974e+01 -1.268816e+00 -1.197849e+01 2.746346e+00 -8.706876e+00 -6.260269e+00 -8.470341e+00 -2.062379e+00 -1.928231e+00 -8.361887e+00 5.955897e+01 -1.760800e-01 1.522341e-01 -1.893273e-02 8.246261e-02 3.255165e-01 2.602483e-01 3.258051e-01 8.960953e-02 2.866328e-01 -2.292378e-02 2.136438e-01 2.330009e-02 -4.438071e-01 -3.417431e-02 -7.175425e-02 -1.421619e-01 -6.028574e-03 6.602865e-02 -4.396138e-02 8.356144e-02 1.172773e-01 7.469904e-02 -1.598492e-03 2.228645e-02 9.147628e-02 -4.338569e-02
<VARIANCE> 39
 5.621860e+01 7.408064e+01 6.481821e+01 9.562053e+01 1.065362e+02 5.657086e+01 5.480392e+01 5.786786e+01 4.914367e+01 3.600889e+01 5.758591e+01 4.082734e+01 2.658269e+02 2.237194e+00 2.592087e+00 3.097136e+00 3.129044e+00 5.020784e+00 2.664105e+00 3.200502e+00 3.055536e+00 2.630443e+00 2.383868e+00 2.569609e+00 1.958500e+00 4.984552e+00 3.629394e-01 4.174158e-01 4.820678e-01 5.025513e-01 9.790919e-01 4.797978e-01 4.945127e-01 5.544850e-01 4.798635e-01 4.500161e-01 4.608459e-01 3.767788e-01 6.789643e-01
<GCONST> 1.312692e+02
<STATE> 4
<MEAN> 39
 -4.244280e-01 6.739124e+00 3.293490e+00 -2.827099e+00 3.763270e-01 2.172639e+00 -8.145627e-01 -2.025274e-01 5.463229e-01 -2.115420e-02 -9.130439e-01 -2.182693e+00 3.951170e+01 1.401818e-02 -1.746880e-01 -4.395348e-01 8.591115e-02 2.493469e-02 -1.000639e-01 1.257211e-01 6.336820e-02 1.465435e-01 3.189464e-02 1.275528e-01 8.929059e-02 -1.923180e-01 -2.275432e-03 -1.401507e-02 8.924076e-02 4.629530e-04 -4.025890e-02 -5.897127e-02 -1.261269e-01 -8.470251e-02 -1.085751e-01 -4.907817e-02 -2.344241e-02 -3.915089e-02 1.183183e-01
<VARIANCE> 39
 5.621860e+01 7.408064e+01 6.481821e+01 9.562053e+01 6.049548e+01 5.657086e+01 5.480392e+01 5.008425e+01 4.914367e+01 3.600889e+01 5.758591e+01 2.695450e+01 2.658269e+02 2.237194e+00 2.592087e+00 2.550183e+00 3.129044e+00 2.833982e+00 2.788757e+00 2.856495e+00 3.205915e+00 2.630443e+00 2.383868e+00 2.569609e+00 2.328433e+00 4.984552e+00 3.580279e-01 4.174158e-01 3.847587e-01 5.025513e-01 5.532507e-01 5.642370e-01 5.786018e-01 6.208605e-01 4.914454e-01 4.944511e-01 4.608459e-01 4.573644e-01 6.789643e-01
<GCONST> 1.294646e+02
<TRANSP> 5
 0.000000e+00 1.000000e+00 0.000000e+00 0.000000e+00 0.000000e+00
 0.000000e+00 8.708131e-01 1.291869e-01 0.000000e+00 0.000000e+00
 0.000000e+00 0.000000e+00 8.993242e-01 1.006758e-01 0.000000e+00
 0.000000e+00 0.000000e+00 0.000000e+00 9.130048e-01 8.699520e-02
 0.000000e+00 0.000000e+00 0.000000e+00 0.000000e+00 0.000000e+00
<ENDHMM>
~h "y"
<BEGINHMM>
<NUMSTATES> 5
<STATE> 2
<MEAN> 39
 4.141774e+00 1.520274e+00 1.140509e+01 -2.240187e+01 -3.296121e+00 -8.409938e+00 -1.344800e+01 -9.820526e+00 -1.321939e+01 3.947934e+00 -1.360680e+01 2.572219e-01 6.634132e+01 4.260218e-01 -1.286383e-01 -6.930553e-01 5.623236e-01 4.575867e-01 -1.372033e-01 -2.293129e-02 -1.474125e-01 -7.416581e-02 8.385040e-02 8.812565e-02 -1.960839e-01 4.186487e-01 -1.576069e-01 -1.307123e-01 -1.586721e-01 -1.063829e-02 5.058488e-02 -7.004943e-03 -1.958454e-03 1.778151e-01 2.155390e-01 9.593072e-02 3.093768e-02 4.858815e-02 6.544001e-02
<VARIANCE> 39
 5.621860e+01 7.408064e+01 1.390328e+02 1.002068e+02 6.709061e+01 1.239775e+02 5.480392e+01 5.996296e+01 6.495847e+01 4.105413e+01 5.758591e+01 3.975994e+01 2.658269e+02 2.237194e+00 2.908970e+00 6.617343e+00 6.982057e+00 4.778688e+00 5.493006e+00 4.250692e+00 6.141323e+00 6.979751e+00 5.616027e+00 2.569609e+00 3.791241e+00 8.972050e+00 3.580279e-01 4.174158e-01 6.275041e-01 9.600856e-01 4.999610e-01 7.696445e-01 6.950145e-01 1.129577e+00 8.408434e-01 1.192050e+00 4.659382e-01 8.041491e-01 1.175423e+00
<GCONST> 1.438375e+02
<STATE> 3
<MEAN> 39
 1.334540e+00 -1.789999e+00 8.548985e-01 -1.042431e+01 6.197594e+00 -9.130575e+00 -1.364981e+01 -2.233948e+00 4.160117e-01 3.889593e+00 -1.455838e+01 1.002282e+00 6.765393e+01 -3.287326e-01 -1.273928e+00 -6.098189e-02 -3.090624e+00 -9.759691e-01 -1.503426e+00 3.027478e-01 2.883592e+00 1.372768e+00 3.808815e-01 -1.238068e+00 8.848615e-01 2.195979e+00 4.343305e-01 3.405209e-01 5.600358e-01 -2.033350e-01 -4.471524e-01 2.447711e-01 6.164225e-01 -4.201835e-01 -5.929913e-01 -4.606999e-01 -1.265931e-01 -2.014028e-01 -7.147663e-01
<VARIANCE> 39
 5.621860e+01 7.408064e+01 6.481821e+01 9.987836e+01 6.049548e+01 1.281276e+02 5.480392e+01 5.008425e+01 4.914367e+01 3.600889e+01 1.100540e+02 3.189729e+01 2.658269e+02 2.588781e+00 2.592087e+00 6.492005e+00 5.049851e+00 1.071132e+01 5.347261e+00 6.778574e+00 2.741223e+00 2.822689e+00 2.383868e+00 3.316464e+00 2.664375e+00 9.848602e+00 4.743153e-01 4.174158e-01 2.024964e+00 2.699602e+00 3.458703e+00 1.066948e+00 9.895681e-01 5.089008e-01 4.798635e-01 4.500161e-01 1.321533e+00 7.652922e-01 6.789643e-01
<GCONST> 1.444115e+02
<STATE> 4
<MEAN> 39
 1.149464e+00 -4.241436e+00 3.315896e-01 -1.332769e+01 1.129058e+01 -1.019710e+01 1.293328e-01 3.014399e+00 1.218773e+00 -4.635258e+00 -1.319151e+01 -1.307722e+00 6.002762e+01 -2.338671e-01 2.755182e-01 -2.484322e-01 8.715340e-01 5.285736e-01 5.865046e-01 4.030113e-01 -1.803405e-01 -1.874934e-01 -3.224481e-01 6.549516e-01 -1.920789e-01 -1.627072e+00 1.620973e-02 1.712135e-01 7.145629e-02 8.095244e-02 -2.344022e-01 8.556640e-02 -1.728723e-01 -1.145935e-01 2.682872e-02 9.753549e-02 7.642139e-02 1.023766e-01 -7.774536e-02
<VARIANCE> 39
 5.621860e+01 7.408064e+01 6.481821e+01 9.562053e+01 6.049548e+01 5.657086e+01 5.480392e+01 5.008425e+01 4.914367e+01 3.600889e+01 6.593571e+01 2.695450e+01 2.658269e+02 2.237194e+00 2.592087e+00 2.314184e+00 3.129044e+00 3.262043e+00 2.664105e+00 4.762873e+00 2.741223e+00 3.137594e+00 2.383868e+00 2.965742e+00 1.958500e+00 4.984552e+00 3.580279e-01 4.658608e-01 4.145006e-01 5.025513e-01 5.485144e-01 4.797978e-01 6.468635e-01 5.089008e-01 5.948720e-01 4.500161e-01 6.017702e-01 3.767788e-01 6.789643e-01
<GCONST> 1.301952e+02
<TRANSP> 5
 0.000000e+00 1.000000e+00 0.000000e+00 0.000000e+00 0.000000e+00
 0.000000e+00 9.502201e-01 4.977990e-02 0.000000e+00 0.000000e+00
 0.000000e+00 0.000000e+00 7.879859e-01 2.120141e-01 0.000000e+00
 0.000000e+00 0.000000e+00 0.000000e+00 9.280081e-01 7.199194e-02
 0.000000e+00 0.000000e+00 0.000000e+00 0.000000e+00 0.000000e+00
<ENDHMM>
~h "z"
<BEGINHMM>
<NUMSTATES> 5
<STATE> 2
<MEAN> 39
 -1.608974e+01 1.405209e+01 -1.984176e+00 2.542847e+00 -5.233289e+00 -2.808365e+00 4.265769e-01 -4.788495e+00 -3.294331e+00 -3.983965e+00 4.962815e-01 -5.293282e+00 6.498144e+01 -1.328865e+00 1.044046e+00 -7.834811e-01 1.066837e+00 4.518069e-01 9.061618e-01 4.647842e-01 2.829579e-01 2.980058e-01 4.887320e-02 5.444296e-01 -3.244177e-01 -1.238111e-01 3.587029e-01 -2.687505e-01 3.523276e-01 -3.816136e-01 -2.145755e-01 -2.444608e-01 -7.491145e-02 -1.692623e-01 -1.555620e-01 1.124112e-01 -2.397909e-01 1.034136e-01 -1.568615e-02
<VARIANCE> 39
 7.305389e+01 7.408064e+01 6.481821e+01 9.562053e+01 6.049548e+01 5.657086e+01 5.480392e+01 5.008425e+01 4.914367e+01 3.600889e+01 5.758591e+01 2.695450e+01 2.658269e+02 5.386736e+00 3.688511e+00 4.742258e+00 5.902102e+00 4.760039e+00 3.740127e+00 2.764704e+00 3.868889e+00 3.679271e+00 3.010699e+00 3.379863e+00 3.873504e+00 4.984552e+00 6.993182e-01 5.008776e-01 6.098369e-01 6.661898e-01 9.838681e-01 5.143654e-01 6.336834e-01 6.484006e-01 6.263691e-01 7.165285e-01 4.608459e-01 6.727229e-01 6.789643e-01
<GCONST> 1.377435e+02
<STATE> 3
<MEAN> 39
 -1.064502e+01 1.311437e+01 1.018031e+01 -2.280163e+00 -8.475345e+00 -3.488023e+00 -1.501127e+00 -9.803012e+00 -5.745263e+00 -4.316823e+00 -1.320613e+00 -4.976086e+00 6.614250e+01 2.448017e+00 -1.637235e+00 3.378849e+00 -2.242230e+00 -2.436918e+00 -1.484734e+00 -1.912974e+00 -1.478680e+00 -8.750395e-01 3.338515e-01 -7.122096e-01 6.137536e-01 8.390599e-01 2.177625e-01 -5.389242e-01 1.813165e-01 -4.105482e-01 -8.677067e-02 1.294729e-01 -3.859265e-01 4.309866e-01 2.171885e-02 3.930691e-01 -1.694451e-01 2.749775e-01 -2.341980e-01
<VARIANCE> 39
 5.621860e+01 7.408064e+01 1.021994e+02 9.562053e+01 9.257393e+01 6.140079e+01 5.480392e+01 5.008425e+01 4.914367e+01 3.600889e+01 5.758591e+01 2.695450e+01 2.658269e+02 5.997094e+00 5.612072e+00 7.532714e+00 8.944957e+00 7.801070e+00 4.296652e+00 4.421185e+00 5.417923e+00 2.942689e+00 3.272540e+00 6.251989e+00 3.182071e+00 4.984552e+00 1.033263e+00 6.418288e-01 1.081532e+00 9.159989e-01 1.486347e+00 9.106247e-01 6.663456e-01 9.137529e-01 4.798635e-01 6.094040e-01 7.060239e-01 5.325360e-01 6.789643e-01
<GCONST> 1.442386e+02
<STATE> 4
<MEAN> 39
 -1.404419e+00 5.538342e+00 2.231228e+01 -1.364723e+01 -1.269949e+01 1.059578e-01 -1.128896e+01 -7.164650e+00 -6.543569e+00 -3.156194e-01 -4.924498e+00 -1.490330e+00 6.131804e+01 2.061981e-01 -1.303534e-01 -3.525976e-01 2.338885e-01 5.487823e-01 3.470208e-01 2.655080e-01 4.138394e-01 3.549476e-01 6.653208e-02 7.714290e-03 9.969008e-02 -8.070783e-01 -8.147427e-02 1.144173e-01 -2.291495e-01 2.225859e-01 1.736011e-01 1.678914e-02 1.627419e-01 5.364943e-02 8.196454e-02 -5.430144e-02 8.416872e-02 -3.074256e-02 -4.426597e-02
<VARIANCE> 39
 5.621860e+01 7.408064e+01 6.481821e+01 9.562053e+01 1.006985e+02 6.614483e+01 5.480392e+01 8.093770e+01 6.885879e+01 3.600889e+01 7.644098e+01 4.337390e+01 2.658269e+02 2.237194e+00 2.592087e+00 2.649125e+00 3.235695e+00 2.833982e+00 3.197953e+00 2.923966e+00 2.741223e+00 2.630443e+00 2.383868e+00 2.569609e+00 2.079984e+00 4.984552e+00 3.580279e-01 4.174158e-01 4.293000e-01 5.025513e-01 4.999610e-01 5.750551e-01 4.820749e-01 5.089008e-01 4.798635e-01 4.500161e-01 4.608459e-01 3.767788e-01 6.789643e-01
<GCONST> 1.310032e+02
<TRANSP> 5
 0.000000e+00 1.000000e+00 0.000000e+00 0.000000e+00 0.000000e+00
 0.000000e+00 8.507254e-01 1.492746e-01 0.000000e+00 0.000000e+00
 0.000000e+00 0.000000e+00 7.096490e-01 2.903509e-01 0.000000e+00
 0.000000e+00 0.000000e+00 0.000000e+00 9.191520e-01 8.084799e-02
 0.000000e+00 0.000000e+00 0.000000e+00 0.000000e+00 0.000000e+00
<ENDHMM>
~h "aa"
<BEGINHMM>
<NUMSTATES> 5
<STATE> 2
<MEAN> 39
 -9.924742e-01 -2.530363e+00 -1.552733e+00 -1.065741e+01 3.805366e+00 -3.684808e+00 -6.431309e+00 -8.496911e-01 -2.355406e+00 1.549975e-01 -5.369754e+00 -4.408888e+00 5.565586e+01 -7.125387e-01 4.854956e-01 -2.153808e-01 1.659304e+00 3.867016e-01 2.619167e-01 5.036692e-01 2.609695e-01 4.941704e-01 -8.973618e-02 4.383399e-01 2.301663e-01 -1.522165e+00 -6.929998e-02 -2.030827e-01 6.017274e-03 -1.250459e-01 -7.201565e-03 -5.725725e-03 1.702551e-01 1.369690e-02 1.349733e-01 -5.449283e-02 -7.248387e-02 1.000052e-01 2.442331e-01
<VARIANCE> 39
 5.621860e+01 8.423711e+01 6.481821e+01 9.562053e+01 6.049548e+01 9.305851e+01 5.480392e+01 6.922528e+01 7.948868e+01 9.170277e+01 7.792918e+01 3.363529e+01 2.658269e+02 3.857181e+00 8.033924e+00 3.003611e+00 8.024338e+00 5.929524e+00 8.335650e+00 5.563102e+00 6.094315e+00 6.966957e+00 5.402048e+00 4.526221e+00 2.733407e+00 2.871574e+01 6.714453e-01 1.246350e+00 5.860132e-01 1.362187e+00 1.212368e+00 1.461954e+00 9.752153e-01 1.162640e+00 1.397441e+00 9.653293e-01 6.746338e-01 4.697424e-01 3.496025e+00
<GCONST> 1.523345e+02
<STATE> 3
<MEAN> 39
 -2.101441e+00 -2.784231e+00 7.495797e-02 -4.343688e+00 8.673958e+00 -4.034535e+00 -4.190693e-01 1.856790e+00 -9.461244e-01 -1.543270e+00 -5.526089e+00 -1.580240e+00 6.107093e+01 -1.692768e-01 9.506364e-01 5.735075e-01 6.320816e-01 -4.029039e-02 3.157700e-01 6.351433e-01 1.495988e-01 2.726102e-01 8.631270e-02 4.466881e-01 4.148301e-01 -1.153113e+00 1.089302e-01 4.423914e-02 1.135921e-01 -9.745801e-02 -2.003704e-01 5.353602e-02 -1.547834e-01 -1.533397e-01 -6.589644e-02 -2.213734e-02 4.433496e-02 -1.285980e-01 -2.937379e-01
<VARIANCE> 39
 5.621860e+01 7.408064e+01 6.481821e+01 9.562053e+01 6.114046e+01 5.808182e+01 5.480392e+01 5.008425e+01 5.453410e+01 4.038437e+01 5.758591e+01 4.544037e+01 2.658269e+02 2.237194e+00 2.912413e+00 3.396025e+00 3.129044e+00 3.384676e+00 2.664105e+00 3.141485e+00 3.295800e+00 3.378764e+00 2.383868e+00 2.740866e+00 2.578327e+00 5.889375e+00 3.580279e-01 5.078744e-01 5.878796e-01 5.396931e-01 5.763485e-01 6.375738e-01 6.220894e-01 6.531578e-01 6.552612e-01 4.717721e-01 5.159840e-01 4.828187e-01 1.178671e+00
<GCONST> 1.334209e+02
<STATE> 4
<MEAN> 39
 -5.651278e+00 4.757705e+00 2.980985e+00 -3.126065e-01 1.141762e+00 -1.473845e+00 1.567004e-01 3.174724e-01 6.627849e-01 -4.323829e-01 -7.824493e-01 -2.447156e-01 3.646943e+01 -9.457991e-02 1.173773e-02 1.547995e-01 1.029419e-01 -2.168671e-02 2.784871e-02 -2.831147e-02 -1.194251e-01 -2.700864e-02 -1.880484e-02 -1.056002e-02 -4.535374e-02 -2.007246e-01 2.316006e-02 -5.643956e-02 2.331858e-04 -2.710159e-02 3.814301e-02 -3.005343e-02 -5.927636e-02 9.919746e-03 -5.496543e-02 -1.956426e-02 -4.331850e-02 -2.309967e-02 1.756762e-01
<VARIANCE> 39
 5.621860e+01 7.408064e+01 6.481821e+01 9.562053e+01 6.049548e+01 5.657086e+01 5.480392e+01 5.008425e+01 4.914367e+01 3.600889e+01 5.758591e+01 2.695450e+01 2.658269e+02 2.237194e+00 2.592087e+00 2.314184e+00 3.129044e+00 2.833982e+00 2.664105e+00 2.646528e+00 2.741223e+00 2.630443e+00 2.383868e+00 2.569609e+00 1.958500e+00 4.984552e+00 3.580279e-01 4.174158e-01 3.847587e-01 5.025513e-01 4.999610e-01 4.797978e-01 4.820749e-01 5.089008e-01 4.798635e-01 4.500161e-01 4.608459e-01 3.767788e-01 6.789643e-01
<GCONST> 1.279592e+02
<TRANSP> 5
 0.000000e+00 1.000000e+00 0.000000e+00 0.000000e+00 0.000000e+00
 0.000000e+00 8.522575e-01 1.477424e-01 0.000000e+00 0.000000e+00
 0.000000e+00 0.000000e+00 7.798743e-01 2.201257e-01 0.000000e+00
 0.000000e+00 0.000000e+00 0.000000e+00 9.377414e-01 6.225856e-02
 0.000000e+00 0.000000e+00 0.000000e+00 0.000000e+00 0.000000e+00
<ENDHMM>
~h "ae"
<BEGINHMM>
<NUMSTATES> 5
<STATE> 2
<MEAN> 39
 -1.139213e+00 8.516436e+00 6.220040e+00 1.559319e+00 1.174554e+00 2.656572e+00 -9.216857e-02 -3.240068e-01 1.205383e+00 -5.574522e-01 -5.203887e-01 -1.702327e+00 3.972316e+01 -3.598858e-01 9.289241e-02 1.950287e-01 7.165023e-02 2.952372e-01 -7.996459e-02 1.467631e-01 1.381321e-01 2.432030e-02 3.493194e-02 7.709704e-02 -1.413260e-01 2.795946e-01 -2.044547e-01 -2.718782e-01 -3.485063e-02 -1.671642e-01 3.103981e-02 -1.896679e-01 -3.498730e-02 8.565249e-02 -7.749967e-02 -2.091674e-03 2.439718e-02 -2.965603e-02 3.485271e-01
<VARIANCE> 39
 5.621860e+01 7.408064e+01 6.481821e+01 9.562053e+01 6.049548e+01 5.657086e+01 5.480392e+01 5.008425e+01 4.914367e+01 3.600889e+01 5.758591e+01 2.695450e+01 2.658269e+02 2.237194e+00 2.592087e+00 2.314184e+00 3.129044e+00 2.833982e+00 2.664105e+00 2.646528e+00 2.741223e+00 2.630443e+00 2.383868e+00 2.569609e+00 2.010602e+00 4.984552e+00 3.580279e-01 4.174158e-01 3.847587e-01 5.025513e-01 4.999610e-01 4.797978e-01 4.820749e-01 5.089008e-01 4.798635e-01 4.500161e-01 4.608459e-01 4.198611e-01 6.789643e-01
<GCONST> 1.280938e+02
<STATE> 3
<MEAN> 39
 -9.188506e+00 3.692075e+00 3.967930e+00 -2.152884e+00 1.770829e+00 -2.596220e+00 3.389784e-01 1.395162e+00 4.156685e-02 -8.113450e-01 -2.831777e-01 -1.294264e+00 4.479017e+01 -4.577847e-01 -6.125922e-01 -1.615354e-01 -3.885552e-01 2.932262e-02 -5.596532e-01 4.518740e-04 2.358712e-01 -1.660843e-01 -1.825948e-01 -1.460457e-01 6.912290e-02 1.620566e+00 1.805354e-01 1.081968e-01 -9.287091e-02 -7.864008e-02 -1.318630e-01 8.944722e-02 -3.976378e-02 -7.834090e-02 -2.241672e-02 -4.270454e-02 -1.364175e-02 1.681113e-02 -1.144075e-01
<VARIANCE> 39
 5.621860e+01 7.408064e+01 6.481821e+01 9.562053e+01 6.049548e+01 5.657086e+01 5.480392e+01 5.008425e+01 4.914367e+01 3.600889e+01 5.758591e+01 2.747293e+01 2.658269e+02 5.530443e+00 5.267590e+00 4.779592e+00 5.516443e+00 4.943499e+00 4.958250e+00 4.456568e+00 4.164278e+00 4.365323e+00 3.115684e+00 3.245960e+00 2.928842e+00 1.367009e+01 9.513983e-01 1.050340e+00 9.596283e-01 1.073380e+00 1.004693e+00 1.038762e+00 8.734186e-01 8.575659e-01 8.884698e-01 6.431550e-01 6.437590e-01 6.308697e-01 2.399558e+00
<GCONST> 1.446655e+02
<STATE> 4
<MEAN> 39
 -4.999544e+00 1.399192e+00 1.706454e+00 -3.270339e+00 -4.846061e-01 -2.868932e+00 7.340631e-01 1.397796e+00 -2.601979e+00 -3.422324e+00 1.098358e-01 -1.075056e+00 4.090686e+01 -2.089405e-02 8.539992e-02 -1.238559e-02 -2.726200e-03 -2.306420e-04 6.281448e-02 -2.661035e-02 -5.227305e-02 2.428947e-03 -1.923742e-02 -1.129480e-02 -4.864175e-02 -3.291439e-03 -1.640117e-02 -1.411842e-02 4.764800e-02 -1.377277e-02 1.741107e-02 5.260195e-03 1.381598e-02 -4.859432e-04 3.554095e-03 2.022572e-02 -1.244285e-02 -5.019079e-03 1.069518e-01
<VARIANCE> 39
 5.621860e+01 7.408064e+01 6.481821e+01 9.562053e+01 6.049548e+01 5.657086e+01 5.480392e+01 5.008425e+01 4.914367e+01 3.600889e+01 5.758591e+01 2.695450e+01 2.658269e+02 2.237194e+00 2.592087e+00 2.314184e+00 3.129044e+00 2.833982e+00 2.664105e+00 2.646528e+00 2.741223e+00 2.630443e+00 2.383868e+00 2.569609e+00 1.958500e+00 4.984552e+00 3.580279e-01 4.174158e-01 3.847587e-01 5.025513e-01 4.999610e-01 4.797978e-01 4.820749e-01 5.089008e-01 4.798635e-01 4.500161e-01 4.608459e-01 3.767788e-01 6.789643e-01
<GCONST> 1.279592e+02
<TRANSP> 5
 0.000000e+00 1.000000e+00 0.000000e+00 0.000000e+00 0.000000e+00
 0.000000e+00 7.336441e-01 2.663558e-01 0.000000e+00 0.000000e+00
 0.000000e+00 0.000000e+00 7.565692e-01 2.434308e-01 0.000000e+00
 0.000000e+00 0.000000e+00 0.000000e+00 9.108800e-01 8.912001e-02
 0.000000e+00 0.000000e+00 0.000000e+00 0.000000e+00 0.000000e+00
<ENDHMM>
~h "ah"
<BEGINHMM>
<NUMSTATES> 5
<STATE> 2
<MEAN> 39
 -6.698871e-01 -4.016538e+00 1.882492e+00 -4.224657e+00 4.297955e+00 -6.966748e+00 2.287233e+00 5.533082e+00 -2.690841e+00 -3.490914e+00 -6.839559e+00 -7.583318e-01 5.282202e+01 -5.586195e-02 3.479000e-01 -3.504644e-01 5.485674e-01 4.898218e-01 3.520288e-01 1.589754e-01 -8.559905e-02 1.588949e-01 -1.629764e-01 1.189966e-01 8.744954e-02 -1.069018e+00 -7.739343e-03 9.539659e-02 5.618915e-02 -2.285132e-02 -1.017765e-01 4.154469e-02 -5.412564e-02 -9.431521e-02 -6.144627e-03 5.011054e-02 4.879989e-02 7.040769e-03 -1.880768e-02
<VARIANCE> 39
 5.621860e+01 7.408064e+01 6.481821e+01 9.562053e+01 8.302316e+01 5.657086e+01 5.480392e+01 6.371277e+01 4.914367e+01 5.609833e+01 5.758591e+01 4.916610e+01 2.658269e+02 2.237194e+00 2.592087e+00 2.314184e+00 3.129044e+00 2.909657e+00 2.664105e+00 2.646528e+00 2.741223e+00 2.630443e+00 2.383868e+00 2.569609e+00 2.483662e+00 4.984552e+00 3.580279e-01 4.174158e-01 3.847587e-01 5.025513e-01 4.999610e-01 4.797978e-01 4.820749e-01 5.089008e-01 4.798635e-01 4.500161e-01 4.608459e-01 4.757843e-01 6.789643e-01
<GCONST> 1.300581e+02
<STATE> 3
<MEAN> 39
 4.390158e+00 1.129386e+01 3.849846e+00 5.614594e-01 3.183131e+00 1.896091e+00 2.132093e+00 7.066212e-01 -3.033517e-01 -1.459759e+00 2.327953e-01 -1.411803e+00 4.001929e+01 -1.337097e-01 2.048095e-01 1.047537e-01 3.064452e-02 -1.620828e-01 8.169448e-02 -1.231233e-01 -5.680986e-02 8.483294e-02 1.258386e-01 5.789932e-02 -9.885686e-04 -3.466147e-01 -7.936313e-02 -9.085926e-02 -2.056847e-02 -2.493108e-02 -1.627415e-03 -6.282421e-02 -2.337204e-02 1.235947e-03 -1.004464e-02 -8.111097e-03 -1.563072e-02 2.778901e-03 4.706924e-02
<VARIANCE> 39
 5.621860e+01 7.408064e+01 6.481821e+01 9.562053e+01 6.049548e+01 5.657086e+01 5.480392e+01 5.008425e+01 4.914367e+01 3.600889e+01 5.758591e+01 2.695450e+01 2.658269e+02 2.237194e+00 2.592087e+00 2.314184e+00 3.129044e+00 2.833982e+00 2.664105e+00 2.646528e+00 2.741223e+00 2.630443e+00 2.383868e+00 2.569609e+00 1.958500e+00 4.984552e+00 3.580279e-01 4.174158e-01 3.847587e-01 5.025513e-01 4.999610e-01 4.797978e-01 4.820749e-01 5.089008e-01 4.798635e-01 4.500161e-01 4.608459e-01 3.767788e-01 6.789643e-01
<GCONST> 1.279592e+02
<STATE> 4
<MEAN> 39
 -5.324543e+00 3.306914e+00 8.786263e-01 -1.261392e+00 -4.930425e-01 -2.157792e+00 -1.286549e+00 8.744880e-02 -1.407247e+00 -2.047838e+00 5.078028e-01 -1.023928e+00 3.451953e+01 -3.752361e-02 -4.552197e-02 -1.211139e-02 -5.081005e-02 -3.478949e-02 -2.560677e-02 -2.548648e-02 -2.394686e-02 -3.134082e-02 1.332663e-03 1.266954e-02 -3.578817e-03 1.189788e-02 2.187614e-02 7.298093e-03 1.674484e-02 3.508274e-03 1.310684e-02 6.743793e-03 1.368661e-02 1.455218e-02 3.392118e-04 -9.675142e-04 -1.224564e-02 -5.181118e-03 3.128229e-02
<VARIANCE> 39
 5.621860e+01 7.408064e+01 6.481821e+01 9.562053e+01 6.049548e+01 5.657086e+01 5.480392e+01 5.008425e+01 4.914367e+01 3.600889e+01 5.758591e+01 2.695450e+01 2.658269e+02 2.237194e+00 2.592087e+00 2.314184e+00 3.129044e+00 2.833982e+00 2.664105e+00 2.646528e+00 2.741223e+00 2.630443e+00 2.383868e+00 2.569609e+00 1.958500e+00 4.984552e+00 3.580279e-01 4.174158e-01 3.847587e-01 5.025513e-01 4.999610e-01 4.797978e-01 4.820749e-01 5.089008e-01 4.798635e-01 4.500161e-01 4.608459e-01 3.767788e-01 6.789643e-01
<GCONST> 1.279592e+02
<TRANSP> 5
 0.000000e+00 1.000000e+00 0.000000e+00 0.000000e+00 0.000000e+00
 0.000000e+00 9.160121e-01 8.398792e-02 0.000000e+00 0.000000e+00
 0.000000e+00 0.000000e+00 9.364018e-01 6.359825e-02 0.000000e+00
 0.000000e+00 0.000000e+00 0.000000e+00 9.725482e-01 2.745177e-02
 0.000000e+00 0.000000e+00 0.000000e+00 0.000000e+00 0.000000e+00
<ENDHMM>
~h "ao"
<BEGINHMM>
<NUMSTATES> 5
<STATE> 2
<MEAN> 39
 -3.981708e+00 3.344600e+00 -7.209783e+00 -9.685890e+00 8.554853e+00 3.157658e+00 -5.122314e+00 -1.592716e+00 -6.755778e+00 3.239820e+00 -5.276912e-01 -2.518272e+00 5.517819e+01 1.451266e+00 -7.923551e-01 -1.052135e+00 -2.614384e+00 5.991864e-01 2.142228e-01 -1.101935e+00 -2.828681e-01 -1.516215e+00 2.241927e-01 -5.340405e-01 -5.503148e-01 4.226676e+00 3.171413e-01 -1.122822e-01 4.552061e-01 -2.841690e-01 -4.340825e-01 -1.817581e-01 -5.788960e-02 -5.942589e-02 -2.425021e-03 -9.517594e-02 -8.433050e-02 1.669859e-02 -1.715828e-01
<VARIANCE> 39
 5.621860e+01 7.408064e+01 6.481821e+01 9.562053e+01 6.049548e+01 5.657086e+01 5.480392e+01 5.008425e+01 4.914367e+01 4.743531e+01 5.758591e+01 3.175735e+01 2.658269e+02 4.081501e+00 5.324424e+00 9.921129e+00 6.631597e+00 9.142372e+00 6.054358e+00 5.005879e+00 3.626451e+00 3.729117e+00 3.637042e+00 5.313688e+00 3.129862e+00 1.716541e+01 6.389686e-01 1.154312e+00 1.684803e+00 1.193266e+00 1.500957e+00 1.017706e+00 9.516618e-01 6.292511e-01 7.210776e-01 6.505150e-01 8.471037e-01 5.350345e-01 3.865799e+00
<GCONST> 1.481955e+02
<STATE> 3
<MEAN> 39
 1.000091e+01 -2.886110e+00 1.530905e+00 -2.343302e+01 -2.612329e+00 6.264876e+00 -7.910815e+00 1.583517e-01 -8.749752e+00 6.586490e+00 5.701543e+00 -6.755745e+00 6.891058e+01 8.369708e-02 -2.637167e-01 2.785651e-01 -3.740779e-01 -1.496201e-01 -1.462190e-01 -8.170712e-02 -2.634685e-01 1.496652e-01 1.795964e-01 -3.561187e-01 -8.425797e-02 5.344902e-02 -2.071727e-01 6.583340e-02 -9.567669e-02 2.604420e-01 1.661739e-01 -5.245482e-02 5.598470e-02 -3.567882e-02 8.065245e-02 -2.565642e-02 -1.010033e-01 1.610246e-02 -1.471584e-01
<VARIANCE> 39
 5.621860e+01 7.408064e+01 6.481821e+01 9.562053e+01 6.049548e+01 5.657086e+01 5.480392e+01 5.008425e+01 6.957349e+01 4.431007e+01 5.758591e+01 2.695450e+01 2.658269e+02 2.237194e+00 2.592087e+00 2.314184e+00 3.129044e+00 2.833982e+00 2.664105e+00 2.646528e+00 2.741223e+00 2.630443e+00 2.383868e+00 2.569609e+00 1.958500e+00 4.984552e+00 3.580279e-01 4.174158e-01 3.847587e-01 5.025513e-01 4.999610e-01 4.797978e-01 4.820749e-01 5.089008e-01 4.798635e-01 4.500161e-01 4.608459e-01 3.767788e-01 6.789643e-01
<GCONST> 1.285143e+02
<STATE> 4
<MEAN> 39
 4.785058e+00 -7.501017e+00 -5.856482e+00 -3.226820e+01 3.611668e+00 -3.735980e+00 -1.349389e+01 -6.681186e+00 -8.557151e+00 -2.967434e+00 -1.204394e+01 -3.543725e+00 7.282492e+01 -9.064012e-03 -5.604934e-02 1.958248e-01 1.754160e-01 -8.884779e-02 -2.591757e-01 -1.331635e-01 8.459607e-02 3.337529e-01 -2.069378e-01 -2.428747e-02 1.907757e-02 -1.182622e-01 -6.014470e-02 1.372472e-01 2.345215e-02 2.158673e-01 3.400255e-02 4.129002e-02 3.861058e-02 3.604152e-02 1.780061e-02 -1.664932e-02 8.523785e-02 -1.575289e-02 -1.176831e-01
<VARIANCE> 39
 5.621860e+01 7.408064e+01 6.481821e+01 9.562053e+01 6.049548e+01 5.657086e+01 7.260597e+01 7.837610e+01 4.914367e+01 3.600889e+01 5.758591e+01 2.695450e+01 2.658269e+02 2.237194e+00 2.592087e+00 2.314184e+00 3.129044e+00 2.833982e+00 2.664105e+00 2.646528e+00 2.741223e+00 2.630443e+00 2.383868e+00 2.569609e+00 1.958500e+00 4.984552e+00 3.580279e-01 4.174158e-01 3.847587e-01 5.025513e-01 4.999610e-01 4.797978e-01 4.820749e-01 5.089008e-01 4.798635e-01 4.500161e-01 4.608459e-01 3.767788e-01 6.789643e-01
<GCONST> 1.286883e+02
<TRANSP> 5
 0.000000e+00 1.000000e+00 0.000000e+00 0.000000e+00 0.000000e+00
 0.000000e+00 8.315981e-01 1.684019e-01 0.000000e+00 0.000000e+00
 0.000000e+00 0.000000e+00 8.900991e-01 1.099008e-01 0.000000e+00
 0.000000e+00 0.000000e+00 0.000000e+00 9.347057e-01 6.529432e-02
 0.000000e+00 0.000000e+00 0.000000e+00 0.000000e+00 0.000000e+00
<ENDHMM>
~h "ay"
<BEGINHMM>
<NUMSTATES> 5
<STATE> 2
<MEAN> 39
 -7.282243e+00 3.677066e+00 2.901173e+00 -2.830038e+00 -1.950424e+00 -3.555727e+00 -1.305407e+00 1.101381e+00 5.098273e-01 -2.278619e+00 -1.774212e+00 -9.431024e-01 4.666831e+01 4.609083e-02 -7.634878e-01 -1.271334e-01 -5.675580e-01 3.878150e-01 -2.538095e-01 -7.532200e-02 -1.872884e-01 -8.075236e-02 -5.767130e-02 -2.594624e-01 -4.225966e-02 9.327093e-01 3.426256e-01 -4.190332e-01 3.195438e-02 -4.474405e-01 -6.141867e-02 -1.111435e-01 -9.506585e-02 -6.105932e-02 -1.655422e-01 -9.711074e-03 -2.820944e-01 -4.772301e-02 4.158559e-01
<VARIANCE> 39
 5.621860e+01 7.408064e+01 6.481821e+01 9.562053e+01 6.049548e+01 5.657086e+01 5.480392e+01 7.517539e+01 4.914367e+01 3.600889e+01 5.758591e+01 3.826849e+01 2.658269e+02 5.440234e+00 6.324072e+00 3.834349e+00 7.504739e+00 5.220688e+00 5.920146e+00 4.217425e+00 9.435249e+00 5.512018e+00 3.590977e+00 6.239208e+00 3.873170e+00 1.596167e+01 8.330085e-01 1.137875e+00 7.006585e-01 1.392017e+00 9.758497e-01 1.013984e+00 8.525676e-01 1.969674e+00 1.054317e+00 6.869658e-01 1.316980e+00 8.430401e-01 2.608445e+00
<GCONST> 1.500874e+02
<STATE> 3
<MEAN> 39
 1.626961e+00 -8.855853e+00 1.866132e+00 -1.568211e+01 1.423620e+00 -7.633059e+00 -6.931685e+00 -5.509915e+00 -5.184115e+00 -3.072858e+00 -8.867644e+00 -3.174833e+00 6.876887e+01 1.570184e+00 -3.047688e+00 -1.509306e-01 -3.047589e+00 -2.750083e-01 -1.439853e+00 -3.102917e-01 7.417413e-02 -7.274501e-01 -6.705045e-01 -2.400027e+00 -5.409966e-01 3.445825e+00 -6.376147e-01 4.893820e-01 5.563844e-03 7.208406e-01 -1.436418e-01 2.014451e-01 3.794662e-01 3.402431e-01 6.068707e-02 -3.157128e-01 1.697571e-01 7.701334e-02 -6.818219e-01
<VARIANCE> 39
 5.621860e+01 7.408064e+01 6.796321e+01 9.562053e+01 7.461402e+01 7.546630e+01 7.601094e+01 8.153077e+01 5.520567e+01 4.672688e+01 7.458090e+01 3.000731e+01 2.658269e+02 4.111548e+00 5.416559e+00 3.597674e+00 7.519120e+00 5.111869e+00 4.390286e+00 4.696261e+00 6.312749e+00 6.833240e+00 4.599004e+00 5.609290e+00 2.090256e+00 1.180841e+01 4.605179e-01 1.001386e+00 6.226285e-01 1.077200e+00 7.211832e-01 7.703092e-01 6.484784e-01 7.213912e-01 9.600183e-01 7.210066e-01 1.266176e+00 4.334355e-01 1.201059e+00
<GCONST> 1.452842e+02
<STATE> 4
<MEAN> 39
 -8.203779e-01 -1.275300e+01 4.692968e+00 -2.281064e+01 -3.172372e+00 -1.395393e+01 -2.871361e+00 -5.979959e+00 -8.705607e+00 -8.220448e+00 -1.355241e+01 -1.932734e+00 7.510998e+01 -9.264287e-02 4.761370e-01 4.628987e-01 9.035130e-02 -5.394590e-01 -1.941843e-01 2.688848e-01 8.535766e-02 1.112285e-02 2.017511e-01 2.656382e-01 1.112101e-01 -2.635415e-01 -2.787090e-02 2.532289e-01 3.248052e-02 2.166250e-01 1.671661e-02 1.059453e-01 -4.740307e-02 -2.417544e-02 8.248354e-02 9.877051e-02 1.428505e-01 1.555578e-03 -2.513362e-01
<VARIANCE> 39
 5.621860e+01 8.164003e+01 8.265889e+01 9.562053e+01 7.014680e+01 5.657086e+01 6.319694e+01 6.935120e+01 4.914367e+01 6.069805e+01 5.758591e+01 2.695450e+01 2.658269e+02 2.237194e+00 2.592087e+00 2.314184e+00 3.344988e+00 2.833982e+00 2.664105e+00 2.646528e+00 2.741223e+00 2.630443e+00 2.996938e+00 2.569609e+00 1.958500e+00 4.984552e+00 3.580279e-01 4.174158e-01 3.847587e-01 5.728176e-01 4.999610e-01 4.797978e-01 4.820749e-01 5.089008e-01 4.798635e-01 4.500161e-01 4.608459e-01 3.767788e-01 6.789643e-01
<GCONST> 1.298641e+02
<TRANSP> 5
 0.000000e+00 1.000000e+00 0.000000e+00 0.000000e+00 0.000000e+00
 0.000000e+00 8.397132e-01 1.602868e-01 0.000000e+00 0.000000e+00
 0.000000e+00 0.000000e+00 6.620020e-01 3.379980e-01 0.000000e+00
 0.000000e+00 0.000000e+00 0.000000e+00 9.169716e-01 8.302836e-02
 0.000000e+00 0.000000e+00 0.000000e+00 0.000000e+00 0.000000e+00
<ENDHMM>
~h "ch"
<BEGINHMM>
<NUMSTATES> 5
<STATE> 2
<MEAN> 39
 -3.986553e+00 5.627028e+00 3.396770e+00 -4.066574e+00 -7.569668e+00 -4.759791e+00 -3.350541e+00 -1.070267e+00 1.345141e+00 6.645487e-01 5.004537e-01 9.601884e-01 3.535679e+01 -8.110635e-01 1.398386e-01 -7.189043e-01 -1.317133e-01 5.449115e-01 3.264915e-01 1.244929e-01 -2.092091e-02 1.584078e-01 2.945715e-01 4.657216e-01 -6.646322e-02 -9.242276e-01 7.268555e-02 -8.841163e-03 1.977823e-01 1.171269e-01 2.577894e-01 1.308343e-01 3.322772e-02 3.169663e-05 -2.053371e-01 -1.675053e-01 -2.088118e-01 -2.821953e-01 5.491682e-01
<VARIANCE> 39
 5.621860e+01 7.408064e+01 6.481821e+01 9.562053e+01 6.049548e+01 5.657086e+01 5.480392e+01 5.008425e+01 4.914367e+01 3.600889e+01 5.758591e+01 2.695450e+01 2.658269e+02 2.237194e+00 2.592087e+00 2.314184e+00 3.129044e+00 2.833982e+00 2.664105e+00 2.646528e+00 2.741223e+00 2.630443e+00 2.383868e+00 2.569609e+00 2.036916e+00 4.984552e+00 3.580279e-01 4.174158e-01 3.847587e-01 5.025513e-01 4.999610e-01 4.797978e-01 4.820749e-01 5.089008e-01 4.798635e-01 4.500161e-01 4.608459e-01 3.767788e-01 6.789643e-01
<GCONST> 1.279985e+02
<STATE> 3
<MEAN> 39
 -9.407965e+00 5.031234e+00 4.116662e+00 -3.076256e+00 -1.295554e+00 -5.940782e-01 -1.170608e+00 -1.307244e+00 -1.314925e+00 3.913689e-01 -8.984184e-01 -3.505591e+00 4.068084e+01 -1.461659e-01 -1.094407e-01 -1.020534e-01 1.210656e-01 4.484030e-01 3.675726e-01 1.805999e-01 4.709287e-02 1.271601e-02 -4.107032e-01 -3.573329e-01 -3.461357e-01 5.919826e-02 2.830903e-01 6.600510e-02 -2.818996e-02 1.003233e-01 -1.440549e-01 -1.134628e-01 3.417246e-03 1.083832e-02 1.031886e-02 -1.075089e-01 -7.101491e-03 2.749142e-01 -2.389798e-01
<VARIANCE> 39
 5.621860e+01 7.408064e+01 6.481821e+01 9.562053e+01 6.049548e+01 5.657086e+01 5.480392e+01 5.008425e+01 4.914367e+01 3.600889e+01 5.758591e+01 2.762057e+01 2.658269e+02 2.537416e+00 2.592087e+00 2.314184e+00 3.129044e+00 2.833982e+00 2.664105e+00 2.646528e+00 2.741223e+00 2.630443e+00 2.383868e+00 2.569609e+00 2.701645e+00 4.984552e+00 3.989026e-01 4.174158e-01 3.847587e-01 5.025513e-01 4.999610e-01 4.797978e-01 4.820749e-01 5.089008e-01 4.798635e-01 4.752401e-01 4.608459e-01 4.917559e-01 6.789643e-01
<GCONST> 1.288602e+02
<STATE> 4
<MEAN> 39
 -5.678483e+00 3.992868e+00 9.956236e-01 -1.194644e+00 -8.155207e-01 -1.148391e+00 -8.742892e-01 -1.859326e-01 -1.020877e+00 -2.159437e+00 5.345252e-01 -2.712579e-01 3.359369e+01 2.899640e-02 5.296101e-02 9.983594e-03 6.911054e-02 1.790356e-02 3.512742e-02 3.813630e-02 1.816081e-02 3.141889e-02 1.089013e-02 2.862285e-02 4.188715e-02 -7.087128e-02 -8.469159e-04 1.425511e-02 2.946820e-02 2.091646e-04 1.264612e-02 -9.210771e-04 4.613194e-03 -1.320422e-03 1.099869e-02 2.502961e-02 8.581079e-04 -1.878213e-02 4.448536e-02
<VARIANCE> 39
 5.621860e+01 7.408064e+01 6.481821e+01 9.562053e+01 6.049548e+01 5.657086e+01 5.480392e+01 5.008425e+01 4.914367e+01 3.600889e+01 5.758591e+01 2.695450e+01 2.658269e+02 2.237194e+00 2.592087e+00 2.314184e+00 3.129044e+00 2.833982e+00 2.664105e+00 2.646528e+00 2.741223e+00 2.630443e+00 2.383868e+00 2.569609e+00 1.958500e+00 4.984552e+00 3.580279e-01 4.174158e-01 3.847587e-01 5.025513e-01 4.999610e-01 4.797978e-01 4.820749e-01 5.089008e-01 4.798635e-01 4.500161e-01 4.608459e-01 3.767788e-01 6.789643e-01
<GCONST> 1.279592e+02
<TRANSP> 5
 0.000000e+00 1.000000e+00 0.000000e+00 0.000000e+00 0.000000e+00
 0.000000e+00 7.281489e-01 2.718511e-01 0.000000e+00 0.000000e+00
 0.000000e+00 0.000000e+00 6.613521e-01 3.386479e-01 0.000000e+00
 0.000000e+00 0.000000e+00 0.000000e+00 9.534140e-01 4.658595e-02
 0.000000e+00 0.000000e+00 0.000000e+00 0.000000e+00 0.000000e+00
<ENDHMM>
~h "eh"
<BEGINHMM>
<NUMSTATES> 5
<STATE> 2
<MEAN> 39
 -1.563340e+01 1.344642e+01 -2.414574e+00 1.137080e+00 2.731520e-01 -2.801798e+00 2.697945e+00 -1.760856e+00 -1.373124e+00 -3.456886e+00 4.574136e-01 -2.515781e+00 6.265918e+01 5.025855e-01 -2.408238e-02 2.071403e-01 -2.246027e-01 -9.575757e-02 -3.606781e-01 -3.392260e-01 2.779607e-02 2.705694e-01 2.025037e-01 1.408683e-01 1.905058e-01 9.361141e-01 1.000165e+00 -8.552107e-01 5.804672e-01 -6.861407e-01 -5.596693e-01 -5.968000e-01 -4.896259e-01 4.940949e-02 -3.436163e-01 3.675899e-02 -5.018207e-01 7.217814e-02 3.282035e-01
<VARIANCE> 39
 5.621860e+01 7.408064e+01 6.481821e+01 9.562053e+01 6.049548e+01 5.657086e+01 5.480392e+01 5.008425e+01 4.914367e+01 3.600889e+01 5.758591e+01 2.695450e+01 2.658269e+02 1.081369e+01 3.512294e+00 4.216700e+00 3.433682e+00 3.159535e+00 3.569099e+00 2.646528e+00 2.741223e+00 2.651730e+00 2.549549e+00 3.353977e+00 1.958500e+00 4.984552e+00 5.849432e-01 6.594578e-01 4.483190e-01 9.053778e-01 5.511436e-01 8.855953e-01 5.672241e-01 5.473883e-01 5.850518e-01 5.623599e-01 7.037652e-01 4.151617e-01 7.085068e-01
<GCONST> 1.348941e+02
<STATE> 3
<MEAN> 39
 -7.816641e+00 8.944780e+00 4.201170e+00 -1.495536e+00 -2.283611e+00 -4.310243e+00 -1.206099e+00 -1.906017e+00 -2.070007e+00 -2.957078e+00 -1.762257e+00 -2.069323e+00 6.112727e+01 3.417681e+00 -3.506842e+00 2.077801e+00 -2.600442e+00 -2.577228e+00 -2.099482e+00 -1.823337e+00 3.431586e-01 -1.180851e+00 1.402442e-01 -1.818061e+00 3.470317e-01 2.632847e+00 9.808137e-02 -8.356014e-01 3.677474e-02 -6.489848e-01 -3.689438e-01 -1.787408e-01 -8.212937e-02 2.819678e-01 -3.587174e-01 5.351096e-02 -4.217593e-01 2.205423e-02 3.229755e-01
<VARIANCE> 39
 5.621860e+01 7.408064e+01 6.481821e+01 9.562053e+01 6.049548e+01 5.657086e+01 5.480392e+01 5.008425e+01 4.914367e+01 3.600889e+01 5.758591e+01 2.695450e+01 2.658269e+02 8.640079e+00 8.738323e+00 4.131297e+00 8.118345e+00 7.227521e+00 7.698235e+00 4.680474e+00 5.461084e+00 4.259334e+00 3.189323e+00 5.659491e+00 2.880240e+00 9.907993e+00 1.003157e+00 1.397118e+00 5.332173e-01 8.570197e-01 9.335530e-01 8.932937e-01 5.130217e-01 7.219588e-01 7.331681e-01 5.036535e-01 8.112343e-01 4.696229e-01 1.567018e+00
<GCONST> 1.448657e+02
<STATE> 4
<MEAN> 39
 4.975986e-01 -2.804338e+00 1.059587e+01 -1.589953e+01 -9.405682e+00 -1.361164e+01 -4.713134e+00 -4.707077e+00 -7.465550e+00 -2.707572e+00 -8.718269e+00 -2.254886e+00 6.877849e+01 6.298249e-01 -7.937920e-01 3.232190e-01 -7.529068e-01 -1.896795e-01 -5.232334e-01 -1.122998e-01 2.713207e-01 -5.093869e-01 -9.509176e-05 -8.445728e-01 -2.960670e-02 4.337837e-01 -5.744153e-01 5.047694e-01 -3.095981e-01 5.020627e-01 4.064516e-01 4.509267e-01 2.967944e-01 -1.151583e-02 1.367682e-01 -1.032429e-01 3.091465e-01 -1.152754e-01 -3.752519e-01
<VARIANCE> 39
 5.621860e+01 7.408064e+01 6.481821e+01 1.098326e+02 6.311981e+01 8.455833e+01 7.232108e+01 9.468290e+01 4.914367e+01 5.087286e+01 7.224838e+01 4.028913e+01 2.658269e+02 3.586324e+00 1.052231e+01 3.433325e+00 1.216296e+01 4.551278e+00 5.937617e+00 4.461665e+00 4.339742e+00 3.900896e+00 3.678047e+00 5.634597e+00 3.034297e+00 8.532283e+00 7.226776e-01 8.961864e-01 5.712001e-01 1.068655e+00 6.854654e-01 8.605508e-01 8.462316e-01 6.915588e-01 6.760542e-01 7.043878e-01 7.393051e-01 5.221784e-01 9.192722e-01
<GCONST> 1.451789e+02
<TRANSP> 5
 0.000000e+00 1.000000e+00 0.000000e+00 0.000000e+00 0.000000e+00
 0.000000e+00 6.369053e-01 3.630948e-01 0.000000e+00 0.000000e+00
 0.000000e+00 0.000000e+00 5.435836e-01 4.564164e-01 0.000000e+00
 0.000000e+00 0.000000e+00 0.000000e+00 8.344088e-01 1.655913e-01
 0.000000e+00 0.000000e+00 0.000000e+00 0.000000e+00 0.000000e+00
<ENDHMM>
~h "er"
<BEGINHMM>
<NUMSTATES> 5
<STATE> 2
<MEAN> 39
 2.480227e+00 -3.866355e+00 1.429617e+00 4.258108e+00 3.564116e+00 -1.159733e+00 1.773330e-01 5.815181e+00 5.295671e-01 -4.429150e+00 -4.348824e+00 1.282534e-01 4.571166e+01 3.589598e-02 8.323205e-01 -1.791968e-01 -2.392320e-01 4.513445e-01 1.965603e-01 3.170057e-02 -3.355976e-01 -3.638869e-02 7.644500e-02 7.584544e-02 -1.291365e-01 -7.498524e-01 -3.908289e-02 1.062605e-01 1.044411e-01 -3.595212e-04 -9.144826e-02 -9.367755e-03 -2.939225e-02 -5.797260e-02 4.415947e-03 6.119603e-02 3.897510e-02 -5.511766e-02 9.602238e-03
<VARIANCE> 39
 5.621860e+01 7.408064e+01 6.481821e+01 9.562053e+01 6.049548e+01 5.657086e+01 5.480392e+01 5.008425e+01 4.914367e+01 3.600889e+01 5.758591e+01 2.763080e+01 2.658269e+02 2.237194e+00 2.592087e+00 2.314184e+00 3.129044e+00 2.833982e+00 2.664105e+00 2.646528e+00 2.741223e+00 2.630443e+00 2.383868e+00 2.569609e+00 1.958500e+00 4.984552e+00 3.580279e-01 4.174158e-01 3.847587e-01 5.025513e-01 4.999610e-01 4.797978e-01 4.820749e-01 5.089008e-01 4.798635e-01 4.500161e-01 4.608459e-01 3.767788e-01 6.789643e-01
<GCONST> 1.279840e+02
<STATE> 3
<MEAN> 39
 3.625910e+00 1.183586e+01 4.965508e+00 4.450036e-01 3.772842e+00 2.197508e+00 2.367173e+00 1.185442e+00 2.408293e-01 -2.071081e+00 6.304134e-02 -1.508555e+00 3.983213e+01 -2.096859e-01 1.404471e-01 6.247806e-02 -4.274112e-02 -1.219012e-01 4.966428e-02 -4.944913e-02 -4.280361e-02 -2.699726e-02 9.477486e-02 7.068565e-02 4.524172e-02 -2.214747e-01 -2.799078e-02 -8.612334e-02 -2.995534e-02 -7.086185e-03 3.656406e-03 -1.823968e-02 -1.971881e-02 1.269797e-02 -4.101247e-04 -2.528966e-02 -3.295528e-03 1.824257e-02 1.218996e-02
<VARIANCE> 39
 5.621860e+01 7.408064e+01 6.481821e+01 9.562053e+01 6.049548e+01 5.657086e+01 5.480392e+01 5.008425e+01 4.914367e+01 3.600889e+01 5.758591e+01 2.695450e+01 2.658269e+02 2.237194e+00 2.592087e+00 2.314184e+00 3.129044e+00 2.833982e+00 2.664105e+00 2.646528e+00 2.741223e+00 2.630443e+00 2.383868e+00 2.569609e+00 1.958500e+00 4.984552e+00 3.580279e-01 4.174158e-01 3.847587e-01 5.025513e-01 4.999610e-01 4.797978e-01 4.820749e-01 5.089008e-01 4.798635e-01 4.500161e-01 4.608459e-01 3.767788e-01 6.789643e-01
<GCONST> 1.279592e+02
<STATE> 4
<MEAN> 39
 -4.932649e+00 -6.385509e-01 1.563249e-01 -3.040291e+00 8.711661e-02 -3.615548e+00 -1.315406e+00 1.911301e+00 -2.962305e+00 -4.193807e+00 -5.712843e-01 -9.026935e-01 3.846772e+01 -1.056469e-02 -3.567100e-02 -4.533211e-02 -9.780912e-03 -3.460776e-02 -3.861171e-02 1.556636e-02 2.146917e-02 -1.003774e-02 -2.217263e-02 -2.561007e-02 -9.744972e-03 4.491415e-02 5.147951e-03 3.772339e-02 1.566863e-02 1.546482e-02 1.955732e-02 1.244599e-02 2.716292e-02 2.809762e-03 1.987211e-02 2.032194e-02 1.298531e-02 5.255645e-03 3.495353e-03
<VARIANCE> 39
 5.621860e+01 7.408064e+01 6.481821e+01 9.562053e+01 6.049548e+01 5.657086e+01 5.480392e+01 5.008425e+01 4.914367e+01 3.600889e+01 5.758591e+01 2.695450e+01 2.658269e+02 2.237194e+00 2.592087e+00 2.314184e+00 3.129044e+00 2.833982e+00 2.664105e+00 2.646528e+00 2.741223e+00 2.630443e+00 2.383868e+00 2.569609e+00 1.958500e+00 4.984552e+00 3.580279e-01 4.174158e-01 3.847587e-01 5.025513e-01 4.999610e-01 4.797978e-01 4.820749e-01 5.089008e-01 4.798635e-01 4.500161e-01 4.608459e-01 3.767788e-01 6.789643e-01
<GCONST> 1.279592e+02
<TRANSP> 5
 0.000000e+00 1.000000e+00 0.000000e+00 0.000000e+00 0.000000e+00
 0.000000e+00 9.016650e-01 9.833504e-02 0.000000e+00 0.000000e+00
 0.000000e+00 0.000000e+00 9.591384e-01 4.086163e-02 0.000000e+00
 0.000000e+00 0.000000e+00 0.000000e+00 9.733222e-01 2.667780e-02
 0.000000e+00 0.000000e+00 0.000000e+00 0.000000e+00 0.000000e+00
<ENDHMM>
~h "ey"
<BEGINHMM>
<NUMSTATES> 5
<STATE> 2
<MEAN> 39
 8.894843e-01 -2.394984e-01 1.062869e+01 -8.126020e+00 -8.302324e+00 -7.286146e+00 -2.226135e+00 2.069265e+00 -4.680020e+00 -4.952125e-01 -2.214817e+00 -9.312657e-01 5.799182e+01 4.758050e-02 1.580935e+00 1.002803e+00 6.895884e-01 -1.500456e-01 7.690043e-01 -4.869412e-01 -8.329901e-01 -9.081802e-02 1.223333e-01 4.390779e-01 8.226694e-02 -1.230087e+00 -1.451718e-01 9.105110e-02 5.540172e-03 6.124970e-03 1.360833e-01 3.142733e-01 -1.088139e-01 -1.284518e-01 -8.115775e-03 -2.232574e-03 -1.722141e-01 -1.681033e-01 -2.621084e-01
<VARIANCE> 39
 5.621860e+01 7.763751e+01 6.481821e+01 9.562053e+01 9.824352e+01 6.557259e+01 5.480392e+01 6.324332e+01 5.108025e+01 4.167067e+01 5.758591e+01 2.948215e+01 2.704229e+02 2.237194e+00 2.603002e+00 4.458421e+00 3.456969e+00 4.157800e+00 2.664105e+00 3.202533e+00 3.736502e+00 3.373502e+00 3.157706e+00 2.609598e+00 1.958500e+00 7.102188e+00 3.580279e-01 4.195487e-01 4.052631e-01 5.025513e-01 5.826371e-01 4.797978e-01 5.136520e-01 6.266658e-01 4.798635e-01 7.244990e-01 4.608459e-01 3.869795e-01 8.606791e-01
<GCONST> 1.329279e+02
<STATE> 3
<MEAN> 39
 2.913036e+00 5.938780e+00 1.771528e+01 -4.927345e+00 -8.405701e+00 -2.744451e+00 -8.623482e+00 -2.193979e+00 -8.764904e+00 -1.636755e+00 -2.273162e+00 -4.401971e+00 5.588817e+01 2.824657e-01 2.934458e-01 -3.413323e-01 5.002544e-01 5.743108e-01 3.907754e-01 -3.131797e-01 1.716277e-01 1.855252e-01 4.090706e-02 2.307163e-01 -2.575192e-01 -8.573372e-01 -1.531300e-01 -2.058484e-01 -2.888345e-01 -1.372580e-01 5.186039e-02 -8.398264e-02 8.595124e-02 1.287621e-01 1.088536e-01 9.262507e-02 8.773567e-02 7.964117e-02 8.999965e-02
<VARIANCE> 39
 5.621860e+01 7.408064e+01 7.603216e+01 9.562053e+01 7.117243e+01 5.657086e+01 6.736358e+01 5.008425e+01 6.180283e+01 3.600889e+01 5.758591e+01 2.695450e+01 2.658269e+02 2.237194e+00 2.592087e+00 3.001311e+00 3.129044e+00 2.893620e+00 3.460247e+00 2.646528e+00 2.741223e+00 3.000816e+00 2.383868e+00 2.569609e+00 1.958500e+00 5.041889e+00 3.748095e-01 4.174158e-01 3.983881e-01 5.025513e-01 5.224290e-01 5.087041e-01 5.140957e-01 6.041496e-01 4.961063e-01 4.803189e-01 4.608459e-01 3.767788e-01 6.789643e-01
<GCONST> 1.299198e+02
<STATE> 4
<MEAN> 39
 -5.014571e+00 5.932233e+00 4.568168e+00 -2.032197e+00 -1.599588e+00 -1.236967e+00 -3.205627e-01 -1.801565e-03 -1.283883e+00 -7.836519e-01 8.216703e-01 -5.472902e-01 3.639902e+01 -1.225075e-01 9.790611e-03 -1.331526e-01 2.394939e-02 1.605830e-01 6.904053e-02 -8.579411e-02 -3.691471e-02 5.396368e-02 -5.242633e-03 5.107757e-02 3.824598e-02 -1.202706e-01 2.305036e-03 -2.203996e-02 4.397019e-02 -3.711350e-02 -1.673008e-02 -6.063299e-02 -1.796405e-02 -2.125883e-02 -5.928499e-02 -3.018881e-02 -1.836845e-02 8.437020e-03 1.562088e-01
<VARIANCE> 39
 5.621860e+01 7.408064e+01 6.481821e+01 9.562053e+01 6.049548e+01 5.657086e+01 5.480392e+01 5.008425e+01 4.914367e+01 3.600889e+01 5.758591e+01 2.695450e+01 2.658269e+02 2.237194e+00 2.592087e+00 2.314184e+00 3.129044e+00 2.833982e+00 2.664105e+00 2.646528e+00 2.741223e+00 2.630443e+00 2.383868e+00 2.569609e+00 1.958500e+00 4.984552e+00 3.580279e-01 4.174158e-01 3.847587e-01 5.025513e-01 4.999610e-01 4.797978e-01 4.820749e-01 5.089008e-01 4.798635e-01 4.633801e-01 4.608459e-01 3.767788e-01 6.789643e-01
<GCONST> 1.279885e+02
<TRANSP> 5
 0.000000e+00 1.000000e+00 0.000000e+00 0.000000e+00 0.000000e+00
 0.000000e+00 4.796728e-01 5.203272e-01 0.000000e+00 0.000000e+00
 0.000000e+00 0.000000e+00 6.949642e-01 3.050358e-01 0.000000e+00
 0.000000e+00 0.000000e+00 0.000000e+00 8.780961e-01 1.219039e-01
 0.000000e+00 0.000000e+00 0.000000e+00 0.000000e+00 0.000000e+00
<ENDHMM>
~h "hh"
<BEGINHMM>
<NUMSTATES> 5
<STATE> 2
<MEAN> 39
 -4.182793e-01 -8.959950e+00 7.230501e-01 -5.852072e+00 3.827517e-01 -1.413754e+00 -9.213501e-01 2.227556e+00 -1.591337e+00 -2.818433e+00 -2.909892e+00 -6.783873e+00 6.540829e+01 -5.202903e-01 6.391022e-02 4.623526e-01 6.633534e-02 -7.434258e-02 -1.244372e-01 3.624141e-01 -4.099434e-02 -4.090270e-01 1.111863e-01 3.976532e-01 5.077224e-03 7.347036e-01 -1.600114e-01 3.614292e-01 7.694235e-03 2.727102e-01 1.518903e-02 8.373202e-02 1.633303e-01 6.769122e-02 1.942652e-01 1.065219e-01 1.437040e-01 1.457583e-01 -1.076359e-01
<VARIANCE> 39
 5.621860e+01 7.408064e+01 6.481821e+01 9.562053e+01 2.715690e+02 5.657086e+01 5.480392e+01 5.008425e+01 4.914367e+01 3.600889e+01 5.758591e+01 3.596541e+01 2.658269e+02 3.618384e+00 5.094420e+00 2.314184e+00 3.129044e+00 8.752268e+00 2.664105e+00 3.589207e+00 3.988192e+00 2.630443e+00 2.383868e+00 3.785512e+00 2.402379e+00 4.984552e+00 4.190612e-01 4.174158e-01 3.847587e-01 5.025513e-01 9.764402e-01 4.797978e-01 4.820749e-01 5.236971e-01 4.798635e-01 4.500161e-01 6.840558e-01 3.767788e-01 6.789643e-01
<GCONST> 1.345552e+02
<STATE> 3
<MEAN> 39
 -1.234142e+01 1.683140e+00 -9.475229e-01 1.082166e+00 7.493378e+00 -8.200364e-01 4.023479e+00 1.845905e-02 -2.376430e+00 -4.648783e-01 1.501734e+00 -8.158898e-01 6.169875e+01 1.768198e-01 -3.521265e-01 -5.887350e-01 -2.793742e-01 -1.063867e-01 2.684911e-01 -3.116905e-01 -1.894425e-01 -2.920370e-01 4.793025e-01 -2.976858e-01 6.370932e-01 2.056397e-01 5.434222e-01 6.801261e-03 1.460320e-01 -2.800654e-01 -5.114101e-01 -2.031415e-01 -3.766052e-01 -1.885660e-01 -2.154473e-01 -2.706155e-01 -1.179524e-01 -2.575189e-02 -6.612577e-02
<VARIANCE> 39
 5.621860e+01 1.190274e+02 7.955570e+01 9.562053e+01 9.084491e+01 5.657086e+01 5.641320e+01 5.008425e+01 4.914367e+01 3.600889e+01 5.758591e+01 3.545239e+01 2.658269e+02 6.486833e+00 4.371843e+00 5.786779e+00 5.602251e+00 7.858467e+00 4.023365e+00 5.849695e+00 3.183055e+00 3.056207e+00 2.383868e+00 2.569609e+00 2.869463e+00 7.531724e+00 4.748971e-01 7.791265e-01 8.502363e-01 7.078756e-01 1.338193e+00 9.129092e-01 9.441800e-01 6.206585e-01 5.633569e-01 4.500161e-01 5.626204e-01 7.439387e-01 1.431922e+00
<GCONST> 1.420806e+02
<STATE> 4
<MEAN> 39
 8.490556e+00 6.827866e+00 -5.537394e-01 -1.511976e+01 -8.897600e-01 8.667429e+00 -5.694145e+00 -2.009496e+00 -6.724735e+00 -1.496674e+00 1.983267e+00 4.908445e+00 5.897553e+01 -1.880354e-01 7.885204e-02 -8.405522e-04 -9.982053e-02 2.896162e-01 -1.719351e-01 4.098224e-01 -2.095716e-02 1.662000e-01 -2.414077e-01 -1.097971e-01 -1.114629e-01 -3.890700e-01 -5.742220e-02 -1.736334e-01 -1.996551e-01 -4.263754e-02 -1.869716e-03 -2.311549e-01 -2.439689e-03 -4.532316e-02 -3.220340e-02 -1.080883e-01 -1.205493e-01 -1.772669e-01 7.664550e-03
<VARIANCE> 39
 1.018970e+02 7.408064e+01 6.481821e+01 9.562053e+01 1.287980e+02 5.657086e+01 5.571085e+01 5.008425e+01 4.914367e+01 3.600889e+01 5.758591e+01 2.695450e+01 2.658269e+02 4.728970e+00 3.046587e+00 2.314184e+00 3.129044e+00 6.145221e+00 3.275481e+00 2.923183e+00 2.741223e+00 2.630443e+00 2.972247e+00 2.569609e+00 1.958500e+00 4.984552e+00 7.314836e-01 5.778365e-01 3.861232e-01 5.025513e-01 1.041124e+00 6.636527e-01 6.166049e-01 5.089008e-01 5.115919e-01 4.500161e-01 4.608459e-01 3.767788e-01 6.789643e-01
<GCONST> 1.339480e+02
<TRANSP> 5
 0.000000e+00 1.000000e+00 0.000000e+00 0.000000e+00 0.000000e+00
 0.000000e+00 8.570802e-01 1.429198e-01 0.000000e+00 0.000000e+00
 0.000000e+00 0.000000e+00 8.257520e-01 1.742480e-01 0.000000e+00
 0.000000e+00 0.000000e+00 0.000000e+00 8.317139e-01 1.682862e-01
 0.000000e+00 0.000000e+00 0.000000e+00 0.000000e+00 0.000000e+00
<ENDHMM>
~h "ih"
<BEGINHMM>
<NUMSTATES> 5
<STATE> 2
<MEAN> 39
 -3.972414e+00 3.409510e+00 1.257909e+01 -1.051565e+01 -7.677067e+00 -8.525718e+00 -6.158646e+00 -9.244541e+00 -6.339098e+00 -1.377509e+00 -8.366491e+00 -1.109963e+00 6.018207e+01 7.025030e-01 -6.585050e-01 6.065442e-01 -2.864351e-01 -4.385050e-01 -4.120363e-01 -3.370950e-01 1.275734e-01 -1.916526e-01 1.708374e-01 -8.148778e-02 1.563614e-01 3.339378e-01 -5.257328e-02 -8.834771e-02 -1.347494e-01 -9.417523e-02 6.330874e-02 9.404388e-02 5.275773e-02 1.701164e-01 7.451982e-02 4.696279e-02 -3.889002e-02 1.335966e-02 -9.883423e-02
<VARIANCE> 39
 5.621860e+01 7.408064e+01 8.962152e+01 1.131369e+02 6.049548e+01 7.016092e+01 5.480392e+01 8.768656e+01 6.376145e+01 4.151246e+01 8.804870e+01 3.283773e+01 2.658269e+02 5.218684e+00 6.642004e+00 8.040702e+00 1.226522e+01 7.304842e+00 6.364369e+00 6.223084e+00 6.496464e+00 5.425947e+00 5.125976e+00 8.290184e+00 3.510834e+00 1.730819e+01 7.767818e-01 1.112930e+00 1.085044e+00 1.845824e+00 1.086044e+00 1.024648e+00 1.094366e+00 1.064702e+00 8.386395e-01 9.294668e-01 1.271148e+00 6.880804e-01 2.349360e+00
<GCONST> 1.540033e+02
<STATE> 3
<MEAN> 39
 5.100752e-01 1.016950e+00 1.729795e+01 -5.559854e+00 -1.228233e+01 -5.716094e+00 -5.866478e+00 -1.756139e+00 -9.416099e+00 1.054408e+00 -1.971338e+00 -4.021485e+00 5.993125e+01 1.572027e-02 1.996627e-01 -7.040058e-01 3.253147e-01 5.883808e-01 5.299662e-02 1.891506e-01 1.715300e-01 6.191989e-01 5.148853e-02 -1.716167e-01 2.592275e-01 -1.466443e+00 -1.934818e-01 1.547169e-01 -3.271853e-01 1.018848e-01 2.700099e-01 7.328472e-02 9.789717e-02 -9.319346e-02 2.010542e-01 -8.232471e-02 -5.561359e-02 4.178022e-02 -1.405651e-01
<VARIANCE> 39
 5.621860e+01 7.408064e+01 7.627629e+01 9.562053e+01 6.049548e+01 6.890746e+01 5.480392e+01 6.556076e+01 5.532510e+01 3.991844e+01 6.936224e+01 4.553723e+01 2.658269e+02 2.593424e+00 3.375249e+00 3.716189e+00 4.161554e+00 4.941202e+00 3.625161e+00 3.688627e+00 4.015300e+00 3.355648e+00 2.547555e+00 3.104915e+00 2.666718e+00 1.028419e+01 5.685385e-01 5.959200e-01 6.428331e-01 9.629197e-01 9.823604e-01 8.101363e-01 8.215318e-01 7.540444e-01 6.603942e-01 6.152390e-01 7.431968e-01 5.326088e-01 1.565125e+00
<GCONST> 1.401997e+02
<STATE> 4
<MEAN> 39
 5.072803e-01 3.281099e-01 1.421899e+01 -1.613481e+01 -7.026249e+00 -9.189651e+00 -7.787850e+00 -7.270926e+00 -7.515093e+00 -6.924576e-01 -1.342770e+01 9.282558e-01 6.294981e+01 -8.834356e-03 3.839007e-01 -3.866105e-01 6.885878e-01 4.625265e-01 5.742646e-01 2.396118e-01 1.405404e-01 4.214414e-01 -3.982940e-01 3.286594e-01 2.976128e-02 -1.044129e+00 -1.187878e-01 4.603102e-02 -2.029619e-02 1.421952e-01 2.639833e-02 7.468488e-02 3.529576e-02 9.237658e-03 1.233703e-02 -8.139096e-03 1.956091e-01 -3.601029e-02 -5.784807e-02
<VARIANCE> 39
 5.621860e+01 7.618785e+01 9.417490e+01 1.043548e+02 6.049548e+01 7.359708e+01 5.641618e+01 7.730433e+01 5.836807e+01 6.847682e+01 5.862674e+01 3.591179e+01 2.658269e+02 2.237194e+00 2.592087e+00 2.314184e+00 3.309865e+00 2.833982e+00 2.789766e+00 2.646528e+00 2.785382e+00 2.630443e+00 2.681352e+00 3.286403e+00 2.014343e+00 4.984552e+00 3.580279e-01 4.174158e-01 3.847587e-01 5.620057e-01 4.999610e-01 4.797978e-01 4.820749e-01 5.130252e-01 4.798635e-01 4.667395e-01 6.045543e-01 3.814022e-01 6.789643e-01
<GCONST> 1.312440e+02
<TRANSP> 5
 0.000000e+00 1.000000e+00 0.000000e+00 0.000000e+00 0.000000e+00
 0.000000e+00 7.944345e-01 2.055656e-01 0.000000e+00 0.000000e+00
 0.000000e+00 0.000000e+00 6.586927e-01 3.413073e-01 0.000000e+00
 0.000000e+00 0.000000e+00 0.000000e+00 8.054184e-01 1.945816e-01
