~o
<STREAMINFO> 1 39
<VECSIZE> 39<NULLD><MFCC_D_A_0><DIAGC>
~h "b"
<BEGINHMM>
<NUMSTATES> 5
<STATE> 2
<MEAN> 39
 1.093545e+00 4.963379e+00 4.937622e+00 -2.966236e+00 5.318553e-01 -4.618751e-01 -3.995602e+00 -3.382410e+00 -2.043281e+00 9.269286e-01 -2.443634e+00 -4.145542e+00 4.748040e+01 3.102418e-01 -1.480690e-01 -1.075611e-01 -7.980870e-02 1.020306e-01 -2.790711e-02 -2.734565e-01 -1.594259e-01 -7.083771e-02 6.645642e-03 -1.021550e-01 -1.710341e-01 5.581861e-01 -1.960631e-02 -2.428573e-02 -3.090456e-02 -4.435086e-02 -3.129864e-02 -3.602140e-02 -1.058504e-02 3.414683e-03 1.640036e-02 4.182701e-03 1.892859e-02 3.154840e-02 2.795440e-02
<VARIANCE> 39
 7.273133e+01 7.408064e+01 6.481821e+01 1.306571e+02 6.049548e+01 5.657086e+01 5.855853e+01 5.781967e+01 6.088024e+01 4.453522e+01 5.758591e+01 4.191760e+01 2.658269e+02 3.787889e+00 4.549422e+00 3.680501e+00 4.752953e+00 4.310532e+00 3.906924e+00 4.020685e+00 4.829915e+00 4.940856e+00 3.820200e+00 3.412243e+00 3.221476e+00 9.344989e+00 7.167830e-01 7.967452e-01 6.877484e-01 7.684806e-01 8.078346e-01 7.621757e-01 7.107838e-01 9.063414e-01 9.238266e-01 7.516739e-01 6.356372e-01 6.045648e-01 1.298044e+00
<GCONST> 1.427416e+02
<STATE> 3
<MEAN> 39
 1.116284e+00 3.582796e+00 3.393353e+00 -4.886566e+00 3.246815e-01 -1.140399e+00 -5.275910e+00 -3.391722e+00 -2.068954e+00 1.361060e+00 -2.219009e+00 -4.631337e+00 5.102588e+01 2.921977e-02 -1.877382e-01 -1.602483e-01 -2.988898e-01 4.187032e-02 -1.503772e-01 -1.478131e-01 4.641389e-02 -2.627955e-02 9.445337e-02 -2.114971e-02 2.587912e-02 4.385288e-01 -1.687346e-02 -5.160177e-03 -2.694582e-03 -4.538194e-02 -1.540940e-02 -4.549460e-03 3.270857e-02 2.238598e-02 -1.845997e-03 8.614786e-03 1.048084e-03 2.543628e-02 -1.020084e-02
<VARIANCE> 39
 7.804980e+01 7.408064e+01 6.481821e+01 1.299906e+02 6.736453e+01 6.018199e+01 6.636330e+01 6.008005e+01 6.485986e+01 5.332169e+01 5.758591e+01 4.687614e+01 2.658269e+02 3.798996e+00 5.165452e+00 3.792633e+00 5.564786e+00 5.704387e+00 4.416726e+00 4.080655e+00 5.032106e+00 5.063806e+00 4.173420e+00 3.550370e+00 3.656902e+00 1.083084e+01 7.020340e-01 9.661279e-01 6.823096e-01 7.870266e-01 1.078461e+00 7.853019e-01 7.274702e-01 9.849856e-01 9.624023e-01 7.974673e-01 6.618316e-01 6.652611e-01 1.520544e+00
<GCONST> 1.457058e+02
<STATE> 4
<MEAN> 39
 6.028069e-01 4.152722e-01 1.824964e+00 -1.015427e+01 2.262120e+00 -2.358516e+00 -5.881289e+00 -2.146481e+00 -3.458416e+00 5.102265e-02 -4.679933e+00 -3.626631e+00 5.683753e+01 -8.351022e-02 -4.814438e-02 -2.045141e-02 -1.328361e-02 2.317941e-02 2.105778e-02 1.202945e-01 9.549081e-02 1.296709e-02 -3.829112e-02 1.587885e-02 6.707106e-02 1.138384e-02 -7.798281e-03 4.241604e-03 2.053571e-02 2.523792e-02 -1.810690e-02 2.576614e-03 1.424607e-02 2.881088e-03 7.671691e-04 -1.641681e-02 1.132763e-03 1.297346e-03 -2.158808e-02
<VARIANCE> 39
 6.148418e+01 8.928423e+01 6.481821e+01 1.741453e+02 6.575816e+01 7.917657e+01 7.730430e+01 5.190676e+01 6.434853e+01 5.134645e+01 7.852510e+01 4.034281e+01 2.695126e+02 2.688674e+00 4.032684e+00 3.136981e+00 5.831055e+00 4.009703e+00 3.981434e+00 3.744962e+00 4.053913e+00 4.833851e+00 3.765398e+00 3.776300e+00 3.084542e+00 9.386955e+00 4.561614e-01 6.196111e-01 5.104299e-01 7.512076e-01 7.044336e-01 6.925408e-01 6.625209e-01 7.514627e-01 9.297283e-01 6.826363e-01 6.127673e-01 5.677978e-01 1.262346e+00
<GCONST> 1.416961e+02
<TRANSP> 5
 0.000000e+00 1.000000e+00 0.000000e+00 0.000000e+00 0.000000e+00
 0.000000e+00 8.215649e-01 1.784351e-01 0.000000e+00 0.000000e+00
 0.000000e+00 0.000000e+00 8.286067e-01 1.713933e-01 0.000000e+00
 0.000000e+00 0.000000e+00 0.000000e+00 9.346219e-01 6.537814e-02
 0.000000e+00 0.000000e+00 0.000000e+00 0.000000e+00 0.000000e+00
<ENDHMM>
~h "d"
<BEGINHMM>
<NUMSTATES> 5
<STATE> 2
<MEAN> 39
 -2.971840e-01 -2.697830e+00 8.590254e+00 -7.970566e+00 -6.108149e+00 -4.282485e+00 -3.884556e+00 -5.713755e-02 -6.367929e+00 -2.910646e+00 -6.315445e+00 -3.241011e+00 5.976379e+01 1.549708e-01 -5.685402e-02 2.767988e-01 -1.534878e-01 -3.260306e-01 -2.072033e-01 -2.828493e-01 -1.847440e-01 -2.851922e-01 8.136750e-02 -1.280640e-01 -1.217659e-01 4.303918e-01 -4.176653e-02 7.407025e-02 -3.274677e-02 2.515529e-02 3.886318e-02 -3.916868e-04 -1.443297e-02 -6.978921e-03 5.699417e-02 3.056950e-02 3.661996e-02 2.590299e-02 -9.111303e-02
<VARIANCE> 39
 5.621860e+01 1.026465e+02 7.591349e+01 1.022489e+02 8.634105e+01 5.657086e+01 6.621979e+01 6.772605e+01 7.216185e+01 4.590232e+01 6.884764e+01 3.955820e+01 2.658269e+02 2.237194e+00 2.787478e+00 2.511974e+00 3.129044e+00 3.277745e+00 2.789471e+00 3.280904e+00 3.342101e+00 2.936870e+00 2.472309e+00 2.992759e+00 2.231386e+00 6.274503e+00 3.783738e-01 4.307173e-01 4.119604e-01 5.025513e-01 5.262876e-01 4.797978e-01 5.554990e-01 5.538241e-01 5.116775e-01 4.500161e-01 4.898074e-01 3.988223e-01 8.282612e-01
<GCONST> 1.327785e+02
<STATE> 3
<MEAN> 39
 -1.348598e-01 -2.302915e+00 9.276913e+00 -8.289647e+00 -6.792505e+00 -4.852992e+00 -4.877442e+00 -6.158125e-01 -6.797223e+00 -2.668690e+00 -6.518693e+00 -3.413627e+00 6.057005e+01 2.240831e-02 9.910610e-02 1.862790e-01 -1.477541e-01 -1.267180e-01 -1.890926e-01 -2.506486e-01 -1.860174e-01 -1.484907e-01 7.848351e-02 -4.589384e-02 -1.728881e-02 1.584973e-01 -3.408120e-02 4.720284e-02 -2.729654e-02 1.127667e-02 6.826690e-02 1.130458e-02 1.243605e-02 3.585136e-03 4.583160e-02 3.378614e-04 2.319190e-02 3.199606e-02 -8.741322e-02
<VARIANCE> 39
 5.621860e+01 9.242911e+01 8.164625e+01 1.034100e+02 8.870814e+01 5.809928e+01 7.329284e+01 6.787580e+01 7.613435e+01 4.855475e+01 7.423135e+01 4.165528e+01 2.658269e+02 2.237194e+00 2.723955e+00 2.579228e+00 3.266376e+00 3.268051e+00 2.708630e+00 3.432942e+00 3.190055e+00 2.905684e+00 2.535741e+00 2.865464e+00 2.151201e+00 6.263543e+00 3.586498e-01 4.174158e-01 3.993861e-01 5.025513e-01 5.212645e-01 4.797978e-01 5.801464e-01 5.510966e-01 5.058526e-01 4.500161e-01 4.917891e-01 4.085203e-01 7.635312e-01
<GCONST> 1.329456e+02
<STATE> 4
<MEAN> 39
 -1.961706e+00 -2.267364e+00 9.784145e+00 -1.537366e+01 -6.154220e+00 -1.008466e+01 -8.246949e+00 -4.711535e+00 -9.837608e+00 -2.727324e+00 -1.200999e+01 -1.942410e+00 6.443372e+01 -3.576419e-02 2.305445e-01 2.805423e-02 1.217981e-01 3.858679e-02 5.278467e-02 -2.673921e-02 -4.407178e-02 8.200394e-02 5.014784e-02 1.102507e-01 2.519738e-02 -2.745803e-01 -1.962015e-02 3.212918e-02 -2.936577e-02 5.421761e-02 2.873442e-02 4.363291e-02 3.244091e-02 1.486128e-02 3.661455e-02 -4.105206e-03 4.686978e-02 2.547055e-03 -5.779113e-02
<VARIANCE> 39
 5.621860e+01 8.954607e+01 9.214343e+01 1.292512e+02 8.008698e+01 9.201196e+01 8.790880e+01 6.746238e+01 8.131418e+01 6.064479e+01 9.347478e+01 3.571926e+01 2.658269e+02 2.237194e+00 2.707533e+00 2.320818e+00 4.485802e+00 3.054102e+00 3.466931e+00 3.554712e+00 3.380428e+00 3.173802e+00 3.239222e+00 3.425413e+00 2.148676e+00 6.094946e+00 3.580279e-01 4.174158e-01 3.847587e-01 6.086929e-01 4.999610e-01 5.260271e-01 5.863982e-01 5.838505e-01 5.318968e-01 5.671821e-01 5.508024e-01 3.937690e-01 7.854033e-01
<GCONST> 1.357745e+02
<TRANSP> 5
 0.000000e+00 1.000000e+00 0.000000e+00 0.000000e+00 0.000000e+00
 0.000000e+00 6.553128e-01 3.446873e-01 0.000000e+00 0.000000e+00
 0.000000e+00 0.000000e+00 6.665276e-01 3.334724e-01 0.000000e+00
 0.000000e+00 0.000000e+00 0.000000e+00 9.253221e-01 7.467788e-02
 0.000000e+00 0.000000e+00 0.000000e+00 0.000000e+00 0.000000e+00
<ENDHMM>
~h "f"
<BEGINHMM>
<NUMSTATES> 5
<STATE> 2
<MEAN> 39
 6.945361e+00 1.923693e+00 5.539291e-01 -1.763481e+01 -1.031247e+00 2.086446e+00 -8.574701e+00 -6.810895e-01 -4.356167e+00 8.654847e-01 3.744218e+00 -3.612578e+00 6.058109e+01 -1.113690e-01 2.359759e-01 -2.286494e-01 8.617721e-02 3.032526e-01 2.587134e-01 6.204780e-01 -4.035451e-02 -1.008016e-01 3.763535e-01 -2.491154e-01 -1.302051e-02 -5.122567e-01 -6.041520e-02 1.728400e-02 8.937634e-02 2.440412e-01 1.495646e-02 -8.640849e-02 8.549508e-02 -4.675155e-02 5.786502e-03 -1.485663e-01 -6.432416e-02 1.534744e-02 -8.385237e-02
<VARIANCE> 39
 5.621860e+01 7.408064e+01 6.481821e+01 2.001255e+02 6.188470e+01 5.657086e+01 6.167892e+01 5.008425e+01 1.077676e+02 3.600889e+01 6.874370e+01 3.403364e+01 2.658269e+02 2.237194e+00 2.592087e+00 2.314184e+00 3.728909e+00 2.833982e+00 2.664105e+00 2.646528e+00 2.741223e+00 2.630443e+00 2.383868e+00 2.569609e+00 1.958500e+00 4.984552e+00 3.580279e-01 4.174158e-01 3.847587e-01 6.605674e-01 4.999610e-01 4.797978e-01 4.820749e-01 5.089008e-01 4.798635e-01 4.500161e-01 4.608459e-01 3.767788e-01 6.789643e-01
<GCONST> 1.304830e+02
<STATE> 3
<MEAN> 39
 4.870941e+00 3.579361e+00 2.354858e-01 -1.397243e+01 5.924056e-01 2.130956e+00 -4.460252e+00 -1.619837e+00 -3.929960e+00 7.193795e-01 9.550046e-01 -2.365975e+00 5.621801e+01 -1.946099e-01 2.255726e-01 -4.497043e-02 3.383284e-01 1.067301e-01 5.214068e-02 6.627117e-01 3.133177e-03 -8.063421e-02 -2.028315e-02 -2.718443e-01 1.206379e-01 -4.041244e-01 -7.186747e-03 -1.879846e-02 2.309264e-02 3.217554e-02 -9.532716e-03 -3.957330e-02 -2.696787e-02 -1.730918e-02 2.942829e-02 -6.834594e-02 1.527881e-02 3.307315e-02 2.661344e-02
<VARIANCE> 39
 5.768344e+01 7.408064e+01 6.481821e+01 2.028675e+02 6.049548e+01 5.657086e+01 5.480392e+01 5.008425e+01 5.727971e+01 3.864750e+01 5.758591e+01 3.187182e+01 2.658269e+02 2.237194e+00 2.592087e+00 2.314184e+00 3.129044e+00 2.833982e+00 2.664105e+00 2.646528e+00 2.741223e+00 2.630443e+00 2.383868e+00 2.569609e+00 1.958500e+00 4.984552e+00 3.580279e-01 4.174158e-01 3.847587e-01 5.025513e-01 4.999610e-01 4.797978e-01 4.820749e-01 5.089008e-01 4.798635e-01 4.500161e-01 4.608459e-01 3.767788e-01 6.789643e-01
<GCONST> 1.291286e+02
<STATE> 4
<MEAN> 39
 4.856910e+00 8.904716e+00 7.409384e-01 -5.753399e+00 2.286693e+00 3.809997e+00 1.237945e+00 -1.294476e+00 -2.436857e+00 -1.032266e+00 -8.926177e-01 -1.551653e-01 4.380383e+01 -1.333391e-01 1.327103e-01 6.569944e-02 3.449407e-01 -7.886750e-03 -5.052579e-04 1.852990e-01 2.951034e-02 8.796442e-02 -8.353258e-02 -7.615068e-03 6.069080e-02 -3.584223e-01 -1.353167e-02 -1.636952e-02 8.703271e-03 -1.292315e-02 5.001884e-03 -1.109946e-02 -2.654552e-02 3.244701e-03 1.039735e-02 -5.711587e-04 1.195770e-02 -6.496268e-03 2.039537e-02
<VARIANCE> 39
 5.621860e+01 7.408064e+01 6.481821e+01 1.089146e+02 6.049548e+01 5.657086e+01 5.480392e+01 5.008425e+01 4.914367e+01 3.600889e+01 5.758591e+01 2.695450e+01 2.658269e+02 2.237194e+00 2.592087e+00 2.314184e+00 3.129044e+00 2.833982e+00 2.664105e+00 2.646528e+00 2.741223e+00 2.630443e+00 2.383868e+00 2.569609e+00 1.958500e+00 4.984552e+00 3.580279e-01 4.174158e-01 3.847587e-01 5.025513e-01 4.999610e-01 4.797978e-01 4.820749e-01 5.089008e-01 4.798635e-01 4.500161e-01 4.608459e-01 3.767788e-01 6.789643e-01
<GCONST> 1.280894e+02
<TRANSP> 5
 0.000000e+00 1.000000e+00 0.000000e+00 0.000000e+00 0.000000e+00
 0.000000e+00 7.676497e-01 2.323503e-01 0.000000e+00 0.000000e+00
 0.000000e+00 0.000000e+00 6.870652e-01 3.129348e-01 0.000000e+00
 0.000000e+00 0.000000e+00 0.000000e+00 9.403396e-01 5.966033e-02
 0.000000e+00 0.000000e+00 0.000000e+00 0.000000e+00 0.000000e+00
<ENDHMM>
~h "g"
<BEGINHMM>
<NUMSTATES> 5
<STATE> 2
<MEAN> 39
 -6.640290e+00 1.622713e+00 5.765690e+00 -3.978503e+00 -3.343364e+00 -3.821849e+00 -1.600032e+00 6.012235e-01 -7.707901e-01 -6.657888e-01 -1.078781e+00 -1.014251e+00 5.229208e+01 -1.128808e-01 -4.902461e-01 -7.539016e-02 -1.383302e-01 6.007605e-02 -1.743614e-01 -8.694190e-02 1.906279e-02 6.759885e-02 -2.587282e-02 -1.420871e-01 -4.127833e-03 1.888813e+00 8.581042e-02 -6.944402e-02 4.754651e-02 -8.545777e-02 -9.602247e-02 2.819444e-02 -1.272901e-02 -1.835930e-02 -6.767364e-02 1.911405e-02 -1.508837e-02 -3.651155e-02 2.348725e-01
<VARIANCE> 39
 7.693705e+01 8.023161e+01 6.481821e+01 9.562053e+01 9.638860e+01 5.657086e+01 5.480392e+01 5.008425e+01 4.914367e+01 3.600889e+01 5.758591e+01 2.695450e+01 2.844053e+02 5.831578e+00 7.876882e+00 4.524748e+00 5.061049e+00 7.138382e+00 4.388453e+00 3.780455e+00 3.897221e+00 3.673997e+00 2.698810e+00 2.655942e+00 2.481685e+00 2.497759e+01 9.006145e-01 1.298194e+00 8.700690e-01 8.414002e-01 1.196607e+00 9.021016e-01 7.037303e-01 7.623426e-01 6.841432e-01 5.473323e-01 4.910980e-01 4.760554e-01 3.414077e+00
<GCONST> 1.447160e+02
<STATE> 3
<MEAN> 39
 -3.685370e+00 -3.029568e-01 6.265531e+00 -3.562052e+00 -5.651311e+00 -4.054914e+00 -3.598146e+00 -8.474371e-01 -1.812354e+00 -7.879863e-01 -1.678288e+00 -2.044473e+00 5.906610e+01 5.718001e-01 -3.258522e-01 1.936174e-01 -1.271582e-01 -3.816921e-01 -1.404069e-01 -2.632198e-01 -2.907844e-01 -3.185881e-01 -6.107030e-02 -2.406965e-01 -1.911483e-01 1.095199e+00 1.342525e-01 -1.316100e-04 2.190457e-02 -1.031623e-02 -1.031930e-01 -3.489267e-02 -2.082349e-02 -4.849693e-02 -5.771752e-02 3.537591e-03 -3.481036e-02 -1.832157e-02 -1.630164e-01
<VARIANCE> 39
 1.074947e+02 8.386089e+01 6.481821e+01 9.562053e+01 1.098530e+02 5.657086e+01 6.066623e+01 6.246714e+01 5.158296e+01 3.600889e+01 5.758591e+01 2.695450e+01 2.658269e+02 8.051470e+00 8.282973e+00 5.098042e+00 4.919485e+00 8.161614e+00 5.404590e+00 4.218726e+00 4.909229e+00 4.472676e+00 3.120828e+00 3.335969e+00 2.312166e+00 1.832461e+01 1.260661e+00 1.513976e+00 9.784895e-01 7.612805e-01 1.411782e+00 1.003049e+00 7.829713e-01 8.977095e-01 7.673915e-01 6.123220e-01 5.761266e-01 4.281129e-01 2.563617e+00
<GCONST> 1.479080e+02
<STATE> 4
<MEAN> 39
 -2.753794e-01 8.162737e-02 6.678537e+00 -6.936618e+00 -6.594298e+00 -5.657805e+00 -7.038785e+00 -5.483205e+00 -5.171174e+00 -1.464382e+00 -4.639512e+00 -3.934802e+00 5.867457e+01 1.783102e-01 -2.918364e-03 -2.328084e-02 1.114541e-02 -7.751774e-02 9.673686e-02 -1.512633e-01 -1.459199e-01 -5.237274e-02 4.041494e-02 -1.118289e-02 -7.872263e-03 1.129980e-02 -2.330757e-02 1.152726e-02 -1.302702e-02 2.473006e-03 1.055073e-02 1.388608e-02 4.924035e-03 1.284056e-02 1.929009e-02 5.162484e-03 1.017540e-02 1.161810e-02 -3.408546e-02
<VARIANCE> 39
 6.405168e+01 8.512984e+01 6.956264e+01 1.282053e+02 7.588859e+01 9.908152e+01 9.110015e+01 7.224312e+01 6.003204e+01 4.507106e+01 7.362468e+01 3.955428e+01 2.658269e+02 4.311680e+00 6.065905e+00 4.360888e+00 5.828164e+00 5.987934e+00 5.902927e+00 4.546030e+00 4.721605e+00 4.668132e+00 3.638714e+00 4.519357e+00 3.249675e+00 1.273055e+01 6.705619e-01 1.064416e+00 8.043250e-01 9.183856e-01 1.068879e+00 1.120044e+00 8.097018e-01 8.658215e-01 8.073069e-01 7.099274e-01 7.695847e-01 5.941442e-01 1.895191e+00
<GCONST> 1.482359e+02
<TRANSP> 5
 0.000000e+00 1.000000e+00 0.000000e+00 0.000000e+00 0.000000e+00
 0.000000e+00 8.046779e-01 1.953221e-01 0.000000e+00 0.000000e+00
 0.000000e+00 0.000000e+00 8.671672e-01 1.328328e-01 0.000000e+00
 0.000000e+00 0.000000e+00 0.000000e+00 9.712996e-01 2.870035e-02
 0.000000e+00 0.000000e+00 0.000000e+00 0.000000e+00 0.000000e+00
<ENDHMM>
~h "k"
<BEGINHMM>
<NUMSTATES> 5
<STATE> 2
<MEAN> 39
 -1.064397e+00 1.349570e+00 2.643179e+00 -3.010731e+00 9.045644e-01 -1.844672e+00 -1.158375e+00 1.789677e+00 -1.401763e+00 -1.080403e+00 -2.131587e+00 -2.026768e+00 4.730378e+01 -2.767618e-02 4.666945e-02 -2.451081e-01 1.408507e-01 2.144177e-01 8.588690e-02 1.201878e-01 9.375080e-02 -4.838625e-03 2.793361e-02 9.764285e-02 -4.337423e-02 -1.166394e-01 -2.226603e-03 2.674689e-02 4.182269e-02 -3.626091e-02 -3.006125e-02 -1.109440e-02 -5.211609e-03 -2.560643e-02 -2.079767e-02 3.463642e-03 -1.499464e-02 1.168044e-02 7.858332e-03
<VARIANCE> 39
 5.880848e+01 7.408064e+01 6.481821e+01 9.562053e+01 6.934753e+01 5.657086e+01 5.480392e+01 5.008425e+01 4.914367e+01 4.328539e+01 5.758591e+01 2.983556e+01 2.658269e+02 2.961426e+00 2.883189e+00 3.001930e+00 3.129044e+00 3.759474e+00 3.022125e+00 2.929687e+00 2.846399e+00 2.906071e+00 2.712841e+00 2.757612e+00 2.156955e+00 5.111030e+00 4.507621e-01 4.903517e-01 4.992121e-01 5.025513e-01 6.328467e-01 5.538328e-01 5.456414e-01 5.314757e-01 5.301731e-01 5.038061e-01 4.861670e-01 4.134018e-01 6.789643e-01
<GCONST> 1.315997e+02
<STATE> 3
<MEAN> 39
 -1.095094e+00 1.900597e+00 2.138420e+00 -2.582744e+00 1.392902e+00 -1.547321e+00 -6.583939e-01 1.979479e+00 -1.410617e+00 -1.144143e+00 -1.828659e+00 -1.987333e+00 4.600264e+01 1.965305e-02 1.416669e-01 -1.144285e-01 4.846791e-02 6.985591e-02 6.470069e-02 8.937942e-02 -1.404652e-02 -5.836438e-02 -2.098687e-02 6.928524e-02 -4.232884e-05 -2.326303e-01 1.363542e-02 7.184904e-03 4.686123e-02 -2.984323e-02 -4.286259e-02 -1.121322e-02 -2.181163e-02 -3.332484e-02 -2.246518e-02 -1.960472e-02 -1.072013e-02 7.791886e-03 1.891562e-02
<VARIANCE> 39
 5.700761e+01 7.408064e+01 6.481821e+01 9.562053e+01 6.453308e+01 5.657086e+01 5.480392e+01 5.008425e+01 4.914367e+01 4.029689e+01 5.758591e+01 2.928025e+01 2.658269e+02 2.332562e+00 2.592087e+00 2.567063e+00 3.129044e+00 3.087878e+00 2.664105e+00 2.723557e+00 2.741223e+00 2.630443e+00 2.467360e+00 2.569609e+00 1.958500e+00 4.984552e+00 3.823287e-01 4.174158e-01 4.500149e-01 5.025513e-01 5.291755e-01 4.797978e-01 4.979823e-01 5.110467e-01 5.074573e-01 4.702124e-01 4.608459e-01 3.867534e-01 6.789643e-01
<GCONST> 1.289691e+02
<STATE> 4
<MEAN> 39
 -1.928673e+00 3.745219e+00 1.412058e+00 -1.565426e+00 1.283713e+00 -1.748577e+00 -4.244022e-01 1.292511e+00 -1.276667e+00 -1.846348e+00 -8.533218e-01 -1.099844e+00 3.964600e+01 -1.434843e-02 1.455847e-01 2.274720e-02 4.375752e-02 -1.717738e-02 7.127380e-02 7.706547e-03 -5.248867e-02 9.581751e-03 -2.612183e-03 4.706056e-02 -1.387534e-03 -1.489911e-01 -5.027765e-03 -3.178116e-04 1.979509e-02 -1.252647e-03 -2.605502e-03 -4.201770e-04 -8.722758e-03 -4.397540e-03 3.127480e-03 7.200208e-03 -1.019182e-03 -3.641485e-03 3.228360e-02
<VARIANCE> 39
 5.621860e+01 7.408064e+01 6.481821e+01 9.562053e+01 6.049548e+01 5.657086e+01 5.480392e+01 5.008425e+01 4.914367e+01 3.600889e+01 5.758591e+01 2.695450e+01 2.658269e+02 2.237194e+00 2.592087e+00 2.314184e+00 3.129044e+00 2.833982e+00 2.664105e+00 2.646528e+00 2.741223e+00 2.630443e+00 2.383868e+00 2.569609e+00 1.958500e+00 4.984552e+00 3.580279e-01 4.174158e-01 3.847587e-01 5.025513e-01 4.999610e-01 4.797978e-01 4.820749e-01 5.089008e-01 4.798635e-01 4.500161e-01 4.608459e-01 3.767788e-01 6.789643e-01
<GCONST> 1.279592e+02
<TRANSP> 5
 0.000000e+00 1.000000e+00 0.000000e+00 0.000000e+00 0.000000e+00
 0.000000e+00 6.750979e-01 3.249021e-01 0.000000e+00 0.000000e+00
 0.000000e+00 0.000000e+00 6.738170e-01 3.261831e-01 0.000000e+00
 0.000000e+00 0.000000e+00 0.000000e+00 8.977587e-01 1.022414e-01
 0.000000e+00 0.000000e+00 0.000000e+00 0.000000e+00 0.000000e+00
<ENDHMM>
~h "l"
<BEGINHMM>
<NUMSTATES> 5
<STATE> 2
<MEAN> 39
 -1.602487e+00 1.852422e+00 5.026579e+00 -6.552405e+00 -1.388899e+00 -2.288337e+00 -4.933581e+00 -8.400918e-01 -3.031997e+00 -5.044816e-01 -2.700858e+00 -2.626637e+00 4.996247e+01 -1.356369e-01 2.209834e-01 -8.356283e-03 2.192339e-01 8.924910e-02 4.606945e-02 2.203487e-01 1.071117e-01 9.285331e-02 4.707938e-02 8.358423e-02 -1.106759e-02 -2.885123e-01 2.085548e-03 2.909744e-02 2.307375e-02 5.769095e-03 -1.845780e-03 -2.149009e-03 -4.860648e-03 -4.716265e-02 -3.294197e-02 -1.401207e-02 -5.697245e-03 3.092523e-03 2.304611e-02
<VARIANCE> 39
 5.621860e+01 7.408064e+01 7.589471e+01 1.106302e+02 7.117451e+01 5.657086e+01 7.771043e+01 5.008425e+01 5.230510e+01 4.237661e+01 5.852355e+01 3.855504e+01 2.707727e+02 2.237194e+00 2.592087e+00 2.323316e+00 3.129044e+00 2.833982e+00 2.664105e+00 2.920664e+00 2.741223e+00 2.630443e+00 2.419296e+00 2.569609e+00 1.987638e+00 4.984552e+00 3.580279e-01 4.174158e-01 3.847587e-01 5.025513e-01 4.999610e-01 4.797978e-01 5.217570e-01 5.089008e-01 4.798635e-01 4.500161e-01 4.608459e-01 3.767788e-01 6.789643e-01
<GCONST> 1.296034e+02
<STATE> 3
<MEAN> 39
 -1.686136e+00 2.532033e+00 5.248788e+00 -6.180722e+00 -1.331982e+00 -2.100445e+00 -4.672050e+00 -8.358050e-01 -3.098006e+00 -2.783495e-01 -2.467466e+00 -2.687814e+00 4.950817e+01 -6.405374e-02 1.970441e-01 5.468762e-02 2.358792e-01 6.229094e-02 6.920559e-03 1.481081e-01 -4.360244e-03 1.367601e-02 -5.241322e-04 3.659562e-02 1.452188e-02 -2.208066e-01 1.027190e-02 -8.559417e-04 3.787265e-02 1.393644e-02 -3.005729e-02 -2.902251e-03 -1.563727e-03 -3.220201e-02 -3.000356e-02 -2.751875e-02 -1.903757e-02 5.508208e-03 1.564698e-02
<VARIANCE> 39
 5.689508e+01 7.408064e+01 7.964134e+01 1.029073e+02 7.350787e+01 5.657086e+01 7.997474e+01 5.008425e+01 5.369039e+01 4.187928e+01 5.758591e+01 3.913645e+01 2.666175e+02 2.237194e+00 2.592087e+00 2.314184e+00 3.129044e+00 2.833982e+00 2.664105e+00 2.830011e+00 2.741223e+00 2.630443e+00 2.383868e+00 2.569609e+00 1.958500e+00 4.984552e+00 3.580279e-01 4.174158e-01 3.847587e-01 5.025513e-01 4.999610e-01 4.797978e-01 4.973975e-01 5.089008e-01 4.798635e-01 4.500161e-01 4.608459e-01 3.767788e-01 6.789643e-01
<GCONST> 1.295371e+02
<STATE> 4
<MEAN> 39
 -5.394261e-01 3.554661e+00 5.001423e+00 -5.133518e+00 5.382478e-02 -2.376533e+00 -3.468430e+00 -1.324738e+00 -3.329725e+00 -6.991364e-01 -2.911366e+00 -2.111097e+00 4.737335e+01 -4.833719e-02 1.560187e-01 7.214883e-02 2.337282e-01 1.588892e-02 -1.603035e-02 1.225826e-01 -3.543422e-02 1.309121e-02 -3.234249e-02 1.596425e-02 2.645416e-02 -2.221580e-01 -1.809731e-02 6.400112e-03 2.308306e-02 1.393328e-02 -3.462858e-02 5.039074e-03 1.741078e-02 3.898835e-03 -9.348078e-03 -7.877802e-03 8.753253e-03 2.920941e-03 4.500462e-03
<VARIANCE> 39
 5.621860e+01 7.408064e+01 7.697470e+01 1.141500e+02 6.049548e+01 5.657086e+01 7.929915e+01 5.008425e+01 4.914367e+01 3.879579e+01 6.300883e+01 3.176042e+01 2.658269e+02 2.237194e+00 2.592087e+00 2.314184e+00 3.129044e+00 2.833982e+00 2.664105e+00 2.646528e+00 2.741223e+00 2.630443e+00 2.383868e+00 2.569609e+00 1.958500e+00 4.984552e+00 3.580279e-01 4.174158e-01 3.847587e-01 5.025513e-01 4.999610e-01 4.797978e-01 4.820749e-01 5.089008e-01 4.798635e-01 4.500161e-01 4.608459e-01 3.767788e-01 6.789643e-01
<GCONST> 1.290063e+02
<TRANSP> 5
 0.000000e+00 1.000000e+00 0.000000e+00 0.000000e+00 0.000000e+00
 0.000000e+00 6.331719e-01 3.668281e-01 0.000000e+00 0.000000e+00
 0.000000e+00 0.000000e+00 6.344756e-01 3.655244e-01 0.000000e+00
 0.000000e+00 0.000000e+00 0.000000e+00 8.355053e-01 1.644947e-01
 0.000000e+00 0.000000e+00 0.000000e+00 0.000000e+00 0.000000e+00
<ENDHMM>
~h "m"
<BEGINHMM>
<NUMSTATES> 5
<STATE> 2
<MEAN> 39
 -2.510494e+00 9.272509e-01 3.719485e+00 -3.498549e+00 6.569442e-01 -2.958103e+00 -3.189783e+00 -6.928796e-01 -2.994427e+00 -2.295238e+00 -3.528503e+00 -3.450469e+00 5.752985e+01 4.540246e-01 -2.719433e-01 2.294433e-01 2.415214e-03 -1.264747e-01 -5.985982e-02 -2.657620e-01 -7.903421e-02 -2.470775e-01 -6.851038e-02 -5.162849e-02 -1.844958e-01 4.777559e-01 7.748217e-02 -5.980243e-02 3.748158e-02 -3.442531e-02 -5.139283e-02 -6.290795e-03 -9.065509e-03 8.428104e-03 -2.529146e-02 1.664855e-02 -7.132421e-03 8.294418e-03 -6.053354e-02
<VARIANCE> 39
 1.085814e+02 1.003755e+02 6.481821e+01 9.562053e+01 6.808019e+01 5.657086e+01 5.480392e+01 6.854454e+01 5.176863e+01 4.047701e+01 5.807780e+01 3.437336e+01 2.658269e+02 5.243110e+00 4.790721e+00 3.794021e+00 4.895676e+00 4.464205e+00 2.991403e+00 3.505455e+00 3.864445e+00 2.880001e+00 2.635790e+00 3.409846e+00 2.815132e+00 6.294658e+00 7.773433e-01 6.866447e-01 6.538571e-01 7.463104e-01 7.266743e-01 4.909092e-01 6.270543e-01 6.615525e-01 4.945306e-01 4.655281e-01 5.226439e-01 4.832685e-01 7.064686e-01
<GCONST> 1.380460e+02
<STATE> 3
<MEAN> 39
 -5.602710e-01 -1.544902e-01 4.460486e+00 -3.801456e+00 -1.855803e-02 -3.182399e+00 -4.019320e+00 -7.880397e-01 -3.915916e+00 -2.454221e+00 -3.936190e+00 -3.898032e+00 5.808221e+01 4.812325e-01 -2.621347e-01 2.110339e-01 -1.597728e-01 -8.371635e-02 -1.064977e-01 -1.702324e-01 -7.278693e-02 -2.434538e-01 -2.492578e-02 -8.102634e-02 -9.803198e-02 1.064321e-01 -2.625923e-02 -1.293946e-03 -1.075429e-02 -6.163065e-02 -1.796108e-02 -1.781488e-02 2.577053e-02 6.053880e-03 -3.562210e-03 1.690095e-02 -8.819714e-03 3.197971e-02 -1.735178e-02
<VARIANCE> 39
 1.009857e+02 9.594630e+01 6.481821e+01 9.562053e+01 6.726507e+01 6.080360e+01 5.623604e+01 7.426789e+01 5.593111e+01 4.554663e+01 6.162371e+01 3.906098e+01 2.658269e+02 4.509690e+00 4.843366e+00 3.841821e+00 5.404825e+00 4.176071e+00 3.293571e+00 3.417159e+00 4.534820e+00 3.068951e+00 2.824756e+00 3.651136e+00 3.068594e+00 4.984552e+00 6.902774e-01 6.441421e-01 6.301946e-01 8.131334e-01 7.301073e-01 5.376851e-01 6.064816e-01 7.639591e-01 5.394283e-01 5.177179e-01 5.699123e-01 5.276774e-01 6.789643e-01
<GCONST> 1.390669e+02
<STATE> 4
<MEAN> 39
 2.199159e-01 -2.144293e+00 4.851100e+00 -8.383133e+00 7.318202e-01 -7.000255e+00 -4.658181e+00 -2.825420e+00 -5.430965e+00 -3.565416e+00 -7.173631e+00 -3.098548e+00 5.921416e+01 8.806672e-02 1.372888e-02 2.878224e-02 -4.736901e-02 9.602085e-03 -9.286053e-03 -6.543584e-03 2.029632e-02 4.942705e-02 2.813074e-02 -2.134311e-02 1.605420e-02 -2.290971e-01 -5.617240e-02 2.588312e-02 -4.001538e-03 8.025494e-03 -1.259230e-02 3.513129e-02 6.722970e-03 1.920321e-02 3.126969e-02 2.892134e-02 2.704932e-02 2.161429e-02 -1.114921e-02
<VARIANCE> 39
 5.760654e+01 9.532689e+01 6.481821e+01 1.362504e+02 6.449269e+01 8.890768e+01 5.480392e+01 6.976228e+01 5.444279e+01 4.855228e+01 8.011408e+01 4.293979e+01 2.710692e+02 2.961913e+00 4.107853e+00 3.821610e+00 5.525851e+00 3.250081e+00 3.886650e+00 3.325768e+00 4.875655e+00 3.261048e+00 3.310668e+00 3.675784e+00 3.256298e+00 6.009712e+00 4.968566e-01 6.130289e-01 5.984367e-01 8.388331e-01 6.036923e-01 6.518551e-01 5.582010e-01 8.198736e-01 5.733493e-01 6.229115e-01 5.966247e-01 5.474547e-01 6.845511e-01
<GCONST> 1.393088e+02
<TRANSP> 5
 0.000000e+00 1.000000e+00 0.000000e+00 0.000000e+00 0.000000e+00
 0.000000e+00 6.850272e-01 3.149728e-01 0.000000e+00 0.000000e+00
 0.000000e+00 0.000000e+00 6.695397e-01 3.304603e-01 0.000000e+00
 0.000000e+00 0.000000e+00 0.000000e+00 8.613045e-01 1.386955e-01
 0.000000e+00 0.000000e+00 0.000000e+00 0.000000e+00 0.000000e+00
<ENDHMM>
~h "n"
<BEGINHMM>
<NUMSTATES> 5
<STATE> 2
<MEAN> 39
 -9.774950e-01 8.871108e-01 3.072718e+00 -3.825665e+00 -2.577399e+00 -2.976068e+00 -1.300954e+00 1.866560e+00 -2.296299e+00 -2.610089e+00 -3.117968e+00 -1.050716e+00 4.916171e+01 -5.337888e-03 -2.319719e-01 -2.274259e-02 -1.649007e-01 6.560489e-03 9.464489e-02 1.093281e-01 -1.671497e-02 -2.509471e-01 -1.689541e-01 -5.384980e-02 -7.684343e-02 -3.510515e-02 -4.438289e-02 1.240524e-01 3.151240e-02 1.012525e-01 1.655503e-02 4.888303e-02 2.897053e-02 -6.862038e-02 6.817474e-03 2.206665e-02 6.418963e-02 -3.249993e-02 -4.835985e-02
<VARIANCE> 39
 5.724746e+01 7.783415e+01 6.481821e+01 9.562053e+01 6.049548e+01 5.657086e+01 5.480392e+01 5.008425e+01 4.914367e+01 3.600889e+01 6.101879e+01 2.695450e+01 3.026768e+02 2.237194e+00 2.592087e+00 2.314184e+00 3.129044e+00 2.833982e+00 2.664105e+00 2.646528e+00 2.741223e+00 2.630443e+00 2.383868e+00 2.569609e+00 1.958500e+00 4.984552e+00 3.580279e-01 4.174158e-01 3.847587e-01 5.025513e-01 4.999610e-01 4.797978e-01 4.820749e-01 5.089008e-01 4.798635e-01 4.500161e-01 4.968826e-01 3.767788e-01 6.789643e-01
<GCONST> 1.282898e+02
<STATE> 3
<MEAN> 39
 -7.937536e-01 2.091851e-01 3.255267e+00 -4.383596e+00 -2.798900e+00 -2.721622e+00 -1.374595e+00 1.682432e+00 -3.083365e+00 -3.011682e+00 -3.521107e+00 -1.299924e+00 5.012371e+01 -2.132720e-02 -3.966957e-02 8.170830e-02 -5.122240e-02 3.332750e-02 1.042274e-01 7.460837e-02 -1.482130e-01 -1.977317e-01 -7.980407e-02 -1.221185e-02 -8.759014e-02 -8.809872e-02 1.361794e-02 7.353525e-02 3.184909e-02 4.227275e-02 -3.445025e-03 -2.723405e-03 -1.443349e-02 -3.940229e-02 3.974377e-02 5.315694e-02 1.927033e-02 -9.587388e-03 -1.302923e-02
<VARIANCE> 39
 6.115002e+01 8.770010e+01 6.481821e+01 9.562053e+01 6.049548e+01 5.657086e+01 5.480392e+01 5.008425e+01 4.914367e+01 3.600889e+01 6.210480e+01 2.817508e+01 3.157794e+02 2.237194e+00 2.592087e+00 2.314184e+00 3.129044e+00 2.833982e+00 2.664105e+00 2.646528e+00 2.741223e+00 2.630443e+00 2.383868e+00 2.569609e+00 1.958500e+00 4.984552e+00 3.580279e-01 4.174158e-01 3.847587e-01 5.025513e-01 4.999610e-01 4.797978e-01 4.820749e-01 5.089008e-01 4.798635e-01 4.500161e-01 4.608459e-01 3.767788e-01 6.789643e-01
<GCONST> 1.285041e+02
<STATE> 4
<MEAN> 39
 -1.633955e+00 1.527093e+00 2.808251e+00 -4.256193e+00 -1.573999e+00 -2.699256e+00 -9.469529e-01 -1.350713e-01 -3.203890e+00 -2.878337e+00 -3.137413e+00 -1.360481e+00 4.571102e+01 -4.348584e-02 3.302745e-02 1.001643e-01 1.560583e-02 1.943645e-02 4.848487e-02 -4.886171e-03 -1.077787e-01 -2.270961e-02 2.457800e-02 -6.309635e-03 -5.255557e-02 -1.026224e-01 1.882766e-02 3.769291e-03 3.419722e-02 -2.013291e-02 -1.910692e-02 -1.976733e-02 -2.352724e-02 -1.854436e-02 7.697846e-03 3.391708e-02 -1.624909e-02 -5.382548e-03 4.759707e-02
<VARIANCE> 39
 5.621860e+01 7.987785e+01 6.481821e+01 9.562053e+01 6.049548e+01 5.788410e+01 5.480392e+01 5.008425e+01 4.914367e+01 3.600889e+01 6.467088e+01 2.695450e+01 2.705938e+02 2.237194e+00 2.592087e+00 2.314184e+00 3.129044e+00 2.833982e+00 2.664105e+00 2.646528e+00 2.741223e+00 2.630443e+00 2.383868e+00 2.569609e+00 1.958500e+00 4.984552e+00 3.580279e-01 4.174158e-01 3.847587e-01 5.025513e-01 4.999610e-01 4.797978e-01 4.820749e-01 5.089008e-01 4.798635e-01 4.500161e-01 4.608459e-01 3.767788e-01 6.789643e-01
<GCONST> 1.281913e+02
<TRANSP> 5
 0.000000e+00 1.000000e+00 0.000000e+00 0.000000e+00 0.000000e+00
 0.000000e+00 7.318563e-01 2.681437e-01 0.000000e+00 0.000000e+00
 0.000000e+00 0.000000e+00 7.119778e-01 2.880222e-01 0.000000e+00
 0.000000e+00 0.000000e+00 0.000000e+00 8.807786e-01 1.192214e-01
 0.000000e+00 0.000000e+00 0.000000e+00 0.000000e+00 0.000000e+00
<ENDHMM>
~h "p"
<BEGINHMM>
<NUMSTATES> 5
<STATE> 2
<MEAN> 39
 -2.155553e+00 1.012522e+00 3.302680e+00 -4.916867e+00 -1.516046e+00 -4.279551e+00 -4.922291e+00 -2.471776e+00 -2.571408e+00 -1.426635e+00 -3.891176e+00 -3.474432e+00 5.717105e+01 1.264737e-01 -1.888693e-01 1.400188e-02 -1.888831e-01 -2.689053e-02 -9.041973e-02 -1.637352e-01 -8.090678e-02 -6.195543e-02 -7.642999e-03 -1.124338e-01 -1.342332e-02 5.063277e-01 -4.707810e-03 3.090823e-03 2.600087e-03 -4.506737e-03 -1.814171e-02 -2.794889e-03 1.933578e-03 1.266681e-02 1.938364e-02 1.316422e-02 1.352955e-02 3.327636e-02 -5.062108e-02
<VARIANCE> 39
 8.522054e+01 9.533350e+01 6.481821e+01 1.070367e+02 7.925620e+01 7.481236e+01 9.762956e+01 7.655927e+01 5.027325e+01 4.904344e+01 6.674466e+01 3.777652e+01 2.658269e+02 5.076716e+00 7.807042e+00 4.403180e+00 7.501187e+00 6.286086e+00 6.046117e+00 5.615392e+00 5.628158e+00 4.772097e+00 4.660312e+00 4.462349e+00 3.431438e+00 1.760795e+01 7.701800e-01 1.301157e+00 8.322808e-01 1.228749e+00 1.151075e+00 1.120742e+00 9.328450e-01 1.034052e+00 8.925337e-01 9.003491e-01 7.643054e-01 6.437664e-01 2.468575e+00
<GCONST> 1.515431e+02
<STATE> 3
<MEAN> 39
 -1.481675e+00 1.318819e+00 4.146155e+00 -5.193732e+00 -1.163268e+00 -3.526268e+00 -5.650816e+00 -2.282963e+00 -2.421820e+00 -9.671681e-01 -3.068049e+00 -2.758102e+00 5.556054e+01 1.404192e-01 -1.090899e-02 1.169496e-01 -1.499156e-01 -7.051735e-02 -7.714574e-03 -6.525041e-02 2.233309e-02 -1.134555e-01 -7.715733e-02 4.254128e-02 9.733623e-02 -5.440529e-02 1.147433e-02 3.777795e-03 -1.879825e-02 -5.813725e-02 -5.155693e-02 1.601080e-02 2.442885e-02 1.932200e-02 -9.264602e-03 1.882999e-02 9.964039e-03 3.498553e-03 7.718792e-03
<VARIANCE> 39
 8.430077e+01 7.973252e+01 6.481821e+01 9.562053e+01 8.375780e+01 6.902081e+01 8.415578e+01 7.330164e+01 5.124505e+01 3.962041e+01 6.485219e+01 3.233675e+01 2.658269e+02 5.305067e+00 6.837202e+00 4.557916e+00 7.569153e+00 6.178504e+00 5.435812e+00 5.086114e+00 4.984691e+00 4.651198e+00 4.253374e+00 4.525309e+00 3.146044e+00 1.756375e+01 7.952941e-01 1.227288e+00 8.781379e-01 1.323518e+00 1.137450e+00 9.830945e-01 9.129009e-01 9.436097e-01 8.183518e-01 8.312687e-01 7.936503e-01 6.179812e-01 2.558795e+00
<GCONST> 1.497749e+02
<STATE> 4
<MEAN> 39
 -3.428037e-01 2.439331e+00 4.170115e+00 -7.069283e+00 -7.816375e-01 -2.490676e+00 -5.299817e+00 -1.822832e+00 -3.145835e+00 -1.270529e+00 -2.395096e+00 -1.976429e+00 5.420189e+01 1.879892e-01 -1.066921e-01 5.360113e-02 -6.290156e-01 -2.752436e-01 1.284821e-01 1.952728e-02 1.328791e-01 -1.410735e-01 8.171994e-02 9.675366e-02 1.128381e-01 4.747134e-01 -2.375893e-02 2.479975e-02 -1.338183e-02 -5.290915e-02 2.117938e-02 1.744287e-02 3.602953e-02 -2.863003e-03 3.479302e-03 4.511198e-02 -3.312527e-02 -6.047220e-03 -6.709397e-03
<VARIANCE> 39
 8.198376e+01 7.408064e+01 6.481821e+01 1.163510e+02 6.052847e+01 6.007503e+01 6.516241e+01 5.770155e+01 4.949128e+01 4.283744e+01 5.787582e+01 2.695450e+01 2.658269e+02 5.110793e+00 5.952827e+00 3.670407e+00 8.411440e+00 4.483885e+00 4.396322e+00 3.599952e+00 4.058158e+00 4.041694e+00 3.930660e+00 4.437943e+00 2.806657e+00 1.449586e+01 7.514492e-01 1.102772e+00 6.465135e-01 1.257509e+00 8.174502e-01 8.173084e-01 6.685065e-01 7.531722e-01 7.216868e-01 7.250131e-01 7.843601e-01 5.402429e-01 2.148805e+00
<GCONST> 1.445861e+02
<TRANSP> 5
 0.000000e+00 1.000000e+00 0.000000e+00 0.000000e+00 0.000000e+00
 0.000000e+00 9.411902e-01 5.880974e-02 0.000000e+00 0.000000e+00
 0.000000e+00 0.000000e+00 8.562587e-01 1.437413e-01 0.000000e+00
 0.000000e+00 0.000000e+00 0.000000e+00 8.690931e-01 1.309069e-01
 0.000000e+00 0.000000e+00 0.000000e+00 0.000000e+00 0.000000e+00
<ENDHMM>
~h "r"
<BEGINHMM>
<NUMSTATES> 5
<STATE> 2
<MEAN> 39
 6.538897e-01 -3.302405e-01 5.036979e+00 -3.797308e+00 -5.168992e+00 -1.576739e+00 -7.221467e+00 -3.081525e+00 -2.065078e+00 -1.648285e-01 -2.291238e+00 -3.574211e+00 5.662894e+01 5.321329e-02 -4.027564e-01 1.024273e-01 -2.815340e-01 -2.190430e-01 -1.091718e-01 -3.569694e-01 1.745890e-01 1.849582e-02 2.262409e-02 1.940726e-02 6.053911e-03 1.076013e+00 -3.175565e-02 -3.167851e-02 -1.024603e-02 -3.189514e-02 2.821390e-02 -1.332783e-02 -1.445595e-03 7.271660e-02 1.060309e-02 1.286318e-02 2.918776e-03 -7.767503e-03 3.948657e-02
<VARIANCE> 39
 9.002374e+01 9.471537e+01 6.990012e+01 1.019045e+02 1.128589e+02 5.657086e+01 9.008080e+01 8.102725e+01 6.965077e+01 4.202074e+01 5.758591e+01 3.272604e+01 2.658269e+02 4.324476e+00 5.589862e+00 4.333445e+00 4.751200e+00 5.866990e+00 4.412935e+00 4.687839e+00 3.810201e+00 4.408390e+00 3.404882e+00 3.071221e+00 2.645576e+00 1.230738e+01 7.720395e-01 9.549132e-01 7.630438e-01 7.667074e-01 1.043169e+00 8.092425e-01 8.841891e-01 6.940045e-01 7.729260e-01 6.335014e-01 5.622759e-01 4.903280e-01 1.758926e+00
<GCONST> 1.450862e+02
<STATE> 3
<MEAN> 39
 1.781954e-01 -4.979756e-01 7.117434e+00 -5.058532e+00 -6.606537e+00 -2.655690e+00 -7.833234e+00 -2.145267e+00 -2.859130e+00 -2.743234e-01 -2.024588e+00 -3.800989e+00 6.093575e+01 7.814354e-02 -1.464040e-01 1.656685e-01 -2.810436e-01 -1.365299e-01 -1.877034e-01 -1.122860e-01 1.143776e-01 -1.507978e-01 5.048740e-02 -6.674840e-02 7.931865e-04 5.052450e-01 -6.479935e-03 5.982608e-02 9.416637e-03 8.507049e-03 2.809837e-02 -1.423005e-02 5.812905e-02 4.779869e-03 -1.964939e-02 1.513258e-03 -1.989278e-02 1.023140e-02 -1.499557e-01
<VARIANCE> 39
 9.375831e+01 9.960139e+01 9.089804e+01 9.668126e+01 1.227373e+02 5.913980e+01 9.386890e+01 7.015243e+01 7.760679e+01 4.026174e+01 5.866369e+01 3.367467e+01 2.658269e+02 5.374041e+00 6.186216e+00 5.049137e+00 4.913872e+00 7.451173e+00 4.430770e+00 4.804463e+00 4.181795e+00 4.614205e+00 3.445467e+00 3.389415e+00 2.477248e+00 1.043857e+01 9.035761e-01 1.008320e+00 8.280101e-01 7.925782e-01 1.191116e+00 7.748957e-01 8.909457e-01 7.716196e-01 7.987847e-01 6.645666e-01 6.160797e-01 4.592687e-01 1.384256e+00
<GCONST> 1.467134e+02
<STATE> 4
<MEAN> 39
 -1.296063e+00 -6.981595e-01 7.077553e+00 -9.413084e+00 -4.477992e+00 -5.312270e+00 -6.480488e+00 -2.595108e+00 -4.920997e+00 -1.418864e+00 -5.661529e+00 -3.018402e+00 6.099435e+01 -4.205956e-02 7.378610e-02 1.693767e-02 6.169686e-02 7.732897e-02 -4.725260e-02 1.612763e-01 9.398387e-02 2.724331e-02 1.044928e-02 1.897908e-02 7.645266e-02 -3.199531e-01 -2.317751e-02 1.586763e-02 -2.111630e-02 1.935599e-02 -3.279642e-03 1.960225e-02 2.721643e-02 3.625112e-03 2.816122e-02 1.532561e-02 2.560842e-02 9.198093e-03 -6.212183e-02
<VARIANCE> 39
 7.582652e+01 1.102919e+02 9.020783e+01 1.342335e+02 9.310905e+01 7.822018e+01 1.026403e+02 6.771052e+01 5.929256e+01 5.241990e+01 6.902946e+01 3.008044e+01 2.658269e+02 4.087939e+00 5.302020e+00 4.472238e+00 7.025968e+00 5.023896e+00 4.231527e+00 4.006809e+00 4.078897e+00 4.087296e+00 3.421729e+00 4.442039e+00 2.380845e+00 9.427608e+00 6.664498e-01 8.842076e-01 6.793241e-01 1.092977e+00 8.177655e-01 6.937121e-01 6.716211e-01 7.256948e-01 6.709353e-01 6.426556e-01 7.406389e-01 4.491023e-01 1.195239e+00
<GCONST> 1.448519e+02
<TRANSP> 5
 0.000000e+00 1.000000e+00 0.000000e+00 0.000000e+00 0.000000e+00
 0.000000e+00 8.060030e-01 1.939970e-01 0.000000e+00 0.000000e+00
 0.000000e+00 0.000000e+00 8.504925e-01 1.495075e-01 0.000000e+00
 0.000000e+00 0.000000e+00 0.000000e+00 9.462173e-01 5.378268e-02
 0.000000e+00 0.000000e+00 0.000000e+00 0.000000e+00 0.000000e+00
<ENDHMM>
~h "s"
<BEGINHMM>
<NUMSTATES> 5
<STATE> 2
<MEAN> 39
 -9.532967e+00 6.924381e+00 9.145026e-01 -1.439512e+00 4.031459e-01 -3.367908e+00 1.128890e+00 8.648158e-01 -1.072867e+00 -2.598998e+00 -7.698598e-01 -1.134568e+00 5.371342e+01 -1.078651e+00 5.101929e-01 -4.445134e-01 3.293364e-01 2.832596e-01 1.547408e-01 2.769541e-01 4.183957e-02 1.478899e-01 2.650213e-02 2.837638e-01 4.373885e-02 4.953752e-01 7.045593e-02 -7.157327e-02 6.603821e-02 -1.077329e-01 -8.161616e-02 -4.078497e-03 -8.077613e-02 -4.455391e-02 -1.673048e-02 2.879031e-02 -3.525895e-02 -6.836794e-03 -6.916622e-03
<VARIANCE> 39
 1.095637e+02 7.408064e+01 6.481821e+01 9.562053e+01 6.049548e+01 5.657086e+01 5.480392e+01 5.008425e+01 4.914367e+01 3.600889e+01 5.758591e+01 2.695450e+01 2.658269e+02 5.680324e+00 4.059641e+00 2.852025e+00 3.332130e+00 3.398511e+00 3.664327e+00 3.239918e+00 2.957171e+00 2.709272e+00 2.579452e+00 3.114557e+00 2.331629e+00 5.272177e+00 7.431218e-01 6.746214e-01 4.327223e-01 5.492963e-01 5.208375e-01 6.594917e-01 5.629997e-01 5.311232e-01 5.294414e-01 4.860793e-01 5.320653e-01 4.358025e-01 6.789643e-01
<GCONST> 1.340268e+02
<STATE> 3
<MEAN> 39
 -1.233341e+01 7.990771e+00 -1.991041e-01 -9.832644e-01 7.322164e-01 -2.868443e+00 1.647476e+00 7.508199e-01 -8.788258e-01 -2.334224e+00 -9.305024e-02 -9.415447e-01 5.551277e+01 -3.116979e-01 1.669641e-01 -1.141380e-01 6.735183e-02 -7.133193e-02 1.035231e-01 -7.510441e-03 -9.823540e-02 2.326090e-03 2.207977e-02 7.440769e-02 -9.552138e-03 2.829887e-01 2.226115e-01 -7.940697e-02 1.094129e-01 -7.328933e-02 -8.091658e-02 -1.869222e-02 -7.399659e-02 -3.862593e-02 -5.041210e-02 -5.376256e-03 -6.689141e-02 -1.997721e-02 -7.715052e-02
<VARIANCE> 39
 1.186389e+02 7.544518e+01 6.481821e+01 9.562053e+01 6.049548e+01 5.657086e+01 5.480392e+01 5.008425e+01 4.914367e+01 3.600889e+01 5.758591e+01 2.695450e+01 2.658269e+02 4.888934e+00 3.238285e+00 2.428460e+00 3.129044e+00 2.833982e+00 2.765703e+00 2.646528e+00 2.741223e+00 2.630443e+00 2.383868e+00 2.569609e+00 1.958500e+00 4.984552e+00 6.048750e-01 5.222393e-01 3.847587e-01 5.025513e-01 4.999610e-01 5.477407e-01 4.820749e-01 5.089008e-01 4.798635e-01 4.500161e-01 4.641142e-01 3.767788e-01 6.789643e-01
<GCONST> 1.307022e+02
<STATE> 4
<MEAN> 39
 -1.080405e+01 7.053543e+00 -4.247639e-01 -6.877120e-01 2.873844e-01 -2.241697e+00 1.297373e+00 8.354650e-01 -1.371827e+00 -2.757657e+00 1.207974e-01 -7.231000e-01 5.140094e+01 2.519519e-01 -1.677759e-02 1.813693e-01 -6.124445e-02 -1.506144e-01 2.555694e-02 -1.136998e-01 -1.291903e-01 -8.642083e-02 1.304147e-02 -7.315464e-02 -4.653611e-02 -7.016319e-02 1.139661e-01 -6.520722e-02 9.156512e-02 -5.783400e-02 -4.185915e-02 -2.609923e-02 -4.367442e-02 -3.945721e-03 -2.995117e-02 1.018273e-02 -3.797066e-02 -4.847384e-03 -1.199010e-02
<VARIANCE> 39
 1.029092e+02 7.408064e+01 6.481821e+01 9.562053e+01 6.049548e+01 5.657086e+01 5.480392e+01 5.008425e+01 4.914367e+01 3.600889e+01 5.758591e+01 2.695450e+01 2.658269e+02 2.625850e+00 2.592087e+00 2.314184e+00 3.129044e+00 2.833982e+00 2.664105e+00 2.646528e+00 2.741223e+00 2.630443e+00 2.383868e+00 2.569609e+00 1.958500e+00 4.984552e+00 3.580279e-01 4.174158e-01 3.847587e-01 5.025513e-01 4.999610e-01 4.797978e-01 4.820749e-01 5.089008e-01 4.798635e-01 4.500161e-01 4.608459e-01 3.767788e-01 6.789643e-01
<GCONST> 1.287240e+02
<TRANSP> 5
 0.000000e+00 1.000000e+00 0.000000e+00 0.000000e+00 0.000000e+00
 0.000000e+00 7.087520e-01 2.912481e-01 0.000000e+00 0.000000e+00
 0.000000e+00 0.000000e+00 7.024435e-01 2.975565e-01 0.000000e+00
 0.000000e+00 0.000000e+00 0.000000e+00 8.574858e-01 1.425142e-01
 0.000000e+00 0.000000e+00 0.000000e+00 0.000000e+00 0.000000e+00
<ENDHMM>
~h "t"
<BEGINHMM>
<NUMSTATES> 5
<STATE> 2
<MEAN> 39
 -5.865705e+00 4.996058e+00 8.232374e+00 -4.941791e+00 -4.549182e+00 -3.284853e+00 -2.080765e+00 -1.752131e+00 -2.947602e+00 -9.309635e-01 -1.430888e+00 -2.029693e+00 5.359692e+01 1.932106e-02 -1.864402e-01 2.303165e-01 -1.358939e-01 -1.945591e-01 -8.550775e-02 -8.793714e-02 1.184731e-02 -8.579059e-02 4.525517e-02 -8.441297e-03 -5.950942e-02 5.809160e-01 2.121461e-02 -5.214097e-02 -1.019662e-02 -4.394580e-02 -3.968631e-02 -1.470621e-03 -2.005709e-03 1.259056e-02 -2.119398e-03 3.912263e-04 -1.633443e-02 -2.143809e-03 3.981612e-02
<VARIANCE> 39
 8.095757e+01 7.408064e+01 7.394032e+01 9.562053e+01 9.727093e+01 5.657086e+01 5.480392e+01 5.075358e+01 4.914367e+01 3.600889e+01 5.758591e+01 2.695450e+01 2.681512e+02 6.663718e+00 5.221013e+00 5.240791e+00 5.223515e+00 7.275127e+00 3.796830e+00 3.780746e+00 3.677964e+00 3.567432e+00 2.695522e+00 3.288350e+00 2.288091e+00 1.698762e+01 1.099813e+00 9.422786e-01 8.413721e-01 9.033744e-01 1.251189e+00 7.200998e-01 7.323611e-01 6.606965e-01 6.180151e-01 5.320967e-01 5.810467e-01 4.422189e-01 2.320177e+00
<GCONST> 1.434268e+02
<STATE> 3
<MEAN> 39
 -4.446028e+00 2.683850e+00 8.774941e+00 -5.658378e+00 -6.111935e+00 -4.043800e+00 -2.304222e+00 -8.555833e-01 -3.183659e+00 -6.867034e-01 -2.157434e+00 -2.218361e+00 5.611451e+01 2.414662e-01 -3.277185e-01 -4.833049e-02 -1.298889e-01 -1.417487e-01 -1.295962e-01 -2.926534e-02 1.312084e-01 1.216900e-03 -2.439752e-02 -9.258094e-02 -3.364820e-02 2.179439e-01 4.533482e-02 -4.422860e-02 -3.348481e-02 -5.686833e-02 -2.162851e-03 -2.816657e-02 -1.123543e-02 2.062549e-03 -2.350151e-03 -1.222290e-02 -2.925091e-02 3.870292e-03 -2.030523e-03
<VARIANCE> 39
 8.427570e+01 7.408064e+01 7.656515e+01 9.562053e+01 9.719121e+01 5.657086e+01 5.480392e+01 6.316363e+01 5.034579e+01 3.600889e+01 5.758591e+01 2.695450e+01 2.658269e+02 6.430484e+00 5.629823e+00 4.980706e+00 5.091946e+00 6.899944e+00 4.124670e+00 3.704385e+00 4.030649e+00 3.712529e+00 2.722077e+00 3.562525e+00 2.279619e+00 1.459498e+01 1.032062e+00 9.979272e-01 7.778933e-01 8.847631e-01 1.203966e+00 7.585023e-01 6.974810e-01 7.016603e-01 6.418007e-01 5.379452e-01 6.054095e-01 4.354289e-01 2.003561e+00
<GCONST> 1.436208e+02
<STATE> 4
<MEAN> 39
 -2.918582e+00 1.251333e+00 6.412884e+00 -6.716093e+00 -5.038468e+00 -5.210761e+00 -1.778406e+00 -1.367044e-02 -2.574150e+00 -1.355511e+00 -3.850447e+00 -1.659113e+00 5.269405e+01 -1.065690e-02 -1.088356e-02 -1.620768e-01 -1.688001e-02 1.594881e-01 -3.799618e-02 -1.502683e-02 1.471869e-02 7.088432e-02 -8.925428e-02 -3.690743e-02 6.352626e-03 -7.750918e-02 -3.118625e-02 -2.931328e-03 1.047073e-02 8.564837e-03 3.664828e-02 1.376563e-03 -6.899074e-03 7.100854e-04 -1.492454e-02 2.668185e-03 -8.324814e-03 -4.269952e-04 7.229691e-02
<VARIANCE> 39
 6.037159e+01 7.502500e+01 6.481821e+01 9.562053e+01 6.219078e+01 6.184571e+01 5.480392e+01 5.282093e+01 5.097635e+01 3.600889e+01 5.841078e+01 2.695450e+01 2.985067e+02 3.559316e+00 3.863686e+00 2.890331e+00 4.475004e+00 3.556648e+00 3.553942e+00 2.972518e+00 2.984487e+00 2.930523e+00 2.423282e+00 3.282421e+00 2.089950e+00 1.025709e+01 5.347738e-01 6.258969e-01 4.658562e-01 7.150671e-01 6.314260e-01 6.074701e-01 5.354093e-01 5.440046e-01 4.837048e-01 4.624017e-01 5.263275e-01 3.944556e-01 1.387391e+00
<GCONST> 1.346156e+02
<TRANSP> 5
 0.000000e+00 1.000000e+00 0.000000e+00 0.000000e+00 0.000000e+00
 0.000000e+00 8.026540e-01 1.973460e-01 0.000000e+00 0.000000e+00
 0.000000e+00 0.000000e+00 7.959958e-01 2.040042e-01 0.000000e+00
 0.000000e+00 0.000000e+00 0.000000e+00 7.879416e-01 2.120584e-01
 0.000000e+00 0.000000e+00 0.000000e+00 0.000000e+00 0.000000e+00
<ENDHMM>
~h "v"
<BEGINHMM>
<NUMSTATES> 5
<STATE> 2
<MEAN> 39
 -2.448792e+00 2.222464e-01 1.242065e+01 -1.086691e+01 -7.564903e+00 -6.414102e+00 -4.029075e+00 -5.323823e+00 -8.013297e+00 -2.091940e+00 -7.047561e+00 -2.982430e+00 6.201154e+01 5.834373e-01 -3.476029e-01 9.486576e-01 -1.304577e+00 -7.462031e-01 -7.439497e-01 -3.256570e-01 -7.757877e-01 -7.203521e-01 1.605165e-01 -8.390862e-01 -2.118373e-01 1.331059e+00 -3.834778e-02 3.624536e-02 -6.362771e-02 -7.810026e-03 2.820249e-02 -3.175397e-02 -4.969253e-02 -5.204620e-03 3.007421e-02 -2.528301e-02 -2.737337e-02 4.580140e-03 -2.620292e-02
<VARIANCE> 39
 5.621860e+01 7.408064e+01 9.827681e+01 1.372443e+02 6.490763e+01 8.725692e+01 5.480392e+01 8.378104e+01 5.148383e+01 4.990752e+01 8.475903e+01 2.695450e+01 2.658269e+02 2.583017e+00 2.910612e+00 5.930317e+00 8.786366e+00 4.161098e+00 5.337776e+00 4.076823e+00 5.057531e+00 3.437246e+00 3.590939e+00 4.290687e+00 2.076486e+00 1.157666e+01 4.487655e-01 4.469911e-01 8.045611e-01 1.359604e+00 6.478555e-01 8.380952e-01 6.742840e-01 8.580258e-01 5.362782e-01 5.901806e-01 7.004072e-01 3.779183e-01 1.536745e+00
<GCONST> 1.422852e+02
<STATE> 3
<MEAN> 39
 -1.060083e+00 -1.859231e-01 1.339022e+01 -1.301294e+01 -8.524467e+00 -8.269807e+00 -4.836332e+00 -6.821486e+00 -9.141187e+00 -2.236129e+00 -9.111078e+00 -3.403915e+00 6.429586e+01 3.270996e-01 -1.348110e-01 2.809941e-01 -6.226469e-01 -2.468811e-01 -5.328289e-01 -2.366188e-01 -3.930286e-01 -3.234594e-01 -5.603135e-02 -5.693747e-01 -7.196590e-02 6.238935e-01 -5.537978e-02 4.543320e-02 -1.386578e-01 1.687193e-01 1.141306e-01 7.158361e-02 8.029730e-03 1.059106e-01 8.607990e-02 -6.076178e-02 6.881224e-02 3.522567e-02 -1.666258e-01
<VARIANCE> 39
 5.621860e+01 7.408064e+01 1.066734e+02 1.375296e+02 6.589209e+01 9.919608e+01 5.731715e+01 1.026408e+02 5.018347e+01 5.562953e+01 8.885559e+01 2.731715e+01 2.658269e+02 2.450903e+00 2.769662e+00 5.283621e+00 8.777666e+00 4.264894e+00 4.848424e+00 4.209202e+00 4.868391e+00 3.448663e+00 3.487249e+00 4.425307e+00 2.347281e+00 9.900685e+00 4.329745e-01 4.282402e-01 7.053446e-01 1.227869e+00 6.028218e-01 7.486637e-01 7.360317e-01 8.512183e-01 5.197110e-01 5.806007e-01 6.739366e-01 4.155811e-01 1.226586e+00
<GCONST> 1.419446e+02
<STATE> 4
<MEAN> 39
 -1.849684e+00 -1.829939e-01 9.779169e+00 -1.510589e+01 -5.475924e+00 -1.062431e+01 -5.716019e+00 -8.601393e+00 -7.627856e+00 -3.173028e+00 -1.166292e+01 -1.614937e+00 6.469821e+01 1.816774e-02 1.138669e-02 -1.523591e-01 1.493740e-01 1.221839e-01 7.710267e-02 3.725712e-02 1.122150e-01 1.355624e-01 -6.350948e-03 1.416818e-01 3.185257e-02 -5.081279e-02 -6.795522e-03 1.649834e-03 -3.124626e-02 3.417494e-02 2.293047e-02 2.985912e-02 1.654344e-02 3.007780e-02 2.189617e-02 -3.868910e-03 2.990777e-02 -1.170512e-03 -3.791163e-02
<VARIANCE> 39
 5.621860e+01 7.408064e+01 1.069146e+02 1.367856e+02 6.191302e+01 7.645381e+01 6.074511e+01 7.237646e+01 5.608428e+01 6.725064e+01 8.644034e+01 3.127933e+01 2.658269e+02 2.237194e+00 2.735666e+00 3.054642e+00 6.846672e+00 2.845437e+00 3.579433e+00 3.577579e+00 3.683590e+00 2.987279e+00 3.653465e+00 4.592539e+00 2.707771e+00 5.574108e+00 3.797726e-01 4.174158e-01 4.464251e-01 9.986789e-01 4.999610e-01 5.571114e-01 5.957357e-01 6.543779e-01 5.231307e-01 5.971397e-01 7.250316e-01 5.015438e-01 7.769038e-01
<GCONST> 1.372564e+02
<TRANSP> 5
 0.000000e+00 1.000000e+00 0.000000e+00 0.000000e+00 0.000000e+00
 0.000000e+00 7.723476e-01 2.276524e-01 0.000000e+00 0.000000e+00
 0.000000e+00 0.000000e+00 7.448533e-01 2.551467e-01 0.000000e+00
 0.000000e+00 0.000000e+00 0.000000e+00 9.653664e-01 3.463364e-02
 0.000000e+00 0.000000e+00 0.000000e+00 0.000000e+00 0.000000e+00
<ENDHMM>
~h "w"
<BEGINHMM>
<NUMSTATES> 5
<STATE> 2
<MEAN> 39
 1.274398e+00 5.123308e+00 1.832663e+01 -1.254151e+01 -9.963003e+00 -5.156696e+00 -1.204729e+01 -8.852638e+00 -1.202815e+01 5.087275e-01 -1.091702e+01 -2.340106e+00 6.281851e+01 -1.697723e-01 1.111579e-01 3.059852e-01 2.174601e-02 -1.193530e-01 8.847095e-02 8.704737e-04 2.246984e-02 1.107333e-01 -2.832527e-03 -1.089876e-01 3.868571e-02 -5.261035e-02 -1.185653e-02 2.102520e-02 -5.696407e-02 3.478124e-02 5.897640e-02 2.557364e-02 5.805243e-02 2.454553e-02 5.262033e-02 -1.863975e-02 4.306911e-02 9.786609e-03 -8.388274e-02
<VARIANCE> 39
 5.621860e+01 7.408064e+01 7.214169e+01 1.022550e+02 6.294416e+01 9.961802e+01 6.505728e+01 6.052074e+01 5.349365e+01 5.197769e+01 1.013885e+02 4.731259e+01 2.658269e+02 2.237194e+00 2.592087e+00 2.694371e+00 3.382108e+00 3.289582e+00 2.914182e+00 4.486855e+00 3.152380e+00 3.029252e+00 3.308015e+00 3.446193e+00 2.239212e+00 4.984552e+00 3.600877e-01 4.174158e-01 3.847587e-01 5.684959e-01 5.294873e-01 4.797978e-01 7.952999e-01 6.020990e-01 5.352297e-01 5.572935e-01 6.089283e-01 4.272441e-01 6.789643e-01
<GCONST> 1.342950e+02
<STATE> 3
<MEAN> 39
 -6.339518e-01 7.977530e+00 2.047571e+01 -9.318699e+00 -7.975148e+00 5.314453e-01 -1.012185e+01 -5.950239e+00 -8.563272e+00 -2.875296e-01 -5.949594e+00 -2.706221e+00 5.731144e+01 -7.333135e-02 6.946964e-02 -2.463189e-01 9.846651e-02 4.021831e-01 1.752243e-01 2.547840e-01 2.387509e-01 2.296230e-01 1.017343e-02 2.091951e-01 5.004200e-02 -5.906433e-01 1.245796e-02 -2.895103e-02 -6.734796e-02 1.573895e-02 1.972955e-02 -2.983186e-02 2.844502e-02 1.262128e-02 1.990468e-02 -6.703883e-03 -5.314655e-04 3.407750e-03 -2.315721e-02
<VARIANCE> 39
 5.621860e+01 7.408064e+01 7.166721e+01 1.024731e+02 7.109991e+01 6.989865e+01 6.998942e+01 5.592016e+01 5.730735e+01 3.834175e+01 9.573340e+01 5.181347e+01 2.658269e+02 2.237194e+00 2.592087e+00 2.991596e+00 3.129044e+00 2.833982e+00 2.664105e+00 3.572674e+00 2.741223e+00 2.874994e+00 2.599283e+00 2.756658e+00 2.102430e+00 4.984552e+00 3.580279e-01 4.174158e-01 4.274879e-01 5.025513e-01 4.999610e-01 4.797978e-01 5.949057e-01 5.089008e-01 4.982039e-01 4.500161e-01 4.881217e-01 4.092095e-01 6.789643e-01
<GCONST> 1.316016e+02
<STATE> 4
<MEAN> 39
 -1.131079e+00 8.110014e+00 7.864157e+00 -3.190189e+00 -2.666508e-01 7.139864e-01 -1.650367e+00 -1.357516e+00 -3.315258e+00 -1.116495e+00 -6.327021e-01 -5.659425e-01 4.113001e+01 -2.809867e-02 -3.694837e-02 -2.436931e-01 1.518336e-01 1.099158e-01 -3.559238e-02 1.216819e-01 5.953696e-02 8.920626e-02 -2.929809e-02 6.712167e-02 -1.570167e-02 -2.945891e-01 -9.156796e-03 -1.675603e-02 -2.253096e-03 2.214632e-03 -4.441347e-03 -1.699565e-02 -1.027388e-03 -2.367915e-03 -8.928488e-03 -8.096879e-03 -2.326280e-03 -4.748181e-03 2.629846e-02
<VARIANCE> 39
 5.621860e+01 7.408064e+01 7.900706e+01 9.562053e+01 6.049548e+01 5.657086e+01 5.760836e+01 5.008425e+01 4.914367e+01 3.600889e+01 5.758591e+01 2.695450e+01 2.658269e+02 2.237194e+00 2.592087e+00 2.314184e+00 3.129044e+00 2.833982e+00 2.664105e+00 2.646528e+00 2.741223e+00 2.630443e+00 2.383868e+00 2.569609e+00 1.958500e+00 4.984552e+00 3.580279e-01 4.174158e-01 3.847587e-01 5.025513e-01 4.999610e-01 4.797978e-01 4.820749e-01 5.089008e-01 4.798635e-01 4.500161e-01 4.608459e-01 3.767788e-01 6.789643e-01
<GCONST> 1.282071e+02
<TRANSP> 5
 0.000000e+00 1.000000e+00 0.000000e+00 0.000000e+00 0.000000e+00
 0.000000e+00 9.547722e-01 4.522784e-02 0.000000e+00 0.000000e+00
 0.000000e+00 0.000000e+00 8.782315e-01 1.217685e-01 0.000000e+00
 0.000000e+00 0.000000e+00 0.000000e+00 9.625719e-01 3.742804e-02
 0.000000e+00 0.000000e+00 0.000000e+00 0.000000e+00 0.000000e+00
<ENDHMM>
~h "y"
<BEGINHMM>
<NUMSTATES> 5
<STATE> 2
<MEAN> 39
 7.052777e+00 -3.083532e-01 2.973855e+00 -1.726506e+01 8.810562e-01 -2.422338e+00 -1.325852e+01 -2.338947e+00 -9.620404e+00 1.815271e+00 -9.467942e+00 -3.303230e+00 6.353458e+01 1.179456e-01 2.137304e-01 -4.934408e-01 1.410438e-01 7.542561e-01 4.601499e-01 -8.131051e-02 9.958259e-02 5.490764e-01 1.781388e-02 -2.740719e-02 -1.012391e-01 -6.989430e-01 -1.410002e-02 4.924611e-02 1.735960e-01 -6.890829e-04 -3.121172e-02 -6.530074e-03 5.998183e-02 1.049786e-03 -1.785547e-01 -3.176901e-03 -2.868066e-02 5.135830e-02 8.804372e-03
<VARIANCE> 39
 5.621860e+01 7.408064e+01 6.481821e+01 9.577596e+01 8.386940e+01 6.312709e+01 1.094802e+02 7.127240e+01 1.378743e+02 5.114766e+01 5.758591e+01 3.304237e+01 2.658269e+02 2.237194e+00 2.592087e+00 3.285211e+00 8.549948e+00 4.300111e+00 4.149981e+00 6.741975e+00 6.784575e+00 6.659803e+00 4.620325e+00 2.569609e+00 3.742341e+00 6.525856e+00 3.580279e-01 4.174158e-01 5.251443e-01 1.177052e+00 9.326012e-01 6.522169e-01 1.097066e+00 1.281351e+00 9.166166e-01 8.293503e-01 4.608459e-01 6.931941e-01 1.021381e+00
<GCONST> 1.437078e+02
<STATE> 3
<MEAN> 39
 3.930207e+00 -2.018579e+00 1.433682e+00 -1.290057e+01 6.232548e+00 -4.376932e+00 -6.777006e+00 2.960348e+00 -1.772056e+00 -1.229668e+00 -9.860832e+00 -2.053914e+00 5.706595e+01 -8.327828e-02 3.238869e-01 -3.057489e-02 4.748292e-01 3.504325e-01 -2.700919e-02 1.540051e-01 3.966614e-01 4.010096e-03 -1.117184e-01 -2.999638e-02 -4.331031e-01 -6.219048e-01 6.993589e-02 1.813356e-01 5.919571e-02 5.622687e-02 -5.775758e-02 1.028217e-01 1.123270e-01 -1.265702e-01 -1.364620e-01 1.041017e-02 -7.681087e-02 2.420164e-02 -2.180887e-02
<VARIANCE> 39
 5.938564e+01 7.408064e+01 6.481821e+01 9.562053e+01 9.386678e+01 5.657086e+01 8.436445e+01 7.783133e+01 9.795471e+01 3.600889e+01 5.765231e+01 2.695450e+01 2.658269e+02 2.237194e+00 3.276060e+00 2.554024e+00 5.316444e+00 5.744349e+00 2.664105e+00 5.959594e+00 4.971648e+00 5.436045e+00 2.814410e+00 2.693358e+00 2.492453e+00 5.120427e+00 3.940402e-01 4.174158e-01 6.596407e-01 7.623121e-01 1.360240e+00 4.797978e-01 1.044899e+00 7.021280e-01 6.717458e-01 4.895179e-01 5.997185e-01 5.386133e-01 7.670856e-01
<GCONST> 1.385111e+02
<STATE> 4
<MEAN> 39
 2.338671e+00 -1.385841e+00 -1.488638e-02 -1.002810e+01 9.732443e+00 -4.143890e+00 -2.149489e+00 3.698060e+00 -1.913245e+00 -3.151798e+00 -1.210419e+01 -3.301131e+00 5.255309e+01 -4.728542e-01 7.547849e-01 -1.185037e-01 7.260018e-01 -6.225505e-02 6.560228e-01 2.138077e-01 -2.642016e-01 2.494372e-02 2.759466e-02 4.254228e-01 4.006769e-02 -1.419565e+00 -2.183909e-02 1.165558e-01 1.114878e-01 -1.193027e-02 -2.203878e-01 1.775536e-02 7.993715e-03 -2.780906e-02 1.660272e-01 1.308159e-01 1.426664e-01 7.887669e-02 -4.074164e-02
<VARIANCE> 39
 5.621860e+01 7.408064e+01 6.481821e+01 9.562053e+01 6.875088e+01 5.657086e+01 5.480392e+01 5.008425e+01 4.914367e+01 3.600889e+01 5.758591e+01 2.695450e+01 2.658269e+02 2.237194e+00 4.019043e+00 3.476173e+00 3.129044e+00 5.614573e+00 3.382858e+00 5.323539e+00 2.741223e+00 3.587140e+00 2.383868e+00 2.794938e+00 1.958500e+00 4.984552e+00 3.580279e-01 6.969259e-01 7.945738e-01 5.025513e-01 8.922345e-01 7.237434e-01 1.028859e+00 5.089008e-01 4.991869e-01 4.500161e-01 5.552716e-01 3.767788e-01 6.789643e-01
<GCONST> 1.341603e+02
<TRANSP> 5
 0.000000e+00 1.000000e+00 0.000000e+00 0.000000e+00 0.000000e+00
 0.000000e+00 8.734624e-01 1.265376e-01 0.000000e+00 0.000000e+00
 0.000000e+00 0.000000e+00 7.514838e-01 2.485161e-01 0.000000e+00
 0.000000e+00 0.000000e+00 0.000000e+00 8.546621e-01 1.453378e-01
 0.000000e+00 0.000000e+00 0.000000e+00 0.000000e+00 0.000000e+00
<ENDHMM>
~h "z"
<BEGINHMM>
<NUMSTATES> 5
<STATE> 2
<MEAN> 39
 -4.473235e+00 4.832575e+00 1.038333e+01 -3.150320e+00 -6.378664e+00 -4.530833e+00 -2.456888e+00 -1.422678e+00 -4.875354e+00 -1.898125e+00 -1.465902e+00 -3.220417e+00 5.809247e+01 -3.127794e-01 2.838590e-03 -1.336764e-02 -1.156386e-01 -2.401145e-01 -7.249453e-02 1.816852e-01 2.672753e-02 -6.942311e-02 2.160647e-01 2.960691e-01 1.104045e-01 6.797945e-01 4.145618e-02 -4.331566e-04 3.028140e-05 -5.338911e-02 7.267130e-03 -1.106712e-02 -6.756858e-02 -1.678685e-02 -4.752801e-02 -5.607962e-03 -7.372682e-02 1.486743e-02 -2.115162e-05
<VARIANCE> 39
 1.048004e+02 7.408064e+01 1.034941e+02 9.562053e+01 1.110639e+02 5.657086e+01 5.480392e+01 5.836018e+01 4.914367e+01 4.322391e+01 5.758591e+01 3.148044e+01 2.658269e+02 5.412383e+00 3.836645e+00 4.512604e+00 5.091841e+00 6.134244e+00 3.477339e+00 3.660360e+00 3.811328e+00 3.181233e+00 3.055867e+00 3.762576e+00 2.675410e+00 9.616947e+00 8.993815e-01 6.775362e-01 6.683459e-01 8.576585e-01 9.530556e-01 6.079674e-01 6.400699e-01 6.612995e-01 5.516322e-01 5.737997e-01 6.637621e-01 4.742322e-01 1.052184e+00
<GCONST> 1.413948e+02
<STATE> 3
<MEAN> 39
 -5.555559e+00 5.818095e+00 1.009659e+01 -4.073983e+00 -6.427689e+00 -4.681005e+00 -2.041517e+00 -2.282789e+00 -5.175660e+00 -1.281747e+00 -9.423466e-01 -3.151569e+00 5.965301e+01 2.106295e-04 5.584422e-03 1.224453e-01 -2.839704e-01 -2.541239e-01 -6.979681e-03 -1.667660e-01 -1.401272e-01 -1.536289e-01 1.908329e-01 3.809057e-02 4.279790e-02 4.779477e-01 6.810451e-02 -5.748372e-02 3.349286e-02 -7.696397e-02 -2.610432e-02 2.761763e-02 -9.177039e-02 -1.093456e-03 -1.797948e-02 8.914386e-03 -9.139349e-02 9.280594e-03 -5.603689e-02
<VARIANCE> 39
 1.022834e+02 7.408064e+01 1.040277e+02 9.562053e+01 1.037538e+02 5.748854e+01 5.480392e+01 6.243517e+01 4.914367e+01 4.239256e+01 5.758591e+01 2.905627e+01 2.658269e+02 7.330966e+00 4.502932e+00 5.448429e+00 6.570326e+00 7.309131e+00 4.300750e+00 4.530863e+00 3.909815e+00 3.275910e+00 3.419534e+00 3.886095e+00 2.764921e+00 8.790749e+00 1.085237e+00 7.636345e-01 6.607975e-01 9.578916e-01 1.078041e+00 7.048720e-01 7.517800e-01 6.688653e-01 5.187098e-01 5.755022e-01 6.315750e-01 4.956963e-01 9.398899e-01
<GCONST> 1.436155e+02
<STATE> 4
<MEAN> 39
 -6.121222e+00 5.969120e+00 1.093698e+01 -8.014237e+00 -7.986029e+00 -5.459739e+00 -5.073999e+00 -4.560431e+00 -6.448178e+00 -5.904976e-01 -4.173440e+00 -2.366928e+00 5.906052e+01 6.511077e-02 5.045857e-03 9.450047e-03 -7.499809e-02 1.157547e-01 2.004737e-01 -5.109689e-02 3.581277e-02 6.549569e-02 3.020442e-02 -9.088895e-02 -1.137891e-02 -1.861139e-01 8.453972e-03 -3.908109e-03 -4.162038e-02 4.675194e-02 3.874068e-02 1.091567e-02 2.201724e-02 2.216406e-02 2.105437e-02 -2.016970e-02 6.560904e-03 -8.378009e-03 -5.962066e-02
<VARIANCE> 39
 7.933675e+01 7.408064e+01 1.311415e+02 1.369055e+02 6.585797e+01 6.796355e+01 6.141032e+01 6.477583e+01 5.329351e+01 4.832924e+01 6.598203e+01 3.858717e+01 2.658269e+02 4.139007e+00 3.602154e+00 5.821943e+00 7.007240e+00 4.329113e+00 4.042223e+00 4.250220e+00 3.683671e+00 3.327623e+00 3.616943e+00 3.528018e+00 3.358062e+00 5.599450e+00 5.474311e-01 5.636196e-01 7.610537e-01 9.052386e-01 7.390669e-01 6.712230e-01 7.133161e-01 6.187547e-01 5.802383e-01 6.492572e-01 5.333113e-01 6.114720e-01 6.789643e-01
<GCONST> 1.412805e+02
<TRANSP> 5
 0.000000e+00 1.000000e+00 0.000000e+00 0.000000e+00 0.000000e+00
 0.000000e+00 8.063855e-01 1.936146e-01 0.000000e+00 0.000000e+00
 0.000000e+00 0.000000e+00 8.281952e-01 1.718048e-01 0.000000e+00
 0.000000e+00 0.000000e+00 0.000000e+00 9.429066e-01 5.709342e-02
 0.000000e+00 0.000000e+00 0.000000e+00 0.000000e+00 0.000000e+00
<ENDHMM>
~h "aa"
<BEGINHMM>
<NUMSTATES> 5
<STATE> 2
<MEAN> 39
 -1.722477e+00 2.602022e-01 1.076705e+00 -6.349277e+00 2.643802e+00 -2.279463e+00 -2.907614e+00 1.359722e+00 2.033622e-01 -2.533749e-01 -3.776669e+00 -2.820169e+00 4.928842e+01 -9.581165e-02 1.215728e-01 -5.471765e-02 3.800776e-01 1.800467e-01 1.735409e-01 2.276388e-01 9.852045e-02 1.880737e-01 -7.120427e-02 1.352076e-01 7.266561e-02 -5.243918e-01 -5.156881e-03 -2.444664e-02 3.883533e-02 -3.406269e-03 -1.637220e-02 -1.956496e-02 1.063703e-02 -5.688358e-02 -6.589999e-02 -3.728298e-02 -1.214111e-02 4.140269e-02 9.506990e-02
<VARIANCE> 39
 5.621860e+01 7.738655e+01 6.481821e+01 9.562053e+01 6.049548e+01 5.657086e+01 5.480392e+01 5.008425e+01 5.161230e+01 5.757552e+01 5.831838e+01 5.427724e+01 2.680845e+02 2.237194e+00 4.043831e+00 2.324799e+00 3.745664e+00 2.833982e+00 3.630092e+00 3.671117e+00 4.170884e+00 4.198027e+00 3.445352e+00 3.461119e+00 2.887293e+00 1.251232e+01 3.580279e-01 6.426399e-01 4.378379e-01 6.036725e-01 5.503927e-01 6.741554e-01 6.735190e-01 8.009368e-01 7.695473e-01 6.002824e-01 5.937170e-01 5.632771e-01 1.759877e+00
<GCONST> 1.377065e+02
<STATE> 3
<MEAN> 39
 -2.156354e+00 8.710308e-01 1.389759e+00 -4.477385e+00 3.582920e+00 -1.749137e+00 -1.514141e+00 9.247856e-01 1.751673e-02 -1.075724e+00 -3.311382e+00 -2.260909e+00 4.806252e+01 -3.190421e-02 5.437672e-02 1.141978e-02 2.736964e-01 1.807060e-01 1.143824e-02 2.213089e-01 -9.633633e-02 -7.796904e-02 -1.234996e-01 3.360798e-02 7.351220e-02 -2.278501e-02 2.943981e-03 1.557687e-02 1.972961e-02 -2.045142e-02 -3.075656e-02 -2.599647e-02 -2.231819e-02 -2.967590e-02 -4.300684e-02 -8.784255e-03 -1.795264e-02 8.826919e-04 5.208437e-02
<VARIANCE> 39
 5.621860e+01 7.993018e+01 6.481821e+01 9.562053e+01 6.049548e+01 5.657086e+01 5.480392e+01 5.008425e+01 4.956325e+01 5.617186e+01 5.758591e+01 5.049373e+01 2.658269e+02 2.311041e+00 3.875695e+00 2.436677e+00 3.129044e+00 2.833982e+00 3.175751e+00 3.601633e+00 3.701332e+00 3.688824e+00 3.276474e+00 3.187418e+00 2.830225e+00 1.100967e+01 3.580279e-01 5.857857e-01 4.396750e-01 5.099434e-01 5.198730e-01 5.894867e-01 6.598659e-01 7.223403e-01 6.811953e-01 5.868409e-01 5.487134e-01 5.206433e-01 1.480137e+00
<GCONST> 1.357078e+02
<STATE> 4
<MEAN> 39
 -3.381694e+00 3.621442e+00 2.221019e+00 -9.476964e-01 2.942066e+00 -1.686226e+00 -4.269296e-01 7.116404e-01 1.239040e-01 -1.150953e+00 -1.915945e+00 -1.113049e+00 4.021343e+01 2.273335e-03 4.418647e-02 4.859309e-02 6.973261e-02 -4.534028e-02 -9.441927e-03 -2.464810e-02 -4.959362e-02 -8.094929e-02 -3.897683e-02 1.180625e-02 -2.166295e-02 -6.061780e-03 3.546283e-03 -4.330111e-03 1.149917e-02 -1.290874e-02 -3.010595e-02 -1.060138e-02 -2.308154e-02 -4.070053e-03 -1.096057e-02 -2.761383e-03 -2.429450e-03 -4.117127e-03 2.071043e-02
<VARIANCE> 39
 5.621860e+01 7.408064e+01 6.481821e+01 9.562053e+01 6.049548e+01 5.657086e+01 5.480392e+01 5.008425e+01 4.914367e+01 3.714156e+01 5.758591e+01 3.009107e+01 2.658269e+02 2.237194e+00 2.592087e+00 2.314184e+00 3.129044e+00 2.833982e+00 2.664105e+00 2.646528e+00 2.741223e+00 2.630443e+00 2.421143e+00 2.569609e+00 2.001877e+00 4.984552e+00 3.580279e-01 4.174158e-01 3.847587e-01 5.025513e-01 4.999610e-01 4.797978e-01 4.820749e-01 5.089008e-01 4.798635e-01 4.544392e-01 4.608459e-01 3.777572e-01 6.789643e-01
<GCONST> 1.281501e+02
<TRANSP> 5
 0.000000e+00 1.000000e+00 0.000000e+00 0.000000e+00 0.000000e+00
 0.000000e+00 7.935486e-01 2.064514e-01 0.000000e+00 0.000000e+00
 0.000000e+00 0.000000e+00 7.811400e-01 2.188600e-01 0.000000e+00
 0.000000e+00 0.000000e+00 0.000000e+00 9.484480e-01 5.155201e-02
 0.000000e+00 0.000000e+00 0.000000e+00 0.000000e+00 0.000000e+00
<ENDHMM>
~h "ae"
<BEGINHMM>
<NUMSTATES> 5
<STATE> 2
<MEAN> 39
 -3.458323e+00 2.309639e+00 3.718925e+00 -4.324927e+00 -9.282378e-01 -2.620161e+00 -2.526685e-01 8.898027e-01 -1.578699e+00 -2.186444e+00 -1.899422e+00 -1.266563e+00 4.665727e+01 -1.313481e-02 -1.199912e-01 3.599106e-02 7.091933e-04 8.589115e-02 -3.475010e-02 4.681037e-02 3.493974e-02 1.193161e-02 -7.807107e-02 -9.217381e-02 2.280899e-02 1.678230e-01 -2.910500e-02 5.653503e-03 1.350350e-02 -6.664595e-03 -6.798654e-03 -3.526466e-03 -1.421806e-02 -1.704372e-02 -7.762775e-03 1.471512e-02 1.816979e-02 -3.128276e-03 3.260664e-02
<VARIANCE> 39
 5.621860e+01 7.966887e+01 6.481821e+01 9.562053e+01 6.049548e+01 5.657086e+01 5.480392e+01 5.008425e+01 4.914367e+01 3.600889e+01 5.758591e+01 2.695450e+01 2.659955e+02 2.648904e+00 3.371218e+00 2.314184e+00 3.129044e+00 2.833982e+00 2.664105e+00 2.646528e+00 2.741223e+00 2.630443e+00 2.383868e+00 2.569609e+00 1.958500e+00 5.105883e+00 4.519176e-01 5.430684e-01 3.847587e-01 5.025513e-01 4.999610e-01 4.797978e-01 4.820749e-01 5.089008e-01 4.946600e-01 4.500161e-01 4.608459e-01 3.767788e-01 7.829485e-01
<GCONST> 1.291573e+02
<STATE> 3
<MEAN> 39
 -3.631027e+00 2.483976e+00 3.819485e+00 -4.096972e+00 -7.125095e-01 -2.590738e+00 -6.152523e-02 9.534513e-01 -1.469543e+00 -2.163781e+00 -1.982763e+00 -1.219497e+00 4.654051e+01 -3.476407e-02 -8.363752e-02 6.763833e-02 -4.487798e-02 4.156707e-02 -3.881786e-02 2.394525e-02 -9.702434e-03 -3.772595e-02 -3.288631e-02 -8.165053e-02 9.663338e-03 2.109314e-01 -3.326829e-03 3.588245e-03 5.356730e-03 -1.361726e-02 -6.898164e-03 -7.519566e-03 -1.516995e-02 -1.741621e-02 -2.363609e-02 7.376560e-03 -2.655545e-05 -1.060767e-02 4.415051e-02
<VARIANCE> 39
 5.621860e+01 8.249900e+01 6.481821e+01 9.562053e+01 6.049548e+01 5.657086e+01 5.480392e+01 5.008425e+01 4.914367e+01 3.600889e+01 5.758591e+01 2.695450e+01 2.658269e+02 2.651338e+00 3.671731e+00 2.314184e+00 3.129044e+00 2.833982e+00 2.664105e+00 2.646528e+00 2.741223e+00 2.694292e+00 2.383868e+00 2.569609e+00 1.958500e+00 6.892354e+00 4.744834e-01 5.708187e-01 4.062810e-01 5.025513e-01 4.999610e-01 4.797978e-01 4.915120e-01 5.089008e-01 4.976813e-01 4.500161e-01 4.608459e-01 3.767788e-01 9.131466e-01
<GCONST> 1.299342e+02
<STATE> 4
<MEAN> 39
 -3.117675e+00 1.754402e+00 3.193209e+00 -4.404187e+00 -5.899692e-01 -2.933081e+00 5.417200e-01 9.506006e-01 -2.313102e+00 -2.731114e+00 -1.917436e+00 -8.899035e-01 4.464788e+01 -5.053999e-02 1.956697e-02 4.857939e-02 -2.790174e-03 -6.084259e-03 9.495397e-03 -1.123265e-02 -1.713610e-03 -1.363767e-02 1.904974e-02 -1.155805e-02 -8.001631e-03 1.046718e-01 -2.003894e-03 1.259106e-02 9.439081e-03 3.526073e-03 -4.222837e-03 -4.951423e-03 -1.020237e-02 -1.062947e-02 -8.995992e-03 3.781681e-03 -1.467827e-03 -1.066331e-02 3.746184e-02
<VARIANCE> 39
 5.621860e+01 8.805371e+01 6.481821e+01 9.562053e+01 6.049548e+01 5.657086e+01 5.480392e+01 5.008425e+01 4.914367e+01 3.600889e+01 5.758591e+01 2.695450e+01 2.658269e+02 2.237194e+00 2.896133e+00 2.314184e+00 3.129044e+00 2.833982e+00 2.664105e+00 2.646528e+00 2.741223e+00 2.630443e+00 2.383868e+00 2.569609e+00 1.958500e+00 6.536836e+00 3.580279e-01 4.443030e-01 3.847587e-01 5.025513e-01 4.999610e-01 4.797978e-01 4.820749e-01 5.089008e-01 4.798635e-01 4.500161e-01 4.608459e-01 3.767788e-01 8.180909e-01
<GCONST> 1.287629e+02
<TRANSP> 5
 0.000000e+00 1.000000e+00 0.000000e+00 0.000000e+00 0.000000e+00
 0.000000e+00 6.777393e-01 3.222606e-01 0.000000e+00 0.000000e+00
 0.000000e+00 0.000000e+00 6.818390e-01 3.181610e-01 0.000000e+00
 0.000000e+00 0.000000e+00 0.000000e+00 8.909945e-01 1.090054e-01
 0.000000e+00 0.000000e+00 0.000000e+00 0.000000e+00 0.000000e+00
<ENDHMM>
~h "ah"
<BEGINHMM>
<NUMSTATES> 5
<STATE> 2
<MEAN> 39
 -6.605103e-01 4.030632e+00 2.469740e+00 -7.117655e-01 2.260714e+00 -1.198281e+00 8.747432e-01 2.014376e+00 -1.185413e+00 -2.453303e+00 -1.370985e+00 -8.441946e-01 4.188639e+01 4.754377e-02 2.902806e-01 -4.876191e-02 5.545603e-02 -4.979986e-02 1.474107e-01 4.818604e-02 -1.374686e-01 9.890891e-02 5.667778e-02 1.086195e-01 8.486351e-02 -3.856178e-01 -1.834141e-02 -1.257563e-02 1.745860e-02 -2.668757e-02 -3.007807e-03 -2.709444e-02 -3.022301e-02 -4.103380e-03 -1.903355e-02 -2.443262e-03 -8.704651e-03 -3.222837e-02 4.697362e-02
<VARIANCE> 39
 5.621860e+01 7.408064e+01 6.481821e+01 9.562053e+01 6.049548e+01 5.657086e+01 5.480392e+01 5.008425e+01 4.914367e+01 3.600889e+01 5.758591e+01 2.695450e+01 2.658269e+02 2.237194e+00 2.592087e+00 2.314184e+00 3.129044e+00 2.833982e+00 2.664105e+00 2.646528e+00 2.741223e+00 2.630443e+00 2.383868e+00 2.569609e+00 1.958500e+00 4.984552e+00 3.580279e-01 4.174158e-01 3.847587e-01 5.025513e-01 4.999610e-01 4.797978e-01 4.820749e-01 5.089008e-01 4.798635e-01 4.500161e-01 4.608459e-01 3.767788e-01 6.789643e-01
<GCONST> 1.279592e+02
<STATE> 3
<MEAN> 39
 -9.791387e-01 5.312748e+00 2.490219e+00 -6.275949e-01 1.696669e+00 -7.204523e-01 7.343941e-01 1.120171e+00 -8.655108e-01 -2.127125e+00 -8.410330e-01 -7.211104e-01 3.985425e+01 -3.380580e-02 1.806468e-01 1.206301e-02 1.560145e-02 -6.632247e-02 5.940564e-02 -1.207636e-02 -1.083541e-01 4.578397e-02 4.680395e-02 6.196436e-02 1.099241e-02 -2.431903e-01 -8.989366e-03 -1.405315e-02 3.226609e-03 -4.234623e-03 -7.890378e-04 -1.412859e-02 -9.155986e-03 4.981976e-03 -1.025032e-02 9.000123e-04 -6.015725e-03 -1.570934e-02 2.331241e-02
<VARIANCE> 39
 5.621860e+01 7.408064e+01 6.481821e+01 9.562053e+01 6.049548e+01 5.657086e+01 5.480392e+01 5.008425e+01 4.914367e+01 3.600889e+01 5.758591e+01 2.695450e+01 2.658269e+02 2.237194e+00 2.592087e+00 2.314184e+00 3.129044e+00 2.833982e+00 2.664105e+00 2.646528e+00 2.741223e+00 2.630443e+00 2.383868e+00 2.569609e+00 1.958500e+00 4.984552e+00 3.580279e-01 4.174158e-01 3.847587e-01 5.025513e-01 4.999610e-01 4.797978e-01 4.820749e-01 5.089008e-01 4.798635e-01 4.500161e-01 4.608459e-01 3.767788e-01 6.789643e-01
<GCONST> 1.279592e+02
<STATE> 4
<MEAN> 39
 -3.647360e+00 4.964973e+00 2.135142e+00 -8.318346e-01 1.167935e-01 -1.195006e+00 -1.358151e-01 3.928070e-01 -9.283047e-01 -1.971084e+00 1.936626e-01 -6.516096e-01 3.579131e+01 -5.963551e-02 1.319650e-02 2.332256e-02 -4.767842e-03 -2.838702e-02 -4.975894e-03 -2.049589e-02 -2.061642e-02 -7.834463e-04 1.585230e-02 3.885548e-03 -1.475828e-02 -4.756637e-02 1.580443e-03 -3.661865e-03 3.813252e-03 -2.525876e-03 1.584254e-03 -4.034386e-03 -3.782090e-03 3.203515e-04 -7.099851e-03 -1.922832e-03 -4.541983e-03 -6.797228e-03 1.741390e-02
<VARIANCE> 39
 5.621860e+01 7.408064e+01 6.481821e+01 9.562053e+01 6.049548e+01 5.657086e+01 5.480392e+01 5.008425e+01 4.914367e+01 3.600889e+01 5.758591e+01 2.695450e+01 2.658269e+02 2.237194e+00 2.592087e+00 2.314184e+00 3.129044e+00 2.833982e+00 2.664105e+00 2.646528e+00 2.741223e+00 2.630443e+00 2.383868e+00 2.569609e+00 1.958500e+00 4.984552e+00 3.580279e-01 4.174158e-01 3.847587e-01 5.025513e-01 4.999610e-01 4.797978e-01 4.820749e-01 5.089008e-01 4.798635e-01 4.500161e-01 4.608459e-01 3.767788e-01 6.789643e-01
<GCONST> 1.279592e+02
<TRANSP> 5
 0.000000e+00 1.000000e+00 0.000000e+00 0.000000e+00 0.000000e+00
 0.000000e+00 8.115944e-01 1.884056e-01 0.000000e+00 0.000000e+00
 0.000000e+00 0.000000e+00 8.129570e-01 1.870430e-01 0.000000e+00
 0.000000e+00 0.000000e+00 0.000000e+00 9.731734e-01 2.682658e-02
 0.000000e+00 0.000000e+00 0.000000e+00 0.000000e+00 0.000000e+00
<ENDHMM>
~h "ao"
<BEGINHMM>
<NUMSTATES> 5
<STATE> 2
<MEAN> 39
 4.710197e-02 2.520959e+00 -1.151480e+00 -6.687465e+00 2.635070e+00 6.947221e-01 -2.483036e+00 -4.745706e-01 -3.568258e+00 1.307803e+00 4.186186e-01 -2.859918e+00 4.616356e+01 2.494217e-01 -1.756619e-01 -7.403301e-02 -3.523672e-01 -1.321045e-01 1.193101e-01 -1.855763e-01 -4.536815e-02 -8.672977e-02 7.049249e-02 1.638235e-02 -9.488215e-02 4.132903e-01 -4.395811e-02 1.625596e-02 1.424274e-02 2.617616e-02 1.306313e-02 -6.706839e-03 1.346676e-02 8.782431e-03 2.684157e-02 -1.396666e-02 -6.457808e-03 1.727078e-03 2.933376e-03
<VARIANCE> 39
 5.671897e+01 7.408064e+01 6.481821e+01 1.203403e+02 6.049548e+01 5.657086e+01 5.480392e+01 5.008425e+01 5.014317e+01 4.371205e+01 5.758591e+01 2.695450e+01 2.658269e+02 2.237194e+00 2.592087e+00 2.314184e+00 3.129044e+00 2.833982e+00 2.664105e+00 2.646528e+00 2.741223e+00 2.630443e+00 2.383868e+00 2.569609e+00 1.958500e+00 4.984552e+00 3.580279e-01 4.174158e-01 4.101984e-01 5.025513e-01 4.999610e-01 4.797978e-01 4.820749e-01 5.089008e-01 4.798635e-01 4.500161e-01 4.608459e-01 3.767788e-01 6.789643e-01
<GCONST> 1.284760e+02
<STATE> 3
<MEAN> 39
 1.097100e+00 1.875427e+00 -1.042616e+00 -8.254551e+00 2.006656e+00 1.334874e+00 -3.306804e+00 -6.685502e-01 -3.732403e+00 1.677336e+00 8.221216e-01 -3.342833e+00 4.848737e+01 1.301286e-01 -9.506179e-02 1.438378e-02 -2.746012e-01 -8.516690e-02 3.788856e-02 -1.579645e-01 -7.228145e-02 -1.112648e-02 1.466976e-03 -2.803500e-02 -6.034730e-02 2.945510e-01 -2.707565e-02 2.013375e-02 1.681243e-02 2.483695e-02 1.229748e-02 -2.070490e-02 9.258254e-03 -1.295031e-03 1.516689e-02 -1.472233e-02 -9.601822e-03 8.404624e-03 -3.753097e-02
<VARIANCE> 39
 5.640302e+01 7.408064e+01 6.481821e+01 1.432458e+02 6.049548e+01 5.657086e+01 5.480392e+01 5.008425e+01 5.164949e+01 4.636998e+01 5.758591e+01 2.728553e+01 2.947636e+02 2.237194e+00 2.592087e+00 2.314184e+00 3.129044e+00 2.833982e+00 2.664105e+00 2.646528e+00 2.741223e+00 2.630443e+00 2.383868e+00 2.569609e+00 1.958500e+00 4.984552e+00 3.580279e-01 4.174158e-01 3.847587e-01 5.025513e-01 4.999610e-01 4.797978e-01 4.820749e-01 5.089008e-01 4.798635e-01 4.500161e-01 4.608459e-01 3.767788e-01 6.789643e-01
<GCONST> 1.287848e+02
<STATE> 4
<MEAN> 39
 5.301208e-01 7.784753e-01 -1.212301e+00 -1.087849e+01 2.306474e+00 -2.437792e-01 -5.681693e+00 -1.404610e+00 -3.496881e+00 -5.244020e-01 -2.172706e+00 -2.538907e+00 4.967223e+01 -7.170551e-03 -4.406289e-02 4.836263e-02 -7.391298e-02 -3.157878e-02 -7.762092e-02 -1.045370e-01 -1.043247e-02 4.501419e-02 -2.386722e-02 -6.676808e-02 -1.354741e-02 9.752294e-02 -1.160203e-02 1.032496e-02 5.083029e-03 2.830858e-02 -6.963732e-04 -9.090079e-03 1.113312e-02 6.501817e-03 3.286952e-03 -2.063991e-03 -1.496492e-03 3.285720e-03 -1.858374e-02
<VARIANCE> 39
 5.621860e+01 7.408064e+01 6.481821e+01 2.143932e+02 6.049548e+01 5.657086e+01 7.199854e+01 5.008425e+01 4.914367e+01 3.955897e+01 6.237675e+01 2.695450e+01 3.325016e+02 2.237194e+00 2.592087e+00 2.314184e+00 3.129044e+00 2.833982e+00 2.664105e+00 2.646528e+00 2.741223e+00 2.630443e+00 2.383868e+00 2.569609e+00 1.958500e+00 4.984552e+00 3.580279e-01 4.174158e-01 3.847587e-01 5.025513e-01 4.999610e-01 4.797978e-01 4.820749e-01 5.089008e-01 4.798635e-01 4.500161e-01 4.608459e-01 3.767788e-01 6.789643e-01
<GCONST> 1.294373e+02
<TRANSP> 5
 0.000000e+00 1.000000e+00 0.000000e+00 0.000000e+00 0.000000e+00
 0.000000e+00 7.986391e-01 2.013609e-01 0.000000e+00 0.000000e+00
 0.000000e+00 0.000000e+00 8.028206e-01 1.971795e-01 0.000000e+00
 0.000000e+00 0.000000e+00 0.000000e+00 9.747391e-01 2.526095e-02
 0.000000e+00 0.000000e+00 0.000000e+00 0.000000e+00 0.000000e+00
<ENDHMM>
~h "ay"
<BEGINHMM>
<NUMSTATES> 5
<STATE> 2
<MEAN> 39
 -2.336603e+00 -1.726507e+00 4.548237e+00 -9.287521e+00 -2.840068e+00 -6.158432e+00 -3.076943e+00 -1.487494e+00 -4.110912e+00 -2.920723e+00 -5.241683e+00 -1.601341e+00 5.694567e+01 9.810676e-02 -5.323250e-01 -1.401903e-01 -3.125084e-01 1.296059e-01 -2.342186e-01 7.795501e-03 6.060429e-02 -1.069651e-02 -1.368510e-01 -2.253531e-01 -3.328566e-02 5.403076e-01 -2.707919e-02 -1.333536e-02 -1.387266e-02 -3.015488e-02 1.355796e-02 2.913875e-02 2.644928e-02 -9.559714e-03 -5.987151e-03 -8.156636e-03 -1.305423e-02 2.462383e-03 1.654569e-02
<VARIANCE> 39
 5.621860e+01 1.045449e+02 7.560958e+01 1.184896e+02 7.672850e+01 7.638992e+01 6.066809e+01 7.650513e+01 5.875015e+01 5.227058e+01 6.408909e+01 4.095503e+01 2.927094e+02 3.378361e+00 6.215791e+00 3.828042e+00 7.290030e+00 4.774445e+00 5.142580e+00 3.784770e+00 5.343962e+00 4.474787e+00 3.297169e+00 4.759641e+00 3.367437e+00 1.482563e+01 5.356091e-01 9.014236e-01 6.340697e-01 1.159310e+00 8.398412e-01 8.769913e-01 6.917635e-01 1.018190e+00 7.812632e-01 5.597758e-01 8.216373e-01 6.379589e-01 1.912458e+00
<GCONST> 1.463836e+02
<STATE> 3
<MEAN> 39
 -2.153639e+00 -3.681991e+00 3.778191e+00 -1.054450e+01 -2.087845e+00 -6.197585e+00 -3.053788e+00 -1.483601e+00 -3.996816e+00 -3.308222e+00 -6.107654e+00 -1.789121e+00 5.857526e+01 1.609613e-01 -5.937338e-01 -1.008218e-01 -4.961295e-01 8.904137e-02 -1.222259e-01 5.363589e-02 -7.221945e-02 -1.073972e-01 -1.860718e-01 -3.135876e-01 6.122467e-03 6.914207e-01 -5.722906e-03 4.679964e-02 2.096898e-02 -9.603880e-03 -2.387515e-02 2.250297e-02 -2.152947e-03 -2.295195e-02 -1.497348e-02 -1.028858e-02 8.663091e-03 8.802027e-03 -3.248362e-02
<VARIANCE> 39
 5.621860e+01 1.158252e+02 7.464681e+01 1.261027e+02 8.150404e+01 7.888405e+01 6.326143e+01 8.589260e+01 6.361865e+01 5.698765e+01 6.747337e+01 4.540316e+01 2.867739e+02 3.130122e+00 6.219475e+00 3.318118e+00 6.864522e+00 4.478698e+00 4.730895e+00 3.481925e+00 5.446174e+00 4.090639e+00 3.255111e+00 4.474114e+00 3.238650e+00 1.338908e+01 5.194677e-01 9.444606e-01 5.653617e-01 1.124425e+00 7.974355e-01 8.316252e-01 6.301561e-01 1.022074e+00 7.321177e-01 5.562910e-01 7.974393e-01 6.370772e-01 1.796894e+00
<GCONST> 1.458012e+02
<STATE> 4
<MEAN> 39
 -2.139856e+00 -4.462399e+00 6.080025e+00 -1.695898e+01 -2.180583e+00 -1.047276e+01 -3.401281e+00 -5.768061e+00 -5.961319e+00 -5.009123e+00 -9.572599e+00 -1.098856e+00 6.373733e+01 1.224190e-03 1.914886e-01 8.948065e-02 1.855145e-01 -1.126300e-02 7.632837e-02 3.161790e-02 5.505066e-02 6.522213e-02 3.925983e-02 6.421890e-02 8.392822e-03 -2.422301e-01 -1.504682e-02 3.569043e-02 -6.018455e-03 4.476770e-02 1.107007e-03 2.946225e-02 5.711548e-03 1.213014e-02 1.882279e-02 1.986940e-02 3.289013e-02 4.221218e-03 -5.411132e-02
<VARIANCE> 39
 5.621860e+01 1.188210e+02 9.118507e+01 1.498123e+02 7.346552e+01 8.705109e+01 5.970851e+01 8.661854e+01 5.455405e+01 6.447913e+01 7.446510e+01 3.449610e+01 2.658269e+02 2.237194e+00 3.524444e+00 2.610210e+00 6.310525e+00 3.039469e+00 3.749074e+00 2.875102e+00 3.713890e+00 3.204693e+00 3.387916e+00 3.383977e+00 2.535233e+00 8.941121e+00 3.580279e-01 4.779352e-01 3.847587e-01 9.443517e-01 4.999610e-01 5.930551e-01 4.954060e-01 6.294760e-01 5.459246e-01 5.786834e-01 5.655212e-01 4.794685e-01 1.133667e+00
<GCONST> 1.378223e+02
<TRANSP> 5
 0.000000e+00 1.000000e+00 0.000000e+00 0.000000e+00 0.000000e+00
 0.000000e+00 8.073238e-01 1.926762e-01 0.000000e+00 0.000000e+00
 0.000000e+00 0.000000e+00 8.088626e-01 1.911374e-01 0.000000e+00
 0.000000e+00 0.000000e+00 0.000000e+00 9.646456e-01 3.535437e-02
 0.000000e+00 0.000000e+00 0.000000e+00 0.000000e+00 0.000000e+00
<ENDHMM>
~h "ch"
<BEGINHMM>
<NUMSTATES> 5
<STATE> 2
<MEAN> 39
 -4.663125e+00 4.280024e+00 4.855923e+00 -4.257327e+00 -2.459127e+00 -2.303354e+00 -6.985499e-01 9.049165e-02 -1.436186e+00 -1.432375e+00 -6.756485e-01 -1.049567e+00 4.363472e+01 -1.186523e-01 -3.866086e-02 -6.688812e-02 1.089300e-02 9.476741e-02 8.564481e-02 8.826766e-02 7.534422e-02 -4.965908e-02 -7.096832e-02 1.079160e-01 -6.560248e-02 8.920317e-02 3.960600e-02 1.684073e-02 2.661115e-02 2.244066e-02 3.523506e-02 -7.263733e-04 -7.862933e-03 -1.381574e-02 -5.343162e-03 -4.431055e-03 -3.048503e-02 -2.631108e-03 9.663401e-02
<VARIANCE> 39
 6.030384e+01 7.408064e+01 6.481821e+01 9.562053e+01 6.049548e+01 5.657086e+01 5.480392e+01 5.008425e+01 4.914367e+01 3.600889e+01 5.758591e+01 2.695450e+01 2.658269e+02 2.546841e+00 2.592087e+00 2.314184e+00 3.129044e+00 2.833982e+00 2.664105e+00 2.646528e+00 2.741223e+00 2.630443e+00 2.383868e+00 2.569609e+00 1.958500e+00 5.109313e+00 4.036896e-01 4.174158e-01 3.847587e-01 5.025513e-01 4.999610e-01 4.797978e-01 4.820749e-01 5.089008e-01 4.798635e-01 4.500161e-01 4.608459e-01 3.767788e-01 6.789643e-01
<GCONST> 1.283038e+02
<STATE> 3
<MEAN> 39
 -4.726262e+00 4.352589e+00 4.750625e+00 -4.000340e+00 -2.074102e+00 -1.969019e+00 -4.309481e-01 2.363917e-01 -1.463848e+00 -1.559283e+00 -4.375614e-01 -1.200828e+00 4.398011e+01 2.682597e-02 -2.644847e-02 -5.975795e-03 5.059990e-02 9.690248e-02 3.773623e-02 8.506975e-02 4.695480e-02 -2.887721e-02 -5.781175e-02 -3.053677e-03 -3.229967e-02 1.704963e-01 4.407120e-02 -7.422986e-04 5.414541e-03 8.066732e-03 3.739031e-03 -2.015360e-02 -7.518406e-03 -1.314265e-02 -8.654007e-05 -1.941473e-03 -3.517627e-02 8.591924e-03 1.619461e-02
<VARIANCE> 39
 6.230367e+01 7.408064e+01 6.481821e+01 9.562053e+01 6.049548e+01 5.657086e+01 5.480392e+01 5.008425e+01 4.914367e+01 3.600889e+01 5.758591e+01 2.695450e+01 2.658269e+02 2.895014e+00 2.592087e+00 2.314184e+00 3.129044e+00 2.833982e+00 2.664105e+00 2.646528e+00 2.741223e+00 2.630443e+00 2.383868e+00 2.569609e+00 1.958500e+00 4.984552e+00 4.354247e-01 4.174158e-01 3.847587e-01 5.025513e-01 4.999610e-01 4.797978e-01 4.820749e-01 5.089008e-01 4.798635e-01 4.500161e-01 4.608459e-01 3.767788e-01 6.789643e-01
<GCONST> 1.285155e+02
<STATE> 4
<MEAN> 39
 -3.683321e+00 4.833520e+00 3.545724e+00 -2.438340e+00 -1.192729e+00 -1.983652e+00 2.527862e-01 2.854295e-01 -1.572238e+00 -2.192729e+00 3.916740e-02 -1.369564e+00 4.035596e+01 1.541962e-02 -3.142442e-02 4.396005e-03 1.578234e-02 2.939312e-02 -2.638654e-02 1.971225e-02 1.499517e-02 -1.527253e-02 -2.272590e-02 -3.967648e-02 -8.647261e-03 6.083642e-02 9.301475e-03 -8.640194e-03 1.783073e-03 -6.711368e-03 -5.582327e-04 -7.381678e-03 -6.694647e-03 -2.707676e-03 9.569047e-04 1.346042e-03 -9.380552e-03 1.306199e-04 9.571009e-03
<VARIANCE> 39
 5.621860e+01 7.408064e+01 6.481821e+01 9.562053e+01 6.049548e+01 5.657086e+01 5.480392e+01 5.008425e+01 4.914367e+01 3.600889e+01 5.758591e+01 2.695450e+01 2.658269e+02 2.237194e+00 2.592087e+00 2.314184e+00 3.129044e+00 2.833982e+00 2.664105e+00 2.646528e+00 2.741223e+00 2.630443e+00 2.383868e+00 2.569609e+00 1.958500e+00 4.984552e+00 3.580279e-01 4.174158e-01 3.847587e-01 5.025513e-01 4.999610e-01 4.797978e-01 4.820749e-01 5.089008e-01 4.798635e-01 4.500161e-01 4.608459e-01 3.767788e-01 6.789643e-01
<GCONST> 1.279592e+02
<TRANSP> 5
 0.000000e+00 1.000000e+00 0.000000e+00 0.000000e+00 0.000000e+00
 0.000000e+00 6.909865e-01 3.090135e-01 0.000000e+00 0.000000e+00
 0.000000e+00 0.000000e+00 6.990643e-01 3.009357e-01 0.000000e+00
 0.000000e+00 0.000000e+00 0.000000e+00 9.158571e-01 8.414283e-02
 0.000000e+00 0.000000e+00 0.000000e+00 0.000000e+00 0.000000e+00
<ENDHMM>
~h "eh"
<BEGINHMM>
<NUMSTATES> 5
<STATE> 2
<MEAN> 39
 -1.006941e+01 5.009518e+00 2.516634e-01 -9.031110e-01 -2.475261e+00 -2.601831e+00 8.172107e-02 1.561594e+00 -9.462378e-01 -2.858611e+00 -9.676789e-01 -1.741695e+00 5.711401e+01 3.393556e-01 -5.471806e-01 1.806504e-02 -1.302637e-01 -3.187875e-01 -1.517231e-01 -1.675653e-01 3.186921e-01 -1.032830e-01 3.208715e-03 -1.245145e-01 -9.454438e-02 7.454495e-01 1.177382e-01 -5.638182e-02 4.782841e-02 -8.065680e-02 -2.472282e-02 -6.356660e-02 -2.625065e-02 1.180270e-02 -2.526180e-02 2.159734e-02 -3.805803e-02 2.728214e-03 3.465719e-02
<VARIANCE> 39
 1.239350e+02 9.326881e+01 6.481821e+01 9.562053e+01 6.049548e+01 5.657086e+01 5.480392e+01 5.008425e+01 4.914367e+01 3.600889e+01 5.758591e+01 2.695450e+01 2.658269e+02 5.370874e+00 4.623186e+00 2.588938e+00 3.129044e+00 3.709603e+00 2.759697e+00 2.646528e+00 3.090580e+00 2.630443e+00 2.383868e+00 2.569609e+00 1.958500e+00 4.984552e+00 6.966566e-01 6.950150e-01 4.460694e-01 5.025513e-01 5.298049e-01 5.439732e-01 4.820749e-01 5.664724e-01 4.798635e-01 4.500161e-01 4.608459e-01 3.767788e-01 6.789643e-01
<GCONST> 1.325852e+02
<STATE> 3
<MEAN> 39
 -7.073718e+00 2.158032e+00 9.845679e-01 -1.604570e+00 -4.716318e+00 -3.224090e+00 -8.261901e-01 2.883016e+00 -1.555785e+00 -2.714705e+00 -1.968537e+00 -2.314318e+00 6.041951e+01 5.900542e-01 -5.000306e-01 1.882411e-01 -2.969744e-01 -2.546795e-01 -2.731833e-01 -1.850513e-01 1.923062e-01 -1.560933e-01 -5.543456e-03 -2.483171e-01 -2.545928e-02 5.077462e-01 7.458749e-02 -3.766921e-02 5.320508e-02 -1.119344e-01 1.069190e-02 -7.246362e-02 -2.704105e-02 -3.779737e-02 -3.321370e-02 -9.859290e-03 -7.424423e-02 3.730359e-02 -1.501420e-02
<VARIANCE> 39
 1.440422e+02 1.123751e+02 6.481821e+01 9.562053e+01 6.986444e+01 5.657086e+01 5.480392e+01 5.259762e+01 4.914367e+01 3.600889e+01 5.758591e+01 2.695450e+01 2.658269e+02 5.392712e+00 4.768446e+00 2.746218e+00 3.156562e+00 3.241792e+00 3.288522e+00 2.646528e+00 3.163073e+00 2.630443e+00 2.383868e+00 2.569609e+00 1.958500e+00 4.984552e+00 6.975993e-01 7.199562e-01 4.321819e-01 5.289559e-01 5.023983e-01 6.081466e-01 4.820749e-01 5.094576e-01 4.798635e-01 4.500161e-01 4.668449e-01 3.767788e-01 6.789643e-01
<GCONST> 1.333027e+02
<STATE> 4
<MEAN> 39
 -5.355189e+00 2.230314e+00 3.376343e+00 -4.526937e+00 -4.735713e+00 -5.237412e+00 -1.737665e+00 1.985562e-01 -2.629674e+00 -3.119043e+00 -4.033615e+00 -1.921433e+00 6.165421e+01 5.651064e-01 -6.409058e-01 2.291615e-01 -6.564790e-01 -1.228911e-01 -3.978727e-01 -1.652466e-01 1.350477e-01 -2.584729e-01 -5.195798e-02 -4.510550e-01 1.331682e-01 3.554035e-01 -5.389847e-02 -4.457516e-02 3.935083e-03 -3.112184e-02 1.490155e-02 5.273210e-02 5.225375e-02 1.786376e-03 -6.401589e-02 -1.758404e-02 7.372510e-03 -1.095558e-02 -2.704215e-02
<VARIANCE> 39
 1.215973e+02 1.076750e+02 6.962768e+01 9.562053e+01 6.049548e+01 5.679753e+01 5.480392e+01 5.587097e+01 4.914367e+01 3.600889e+01 5.949840e+01 2.695450e+01 2.658269e+02 6.236785e+00 6.470786e+00 3.536770e+00 7.028409e+00 3.228752e+00 4.311985e+00 3.029736e+00 2.980402e+00 2.991812e+00 2.383868e+00 5.167064e+00 2.205776e+00 4.984552e+00 8.532324e-01 7.784219e-01 5.178319e-01 8.364410e-01 5.434220e-01 7.052656e-01 5.980155e-01 5.089008e-01 4.883207e-01 4.500161e-01 7.798699e-01 4.065252e-01 6.789643e-01
<GCONST> 1.378744e+02
<TRANSP> 5
 0.000000e+00 1.000000e+00 0.000000e+00 0.000000e+00 0.000000e+00
 0.000000e+00 7.321174e-01 2.678826e-01 0.000000e+00 0.000000e+00
 0.000000e+00 0.000000e+00 7.429245e-01 2.570756e-01 0.000000e+00
 0.000000e+00 0.000000e+00 0.000000e+00 8.735487e-01 1.264512e-01
 0.000000e+00 0.000000e+00 0.000000e+00 0.000000e+00 0.000000e+00
<ENDHMM>
~h "er"
<BEGINHMM>
<NUMSTATES> 5
<STATE> 2
<MEAN> 39
 2.686744e+00 3.638459e+00 2.914899e+00 1.959184e+00 3.596788e+00 2.131128e-02 2.205072e+00 3.221763e+00 -3.793597e-03 -3.735727e+00 -2.187654e+00 -1.135217e+00 4.351040e+01 -1.020864e-01 3.357190e-01 -1.301263e-01 -6.147024e-02 9.630199e-02 8.779157e-02 1.161058e-01 -3.987404e-02 -7.477983e-03 -1.031024e-01 1.681223e-01 8.380797e-02 -4.554397e-01 2.867754e-03 1.063935e-02 3.611145e-02 -3.194755e-02 -1.927750e-02 -1.733620e-02 -7.876394e-02 -2.983286e-02 -7.102171e-03 4.882081e-02 -2.422317e-02 -1.285088e-02 2.495752e-02
<VARIANCE> 39
 5.621860e+01 7.691803e+01 6.481821e+01 9.562053e+01 6.049548e+01 5.657086e+01 5.480392e+01 5.008425e+01 4.914367e+01 3.600889e+01 5.758591e+01 2.695450e+01 2.658269e+02 2.237194e+00 2.592087e+00 2.314184e+00 3.129044e+00 2.833982e+00 2.664105e+00 2.646528e+00 2.741223e+00 2.630443e+00 2.383868e+00 2.569609e+00 1.958500e+00 4.984552e+00 3.580279e-01 4.174158e-01 3.847587e-01 5.025513e-01 4.999610e-01 4.797978e-01 4.820749e-01 5.089008e-01 4.798635e-01 4.500161e-01 4.608459e-01 3.767788e-01 6.789643e-01
<GCONST> 1.279968e+02
<STATE> 3
<MEAN> 39
 1.851396e+00 5.070702e+00 2.751114e+00 1.327298e+00 3.762667e+00 2.461150e-01 1.850235e+00 2.861296e+00 -3.925323e-03 -3.757749e+00 -1.661555e+00 -9.408567e-01 4.155002e+01 -1.698638e-01 3.753148e-01 4.457147e-02 -1.064226e-01 2.642512e-02 7.030138e-02 -5.400466e-02 -1.016624e-01 -1.969476e-02 2.088833e-02 1.262345e-01 -7.715218e-04 -3.814722e-01 -2.142620e-02 -3.033431e-04 3.244973e-02 -3.440181e-04 -2.082840e-02 -1.850430e-03 -2.042430e-02 -1.693917e-02 2.246327e-03 2.624251e-02 -6.359468e-04 -1.239005e-02 1.760069e-02
<VARIANCE> 39
 5.621860e+01 7.408064e+01 6.481821e+01 9.562053e+01 6.049548e+01 5.657086e+01 5.480392e+01 5.008425e+01 4.914367e+01 3.600889e+01 5.758591e+01 2.695450e+01 2.658269e+02 2.237194e+00 2.592087e+00 2.314184e+00 3.129044e+00 2.833982e+00 2.664105e+00 2.646528e+00 2.741223e+00 2.630443e+00 2.383868e+00 2.569609e+00 1.958500e+00 4.984552e+00 3.580279e-01 4.174158e-01 3.847587e-01 5.025513e-01 4.999610e-01 4.797978e-01 4.820749e-01 5.089008e-01 4.798635e-01 4.500161e-01 4.608459e-01 3.767788e-01 6.789643e-01
<GCONST> 1.279592e+02
<STATE> 4
<MEAN> 39
 -4.241791e+00 2.791725e+00 1.181087e+00 -1.614394e+00 1.257117e+00 -1.519574e+00 2.861464e-02 1.779403e+00 -1.442667e+00 -3.466613e+00 -2.711892e-02 -5.395570e-01 3.814286e+01 -1.356745e-01 2.596374e-02 -4.510671e-02 -1.185961e-02 -2.777021e-02 -2.336836e-02 2.242901e-02 -1.469562e-02 -1.482263e-03 1.845724e-02 1.727833e-02 1.560242e-04 8.795686e-02 -8.719686e-03 2.619695e-03 -4.725875e-03 -2.018574e-04 9.098854e-04 -5.113653e-03 4.229404e-03 -6.572278e-04 -9.448026e-04 3.237321e-03 -7.131786e-04 -1.027790e-04 2.746217e-02
<VARIANCE> 39
 5.621860e+01 7.408064e+01 6.481821e+01 9.562053e+01 6.049548e+01 5.657086e+01 5.480392e+01 5.008425e+01 4.914367e+01 3.600889e+01 5.758591e+01 2.695450e+01 2.658269e+02 2.237194e+00 2.592087e+00 2.314184e+00 3.129044e+00 2.833982e+00 2.664105e+00 2.646528e+00 2.741223e+00 2.630443e+00 2.383868e+00 2.569609e+00 1.958500e+00 4.984552e+00 3.580279e-01 4.174158e-01 3.847587e-01 5.025513e-01 4.999610e-01 4.797978e-01 4.820749e-01 5.089008e-01 4.798635e-01 4.500161e-01 4.608459e-01 3.767788e-01 6.789643e-01
<GCONST> 1.279592e+02
<TRANSP> 5
 0.000000e+00 1.000000e+00 0.000000e+00 0.000000e+00 0.000000e+00
 0.000000e+00 8.222311e-01 1.777689e-01 0.000000e+00 0.000000e+00
 0.000000e+00 0.000000e+00 8.120753e-01 1.879247e-01 0.000000e+00
 0.000000e+00 0.000000e+00 0.000000e+00 9.814768e-01 1.852320e-02
 0.000000e+00 0.000000e+00 0.000000e+00 0.000000e+00 0.000000e+00
<ENDHMM>
~h "ey"
<BEGINHMM>
<NUMSTATES> 5
<STATE> 2
<MEAN> 39
 -1.402762e+00 6.884359e+00 7.135382e+00 -2.665009e+00 -1.462521e+00 -6.441218e-01 4.214771e-01 -1.305473e-02 -1.422384e+00 -1.267380e+00 -2.214527e-02 -1.282377e-01 4.349691e+01 1.631331e-01 2.530722e-01 -7.407150e-03 2.675446e-01 9.142774e-02 1.835550e-01 3.993840e-02 5.963910e-02 1.607538e-01 6.917369e-02 2.411514e-02 -1.374048e-03 -5.255083e-01 -1.679675e-02 -3.353643e-02 -2.293343e-02 -2.060483e-02 1.326330e-03 -3.140411e-02 -2.608163e-02 -5.119035e-03 -6.150855e-02 -4.306244e-02 -4.769732e-02 -3.845808e-02 4.339617e-02
<VARIANCE> 39
 5.621860e+01 7.408064e+01 6.733998e+01 9.562053e+01 7.558701e+01 5.657086e+01 5.480392e+01 5.008425e+01 4.914367e+01 3.600889e+01 5.758591e+01 2.695450e+01 2.658269e+02 2.237194e+00 2.592087e+00 2.314184e+00 3.129044e+00 2.833982e+00 2.664105e+00 2.646528e+00 2.741223e+00 2.630443e+00 2.383868e+00 2.569609e+00 1.958500e+00 4.984552e+00 3.580279e-01 4.174158e-01 3.847587e-01 5.025513e-01 4.999610e-01 4.797978e-01 4.820749e-01 5.089008e-01 4.798635e-01 4.500161e-01 4.608459e-01 3.767788e-01 6.789643e-01
<GCONST> 1.282201e+02
<STATE> 3
<MEAN> 39
 -1.040045e+00 7.400780e+00 7.053661e+00 -2.085735e+00 -1.468279e+00 -3.874722e-01 1.895504e-01 3.108585e-02 -1.291491e+00 -1.081399e+00 -2.061566e-01 -4.367060e-01 4.208451e+01 8.637020e-02 1.555099e-01 -5.624631e-02 2.043254e-01 6.689633e-02 7.549094e-02 4.127917e-03 4.726909e-02 6.583697e-02 -2.632961e-02 -4.733343e-02 -6.128818e-02 -3.737457e-01 -1.716637e-02 -2.248479e-02 -1.908071e-02 -1.851372e-02 7.919421e-03 -2.892858e-02 -1.021169e-02 -3.448727e-03 -1.604703e-02 -2.912463e-02 -1.493374e-02 -4.298122e-03 4.396301e-02
<VARIANCE> 39
 5.621860e+01 7.408064e+01 6.588537e+01 9.562053e+01 6.907304e+01 5.657086e+01 5.480392e+01 5.008425e+01 4.914367e+01 3.600889e+01 5.758591e+01 2.695450e+01 2.658269e+02 2.237194e+00 2.592087e+00 2.314184e+00 3.129044e+00 2.833982e+00 2.664105e+00 2.646528e+00 2.741223e+00 2.630443e+00 2.383868e+00 2.569609e+00 1.958500e+00 4.984552e+00 3.580279e-01 4.174158e-01 3.847587e-01 5.025513e-01 4.999610e-01 4.797978e-01 4.820749e-01 5.089008e-01 4.798635e-01 4.500161e-01 4.608459e-01 3.767788e-01 6.789643e-01
<GCONST> 1.281082e+02
<STATE> 4
<MEAN> 39
 -3.056273e+00 7.382468e+00 3.807803e+00 -4.314547e-01 -2.454219e-01 -1.812721e-01 2.780459e-01 3.791770e-01 -2.229389e-01 -1.205306e+00 3.201456e-01 -6.174939e-01 3.521473e+01 -5.168627e-02 -1.221441e-02 -9.578035e-03 1.322698e-02 9.265680e-03 -6.518586e-03 -1.929466e-02 -9.912292e-03 7.265814e-03 4.981309e-04 -1.490771e-02 -2.640308e-02 -3.145713e-02 -6.841443e-03 -1.126876e-02 -6.370054e-03 -7.369567e-03 3.696723e-03 -7.629011e-03 -4.494856e-03 -6.209305e-03 -6.242123e-03 -5.787767e-03 -5.509316e-03 -5.101898e-03 2.491016e-02
<VARIANCE> 39
 5.621860e+01 7.408064e+01 6.481821e+01 9.562053e+01 6.049548e+01 5.657086e+01 5.480392e+01 5.008425e+01 4.914367e+01 3.600889e+01 5.758591e+01 2.695450e+01 2.658269e+02 2.237194e+00 2.592087e+00 2.314184e+00 3.129044e+00 2.833982e+00 2.664105e+00 2.646528e+00 2.741223e+00 2.630443e+00 2.383868e+00 2.569609e+00 1.958500e+00 4.984552e+00 3.580279e-01 4.174158e-01 3.847587e-01 5.025513e-01 4.999610e-01 4.797978e-01 4.820749e-01 5.089008e-01 4.798635e-01 4.500161e-01 4.608459e-01 3.767788e-01 6.789643e-01
<GCONST> 1.279592e+02
<TRANSP> 5
 0.000000e+00 1.000000e+00 0.000000e+00 0.000000e+00 0.000000e+00
 0.000000e+00 7.087044e-01 2.912956e-01 0.000000e+00 0.000000e+00
 0.000000e+00 0.000000e+00 7.027341e-01 2.972659e-01 0.000000e+00
 0.000000e+00 0.000000e+00 0.000000e+00 9.658395e-01 3.416050e-02
 0.000000e+00 0.000000e+00 0.000000e+00 0.000000e+00 0.000000e+00
<ENDHMM>
~h "hh"
<BEGINHMM>
<NUMSTATES> 5
<STATE> 2
<MEAN> 39
 2.753601e-01 7.645172e-02 4.515792e+00 -2.820898e+00 -4.035925e+00 -2.675607e+00 -7.910959e+00 -3.515272e+00 -3.588833e+00 -9.843096e-01 -1.996927e+00 -4.112802e+00 5.940182e+01 5.844427e-02 -3.730503e-02 -9.159264e-02 -6.663800e-02 1.139683e-01 4.071661e-03 -6.434271e-02 -5.490671e-02 -1.009776e-01 6.660458e-02 -1.932066e-04 1.906262e-02 1.150581e-01 3.262475e-02 -1.962652e-02 -7.016960e-04 -2.974430e-02 -1.609624e-02 6.385148e-03 5.596423e-04 -1.132638e-03 -3.718845e-03 9.965412e-03 -4.822817e-03 -3.307717e-03 -1.893169e-02
<VARIANCE> 39
 8.355234e+01 7.408064e+01 6.481821e+01 9.995741e+01 1.077959e+02 5.947452e+01 8.212341e+01 7.094213e+01 6.270663e+01 4.178300e+01 6.043518e+01 3.782081e+01 2.658269e+02 4.790024e+00 5.654790e+00 5.036297e+00 5.068010e+00 8.340339e+00 5.987351e+00 4.988427e+00 5.021699e+00 4.681405e+00 4.190983e+00 3.968976e+00 3.664538e+00 1.118953e+01 8.004093e-01 9.298710e-01 9.432880e-01 7.869446e-01 1.541012e+00 1.162121e+00 8.942935e-01 9.488341e-01 8.221825e-01 8.251863e-01 6.798952e-01 7.247052e-01 1.716773e+00
<GCONST> 1.488171e+02
<STATE> 3
<MEAN> 39
 -2.371910e+00 2.409326e-01 1.884217e+00 -8.107668e+00 -2.166511e-01 -2.847445e+00 -6.202324e+00 -7.345518e-01 -5.692266e+00 -5.585465e-01 -1.232823e+00 -1.800281e+00 6.128729e+01 3.319089e-01 -8.109586e-02 -1.268223e-01 -4.954325e-01 7.399091e-02 2.291912e-02 3.967610e-02 1.172287e-02 -2.116257e-01 9.427694e-02 2.370760e-02 4.899064e-02 5.084705e-02 1.677842e-02 -4.227359e-03 5.675250e-03 -2.271398e-02 -1.264956e-02 3.419183e-03 1.803126e-02 -7.085213e-03 -2.122065e-03 -1.827602e-02 -5.573507e-03 -3.964086e-03 -1.629374e-03
<VARIANCE> 39
 1.057822e+02 7.408064e+01 6.481821e+01 1.178656e+02 9.874912e+01 6.480727e+01 1.336419e+02 6.085235e+01 6.984519e+01 4.985765e+01 6.644791e+01 3.262885e+01 2.658269e+02 5.558233e+00 4.855791e+00 4.549876e+00 6.256997e+00 6.713140e+00 4.383217e+00 4.819548e+00 3.915365e+00 4.673295e+00 3.756099e+00 4.253950e+00 2.792955e+00 1.118839e+01 6.918681e-01 7.209151e-01 8.636670e-01 9.119964e-01 1.063275e+00 7.684810e-01 7.501612e-01 7.366477e-01 7.521845e-01 6.323804e-01 7.282630e-01 5.413584e-01 1.875785e+00
<GCONST> 1.467170e+02
<STATE> 4
<MEAN> 39
 -2.243642e+00 9.810382e-01 4.861820e-02 -1.180033e+01 1.593284e+00 -4.735632e+00 -3.806872e+00 -2.718791e+00 -5.758621e+00 -8.273329e-01 -2.308142e+00 2.895868e-02 5.825260e+01 3.769286e-02 1.003444e-01 -8.455230e-02 -1.539043e-01 6.485467e-02 1.705738e-02 3.791121e-02 -1.501179e-02 -3.741544e-02 5.302249e-02 -3.199288e-02 2.179801e-02 -1.364893e-01 -7.566065e-03 -3.177263e-04 3.009542e-03 2.997883e-02 -1.334730e-02 5.559851e-04 1.064177e-03 6.111966e-03 2.214384e-02 -3.472577e-03 4.388624e-03 -3.021058e-03 -1.610625e-02
<VARIANCE> 39
 1.033908e+02 1.064425e+02 6.481821e+01 1.676021e+02 1.028896e+02 9.164841e+01 9.069408e+01 5.867112e+01 6.139275e+01 7.284572e+01 5.758591e+01 3.070601e+01 2.658269e+02 4.793708e+00 5.520023e+00 3.498117e+00 7.103642e+00 6.468329e+00 4.059182e+00 3.308923e+00 3.994334e+00 3.772965e+00 3.686586e+00 3.564525e+00 2.213111e+00 7.731468e+00 6.752992e-01 8.788719e-01 6.498780e-01 9.316207e-01 1.053334e+00 7.375258e-01 5.934884e-01 7.218107e-01 6.268054e-01 6.243883e-01 6.494986e-01 4.344886e-01 1.205256e+00
<GCONST> 1.444147e+02
<TRANSP> 5
 0.000000e+00 1.000000e+00 0.000000e+00 0.000000e+00 0.000000e+00
 0.000000e+00 9.734985e-01 2.650149e-02 0.000000e+00 0.000000e+00
 0.000000e+00 0.000000e+00 9.074723e-01 9.252775e-02 0.000000e+00
 0.000000e+00 0.000000e+00 0.000000e+00 9.833004e-01 1.669955e-02
 0.000000e+00 0.000000e+00 0.000000e+00 0.000000e+00 0.000000e+00
<ENDHMM>
~h "ih"
<BEGINHMM>
<NUMSTATES> 5
<STATE> 2
<MEAN> 39
 -2.232530e+00 2.020754e+00 1.219834e+01 -7.363045e+00 -7.268213e+00 -5.214388e+00 -4.506879e+00 -3.403301e+00 -6.291898e+00 -1.785331e+00 -4.590116e+00 -2.560152e+00 5.682440e+01 1.984747e-01 -8.819461e-02 2.186868e-01 -9.368030e-02 3.601428e-02 1.469001e-01 -9.480742e-02 1.815085e-02 9.395862e-02 -5.613738e-02 -1.388711e-01 3.639589e-02 -4.733503e-01 -9.613132e-02 6.081348e-02 -9.980427e-02 5.853553e-02 9.668437e-02 6.118683e-02 4.500294e-02 1.519960e-02 5.413584e-02 9.180128e-03 1.815779e-02 2.585351e-02 -7.232644e-02
<VARIANCE> 39
 5.621860e+01 7.408064e+01 1.070312e+02 9.786149e+01 7.983168e+01 7.333184e+01 5.794122e+01 8.913434e+01 5.774179e+01 4.068211e+01 8.593948e+01 3.346073e+01 2.658269e+02 2.632580e+00 2.888332e+00 4.878551e+00 5.383460e+00 4.107183e+00 3.903473e+00 4.030217e+00 3.394833e+00 3.146868e+00 2.693781e+00 4.222707e+00 2.021271e+00 8.042286e+00 4.764917e-01 4.745130e-01 6.379067e-01 7.741006e-01 6.579493e-01 6.309215e-01 6.747651e-01 6.124982e-01 4.854334e-01 4.845051e-01 6.359894e-01 3.784166e-01 1.046117e+00
<GCONST> 1.380734e+02
<STATE> 3
<MEAN> 39
 -1.994070e+00 1.913562e+00 1.168668e+01 -7.225220e+00 -6.553284e+00 -4.808187e+00 -4.335030e+00 -2.983936e+00 -5.420837e+00 -1.549443e+00 -4.835311e+00 -1.904120e+00 5.481508e+01 3.944669e-02 8.605602e-02 -1.888730e-01 1.847346e-01 2.599464e-01 2.020025e-01 6.703625e-02 8.670904e-02 2.169270e-01 -3.096744e-03 4.585131e-02 1.064106e-01 -6.017494e-01 -2.733687e-02 4.633414e-02 -4.914579e-02 3.341744e-02 4.481888e-02 1.627552e-02 3.422585e-03 -1.092057e-02 6.013580e-03 1.157386e-02 1.565449e-02 7.912304e-03 -7.498618e-03
<VARIANCE> 39
 5.621860e+01 7.408064e+01 9.762753e+01 9.562053e+01 7.853886e+01 6.350698e+01 5.641667e+01 9.370948e+01 5.504320e+01 4.180851e+01 8.520454e+01 3.105311e+01 2.658269e+02 2.354485e+00 2.592087e+00 3.331245e+00 3.652138e+00 3.522546e+00 3.309091e+00 3.225548e+00 3.162890e+00 2.671493e+00 2.617442e+00 3.624959e+00 2.098562e+00 7.464325e+00 4.450231e-01 4.436747e-01 5.442646e-01 6.177106e-01 6.069694e-01 5.667939e-01 5.913113e-01 5.764084e-01 4.798635e-01 4.711823e-01 6.180149e-01 4.120045e-01 1.042229e+00
<GCONST> 1.348465e+02
<STATE> 4
<MEAN> 39
 -2.190368e+00 2.225860e+00 1.174125e+01 -9.109123e+00 -5.969741e+00 -5.586524e+00 -4.380305e+00 -4.220992e+00 -5.302787e+00 -3.974770e-01 -7.040293e+00 -1.899631e-01 5.352719e+01 -1.807702e-04 1.795392e-01 -3.500876e-01 4.204198e-01 3.024554e-01 2.616915e-01 1.489907e-01 1.798098e-01 2.551259e-01 -2.931081e-02 2.431844e-01 4.742253e-02 -7.535776e-01 -4.294715e-02 2.365734e-02 -3.753875e-02 2.050985e-02 2.827708e-02 2.083062e-02 8.029346e-03 7.592370e-03 1.524317e-02 1.006487e-02 3.948172e-02 -1.957508e-02 -1.300259e-03
<VARIANCE> 39
 5.621860e+01 7.408064e+01 8.689462e+01 1.119238e+02 6.703335e+01 6.110287e+01 5.480392e+01 9.236312e+01 4.924334e+01 5.025430e+01 8.816342e+01 3.059967e+01 2.658269e+02 2.237194e+00 2.592087e+00 2.513262e+00 3.129044e+00 2.988229e+00 2.717252e+00 2.788319e+00 2.930576e+00 2.630443e+00 2.785945e+00 3.334522e+00 2.146111e+00 5.256557e+00 3.580279e-01 4.174158e-01 4.022112e-01 5.043368e-01 5.310584e-01 4.797978e-01 5.072110e-01 5.287107e-01 4.798635e-01 4.974949e-01 5.817521e-01 4.038022e-01 6.926983e-01
<GCONST> 1.315447e+02
<TRANSP> 5
 0.000000e+00 1.000000e+00 0.000000e+00 0.000000e+00 0.000000e+00
 0.000000e+00 6.825609e-01 3.174392e-01 0.000000e+00 0.000000e+00
 0.000000e+00 0.000000e+00 6.744635e-01 3.255365e-01 0.000000e+00
 0.000000e+00 0.000000e+00 0.000000e+00 8.084821e-01 1.915179e-01
 0.000000e+00 0.000000e+00 0.000000e+00 0.000000e+00 0.000000e+00
<ENDHMM>
~h "iy"
<BEGINHMM>
<NUMSTATES> 5
<STATE> 2
<MEAN> 39
 -9.843645e-01 4.123124e+00 1.730466e+01 -6.473738e+00 -9.162844e+00 -1.758940e+00 -8.016577e+00 -4.265133e+00 -9.085592e+00 -1.385722e+00 -3.379472e+00 -4.061484e+00 5.724088e+01 -1.039436e-01 2.106042e-01 3.763957e-01 -7.289804e-02 -2.609864e-01 2.053140e-01 -6.992568e-02 -1.500699e-01 -1.002695e-01 5.931157e-02 5.323480e-02 2.265750e-02 -6.571066e-02 9.823021e-04 -1.989278e-02 -9.841590e-02 1.668423e-02 7.893262e-02 -1.376034e-02 3.136428e-02 3.342243e-02 7.552580e-02 3.963651e-03 -1.645551e-02 1.130000e-02 -2.483470e-02
<VARIANCE> 39
